SVM-light Version V6.02
0 # kernel type
3 # kernel parameter -d 
1 # kernel parameter -g 
1 # kernel parameter -s 
1 # kernel parameter -r 
empty# kernel parameter -u 
20 # highest feature index 
2408 # number of training documents 
441 # number of support vectors plus 1 
0.7086553 # threshold b, each following line is a SV (starting with alpha*y)
-6.1175333083221251863001444171175e-05 1:-1 2:-6 3:1.66789 4:5.29457 5:0.256028 6:0.215863 7:0.33397099 8:0.391857 9:0.21326999 10:0.21326999 11:15.9708 12:74.069099 13:0.66666698 14:0.90300101 15:0.83736497 16:4.6341901 17:-1 18:-6 19:-1 20:-6 #
6.1175333083221251863001444171175e-05 1:-1 2:2.6875 3:2.08096 4:0.739712 5:0.297001 6:0.13827001 7:0.097318701 8:0.37658101 9:0.039811499 10:0.039811499 11:9.1860304 12:85.401497 13:0.66666698 14:0.95135999 15:0.97357202 16:2.6712601 17:-1 18:2.6875 19:-1 20:2.6875 #
-2.2853617960890771146353905862725e-05 1:-1 2:-40.5 3:1.86059 4:0.71670097 5:0.42691201 6:0.42616299 7:0.631567 8:0.81894499 9:0.764121 10:0.289675 11:15.5956 12:78.2174 13:1 14:0.70519298 15:0.75913298 16:4.52601 17:-1 18:-40.5 19:-12 20:-217.5 #
6.1175333083221251863001444171175e-05 1:0 2:0 3:1.41363 4:0.203477 5:1.0445 6:0.102143 7:0.323208 8:1.30897 9:0.165397 10:0.165397 11:18.032801 12:80.169601 13:0.66666698 14:0.89211601 15:0.89017999 16:5.2278399 17:0 18:0 19:1 20:284 #
-6.1175333083221251863001444171175e-05 1:0 2:0 3:1.0113699 4:0.66762698 5:0.39840701 6:0.55079502 7:0.537893 8:0.364205 9:0.228607 10:0.152936 11:1.43422 12:87.788498 13:0.66666698 14:0.78917199 15:0.84739101 16:0.417503 17:0 18:0 19:1 20:298 #
6.1175333083221251863001444171175e-05 1:0 2:0 3:2.56652 4:3.3697901 5:0.91426599 6:0.62344402 7:0.119495 8:0.34026599 9:0.35079601 10:0.25982699 11:19.3102 12:70.303101 13:0.66666698 14:0.66360301 15:0.80859202 16:5.59478 17:0 18:0 19:-1 20:-283.625 #
-6.1175333083221251863001444171175e-05 1:0 2:0 3:1.1555001 4:0.41847101 5:2.2005601 6:0.34817499 7:0.216628 8:0.209406 9:0.25490099 10:0.113983 11:19.039301 12:80.117302 13:0.66666698 14:0.927486 15:0.948484 16:5.5170298 17:0 18:0 19:0 20:0 #
6.1175333083221251863001444171175e-05 1:0 2:0 3:1.45717 4:0.14810801 5:0.50621998 6:0.065480001 7:0.17286 8:1.60101 9:0.095529102 10:0.095529102 11:9.9211702 12:85.601997 13:0.66666698 14:0.90597802 15:0.92044902 16:2.8845201 17:0 18:0 19:1 20:288 #
-6.1175333083221251863001444171175e-05 1:1 2:5 3:3.75284 4:0.27660501 5:0.116208 6:0.0675354 7:0.32026201 8:0.143934 9:0.070034303 10:0.068750501 11:18.3743 12:81.756401 13:0.66666698 14:0.98767 15:0.98655701 16:5.3260102 17:1 18:5 19:1 20:5 #
6.1175333083221251863001444171175e-05 1:0 2:0 3:7.02458 4:0.322788 5:0.21869101 6:0.10874 7:0.071418598 8:0.281519 9:0.066607401 10:0.0434517 11:14.2589 12:87.704697 13:0.66666698 14:0.98546797 15:0.98882997 16:4.1401801 17:0 18:0 19:-2 20:-275 #
-6.1175333083221251863001444171175e-05 1:3 2:24.8333 3:2.0233901 4:0.52005202 5:0.67802602 6:0.071915001 7:0.17882399 8:0.338494 9:0.161112 10:0.085963301 11:20.166201 12:74.312599 13:0.66666698 14:0.97965997 15:0.98270702 16:5.8402901 17:3 18:24.8333 19:3 20:24.8333 #
-6.1175333083221251863001444171175e-05 1:-1 2:-60 3:1.06422 4:0.68370003 5:0.51226801 6:0.28073999 7:0.31424001 8:0.51523101 9:0.142891 10:0.142891 11:13.5644 12:85.2808 13:0.66666698 14:0.828076 15:0.888116 16:3.9394801 17:-1 18:-60 19:-2 20:-168 #
6.1175333083221251863001444171175e-05 1:0 2:0 3:1.9684 4:0.40619701 5:0.47054201 6:0.683927 7:0.35730001 8:0.99684 9:0.39756799 10:0.45163199 11:34.603699 12:71.625702 13:0.66666698 14:0.78925401 15:0.81639999 16:9.9210196 17:1 18:98 19:4 20:147 #
-6.1175333083221251863001444171175e-05 1:0 2:0 3:1.18141 4:0.41496301 5:2.25091 6:0.048621301 7:0.209934 8:0.91185802 9:0.104672 10:0.104672 11:15.0622 12:80.1119 13:0.66666698 14:0.91869402 15:0.93332303 16:4.3721099 17:0 18:0 19:2 20:291.5 #
6.1175333083221251863001444171175e-05 1:0 2:0 3:1.70822 4:0.69605398 5:0.95334202 6:0.32199499 7:0.33193401 8:0.73944402 9:0.24692 10:0.24692 11:22.502899 12:77.870796 13:0.66666698 14:0.77090698 15:0.84458798 16:6.50876 17:0 18:0 19:-1 20:-246 #
6.1175333083221251863001444171175e-05 1:0 2:0 3:1.4332401 4:1.23041 5:1.5740499 6:0.119054 7:0.094447903 8:0.19721501 9:0.117458 10:0.033010501 11:11.9446 12:80.521103 13:0.444444 14:0.96922499 15:0.98971403 16:3.47086 17:0 18:0 19:2 20:281.25 #
-6.1175333083221251863001444171175e-05 1:-3 2:-23.6667 3:1.23365 4:0.11458 5:0.61198097 6:0.434104 7:0.170717 8:1.2367899 9:0.153374 10:0.153374 11:13.9837 12:81.252098 13:0.66666698 14:0.82229698 15:0.88005298 16:4.0606699 17:-3 18:-23.6667 19:-3 20:-23.6667 #
6.1175333083221251863001444171175e-05 1:0 2:0 3:1.20022 4:1.87651 5:0.49471599 6:0.33120599 7:0.131043 8:0.68538398 9:0.20885 10:0.20885 11:20.873301 12:72.964401 13:0.444444 14:0.79459202 15:0.86983103 16:6.04284 17:0 18:0 19:1 20:276 #
-6.1175333083221251863001444171175e-05 1:0 2:0 3:1.26937 4:1.46741 5:0.421729 6:0.32738 7:0.29345801 8:0.208003 9:0.45660299 10:0.12804 11:15.1943 12:87.688004 13:0.66666698 14:0.87196499 15:0.91254801 16:4.4102402 17:0 18:0 19:1 20:289 #
-6.1175333083221251863001444171175e-05 1:1 2:51.125 3:1.26667 4:1.84025 5:1.50255 6:0.075068697 7:0.154264 8:0.813218 9:0.152078 10:0.139992 11:4.8522801 12:87.620201 13:0.66666698 14:0.88517201 15:0.863994 16:1.41211 17:1 18:51.125 19:-1 20:-221.438 #
6.1175333083221251863001444171175e-05 1:0 2:0 3:1.96127 4:0.321906 5:0.27214301 6:0.52078003 7:0.154414 8:0.35868001 9:0.177109 10:0.16264699 11:17.5392 12:82.445396 13:0.66666698 14:0.81579298 15:0.88976997 16:5.0858698 17:0 18:0 19:-2 20:-248 #
-6.1175333083221251863001444171175e-05 1:0 2:0 3:1.17217 4:0.64182299 5:0.172758 6:0.143904 7:0.42231899 8:0.46821901 9:0.31765199 10:0.27978501 11:18.483999 12:87.156197 13:1 14:0.811342 15:0.784509 16:5.3575401 17:0 18:0 19:-1 20:-62 #
-6.1175333083221251863001444171175e-05 1:0 2:0 3:1.95494 4:0.64603001 5:1.0514801 6:0.175657 7:0.234181 8:0.135176 9:0.111403 10:0.083756998 11:9.7121296 12:80.048401 13:0.66666698 14:0.92504001 15:0.93175501 16:2.82389 17:2 18:67 19:-1 20:-138 #
6.1175333083221251863001444171175e-05 1:0 2:0 3:1.15704 4:0.25155199 5:0.60715199 6:0.63418102 7:0.29501799 8:0.52825803 9:0.28684801 10:0.18405899 11:21.855101 12:65.161102 13:0.66666698 14:0.94667399 15:0.90210098 16:6.3236799 17:-1 18:-67.5 19:-1 20:-67.5 #
-6.1175333083221251863001444171175e-05 1:0 2:10 3:1.3832 4:0.64692003 5:2.63748 6:0.82814598 7:0.30586299 8:0.23514999 9:0.26130199 10:0.17131101 11:16.875999 12:73.448097 13:0.33333299 14:0.84565598 15:0.877828 16:4.89501 17:0 18:10 19:0 20:10 #
6.1175333083221251863001444171175e-05 1:1 2:34 3:1.36941 4:1.7074 5:0.372033 6:0.076348901 7:0.094282001 8:0.52685899 9:0.13260099 10:0.13260099 11:6.7869701 12:85.658699 13:0.66666698 14:0.79636401 15:0.87511599 16:1.9745899 17:1 18:34 19:-3 20:-220.5 #
-6.1175333083221251863001444171175e-05 1:0 2:0 3:1.8654 4:0.33471799 5:0.481769 6:0.094397902 7:0.264009 8:0.79802001 9:0.28545001 10:0.12371 11:18.563101 12:87.634201 13:0.66666698 14:0.81176603 15:0.936342 16:5.38026 17:0 18:0 19:0 20:0 #
-6.1175333083221251863001444171175e-05 1:-3 2:-21.6667 3:1.30959 4:0.91080803 5:0.28231701 6:0.085037403 7:0.080860399 8:0.2042 9:0.0498273 10:0.0498273 11:7.5589199 12:85.517403 13:0.66666698 14:0.92508298 15:0.95929497 16:2.1988599 17:-3 18:-21.6667 19:-2 20:272.33301 #
-6.1175333083221251863001444171175e-05 1:0 2:0 3:1.37817 4:2.85601 5:0.28534001 6:0.26146901 7:0.129759 8:0.67119098 9:0.19174699 10:0.18298499 11:18.566299 12:80.240799 13:0.66666698 14:0.80996299 15:0.87638998 16:5.3811798 17:0 18:0 19:-1 20:-112 #
6.1175333083221251863001444171175e-05 1:0 2:0 3:1.3498 4:1.15871 5:0.71398997 6:0.64463001 7:0.109976 8:0.51341498 9:0.32294101 10:0.18724599 11:11.838 12:83.153801 13:0.66666698 14:0.76700097 15:0.83623201 16:3.4400201 17:0 18:0 19:1 20:274.125 #
6.1175333083221251863001444171175e-05 1:0 2:0 3:1.16369 4:1.9754699 5:1.31076 6:0.194205 7:0.144124 8:0.50051099 9:0.118755 10:0.118755 11:9.7394896 12:80.487701 13:0.66666698 14:0.89236701 15:0.897798 16:2.83183 17:0 18:0 19:-4 20:-235.75 #
-3.6937187054620521099691180660907e-07 1:-1 2:-8 3:4.12748 4:4.2443099 5:3.64744 6:6.8396802 7:6.4723101 8:1007.89 9:5.19345 10:4.4948201 11:72.500801 12:17.1985 13:0.166667 14:0.94806802 15:0.969823 16:19.725401 17:-1 18:-8 19:1 20:150.33299 #
6.1175333083221251863001444171175e-05 1:0 2:0 3:1.2634701 4:5.3691502 5:1.5033 6:0.229166 7:0.216508 8:1.21606 9:0.197359 10:0.25419101 11:23.0749 12:76.630699 13:0.66666698 14:0.77079499 15:0.83775902 16:6.6719899 17:0 18:0 19:-3 20:-224.33299 #
-8.1240723532424858851271748383382e-06 1:0 2:0 3:2.95837 4:0.151529 5:1.06714 6:0.090844803 7:0.091240898 8:0.448073 9:0.083953999 10:0.074548699 11:18.9464 12:74.863098 13:0.66666698 14:0.97507501 15:0.98470497 16:5.4903402 17:-1 18:-97 19:1 20:129.25 #
6.1175333083221251863001444171175e-05 1:0 2:0 3:1.33814 4:1.57705 5:0.23484901 6:0.12418 7:0.14207201 8:0.46223599 9:0.123551 10:0.101567 11:2.3598299 12:89.053902 13:0.66666698 14:0.87257701 15:0.899333 16:0.68691599 17:1 18:90 19:1 20:90 #
6.1175333083221251863001444171175e-05 1:0 2:-44 3:1.42503 4:0.51210201 5:0.144641 6:0.0471517 7:0.054811899 8:0.34968901 9:0.051091801 10:0.051091801 11:7.6039 12:85.324699 13:1 14:0.94463497 15:0.95812398 16:2.21193 17:-3 18:-63.75 19:-6 20:-94.285698 #
6.1175333083221251863001444171175e-05 1:0 2:0 3:1.44115 4:2.10783 5:0.49698901 6:0.238315 7:0.50314498 8:1.81634 9:0.423875 10:0.268601 11:20.5294 12:67.262604 13:0.66666698 14:0.84618199 15:0.81463099 16:5.9443598 17:0 18:0 19:-1 20:-222.25 #
-6.1175333083221251863001444171175e-05 1:0 2:0 3:2.5632701 4:0.104612 5:0.435765 6:0.087831303 7:0.086733297 8:0.55886602 9:0.058768801 10:0.058768801 11:17.340799 12:75.244003 13:0.66666698 14:0.98769599 15:0.99047297 16:5.02881 17:-1 18:-63 19:-2 20:-99 #
6.1175333083221251863001444171175e-05 1:-1 2:-43.5 3:2.10355 4:1.44192 5:1.9672199 6:0.26532799 7:0.0331885 8:0.919837 9:0.121689 10:0.073995002 11:7.8317599 12:88.555298 13:0.66666698 14:0.85274601 15:0.93575603 16:2.27811 17:-1 18:-43.5 19:0 20:215.75 #
-6.1175333083221251863001444171175e-05 1:3 2:21.3333 3:1.46983 4:1.2772599 5:0.215565 6:0.141129 7:0.092825897 8:0.096583001 9:0.084885597 10:0.091665901 11:20.232401 12:78.449402 13:0.66666698 14:0.94659799 15:0.97801399 16:5.8592701 17:3 18:21.3333 19:3 20:21.3333 #
-6.1175333083221251863001444171175e-05 1:0 2:0 3:2.0464301 4:0.888107 5:0.183633 6:0.27834201 7:0.201032 8:0.836227 9:0.251885 10:0.108078 11:18.5525 12:79.482597 13:0.66666698 14:0.927109 15:0.94959497 16:5.3772101 17:0 18:0 19:0 20:0 #
6.1175333083221251863001444171175e-05 1:0 2:0 3:1.1662101 4:3.0737801 5:0.680803 6:0.83967102 7:0.284832 8:2.3612101 9:0.26846501 10:0.26846501 11:15.5072 12:77.4207 13:0.66666698 14:0.72736502 15:0.775024 16:4.5005002 17:0 18:0 19:8 20:264.28101 #
6.1175333083221251863001444171175e-05 1:-1 2:-5.5 3:1.69932 4:1.00199 5:0.97205198 6:0.17166799 7:0.068742096 8:0.82452703 9:0.0620883 10:0.0620883 11:13.5997 12:83.473701 13:0.66666698 14:0.96245801 15:0.96777898 16:3.9497001 17:-1 18:-5.5 19:-2 20:-96 #
6.1175333083221251863001444171175e-05 1:0 2:0 3:1.37385 4:0.63810402 5:0.82287103 6:0.13929801 7:0.353073 8:0.59984499 9:0.58635497 10:0.85219997 11:49.782799 12:61.710201 13:0.66666698 14:0.63327199 15:0.84418499 16:14.0406 17:0 18:0 19:0 20:0 #
6.1175333083221251863001444171175e-05 1:1 2:14 3:2.7309501 4:0.238096 5:0.40833601 6:0.039124198 7:0.267968 8:0.99229997 9:0.192908 10:0.072040901 11:4.7863498 12:88.1521 13:0.66666698 14:0.909823 15:0.93152303 16:1.39294 17:1 18:14 19:1 20:14 #
6.1175333083221251863001444171175e-05 1:1 2:52.5 3:2.83232 4:3.5460601 5:0.95539701 6:0.103578 7:0.084781498 8:1.20157 9:0.074479498 10:0.063939497 11:11.1725 12:87.332497 13:0.66666698 14:0.91649598 15:0.95571899 16:3.2472401 17:2 18:75 19:4 20:-120.75 #
6.1175333083221251863001444171175e-05 1:0 2:0 3:1.78626 4:1.4419399 5:0.140193 6:0.29393601 7:0.127648 8:0.85652697 9:0.129649 10:0.129649 11:18.694201 12:74.992203 13:0.66666698 14:0.97463799 15:0.93168497 16:5.4179201 17:0 18:0 19:1 20:252 #
-6.1175333083221251863001444171175e-05 1:0 2:0 3:1.3318 4:0.91928101 5:0.50488102 6:0.747392 7:0.29085901 8:0.60692 9:0.28128201 10:0.138107 11:3.24944 12:86.181198 13:0.33333299 14:0.79723102 15:0.86358798 16:0.94581097 17:0 18:0 19:-3 20:-215.83299 #
-6.1175333083221251863001444171175e-05 1:0 2:0 3:1.3793499 4:0.210838 5:0.75765097 6:0.065994903 7:0.24016599 8:0.56983697 9:0.45759901 10:0.248533 11:13.9416 12:67.510201 13:0.66666698 14:0.63771403 15:0.78726703 16:4.04849 17:0 18:0 19:0 20:0 #
-6.1175333083221251863001444171175e-05 1:0 2:0 3:2.2195401 4:0.27148899 5:0.098246999 6:0.14744499 7:0.218529 8:0.120793 9:0.146446 10:0.086034901 11:20.353001 12:84.848396 13:0.66666698 14:0.97184098 15:0.98356801 16:5.8937998 17:2 18:86.875 19:6 20:161.34399 #
6.1175333083221251863001444171175e-05 1:-2 2:-20 3:1.3107899 4:0.88798797 5:0.27242801 6:0.181723 7:0.30561599 8:1.12353 9:0.406324 10:0.87295198 11:53.229801 12:88.619202 13:1 14:0.57599801 15:0.80869001 16:14.9443 17:-4 18:-50 19:-7 20:-132.286 #
6.1175333083221251863001444171175e-05 1:0 2:0 3:1.27236 4:0.12745 5:0.036733199 6:0.020093 7:0.130803 8:0.11393 9:0.037864398 10:0.0232754 11:3.82459 12:81.072601 13:1 14:0.97005802 15:0.97900802 16:1.11316 17:0 18:0 19:4 20:249.5 #
-6.1175333083221251863001444171175e-05 1:-2 2:-11 3:1.33792 4:0.56313998 5:0.67065501 6:0.210526 7:0.228448 8:0.270309 9:0.108323 10:0.108323 11:17.556101 12:84.4711 13:0.444444 14:0.94349301 15:0.94267702 16:5.0907402 17:-2 18:-11 19:1 20:280.33301 #
6.1175333083221251863001444171175e-05 1:0 2:0 3:1.4506 4:1.5727201 5:0.802279 6:0.119202 7:0.40995499 8:0.281726 9:0.22119001 10:0.22119001 11:15.4079 12:77.748802 13:0.66666698 14:0.80215901 15:0.82142001 16:4.4718399 17:0 18:0 19:-2 20:-222 #
6.1175333083221251863001444171175e-05 1:0 2:0 3:1.2526 4:3.3910799 5:1.10909 6:0.123766 7:0.19201399 8:0.75583398 9:0.14237501 10:0.15154099 11:8.1153698 12:88.244102 13:0.66666698 14:0.84031701 15:0.85989702 16:2.3604701 17:0 18:0 19:-2 20:-232 #
6.1175333083221251863001444171175e-05 1:0 2:0 3:2.3034 4:0.85749203 5:0.39508399 6:0.189071 7:0.180347 8:1.32497 9:0.15973599 10:0.122091 11:15.4277 12:81.672096 13:0.66666698 14:0.93695003 15:0.91685998 16:4.47756 17:0 18:0 19:2 20:239.125 #
6.1175333083221251863001444171175e-05 1:1 2:6.5 3:2.01738 4:0.58261001 5:0.608325 6:0.234327 7:0.438701 8:0.63064498 9:0.46096 10:0.46096 11:38.834599 12:86.153198 13:0.66666698 14:0.82632101 15:0.82819402 16:11.0899 17:1 18:6.5 19:0 20:-171 #
6.1175333083221251863001444171175e-05 1:0 2:0 3:1.23623 4:1.00441 5:1.10721 6:0.0729867 7:0.17966899 8:0.64516199 9:0.082507499 10:0.082507499 11:10.7618 12:79.397598 13:0.66666698 14:0.91474801 15:0.93684697 16:3.1282401 17:0 18:0 19:0 20:0 #
-6.1175333083221251863001444171175e-05 1:1 2:38 3:1.48008 4:0.69219899 5:0.95354801 6:2.7409799 7:0.480037 8:0.41302499 9:0.52553397 10:0.213935 11:17.096399 12:68.919403 13:0.444444 14:0.62695098 15:0.84050602 16:4.9584398 17:1 18:38 19:1 20:38 #
6.1175333083221251863001444171175e-05 1:-1 2:-11 3:1.57768 4:0.94433498 5:0.423987 6:0.1653 7:0.14417601 8:1.97726 9:0.131798 10:0.131798 11:14.7418 12:86.577599 13:0.66666698 14:0.85194498 15:0.90473402 16:4.2796302 17:-1 18:-11 19:-8 20:-223.5 #
-6.1175333083221251863001444171175e-05 1:0 2:0 3:1.526 4:0.66432101 5:5.0531702 6:0.26044101 7:0.172451 8:0.43960899 9:0.18865199 10:0.18865199 11:18.8314 12:89.732399 13:0.66666698 14:0.81734902 15:0.87231398 16:5.4573398 17:0 18:0 19:0 20:0 #
-6.1175333083221251863001444171175e-05 1:0 2:0 3:1.67265 4:0.27646399 5:0.470741 6:1.64841 7:0.46370301 8:0.185605 9:0.398294 10:0.0954457 11:9.8249302 12:82.603699 13:0.444444 14:0.87361598 15:0.92136502 16:2.8566101 17:-1 18:-85.25 19:-1 20:-85.25 #
6.1175333083221251863001444171175e-05 1:1 2:22 3:1.44924 4:1.0993201 5:0.34735 6:0.36387599 7:0.42960599 8:0.968288 9:0.326188 10:1.16233 11:63.007 12:89.723198 13:0.66666698 14:0.771685 15:0.68454701 16:17.431499 17:1 18:22 19:1 20:22 #
-6.1175333083221251863001444171175e-05 1:0 2:0 3:1.27224 4:2.08182 5:0.74877501 6:0.97155899 7:0.209406 8:0.70818901 9:0.32589999 10:0.226744 11:18.602301 12:87.209396 13:0.33333299 14:0.775617 15:0.83928901 16:5.39151 17:0 18:0 19:0 20:0 #
-6.1175333083221251863001444171175e-05 1:0 2:0 3:1.32885 4:0.50905299 5:0.308532 6:0.20201901 7:0.25053099 8:0.34993801 9:0.37295601 10:0.343393 11:18.695299 12:86.5121 13:0.66666698 14:0.57876498 15:0.72329003 16:5.4182501 17:0 18:0 19:-2 20:-152.5 #
-6.1175333083221251863001444171175e-05 1:0 2:0 3:2.1972599 4:0.48023501 5:0.94332302 6:0.78961003 7:0.38125801 8:0.29446399 9:0.860901 10:0.16564301 11:17.377001 12:86.152901 13:0.444444 14:0.720357 15:0.88798398 16:5.0391998 17:0 18:0 19:0 20:0 #
6.1175333083221251863001444171175e-05 1:-2 2:-16 3:1.6813101 4:0.76145899 5:1.28356 6:0.117382 7:0.110795 8:1.29129 9:0.101081 10:0.094591498 11:8.4956999 12:81.489098 13:0.66666698 14:0.92444098 15:0.91754198 16:2.4709001 17:-2 18:-16 19:1 20:239.33299 #
-6.1175333083221251863001444171175e-05 1:0 2:0 3:2.3547201 4:0.397883 5:0.33060899 6:0.093804799 7:0.238442 8:0.45733899 9:0.16622899 10:0.16622899 11:19.0982 12:86.975304 13:0.66666698 14:0.92862999 15:0.89306301 16:5.5339398 17:0 18:0 19:2 20:-150.5 #
6.1175333083221251863001444171175e-05 1:0 2:0 3:2.2368701 4:1.69847 5:0.88079703 6:0.098899998 7:0.077775799 8:0.55389702 9:0.0901234 10:0.091185197 11:19.615601 12:88.954697 13:0.66666698 14:0.931189 15:0.97345197 16:5.6824002 17:0 18:0 19:-1 20:-220 #
-6.1175333083221251863001444171175e-05 1:0 2:0 3:3.1022601 4:0.33810699 5:0.61971301 6:1.16403 7:0.75791198 8:0.509085 9:0.684825 10:0.19183899 11:9.65592 12:87.075699 13:0.444444 14:0.82928503 15:0.82394999 16:2.80759 17:0 18:0 19:-3 20:-230.66701 #
-6.1175333083221251863001444171175e-05 1:-1 2:-5 3:1.44269 4:0.312464 5:0.17438699 6:0.069866598 7:0.168267 8:0.53946102 9:0.17932899 10:0.17932899 11:17.935499 12:89.448502 13:0.66666698 14:0.81994897 15:0.87572598 16:5.1998601 17:-1 18:-5 19:-1 20:-5 #
6.1175333083221251863001444171175e-05 1:0 2:0 3:1.65508 4:0.16042 5:0.202215 6:0.0743469 7:0.056437202 8:0.73592699 9:0.0444411 10:0.0444411 11:9.4240398 12:81.627098 13:0.66666698 14:0.98668498 15:0.96991301 16:2.74032 17:0 18:0 19:2 20:240 #
-6.1175333083221251863001444171175e-05 1:0 2:-6 3:6.6162801 4:0.094135299 5:0.080993198 6:0.047187299 7:0.052048899 8:0.18164299 9:0.050838999 10:0.050838999 11:17.202299 12:76.279099 13:0.66666698 14:0.99849498 15:0.997235 16:4.9889498 17:0 18:-6 19:0 20:-6 #
-6.1175333083221251863001444171175e-05 1:0 2:0 3:1.7859 4:2.1208401 5:0.41558099 6:0.28218201 7:0.50771701 8:0.52698499 9:0.139119 10:0.139119 11:12.1666 12:88.874496 13:0.66666698 14:0.90487897 15:0.88431799 16:3.53514 17:0 18:0 19:1 20:258.5 #
6.1175333083221251863001444171175e-05 1:1 2:32 3:2.03562 4:0.181159 5:0.159666 6:0.089814402 7:0.77295601 8:0.39430499 9:0.25070199 10:0.0975051 11:12.6363 12:73.495499 13:1 14:0.934605 15:0.928137 16:3.6710899 17:1 18:32 19:4 20:204.5 #
-6.1175333083221251863001444171175e-05 1:0 2:-4 3:2.4217401 4:4.0197601 5:0.116266 6:0.052399799 7:0.098512597 8:0.088764697 9:0.082123198 10:0.081365198 11:20.098801 12:89.993301 13:0.66666698 14:0.96546102 15:0.98632801 16:5.82096 17:-1 18:-40 19:0 20:15 #
6.1175333083221251863001444171175e-05 1:0 2:0 3:1.54109 4:0.653633 5:0.165167 6:0.19715101 7:0.26796401 8:0.70723301 9:0.260919 10:0.260919 11:29.385 12:82.640198 13:0.66666698 14:0.86852199 15:0.89977998 16:8.4607496 17:0 18:0 19:1 20:168 #
6.1175333083221251863001444171175e-05 1:0 2:0 3:2.86307 4:0.35027301 5:1.48532 6:0.44502199 7:0.141268 8:0.70607001 9:0.118376 10:0.118376 11:9.8112497 12:89.128899 13:0.444444 14:0.92824799 15:0.89663601 16:2.8526399 17:0 18:0 19:-4 20:-218.062 #
-6.1175333083221251863001444171175e-05 1:-2 2:-20 3:2.2920301 4:0.41136599 5:0.46161801 6:0.42540199 7:0.286019 8:0.143243 9:0.110556 10:0.118759 11:19.7523 12:83.695602 13:0.222222 14:0.92650801 15:0.94831401 16:5.7216301 17:-1 18:64 19:5 20:150.571 #
6.1175333083221251863001444171175e-05 1:1 2:8.5 3:2.38114 4:0.81491202 5:0.31750801 6:0.035765499 7:0.085645698 8:0.274699 9:0.0236676 10:0.0236676 11:10.2356 12:79.823502 13:0.66666698 14:0.98934698 15:0.992778 16:2.9756999 17:1 18:8.5 19:-3 20:-211.812 #
6.1175333083221251863001444171175e-05 1:0 2:0 3:1.24361 4:0.18573201 5:0.087093301 6:0.031517498 7:0.16968 8:0.69716698 9:0.051778 10:0.036992099 11:8.6379499 12:80.660103 13:0.66666698 14:0.95460999 15:0.97497201 16:2.5121901 17:0 18:0 19:2 20:216 #
6.1175333083221251863001444171175e-05 1:0 2:0 3:2.09517 4:1.9795001 5:0.64036602 6:0.20865899 7:0.100408 8:1.4307801 9:0.125763 10:0.134736 11:17.832001 12:86.0019 13:0.444444 14:0.91887498 15:0.92202598 16:5.1701102 17:0 18:0 19:1 20:202.5 #
-6.1175333083221251863001444171175e-05 1:1 2:6 3:1.55844 4:0.52934402 5:0.140624 6:0.26025301 7:0.415158 8:0.90791899 9:0.80842799 10:0.116968 11:15.9969 12:69.569298 13:0.66666698 14:0.79410303 15:0.92621499 16:4.6417098 17:1 18:6 19:1 20:6 #
-6.1175333083221251863001444171175e-05 1:0 2:0 3:1.31991 4:0.0864245 5:0.837174 6:0.16859099 7:0.339542 8:0.61655903 9:0.23406699 10:0.109557 11:18.306601 12:88.515503 13:0.66666698 14:0.93235701 15:0.94860798 16:5.30656 17:1 18:74 19:2 20:166.5 #
-6.1175333083221251863001444171175e-05 1:0 2:0 3:2.9751699 4:0 5:0 6:0 7:0 8:0 9:0.119308 10:0.119308 11:20.6115 12:89.549103 13:0.66666698 14:0.938833 15:0.95266902 16:5.9678702 17:0 18:0 19:2 20:258.5 #
6.1175333083221251863001444171175e-05 1:0 2:0 3:1.21456 4:0.89356899 5:0.65176302 6:0.185956 7:0.61993301 8:2.26057 9:0.83609003 10:0.165323 11:12.3441 12:51.011398 13:0.66666698 14:0.56549299 15:0.862589 16:3.5865099 17:0 18:0 19:-1 20:-176 #
-6.1175333083221251863001444171175e-05 1:0 2:0 3:1.98738 4:0.140605 5:1.08863 6:0.208593 7:0.76703799 8:0.408149 9:0.31073701 10:0.179498 11:6.8467598 12:83.623596 13:0.66666698 14:0.80288899 15:0.82783902 16:1.99196 17:0 18:0 19:1 20:210 #
-6.1175333083221251863001444171175e-05 1:0 2:0 3:1.64547 4:0.26945901 5:0.57953 6:0.164029 7:0.20439599 8:0.39575401 9:0.153422 10:0.083858401 11:11.9908 12:87.671303 13:0.66666698 14:0.92938 15:0.93959302 16:3.4842501 17:0 18:0 19:-2 20:-220 #
-6.1175333083221251863001444171175e-05 1:0 2:0 3:1.53034 4:0.229863 5:0.45875701 6:0.68381202 7:0.97017199 8:0.386724 9:1.6740299 10:0.12549099 11:18.1703 12:81.516197 13:0.66666698 14:0.93601602 15:0.93069601 16:5.2673802 17:0 18:0 19:0 20:0 #
-6.1175333083221251863001444171175e-05 1:0 2:0 3:3.11762 4:0.59330797 5:0.42599499 6:0.111489 7:0.111012 8:0.032329999 9:0.065329097 10:0.023661001 11:7.9818001 12:86.038101 13:0.444444 14:0.96190798 15:0.98632699 16:2.3216901 17:2 18:72 19:2 20:72 #
6.1175333083221251863001444171175e-05 1:0 2:0 3:1.12624 4:1.02722 5:1.37309 6:0.124081 7:0.28816301 8:0.48207799 9:0.393971 10:1.20301 11:58.333199 12:83.705498 13:0.66666698 14:0.67962402 15:0.83610302 16:16.257299 17:0 18:0 19:0 20:0 #
6.1175333083221251863001444171175e-05 1:1 2:32 3:2.8246 4:0.28316101 5:0.21309701 6:0.082638301 7:0.706747 8:1.02645 9:0.283061 10:0.283061 11:5.55619 12:84.825798 13:1 14:0.76089501 15:0.72284502 16:1.61682 17:1 18:32 19:4 20:204.5 #
-6.1175333083221251863001444171175e-05 1:0 2:0 3:1.22302 4:0.26116401 5:0.17188799 6:0.113951 7:0.450102 8:1.10707 9:0.32677299 10:0.10697 11:18.053301 12:81.416901 13:0.66666698 14:0.90721202 15:0.949063 16:5.2337399 17:0 18:0 19:0 20:0 #
6.1175333083221251863001444171175e-05 1:0 2:0 3:1.35929 4:0.14182299 5:0.51615798 6:0.342246 7:0.193592 8:0.30675301 9:0.31607699 10:0.30340001 11:15.3754 12:88.968201 13:0.66666698 14:0.73164201 15:0.74202597 16:4.4624801 17:0 18:0 19:-3 20:-192 #
6.1175333083221251863001444171175e-05 1:0 2:0 3:1.37001 4:0.220125 5:1.90753 6:0.069514297 7:0.341232 8:0.905321 9:0.169046 10:0.128039 11:8.5323696 12:81.436501 13:0.66666698 14:0.77816498 15:0.88401002 16:2.48155 17:0 18:0 19:5 20:195.2 #
-6.1175333083221251863001444171175e-05 1:1 2:11.5 3:1.33868 4:0.40496099 5:0.43610901 6:0.169641 7:0.475485 8:0.90083802 9:0.230143 10:0.230143 11:3.14043 12:89.017899 13:0.66666698 14:0.77853101 15:0.77139997 16:0.91408998 17:1 18:11.5 19:0 20:-138.5 #
6.1175333083221251863001444171175e-05 1:3 2:26.3333 3:1.98894 4:4.0062499 5:5.5188699 6:0.1644 7:0.28218001 8:1.46962 9:0.370233 10:0.370233 11:32.6978 12:58.280399 13:0.66666698 14:0.91223699 15:0.86812103 16:9.3899403 17:3 18:26.3333 19:3 20:26.3333 #
6.1175333083221251863001444171175e-05 1:1 2:16.75 3:1.35752 4:4.2424002 5:0.11975 6:0.0277934 7:0.24742401 8:0.75987703 9:0.064891301 10:0.064891301 11:3.67733 12:86.323898 13:0.66666698 14:0.907691 15:0.93731701 16:1.07032 17:1 18:16.75 19:0 20:-202.75 #
6.1175333083221251863001444171175e-05 1:-1 2:-56 3:1.88635 4:1.29303 5:1.21427 6:0.235443 7:0.28029799 8:0.51073301 9:0.12909999 10:0.12909999 11:13.2958 12:86.738403 13:0.66666698 14:0.88774598 15:0.89977401 16:3.86184 17:-1 18:-56 19:-1 20:-56 #
-6.1175333083221251863001444171175e-05 1:-4 2:-19.5 3:1.88671 4:0.216093 5:0.155889 6:0.293208 7:0.52129102 8:0.315826 9:0.56661701 10:0.073202603 11:16.013901 12:79.161598 13:0.444444 14:0.86283499 15:0.968988 16:4.6466298 17:-4 18:-19.5 19:-3 20:260.45001 #
-6.1175333083221251863001444171175e-05 1:0 2:0 3:1.3781 4:4.36766 5:0.49181101 6:0.16322701 7:0.446632 8:0.218824 9:0.38312799 10:0.33404499 11:20.4028 12:87.261497 13:0.66666698 14:0.61220998 15:0.73830301 16:5.9080701 17:0 18:0 19:0 20:0 #
6.1175333083221251863001444171175e-05 1:0 2:0 3:1.54242 4:0.31619501 5:1.73168 6:0.0839471 7:0.24918 8:1.4820499 9:0.0428815 10:0.0428815 11:8.5608902 12:89.7173 13:0.66666698 14:0.968207 15:0.968593 16:2.48982 17:1 18:82 19:2 20:135 #
-6.1175333083221251863001444171175e-05 1:2 2:16.75 3:2.7695799 4:0.69929498 5:0.249461 6:0.270798 7:0.28472 8:0.109138 9:0.54030198 10:0.097480796 11:18.180099 12:78.479401 13:0.222222 14:0.91700602 15:0.95712101 16:5.2701898 17:2 18:16.75 19:2 20:16.75 #
6.1175333083221251863001444171175e-05 1:-1 2:-11 3:1.21837 4:0.44278899 5:0.22080199 6:0.0534821 7:0.34690601 8:0.93839097 9:0.079672597 10:0.079672597 11:12.6694 12:77.332703 13:0.66666698 14:0.919375 15:0.947016 16:3.68064 17:-1 18:-11 19:0 20:182 #
6.1175333083221251863001444171175e-05 1:0 2:0 3:1.28046 4:0.53052503 5:0.37224999 6:0.149965 7:0.42526999 8:0.95858401 9:0.39649001 10:0.243212 11:11.6512 12:86.361198 13:0.66666698 14:0.842632 15:0.77970898 16:3.38591 17:0 18:0 19:1 20:196 #
6.1175333083221251863001444171175e-05 1:1 2:7.75 3:3.01963 4:0.43411899 5:0.212971 6:0.15305901 7:0.21844301 8:0.60680097 9:0.22562601 10:0.22562601 11:25.343201 12:78.866203 13:0.66666698 14:0.894813 15:0.88853198 16:7.3176098 17:1 18:7.75 19:-1 20:-148.875 #
6.1175333083221251863001444171175e-05 1:2 2:19.5 3:2.45789 4:0.23079 5:0.20550001 6:0.47455001 7:0.2069 8:0.97576499 9:0.40205699 10:0.40205699 11:33.544102 12:78.559898 13:0.66666698 14:0.89714003 15:0.78408003 16:9.6260796 17:2 18:19.5 19:1 20:-107.5 #
-6.1175333083221251863001444171175e-05 1:-3 2:-18 3:1.6135499 4:6.7683401 5:1.46582 6:0.470009 7:0.27004999 8:0.25362501 9:0.49450001 10:0.17992499 11:15.2563 12:71.678001 13:0.66666698 14:0.65707201 15:0.85985899 16:4.4281201 17:-2 18:72 19:-2 20:72 #
6.1175333083221251863001444171175e-05 1:0 2:0 3:1.48199 4:0.78285801 5:1.08867 6:0.238855 7:0.134593 8:0.47160801 9:0.111436 10:0.111436 11:5.2543402 12:87.005798 13:0.444444 14:0.86719698 15:0.89308703 16:1.52904 17:0 18:0 19:0 20:0 #
-6.1175333083221251863001444171175e-05 1:1 2:2.5 3:3.72297 4:0.28763399 5:0.0958433 6:0.32431501 7:0.093760803 8:0.204914 9:0.162782 10:0.079261199 11:17.735001 12:71.449402 13:0.33333299 14:0.96422398 15:0.97313797 16:5.1422 17:1 18:2.5 19:1 20:2.5 #
-6.1175333083221251863001444171175e-05 1:0 2:0 3:2.1807001 4:0.34946099 5:0.816356 6:0.391651 7:0.40875399 8:0.107971 9:0.14573801 10:0.14573801 11:19.718399 12:84.633904 13:0.222222 14:0.91307598 15:0.91990697 16:5.7118902 17:0 18:0 19:0 20:0 #
6.1175333083221251863001444171175e-05 1:0 2:0 3:1.56159 4:3.64253 5:0.21823899 6:0.116315 7:0.44480699 8:0.173977 9:0.156596 10:0.156596 11:19.219999 12:71.533699 13:1 14:0.90147501 15:0.91025603 16:5.5688901 17:0 18:0 19:1 20:170 #
6.1175333083221251863001444171175e-05 1:0 2:0 3:1.14247 4:0.59458202 5:0.93003899 6:0.499942 7:0.2227 8:0.41863999 9:0.37193501 10:0.290692 11:7.8001599 12:72.410599 13:0.66666698 14:0.69960099 15:0.72009498 16:2.26894 17:0 18:0 19:-1 20:-180 #
6.1175333083221251863001444171175e-05 1:1 2:4 3:2.29076 4:3.3226299 5:0.107139 6:0.240054 7:0.074882902 8:0.30678701 9:0.091342598 10:0.091342598 11:16.6712 12:84.664001 13:0.66666698 14:0.94649899 15:0.95445001 16:4.83602 17:1 18:4 19:0 20:-172 #
-6.1175333083221251863001444171175e-05 1:4 2:49.5 3:1.27943 4:5.90623 5:0.60300201 6:0.082248598 7:0.58766001 8:0.450645 9:0.30873901 10:0.253829 11:9.5619698 12:87.205803 13:0.66666698 14:0.61936498 15:0.76090503 16:2.7803299 17:4 18:49.5 19:3 20:-148.5 #
6.1175333083221251863001444171175e-05 1:-1 2:-8 3:1.14632 4:0.27472699 5:0.29618901 6:0.25657201 7:0.20787901 8:0.71161199 9:0.41561699 10:0.41561699 11:31.242201 12:77.9571 13:0.66666698 14:0.67409497 15:0.76968801 16:8.9825897 17:-1 18:-8 19:-1 20:-8 #
-6.1175333083221251863001444171175e-05 1:0 2:4 3:1.10471 4:0.313106 5:0.122565 6:0.111847 7:0.13056 8:0.50715798 9:0.100937 10:0.092723504 11:17.2155 12:88.446899 13:1 14:0.96641397 15:0.95828199 16:4.9927402 17:-1 18:-42.5 19:1 20:94.166702 #
6.1175333083221251863001444171175e-05 1:0 2:0 3:1.1411099 4:0.51294202 5:0.32655701 6:0.36451101 7:0.19225401 8:1.86395 9:0.20707899 10:0.20707899 11:3.55496 12:86.844704 13:0.66666698 14:0.76052701 15:0.79516798 16:1.03471 17:0 18:0 19:-1 20:-191.5 #
6.1175333083221251863001444171175e-05 1:1 2:45 3:2.4270999 4:7.7642498 5:1.1852 6:0.144274 7:0.20351 8:1.9937201 9:0.26286399 10:0.25646001 11:13.0975 12:80.573601 13:0.66666698 14:0.92070299 15:0.77914101 16:3.8044801 17:1 18:45 19:3 20:135.83299 #
-6.1175333083221251863001444171175e-05 1:0 2:0 3:1.78708 4:1.449 5:0.345965 6:0.288178 7:0.204741 8:0.67194301 9:0.224562 10:0.19971301 11:19.271799 12:86.540901 13:0.66666698 14:0.80183297 15:0.86267197 16:5.5837698 17:0 18:0 19:1 20:250 #
-6.1175333083221251863001444171175e-05 1:1 2:6 3:1.24835 4:0.40751499 5:0.122376 6:0.17028999 7:0.720622 8:0.39567801 9:0.144513 10:0.144513 11:17.0534 12:74.057198 13:0.66666698 14:0.87541902 15:0.90673798 16:4.9460602 17:1 18:6 19:1 20:6 #
-6.1175333083221251863001444171175e-05 1:0 2:0 3:1.37385 4:1.5008 5:0.54914898 6:0.28156099 7:0.63313198 8:0.83488899 9:0.94772202 10:0.29099399 11:10.2302 12:75.1493 13:0.66666698 14:0.71130198 15:0.72876602 16:2.9741299 17:0 18:0 19:2 20:216 #
-6.1175333083221251863001444171175e-05 1:2 2:25 3:3.6222799 4:0.068983302 5:0.083714299 6:0.087799497 7:0.093745999 8:0.32223701 9:0.065468997 10:0.065468997 11:19.5049 12:70.670502 13:1 14:0.99913502 15:0.99753797 16:5.6506701 17:2 18:25 19:2 20:25 #
-6.1175333083221251863001444171175e-05 1:-1 2:-8 3:1.64832 4:0.15453599 5:0.21162701 6:0.37578201 7:0.186947 8:0.748923 9:0.216181 10:0.162927 11:8.7805405 12:84.242104 13:0.444444 14:0.92002398 15:0.849563 16:2.55358 17:-1 18:-8 19:0 20:168 #
6.1175333083221251863001444171175e-05 1:0 2:0 3:1.50046 4:0.57612699 5:0.54623902 6:0.064580597 7:0.30442199 8:0.31041101 9:0.177993 10:0.25337601 11:27.7798 12:82.707497 13:0.66666698 14:0.77146697 15:0.87410599 16:8.0079298 17:0 18:0 19:-1 20:-129 #
6.1175333083221251863001444171175e-05 1:0 2:0 3:1.36217 4:0.56217599 5:0.223813 6:0.71018898 7:0.091915101 8:0.45553699 9:0.29753199 10:0.29753199 11:9.6793499 12:83.6903 13:0.66666698 14:0.75617099 15:0.71829599 16:2.8143799 17:0 18:0 19:1 20:188 #
-6.1175333083221251863001444171175e-05 1:-1 2:-32 3:1.52332 4:0.85394198 5:0.277163 6:0.30094999 7:0.190998 8:1.80005 9:0.128259 10:0.128259 11:14.2319 12:81.812401 13:0.66666698 14:0.85064799 15:0.90600097 16:4.13238 17:-1 18:-32 19:-1 20:-32 #
-6.1175333083221251863001444171175e-05 1:0 2:0 3:1.35727 4:1.09958 5:1.27226 6:0.414841 7:0.263504 8:0.77076298 9:0.238994 10:0.238994 11:17.617399 12:78.928703 13:0.66666698 14:0.81411397 15:0.81529599 16:5.1083798 17:0 18:0 19:-1 20:-230 #
6.1175333083221251863001444171175e-05 1:0 2:0 3:1.49659 4:0.34691 5:0.47877201 6:0.112787 7:0.361312 8:0.72740197 9:0.26135999 10:0.26135999 11:20.621099 12:79.102097 13:0.66666698 14:0.91549402 15:0.80973399 16:5.9706001 17:0 18:0 19:1 20:136 #
-6.1175333083221251863001444171175e-05 1:0 2:24.5 3:2.2943001 4:0.96846998 5:0.86340201 6:0.27762601 7:0.13726801 8:0.525415 9:0.179699 10:0.179699 11:17.4125 12:83.631203 13:0.66666698 14:0.90174598 15:0.87013501 16:5.0494199 17:0 18:24.5 19:1 20:94.25 #
-6.1175333083221251863001444171175e-05 1:-1 2:-8 3:1.21149 4:0.17629699 5:0.69799697 6:0.42518699 7:0.25937 8:0.47565299 9:0.131815 10:0.131815 11:8.1728401 12:83.065102 13:0.66666698 14:0.82688999 15:0.879538 16:2.3771601 17:-1 18:-8 19:-3 20:-134 #
6.1175333083221251863001444171175e-05 1:1 2:14.5 3:3.24875 4:0.59851301 5:0.892021 6:0.309517 7:0.148908 8:0.64819503 9:0.21578 10:0.21578 11:28.9063 12:69.749001 13:0.66666698 14:0.96638501 15:0.941921 16:8.3258801 17:1 18:14.5 19:1 20:14.5 #
-6.1175333083221251863001444171175e-05 1:1 2:39 3:1.1168 4:0.499176 5:0.40244901 6:0.34896201 7:0.14898001 8:0.35032001 9:0.139791 10:0.139791 11:21.9786 12:85.875999 13:0.66666698 14:0.915066 15:0.94390202 16:6.3589902 17:1 18:39 19:1 20:39 #
-6.1175333083221251863001444171175e-05 1:0 2:0 3:1.30651 4:0.310426 5:0.184047 6:0.117733 7:0.33010101 8:0.77416599 9:0.073137999 10:0.073137999 11:14.5236 12:80.1203 13:0.66666698 14:0.93470001 15:0.96150899 16:4.21662 17:0 18:0 19:4 20:228.625 #
6.1175333083221251863001444171175e-05 1:0 2:0 3:1.66725 4:1.30797 5:0.50926203 6:0.14652599 7:0.108022 8:0.679721 9:0.0594915 10:0.051743198 11:10.7584 12:79.837601 13:0.66666698 14:0.93243903 15:0.96693701 16:3.12725 17:0 18:0 19:1 20:174.75 #
-6.1175333083221251863001444171175e-05 1:-1 2:-6.5 3:1.6093301 4:2.41293 5:1.38982 6:0.14403801 7:0.97292298 8:1.64442 9:0.148185 10:0.148185 11:4.4014001 12:86.346001 13:0.66666698 14:0.88644701 15:0.85518903 16:1.28097 17:-1 18:-6.5 19:-1 20:-6.5 #
6.1175333083221251863001444171175e-05 1:-1 2:-22 3:2.0119801 4:0.62610298 5:1.29828 6:0.13771699 7:0.22253899 8:0.33983701 9:0.253782 10:0.227158 11:27.843399 12:80.244499 13:0.66666698 14:0.86365497 15:0.91701001 16:8.0259199 17:-1 18:-22 19:-1 20:-22 #
6.1175333083221251863001444171175e-05 1:0 2:0 3:2.01948 4:2.9468999 5:1.4452699 6:0.18898501 7:0.092194103 8:0.39266101 9:0.036725901 10:0.0560106 11:15.4742 12:83.738098 13:0.66666698 14:0.99348801 15:0.982602 16:4.4910002 17:0 18:0 19:-1 20:-156 #
-6.1175333083221251863001444171175e-05 1:-1 2:-58 3:1.88301 4:1.88276 5:0.40890601 6:0.132616 7:0.18695 8:0.51798701 9:0.068067901 10:0.068067901 11:3.78739 12:88.144699 13:0.66666698 14:0.94055903 15:0.934205 16:1.10234 17:-1 18:17 19:-2 20:-12 #
6.1175333083221251863001444171175e-05 1:1 2:10 3:1.67724 4:0.143263 5:0.41992101 6:0.091719799 7:0.736049 8:0.60611999 9:0.38019601 10:0.38019601 11:30.068001 12:78.902603 13:0.66666698 14:0.79444802 15:0.77814102 16:8.6529503 17:1 18:10 19:1 20:10 #
6.1175333083221251863001444171175e-05 1:-1 2:-49 3:1.63894 4:1.06284 5:0.30067199 6:0.34591201 7:0.306577 8:0.89255297 9:0.30987301 10:0.30987301 11:19.2726 12:88.344803 13:0.66666698 14:0.80259103 15:0.74558097 16:5.5839801 17:-1 18:-49 19:-1 20:-49 #
6.1175333083221251863001444171175e-05 1:1 2:6 3:1.58117 4:0.26183301 5:0.348176 6:0.226307 7:0.118863 8:0.434928 9:0.056367401 10:0.056367401 11:4.7806101 12:86.1754 13:0.66666698 14:0.94938201 15:0.947321 16:1.39127 17:2 18:35.5 19:6 20:184.16701 #
6.1175333083221251863001444171175e-05 1:0 2:0 3:1.88643 4:0.215285 5:0.116117 6:0.0821926 7:0.13214099 8:0.54772103 9:0.084401399 10:0.084401399 11:14.3701 12:85.192596 13:0.66666698 14:0.93597502 15:0.94931102 16:4.1722898 17:0 18:0 19:-1 20:-154 #
6.1175333083221251863001444171175e-05 1:0 2:0 3:3.10829 4:0.77946597 5:0.33093199 6:0.27443099 7:0.128887 8:1.20105 9:0.1821 10:0.074140698 11:8.4993 12:76.064697 13:0.444444 14:0.86785698 15:0.93714398 16:2.4719501 17:0 18:0 19:0 20:175 #
-6.1175333083221251863001444171175e-05 1:3 2:5.625 3:1.87704 4:1.5260299 5:0.84681201 6:0.328022 7:0.41818199 8:0.404172 9:0.30076501 10:0.135833 11:5.32303 12:86.485001 13:0.66666698 14:0.88635099 15:0.869192 16:1.5490201 17:2 18:-25.375 19:2 20:-25.375 #
6.1175333083221251863001444171175e-05 1:-1 2:-3 3:1.30516 4:0.97728902 5:0.196234 6:0.345806 7:0.122667 8:0.21263599 9:0.20756499 10:0.20756499 11:24.597099 12:65.778603 13:0.66666698 14:0.91699803 15:0.90894097 16:7.1055598 17:-1 18:-3 19:-1 20:-3 #
-6.1175333083221251863001444171175e-05 1:0 2:0 3:1.7482899 4:0.26932901 5:0.61577898 6:0.317707 7:0.271617 8:0.179498 9:0.155817 10:0.155817 11:16.316401 12:74.067497 13:0.66666698 14:0.84718698 15:0.89136797 16:4.7337999 17:0 18:0 19:1 20:236 #
6.1175333083221251863001444171175e-05 1:0 2:0 3:1.38564 4:0.220927 5:1.2021 6:0.171932 7:0.065357 8:0.89102602 9:0.080935001 10:0.043037299 11:10.9193 12:81.704803 13:0.444444 14:0.94309998 15:0.976098 16:3.1738701 17:0 18:0 19:-1 20:-152.75 #
-6.1175333083221251863001444171175e-05 1:-1 2:-6 3:1.84642 4:0.404075 5:1.46218 6:0.14907201 7:0.109188 8:0.627837 9:0.039567199 10:0.039567199 11:10.9855 12:84.543297 13:0.66666698 14:0.96562803 15:0.979599 16:3.1930799 17:0 18:64 19:-1 20:-56 #
6.1175333083221251863001444171175e-05 1:2 2:10 3:1.38737 4:0.373312 5:0.15193 6:0.13134199 7:0.27399501 8:0.64570302 9:0.154422 10:0.154422 11:19.2278 12:71.295303 13:1 14:0.89227003 15:0.91208303 16:5.5711298 17:2 18:10 19:4 20:109 #
-6.1175333083221251863001444171175e-05 1:2 2:11 3:2.07359 4:1.65233 5:0.23563799 6:0.092405401 7:0.65499002 8:0.224581 9:0.090423599 10:0.090423599 11:18.7603 12:74.536598 13:1 14:0.96420997 15:0.96903598 16:5.4369102 17:2 18:11 19:2 20:11 #
-6.1175333083221251863001444171175e-05 1:2 2:30.75 3:1.61064 4:0.59500402 5:0.60223299 6:0.59546202 7:0.139801 8:0.30818701 9:0.33033299 10:0.218913 11:9.1903496 12:75.3339 13:0.66666698 14:0.77735001 15:0.795515 16:2.6725099 17:2 18:30.75 19:2 20:30.75 #
6.1175333083221251863001444171175e-05 1:-1 2:-22.75 3:1.2309999 4:1.03605 5:0.146493 6:0.57632101 7:0.22181299 8:1.43937 9:0.46557501 10:0.27160001 11:10.4115 12:77.745697 13:0.66666698 14:0.52463198 15:0.74656099 16:3.0267 17:-1 18:-22.75 19:-2 20:-118.75 #
6.1175333083221251863001444171175e-05 1:0 2:0 3:1.57231 4:0.44534001 5:0.67426199 6:0.29132199 7:0.142083 8:1.46831 9:0.14261401 10:0.14261401 11:10.7679 12:89.068398 13:0.66666698 14:0.83694899 15:0.87638998 16:3.1300001 17:0 18:0 19:1 20:175.5 #
-6.1175333083221251863001444171175e-05 1:0 2:0 3:1.82765 4:0.27194199 5:0.32682601 6:0.252038 7:0.448989 8:0.47072601 9:0.28388399 10:0.080157802 11:11.9249 12:66.350601 13:0.66666698 14:0.92109197 15:0.94308197 16:3.4651599 17:2 18:82.25 19:5 20:-94 #
-6.1175333083221251863001444171175e-05 1:2 2:10 3:5.2671399 4:0.36442301 5:0.208703 6:0.16721299 7:0.075184301 8:1.04996 9:0.107594 10:0.069818102 11:17.948 12:86.3396 13:0.66666698 14:0.982274 15:0.982669 16:5.2034702 17:0 18:-83 19:0 20:-83 #
6.1175333083221251863001444171175e-05 1:0 2:0 3:1.2742701 4:0.45190001 5:1.4110301 6:0.18177199 7:0.187701 8:1.03266 9:0.057191599 10:0.057191599 11:13.9488 12:76.891502 13:0.66666698 14:0.96779603 15:0.974581 16:4.05059 17:1 18:64 19:1 20:64 #
6.1175333083221251863001444171175e-05 1:0 2:0 3:1.2452101 4:1.26819 5:0.330219 6:0.061114199 7:0.371582 8:2.2795601 9:0.110605 10:0.110605 11:13.5649 12:84.283401 13:0.66666698 14:0.872343 15:0.92007899 16:3.93964 17:-1 18:-70 19:0 20:84 #
6.1175333083221251863001444171175e-05 1:1 2:14 3:2.3260801 4:0.76564598 5:0.221037 6:0.194049 7:0.27417701 8:0.28005099 9:0.225969 10:0.225969 11:20.926701 12:82.655098 13:0.66666698 14:0.78844702 15:0.85115802 16:6.0581298 17:1 18:14 19:0 20:-92 #
-6.1175333083221251863001444171175e-05 1:1 2:5 3:2.1568699 4:0.33500201 5:0.82881498 6:0.44966701 7:0.50168401 8:0.66375101 9:0.52669799 10:0.183201 11:15.5847 12:85.759102 13:0.66666698 14:0.76417297 15:0.85871899 16:4.5228601 17:1 18:5 19:0 20:-90.5 #
-6.1175333083221251863001444171175e-05 1:1 2:9.25 3:2.01652 4:1.66975 5:0.44316801 6:0.065099299 7:0.16387901 8:0.88075799 9:0.0560687 10:0.0560687 11:9.0620604 12:82.322601 13:0.66666698 14:0.96275902 15:0.95727497 16:2.6352899 17:1 18:9.25 19:0 20:-48.75 #
6.1175333083221251863001444171175e-05 1:0 2:0 3:1.6115201 4:0.67556399 5:1.46644 6:0.173071 7:0.210509 8:0.20127501 9:0.131745 10:0.131745 11:15.8534 12:82.9786 13:0.66666698 14:0.86965603 15:0.91070402 16:4.6003399 17:0 18:0 19:1 20:133 #
-6.1175333083221251863001444171175e-05 1:-2 2:-9 3:1.94941 4:1.68809 5:0.345938 6:0.59333098 7:0.36393401 8:0.272349 9:0.12820099 10:0.12820099 11:18.369499 12:88.540001 13:0.66666698 14:0.95200002 15:0.92676502 16:5.3246298 17:-2 18:-9 19:-2 20:-9 #
6.1175333083221251863001444171175e-05 1:4 2:17.7188 3:1.17702 4:0.71081799 5:0.069965199 6:0.033756301 7:0.046482101 8:0.149794 9:0.010832 10:0.010832 11:2.3546 12:87.974503 13:0.66666698 14:0.98717999 15:0.99002302 16:0.68539298 17:4 18:17.7188 19:3 20:-152.78101 #
-6.1175333083221251863001444171175e-05 1:0 2:0 3:1.26513 4:0.58133101 5:0.29776701 6:0.29263699 7:0.22433899 8:0.54109597 9:0.0299973 10:0.0299973 11:9.2725201 12:80.9692 13:0.66666698 14:0.98962498 15:0.98367399 16:2.6963601 17:0 18:0 19:3 20:158 #
6.1175333083221251863001444171175e-05 1:-2 2:-9.25 3:1.81231 4:1.68881 5:0.27748501 6:0.121779 7:0.16754401 8:0.81334502 9:0.237849 10:0.237849 11:18.023899 12:72.258797 13:0.444444 14:0.753959 15:0.82217503 16:5.2252898 17:-2 18:-9.25 19:-3 20:-87.666702 #
-6.1175333083221251863001444171175e-05 1:0 2:0 3:1.8655 4:1.05094 5:0.95118898 6:0.188521 7:0.13060001 8:0.346733 9:0.106886 10:0.106886 11:16.8221 12:76.685898 13:0.66666698 14:0.91998601 15:0.94116598 16:4.8794799 17:-1 18:-92 19:-1 20:-92 #
6.1175333083221251863001444171175e-05 1:-1 2:-8 3:1.33605 4:0.472013 5:0.488601 6:0.306272 7:0.076159999 8:0.60686201 9:0.100034 10:0.100034 11:7.9436698 12:82.058701 13:0.66666698 14:0.83852202 15:0.91041601 16:2.3106101 17:-1 18:-8 19:0 20:174 #
6.1175333083221251863001444171175e-05 1:-1 2:-11.75 3:1.46874 4:0.59256202 5:0.099129297 6:0.122298 7:0.48513699 8:0.54566598 9:0.188244 10:0.188244 11:22.279499 12:78.892303 13:0.66666698 14:0.91754401 15:0.897991 16:6.4449501 17:-1 18:-11.75 19:-1 20:-11.75 #
-6.1175333083221251863001444171175e-05 1:-3 2:-39.333302 3:1.75805 4:0.30537999 5:0.186608 6:0.096023597 7:0.135037 8:0.061278898 9:0.053478599 10:0.053478599 11:9.2891197 12:85.877296 13:0.66666698 14:0.96152103 15:0.96020001 16:2.70118 17:-3 18:-39.333302 19:-3 20:-39.333302 #
6.1175333083221251863001444171175e-05 1:1 2:10 3:1.29722 4:1.79717 5:0.32854399 6:0.27535999 7:0.21040399 8:0.69781899 9:0.31169 10:0.21076199 11:16.5012 12:89.1213 13:0.66666698 14:0.804263 15:0.83905703 16:4.7870302 17:1 18:10 19:3 20:154 #
6.1175333083221251863001444171175e-05 1:1 2:12.5 3:1.19103 4:3.8313601 5:0.74243301 6:0.083111398 7:0.086679801 8:0.37382299 9:0.028259 10:0.0296103 11:11.1066 12:87.9627 13:0.66666698 14:0.98203802 15:0.989896 16:3.2281699 17:1 18:12.5 19:-1 20:-141 #
-6.1175333083221251863001444171175e-05 1:1 2:40 3:1.92989 4:0.115728 5:0.117567 6:0.13366801 7:0.29215601 8:0.160024 9:0.098251298 10:0.0963879 11:23.212601 12:88.68 13:0.66666698 14:0.960199 15:0.99576098 16:6.7112498 17:2 18:68 19:2 20:68 #
6.1175333083221251863001444171175e-05 1:0 2:0 3:4.94979 4:0.837798 5:0.040136799 6:0.067998402 7:0.124293 8:0.153036 9:0.14314599 10:0.0203426 11:5.5754199 12:75.168999 13:0.66666698 14:0.99461198 15:0.98442501 16:1.6224101 17:0 18:0 19:2 20:175 #
-6.1175333083221251863001444171175e-05 1:0 2:4 3:2.2647901 4:0.16848101 5:0.67823398 6:0.34465399 7:0.167705 8:0.22837999 9:0.15584099 10:0.15584099 11:20.1047 12:89.1073 13:0.66666698 14:0.90969002 15:0.91195297 16:5.82265 17:0 18:4 19:0 20:4 #
-6.1175333083221251863001444171175e-05 1:0 2:0 3:1.25797 4:3.7481201 5:0.241833 6:0.542714 7:0.191663 8:1.07441 9:0.22012199 10:0.17035 11:17.811701 12:82.052597 13:0.66666698 14:0.81356698 15:0.88673401 16:5.1642699 17:1 18:84 19:1 20:84 #
-6.1175333083221251863001444171175e-05 1:0 2:-34 3:2.1991501 4:2.4532299 5:1.0110101 6:0.53377402 7:0.278929 8:0.19798601 9:0.147981 10:0.103118 11:10.7095 12:89.955299 13:0.444444 14:0.93770403 15:0.91583198 16:3.11308 17:0 18:-34 19:0 20:-34 #
6.1175333083221251863001444171175e-05 1:0 2:0 3:3.4477 4:0.61220199 5:2.8701301 6:0.401544 7:0.197937 8:0.44229299 9:0.200615 10:0.200615 11:25.759899 12:88.553802 13:0.66666698 14:0.934313 15:0.91390699 16:7.4359102 17:0 18:0 19:0 20:0 #
6.1175333083221251863001444171175e-05 1:0 2:0 3:2.2927301 4:0.46415699 5:0.203023 6:0.149289 7:0.239705 8:0.469832 9:0.185159 10:0.185159 11:2.66168 12:88.0961 13:1 14:0.87833601 15:0.81604999 16:0.77476698 17:0 18:0 19:-1 20:-136 #
-6.1175333083221251863001444171175e-05 1:1 2:32 3:1.45351 4:1.57077 5:0.337713 6:0.043666001 7:0.383798 8:0.27032101 9:0.085561298 10:0.085561298 11:17.0858 12:77.1241 13:0.66666698 14:0.96332097 15:0.96325999 16:4.9554 17:0 18:-62 19:0 20:-62 #
-6.1175333083221251863001444171175e-05 1:-2 2:-43 3:1.4733599 4:1.79105 5:1.85511 6:0.70042598 7:0.401032 8:0.47290501 9:0.40494299 10:0.40494299 11:12.3319 12:81.304901 13:0.66666698 14:0.60448998 15:0.62068599 16:3.5829899 17:-2 18:-43 19:-2 20:-43 #
6.1175333083221251863001444171175e-05 1:4 2:42.0938 3:1.37378 4:0.275794 5:1.35137 6:0.20467301 7:0.232269 8:0.62934798 9:0.160331 10:0.15473901 11:18.2145 12:87.3853 13:0.66666698 14:0.897578 15:0.90408897 16:5.2800798 17:5 18:46.125 19:7 20:93.625 #
6.1175333083221251863001444171175e-05 1:-1 2:-60 3:1.39736 4:0.921691 5:0.40448999 6:0.101812 7:0.25968 8:0.91240799 9:0.0411838 10:0.0372115 11:5.0343499 12:87.248497 13:0.66666698 14:0.95757002 15:0.96680999 16:1.46507 17:-1 18:-60 19:-1 20:-60 #
-6.1175333083221251863001444171175e-05 1:-1 2:-8 3:2.04336 4:0.277098 5:0.223695 6:0.060083698 7:0.171618 8:0.38461801 9:0.070708103 10:0.070708103 11:16.293699 12:88.006203 13:0.66666698 14:0.98150003 15:0.972175 16:4.7272501 17:-1 18:-8 19:-2 20:-57 #
6.1175333083221251863001444171175e-05 1:-3 2:-20.1667 3:1.48386 4:0.30870199 5:0.100734 6:0.0908935 7:0.0490111 8:0.36159301 9:0.030123301 10:0.0076973098 11:1.41886 12:85.290298 13:0.66666698 14:0.97822303 15:0.992612 16:0.41303 17:-3 18:-20.1667 19:0 20:173.5 #
6.1175333083221251863001444171175e-05 1:-2 2:-12.5 3:1.3109601 4:0.22337601 5:1.4924001 6:0.34079599 7:0.42326099 8:0.69323403 9:0.240629 10:0.240629 11:18.757999 12:71.318298 13:0.66666698 14:0.91463399 15:0.831631 16:5.4362502 17:-2 18:-12.5 19:-2 20:-12.5 #
-6.1175333083221251863001444171175e-05 1:0 2:-2 3:1.62674 4:0.63781202 5:0.385914 6:0.085112303 7:0.119991 8:0.124758 9:0.107522 10:0.092621602 11:17.6875 12:85.6045 13:0.66666698 14:0.91955501 15:0.95930302 16:5.12854 17:-1 18:-48.5 19:-1 20:-48.5 #
6.1175333083221251863001444171175e-05 1:-1 2:-5 3:1.83963 4:0.26633701 5:0.66375399 6:0.082511202 7:0.217627 8:0.453751 9:0.23465499 10:0.29257801 11:23.700701 12:88.874702 13:0.66666698 14:0.79565102 15:0.81959897 16:6.8503699 17:-1 18:-5 19:-1 20:-5 #
6.1175333083221251863001444171175e-05 1:-2 2:-34 3:1.44591 4:0.748685 5:1.13106 6:0.066690303 7:0.13089401 8:0.23000801 9:0.239696 10:0.119307 11:11.649 12:71.083099 13:0.66666698 14:0.80459601 15:0.90396303 16:3.3852899 17:-3 18:-51.5 19:-3 20:-51.5 #
-6.1175333083221251863001444171175e-05 1:0 2:0 3:1.8891701 4:0.309223 5:0.83490598 6:0.57982898 7:0.26510799 8:0.257231 9:0.30399799 10:0.29302999 11:19.5144 12:86.686699 13:0.66666698 14:0.82574499 15:0.77415299 16:5.6533799 17:0 18:0 19:0 20:0 #
-6.1175333083221251863001444171175e-05 1:-5 2:-29.4 3:1.98665 4:0.39004001 5:0.56656599 6:0.059627999 7:0.076354504 8:0.82260299 9:0.068216398 10:0.073642902 11:17.578899 12:86.818604 13:0.66666698 14:0.952631 15:0.97734398 16:5.0973101 17:-5 18:-29.4 19:-6 20:-60.166698 #
-3.4585924302856592329330487345374e-05 1:0 2:0 3:3.1310699 4:0.70911503 5:0.41161901 6:0.348851 7:0.22168399 8:0.79809302 9:0.31450099 10:0.274344 11:20.2558 12:89.610901 13:0.66666698 14:0.71719497 15:0.80010003 16:5.8659601 17:-1 18:-70 19:-1 20:-70 #
-6.1175333083221251863001444171175e-05 1:2 2:9.1666698 3:3.2370501 4:0.40346101 5:0.371196 6:0.35159001 7:0.315341 8:0.22663701 9:0.28579301 10:0.086050503 11:20.110399 12:89.301804 13:0.66666698 14:0.95591903 15:0.98193502 16:5.8242998 17:2 18:9.1666698 19:2 20:9.1666698 #
6.1175333083221251863001444171175e-05 1:-4 2:-34.5 3:1.96257 4:0.62521702 5:0.215692 6:0.139451 7:0.138348 8:0.50926399 9:0.036279399 10:0.036279399 11:10.0273 12:80.545097 13:0.66666698 14:0.98435199 15:0.97980398 16:2.9153199 17:-7 18:-53.714298 19:-7 20:-53.714298 #
-6.1175333083221251863001444171175e-05 1:0 2:0 3:1.62983 4:4.20614 5:1.1289099 6:0.86194199 7:0.123954 8:2.48961 9:0.22682901 10:0.22682901 11:19.464199 12:80.480698 13:0.66666698 14:0.79817498 15:0.83928299 16:5.6389799 17:0 18:0 19:0 20:0 #
-6.1175333083221251863001444171175e-05 1:0 2:0 3:1.49656 4:1.0408 5:0.364066 6:0.249724 7:0.36207801 8:0.33994499 9:0.60899103 10:0.22230899 11:19.809099 12:87.402298 13:0.66666698 14:0.85070699 15:0.84392101 16:5.7378998 17:0 18:0 19:4 20:236.25 #
6.1175333083221251863001444171175e-05 1:-5 2:-26 3:1.9143 4:2.2713699 5:0.531286 6:0.150048 7:0.14764699 8:0.68137097 9:0.14770199 10:0.15695301 11:11.4779 12:83.9207 13:0.66666698 14:0.86489898 15:0.86516798 16:3.33571 17:-5 18:-26 19:-5 20:84 #
-6.1175333083221251863001444171175e-05 1:0 2:0 3:1.40291 4:2.01933 5:0.497679 6:0.77047497 7:0.255876 8:0.35310701 9:0.163407 10:0.163407 11:17.0653 12:73.07 13:0.66666698 14:0.817334 15:0.88785499 16:4.9495001 17:0 18:0 19:0 20:0 #
-6.1175333083221251863001444171175e-05 1:0 2:3 3:2.36006 4:1.1128401 5:0.35644299 6:0.22496 7:0.329952 8:0.100311 9:0.107089 10:0.107089 11:17.9118 12:81.238998 13:0.66666698 14:0.93921798 15:0.94666702 16:5.1930699 17:0 18:3 19:0 20:3 #
-6.1175333083221251863001444171175e-05 1:0 2:0 3:2.0538599 4:3.0408599 5:3.14815 6:0.22876699 7:0.37098399 8:0.28413299 9:0.40350899 10:0.32014099 11:4.7962399 12:81.879204 13:0.66666698 14:0.621831 15:0.684138 16:1.39582 17:0 18:0 19:0 20:0 #
-6.1175333083221251863001444171175e-05 1:0 2:0 3:1.41635 4:1.32154 5:0.327564 6:0.24745201 7:0.241494 8:0.246631 9:0.158191 10:0.158191 11:12.4607 12:86.710403 13:0.66666698 14:0.82755297 15:0.86755103 16:3.62027 17:0 18:0 19:1 20:157 #
6.1175333083221251863001444171175e-05 1:0 2:0 3:1.56317 4:0.96657801 5:0.25142199 6:0.26105401 7:0.218059 8:1.09486 9:0.151177 10:0.151177 11:18.5236 12:71.883698 13:0.66666698 14:0.844289 15:0.90890199 16:5.3688998 17:0 18:0 19:-1 20:-36 #
6.1175333083221251863001444171175e-05 1:2 2:10 3:1.88746 4:0.162444 5:0.021527501 6:0.118 7:0.112538 8:0.44087899 9:0.0151424 10:0.017245 11:9.04216 12:82.862701 13:0.66666698 14:0.99485099 15:0.99544901 16:2.6295099 17:1 18:-28 19:-3 20:-101.667 #
-6.1175333083221251863001444171175e-05 1:-1 2:-6 3:1.32454 4:0.56115198 5:0.67298901 6:1.02678 7:0.296976 8:0.151473 9:0.17165101 10:0.100273 11:9.6252699 12:76.902199 13:0.66666698 14:0.91922897 15:0.91582799 16:2.7987001 17:-1 18:-6 19:-3 20:-142.66701 #
6.1175333083221251863001444171175e-05 1:0 2:0 3:1.42774 4:0.293973 5:0.80100602 6:0.197679 7:0.228724 8:0.62457299 9:0.197478 10:0.197478 11:19.417299 12:70.610298 13:0.66666698 14:0.80647302 15:0.87104398 16:5.6255102 17:0 18:0 19:0 20:0 #
6.1175333083221251863001444171175e-05 1:-1 2:-11 3:1.23842 4:0.42710701 5:0.95160902 6:0.19609199 7:0.29093 8:0.51293999 9:0.243894 10:0.243894 11:17.419399 12:76.948303 13:0.66666698 14:0.69934702 15:0.81020802 16:5.0514302 17:-2 18:-37.5 19:-2 20:-37.5 #
6.1175333083221251863001444171175e-05 1:-2 2:-20.125 3:1.53802 4:0.525473 5:0.18133201 6:0.082760103 7:0.236338 8:0.77013701 9:0.44339001 10:0.230462 11:19.188499 12:81.963402 13:1 14:0.77389002 15:0.83942598 16:5.5598602 17:-2 18:-20.125 19:-2 20:-20.125 #
-6.1175333083221251863001444171175e-05 1:-2 2:-21.6667 3:1.57125 4:0.94523197 5:0.449395 6:0.091980003 7:0.81609601 8:0.26964101 9:0.18126 10:0.18126 11:11.9651 12:78.037804 13:1 14:0.92984003 15:0.84672099 16:3.4768 17:-3 18:-32 19:-10 20:-107.182 #
6.1175333083221251863001444171175e-05 1:0 2:0 3:2.19947 4:6.8859401 5:0.470442 6:0.21314199 7:0.38491499 8:1.07126 9:0.29047301 10:0.15969899 11:18.3937 12:89.609001 13:0.66666698 14:0.87515098 15:0.89686102 16:5.3315902 17:0 18:0 19:0 20:0 #
-6.1175333083221251863001444171175e-05 1:0 2:-4 3:1.58303 4:0.27922699 5:0.0722939 6:0.041300599 7:0.092309698 8:0.53721601 9:0.041120399 10:0.041120399 11:11.0872 12:78.913696 13:0.66666698 14:0.97033602 15:0.978585 16:3.2225299 17:0 18:-4 19:-2 20:-98 #
6.1175333083221251863001444171175e-05 1:-5 2:-39.200001 3:2.5364599 4:0.73320401 5:0.0132188 6:0.034591801 7:0.24929801 8:0.19315299 9:0.041261502 10:0.041261502 11:7.08535 12:85.778 13:1 14:0.98504299 15:0.96663898 16:2.06129 17:-6 18:-48.666698 19:-7 20:-68 #
6.1175333083221251863001444171175e-05 1:-1 2:-6 3:1.25365 4:0.93184501 5:0.42180699 6:0.048761301 7:0.047885101 8:0.58602297 9:0.057583101 10:0.057583101 11:4.4334502 12:86.254204 13:0.66666698 14:0.91008699 15:0.94557703 16:1.29029 17:-1 18:-6 19:-1 20:-6 #
-6.1175333083221251863001444171175e-05 1:-1 2:-8.5 3:1.77695 4:0.97277302 5:1.0475 6:0.54079902 7:0.17291801 8:0.20131201 9:0.210162 10:0.178803 11:18.3664 12:76.943604 13:0.33333299 14:0.76226002 15:0.88184398 16:5.32376 17:-1 18:-8.5 19:-1 20:-8.5 #
6.1175333083221251863001444171175e-05 1:-1 2:-12.5 3:2.0378499 4:0.44887599 5:0.384913 6:0.172959 7:0.41196001 8:1.80501 9:0.116725 10:0.116725 11:17.184999 12:85.231102 13:0.66666698 14:0.92589998 15:0.93223101 16:4.9839702 17:-1 18:-12.5 19:-1 20:-12.5 #
-6.1175333083221251863001444171175e-05 1:-1 2:-4 3:2.42203 4:1.70911 5:0.079441503 6:0.091930903 7:0.101901 8:1.28977 9:0.095696203 10:0.082284398 11:18.8221 12:76.341301 13:0.66666698 14:0.94870597 15:0.976668 16:5.4546599 17:-1 18:-4 19:1 20:235 #
6.1175333083221251863001444171175e-05 1:1 2:8 3:1.8329 4:2.13693 5:0.272517 6:0.108896 7:0.139906 8:0.269366 9:0.154172 10:0.154172 11:10.9406 12:79.400497 13:0.66666698 14:0.78920197 15:0.86650902 16:3.1800699 17:0 18:-56 19:1 20:27.25 #
-6.1175333083221251863001444171175e-05 1:2 2:13 3:1.91333 4:1.28878 5:0.52466202 6:0.17097799 7:0.181155 8:0.379731 9:0.165242 10:0.16052701 11:16.920601 12:87.699501 13:0.66666698 14:0.88971901 15:0.88929302 16:4.9078498 17:2 18:13 19:2 20:13 #
-6.1175333083221251863001444171175e-05 1:-1 2:-7.75 3:1.24587 4:3.1522999 5:0.34347799 6:0.13650499 7:0.119805 8:0.30954701 9:0.146872 10:0.112339 11:20.180201 12:89.2901 13:0.66666698 14:0.93385899 15:0.95546299 16:5.8442898 17:-1 18:-7.75 19:-1 20:-7.75 #
6.1175333083221251863001444171175e-05 1:1 2:20 3:1.24938 4:0.67422903 5:0.34347799 6:0.072171897 7:0.089696497 8:0.577142 9:0.076286599 10:0.076286599 11:8.1643105 12:82.194099 13:0.66666698 14:0.91968203 15:0.93478602 16:2.37468 17:0 18:-52 19:0 20:-52 #
6.1175333083221251863001444171175e-05 1:1 2:-15.625 3:5.5307798 4:0.77780998 5:0.083698399 6:0.101514 7:0.086216897 8:0.136327 9:0.064921796 10:0.025998401 11:12.4216 12:87.159302 13:0.444444 14:0.98512298 15:0.99827802 16:3.6089499 17:1 18:-15.625 19:2 20:27.0417 #
-6.1175333083221251863001444171175e-05 1:1 2:9 3:1.48268 4:1.09087 5:0.30139801 6:0.333195 7:0.17050099 8:0.165501 9:0.24248099 10:0.16531999 11:21.018801 12:87.500801 13:0.66666698 14:0.93121397 15:0.91365403 16:6.0844798 17:1 18:9 19:1 20:9 #
-6.1175333083221251863001444171175e-05 1:-2 2:-39.25 3:2.47312 4:0.32620499 5:0.39754701 6:0.289013 7:0.33150899 8:0.13722301 9:0.066014603 10:0.066014603 11:11.9843 12:86.492996 13:0.33333299 14:0.94445997 15:0.95706803 16:3.4823599 17:-3 18:-47.666698 19:-2 20:100.646 #
6.1175333083221251863001444171175e-05 1:-2 2:-23.3333 3:1.31003 4:2.2685299 5:1.31521 6:0.25738299 7:0.110283 8:0.88880998 9:0.115995 10:0.084895201 11:8.0260496 12:82.679298 13:0.66666698 14:0.87359899 15:0.92551202 16:2.3345399 17:-2 18:-23.3333 19:-2 20:-23.3333 #
-6.1175333083221251863001444171175e-05 1:0 2:0 3:2.6131001 4:6.8168702 5:0.64718503 6:0.65768403 7:0.116378 8:0.110942 9:0.12739401 10:0.12739401 11:18.375999 12:87.159302 13:0.444444 14:0.93555498 15:0.92836201 16:5.32651 17:0 18:0 19:-3 20:-189.41701 #
-6.1175333083221251863001444171175e-05 1:-2 2:-14 3:1.49368 4:0.434275 5:0.14806101 6:0.086799003 7:0.78898001 8:0.24877401 9:0.093106396 10:0.093106396 11:17.2577 12:76.331398 13:1 14:0.96539402 15:0.95720202 16:5.00488 17:-2 18:-14 19:-3 20:-50.666698 #
-6.1175333083221251863001444171175e-05 1:1 2:10 3:1.55541 4:0.464517 5:0.077257201 6:0.0537742 7:0.063112698 8:0.138722 9:0.042736299 10:0.078029901 11:20.8109 12:84.865097 13:0.66666698 14:0.99450201 15:0.99431598 16:6.0249701 17:2 18:42 19:2 20:42 #
-6.1175333083221251863001444171175e-05 1:1 2:5 3:2.5044301 4:3.07885 5:1.95556 6:0.41925201 7:0.22112601 8:0.85768801 9:0.29194799 10:0.222243 11:6.4537001 12:87.765198 13:0.66666698 14:0.83162498 15:0.78520101 16:1.87773 17:1 18:5 19:1 20:5 #
6.1175333083221251863001444171175e-05 1:-2 2:-51.5 3:1.2265 4:0.44883001 5:0.32845199 6:0.134609 7:0.089711599 8:0.53525501 9:0.088500202 10:0.088500202 11:6.05369 12:88.031097 13:0.66666698 14:0.86739999 15:0.91745299 16:1.7614599 17:-2 18:-51.5 19:-2 20:-51.5 #
-6.1175333083221251863001444171175e-05 1:0 2:0 3:2.6786201 4:0.67607403 5:0.17418601 6:0.327364 7:0.27556801 8:0.14961 9:0.106648 10:0.0959564 11:19.753201 12:87.503998 13:0.33333299 14:0.96523601 15:0.96875101 16:5.72188 17:0 18:0 19:0 20:0 #
6.1175333083221251863001444171175e-05 1:0 2:0 3:1.16766 4:0.58145797 5:0.337688 6:0.29097399 7:0.23758 8:1.2071199 9:0.078541704 10:0.078541704 11:6.5639901 12:85.810799 13:0.66666698 14:0.94501603 15:0.92842001 16:1.90979 17:-1 18:-66 19:-1 20:5 #
-6.1175333083221251863001444171175e-05 1:2 2:18.5 3:2.22296 4:1.03846 5:0.50655401 6:0.171887 7:0.140053 8:0.221811 9:0.123213 10:0.071783803 11:17.856501 12:77.624298 13:0.66666698 14:0.97540498 15:0.98107499 16:5.1771598 17:2 18:18.5 19:2 20:18.5 #
6.1175333083221251863001444171175e-05 1:0 2:0 3:2.3973 4:0.15444601 5:0.26594499 6:0.086227402 7:0.248748 8:0.30448899 9:0.104427 10:0.104427 11:9.3495598 12:84.801201 13:0.66666698 14:0.955787 15:0.90969402 16:2.7187099 17:1 18:82 19:1 20:-78.333298 #
-6.1175333083221251863001444171175e-05 1:1 2:14 3:1.1423399 4:0.21593601 5:0.30990899 6:0.021568401 7:0.97579998 8:1.4422801 9:0.23937801 10:0.088445 11:8.4046898 12:80.249199 13:1 14:0.72588801 15:0.92314202 16:2.4444799 17:1 18:14 19:1 20:14 #
6.1175333083221251863001444171175e-05 1:0 2:0 3:1.22975 4:0.12574001 5:0.532417 6:0.35884899 7:0.20103399 8:0.48948699 9:0.341452 10:0.34162 11:16.6973 12:82.373901 13:0.66666698 14:0.73102999 15:0.70948303 16:4.8435402 17:0 18:-4 19:4 20:77.599998 #
-1.5939922462046951891819629443248e-06 1:-1 2:-5 3:1.93458 4:0.150309 5:0.36418101 6:0.117959 7:0.257604 8:0.28610301 9:0.12833799 10:0.12833799 11:21.7624 12:87.499397 13:0.66666698 14:0.94097197 15:0.952595 16:6.2972002 17:-1 18:60.5 19:3 20:186.3 #
6.1175333083221251863001444171175e-05 1:0 2:0 3:1.71286 4:0.37873 5:0.50940299 6:0.292153 7:0.171537 8:0.53922802 9:0.149645 10:0.149645 11:9.5531902 12:80.446999 13:0.66666698 14:0.89548999 15:0.86712301 16:2.7777901 17:0 18:0 19:-1 20:-116 #
6.1175333083221251863001444171175e-05 1:3 2:21.3333 3:1.37983 4:0.44725499 5:0.114815 6:0.106128 7:0.086808898 8:0.623959 9:0.044911601 10:0.043366499 11:10.151 12:87.449501 13:0.66666698 14:0.96010399 15:0.97325802 16:2.95118 17:3 18:21.3333 19:14 20:154.35699 #
-6.1175333083221251863001444171175e-05 1:2 2:34 3:1.9925801 4:0.209371 5:0.334227 6:0.195448 7:0.29304799 8:0.90067202 9:0.109192 10:0.127699 11:17.3689 12:84.458702 13:0.66666698 14:0.93428099 15:0.92620802 16:5.03689 17:2 18:34 19:0 20:-165 #
6.1175333083221251863001444171175e-05 1:1 2:7 3:2.1333201 4:0.090998799 5:0.75624698 6:0.089128397 7:0.98715401 8:1.18164 9:0.15865999 10:0.15865999 11:16.3633 12:87.304497 13:0.66666698 14:0.89643598 15:0.88490897 16:4.7473001 17:1 18:7 19:2 20:108 #
6.1175333083221251863001444171175e-05 1:3 2:18 3:2.56089 4:1.10332 5:0.284336 6:0.33603501 7:0.192958 8:0.82528901 9:0.0713 10:0.0713 11:4.5497098 12:89.433601 13:0.66666698 14:0.94454998 15:0.93191999 16:1.32411 17:3 18:18 19:3 20:-148 #
-6.1175333083221251863001444171175e-05 1:0 2:0 3:1.5716799 4:1.49848 5:2.06108 6:0.50864297 7:0.261136 8:0.69535297 9:0.291087 10:0.291087 11:5.9566102 12:84.056602 13:0.444444 14:0.80281699 15:0.716223 16:1.73323 17:0 18:0 19:0 20:0 #
6.1175333083221251863001444171175e-05 1:3 2:35.333302 3:1.77965 4:0.60791898 5:0.36596999 6:0.092993803 7:0.082331099 8:0.74135298 9:0.064500503 10:0.064500503 11:13.5447 12:76.486099 13:0.66666698 14:0.954642 15:0.96572602 16:3.93379 17:4 18:50 19:2 20:-107.467 #
6.1175333083221251863001444171175e-05 1:-3 2:-16 3:2.62641 4:1.3944401 5:0.53899401 6:0.080438197 7:0.13497099 8:0.26263499 9:0.048361599 10:0.048361599 11:8.4211397 12:88.148102 13:0.66666698 14:0.95386499 15:0.96282399 16:2.44926 17:-3 18:-16 19:-2 20:133 #
-6.1175333083221251863001444171175e-05 1:2 2:17 3:1.3010401 4:0.109468 5:0.45249999 6:0.099625699 7:0.254989 8:0.29867601 9:0.188683 10:0.167954 11:14.783 12:75.469398 13:0.66666698 14:0.91441 15:0.87038797 16:4.2915201 17:2 18:17 19:1 20:-177 #
-6.1175333083221251863001444171175e-05 1:3 2:10.3333 3:2.2762699 4:2.94719 5:0.71450001 6:0.31042299 7:0.228907 8:0.272017 9:0.400466 10:0.153587 11:18.5571 12:82.555496 13:0.66666698 14:0.88546699 15:0.90329701 16:5.37853 17:3 18:10.3333 19:2 20:-49 #
6.1175333083221251863001444171175e-05 1:0 2:0 3:1.49498 4:1.70742 5:3.09747 6:0.67044401 7:0.071124502 8:2.5653501 9:0.134443 10:0.134443 11:11.7652 12:86.587601 13:0.444444 14:0.85067803 15:0.88840902 16:3.41892 17:0 18:0 19:0 20:-51.25 #
-6.1175333083221251863001444171175e-05 1:0 2:0 3:1.8710901 4:0.13183901 5:0.243674 6:0.050174698 7:0.169866 8:0.490262 9:0.0527285 10:0.0527285 11:7.54111 12:84.597298 13:0.66666698 14:0.97368997 15:0.956384 16:2.1936901 17:0 18:0 19:0 20:20 #
6.1175333083221251863001444171175e-05 1:0 2:0 3:1.63097 4:0.39433801 5:0.68320602 6:0.15508901 7:0.14993 8:0.56675202 9:0.105083 10:0.105083 11:15.1467 12:77.112 13:0.66666698 14:0.899737 15:0.93372101 16:4.3965101 17:0 18:0 19:1 20:76 #
-6.1175333083221251863001444171175e-05 1:-1 2:-8.75 3:1.5228699 4:0.85656798 5:0.79779202 6:0.111273 7:0.135472 8:0.27310601 9:0.077593997 10:0.120265 11:20.6663 12:89.822502 13:0.66666698 14:0.91904497 15:0.95151401 16:5.9835701 17:-1 18:-8.75 19:-1 20:204.625 #
-6.1175333083221251863001444171175e-05 1:0 2:0 3:1.12798 4:0.40642399 5:0.63321602 6:0.228984 7:0.330293 8:1.9399 9:0.247559 10:0.16523799 11:9.1519899 12:89.805702 13:0.66666698 14:0.82126403 15:0.84861398 16:2.6613901 17:0 18:0 19:1 20:-15.75 #
6.1175333083221251863001444171175e-05 1:0 2:0 3:1.13863 4:1.2142299 5:1.4000601 6:0.102529 7:0.090375103 8:0.89356202 9:0.068543598 10:0.082594 11:15.8904 12:82.726303 13:0.66666698 14:0.93109101 15:0.959966 16:4.6110001 17:0 18:0 19:0 20:0 #
-6.1175333083221251863001444171175e-05 1:0 2:6 3:1.58627 4:0.28654301 5:0.428491 6:0.134387 7:0.532179 8:0.97251999 9:0.112581 10:0.112581 11:8.7836704 12:81.7062 13:0.66666698 14:0.91137099 15:0.900828 16:2.5544901 17:0 18:6 19:0 20:6 #
-6.1175333083221251863001444171175e-05 1:0 2:0 3:1.77877 4:10.534 5:0.87753999 6:0.25722599 7:0.129362 8:0.57042903 9:0.24435499 10:0.143934 11:6.77248 12:74.977303 13:0.66666698 14:0.79110098 15:0.864268 16:1.9703701 17:0 18:0 19:0 20:22 #
-6.1175333083221251863001444171175e-05 1:0 2:0 3:1.52537 4:0.66961002 5:0.56574303 6:0.24664 7:0.28445399 8:1.22943 9:0.209915 10:0.209915 11:8.3606005 12:81.679298 13:0.66666698 14:0.835774 15:0.80348098 16:2.43168 17:0 18:0 19:0 20:0 #
-6.1175333083221251863001444171175e-05 1:0 2:0 3:1.4219 4:0.94756299 5:1.24861 6:0.19970401 7:0.46252999 8:0.88302797 9:0.242201 10:0.242201 11:8.9905796 12:81.728798 13:0.66666698 14:0.694327 15:0.77223402 16:2.6145401 17:0 18:0 19:0 20:0 #
-6.1175333083221251863001444171175e-05 1:0 2:0 3:1.48848 4:1.49676 5:4.0585299 6:0.35462901 7:0.92049497 8:1.13438 9:0.152417 10:0.096661799 11:10.1161 12:85.900002 13:0.66666698 14:0.94537401 15:0.92026502 16:2.9410601 17:0 18:0 19:1 20:16.5 #
6.1175333083221251863001444171175e-05 1:-1 2:-0.5 3:2.8652899 4:2.7544899 5:0.82450497 6:0.147743 7:0.15482999 8:0.27342999 9:0.121716 10:0.078024201 11:16.786501 12:89.579803 13:0.444444 14:0.954849 15:0.96731102 16:4.8692298 17:-1 18:-0.5 19:-1 20:-0.5 #
6.1175333083221251863001444171175e-05 1:0 2:0 3:1.4328901 4:0.31107 5:1.03974 6:0.14533199 7:0.130778 8:0.38746601 9:0.15223099 10:0.10501 11:16.0662 12:86.1409 13:0.66666698 14:0.91883701 15:0.93864 16:4.6616802 17:0 18:0 19:0 20:0 #
6.1175333083221251863001444171175e-05 1:0 2:0 3:1.9438699 4:1.1415401 5:0.41517499 6:0.16772901 7:0.419193 8:0.476717 9:0.42822999 10:0.200396 11:10.3302 12:62.1824 13:1 14:0.77479899 15:0.8179 16:3.00314 17:0 18:0 19:0 20:0 #
6.1175333083221251863001444171175e-05 1:0 2:0 3:1.6210001 4:0.42524099 5:0.64853299 6:0.154616 7:0.42002699 8:1.42993 9:0.163417 10:0.163417 11:14.6833 12:85.112801 13:0.66666698 14:0.86139899 15:0.87222999 16:4.2627301 17:0 18:0 19:0 20:0 #
6.1175333083221251863001444171175e-05 1:0 2:0 3:1.33555 4:5.1278901 5:0.46838701 6:0.14592101 7:0.154064 8:0.457259 9:0.100243 10:0.090518802 11:13.7492 12:81.854797 13:0.66666698 14:0.90416002 15:0.939798 16:3.9929199 17:0 18:0 19:0 20:0 #
-5.48236874327018676791856144348e-05 1:1 2:5 3:1.53459 4:0.190814 5:0.49152401 6:0.199016 7:0.32172501 8:1.01592 9:0.348317 10:0.177788 11:18.7323 12:75.029701 13:0.66666698 14:0.676525 15:0.88589197 16:5.4288602 17:1 18:5 19:0 20:-77 #
6.1175333083221251863001444171175e-05 1:5 2:18 3:2.0899701 4:0.46431401 5:0.144586 6:0.15846799 7:0.416437 8:0.74528599 9:0.183052 10:0.105139 11:12.6428 12:81.702904 13:1 14:0.88225901 15:0.92066598 16:3.67296 17:5 18:18 19:5 20:18 #
-6.1175333083221251863001444171175e-05 1:0 2:-1.5 3:1.79568 4:0.54775298 5:0.135685 6:0.31985801 7:0.25006899 8:0.324999 9:0.157206 10:0.157206 11:16.9118 12:80.573898 13:0.444444 14:0.91587299 15:0.89113802 16:4.9053102 17:-1 18:-45.25 19:-1 20:-45.25 #
6.1175333083221251863001444171175e-05 1:2 2:4.5 3:1.55028 4:0.33612701 5:0.172813 6:0.036083501 7:0.12107 8:0.79457098 9:0.065959699 10:0.037344798 11:8.9461899 12:84.6092 13:0.66666698 14:0.95680398 15:0.97534001 16:2.60166 17:2 18:4.5 19:2 20:-23.5 #
-6.1175333083221251863001444171175e-05 1:-2 2:-21.5 3:1.09369 4:0 5:0 6:0 7:0 8:0 9:0.53637999 10:0.326276 11:16.507601 12:72.676804 13:1 14:0.76969802 15:0.72788602 16:4.7888999 17:-2 18:-21.5 19:-2 20:-21.5 #
6.1175333083221251863001444171175e-05 1:2 2:14 3:3.27229 4:0.306238 5:0.058391798 6:0.046813801 7:0.100224 8:0.30289501 9:0.105952 10:0.022717301 11:7.1530299 12:83.098396 13:0.444444 14:0.95551997 15:0.98520201 16:2.08095 17:2 18:14 19:6 20:142.66701 #
-6.1175333083221251863001444171175e-05 1:0 2:0 3:1.73908 4:1.23987 5:0.30035999 6:0.088905104 7:0.38675901 8:0.27016699 9:0.120167 10:0.120167 11:18.3458 12:76.2855 13:0.66666698 14:0.93117797 15:0.937648 16:5.3178301 17:0 18:0 19:0 20:0 #
6.1175333083221251863001444171175e-05 1:-1 2:-6 3:1.66045 4:0.43259299 5:0.087457098 6:0.236315 7:0.17350399 8:0.54777902 9:0.061182201 10:0.061182201 11:11.4762 12:80.828003 13:1 14:0.95068902 15:0.96023601 16:3.3352201 17:-1 18:-6 19:-1 20:-6 #
-6.1175333083221251863001444171175e-05 1:-2 2:-25.5 3:2.66501 4:2.2549601 5:0.425477 6:0.27219301 7:0.25000599 8:0.60668701 9:0.34434199 10:0.065185599 11:18.721201 12:79.9748 13:0.66666698 14:0.97465599 15:0.99259299 16:5.4256601 17:-2 18:-25.5 19:1 20:130.04201 #
-6.1175333083221251863001444171175e-05 1:0 2:7 3:1.28144 4:0.35366401 5:0.165295 6:0.193739 7:0.190253 8:0.95314097 9:0.229027 10:0.101137 11:20.243601 12:88.392799 13:0.66666698 14:0.962479 15:0.96901399 16:5.8624701 17:0 18:7 19:5 20:189.58299 #
-6.1175333083221251863001444171175e-05 1:1 2:11 3:3.3406301 4:0.325804 5:0.189512 6:0.757245 7:0.34553301 8:0.53501898 9:1.2578599 10:0.250837 11:12.8179 12:81.832703 13:0.444444 14:0.84589398 15:0.77913398 16:3.7236099 17:1 18:11 19:3 20:118.25 #
6.1175333083221251863001444171175e-05 1:1 2:7 3:2.30722 4:1.14362 5:0.25114 6:0.026137499 7:0.167872 8:0.35848501 9:0.082178697 10:0.082178697 11:14.5642 12:82.408096 13:0.66666698 14:0.951671 15:0.95253098 16:4.2283401 17:1 18:7 19:1 20:7 #
-6.1175333083221251863001444171175e-05 1:0 2:0 3:3.1380701 4:0.609025 5:0.18541101 6:0.101701 7:0.178507 8:0.72801101 9:0.080683097 10:0.080683097 11:19.4834 12:88.539101 13:0.66666698 14:0.976547 15:0.98242301 16:5.6444802 17:0 18:0 19:0 20:0 #
6.1175333083221251863001444171175e-05 1:1 2:24 3:1.59559 4:0.63845003 5:0.0328927 6:0.196722 7:0.48131099 8:0.63266999 9:0.100882 10:0.120732 11:12.6724 12:89.284103 13:0.66666698 14:0.86431199 15:0.90627801 16:3.68153 17:1 18:24 19:2 20:113.5 #
-6.1175333083221251863001444171175e-05 1:1 2:4 3:2.2151999 4:0.098259799 5:0.13033099 6:0.0570531 7:0.117416 8:0.68081498 9:0.220202 10:0.164288 11:12.4202 12:84.512802 13:0.66666698 14:0.750723 15:0.86149502 16:3.60853 17:1 18:4 19:3 20:77.333298 #
6.1175333083221251863001444171175e-05 1:0 2:4 3:1.22004 4:0.395437 5:1.38728 6:0.0575427 7:0.0994436 8:0.408943 9:0.079249002 10:0.079249002 11:14.7441 12:86.955399 13:0.444444 14:0.95881701 15:0.95585299 16:4.2802801 17:0 18:4 19:0 20:4 #
6.1175333083221251863001444171175e-05 1:-3 2:-16.6667 3:2.8201301 4:0.841842 5:0.11751 6:0.099261701 7:0.039774802 8:0.099700399 9:0.0102852 10:0.0129336 11:8.3308096 12:88.105202 13:0.66666698 14:0.99531299 15:0.99779999 16:2.4230299 17:-3 18:-16.6667 19:-3 20:91.333298 #
6.1175333083221251863001444171175e-05 1:1 2:16.75 3:1.39511 4:0 5:0 6:0 7:0 8:0 9:0.187049 10:0.187049 11:16.288 12:82.293404 13:0.66666698 14:0.81319499 15:0.85840398 16:4.7256098 17:1 18:16.75 19:1 20:16.75 #
-6.1175333083221251863001444171175e-05 1:-1 2:-4.5 3:1.5044399 4:0.28718501 5:0.43883699 6:0.31227699 7:0.374834 8:0.40762299 9:0.233005 10:0.098859802 11:12.1217 12:83.433098 13:0.66666698 14:0.95046598 15:0.925668 16:3.52215 17:-1 18:-4.5 19:-3 20:-123.167 #
6.1175333083221251863001444171175e-05 1:0 2:0 3:1.6293 4:0.13896701 5:1.80458 6:0.41900799 7:0.32759401 8:0.25348401 9:0.153539 10:0.153539 11:13.0686 12:87.605103 13:0.66666698 14:0.82289302 15:0.87497199 16:3.7961199 17:0 18:0 19:0 20:0 #
6.1175333083221251863001444171175e-05 1:-2 2:-11 3:3.0276301 4:5.53859 5:0.13770001 6:0.046158299 7:0.0695967 8:0.070468098 9:0.039749999 10:0.030342899 11:2.3304501 12:86.625603 13:0.66666698 14:0.96358103 15:0.97050601 16:0.67836499 17:-2 18:-11 19:-1 20:138 #
-6.1175333083221251863001444171175e-05 1:-2 2:-15 3:2.15942 4:0.19116201 5:0.16668899 6:0.189652 7:0.91568702 8:0.242663 9:0.204841 10:0.077792101 11:15.3171 12:89.219002 13:0.66666698 14:0.94847602 15:0.96103001 16:4.4456601 17:-2 18:-15 19:1 20:141.66701 #
6.1175333083221251863001444171175e-05 1:1 2:14 3:2.0699699 4:0.32775599 5:0.24799401 6:0.087641902 7:0.19292399 8:0.426276 9:0.057883099 10:0.071532696 11:16.110701 12:85.591499 13:0.66666698 14:0.979141 15:0.97192299 16:4.67451 17:1 18:14 19:1 20:14 #
-6.1175333083221251863001444171175e-05 1:0 2:0 3:1.60779 4:1.28192 5:0.49581701 6:0.40553701 7:0.500687 8:0.25935799 9:0.43401501 10:0.122489 11:15.2069 12:73.572601 13:0.66666698 14:0.89912498 15:0.91641402 16:4.4138699 17:0 18:0 19:-1 20:-175 #
-6.1175333083221251863001444171175e-05 1:0 2:-2 3:1.05776 4:0.52622497 5:0.72555703 6:0.35309401 7:0.45704201 8:0.79802299 9:0.235248 10:0.137851 11:19.5345 12:87.691399 13:0.66666698 14:0.88928699 15:0.93066198 16:5.6591501 17:0 18:-2 19:0 20:-2 #
-6.1175333083221251863001444171175e-05 1:0 2:0 3:3.5555401 4:0.286915 5:0.16094799 6:0.154117 7:0.36238199 8:0.072253399 9:0.37083301 10:0.080295503 11:19.4666 12:84.430397 13:0.66666698 14:0.98034197 15:0.98287201 16:5.6396699 17:0 18:0 19:4 20:181.625 #
6.1175333083221251863001444171175e-05 1:0 2:0 3:2.26811 4:0.53859103 5:0.070084199 6:0.058530599 7:0.104102 8:0.183706 9:0.0262221 10:0.028851399 11:12.0476 12:85.759804 13:0.66666698 14:0.98901701 15:0.99392802 16:3.50069 17:0 18:0 19:0 20:0 #
6.1175333083221251863001444171175e-05 1:0 2:0 3:1.37694 4:0.63640797 5:0.521541 6:0.74963599 7:0.13029701 8:0.38891199 9:0.28612399 10:0.132237 11:9.3127699 12:75.7827 13:0.66666698 14:0.845074 15:0.88303202 16:2.70804 17:0 18:-4 19:4 20:77.599998 #
-6.1175333083221251863001444171175e-05 1:1 2:4 3:1.3963799 4:0.58534002 5:0.318979 6:0.139281 7:0.57303399 8:0.65450001 9:0.432522 10:0.35607201 11:11.6746 12:89.353302 13:0.66666698 14:0.707362 15:0.66281801 16:3.3926899 17:1 18:4 19:1 20:4 #
6.1175333083221251863001444171175e-05 1:0 2:0 3:1.82449 4:1.37412 5:0.69180602 6:0.070829801 7:0.085798398 8:0.37062401 9:0.056420099 10:0.051667601 11:11.9604 12:85.979401 13:0.66666698 14:0.96688902 15:0.97117501 16:3.4754601 17:0 18:0 19:0 20:0 #
6.1175333083221251863001444171175e-05 1:0 2:0 3:1.3185 4:0.33211401 5:1.26061 6:0.111971 7:0.168796 8:0.410052 9:0.120736 10:0.120736 11:11.5565 12:83.4076 13:0.66666698 14:0.85036802 15:0.90159601 16:3.35849 17:0 18:0 19:0 20:0 #
-6.1175333083221251863001444171175e-05 1:2 2:37 3:2.16401 4:1.5603499 5:0.49811599 6:0.37314299 7:0.412664 8:0.39577201 9:0.238074 10:0.25339201 11:21.452999 12:78.0364 13:0.66666698 14:0.83948302 15:0.840653 16:6.2087102 17:2 18:37 19:2 20:37 #
-6.1175333083221251863001444171175e-05 1:1 2:9 3:1.59806 4:0.38048699 5:0.0561442 6:0.125652 7:0.43389601 8:1.04299 9:0.097294196 10:0.0552379 11:11.5567 12:81.5681 13:1 14:0.95707297 15:0.96633297 16:3.3585501 17:1 18:9 19:1 20:9 #
6.1175333083221251863001444171175e-05 1:0 2:0 3:1.10672 4:1.46553 5:0.80074298 6:0.155551 7:0.19113301 8:0.26798099 9:0.104063 10:0.104063 11:10.7866 12:79.454903 13:0.66666698 14:0.89889801 15:0.91585302 16:3.1354201 17:0 18:0 19:0 20:0 #
-6.1175333083221251863001444171175e-05 1:2 2:11 3:1.14718 4:0.548783 5:0.65330303 6:0.274773 7:0.29992801 8:0.70214701 9:0.371023 10:0.18700799 11:11.9034 12:78.7967 13:0.66666698 14:0.67268997 15:0.83862603 16:3.45894 17:2 18:11 19:2 20:11 #
6.1175333083221251863001444171175e-05 1:0 2:0 3:1.78095 4:1.6348799 5:0.47536799 6:0.101827 7:0.44392699 8:0.57350397 9:0.0592844 10:0.0592844 11:11.7359 12:85.980797 13:0.66666698 14:0.94035798 15:0.96288902 16:3.41044 17:0 18:0 19:0 20:0 #
-6.1175333083221251863001444171175e-05 1:-2 2:-8.5 3:1.26104 4:1.8662601 5:1.27201 6:0.493265 7:0.23244201 8:0.60790598 9:0.17470101 10:0.136271 11:11.3662 12:85.626198 13:0.66666698 14:0.81586897 15:0.88692498 16:3.30336 17:-2 18:-8.5 19:-2 20:-8.5 #
6.1175333083221251863001444171175e-05 1:0 2:-3 3:1.33857 4:0.14151999 5:0.14445899 6:0.080978401 7:0.18765999 8:0.46487099 9:0.055175301 10:0.040374599 11:9.2200603 12:82.4263 13:1 14:0.95145202 15:0.97325701 16:2.6811399 17:0 18:-3 19:2 20:94 #
-6.1175333083221251863001444171175e-05 1:0 2:0 3:1.67366 4:4.2273502 5:0.26459399 6:0.32992199 7:0.170581 8:0.12892801 9:0.17246 10:0.112644 11:18.8596 12:85.786201 13:0.444444 14:0.901281 15:0.94647002 16:5.4654102 17:0 18:0 19:0 20:0 #
-6.1175333083221251863001444171175e-05 1:1 2:7 3:1.86069 4:2.7953899 5:0.403557 6:0.092160702 7:0.119403 8:0.86729997 9:0.080363601 10:0.080363601 11:14.3725 12:79.685501 13:0.66666698 14:0.93712199 15:0.95376098 16:4.1729898 17:1 18:7 19:0 20:-129 #
6.1175333083221251863001444171175e-05 1:2 2:14 3:2.4010301 4:0.78939998 5:0.31505001 6:0.047675502 7:0.025929499 8:0.98167503 9:0.0400985 10:0.0400985 11:10.3641 12:85.166603 13:0.444444 14:0.98486298 15:0.97682601 16:3.0129399 17:2 18:14 19:3 20:82 #
-6.1175333083221251863001444171175e-05 1:1 2:16.5 3:1.22041 4:2.2851 5:1.45732 6:0.29585901 7:0.30261901 8:0.392986 9:0.14517 10:0.14517 11:12.9962 12:77.577499 13:0.66666698 14:0.86026698 15:0.88464302 16:3.7751999 17:1 18:16.5 19:1 20:16.5 #
6.1175333083221251863001444171175e-05 1:0 2:0 3:1.24553 4:2.0778999 5:0.78719801 6:0.32581899 7:0.33125299 8:0.78967398 9:0.29268301 10:0.104351 11:8.24786 12:70.418602 13:0.66666698 14:0.80357999 15:0.90684098 16:2.3989401 17:0 18:0 19:0 20:0 #
-6.1175333083221251863001444171175e-05 1:0 2:0 3:1.92478 4:3.5223601 5:0.53365201 6:0.158841 7:0.110082 8:0.80940998 9:0.17049199 10:0.17049199 11:12.1379 12:86.134598 13:0.66666698 14:0.86588699 15:0.85325998 16:3.52683 17:0 18:0 19:0 20:0 #
6.1175333083221251863001444171175e-05 1:0 2:0 3:2.0134001 4:0.53154701 5:1.27084 6:0.142324 7:0.43483999 8:0.99471903 9:0.226091 10:0.226091 11:11.5869 12:89.500801 13:0.66666698 14:0.84870797 15:0.794056 16:3.36728 17:0 18:0 19:0 20:0 #
-6.1175333083221251863001444171175e-05 1:0 2:0 3:2.3241999 4:1.9943 5:0.16678201 6:0.134846 7:0.32136101 8:0.14383499 9:0.116005 10:0.116005 11:12.4898 12:86.639297 13:1 14:0.90150499 15:0.90932798 16:3.62868 17:0 18:0 19:0 20:0 #
6.1175333083221251863001444171175e-05 1:0 2:0 3:1.4082 4:0.1188 5:0.52048302 6:0.187621 7:0.21630099 8:0.364066 9:0.162534 10:0.162534 11:9.9499903 12:80.999702 13:0.66666698 14:0.81903899 15:0.85485703 16:2.89288 17:0 18:0 19:0 20:0 #
-6.1175333083221251863001444171175e-05 1:-1 2:-10 3:1.23672 4:0.64321703 5:1.33836 6:0.63158703 7:0.113851 8:0.31656501 9:0.085811198 10:0.085811198 11:10.9089 12:80.234703 13:0.66666698 14:0.94152898 15:0.93421698 16:3.1708701 17:-1 18:-10 19:-1 20:-10 #
6.1175333083221251863001444171175e-05 1:0 2:0 3:1.17726 4:5.3165798 5:1.39467 6:0.126582 7:0.115966 8:1.04379 9:0.16676199 10:0.16676199 11:9.9521599 12:81.372002 13:0.66666698 14:0.78847301 15:0.85043001 16:2.8935101 17:0 18:0 19:0 20:0 #
-6.1175333083221251863001444171175e-05 1:0 2:0 3:1.33887 4:2.51249 5:2.41172 6:0.366932 7:0.079772398 8:0.71025801 9:0.098921902 10:0.098921902 11:11.8168 12:81.081596 13:0.66666698 14:0.89830297 15:0.92436802 16:3.4338601 17:0 18:0 19:0 20:12.5 #
6.1175333083221251863001444171175e-05 1:0 2:0 3:1.96383 4:1.25328 5:0.49474099 6:0.13126899 7:0.35276201 8:0.89319801 9:0.099123903 10:0.099123903 11:9.7979002 12:83.142899 13:0.66666698 14:0.938752 15:0.91676903 16:2.8487699 17:0 18:0 19:0 20:-6 #
6.1175333083221251863001444171175e-05 1:0 2:-6 3:1.38641 4:0.242129 5:0.052999701 6:0.32842201 7:0.20387 8:0.36749801 9:0.40350899 10:0.0573048 11:7.0507398 12:74.601898 13:0.66666698 14:0.84275699 15:0.95066798 16:2.05123 17:0 18:-6 19:1 20:56.333302 #
6.1175333083221251863001444171175e-05 1:-1 2:-6 3:1.74427 4:0.63821101 5:0.21173801 6:0.072796099 7:0.074662901 8:0.53376102 9:0.047699898 10:0.026634101 11:8.2957096 12:83.555496 13:0.66666698 14:0.966245 15:0.984249 16:2.4128399 17:-1 18:-6 19:-1 20:-6 #
-6.1175333083221251863001444171175e-05 1:0 2:0 3:1.99376 4:0.455899 5:0.220586 6:0.0599944 7:0.096797697 8:0.422903 9:0.0812824 10:0.0812824 11:12.6034 12:84.192902 13:0.66666698 14:0.92838502 15:0.944592 16:3.6615701 17:0 18:0 19:0 20:0 #
6.1175333083221251863001444171175e-05 1:0 2:0 3:1.62989 4:0.70789701 5:0.47324499 6:0.211804 7:0.090726398 8:0.96352702 9:0.059045501 10:0.038559701 11:9.2368698 12:84.451897 13:0.66666698 14:0.95914799 15:0.97498697 16:2.6860099 17:0 18:0 19:0 20:0 #
-6.1175333083221251863001444171175e-05 1:0 2:0 3:1.29804 4:0.77762997 5:0.96705902 6:0.40512401 7:0.44095701 8:0.50710499 9:0.679362 10:0.23478299 11:13.0794 12:84.258003 13:0.66666698 14:0.57737797 15:0.793208 16:3.7992599 17:0 18:0 19:0 20:0 #
-6.1175333083221251863001444171175e-05 1:-1 2:-15 3:1.47879 4:0.426355 5:0.56009102 6:0.159077 7:0.22233801 8:0.59473598 9:0.218799 10:0.218799 11:11.0239 12:80.182602 13:1 14:0.80545598 15:0.803451 16:3.2042 17:-1 18:-15 19:-1 20:-15 #
6.1175333083221251863001444171175e-05 1:3 2:20.1667 3:3.6032 4:0.145263 5:0.046571702 6:0.103005 7:0.16072001 8:0.139715 9:0.054035399 10:0.022727599 11:10.8196 12:80.650597 13:0.66666698 14:0.99154598 15:0.99565297 16:3.145 17:3 18:20.1667 19:3 20:20.1667 #
-6.1175333083221251863001444171175e-05 1:0 2:0 3:1.42849 4:0.13725799 5:0.48633999 6:0.26444599 7:0.29979399 8:0.78204501 9:0.76387799 10:0.132671 11:15.3345 12:69.0634 13:0.444444 14:0.82808203 15:0.907125 16:4.4506698 17:0 18:0 19:4 20:151.5 #
6.1175333083221251863001444171175e-05 1:-1 2:-10 3:1.52669 4:0.64910299 5:0.43696499 6:0.203504 7:0.124106 8:0.43954301 9:0.044882901 10:0.044882901 11:7.0806699 12:83.234299 13:0.66666698 14:0.98322898 15:0.963283 16:2.0599301 17:-1 18:-10 19:-1 20:-10 #
6.1175333083221251863001444171175e-05 1:-1 2:-13.75 3:3.3413999 4:0.319197 5:0.102 6:0.157823 7:0.0522792 8:1.1514699 9:0.0263259 10:0.017007601 11:1.90762 12:86.931801 13:0.66666698 14:0.96963698 15:0.98356301 16:0.55529797 17:-1 18:-13.75 19:2 20:128.062 #
-6.1175333083221251863001444171175e-05 1:2 2:19.875 3:2.2074299 4:0.82765102 5:0.070319198 6:0.105053 7:0.051711299 8:0.94719601 9:0.0471684 10:0.0471684 11:14.8348 12:80.350403 13:0.444444 14:0.986408 15:0.98825401 16:4.3064799 17:2 18:19.875 19:2 20:19.875 #
-6.1175333083221251863001444171175e-05 1:0 2:0 3:1.38933 4:0.42800999 5:0.47042099 6:0.064968199 7:0.202691 8:0.79979098 9:0.110068 10:0.110068 11:13.9224 12:88.857597 13:0.66666698 14:0.88430399 15:0.921978 16:4.0429502 17:0 18:0 19:0 20:0 #
6.1175333083221251863001444171175e-05 1:2 2:11 3:1.06451 4:0.47098401 5:0.23535199 6:0.095113702 7:0.17143901 8:0.43779501 9:0.0758828 10:0.049820099 11:9.5088596 12:79.562103 13:0.66666698 14:0.92706198 15:0.96464401 16:2.76493 17:2 18:11 19:2 20:11 #
6.1175333083221251863001444171175e-05 1:-1 2:-10 3:1.24076 4:1.95846 5:1.0340101 6:0.13371301 7:0.24849699 8:1.12077 9:0.24692 10:0.080150597 11:6.33599 12:77.998299 13:0.66666698 14:0.80590302 15:0.926359 16:1.84352 17:-1 18:-10 19:-1 20:-10 #
6.1175333083221251863001444171175e-05 1:0 2:0 3:1.94944 4:1.1322401 5:0.28025201 6:0.21646699 7:0.33567601 8:0.68717003 9:0.210995 10:0.112351 11:9.0279999 12:80.940598 13:1 14:0.81488103 15:0.90097302 16:2.6254001 17:0 18:0 19:-1 20:36 #
-6.1175333083221251863001444171175e-05 1:0 2:0 3:1.7610101 4:0.59305698 5:0.75128001 6:0.0612013 7:0.34737301 8:0.183479 9:0.18866301 10:0.18866301 11:13.4254 12:85.977203 13:0.66666698 14:0.84725499 15:0.84054202 16:3.8993001 17:0 18:0 19:0 20:0 #
-6.1175333083221251863001444171175e-05 1:0 2:0 3:1.5829999 4:0.804268 5:1.0177799 6:0.17714299 7:0.42312399 8:0.234309 9:0.399515 10:0.210793 11:15.9445 12:65.875801 13:0.66666698 14:0.76806599 15:0.83605498 16:4.6265898 17:0 18:0 19:3 20:158 #
-6.1175333083221251863001444171175e-05 1:-2 2:-12 3:1.1731499 4:0.398072 5:0.25596899 6:0.236388 7:0.75024998 8:0.201252 9:1.8894 10:0.132057 11:12.6941 12:89.707199 13:0.66666698 14:0.87837499 15:0.89723903 16:3.6877999 17:-2 18:-12 19:-2 20:-12 #
6.1175333083221251863001444171175e-05 1:3 2:14.6667 3:2.6542201 4:0.68066001 5:0.17968699 6:0.249024 7:0.074693099 8:0.82914197 9:0.073532403 10:0.069808803 11:10.8808 12:88.669502 13:0.66666698 14:0.94687301 15:0.94941998 16:3.16273 17:3 18:14.6667 19:3 20:14.6667 #
6.1175333083221251863001444171175e-05 1:-1 2:-10 3:1.1494499 4:0.52269101 5:0.37877101 6:0.254085 7:0.179408 8:1.83972 9:0.19186901 10:0.19186901 11:6.4785299 12:83.521599 13:0.66666698 14:0.71258903 15:0.81542403 16:1.88495 17:-1 18:-10 19:-1 20:-10 #
-6.1175333083221251863001444171175e-05 1:0 2:3.5 3:1.59642 4:0.93265498 5:0.046526499 6:0.067624703 7:0.079664499 8:1.82638 9:0.042038701 10:0.042038701 11:13.6238 12:83.804497 13:0.66666698 14:0.98650098 15:0.98756403 16:3.95667 17:0 18:3.5 19:0 20:3.5 #
6.1175333083221251863001444171175e-05 1:1 2:-3.375 3:3.4014599 4:0.65199 5:0.091582596 6:0.082463697 7:0.0776169 8:0.236307 9:0.022611801 10:0.0139585 11:9.0098801 12:85.8909 13:0.66666698 14:0.99479502 15:0.99862701 16:2.6201401 17:1 18:-3.375 19:3 20:49.8125 #
6.1175333083221251863001444171175e-05 1:-2 2:5.3333302 3:2.1229601 4:0.056394801 5:0.071425296 6:0.086937301 7:0.065646604 8:0.15362599 9:0.090029798 10:0.022654399 11:7.2870202 12:87.687897 13:1 14:0.98443699 15:0.98559099 16:2.11988 17:-2 18:5.3333302 19:0 20:114.667 #
-6.1175333083221251863001444171175e-05 1:-2 2:-12.5 3:1.1822 4:3.1163199 5:1.70402 6:0.35471901 7:0.100458 8:0.72983003 9:0.0496643 10:0.0496643 11:11.0658 12:79.113403 13:0.444444 14:0.98001999 15:0.970348 16:3.2163501 17:-2 18:-12.5 19:-4 20:-22.1667 #
-6.1175333083221251863001444171175e-05 1:0 2:0 3:2.47824 4:0.65410101 5:1.84973 6:0.600775 7:0.184003 8:0.111715 9:0.139709 10:0.139709 11:20.5977 12:88.820801 13:0.33333299 14:0.91547698 15:0.93242002 16:5.9639001 17:0 18:0 19:2 20:174 #
-6.1175333083221251863001444171175e-05 1:2 2:20 3:1.65601 4:1.70205 5:0.36600399 6:0.217198 7:0.086118899 8:0.96735799 9:0.12907401 10:0.12907401 11:16.457001 12:84.179703 13:0.66666698 14:0.91009802 15:0.91589499 16:4.7743001 17:2 18:20 19:2 20:20 #
6.1175333083221251863001444171175e-05 1:0 2:1 3:1.5869499 4:0.45048299 5:0.23020899 6:0.093468703 7:0.181339 8:0.86966097 9:0.092248097 10:0.092248097 11:9.3334703 12:88.118599 13:0.66666698 14:0.90030599 15:0.92177802 16:2.71404 17:0 18:1 19:0 20:1 #
-6.1175333083221251863001444171175e-05 1:-1 2:-7 3:1.66575 4:1.3548 5:1.21811 6:0.268684 7:0.40994301 8:0.47947201 9:0.25982901 10:0.25982901 11:11.7522 12:80.5681 13:0.66666698 14:0.85796797 15:0.765576 16:3.4151599 17:-1 18:-7 19:-1 20:-7 #
-6.1175333083221251863001444171175e-05 1:0 2:0 3:1.56522 4:0.49164999 5:0.24702001 6:0.120916 7:0.25974599 8:0.40460601 9:0.084392399 10:0.084392399 11:15.0047 12:79.6763 13:0.66666698 14:0.93648303 15:0.95291197 16:4.3555102 17:0 18:0 19:1 20:84.479202 #
6.1175333083221251863001444171175e-05 1:0 2:3 3:1.64843 4:0.61384499 5:0.072898798 6:0.054060001 7:0.245453 8:0.41257 9:0.048025802 10:0.048025802 11:9.2348204 12:85.601997 13:0.66666698 14:0.94689101 15:0.96555001 16:2.68542 17:0 18:3 19:0 20:3 #
6.1175333083221251863001444171175e-05 1:0 2:0 3:1.30601 4:0.77030402 5:0.97500902 6:0.12830301 7:0.17260399 8:1.17419 9:0.049257599 10:0.049257599 11:8.1960402 12:83.019798 13:0.66666698 14:0.96219403 15:0.96157002 16:2.3838999 17:0 18:0 19:0 20:0 #
-6.1175333083221251863001444171175e-05 1:0 2:0 3:2.82231 4:0.26904699 5:0.38318399 6:0.19417 7:0.30963901 8:0.98994398 9:0.33292899 10:0.064796001 11:17.497101 12:69.204697 13:0.66666698 14:0.977386 15:0.98531002 16:5.07377 17:0 18:0 19:0 20:0 #
6.1175333083221251863001444171175e-05 1:0 2:10 3:1.2693 4:0.67330801 5:0.74131203 6:0.117177 7:0.17354999 8:0.28614399 9:0.089655802 10:0.052457001 11:10.1796 12:87.241096 13:0.444444 14:0.94168699 15:0.96419501 16:2.95945 17:0 18:10 19:0 20:10 #
-6.1175333083221251863001444171175e-05 1:0 2:0 3:1.40045 4:0.49374601 5:0.60030699 6:0.18689001 7:0.23675001 8:0.350059 9:0.113055 10:0.113055 11:12.2453 12:78.358803 13:0.66666698 14:0.930834 15:0.91319197 16:3.55793 17:0 18:0 19:0 20:0 #
-6.1175333083221251863001444171175e-05 1:0 2:0 3:1.61379 4:1.72595 5:0.914231 6:0.15022001 7:0.12820899 8:0.60988301 9:0.216142 10:0.216142 11:12.4826 12:79.836304 13:0.66666698 14:0.87394297 15:0.81221598 16:3.6266 17:0 18:0 19:0 20:0 #
6.1175333083221251863001444171175e-05 1:0 2:0 3:1.36575 4:0.16866501 5:0.091017 6:0.19191299 7:0.108044 8:0.657291 9:0.065040097 10:0.038831901 11:8.3719597 12:84.358498 13:0.66666698 14:0.902619 15:0.97231901 16:2.4349799 17:0 18:0 19:0 20:0 #
-6.1175333083221251863001444171175e-05 1:0 2:0 3:1.46117 4:3.2398 5:0.56533402 6:0.54169899 7:0.108395 8:1.32714 9:0.108472 10:0.10168 11:13.8028 12:85.857399 13:0.66666698 14:0.88572401 15:0.92984498 16:4.00841 17:0 18:0 19:0 20:0 #
6.1175333083221251863001444171175e-05 1:0 2:5 3:2.7585599 4:0.71208298 5:0.083986796 6:0.109122 7:0.052267801 8:0.316118 9:0.025110001 10:0.016004501 11:9.2261801 12:86.508102 13:0.66666698 14:0.99453503 15:0.99721497 16:2.68291 17:0 18:5 19:0 20:5 #
-6.1175333083221251863001444171175e-05 1:1 2:7 3:2.7876799 4:1.45608 5:0.043893501 6:0.060478799 7:0.28599301 8:0.62133998 9:0.237818 10:0.184486 11:13.5888 12:79.361801 13:1 14:0.81544399 15:0.84414202 16:3.9465401 17:1 18:7 19:1 20:7 #
6.1175333083221251863001444171175e-05 1:-1 2:-4 3:1.50234 4:1.21211 5:0.39576 6:0.040028799 7:0.176938 8:0.48624501 9:0.037643 10:0.037643 11:7.2444 12:82.970901 13:0.66666698 14:0.97672999 15:0.97078502 16:2.1075001 17:-1 18:-4 19:-1 20:-4 #
-6.1175333083221251863001444171175e-05 1:0 2:0 3:1.22644 4:0.279771 5:0.54157299 6:0.28165701 7:0.311901 8:0.31036901 9:0.25518399 10:0.23482101 11:14.7321 12:89.360703 13:0.66666698 14:0.61478001 15:0.80735201 16:4.2768302 17:0 18:0 19:0 20:0 #
6.1175333083221251863001444171175e-05 1:3 2:22.75 3:1.93853 4:0.141265 5:0.121214 6:0.097430602 7:0.17932799 8:0.111441 9:0.037535202 10:0.0218961 11:8.9833899 12:79.061798 13:0.66666698 14:0.97625101 15:0.990686 16:2.6124599 17:3 18:22.75 19:3 20:22.75 #
-6.1175333083221251863001444171175e-05 1:4 2:25.75 3:2.42892 4:0.30985799 5:0.403025 6:0.185544 7:0.16712201 8:0.27048299 9:0.124679 10:0.165123 11:18.522499 12:88.834602 13:0.66666698 14:0.93323499 15:0.89585602 16:5.3685899 17:4 18:25.75 19:4 20:25.75 #
6.1175333083221251863001444171175e-05 1:1 2:0.58333302 3:1.55697 4:0.492273 5:0.26641601 6:0.028747899 7:0.136628 8:0.89915901 9:0.032683101 10:0.032683101 11:8.1753397 12:85.268799 13:0.66666698 14:0.97830498 15:0.97781098 16:2.3778901 17:1 18:0.58333302 19:1 20:0.58333302 #
-6.1175333083221251863001444171175e-05 1:0 2:0 3:1.32945 4:0.80654299 5:0.39762399 6:0.29559901 7:0.441255 8:0.226695 9:0.73442298 10:0.221608 11:9.6684904 12:60.129299 13:0.66666698 14:0.67701799 15:0.794613 16:2.81124 17:0 18:0 19:0 20:0 #
6.1175333083221251863001444171175e-05 1:3 2:42.916698 3:1.4295501 4:0.70078498 5:0.062070999 6:0.0670963 7:0.0457054 8:0.77871698 9:0.0553669 10:0.047961801 11:10.8162 12:81.393402 13:0.66666698 14:0.962192 15:0.97061002 16:3.1440201 17:3 18:42.916698 19:4 20:94.75 #
-6.1175333083221251863001444171175e-05 1:4 2:29.25 3:3.8312199 4:0.084890202 5:0.068394899 6:0.053153101 7:0.25531799 8:0.46844599 9:0.069208302 10:0.067239001 11:19.444 12:89.531601 13:0.66666698 14:0.97717398 15:0.995327 16:5.6331902 17:4 18:29.25 19:4 20:29.25 #
6.1175333083221251863001444171175e-05 1:0 2:0 3:1.34595 4:2.7491801 5:1.0464799 6:0.103797 7:0.067035198 8:0.48278901 9:0.045853499 10:0.042837098 11:7.6417699 12:84.122704 13:0.66666698 14:0.94117397 15:0.96620899 16:2.22293 17:0 18:0 19:0 20:0 #
-6.1175333083221251863001444171175e-05 1:0 2:0 3:2.3908501 4:2.96946 5:0.138504 6:0.168082 7:0.219294 8:0.48842701 9:0.24224401 10:0.101985 11:14.8098 12:87.985199 13:1 14:0.90653503 15:0.93413198 16:4.2992702 17:0 18:0 19:0 20:0 #
6.1175333083221251863001444171175e-05 1:0 2:2 3:2.0529201 4:1.13515 5:0.56414902 6:0.0475225 7:0.130779 8:0.372578 9:0.029212501 10:0.029212501 11:8.0792704 12:86.287903 13:0.66666698 14:0.97836697 15:0.98099399 16:2.3499899 17:0 18:2 19:0 20:2 #
-6.1175333083221251863001444171175e-05 1:2 2:17.5 3:1.1891299 4:0.50676501 5:1.31824 6:0.076306798 7:0.413082 8:0.17012 9:0.069143303 10:0.069143303 11:15.6233 12:77.417999 13:0.66666698 14:0.96286201 15:0.97106397 16:4.5339699 17:2 18:17.5 19:2 20:17.5 #
6.1175333083221251863001444171175e-05 1:0 2:-4 3:1.05437 4:3.2416101 5:0.82990801 6:0.217788 7:0.144306 8:1.04632 9:0.074489102 10:0.074489102 11:7.78866 12:89.836502 13:0.66666698 14:0.91683602 15:0.93516999 16:2.26559 17:0 18:-4 19:0 20:-4 #
-6.1175333083221251863001444171175e-05 1:0 2:0 3:1.24511 4:2.7697999 5:1.50543 6:0.22872899 7:0.704252 8:1.10114 9:0.16223601 10:0.16223601 11:14.765 12:85.489899 13:0.66666698 14:0.84139597 15:0.87418598 16:4.2863302 17:0 18:0 19:0 20:0 #
6.1175333083221251863001444171175e-05 1:5 2:29.200001 3:4.1284599 4:0.13953 5:0.111936 6:0.069675699 7:0.081898198 8:0.101502 9:0.035929099 10:0.023553301 11:9.7526197 12:87.838898 13:0.66666698 14:0.97054499 15:0.991409 16:2.83564 17:5 18:29.200001 19:7 20:85.5 #
6.1175333083221251863001444171175e-05 1:0 2:-5.5 3:3.2966499 4:0.46656799 5:0.036550701 6:0.0484979 7:0.14042801 8:1.00585 9:0.015814601 10:0.015814601 11:6.1812 12:87.151802 13:0.66666698 14:0.99076402 15:0.99008799 16:1.79852 17:0 18:-5.5 19:0 20:-5.5 #
-6.1175333083221251863001444171175e-05 1:0 2:9 3:3.40886 4:0.129783 5:0.24293 6:0.26677901 7:0.28140301 8:0.123735 9:0.080977999 10:0.081016503 11:20.741501 12:84.226898 13:0.66666698 14:0.98090398 15:0.99116701 16:6.0051098 17:0 18:9 19:1 20:135.5 #
-6.1175333083221251863001444171175e-05 1:0 2:0 3:1.52078 4:0.542292 5:0.160083 6:0.178426 7:0.38238499 8:0.62076497 9:0.34326401 10:0.25624499 11:13.6564 12:79.223999 13:0.66666698 14:0.74889898 15:0.77793503 16:3.96608 17:0 18:0 19:0 20:0 #
-6.1175333083221251863001444171175e-05 1:0 2:0.75 3:4.1998301 4:4.5918798 5:0.60010701 6:0.17665701 7:0.195374 8:0.31325099 9:0.0524932 10:0.0524932 11:14.1696 12:82.084602 13:0.66666698 14:0.995067 15:0.97972798 16:4.1143799 17:0 18:0.75 19:0 20:0.75 #
-6.1175333083221251863001444171175e-05 1:2 2:13.5 3:2.0551901 4:0.72708797 5:1.7474999 6:0.90031397 7:0.41475701 8:0.087324202 9:0.084455803 10:0.084455803 11:16.0354 12:81.658501 13:0.66666698 14:0.958552 15:0.95785898 16:4.6528201 17:2 18:13.5 19:2 20:13.5 #
-6.1175333083221251863001444171175e-05 1:0 2:-2 3:1.99684 4:0.85214901 5:0.36852899 6:0.234823 7:0.30073199 8:0.18127801 9:0.26556501 10:0.13821 11:14.5699 12:83.139702 13:0.66666698 14:0.89750803 15:0.89718097 16:4.22998 17:0 18:-2 19:0 20:-2 #
6.1175333083221251863001444171175e-05 1:1 2:14.5 3:2.10252 4:0.074609898 5:0.141881 6:0.065759197 7:0.024480199 8:0.246015 9:0.0186975 10:0.0186975 11:8.0651903 12:85.260803 13:1 14:0.989577 15:0.99141502 16:2.3459001 17:1 18:14.5 19:2 20:78 #
6.1175333083221251863001444171175e-05 1:-2 2:-30.5 3:1.5177 4:0.83382303 5:0.37096199 6:0.10072 7:0.319527 8:0.14070401 9:0.102197 10:0.102197 11:7.6826 12:85.4496 13:1 14:0.91426897 15:0.90742898 16:2.2347901 17:-1 18:58.5 19:0 20:70.5 #
6.1175333083221251863001444171175e-05 1:0 2:0 3:1.64472 4:6.5117998 5:0.68054098 6:0.23902 7:0.236138 8:0.956258 9:0.13048699 10:0.13048699 11:6.2848501 12:83.972504 13:0.66666698 14:0.82498503 15:0.87628198 16:1.82865 17:0 18:0 19:0 20:0 #
6.1175333083221251863001444171175e-05 1:0 2:0 3:1.28924 4:0.092900403 5:0.313728 6:0.085323401 7:0.22135399 8:1.16998 9:0.051313799 10:0.051313799 11:6.3642101 12:83.710098 13:0.66666698 14:0.93828303 15:0.95523602 16:1.85172 17:0 18:0 19:0 20:0 #
6.1175333083221251863001444171175e-05 1:2 2:21 3:1.2108099 4:0.74333602 5:0.39820001 6:0.22118901 7:0.17892499 8:0.563187 9:0.118382 10:0.118382 11:8.8813105 12:83.812202 13:0.66666698 14:0.83273703 15:0.89480197 16:2.58283 17:2 18:21 19:2 20:21 #
-6.1175333083221251863001444171175e-05 1:1 2:4.625 3:1.32285 4:3.2465301 5:1.22403 6:0.109058 7:1.27369 8:1.34788 9:0.24062601 10:0.24062601 11:19.3104 12:77.742203 13:0.66666698 14:0.768673 15:0.82576197 16:5.59483 17:1 18:4.625 19:1 20:4.625 #
6.1175333083221251863001444171175e-05 1:0 2:0 3:1.46275 4:0.51173401 5:0.306573 6:0.31149 7:0.49913201 8:0.45987499 9:0.357963 10:0.214462 11:6.4032798 12:84.961502 13:0.66666698 14:0.73335499 15:0.79287601 16:1.86307 17:0 18:0 19:0 20:0 #
-6.1175333083221251863001444171175e-05 1:1 2:32 3:1.30597 4:0.42283201 5:0.442819 6:0.083416797 7:0.17328499 8:1.03081 9:0.13926899 10:0.13926899 11:18.8946 12:79.689796 13:0.66666698 14:0.89311302 15:0.92203701 16:5.4754701 17:1 18:32 19:1 20:32 #
6.1175333083221251863001444171175e-05 1:-2 2:-8 3:2.0146799 4:2.60291 5:0.072527103 6:0.0340437 7:0.0457155 8:0.097973198 9:0.0298512 10:0.0085141696 11:4.4384398 12:87.856003 13:0.66666698 14:0.98299998 15:0.99450701 16:1.2917399 17:-2 18:-8 19:0 20:78 #
-6.1175333083221251863001444171175e-05 1:-1 2:-12 3:1.73081 4:2.9256001 5:0.612019 6:0.44543901 7:0.109104 8:0.73995203 9:0.205222 10:0.205222 11:15.4026 12:89.929497 13:0.66666698 14:0.85394698 15:0.83236903 16:4.4703302 17:-1 18:-12 19:-1 20:-12 #
6.1175333083221251863001444171175e-05 1:0 2:4 3:1.69458 4:0.67321998 5:0.38960001 6:0.039526399 7:0.35343501 8:0.91401398 9:0.045691598 10:0.0261699 11:5.9341202 12:89.799797 13:0.66666698 14:0.976542 15:0.97936302 16:1.7266999 17:0 18:4 19:1 20:102.75 #
-6.1175333083221251863001444171175e-05 1:4 2:16.5 3:2.3492701 4:1.16286 5:0.071093999 6:0.061030399 7:0.0754328 8:0.209002 9:0.050560798 10:0.068192199 11:18.4168 12:84.256699 13:0.66666698 14:0.98586398 15:0.98756599 16:5.3382201 17:4 18:16.5 19:5 20:47.599998 #
6.1175333083221251863001444171175e-05 1:-2 2:-8.5 3:1.5518301 4:0.42873099 5:0.198359 6:0.035966299 7:0.097224697 8:2.25754 9:0.0392242 10:0.0392242 11:5.6367698 12:88.438797 13:0.66666698 14:0.95267701 15:0.96575803 16:1.64025 17:-2 18:-8.5 19:-2 20:-8.5 #
-6.1175333083221251863001444171175e-05 1:-1 2:-6 3:1.32556 4:1.47773 5:0.191609 6:0.070963897 7:0.086870998 8:0.83295298 9:0.045356002 10:0.045356002 11:13.0902 12:77.029602 13:0.66666698 14:0.990776 15:0.982472 16:3.8023801 17:-1 18:-6 19:-1 20:-6 #
6.1175333083221251863001444171175e-05 1:3 2:20 3:2.7425301 4:0.30265501 5:0.0349425 6:0.027810499 7:0.034152102 8:0.28163201 9:0.0185479 10:0.0160184 11:9.6210003 12:88.372597 13:0.66666698 14:0.99091399 15:0.99836701 16:2.7974601 17:3 18:20 19:3 20:20 #
-6.1175333083221251863001444171175e-05 1:0 2:0 3:1.73994 4:0.48716199 5:0.445088 6:0.185801 7:0.51270002 8:1.22221 9:0.173511 10:0.173511 11:16.4226 12:89.293701 13:0.66666698 14:0.840976 15:0.87147701 16:4.7644 17:0 18:0 19:0 20:0 #
6.1175333083221251863001444171175e-05 1:3 2:12.25 3:1.45206 4:2.3498299 5:0.82194799 6:0.166244 7:0.16149899 8:0.57854098 9:0.222362 10:0.062337901 11:7.17384 12:82.7183 13:0.444444 14:0.76132798 15:0.94596601 16:2.0869999 17:3 18:12.25 19:3 20:12.25 #
-6.1175333083221251863001444171175e-05 1:3 2:16.1875 3:1.59263 4:9.53403 5:0.399277 6:0.51045197 7:0.33330101 8:0.36000201 9:0.347471 10:0.21207599 11:18.4972 12:88.308403 13:0.66666698 14:0.73220402 15:0.84554201 16:5.36134 17:3 18:16.1875 19:3 20:16.1875 #
6.1175333083221251863001444171175e-05 1:0 2:-2 3:2.3501501 4:0.285126 5:0.030937299 6:0.0486474 7:0.098199598 8:0.42019901 9:0.0127506 10:0.0081945397 11:5.2306099 12:85.881302 13:0.66666698 14:0.99499899 15:0.996005 16:1.52214 17:0 18:-2 19:0 20:-2 #
-6.1175333083221251863001444171175e-05 1:0 2:0 3:1.14965 4:3.3638999 5:0.37245801 6:0.280655 7:0.64631099 8:0.74343401 9:0.83117998 10:0.37864801 11:15.507 12:85.247101 13:0.66666698 14:0.796188 15:0.66464901 16:4.5004501 17:0 18:0 19:0 20:0 #
6.1175333083221251863001444171175e-05 1:0 2:-4 3:2.05109 4:13.422 5:0.44932801 6:0.0679437 7:0.24565201 8:0.56081498 9:0.309167 10:0.148671 11:2.97177 12:80.847298 13:0.66666698 14:0.65527499 15:0.85267299 16:0.865008 17:0 18:-4 19:1 20:83 #
-6.1175333083221251863001444171175e-05 1:0 2:0 3:3.54316 4:0.137091 5:0.42511201 6:0.059029002 7:0.077420697 8:0.124761 9:0.066292003 10:0.066292003 11:16.3995 12:89.592499 13:0.66666698 14:0.97492301 15:0.97739202 16:4.75773 17:0 18:0 19:0 20:0 #
6.1175333083221251863001444171175e-05 1:1 2:53 3:1.9414999 4:0.270971 5:0.242566 6:0.094794698 7:0.095375299 8:0.62536699 9:0.068196602 10:0.068196602 11:9.6047401 12:83.213997 13:1 14:0.96974301 15:0.94678098 16:2.7927401 17:1 18:53 19:1 20:53 #
-6.1175333083221251863001444171175e-05 1:0 2:0 3:1.88451 4:0.118875 5:0.43553099 6:0.74279302 7:0.83200401 8:0.40322 9:0.80884898 10:0.19555099 11:15.5877 12:66.105202 13:0.66666698 14:0.72503299 15:0.84644097 16:4.5237198 17:0 18:0 19:0 20:0 #
-6.1175333083221251863001444171175e-05 1:2 2:11 3:1.5730799 4:1.1677901 5:0.14353199 6:0.135334 7:0.209667 8:0.238352 9:0.199102 10:0.186515 11:15.7826 12:78.309303 13:1 14:0.844881 15:0.85146499 16:4.5799098 17:2 18:11 19:2 20:11 #
6.1175333083221251863001444171175e-05 1:0 2:0 3:1.31524 4:0.25004399 5:0.456117 6:0.105088 7:0.049213901 8:0.70243502 9:0.038058899 10:0.038058899 11:4.8064799 12:85.754997 13:0.66666698 14:0.95169401 15:0.965608 16:1.39879 17:0 18:0 19:0 20:0 #
-6.1175333083221251863001444171175e-05 1:0 2:0 3:1.94997 4:0.23277999 5:0.093150802 6:0.087989204 7:0.189679 8:0.46949899 9:0.19070999 10:0.19070999 11:15.5058 12:82.241898 13:0.66666698 14:0.86151701 15:0.84963202 16:4.5001101 17:0 18:0 19:0 20:0 #
6.1175333083221251863001444171175e-05 1:0 2:0 3:2.0426199 4:0.41104001 5:0.72379202 6:0.322907 7:0.175548 8:1.06941 9:0.25671801 10:0.25671801 11:5.2084599 12:88.697098 13:0.66666698 14:0.87674803 15:0.74703801 16:1.5157 17:0 18:0 19:0 20:0 #
