SVM-light Version V6.02
0 # kernel type
3 # kernel parameter -d 
1 # kernel parameter -g 
1 # kernel parameter -s 
1 # kernel parameter -r 
empty# kernel parameter -u 
20 # highest feature index 
2130 # number of training documents 
42 # number of support vectors plus 1 
1.000375 # threshold b, each following line is a SV (starting with alpha*y)
-8.1115477749076991906967970535902e-06 1:0 2:0 3:1.20754 4:0.62357199 5:0.85819602 6:0.150589 7:0.23163199 8:0.673518 9:0.405384 10:0.105178 11:4.5034099 12:79.558998 13:1 14:0.607445 15:0.89817399 16:1.31064 17:1 18:98.875 19:0 20:-159 #
5.8681598730555940899959732615088e-05 1:2 2:14.625 3:3.0230601 4:1.02042 5:0.86544198 6:1.81007 7:2.3537099 8:0.337897 9:2.25736 10:1.42671 11:63.683601 12:22.1877 13:1 14:0.58249003 15:0.88394201 16:17.5991 17:2 18:14.625 19:2 20:14.625 #
-5.862687840244496970901894039585e-05 1:0 2:0 3:2.22596 4:1.06071 5:1.1410201 6:0.78000998 7:1.45639 8:1.26246 9:1.84814 10:3.81861 11:77.834 12:31.200701 13:0.166667 14:0.75937903 15:0.85566598 16:20.955601 17:0 18:0 19:3 20:280.66699 #
5.8681598730555940899959732615088e-05 1:-5 2:-31.6 3:2.70081 4:16.276699 5:0.55504 6:2.47983 7:1.93292 8:0.50269401 9:1.4846801 10:1.28178 11:54.110401 12:62.345798 13:1 14:0.82002598 15:0.78016198 16:15.1731 17:-5 18:-31.6 19:-6 20:-72.333298 #
-3.7766839025370831268990645668282e-05 1:0 2:0 3:1.68156 4:1.11901 5:0.69004399 6:0.827645 7:1.30985 8:4.7869701 9:3.06003 10:4.9029002 11:77.272697 12:35.5951 13:0.444444 14:0.86444002 15:0.82493103 16:20.828199 17:0 18:0 19:-1 20:-300 #
5.8681598730555940899959732615088e-05 1:2 2:21 3:1.65804 4:1.7065901 5:1.9816999 6:0.94930702 7:0.85900998 8:0.82029498 9:1.34813 10:1.61676 11:78.557701 12:67.605904 13:1 14:0.70353597 15:0.72860801 16:21.119101 17:2 18:21 19:2 20:21 #
-1.8672409240569343147342351585394e-05 1:-6 2:-31.25 3:4.7284098 4:4.9840498 5:2.0279701 6:1.99854 7:2.50194 8:0.45376799 9:1.56393 10:1.8846 11:72.917397 12:82.371101 13:1 14:0.75977802 15:0.86950201 16:19.823099 17:-9 18:-46.388901 19:-9 20:-46.388901 #
-1.1325124345262782554755176533945e-10 1:-5 2:-27.6 3:5.46736 4:7.7681398 5:1.62828 6:1.16482 7:6.6121802 8:0.60942698 9:13.4375 10:4.9795399 11:77.962799 12:33.220501 13:0.444444 14:0.96531302 15:0.953991 16:20.9848 17:-5 18:-27.6 19:-3 20:203.39999 #
5.8681598730555940899959732615088e-05 1:2 2:-22.6667 3:2.24821 4:0.52839202 5:1.86055 6:0.58075601 7:2.5845201 8:2.19453 9:1.85361 10:2.3801301 11:81.521004 12:56.538101 13:1 14:0.877536 15:0.74876797 16:21.779699 17:2 18:-22.6667 19:1 20:-66.666702 #
-5.4581230719572365020671178559297e-05 1:-1 2:-58 3:1.80327 4:0.88530701 5:0.54659897 6:1.0243 7:0.453098 8:0.72001803 9:0.92119801 10:2.3071201 11:87.739799 12:59.353802 13:0.33333299 14:0.54507798 15:0.65326399 16:23.1182 17:-1 18:-58 19:3 20:193.2 #
-5.8681598730555940899959732615088e-05 1:0 2:0 3:1.32244 4:0.211412 5:1.35465 6:0.45862699 7:0.56072199 8:1.15598 9:0.43279499 10:2.2716999 11:74.785698 12:87.684196 13:0.66666698 14:0.69732702 15:0.84389502 16:20.257799 17:0 18:0 19:-2 20:-281 #
5.8681598730555940899959732615088e-05 1:-2 2:-28.3333 3:1.92308 4:1.72762 5:0.65990001 6:0.53037697 7:0.98462099 8:0.82572001 9:0.96660501 10:3.4495599 11:75.564201 12:80.260498 13:0.444444 14:0.84271598 15:0.85019702 16:20.437401 17:-2 18:-28.3333 19:-2 20:31 #
-9.721678290719459880619979230687e-06 1:-5 2:-21.1667 3:2.5118799 4:0.64958102 5:1.37465 6:1.45485 7:4.8817201 8:0.68345898 9:5.9309902 10:2.5569301 11:67.156799 12:10.6947 13:0.66666698 14:0.83962899 15:0.83672798 16:18.4498 17:-5 18:-21.1667 19:-5 20:-21.1667 #
5.8681598730555940899959732615088e-05 1:-4 2:-22.4 3:3.7330101 4:3.7078099 5:0.780577 6:3.81124 7:1.04371 8:1.62245 9:2.9751699 10:4.3657699 11:86.708397 12:35.1703 13:0.66666698 14:0.85582 15:0.89796901 16:22.900801 17:-4 18:-22.4 19:-4 20:-22.4 #
-1.0699037275911145060056095523748e-05 1:0 2:-31.5 3:2.3315201 4:0.40036899 5:1.43871 6:23.081699 7:0.64399499 8:0.418861 9:1.4735301 10:0.292768 11:29.317801 12:45.566898 13:1 14:0.74315298 15:0.86591399 16:8.4418201 17:-2 18:-44.25 19:-2 20:-44.25 #
-2.3286418813507739388260486812499e-05 1:1 2:17.75 3:3.1132801 4:46.214199 5:1.89782 6:1.41088 7:5.2823601 8:1.3365099 9:4.29425 10:4.13587 11:78.471901 12:28.5553 13:0.444444 14:0.90106201 15:0.898866 16:21.0998 17:1 18:17.75 19:0 20:-38.125 #
-1.582295506213651862517308166467e-05 1:-1 2:-10 3:3.32341 4:0.104304 5:1.19073 6:0.653642 7:0.85421503 8:0.67750102 9:0.47700199 10:1.99411 11:89.510597 12:86.451797 13:0.66666698 14:0.625229 15:0.79459798 16:23.487101 17:-2 18:-45 19:-2 20:212.66701 #
-1.8631938232441084841300993346636e-05 1:-1 2:-5.5 3:2.1177499 4:1.42799 5:0.17769299 6:0.30774 7:0.23549201 8:1.5117199 9:1.0896 10:1.0896 11:57.7775 12:71.7714 13:1 14:0.64015198 15:0.75552702 16:16.115801 17:-1 18:-5.5 19:-12 20:-138.70799 #
-5.6181167230624079467204978755035e-06 1:2 2:8.1666698 3:2.92607 4:1.19844 5:2.39375 6:7.4785199 7:8.1427002 8:0.84860599 9:4.1862502 10:4.1862502 11:75.835899 12:23.8806 13:0.66666698 14:0.88374299 15:0.91208798 16:20.499901 17:2 18:8.1666698 19:1 20:-37.133301 #
-1.7344368685463101842358923931897e-06 1:-2 2:-56 3:1.4284 4:0.541421 5:1.21301 6:1.12848 7:1.36137 8:1.52847 9:8.7361002 10:0.78203499 11:45.533401 12:13.5786 13:1 14:0.950293 15:0.7396 16:12.9091 17:-2 18:24.3333 19:-2 20:24.3333 #
-1.6064233511964397390584663449786e-07 1:2 2:51 3:1.5133801 4:0.52151 5:0.70966798 6:0.77843601 7:1.2700599 8:0.398976 9:2.5961499 10:2.5961499 11:84.919296 12:35.938999 13:0.444444 14:0.90551198 15:0.63261497 16:22.5194 17:2 18:51 19:1 20:-125 #
-4.1542391909895725392808628340102e-06 1:0 2:0 3:1.41897 4:0.25567201 5:0.35190299 6:0.23517901 7:0.55097997 8:0.73657 9:0.416686 10:0.46954 11:41.695202 12:51.849499 13:1 14:0.95450699 15:0.94772798 16:11.8717 17:0 18:0 19:1 20:294 #
-6.9898713616484142718832117679995e-07 1:-1 2:-18 3:1.89622 4:4.28652 5:7.2690401 6:1.96544 7:1.6238 8:0.64089298 9:6.2042599 10:0.60229599 11:40.056099 12:16.4839 13:1 14:0.94585198 15:0.78708899 16:11.4246 17:-1 18:-18 19:2 20:244 #
-5.3601809213287259472848888391949e-07 1:1 2:-29.6667 3:5.3116899 4:0.185063 5:0.78810197 6:1.19337 7:1.30882 8:0.332385 9:2.07582 10:2.523 11:74.791702 12:24.117001 13:0.66666698 14:0.80891198 15:0.90855598 16:20.259199 17:1 18:-29.6667 19:1 20:-29.6667 #
-3.6050892472661022480906467535533e-08 1:1 2:16 3:2.30265 4:0.924959 5:0.60834801 6:1.36071 7:2.03228 8:0.69492698 9:1.71297 10:1.1107301 11:56.740002 12:30.6084 13:0.66666698 14:0.77311897 15:0.80225801 16:15.8507 17:1 18:16 19:-3 20:-243 #
-1.8469831852651989734237503171244e-06 1:-3 2:-20.5 3:1.6142401 4:0.43009001 5:0.98224801 6:0.70190901 7:3.4393301 8:1.73783 9:2.2305801 10:2.2987199 11:68.896698 12:16.2068 13:0.66666698 14:0.61839598 15:0.616409 16:18.869699 17:-4 18:-30.299999 19:-9 20:-149.7 #
-8.0235427581594554531825569387848e-06 1:-5 2:-29.200001 3:1.57265 4:5.8478799 5:1.32394 6:2.3727701 7:1.80023 8:1.51121 9:5.6134701 10:5.6134701 11:87.973801 12:8.6536703 13:1 14:0.83229101 15:0.757581 16:23.167299 17:-5 18:-29.200001 19:-14 20:-177.714 #
-4.5948060021926542532857799805424e-07 1:-2 2:-10.5 3:1.7258101 4:5.7983599 5:0.80871701 6:0.53130502 7:0.77545899 8:0.66381902 9:0.59202898 10:0.53586 11:38.806801 12:55.4011 13:1 14:0.65087801 15:0.780689 16:11.0823 17:-4 18:-37.625 19:-11 20:-183.77299 #
-1.9439409167310228012195711527754e-06 1:1 2:58 3:4.65766 4:0.519418 5:0.38008499 6:0.27783301 7:0.339329 8:0.77757603 9:0.45633399 10:0.45633399 11:39.587502 12:50.5173 13:1 14:0.968723 15:0.924954 16:11.2964 17:1 18:58 19:1 20:58 #
-2.417289233839346056004118018512e-06 1:4 2:23 3:8.8540802 4:5.4398799 5:3.3169 6:1.70051 7:1.8353601 8:0.48783499 9:3.8449299 10:3.93554 11:72.1325 12:20.4312 13:1 14:0.98354399 15:0.97162902 16:19.6388 17:4 18:23 19:1 20:-206.85001 #
-2.2355610422731945520491425583032e-06 1:-2 2:21.75 3:3.3593299 4:1.65356 5:2.0764799 6:0.79229802 7:1.06178 8:1.03794 9:2.0275099 10:0.78342199 11:55.175598 12:28.5525 13:0.33333299 14:0.59794599 15:0.82454997 16:15.4486 17:-2 18:21.75 19:-3 20:-11.6 #
-4.5074939787875106800285607278056e-06 1:1 2:50 3:1.99822 4:1.33305 5:1.3208801 6:1.40584 7:0.878649 8:0.80555701 9:1.9546 10:1.9546 11:75.775803 12:80.747597 13:0.66666698 14:0.817496 15:0.828906 16:20.486099 17:1 18:50 19:0 20:-232 #
-3.8276282090789287980057108151666e-07 1:0 2:0 3:7.3376298 4:3.5638399 5:43.300098 6:2.5982399 7:1.03696 8:0.72773099 9:6.99084 10:5.5837302 11:74.681602 12:48.334599 13:1 14:0.97608101 15:0.989474 16:20.233801 17:0 18:0 19:-3 20:-139.5 #
-6.4579007378148161125364090651146e-07 1:0 2:0 3:2.2044499 4:0.76562798 5:0.56409401 6:3.35272 7:0.40573299 8:1.40897 9:1.09684 10:1.56487 11:76.647697 12:66.2658 13:1 14:0.83956701 15:0.70149702 16:20.685801 17:4 18:76 19:0 20:-175.75 #
-1.6790399585790760185260387521433e-06 1:0 2:0 3:12.8167 4:0.268107 5:0.308772 6:0.238401 7:0.142055 8:0.68350101 9:0.15695 10:0.1556 11:25.992001 12:87.509201 13:1 14:0.99748999 15:0.96359199 16:7.50177 17:0 18:0 19:3 20:271.75 #
-2.0667245250013704694095825753486e-07 1:0 2:-45.5 3:4.2472 4:0.13109 5:1.67642 6:0.63172102 7:1.77406 8:0.58799499 9:8.7961597 10:2.01735 11:72.471497 12:6.3358598 13:0.444444 14:0.89970303 15:0.85243797 16:19.7185 17:-1 18:-54 19:-1 20:-54 #
-1.2295076968056805965341313213735e-07 1:3 2:-43.5 3:2.4846499 4:1.05907 5:0.64304602 6:0.53122199 7:3.4172001 8:0.55530602 9:2.0081301 10:2.0081301 11:76.192299 12:50.263302 13:0.444444 14:0.81594598 15:0.764229 16:20.5816 17:3 18:-43.5 19:2 20:-103 #
-2.5885205451388753519799813644642e-08 1:0 2:6 3:3.5668001 4:3.94118 5:0.60360998 6:0.93975103 7:0.56266701 8:0.37617099 9:2.07022 10:2.07022 11:87.977798 12:75.873802 13:1 14:0.84873402 15:0.81316698 16:23.1681 17:1 18:42.5 19:1 20:42.5 #
-3.3546904001596311410693385113291e-08 1:-1 2:-19 3:2.18784 4:0.89716297 5:2.44028 6:2.3299799 7:2.42416 8:0.59239697 9:5.5658798 10:4.41855 11:86.121902 12:17.832701 13:0.66666698 14:0.88849401 15:0.842049 16:22.7764 17:1 18:51 19:8 20:204.222 #
-9.0166979462748676581174134270213e-09 1:0 2:0 3:2.0313301 4:0.277536 5:0.57676798 6:0.31148201 7:0.34854999 8:0.90168798 9:0.68268299 10:0.68268299 11:45.493801 12:48.1152 13:1 14:0.81542999 15:0.84587902 16:12.8984 17:0 18:0 19:-1 20:-290.5 #
-8.4997273434536148306595038093292e-09 1:0 2:0 3:3.3559301 4:0.89619398 5:0.66296601 6:0.177743 7:0.33690599 8:0.383075 9:0.29829699 10:0.29829699 11:32.990501 12:70.140099 13:0.66666698 14:0.94073802 15:0.91580403 16:9.4716797 17:0 18:0 19:-1 20:-295 #
