SVM-light Version V6.02
0 # kernel type
3 # kernel parameter -d 
1 # kernel parameter -g 
1 # kernel parameter -s 
1 # kernel parameter -r 
empty# kernel parameter -u 
20 # highest feature index 
2249 # number of training documents 
57 # number of support vectors plus 1 
1.0003785 # threshold b, each following line is a SV (starting with alpha*y)
-1.9533497255509853842174103344398e-05 1:-6 2:-35.895802 3:2.1568301 4:0.69684201 5:1.2331899 6:0.68030298 7:0.195007 8:0.27067599 9:0.218961 10:0.150516 11:17.225201 12:65.993103 13:0.66666698 14:0.85916299 15:0.899028 16:5.3518701 17:-6 18:-35.895802 19:-6 20:-35.895802 #
2.455019000264592780261724280777e-05 1:0 2:0 3:7.12534 4:0.63215899 5:1.57573 6:0.84891897 7:1.4681799 8:0.537642 9:1.41962 10:4.1428099 11:76.030701 12:86.358704 13:0.68965501 14:0.87180001 15:0.93137997 16:22.010099 17:2 18:91 19:3 20:153 #
-2.9105187897837669908085445058532e-06 1:0 2:-14.3333 3:2.08764 4:2.6057 5:7.9426999 6:1.15968 7:0.62246102 8:0.60922998 9:4.2485499 10:4.2485499 11:78.388 12:33.804699 13:0.57142901 14:0.95864898 15:0.83675599 16:22.5846 17:-2 18:-24.133301 19:-3 20:-45.833302 #
2.455019000264592780261724280777e-05 1:1 2:5 3:2.2189 4:0.896303 5:0.074059099 6:0.34366101 7:0.733679 8:1.26673 9:0.42759901 10:0.95282102 11:59.875401 12:71.961601 13:0.66666698 14:0.84790498 15:0.81533402 16:17.8354 17:1 18:5 19:0 20:-204 #
-2.3794906632230163566737307645482e-05 1:0 2:0 3:1.2373 4:0.52801901 5:0.129169 6:0.43437999 7:0.87246799 8:0.51281703 9:0.31594101 10:2.8422301 11:79.598701 12:80.126503 13:0.66666698 14:0.768821 15:0.83021802 16:22.875999 17:0 18:0 19:1 20:300 #
-1.0106838116510815224436889425697e-05 1:3 2:9.3333302 3:2.83235 4:0.23791599 5:0.33270401 6:0.099384502 7:0.968256 8:0.608841 9:0.60027802 10:6.8819299 11:84.835503 12:74.764198 13:0.166667 14:0.91326702 15:0.89916199 16:24.1064 17:3 18:9.3333302 19:1 20:-277.66699 #
2.455019000264592780261724280777e-05 1:3 2:-33 3:1.9766099 4:3.7514501 5:0.564134 6:0.460107 7:0.37204 8:0.54137999 9:0.15695199 10:0.15695199 11:21.376801 12:71.497498 13:0.57142901 14:0.91563898 15:0.92506999 16:6.6282601 17:2 18:-39 19:3 20:-6.2857099 #
-1.4118845614153485660950161639793e-05 1:0 2:0 3:3.0158601 4:0.34562299 5:0.118924 6:0.236913 7:0.073031597 8:0.043070499 9:0.055619501 10:0.117503 11:23.5217 12:86.943901 13:0.33333299 14:0.98022199 15:0.977467 16:7.2844 17:1 18:100 19:0 20:-180 #
2.455019000264592780261724280777e-05 1:0 2:-37 3:2.18415 4:3.92132 5:1.58438 6:0.96204102 7:0.357683 8:0.71245998 9:0.51367998 10:0.51367998 11:35.773201 12:61.7299 13:0.33333299 14:0.91188103 15:0.77173001 16:10.9764 17:-3 18:-51.599998 19:-3 20:-32.333302 #
-2.455019000264592780261724280777e-05 1:-2 2:-38 3:1.54978 4:0.61928999 5:2.88692 6:0.64383399 7:0.74217802 8:0.65923101 9:0.63367802 10:0.63367802 11:42.668098 12:47.605999 13:0.68965501 14:0.86007798 15:0.84144002 16:13.0017 17:-2 18:-38 19:-1 20:260 #
2.455019000264592780261724280777e-05 1:2 2:28 3:1.38403 4:0.395845 5:2.0056801 6:0.30802199 7:0.45246401 8:0.79786599 9:0.59455001 10:0.59455001 11:42.561798 12:47.5937 13:0.66666698 14:0.95834398 15:0.89332199 16:12.9708 17:2 18:28 19:-6 20:-135.25 #
-2.455019000264592780261724280777e-05 1:0 2:0 3:5.4121299 4:0.18801101 5:0.231683 6:0.18779799 7:0.397688 8:0.18938801 9:0.37044299 10:0.35162699 11:39.2388 12:60.931 13:0.68965501 14:0.99360001 15:0.985654 16:11.9998 17:0 18:0 19:-1 20:-300 #
2.455019000264592780261724280777e-05 1:2 2:-0.66666698 3:1.53898 4:0.15633801 5:0.65823603 6:0.75053602 7:0.24828 8:0.27293599 9:0.39596599 10:0.159935 11:2.72225 12:69.9944 13:0.68965501 14:0.86882901 15:0.84131598 16:0.84891802 17:2 18:-0.66666698 19:2 20:-0.66666698 #
-2.4381836332059032417278118809456e-05 1:0 2:0 3:3.79108 4:0.244305 5:0.071056098 6:0.102754 7:0.161231 8:0.74541801 9:0.072493598 10:0.089463897 11:17.662399 12:86.536797 13:0.68965501 14:0.984734 15:0.96127599 16:5.48666 17:0 18:0 19:1 20:300 #
-7.5486137282333743705412670843558e-07 1:4 2:25.4688 3:2.4249201 4:0.29740101 5:1.26492 6:2.4591801 7:1.47532 8:0.75497198 9:3.0485201 10:3.0485201 11:83.910599 12:57.3442 13:0.57142901 14:0.76604301 15:0.83251399 16:23.8927 17:4 18:25.4688 19:3 20:-124.031 #
2.455019000264592780261724280777e-05 1:3 2:27.3333 3:2.8722501 4:0.32311201 5:2.07447 6:0.73444599 7:0.53537101 8:1.36668 9:0.82545799 10:0.531896 11:43.987099 12:89.0952 13:0.66666698 14:0.86485702 15:0.86138898 16:13.384 17:3 18:27.3333 19:-6 20:-118.889 #
-2.0098399485038625827872799112228e-05 1:0 2:0 3:1.35918 4:0.588925 5:0.221288 6:0.155174 7:0.142922 8:0.108204 9:0.22235399 10:0.16936401 11:29.8589 12:89.555397 13:0.66666698 14:0.81534201 15:0.994856 16:9.20718 17:0 18:0 19:-1 20:-300 #
2.455019000264592780261724280777e-05 1:-2 2:-12 3:1.82179 4:0.85579097 5:11.8083 6:0.79040498 7:0.54464102 8:0.53122902 9:0.91807997 10:0.41606301 11:32.078899 12:71.571999 13:0.68965501 14:0.79311699 15:0.80768102 16:9.8744001 17:-2 18:-12 19:-2 20:-12 #
2.455019000264592780261724280777e-05 1:3 2:36.666698 3:2.6895499 4:0.30394301 5:0.72605598 6:0.63448298 7:1.35755 8:0.17436901 9:1.2986799 10:0.26308101 11:28.695999 12:84.431602 13:0.166667 14:0.77705503 15:0.88769501 16:8.8562803 17:2 18:-51.333302 19:-3 20:-106 #
-2.455019000264592780261724280777e-05 1:0 2:0 3:2.0911801 4:0.61748701 5:0.257985 6:0.220394 7:0.315952 8:0.122224 9:0.182042 10:0.135383 11:21.553801 12:67.443497 13:0.33333299 14:0.88533002 15:0.94376802 16:6.6824899 17:0 18:0 19:-2 20:-296 #
2.455019000264592780261724280777e-05 1:3 2:21.3333 3:2.7895601 4:0.77237397 5:1.35402 6:2.1897399 7:0.70659202 8:1.17442 9:0.88164502 10:0.88164502 11:52.722801 12:43.645699 13:0.66666698 14:0.97754699 15:0.98073 16:15.8688 17:3 18:21.3333 19:1 20:-4.7333298 #
2.455019000264592780261724280777e-05 1:-3 2:-18 3:1.7040401 4:1.33173 5:2.4142101 6:0.568335 7:0.91913903 8:0.95893002 9:1.15839 10:0.41018 11:36.939701 12:89.240097 13:0.68965501 14:0.79590201 15:0.848818 16:11.322 17:-7 18:-41.5 19:-7 20:-41.5 #
2.455019000264592780261724280777e-05 1:1 2:-39 3:1.7447 4:2.2730401 5:3.4959099 6:1.11282 7:0.36336601 8:0.71697903 9:0.74517202 10:0.667292 11:51.784698 12:67.407097 13:0.68965501 14:0.75415897 15:0.67105699 16:15.6062 17:0 18:-54 19:0 20:-54 #
-2.4471546944518724950572846621455e-05 1:2 2:16.0625 3:2.3262601 4:13.5527 5:2.29022 6:1.19485 7:2.0929999 8:0.95313698 9:4.0784302 10:4.0784302 11:71.662498 12:20.1567 13:0.57142901 14:0.92969197 15:0.84191698 16:20.921101 17:2 18:16.0625 19:1 20:-277.43799 #
2.455019000264592780261724280777e-05 1:3 2:31.3333 3:4.58745 4:1.60868 5:5.1071401 6:0.47857001 7:1.57291 8:0.85514402 9:0.91892898 10:0.91892898 11:52.752499 12:50.564301 13:0.66666698 14:0.95111698 15:0.92337501 16:15.8771 17:2 18:-30.6667 19:-2 20:-155.267 #
-5.4189875974424509674906222378432e-06 1:0 2:0 3:1.95963 4:0.57239902 5:0.160597 6:0.38025901 7:0.0647614 8:0.124005 9:0.094187401 10:0.0766626 11:10.4958 12:83.046303 13:0.444444 14:0.88050598 15:0.94134003 16:3.26878 17:0 18:0 19:-1 20:-298 #
2.455019000264592780261724280777e-05 1:-3 2:-8.5 3:2.2291901 4:16.174101 5:2.74278 6:4.4160099 7:1.9200799 8:1.02704 9:2.6276 10:2.6276 11:70.629997 12:25.3878 13:0.57142901 14:0.82548898 15:0.81654698 16:20.6591 17:-4 18:-14 19:-4 20:-14 #
-7.3737591036334781626924647635057e-06 1:-3 2:-16 3:1.81888 4:0.82119203 5:0.350261 6:2.5571499 7:0.409832 8:0.66241598 9:1.2000099 10:3.4998 11:71.077904 12:43.164902 13:0.66666698 14:0.81033403 15:0.843328 16:20.773001 17:-3 18:-16 19:-2 20:250 #
-1.8763870139522700886125505803648e-05 1:2 2:23.5 3:1.71975 4:3.5641999 5:7.5597301 6:1.87264 7:0.65293401 8:0.63877201 9:0.74812299 10:2.0632 11:64.546997 12:79.5896 13:0.57142901 14:0.74021399 15:0.95008898 16:19.0828 17:2 18:23.5 19:-1 20:-165.5 #
2.455019000264592780261724280777e-05 1:-1 2:-16.200001 3:3.2093799 4:4.7994299 5:0.74215901 6:0.73200798 7:1.73759 8:0.573829 9:0.491175 10:0.491175 11:41.113998 12:50.415699 13:0.68965501 14:0.98428398 15:0.930417 16:12.549 17:-2 18:-25 19:-2 20:-25 #
-2.4437956635019694343969112737547e-05 1:1 2:8 3:2.0278101 4:4.0077901 5:9.0074396 6:1.478 7:0.237841 8:0.55864501 9:0.33395401 10:0.428653 11:34.187599 12:62.884201 13:0.66666698 14:0.73533702 15:0.853441 16:10.5048 17:0 18:-92 19:-2 20:-102.667 #
-2.0131864462509036677387297409325e-05 1:0 2:0 3:1.382 4:0.809475 5:0.44937599 6:0.21290299 7:0.095086202 8:0.122836 9:0.18836699 10:0.18836699 11:25.3277 12:68.737999 13:0.222222 14:0.92587799 15:0.930435 16:7.8348799 17:0 18:0 19:1 20:300 #
2.455019000264592780261724280777e-05 1:-3 2:-23.700001 3:2.2002599 4:0.75945503 5:1.12869 6:2.1691599 7:1.74491 8:1.52124 9:3.39451 10:3.39451 11:67.969101 12:23.148399 13:0.57142901 14:0.96373802 15:0.86400402 16:19.9765 17:-6 18:-42.5 19:-6 20:-42.5 #
-4.6149828905762342351644378357634e-06 1:0 2:0 3:3.4425001 4:0.32121199 5:0.099856503 6:0.64729702 7:1.52968 8:1.66045 9:2.5492001 10:4.4010301 11:78.671799 12:51.7952 13:0.66666698 14:0.83556002 15:0.86742097 16:22.653099 17:0 18:0 19:-1 20:-280.5 #
-1.0513305332576834585749103734287e-05 1:1 2:6 3:3.98897 4:0.51133698 5:1.45935 6:0.78560197 7:0.339109 8:0.65289301 9:0.82808501 10:4.3611202 11:78.078499 12:49.853901 13:0.444444 14:0.77829599 15:0.90425599 16:22.509701 17:-3 18:-69.75 19:-3 20:-69.75 #
-8.6762043668571803994339630694554e-06 1:-2 2:-46.5 3:8.1696301 4:0.50099701 5:0.257799 6:0.22774599 7:0.27199301 8:0.0944359 9:0.34444001 10:0.12746499 11:23.1709 12:74.0159 13:0.66666698 14:0.97103 15:0.96304703 16:7.1772599 17:-2 18:-46.5 19:-10 20:-145.39999 #
-3.2217737747152424112109803111537e-06 1:-2 2:-8.5 3:2.1505899 4:1.24714 5:1.0341001 6:3.60303 7:3.68611 8:0.70654303 9:6.0536599 10:6.1001201 11:83.522903 12:17.0835 13:0.57142901 14:0.91872603 15:0.81424201 16:23.8027 17:-2 18:-8.5 19:-6 20:-117.75 #
-4.6915271373132416452109323679043e-06 1:0 2:0 3:1.36562 4:0.63331997 5:1.42752 6:1.7698801 7:0.67371398 8:0.36368701 9:4.2378402 10:1.88556 11:75.075699 12:27.1376 13:0.68965501 14:0.97390002 15:0.80616099 16:21.7747 17:-1 18:-63 19:-7 20:-125.143 #
-4.8767312251716456324678039546683e-08 1:0 2:-49 3:2.8705101 4:14.6109 5:4.2895899 6:1.1425101 7:0.71104801 8:0.84025598 9:1.49453 10:0.92277598 11:53.424999 12:30.896601 13:0.68965501 14:0.79811901 15:0.88521397 16:16.0648 17:-1 18:-59 19:-1 20:-59 #
-1.2808436704239226032442898473018e-05 1:-2 2:-21.3333 3:2.06424 4:20.387699 5:4.8392801 6:2.22754 7:2.06585 8:0.52195102 9:2.40464 10:0.44984001 11:39.222301 12:38.9006 13:0.57142901 14:0.85108799 15:0.89068401 16:11.9949 17:-2 18:-21.3333 19:-2 20:-21.3333 #
-3.871965115656072892983026456637e-06 1:-4 2:-2 3:2.5072401 4:2.11695 5:1.1241601 6:0.92808098 7:2.4656701 8:0.62568301 9:3.6947401 10:2.2451701 11:73.490601 12:30.743401 13:0.66666698 14:0.967116 15:0.82156497 16:21.3806 17:-6 18:-14.5 19:-9 20:-37.0909 #
-2.455019000264592780261724280777e-05 1:1 2:22.5 3:2.1205101 4:1.18536 5:10.3018 6:2.04159 7:1.7828799 8:3.48823 9:3.4468901 10:3.4468901 11:75.637299 12:35.647099 13:0.57142901 14:0.94296801 15:0.83166403 16:21.9133 17:1 18:22.5 19:1 20:22.5 #
-3.4095766453359978743076902363285e-06 1:0 2:0 3:1.91126 4:0.474002 5:0.299826 6:0.39146 7:0.33730701 8:0.159868 9:0.35165301 10:0.206073 11:20.3209 12:62.170799 13:0.444444 14:0.83944899 15:0.869389 16:6.30439 17:1 18:84.5 19:-7 20:-115.812 #
-1.85176035184120533767359456645e-05 1:0 2:0 3:4.5735502 4:1.11458 5:0.46489301 6:0.179478 7:0.119523 8:0.158627 9:0.214095 10:0.214095 11:27.202101 12:83.2901 13:0.66666698 14:0.93263602 15:0.91686898 16:8.4041796 17:-1 18:-96 19:-10 20:-135 #
-1.7060336530833483073988504630236e-06 1:0 2:0 3:9.4451199 4:0.79633802 5:0.139562 6:0.147447 7:0.107329 8:0.152179 9:0.215068 10:0.073875099 11:18.921801 12:85.540199 13:0.444444 14:0.90132099 15:0.98477602 16:5.8744202 17:0 18:0 19:-7 20:-211.464 #
-1.2396452701057326419020743202282e-08 1:5 2:26.799999 3:4.2852101 4:0.19153 5:0.124807 6:0.170665 7:0.20950601 8:0.178405 9:0.094462499 10:0.0400922 11:10.9157 12:71.879601 13:0.66666698 14:0.94651502 15:0.978616 16:3.3991899 17:6 18:33 19:0 20:-153 #
-3.3217385829642964885366485106033e-06 1:6 2:-21.7143 3:7.6956501 4:0.54122299 5:0.133155 6:0.17020901 7:0.096244 8:0.178397 9:0.12689801 10:0.13022199 11:23.835899 12:77.674896 13:0.444444 14:0.956985 15:0.96618098 16:7.38029 17:5 18:-26.2143 19:5 20:-26.2143 #
-9.2574626387107437387735675571321e-08 1:-1 2:-54 3:3.2280099 4:0.45860201 5:1.12517 6:0.80283898 7:0.23443601 8:0.31015 9:0.198525 10:0.232105 11:22.522301 12:77.456398 13:0.66666698 14:0.92423803 15:0.86027998 16:6.97896 17:-1 18:-54 19:-2 20:-167 #
-9.0673414917262979740870260103591e-07 1:-1 2:-58 3:2.89643 4:0.349424 5:0.313925 6:0.24264701 7:0.143666 8:0.363796 9:0.114657 10:0.114657 11:19.7845 12:86.336098 13:0.66666698 14:0.95464802 15:0.950656 16:6.1396599 17:-5 18:-73.599998 19:-3 20:207.39999 #
-7.6674266251466205316159041593949e-07 1:0 2:-45 3:3.5764301 4:1.12371 5:2.5128601 6:1.10724 7:2.4858301 8:0.452438 9:5.71696 10:0.53794098 11:43.873501 12:12.5803 13:0.66666698 14:0.85810399 15:0.844275 16:13.3511 17:-3 18:-60.25 19:-3 20:-60.25 #
-9.3520833824139033537206633361905e-08 1:-2 2:-47 3:4.7278299 4:0.686795 5:3.7142701 6:1.8156 7:1.46084 8:1.0519201 9:2.7760301 10:2.1766801 11:64.963898 12:24.8964 13:0.57142901 14:0.94562602 15:0.94808799 16:19.1926 17:-1 18:23 19:-2 20:-48 #
-1.8370170809083865778865707341083e-08 1:3 2:9.3333302 3:1.98325 4:0.063228697 5:0.059424002 6:0.072616696 7:0.115462 8:0.57398599 9:0.135911 10:0.135911 11:22.9515 12:73.8983 13:0.68965501 14:0.96484202 15:0.95661998 16:7.1101999 17:3 18:9.3333302 19:1 20:-277.66699 #
-1.4188066285553780970438153552493e-08 1:7 2:37.4286 3:3.0395701 4:0.29813799 5:0.12503099 6:0.112737 7:0.18359999 8:0.193773 9:0.025321599 10:0.025321599 11:11.1016 12:88.337097 13:0.68965501 14:0.998501 15:0.99393803 16:3.4568801 17:8 18:41 19:7 20:-257 #
-4.8068836553946463988756798713098e-08 1:0 2:-46 3:1.83104 4:0.50793397 5:0.82957399 6:2.21574 7:0.38359001 8:0.72664201 9:0.430121 10:0.430121 11:32.186401 12:79.303902 13:0.57142901 14:0.81486201 15:0.73816597 16:9.9066095 17:-2 18:-56.5 19:-3 20:-88.599998 #
-6.7592096201554154825258402539134e-08 1:3 2:31 3:2.33148 4:0.244736 5:0.435029 6:0.17253099 7:0.31787699 8:0.172967 9:0.217875 10:0.217875 11:25.031 12:87.101303 13:0.66666698 14:0.92633301 15:0.88759297 16:7.7445698 17:3 18:31 19:-3 20:-227.66701 #
-8.8248862256472791754102757977307e-07 1:4 2:-16 3:1.9551001 4:0.172453 5:0.226761 6:0.68903702 7:0.98280001 8:0.184468 9:0.449451 10:0.449451 11:42.766899 12:83.860298 13:0.66666698 14:0.972534 15:0.96153998 16:13.0304 17:4 18:-16 19:4 20:-16 #
