SVM-light Version V6.02
0 # kernel type
3 # kernel parameter -d 
1 # kernel parameter -g 
1 # kernel parameter -s 
1 # kernel parameter -r 
empty# kernel parameter -u 
20 # highest feature index 
2405 # number of training documents 
88 # number of support vectors plus 1 
0.99972113 # threshold b, each following line is a SV (starting with alpha*y)
-4.0698766686303455841766663070302e-05 1:-1 2:-4.6875 3:2.9665999 4:17.8041 5:1.2173899 6:0.289078 7:0.233238 8:0.76367301 9:0.278723 10:0.278723 11:29.8183 12:81.718903 13:0.444444 14:0.90448397 15:0.88082498 16:8.5827303 17:-1 18:-4.6875 19:-1 20:-4.6875 #
6.2121750227884899096635062942795e-05 1:1 2:13.75 3:2.5186501 4:1.37281 5:0.98483199 6:0.36003801 7:1.22377 8:1.73763 9:0.49560699 10:0.49560699 11:42.261002 12:80.749001 13:0.66666698 14:0.90575403 15:0.85342801 16:12.0255 17:1 18:13.75 19:0 20:-165.5 #
-3.5877621253660971244788674416881e-05 1:0 2:0 3:2.1047299 4:0.245527 5:0.963166 6:0.406196 7:0.27638999 8:0.97530699 9:0.22299699 10:0.21043301 11:29.2967 12:71.2015 13:0.66666698 14:0.93245298 15:0.94609499 16:8.4359102 17:0 18:0 19:-1 20:-296 #
6.2121750227884899096635062942795e-05 1:-1 2:-5.5 3:2.8494501 4:0.74790102 5:0.77107298 6:1.07148 7:0.26786101 8:0.482326 9:1.02184 10:0.30537099 11:27.638599 12:70.626801 13:1 14:0.67337501 15:0.83458102 16:7.96802 17:-1 18:-5.5 19:2 20:169 #
-6.1576277801717266367070857668864e-05 1:0 2:0 3:1.19221 4:1.39467 5:0.83925402 6:0.61431402 7:0.49328601 8:0.77328402 9:0.54386002 10:0.54386002 11:32.951302 12:60.8158 13:0.66666698 14:0.76087898 15:0.69587803 16:9.4607296 17:0 18:0 19:1 20:300 #
6.2121750227884899096635062942795e-05 1:4 2:22.5 3:2.2244799 4:0.58209997 5:0.565669 6:1.48079 7:1.01615 8:1.40877 9:0.49101499 10:0.49101499 11:40.823002 12:76.523903 13:0.66666698 14:0.85347599 15:0.848755 16:11.6341 17:4 18:22.5 19:3 20:-243.5 #
-2.1159598689115120709151873779064e-05 1:1 2:6 3:2.32341 4:0.12542 5:0.20645501 6:0.132994 7:0.21750399 8:0.127572 9:0.185568 10:0.171074 11:29.703699 12:60.768501 13:0.66666698 14:0.97782099 15:0.99216098 16:8.5504704 17:1 18:6 19:0 20:-294 #
-1.5625962340680678378792775595763e-05 1:0 2:0 3:1.54239 4:0.67936802 5:0.59936798 6:0.35541299 7:1.04386 8:0.779163 9:0.75221002 10:0.88586801 11:55.521801 12:87.938599 13:1 14:0.55718601 15:0.47153601 16:15.5378 17:0 18:0 19:-2 20:-288 #
6.2121750227884899096635062942795e-05 1:2 2:-32 3:1.76287 4:2.57372 5:3.90049 6:1.77179 7:1.85499 8:1.90765 9:2.2356999 10:0.70169997 11:46.9319 12:22.0368 13:1 14:0.721901 15:0.83254701 16:13.2835 17:2 18:-32 19:-4 20:-197.75 #
6.2121750227884899096635062942795e-05 1:0 2:0 3:1.26875 4:2.89028 5:0.486283 6:0.65473998 7:0.66535598 8:0.21427999 9:0.65103298 10:0.222307 11:19.319599 12:73.223 13:0.66666698 14:0.824494 15:0.84485698 16:5.5974898 17:-1 18:-74 19:1 20:33 #
6.2121750227884899096635062942795e-05 1:3 2:30.6667 3:5.8308201 4:24.4638 5:1.49942 6:1.24024 7:0.98974502 8:0.49950501 9:2.0908 10:1.09016 11:54.360298 12:44.917999 13:1 14:0.76065898 15:0.83688903 16:15.2378 17:4 18:38.5 19:4 20:38.5 #
-1.7294607160468116260898518987688e-08 1:0 2:0 3:2.7186999 4:10.2993 5:0.53420001 6:0.350436 7:0.33517501 8:0.41556501 9:0.33258799 10:1.30161 11:74.134399 12:88.266998 13:0.66666698 14:0.76423401 15:0.72784001 16:20.106899 17:1 18:78 19:1 20:78 #
-6.2121750227884899096635062942795e-05 1:0 2:0 3:1.45664 4:0.124211 5:0.75469297 6:0.57884002 7:0.81576502 8:0.78391701 9:1.08485 10:1.08485 11:54.394001 12:40.922401 13:0.66666698 14:0.91790801 15:0.89720702 16:15.2465 17:0 18:0 19:3 20:278.33301 #
-6.2121750227884899096635062942795e-05 1:2 2:10 3:1.58118 4:0.25313899 5:0.40037599 6:0.44422999 7:0.44879201 8:0.55108303 9:0.49707901 10:0.49707901 11:42.647999 12:47.7099 13:0.444444 14:0.954521 15:0.94903499 16:12.1305 17:2 18:10 19:1 20:-279 #
6.2121750227884899096635062942795e-05 1:0 2:-36 3:2.2239299 4:2.4309299 5:0.70148802 6:1.2643 7:1.46817 8:1.1907001 9:1.95129 10:6.2109299 11:82.967201 12:32.3363 13:0.66666698 14:0.88153702 15:0.82388401 16:22.096901 17:0 18:-36 19:-3 20:-104.6 #
6.2121750227884899096635062942795e-05 1:0 2:0 3:3.41379 4:1.27807 5:8.87286 6:1.00414 7:1.25797 8:1.03196 9:1.09346 10:1.09346 11:52.225101 12:42.4711 13:1 14:0.95029998 15:0.83619303 16:14.6823 17:3 18:86.5 19:-1 20:-132.075 #
-4.505236912021116425265676586065e-05 1:3 2:19 3:2.02882 4:1.2230999 5:0.88252997 6:1.50345 7:6.6194301 8:1.13541 9:3.37781 10:7.8810802 11:88.635696 12:12.9798 13:0.166667 14:0.71776402 15:0.81180799 16:23.3055 17:1 18:-70.5 19:-1 20:-81 #
-4.4458452198190615532475550297775e-05 1:3 2:13.3333 3:3.44437 4:2.86531 5:2.9395101 6:0.330515 7:0.44873899 8:0.32709599 9:0.65661597 10:1.33509 11:61.094101 12:45.817699 13:0.66666698 14:0.879372 15:0.91339898 16:16.9543 17:3 18:13.3333 19:3 20:13.3333 #
6.2121750227884899096635062942795e-05 1:-1 2:-60 3:5.2692299 4:1.13001 5:1.12081 6:0.29115301 7:1.26752 8:0.42779401 9:0.205 10:0.39546999 11:34.391899 12:87.744598 13:0.66666698 14:0.98527598 15:0.86408103 16:9.8621101 17:-1 18:-60 19:-1 20:-60 #
-4.4478919297955254444007500147507e-05 1:-1 2:-20 3:2.71878 4:3.0492001 5:3.2200899 6:0.36300901 7:0.947236 8:0.35602301 9:0.77646202 10:0.68158197 11:49.063599 12:72.206001 13:0.66666698 14:0.94314301 15:0.96183199 16:13.8504 17:0 18:76 19:-4 20:-112 #
-5.9235705103313773811635201127501e-05 1:-1 2:-40.5 3:1.86059 4:0.71670097 5:0.42691201 6:0.42616299 7:0.631567 8:0.81894499 9:0.764121 10:0.289675 11:15.5956 12:78.2174 13:1 14:0.70519298 15:0.75913298 16:4.52601 17:-1 18:-40.5 19:-12 20:-217.5 #
-1.2645332963830875909645723442765e-05 1:-1 2:-60 3:1.06422 4:0.68370003 5:0.51226801 6:0.28073999 7:0.31424001 8:0.51523101 9:0.142891 10:0.142891 11:13.5644 12:85.2808 13:0.66666698 14:0.828076 15:0.888116 16:3.9394801 17:-1 18:-60 19:-2 20:-168 #
6.2121750227884899096635062942795e-05 1:2 2:14.0833 3:2.8623199 4:0.58348799 5:0.78241599 6:0.57667601 7:0.71329099 8:1.9295599 9:1.37326 10:1.37326 11:58.837601 12:31.2374 13:1 14:0.889431 15:0.91408098 16:16.3853 17:-1 18:-17.125 19:-3 20:-32.8438 #
6.2121750227884899096635062942795e-05 1:1 2:0.5 3:2.0232799 4:0.43508601 5:3.0415299 6:0.68941301 7:1.38832 8:0.33781299 9:0.45653099 10:0.68872398 11:47.835899 12:77.505096 13:0.66666698 14:0.82444799 15:0.93832397 16:13.5245 17:1 18:0.5 19:-2 20:-139.25 #
6.2121750227884899096635062942795e-05 1:1 2:-12 3:1.59347 4:0.782188 5:0.50630999 6:0.16158099 7:1.3228 8:0.55251199 9:0.243892 10:0.243892 11:21.734501 12:72.816803 13:0.66666698 14:0.83169198 15:0.84368497 16:6.2891998 17:1 18:-12 19:1 20:-7 #
-3.0399495795177534885559561539381e-05 1:0 2:0 3:2.7378299 4:0.107743 5:0.28396901 6:0.31090799 7:0.55032301 8:0.93190002 9:0.35635599 10:0.35635599 11:38.905998 12:51.334599 13:0.66666698 14:0.97441298 15:0.97689098 16:11.1095 17:0 18:0 19:-1 20:-280 #
6.2121750227884899096635062942795e-05 1:-1 2:-10 3:1.4359699 4:1.03874 5:1.39807 6:1.44551 7:0.89501399 8:0.984676 9:2.4686899 10:2.4686899 11:75.810204 12:22.863501 13:1 14:0.71096897 15:0.65340298 16:20.493999 17:-2 18:-55 19:-6 20:-161.66701 #
-6.1011497209295819212429567990341e-05 1:2 2:15 3:1.60651 4:0.54982197 5:0.30863899 6:1.49044 7:1.3844 8:1.03732 9:4.85326 10:4.85326 11:80.584297 12:13.6499 13:0.66666698 14:0.844993 15:0.70949799 16:21.5725 17:2 18:15 19:0 20:-219 #
6.2121750227884899096635062942795e-05 1:-2 2:-12.6667 3:2.10219 4:0.194133 5:2.1168301 6:0.47702301 7:1.56594 8:0.41312599 9:0.49705499 10:0.73273998 11:53.508701 12:75.984001 13:0.66666698 14:0.89119297 15:0.76256299 16:15.0169 17:-3 18:-22 19:-4 20:-49.200001 #
-6.2121750227884899096635062942795e-05 1:0 2:0 3:2.0490699 4:1.6385601 5:1.0446 6:0.87418199 7:0.91439599 8:0.445494 9:1.09322 10:1.09322 11:72.305801 12:74.977097 13:0.66666698 14:0.75005299 15:0.65129399 16:19.6796 17:-1 18:-74 19:-4 20:-178 #
6.2121750227884899096635062942795e-05 1:-1 2:-17 3:3.30248 4:4.0633302 5:1.68353 6:1.29015 7:1.5061001 8:0.75821197 9:0.76337099 10:0.616579 11:46.841801 12:51.685001 13:1 14:0.92949599 15:0.95779401 16:13.2594 17:-1 18:-17 19:-1 20:-17 #
6.2121750227884899096635062942795e-05 1:-2 2:-6.25 3:4.4264798 4:0.62033701 5:0.70946699 6:1.33356 7:0.61268401 8:0.64866799 9:0.37848899 10:2.7311299 11:70.580498 12:80.0392 13:0.66666698 14:0.77225298 15:0.88239402 16:19.271799 17:-6 18:-39.125 19:-7 20:-45.5 #
-5.6420646649318895171631993434858e-05 1:-2 2:-32 3:2.58972 4:7.6396298 5:5.4762502 6:1.69775 7:2.77545 8:2.35305 9:6.51794 10:6.51794 11:78.884499 12:11.1385 13:0.33333299 14:0.90945798 15:0.87063301 16:21.192699 17:-5 18:-62.599998 19:-6 20:-72.833298 #
6.2121750227884899096635062942795e-05 1:0 2:8 3:2.01912 4:1.66673 5:2.22929 6:0.384159 7:1.06739 8:0.41124699 9:0.558824 10:1.81853 11:83.581001 12:66.382103 13:1 14:0.87764901 15:0.83166498 16:22.2304 17:0 18:8 19:-2 20:-78 #
-4.2786788699222068127134277482071e-06 1:-1 2:-17.5 3:4.0973301 4:0.47881001 5:0.51642698 6:0.75883502 7:3.38817 8:1.98921 9:1.50941 10:3.86485 11:81.267899 12:29.867599 13:0.66666698 14:0.61009902 15:0.896842 16:21.7239 17:-1 18:-17.5 19:-5 20:-145.8 #
6.2121750227884899096635062942795e-05 1:2 2:-15.25 3:3.0045199 4:0.22521199 5:0.61252499 6:1.77347 7:0.55237299 8:0.83254898 9:0.67741102 10:0.67741102 11:48.690498 12:68.863602 13:0.66666698 14:0.926009 15:0.90248603 16:13.7515 17:-3 18:-39.111099 19:-4 20:-48.849998 #
-4.5944143175802017262793208729477e-05 1:-8 2:-30.25 3:2.30878 4:1.78476 5:0.57536501 6:0.46686199 7:0.446336 8:0.64822 9:0.455654 10:4.2531099 11:89.786903 12:64.036903 13:0.66666698 14:0.82671398 15:0.82423902 16:23.5441 17:-10 18:-37.799999 19:-10 20:-37.799999 #
-3.6070822934796016850239608331208e-07 1:0 2:0 3:3.8410299 4:1.25421 5:10.8734 6:6.7897801 7:0.571253 8:0.237207 9:5.5749698 10:5.5749698 11:87.090302 12:58.962799 13:1 14:0.85762399 15:0.91049999 16:22.981501 17:0 18:0 19:0 20:0 #
-5.2673177569243423076783550129676e-05 1:-2 2:-10 3:4.3513398 4:0.80380398 5:0.50174302 6:0.61881602 7:2.31617 8:2.6709499 9:1.6027 10:2.0641301 11:79.822998 12:56.9645 13:0.444444 14:0.67501599 15:0.86196798 16:21.402901 17:-2 18:-10 19:-8 20:-126.5 #
6.2121750227884899096635062942795e-05 1:-2 2:-10.5 3:2.08198 4:0.215645 5:1.16976 6:0.51204097 7:1.8008699 8:0.78165901 9:1.58246 10:1.58246 11:60.7981 12:31.8654 13:1 14:0.92299002 15:0.93349302 16:16.8801 17:-5 18:-48.400002 19:-7 20:-104.929 #
-6.2121750227884899096635062942795e-05 1:2 2:11 3:2.1414499 4:11.7435 5:0.84908599 6:2.3677001 7:2.16467 8:2.1588099 9:2.1998301 10:2.1998301 11:80.291801 12:57.080799 13:0.66666698 14:0.70626098 15:0.76762402 16:21.507401 17:-1 18:-82.333298 19:-4 20:-91 #
6.2121750227884899096635062942795e-05 1:-3 2:-18 3:3.2031801 4:0.67268097 5:0.61801898 6:1.11611 7:0.61843002 8:1.76717 9:3.0853 10:8.0490198 11:81.158699 12:61.351898 13:1 14:0.91330099 15:0.90299898 16:21.699699 17:-6 18:-42.285702 19:-10 20:-104.455 #
-6.5974689341368603079374111075595e-06 1:0 2:-47.5 3:4.6457701 4:1.20107 5:1.56486 6:0.14867599 7:0.38514501 8:0.46979699 9:0.18403301 10:0.27671799 11:35.291 12:85.742104 13:0.66666698 14:0.98505402 15:0.97613698 16:10.1119 17:0 18:-47.5 19:-3 20:-179.75 #
-2.9488530427310526691765668605427e-05 1:-1 2:-54 3:2.8015101 4:0.702784 5:0.242035 6:0.38338801 7:0.46062601 8:1.05208 9:1.49244 10:1.49244 11:62.688202 12:48.007 13:1 14:0.831967 15:0.83742702 16:17.352301 17:-1 18:-54 19:-1 20:-54 #
-3.604223864032714936492945989599e-05 1:0 2:0 3:1.13551 4:0.096629702 5:0.53677601 6:0.65002501 7:0.97583401 8:0.74259299 9:1.03903 10:0.82692099 11:51.0835 12:44.98 13:0.66666698 14:0.81335002 15:0.89805102 16:14.3831 17:-1 18:-77 19:-2 20:-134 #
6.2121750227884899096635062942795e-05 1:-1 2:-25 3:2.60412 4:0.97226202 5:1.1937 6:2.12468 7:0.62391502 8:0.37555 9:2.8273101 10:2.09215 11:73.705101 12:2.7024801 13:0.66666698 14:0.64778697 15:0.89725399 16:20.007 17:-3 18:-49 19:-9 20:-103 #
-4.4439505050263064511988780891372e-05 1:0 2:0 3:1.5008 4:0.40015101 5:0.114578 6:0.58102202 7:0.53686798 8:0.38198701 9:1.0395401 10:0.47077101 11:21.4576 12:53.297798 13:1 14:0.39886901 15:0.59329402 16:6.2100201 17:0 18:0 19:-2 20:-288 #
-6.9182200968047365125098910332291e-07 1:-1 2:-25 3:3.7741699 4:0.636051 5:1.3963799 6:0.77686799 7:2.9926 8:2.4714701 9:2.0012 10:6.0410399 11:76.416702 12:6.7349601 13:0.444444 14:0.50849998 15:0.92883301 16:20.632999 17:-1 18:-25 19:5 20:136.83299 #
-1.679408268567647062466732799102e-05 1:0 2:0 3:2.2418799 4:4.5159898 5:1.08987 6:0.40324399 7:0.43974599 8:0.274589 9:0.352263 10:0.35055599 11:37.1619 12:77.022202 13:0.66666698 14:0.74727899 15:0.930852 16:10.6295 17:0 18:0 19:1 20:282 #
-1.6054077319103206462902466711284e-05 1:-3 2:-30.6667 3:3.0067501 4:0.28776401 5:0.50192302 6:0.27759701 7:0.210778 8:0.62810999 9:0.250155 10:0.30757901 11:33.206902 12:83.3311 13:0.66666698 14:0.93487298 15:0.91431999 16:9.5320702 17:-3 18:-30.6667 19:-11 20:-29.8333 #
-5.2721440688765358606460154078377e-05 1:-1 2:-8 3:3.1278601 4:0.62212402 5:9.4224596 6:0.36316299 7:0.16833299 8:0.14437801 9:0.219565 10:0.190696 11:28.2101 12:87.7351 13:0.444444 14:0.96372098 15:0.95498002 16:8.1294699 17:-1 18:-8 19:-1 20:-8 #
-3.669904393054990773131995851486e-05 1:-1 2:-50 3:2.4010301 4:0.368534 5:1.04996 6:0.60591203 7:1.01279 8:0.44100499 9:0.71305299 10:0.90433198 11:51.961498 12:75.779404 13:0.66666698 14:0.71122497 15:0.84008503 16:14.6133 17:0 18:50 19:0 20:30 #
-4.6506942921745576561220157640886e-06 1:3 2:30.3125 3:100.787 4:0.51768303 5:0.39539099 6:0.29073799 7:0.52540499 8:0.360506 9:0.354321 10:0.225786 11:33.786201 12:78.036201 13:0.66666698 14:0.99263501 15:0.99756902 16:9.6935396 17:4 18:38.421902 19:4 20:-121.734 #
-3.7625238697228113871062760154018e-06 1:-1 2:-4 3:56.800301 4:0.30645001 5:0.190703 6:0.324231 7:0.30770901 8:0.21742199 9:0.207643 10:0.19024999 11:31.6108 12:66.023102 13:0.66666698 14:0.983441 15:0.99901199 16:9.0858803 17:-1 18:-4 19:1 20:133.33299 #
-2.5627903411968447149570093923643e-05 1:-5 2:-20.799999 3:1.5859801 4:0.72665602 5:1.8219 6:4.22891 7:1.08375 8:3.61953 9:1.90925 10:2.5383301 11:88.201103 12:27.727301 13:0.66666698 14:0.59471297 15:0.82811499 16:23.2148 17:-5 18:-20.799999 19:-4 20:99.199997 #
-1.9216311562125776291054535249714e-06 1:0 2:35 3:1.82508 4:0.16549 5:0.497641 6:0.39977601 7:0.61404699 8:0.39484999 9:0.92907602 10:0.92907602 11:53.769901 12:69.5243 13:0.33333299 14:0.93396097 15:0.95909601 16:15.0847 17:1 18:44 19:-6 20:-125.375 #
-8.4610314814558690299506338305946e-06 1:-2 2:-22.5 3:3.3878701 4:0.50943798 5:9.5424204 6:18.2887 7:2.9546599 8:2.3165801 9:7.43575 10:7.43575 11:89.718498 12:22.154699 13:1 14:0.878748 15:0.90807498 16:23.530001 17:-2 18:-22.5 19:1 20:168.83299 #
-2.6610090256772380329667801457383e-05 1:-1 2:-15 3:2.58709 4:0.34116399 5:0.55338103 6:0.96268201 7:0.43189901 8:0.18548299 9:0.493258 10:0.34658599 11:38.568401 12:79.3974 13:0.66666698 14:0.97471398 15:0.96374899 16:11.0168 17:-1 18:-15 19:-11 20:-168.27299 #
-3.7674687512787210301695543790412e-06 1:1 2:52 3:2.49403 4:0.74856102 5:2.36801 6:0.51963198 7:0.60006499 8:0.35673901 9:0.49992099 10:0.49131399 11:42.584499 12:49.9338 13:0.66666698 14:0.86350799 15:0.91891003 16:12.1133 17:1 18:52 19:1 20:52 #
-5.4987088296166324909164391243621e-07 1:1 2:27 3:1.8695199 4:1.76859 5:0.922732 6:0.35896999 7:0.47526601 8:0.244003 9:0.29138899 10:0.374791 11:39.055401 12:61.664001 13:0.66666698 14:0.92423302 15:0.95374799 16:11.1505 17:1 18:27 19:-2 20:-176 #
-7.9152149225813879193126842981343e-07 1:0 2:0 3:2.21383 4:1.15526 5:0.268475 6:2.0901501 7:0.52688497 8:0.25953501 9:1.00207 10:1.00207 11:56.818001 12:68.8508 13:0.33333299 14:0.92578501 15:0.889283 16:15.8707 17:-6 18:-79 19:-5 20:81 #
-6.2084844054109439726724106733968e-06 1:6 2:21 3:5.3246598 4:0.74490798 5:1.22298 6:0.298273 7:0.88453799 8:0.57176101 9:0.44806001 10:2.5455401 11:80.935898 12:57.502201 13:0.66666698 14:0.91447002 15:0.88476598 16:21.6504 17:6 18:21 19:6 20:-216 #
-4.8544345057987569095302171628958e-07 1:5 2:27.6 3:1.91442 4:2.0655301 5:0.337791 6:0.51739597 7:0.749264 8:0.475218 9:1.4407099 10:1.24296 11:58.152 12:28.427 13:0.444444 14:0.69365299 15:0.90952897 16:16.211201 17:5 18:27.6 19:7 20:90 #
-3.18588776244716027018742676713e-07 1:-2 2:-16 3:1.42057 4:18.589199 5:0.349264 6:0.67697102 7:0.84817803 8:2.6791601 9:0.56815797 10:0.561418 11:44.468102 12:72.043098 13:0.66666698 14:0.93234599 15:0.91973299 16:12.6226 17:-2 18:-16 19:0 20:222 #
-2.3466713820466577808659253134849e-05 1:7 2:28.5714 3:1.62296 4:3.05496 5:4.7487602 6:0.275381 7:0.54061598 8:0.34008801 9:0.151366 10:0.33610699 11:34.8713 12:71.540901 13:0.66666698 14:0.87222302 15:0.92119497 16:9.9953604 17:7 18:28.5714 19:9 20:67.111099 #
-5.9115814036547580101466081714534e-07 1:0 2:0 3:3.7946701 4:0.60636902 5:0.448479 6:1.52949 7:0.47967499 8:2.3699801 9:2.4402101 10:2.52478 11:87.062698 12:23.997601 13:0.33333299 14:0.67781597 15:0.85604298 16:22.9757 17:0 18:0 19:-4 20:-130 #
-2.1428943802842216934763028279853e-06 1:0 2:0 3:1.93873 4:4.4686599 5:0.597314 6:0.574395 7:0.59863901 8:0.99844098 9:0.58519697 10:0.58519697 11:45.914902 12:65.003998 13:0.66666698 14:0.927104 15:0.93134302 16:13.0114 17:0 18:0 19:1 20:268 #
-2.0285918681501951231493929839189e-08 1:2 2:20.375 3:3.09637 4:3.37658 5:0.89045602 6:0.55465698 7:0.52265799 8:0.38098499 9:0.47008401 10:0.61143202 11:47.8764 12:48.042599 13:0.66666698 14:0.93154299 15:0.98891503 16:13.5352 17:2 18:20.375 19:3 20:108.5 #
-7.7281874714691155888336010493234e-06 1:-1 2:-60 3:1.2765501 4:0.183908 5:0.49267101 6:0.45161399 7:0.64634597 8:0.65879798 9:0.589288 10:0.248777 11:27.1036 12:71.492996 13:0.33333299 14:0.92448002 15:0.88965201 16:7.8167 17:-5 18:-76.400002 19:-4 20:205.60001 #
-1.6248168458753580080259140694388e-05 1:2 2:14.625 3:1.84868 4:0.30978099 5:1.3594 6:2.65465 7:2.5811801 8:1.04107 9:3.29424 10:1.99652 11:74.249001 12:14.0616 13:0.33333299 14:0.746086 15:0.71557701 16:20.133499 17:-1 18:-69.291702 19:-2 20:-76 #
-1.3581307553422322653702281058941e-06 1:0 2:0 3:2.6906099 4:0.54469699 5:0.94314802 6:0.49316001 7:0.44041601 8:1.32912 9:0.48865601 10:2.67382 11:85.816002 12:70.760101 13:0.66666698 14:0.83811301 15:0.82698298 16:22.711201 17:0 18:0 19:1 20:144 #
-2.5581621497460955701012952356876e-07 1:1 2:-8 3:2.3211 4:0.24971899 5:0.19721 6:0.408207 7:0.77012098 8:0.441136 9:0.38434601 10:1.33531 11:83.654602 12:76.3172 13:1 14:0.53575498 15:0.68619299 16:22.246401 17:1 18:-8 19:2 20:57.333302 #
-1.1199087790504181988903657091194e-06 1:5 2:30.200001 3:2.6052899 4:0.70602399 5:1.07243 6:0.59823197 7:0.519481 8:0.58781999 9:0.54565102 10:1.75343 11:85.642899 12:88.110603 13:1 14:0.74602997 15:0.73466003 16:22.674299 17:5 18:30.200001 19:5 20:30.200001 #
-1.2367169029196101821474473858586e-07 1:-1 2:-40 3:1.71768 4:0.64717001 5:0.41104999 6:0.55785501 7:0.76202202 8:0.119886 9:0.90448898 10:0.90448898 11:52.661301 12:37.624199 13:0.66666698 14:0.86194599 15:0.916291 16:14.7962 17:-1 18:-40 19:0 20:140 #
-5.7017770677210809627914744890376e-08 1:2 2:7 3:4.0034199 4:0.036506802 5:1.49117 6:1.45693 7:1.31055 8:2.37169 9:2.8378899 10:3.1942 11:88.011299 12:32.423302 13:1 14:0.731282 15:0.85418397 16:23.1751 17:2 18:7 19:-3 20:-163.39999 #
-3.1430119928899102887953631579876e-06 1:0 2:0 3:1.4046299 4:0.53134298 5:0.74817598 6:0.35136399 7:0.84318298 8:1.86159 9:0.80809999 10:2.09675 11:85.113998 12:47.812401 13:0.66666698 14:0.58261698 15:0.64271098 16:22.5611 17:0 18:0 19:-3 20:-147.33299 #
-1.7833215849865843849464397408155e-05 1:-1 2:-60 3:2.03596 4:0.62163901 5:4.6605902 6:0.78569901 7:0.17413101 8:0.58106703 9:0.317572 10:0.26135999 11:23.5159 12:74.996002 13:0.444444 14:0.89146799 15:0.843023 16:6.79772 17:-1 18:-60 19:-1 20:-60 #
-2.6987510018667975350645932275384e-07 1:0 2:0 3:1.97455 4:1.2777801 5:0.44013 6:0.52727699 7:0.17781501 8:0.65081799 9:0.227147 10:0.227147 11:30.107201 12:61.534801 13:0.66666698 14:0.943775 15:0.94958901 16:8.66395 17:1 18:97 19:2 20:194 #
-9.6784404362976737302981522503842e-08 1:0 2:-44 3:1.42503 4:0.51210201 5:0.144641 6:0.0471517 7:0.054811899 8:0.34968901 9:0.051091801 10:0.051091801 11:7.6039 12:85.324699 13:1 14:0.94463497 15:0.95812398 16:2.21193 17:-3 18:-63.75 19:-6 20:-94.285698 #
-3.0830339520169019952751388036205e-07 1:0 2:0 3:2.03162 4:0.73936898 5:0.47412899 6:0.54284 7:0.91327798 8:0.56578898 9:1.58715 10:1.58715 11:58.2402 12:33.768902 13:0.66666698 14:0.96382803 15:0.874448 16:16.2337 17:1 18:98 19:1 20:-51 #
-2.3010729255027951775918609866878e-08 1:4 2:21.5 3:2.7351301 4:0.695593 5:0.35809699 6:0.43468601 7:0.34090099 8:0.59619099 9:0.451024 10:0.451024 11:42.700699 12:48.703098 13:0.66666698 14:0.97215301 15:0.97984302 16:12.1448 17:4 18:21.5 19:5 20:-174 #
-3.3128127785661824929175356402311e-08 1:2 2:16 3:1.09226 4:1.61129 5:2.1359501 6:0.47807699 7:0.178441 8:0.63225198 9:0.61624902 10:0.61624902 11:46.7355 12:44.622398 13:0.66666698 14:0.92408901 15:0.95147598 16:13.231 17:2 18:16 19:2 20:16 #
-2.190935818907613352735097578261e-06 1:-3 2:-7.75 3:1.59276 4:11.1623 5:3.59725 6:1.09907 7:1.61278 8:2.6977401 9:2.34444 10:2.59168 11:70.884903 12:27.6082 13:0.66666698 14:0.91609001 15:0.85058498 16:19.344101 17:-1 18:41.583302 19:0 20:52.5 #
-3.7281901108562453400763203603674e-08 1:0 2:0 3:1.5012 4:2.8382299 5:2.14656 6:0.85505402 7:0.486653 8:0.45897001 9:0.689569 10:0.57550001 11:42.1576 12:53.9007 13:0.66666698 14:0.80976498 15:0.85834098 16:11.9974 17:1 18:84 19:1 20:84 #
-7.5649805034078553570226280400313e-06 1:1 2:-6 3:1.7306 4:0.77638 5:0.57920998 6:1.58384 7:1.17009 8:0.50223601 9:1.0862401 10:1.23974 11:56.540501 12:41.4632 13:0.66666698 14:0.93909502 15:0.883075 16:15.7996 17:1 18:-6 19:-2 20:-171.25 #
-3.9883610167565069828661365736178e-06 1:1 2:6.5 3:2.3471 4:0.75136399 5:1.01896 6:0.47168601 7:0.43450299 8:0.234549 9:0.58450001 10:0.45523 11:41.3255 12:47.472 13:1 14:0.93802202 15:0.94402802 16:11.7711 17:1 18:6.5 19:-3 20:-144.7 #
-1.2870802160856731344296122188098e-05 1:-4 2:-35.75 3:3.0383699 4:0.197442 5:0.693232 6:0.31589901 7:0.52930301 8:0.16291501 9:0.395073 10:0.39797801 11:41.220901 12:71.830902 13:0.66666698 14:0.95685202 15:0.98408699 16:11.7426 17:-8 18:-57.75 19:-10 20:-68.199997 #
