SVM-light Version V6.02
0 # kernel type
3 # kernel parameter -d 
1 # kernel parameter -g 
1 # kernel parameter -s 
1 # kernel parameter -r 
empty# kernel parameter -u 
20 # highest feature index 
2410 # number of training documents 
393 # number of support vectors plus 1 
1.0010186 # threshold b, each following line is a SV (starting with alpha*y)
-6.2087910402510069715099894072097e-05 1:0 2:0 3:2.8626399 4:0.49380499 5:0.64495897 6:0.18932199 7:1.01958 8:1.38823 9:0.95981199 10:1.46635 11:59.383701 12:80.519302 13:0.444444 14:0.942819 15:0.95824599 16:16.5236 17:0 18:0 19:0 20:0 #
6.2087910402510069715099894072097e-05 1:1 2:6.5 3:1.9320199 4:0.74663198 5:3.22908 6:1.24397 7:0.29740801 8:0.40973401 9:0.69704199 10:0.83284903 11:49.257 12:68.568901 13:0.66666698 14:0.89283901 15:0.87495202 16:13.9016 17:1 18:6.5 19:3 20:150.479 #
-2.8920401466967025471549446180575e-07 1:2 2:11.25 3:1.29143 4:3.58462 5:1.71026 6:0.52119201 7:0.36369199 8:0.345577 9:0.397798 10:0.397798 11:36.7929 12:60.223499 13:0.66666698 14:0.935574 15:0.89949799 16:10.5276 17:2 18:11.25 19:5 20:84.599998 #
6.2087910402510069715099894072097e-05 1:0 2:0 3:1.44447 4:0.84203702 5:0.277504 6:0.65115702 7:0.29929101 8:0.363747 9:0.29135799 10:0.29135799 11:33.575401 12:62.263901 13:0.66666698 14:0.892389 15:0.93580103 16:9.6348104 17:0 18:0 19:-2 20:-263 #
-6.2087910402510069715099894072097e-05 1:1 2:6 3:2.32341 4:0.12542 5:0.20645501 6:0.132994 7:0.21750399 8:0.127572 9:0.185568 10:0.171074 11:29.703699 12:60.768501 13:0.66666698 14:0.97782099 15:0.99216098 16:8.5504704 17:1 18:6 19:0 20:-294 #
6.2087910402510069715099894072097e-05 1:-1 2:-20.375 3:4.7425499 4:1.58596 5:0.22644401 6:0.454662 7:0.50621003 8:0.479444 9:0.583094 10:0.27630401 11:35.820702 12:61.8144 13:0.444444 14:0.95960402 15:0.98585898 16:10.2587 17:-1 18:-20.375 19:3 20:258.71899 #
6.2087910402510069715099894072097e-05 1:3 2:24 3:2.4753399 4:1.3609101 5:0.61599702 6:0.65459102 7:0.44250599 8:0.292772 9:0.42091799 10:0.31211999 11:37.196602 12:71.709503 13:0.33333299 14:0.88358599 15:0.97193003 16:10.6391 17:3 18:24 19:2 20:-258 #
-2.1819674386011934070346790590783e-08 1:0 2:0 3:3.5701301 4:1.09626 5:0.62239301 6:0.59979099 7:0.391386 8:0.35552099 9:0.53332198 10:0.53332198 11:45.318298 12:85.7976 13:0.66666698 14:0.95491397 15:0.96844 16:12.8513 17:0 18:0 19:3 20:213 #
-6.2087910402510069715099894072097e-05 1:0 2:0 3:4.2430701 4:1.94223 5:0.67437702 6:0.65596902 7:0.69786602 8:0.323823 9:0.70653999 10:0.70653999 11:48.807098 12:56.838299 13:0.66666698 14:0.91462702 15:0.92927998 16:13.7824 17:1 18:97.5 19:3 20:117.833 #
-6.2087910402510069715099894072097e-05 1:-4 2:-19.5 3:2.3522799 4:0.37575299 5:0.31858999 6:0.69743299 7:0.253086 8:0.595267 9:1.47357 10:1.47357 11:73.5989 12:59.1036 13:0.66666698 14:0.88714898 15:0.74545699 16:19.9823 17:-4 18:-19.5 19:-2 20:277.5 #
6.2087910402510069715099894072097e-05 1:0 2:0 3:4.0732999 4:1.52428 5:0.26220101 6:0.40535 7:0.281149 8:0.20015 9:0.287505 10:0.37351701 11:38.7897 12:82.213402 13:0.66666698 14:0.95655698 15:0.95786601 16:11.0776 17:0 18:0 19:2 20:228 #
-4.0638841758454822476569201494812e-05 1:4 2:14 3:3.1568501 4:0.49246499 5:1.9118299 6:0.25511301 7:0.52198398 8:0.493276 9:0.441259 10:0.47702199 11:43.6842 12:79.301102 13:0.166667 14:0.93533999 15:0.94295001 16:12.411 17:4 18:14 19:6 20:49 #
6.2087910402510069715099894072097e-05 1:0 2:0 3:1.52095 4:0.940938 5:0.71706402 6:0.918715 7:0.437906 8:0.25079599 9:0.36197799 10:0.36197799 11:38.710701 12:59.063999 13:0.66666698 14:0.96104902 15:0.96509701 16:11.0559 17:0 18:0 19:-1 20:-236 #
-6.2087910402510069715099894072097e-05 1:0 2:0 3:1.45664 4:0.124211 5:0.75469297 6:0.57884002 7:0.81576502 8:0.78391701 9:1.08485 10:1.08485 11:54.394001 12:40.922401 13:0.66666698 14:0.91790801 15:0.89720702 16:15.2465 17:0 18:0 19:3 20:278.33301 #
6.2087910402510069715099894072097e-05 1:0 2:0 3:1.4945101 4:0.23633 5:0.62634403 6:0.47357601 7:0.368303 8:0.92917299 9:0.52200502 10:0.33583099 11:32.678501 12:81.975998 13:0.66666698 14:0.82253897 15:0.880835 16:9.3845501 17:0 18:0 19:-1 20:-218 #
-3.5188758858864895755561019718982e-05 1:2 2:23 3:3.5762801 4:0.19828101 5:0.41119799 6:0.47484201 7:0.48707399 8:0.36646801 9:0.34595099 10:0.37268299 11:40.355598 12:87.8088 13:0.222222 14:0.97509998 15:0.98689097 16:11.5065 17:2 18:23 19:6 20:88 #
6.2087910402510069715099894072097e-05 1:1 2:8 3:2.1065199 4:0.052820101 5:0.122941 6:0.75598502 7:0.52265602 8:1.10148 9:0.65347099 10:0.65347099 11:46.270699 12:64.237198 13:0.66666698 14:0.799896 15:0.862252 16:13.1067 17:1 18:8 19:4 20:202.5 #
-6.2087910402510069715099894072097e-05 1:2 2:10 3:1.58118 4:0.25313899 5:0.40037599 6:0.44422999 7:0.44879201 8:0.55108303 9:0.49707901 10:0.49707901 11:42.647999 12:47.7099 13:0.444444 14:0.954521 15:0.94903499 16:12.1305 17:2 18:10 19:1 20:-279 #
6.2087910402510069715099894072097e-05 1:0 2:0 3:3.2604599 4:0.13474999 5:0.43743399 6:0.31192499 7:0.70650601 8:0.30618101 9:0.35165 10:0.35165 11:37.428398 12:56.298401 13:0.166667 14:0.91102201 15:0.94756901 16:10.703 17:0 18:0 19:3 20:196.66701 #
-5.71857534959196051613586342377e-05 1:0 2:0 3:2.0650201 4:0.59437603 5:0.46041101 6:0.199589 7:0.18273 8:0.31964001 9:0.213193 10:0.213193 11:24.450199 12:80.0634 13:0.444444 14:0.91618299 15:0.89085901 16:7.0637698 17:0 18:0 19:-1 20:-286 #
-6.2087910402510069715099894072097e-05 1:5 2:27.4 3:1.87108 4:1.0805 5:0.28637901 6:0.23381799 7:0.30291301 8:0.220615 9:0.251937 10:0.35500601 11:39.863098 12:66.604103 13:0.66666698 14:0.96643698 15:0.99373299 16:11.3718 17:5 18:27.4 19:4 20:-265.10001 #
6.2087910402510069715099894072097e-05 1:0 2:0 3:6.1690202 4:0.360598 5:0.443665 6:0.527668 7:0.64231497 8:0.97572398 9:0.75453198 10:0.55122298 11:45.678001 12:60.919998 13:0.66666698 14:0.92455798 15:0.93574899 16:12.9479 17:0 18:0 19:-1 20:-218 #
6.2087910402510069715099894072097e-05 1:-2 2:-16 3:4.9193602 4:0.37512901 5:1.96681 6:0.645468 7:1.2685601 8:0.213255 9:1.22414 10:0.80662698 11:52.038799 12:86.486099 13:0.66666698 14:0.97939301 15:0.97885299 16:14.6335 17:-5 18:-54 19:-4 20:163.905 #
-6.2087910402510069715099894072097e-05 1:0 2:0 3:2.2846701 4:1.46656 5:0.751041 6:0.67007703 7:0.730048 8:0.48990101 9:0.52399701 10:0.607391 11:47.4021 12:89.501198 13:0.66666698 14:0.89607298 15:0.97478598 16:13.4089 17:0 18:0 19:-1 20:-272.75 #
6.2087910402510069715099894072097e-05 1:0 2:0 3:3.23311 4:0.092013597 5:1.6515501 6:0.29769999 7:0.33902201 8:0.27697501 9:0.34382999 10:0.34382999 11:37.908001 12:82.670601 13:0.444444 14:0.95135599 15:0.95450997 16:10.8351 17:0 18:0 19:3 20:166 #
-5.4314516849284909943973431722952e-05 1:5 2:30.200001 3:2.6052899 4:0.70602399 5:1.07243 6:0.59823197 7:0.519481 8:0.58781999 9:0.54565102 10:1.75343 11:85.642899 12:88.110603 13:1 14:0.74602997 15:0.73466003 16:22.674299 17:5 18:30.200001 19:5 20:30.200001 #
6.2087910402510069715099894072097e-05 1:-1 2:-44 3:2.7929201 4:1.33586 5:1.38679 6:0.62154502 7:0.40911001 8:0.13948099 9:0.30493301 10:0.407442 11:40.335499 12:75.291901 13:0.66666698 14:0.94108897 15:0.944839 16:11.501 17:-1 18:-44 19:-2 20:-101 #
6.2087910402510069715099894072097e-05 1:3 2:23.3333 3:17.4713 4:1.93015 5:0.60929799 6:0.65992701 7:0.801557 8:0.572191 9:0.70666301 10:0.72636998 11:50.372799 12:44.3531 13:0.66666698 14:0.96657503 15:0.99516499 16:14.1962 17:3 18:23.3333 19:11 20:171.81799 #
-5.5071513704955183038988048016549e-05 1:-1 2:-60 3:1.2765501 4:0.183908 5:0.49267101 6:0.45161399 7:0.64634597 8:0.65879798 9:0.589288 10:0.248777 11:27.1036 12:71.492996 13:0.33333299 14:0.92448002 15:0.88965201 16:7.8167 17:-5 18:-76.400002 19:-4 20:205.60001 #
6.2087910402510069715099894072097e-05 1:0 2:0 3:1.94435 4:0.96942198 5:0.99289399 6:0.229737 7:0.21332701 8:0.76313698 9:0.236269 10:0.236269 11:30.4198 12:60.382401 13:0.66666698 14:0.92399597 15:0.94454801 16:8.75179 17:1 18:74.625 19:2 20:153.625 #
-6.2087910402510069715099894072097e-05 1:0 2:0 3:2.7378299 4:0.107743 5:0.28396901 6:0.31090799 7:0.55032301 8:0.93190002 9:0.35635599 10:0.35635599 11:38.905998 12:51.334599 13:0.66666698 14:0.97441298 15:0.97689098 16:11.1095 17:0 18:0 19:-1 20:-280 #
-6.2087910402510069715099894072097e-05 1:1 2:5.125 3:1.56084 4:1.84454 5:1.06083 6:0.60814899 7:0.46000701 8:0.608073 9:0.46262401 10:0.446637 11:41.9855 12:51.648998 13:0.66666698 14:0.956469 15:0.96693301 16:11.9507 17:1 18:5.125 19:4 20:96.343803 #
-6.2087910402510069715099894072097e-05 1:-2 2:-11 3:2.3779099 4:0.30070001 5:0.221578 6:0.16704699 7:0.60962898 8:0.60467702 9:0.68800497 10:0.188453 11:28.3871 12:48.037498 13:0.66666698 14:0.92672402 15:0.962681 16:8.17945 17:-2 18:-11 19:1 20:280.33301 #
6.2087910402510069715099894072097e-05 1:0 2:0 3:1.57891 4:0.29165399 5:0.15904 6:0.286955 7:1.3202 8:1.2671601 9:1.01475 10:1.5640301 11:62.226002 12:67.061798 13:0.66666698 14:0.92412001 15:0.90086901 16:17.237301 17:0 18:0 19:-1 20:-205 #
6.2087910402510069715099894072097e-05 1:0 2:0 3:1.43732 4:2.25945 5:1.59106 6:0.702384 7:0.27423701 8:0.58081001 9:0.430785 10:0.430785 11:40.864799 12:89.236397 13:0.444444 14:0.92000198 15:0.92726099 16:11.6455 17:0 18:0 19:2 20:166 #
-4.0815186047717858761367179520896e-07 1:0 2:0 3:2.76408 4:0.98218602 5:2.1863799 6:0.15915 7:0.87881303 8:0.50908798 9:0.43526399 10:0.76257402 11:50.044201 12:84.928802 13:0.66666698 14:0.89217401 15:0.83989799 16:14.1096 17:0 18:0 19:-1 20:-247 #
-4.491398192279574006022940801941e-05 1:0 2:0 3:2.2663 4:0.25564 5:0.424557 6:0.58677602 7:0.60449302 8:0.60104501 9:1.67147 10:1.67147 11:64.827301 12:84.156601 13:0.66666698 14:0.82296699 15:0.888753 16:17.8811 17:0 18:0 19:-1 20:-264 #
6.2087910402510069715099894072097e-05 1:1 2:9.5 3:3.91506 4:0.690211 5:1.18365 6:0.768996 7:0.462484 8:0.59387499 9:0.56895202 10:0.56895202 11:45.738098 12:63.8367 13:0.66666698 14:0.95357198 15:0.94557202 16:12.964 17:1 18:9.5 19:-1 20:-195.75 #
-3.2738304088892098515570228123295e-05 1:0 2:0 3:2.0093 4:1.1440901 5:0.314432 6:0.49962401 7:0.32203999 8:1.83533 9:0.47977 10:1.25625 11:59.361 12:74.753799 13:0.66666698 14:0.57028401 15:0.80840099 16:16.5179 17:1 18:80 19:2 20:185 #
6.2087910402510069715099894072097e-05 1:0 2:0 3:2.35006 4:4.0598402 5:1.3876801 6:0.787435 7:0.92636698 8:0.77704901 9:1.88156 10:0.34596199 11:34.475399 12:26.792101 13:0.66666698 14:0.85158098 15:0.89340103 16:9.8853502 17:-1 18:-63.5 19:-3 20:-157.16701 #
6.2087910402510069715099894072097e-05 1:1 2:13.75 3:6.1983199 4:0.36150199 5:2.77263 6:0.65588301 7:0.32967499 8:0.28734601 9:0.32751101 10:0.32751101 11:37.773998 12:77.716904 13:0.444444 14:0.98377597 15:0.96696401 16:10.7982 17:1 18:13.75 19:0 20:-165.5 #
6.2087910402510069715099894072097e-05 1:4 2:21.5 3:2.7351301 4:0.695593 5:0.35809699 6:0.43468601 7:0.34090099 8:0.59619099 9:0.451024 10:0.451024 11:42.700699 12:48.703098 13:0.66666698 14:0.97215301 15:0.97984302 16:12.1448 17:4 18:21.5 19:5 20:-174 #
-1.0234498028113612588373831924216e-07 1:0 2:0 3:1.56908 4:0.54974103 5:0.33917099 6:0.33414599 7:0.38468301 8:0.49312699 9:0.43689799 10:0.43689799 11:40.1105 12:65.973297 13:0.444444 14:0.89877898 15:0.91812599 16:11.4395 17:0 18:0 19:2 20:207.5 #
6.2087910402510069715099894072097e-05 1:1 2:6 3:3.06552 4:0.31203201 5:0.91065598 6:0.30608299 7:0.59575897 8:0.316836 9:0.61453402 10:0.24895599 11:29.612499 12:86.408401 13:0.444444 14:0.952456 15:0.91910303 16:8.5248003 17:1 18:6 19:-2 20:-128 #
-6.2020134759434316740027426373416e-05 1:0 2:0 3:1.97455 4:1.2777801 5:0.44013 6:0.52727699 7:0.17781501 8:0.65081799 9:0.227147 10:0.227147 11:30.107201 12:61.534801 13:0.66666698 14:0.943775 15:0.94958901 16:8.66395 17:1 18:97 19:2 20:194 #
6.2087910402510069715099894072097e-05 1:-3 2:-23.6667 3:5.39364 4:0.087246798 5:0.71951199 6:1.44919 7:0.82766598 8:0.46097001 9:2.91394 10:2.3562 11:69.688599 12:87.203102 13:0.66666698 14:0.94684201 15:0.93619299 16:19.059299 17:-5 18:-45.799999 19:-14 20:-137.14301 #
6.2087910402510069715099894072097e-05 1:0 2:0 3:1.76238 4:0.414379 5:0.307928 6:0.23367199 7:0.75318301 8:0.25928 9:0.221477 10:0.221477 11:29.152399 12:71.539597 13:0.66666698 14:0.92714101 15:0.93864501 16:8.3952503 17:1 18:94 19:1 20:94 #
-6.2087910402510069715099894072097e-05 1:1 2:6.625 3:2.1963301 4:0.349305 5:0.83290797 6:0.51719099 7:0.52029902 8:0.26312199 9:0.51877499 10:0.51877499 11:44.648899 12:47.219799 13:0.444444 14:0.96571302 15:0.97497898 16:12.6713 17:1 18:6.625 19:4 20:100.4 #
6.2087910402510069715099894072097e-05 1:-1 2:-10 3:1.46044 4:0.83496898 5:1.12411 6:0.222262 7:0.36440501 8:0.20408501 9:0.26855299 10:0.14868499 11:27.1586 12:83.068802 13:0.66666698 14:0.988078 15:0.98430997 16:7.8322802 17:-1 18:-10 19:-1 20:-10 #
-6.2087910402510069715099894072097e-05 1:3 2:19.3333 3:2.85449 4:1.3681099 5:0.42712 6:0.29543599 7:0.45911801 8:0.67424399 9:0.33605501 10:0.68901497 11:48.6535 12:77.218201 13:0.444444 14:0.949889 15:0.94408399 16:13.7417 17:3 18:19.3333 19:5 20:-132.66701 #
6.2087910402510069715099894072097e-05 1:2 2:10 3:2.52057 4:0.25198701 5:1.37077 6:1.01596 7:0.79038399 8:0.68629402 9:3.55074 10:3.55074 11:75.886299 12:25.2607 13:0.66666698 14:0.84543401 15:0.85641402 16:20.5114 17:2 18:10 19:2 20:10 #
-6.2087910402510069715099894072097e-05 1:2 2:-9.3333302 3:2.3115301 4:0.204579 5:0.39782599 6:0.48233801 7:0.883322 8:0.567348 9:0.93041497 10:0.74855399 11:50.0816 12:47.786598 13:0.444444 14:0.89435202 15:0.93849999 16:14.1194 17:2 18:-9.3333302 19:2 20:-9.3333302 #
-6.2087910402510069715099894072097e-05 1:3 2:42.666698 3:4.0309501 4:0.107799 5:0.0849576 6:0.094059698 7:0.0481827 8:0.045453001 9:0.068487503 10:0.101634 11:24.047501 12:84.855698 13:0.66666698 14:0.99390697 15:0.99802601 16:6.9491301 17:5 18:-36.666698 19:5 20:-36.666698 #
6.2087910402510069715099894072097e-05 1:-1 2:-50 3:2.4010301 4:0.368534 5:1.04996 6:0.60591203 7:1.01279 8:0.44100499 9:0.71305299 10:0.90433198 11:51.961498 12:75.779404 13:0.66666698 14:0.71122497 15:0.84008503 16:14.6133 17:0 18:50 19:0 20:30 #
6.2087910402510069715099894072097e-05 1:5 2:24 3:4.2009902 4:1.14498 5:0.442379 6:0.376322 7:0.64252198 8:0.54080898 9:1.0233901 10:0.613653 11:47.898201 12:84.044899 13:0.444444 14:0.911807 15:0.97312301 16:13.541 17:5 18:24 19:10 20:148.39999 #
6.2087910402510069715099894072097e-05 1:2 2:30.75 3:7.6854501 4:0.85118002 5:0.791152 6:1.5057499 7:0.55350798 8:0.113638 9:0.374486 10:0.60886598 11:47.7285 12:73.793098 13:0.66666698 14:0.97291398 15:0.98098999 16:13.4959 17:1 18:-43.25 19:-1 20:-144.91701 #
-6.2087910402510069715099894072097e-05 1:0 2:0 3:2.03162 4:0.73936898 5:0.47412899 6:0.54284 7:0.91327798 8:0.56578898 9:1.58715 10:1.58715 11:58.2402 12:33.768902 13:0.66666698 14:0.96382803 15:0.874448 16:16.2337 17:1 18:98 19:1 20:-51 #
6.2087910402510069715099894072097e-05 1:-1 2:-40 3:1.71768 4:0.64717001 5:0.41104999 6:0.55785501 7:0.76202202 8:0.119886 9:0.90448898 10:0.90448898 11:52.661301 12:37.624199 13:0.66666698 14:0.86194599 15:0.916291 16:14.7962 17:-1 18:-40 19:0 20:140 #
-6.2087910402510069715099894072097e-05 1:-1 2:-60 3:5.2692299 4:1.13001 5:1.12081 6:0.29115301 7:1.26752 8:0.42779401 9:0.205 10:0.39546999 11:34.391899 12:87.744598 13:0.66666698 14:0.98527598 15:0.86408103 16:9.8621101 17:-1 18:-60 19:-1 20:-60 #
6.2087910402510069715099894072097e-05 1:4 2:14 3:1.49901 4:0.190409 5:1.19943 6:0.42684299 7:0.320344 8:0.21218599 9:0.352781 10:0.445678 11:40.248199 12:73.5382 13:0.166667 14:0.80511498 15:0.907552 16:11.4772 17:3 18:-60 19:4 20:-119.667 #
6.2087910402510069715099894072097e-05 1:-1 2:-3.5 3:5.5982099 4:0.39680699 5:0.43112099 6:0.63105798 7:0.55495101 8:0.71227998 9:0.55396098 10:0.55396098 11:46.2967 12:72.667801 13:0.66666698 14:0.99539697 15:0.97359002 16:13.1137 17:-1 18:-3.5 19:1 20:163.16701 #
-6.2087910402510069715099894072097e-05 1:3 2:37.333302 3:3.52036 4:0.63580197 5:0.268047 6:1.38683 7:0.84824502 8:0.55240703 9:0.94303101 10:0.94303101 11:55.094398 12:68.541901 13:0.66666698 14:0.89667302 15:0.88702798 16:15.4276 17:5 18:49.599998 19:4 20:-58.400002 #
-6.2087910402510069715099894072097e-05 1:-1 2:-54 3:2.8015101 4:0.702784 5:0.242035 6:0.38338801 7:0.46062601 8:1.05208 9:1.49244 10:1.49244 11:62.688202 12:48.007 13:1 14:0.831967 15:0.83742702 16:17.352301 17:-1 18:-54 19:-1 20:-54 #
6.2087910402510069715099894072097e-05 1:0 2:0 3:1.7573 4:0.94969499 5:3.0518899 6:0.662063 7:0.59563899 8:0.39133 9:0.57980603 10:0.57980603 11:46.357498 12:76.671303 13:0.66666698 14:0.93681699 15:0.953843 16:13.1299 17:3 18:86.666702 19:5 20:94.800003 #
-6.2087910402510069715099894072097e-05 1:2 2:17 3:2.0478201 4:1.2921 5:0.84429598 6:0.47908401 7:0.391886 8:0.116043 9:0.204449 10:0.34209001 11:35.661598 12:89.879097 13:0.33333299 14:0.91060799 15:0.90267599 16:10.2146 17:2 18:17 19:2 20:17 #
6.2087910402510069715099894072097e-05 1:-6 2:-30.3333 3:4.4492698 4:1.09489 5:1.28469 6:0.46834499 7:0.76182503 8:0.55808401 9:0.44835201 10:0.67380399 11:49.026501 12:60.398998 13:0.66666698 14:0.98162901 15:0.99433798 16:13.8406 17:-6 18:-30.3333 19:-6 20:-30.3333 #
6.2087910402510069715099894072097e-05 1:1 2:6 3:1.93547 4:1.12387 5:1.3752 6:0.2538 7:0.367237 8:0.70267802 9:0.230288 10:0.230288 11:29.416401 12:72.139702 13:0.66666698 14:0.88006902 15:0.93422401 16:8.4695997 17:0 18:-74 19:0 20:-74 #
6.2087910402510069715099894072097e-05 1:0 2:0 3:2.00667 4:0.320351 5:0.59007901 6:0.99848503 7:0.33711401 8:0.246729 9:0.32286501 10:0.29756001 11:35.619099 12:82.9757 13:0.444444 14:0.95764798 15:0.95315802 16:10.2028 17:-1 18:-74 19:1 20:33 #
6.2087910402510069715099894072097e-05 1:-1 2:-5 3:1.19362 4:0.372879 5:1.1981 6:0.81682998 7:0.24438301 8:0.466986 9:0.317173 10:0.44382799 11:35.2243 12:76.827003 13:0.66666698 14:0.80880803 15:0.82244802 16:10.0933 17:-1 18:-5 19:1 20:159.66701 #
6.2087910402510069715099894072097e-05 1:0 2:0 3:1.87568 4:1.9329799 5:0.92041898 6:0.56006598 7:0.45635 8:1.96626 9:0.74571103 10:0.74571103 11:49.022499 12:41.038601 13:0.66666698 14:0.93563199 15:0.93942499 16:13.8395 17:0 18:0 19:-1 20:-168.5 #
-9.7056159406319768875696929466557e-06 1:0 2:50 3:4.8634701 4:0.193629 5:1.1030101 6:0.34198299 7:0.38279 8:0.101993 9:0.29223001 10:0.29223001 11:34.3368 12:82.094101 13:0.66666698 14:0.971587 15:0.93034297 16:9.8468103 17:0 18:50 19:-1 20:-6 #
6.2087910402510069715099894072097e-05 1:-1 2:-22 3:6.2396598 4:4.1266398 5:0.95550102 6:0.59523702 7:0.93782699 8:0.39116299 9:0.63890898 10:0.69720501 11:50.019001 12:77.206902 13:1 14:0.97846699 15:0.96981299 16:14.1029 17:-1 18:-22 19:3 20:155.5 #
-6.2087910402510069715099894072097e-05 1:1 2:-4.75 3:7.8159399 4:0.59217602 5:0.087057799 6:0.30481601 7:0.31587499 8:0.16707399 9:0.27065399 10:0.141185 11:27.6409 12:86.105301 13:0.66666698 14:0.93042898 15:0.99647301 16:7.9686899 17:1 18:-4.75 19:1 20:25.25 #
6.2087910402510069715099894072097e-05 1:1 2:57 3:3.1229999 4:0.34357801 5:0.78697199 6:0.36416399 7:0.44748399 8:0.53175497 9:0.42901799 10:0.567339 11:45.1492 12:54.298599 13:0.66666698 14:0.89738399 15:0.95397699 16:12.8059 17:4 18:65.5 19:4 20:65.5 #
-6.2048422683718863096004325630162e-05 1:0 2:0 3:2.57672 4:0.176278 5:0.266509 6:0.307693 7:0.39535901 8:0.442619 9:0.37765199 10:0.386536 11:34.213902 12:61.260101 13:0.66666698 14:0.91045302 15:0.847031 16:9.8126001 17:1 18:98 19:0 20:-28 #
6.2087910402510069715099894072097e-05 1:2 2:-43.666698 3:1.35531 4:0.37700701 5:0.83009499 6:0.50973898 7:0.666632 8:0.35556501 9:0.73000699 10:0.340518 11:34.480499 12:76.637001 13:0.222222 14:0.87287599 15:0.90292501 16:9.8867598 17:1 18:-46.916698 19:1 20:-46.916698 #
-6.2087910402510069715099894072097e-05 1:1 2:22 3:1.44924 4:1.0993201 5:0.34735 6:0.36387599 7:0.42960599 8:0.968288 9:0.326188 10:1.16233 11:63.007 12:89.723198 13:0.66666698 14:0.771685 15:0.68454701 16:17.431499 17:1 18:22 19:1 20:22 #
-6.2087910402510069715099894072097e-05 1:0 2:0 3:1.58235 4:0.81255299 5:0.52692503 6:0.411724 7:0.38767201 8:0.29661801 9:0.42064601 10:0.220442 11:32.631599 12:51.150902 13:1 14:0.93518299 15:0.98411101 16:9.3714399 17:0 18:0 19:5 20:134 #
-3.8047174233291196105300607799293e-05 1:2 2:14.625 3:1.84868 4:0.30978099 5:1.3594 6:2.65465 7:2.5811801 8:1.04107 9:3.29424 10:1.99652 11:74.249001 12:14.0616 13:0.33333299 14:0.746086 15:0.71557701 16:20.133499 17:-1 18:-69.291702 19:-2 20:-76 #
6.2087910402510069715099894072097e-05 1:3 2:32.666698 3:2.6107199 4:0.226974 5:0.29936999 6:0.477321 7:0.406854 8:0.27757701 9:0.70286399 10:0.50959802 11:43.512699 12:84.862099 13:0.33333299 14:0.91434699 15:0.92533201 16:12.3647 17:3 18:32.666698 19:8 20:135.25 #
6.2087910402510069715099894072097e-05 1:2 2:12 3:2.8359001 4:0.127582 5:0.441989 6:0.92098302 7:0.38568699 8:1.2292399 9:0.55999601 10:0.55999601 11:46.2402 12:78.182503 13:0.66666698 14:0.96873301 15:0.96938998 16:13.0985 17:3 18:29 19:1 20:-151.66701 #
-2.813582762256692897107068773721e-07 1:0 2:0 3:2.1036 4:2.2809401 5:2.36061 6:0.251901 7:0.463902 8:0.15590701 9:0.30288601 10:0.30288601 11:33.8881 12:56.4408 13:0.66666698 14:0.89575303 15:0.93259299 16:9.72192 17:0 18:0 19:-1 20:-148 #
6.2087910402510069715099894072097e-05 1:-2 2:-10 3:3.4009099 4:0.75585002 5:0.35845101 6:0.59135002 7:0.33850801 8:0.21843299 9:0.24405999 10:0.473057 11:43.5532 12:78.619698 13:0.33333299 14:0.84649998 15:0.97287399 16:12.3756 17:-1 18:90 19:-1 20:45.166698 #
-6.2087910402510069715099894072097e-05 1:1 2:8 3:1.94573 4:0.846843 5:2.2112 6:0.58310097 7:0.446455 8:0.131171 9:0.197853 10:1.41438 11:60.887001 12:86.744698 13:0.222222 14:0.86593699 15:0.89714199 16:16.902399 17:1 18:8 19:1 20:8 #
6.2087910402510069715099894072097e-05 1:1 2:8 3:2.6519201 4:0.205617 5:0.73305899 6:0.291246 7:0.54521799 8:0.14816201 9:0.26965901 10:0.365933 11:39.551601 12:68.284302 13:0.66666698 14:0.958453 15:0.97400302 16:11.2865 17:1 18:8 19:2 20:152 #
-6.2087910402510069715099894072097e-05 1:1 2:3.8333299 3:2.9305799 4:0.857346 5:0.38420099 6:0.28570899 7:0.58216101 8:0.147338 9:0.41909501 10:0.51999098 11:45.175201 12:72.658897 13:0.33333299 14:0.89417899 15:0.98595703 16:12.8129 17:1 18:3.8333299 19:2 20:39.75 #
-2.6882587002689997256622139731874e-05 1:1 2:17 3:37.387798 4:0.11892 5:0.069276601 6:0.27824 7:0.321684 8:0.111551 9:0.249248 10:0.103892 11:24.469299 12:88.028702 13:0.66666698 14:0.971838 15:0.99965101 16:7.0692 17:1 18:17 19:1 20:17 #
6.2087910402510069715099894072097e-05 1:1 2:-11.5 3:2.3529699 4:0.87791097 5:0.33551201 6:0.279246 7:0.43651301 8:0.26931301 9:0.252828 10:0.55655998 11:45.097 12:78.091904 13:0.66666698 14:0.94336498 15:0.94425702 16:12.7918 17:1 18:-11.5 19:10 20:160.864 #
6.2087910402510069715099894072097e-05 1:-2 2:0.33333299 3:2.8002999 4:0.28573 5:0.182228 6:0.51049203 7:0.32492 8:0.271568 9:0.481846 10:0.481846 11:43.887199 12:66.7985 13:0.66666698 14:0.97852498 15:0.97747701 16:12.4659 17:-2 18:0.33333299 19:-7 20:-152.75 #
-6.2087910402510069715099894072097e-05 1:1 2:5 3:2.5540199 4:0.71778899 5:1.29942 6:0.52591902 7:0.37530899 8:0.763089 9:0.38183701 10:0.38183701 11:36.571602 12:59.051498 13:0.66666698 14:0.89269501 15:0.907134 16:10.4665 17:1 18:5 19:1 20:38.5 #
-6.2087910402510069715099894072097e-05 1:2 2:9 3:1.2360899 4:1.3871 5:2.10693 6:0.80695498 7:0.59569699 8:0.39914501 9:0.33753499 10:1.80059 11:62.064301 12:84.692101 13:0.66666698 14:0.868581 15:0.89331001 16:17.196899 17:2 18:9 19:2 20:9 #
6.2087910402510069715099894072097e-05 1:3 2:14.6667 3:3.36602 4:1.25954 5:0.61040699 6:0.52190202 7:0.297622 8:0.203584 9:0.313308 10:0.313308 11:36.459 12:84.4076 13:0.66666698 14:0.95277202 15:0.95626801 16:10.4353 17:3 18:14.6667 19:6 20:148.33299 #
6.2087910402510069715099894072097e-05 1:0 2:0 3:14.4554 4:0.96524501 5:0.42457801 6:0.229624 7:0.43755099 8:0.38545799 9:0.39370701 10:0.456184 11:43.625801 12:89.9505 13:0.444444 14:0.987665 15:0.99680102 16:12.3952 17:0 18:0 19:-1 20:-149 #
-6.2052019045969331999951235090407e-05 1:0 2:0 3:3.80217 4:1.19736 5:0.30432999 6:0.381412 7:0.160273 8:0.59837198 9:0.192954 10:0.192954 11:27.493799 12:82.231796 13:0.66666698 14:0.97215599 15:0.94055802 16:7.9271002 17:0 18:0 19:-1 20:33 #
-6.2087910402510069715099894072097e-05 1:1 2:10 3:1.33656 4:0.228177 5:2.3239 6:3.0562999 7:0.68274897 8:0.666794 9:1.12155 10:1.12155 11:57.595001 12:72.859703 13:0.66666698 14:0.79032803 15:0.86430699 16:16.0693 17:1 18:10 19:1 20:10 #
6.2087910402510069715099894072097e-05 1:1 2:14 3:3.74491 4:0.91608799 5:0.790434 6:0.39773199 7:1.48913 8:0.275731 9:1.03285 10:1.03285 11:55.699501 12:77.675499 13:0.444444 14:0.97694701 15:0.97473598 16:15.5836 17:1 18:14 19:4 20:155 #
-6.2087910402510069715099894072097e-05 1:2 2:11 3:1.727 4:1.76885 5:1.23403 6:0.42297801 7:1.15523 8:0.45159599 9:0.88068599 10:0.88068599 11:53.3568 12:84.743202 13:0.66666698 14:0.94747001 15:0.95727402 16:14.9774 17:2 18:11 19:2 20:11 #
6.2087910402510069715099894072097e-05 1:0 2:0 3:2.1756499 4:1.3178 5:0.390587 6:0.44577399 7:0.90754598 8:0.48278901 9:0.77612501 10:0.77612501 11:51.3545 12:74.065598 13:0.66666698 14:0.98450202 15:0.98082203 16:14.4543 17:2 18:68.75 19:1 20:-80.5 #
-6.2087910402510069715099894072097e-05 1:0 2:-13.5 3:2.18729 4:0.31881699 5:1.6943001 6:0.61897302 7:0.59253699 8:0.43212399 9:0.60982698 10:0.77670801 11:51.233898 12:45.247799 13:0.66666698 14:0.97321802 15:0.95591801 16:14.4226 17:1 18:21.125 19:1 20:21.125 #
6.2087910402510069715099894072097e-05 1:2 2:10.6667 3:4.5768299 4:0.36431301 5:0.52071297 6:0.933792 7:1.01516 8:0.66575497 9:0.883717 10:0.883717 11:53.1525 12:88.5131 13:0.66666698 14:0.98220903 15:0.98651499 16:14.9242 17:2 18:10.6667 19:6 20:154.85699 #
-6.2087910402510069715099894072097e-05 1:4 2:24 3:2.4363999 4:1.4242001 5:0.74067801 6:0.52181101 7:0.608154 8:0.79787898 9:0.65734601 10:0.65734601 11:48.8815 12:88.063599 13:0.66666698 14:0.98159099 15:0.98175198 16:13.8021 17:4 18:24 19:4 20:24 #
-6.1999433588374243701488164326463e-05 1:0 2:18 3:6.2765198 4:1.5724699 5:0.170711 6:0.55247498 7:1.45683 8:0.26155499 9:1.19159 10:2.1003101 11:66.791901 12:82.689102 13:0.444444 14:0.933245 15:0.95598698 16:18.3612 17:0 18:18 19:0 20:18 #
6.2087910402510069715099894072097e-05 1:5 2:27.6 3:1.91442 4:2.0655301 5:0.337791 6:0.51739597 7:0.749264 8:0.475218 9:1.4407099 10:1.24296 11:58.152 12:28.427 13:0.444444 14:0.69365299 15:0.90952897 16:16.211201 17:5 18:27.6 19:7 20:90 #
-6.2087910402510069715099894072097e-05 1:0 2:0 3:2.0572901 4:1.3152699 5:0.61933798 6:0.54181999 7:0.19255701 8:0.42643899 9:0.423605 10:0.423605 11:38.505501 12:53.624901 13:0.66666698 14:0.91255599 15:0.91441602 16:10.9995 17:0 18:0 19:5 20:208 #
-6.2087910402510069715099894072097e-05 1:1 2:8 3:2.38429 4:0.159509 5:0.306088 6:0.23442701 7:0.33094701 8:0.233061 9:0.12613501 10:0.198007 11:30.8188 12:88.959396 13:0.66666698 14:0.93213099 15:0.98102897 16:8.8638296 17:1 18:8 19:1 20:8 #
6.2087910402510069715099894072097e-05 1:2 2:20.375 3:3.09637 4:3.37658 5:0.89045602 6:0.55465698 7:0.52265799 8:0.38098499 9:0.47008401 10:0.61143202 11:47.8764 12:48.042599 13:0.66666698 14:0.93154299 15:0.98891503 16:13.5352 17:2 18:20.375 19:3 20:108.5 #
-7.7795375208459228663117335234034e-07 1:0 2:0 3:3.07216 4:0.178444 5:0.49148801 6:0.39080599 7:0.67943102 8:0.27092299 9:0.85042602 10:0.246721 11:32.772999 12:46.016499 13:0.66666698 14:0.70117003 15:0.96232802 16:9.4109402 17:0 18:0 19:3 20:164 #
6.2087910402510069715099894072097e-05 1:4 2:29.75 3:2.7520599 4:0.48335099 5:0.62564301 6:0.68620902 7:0.71764499 8:0.35005701 9:0.94285101 10:0.68237197 11:49.2827 12:49.8885 13:0.66666698 14:0.96372002 15:0.98201102 16:13.9084 17:4 18:29.75 19:4 20:29.75 #
-3.8909577265926354329005770749106e-05 1:2 2:-32 3:1.76287 4:2.57372 5:3.90049 6:1.77179 7:1.85499 8:1.90765 9:2.2356999 10:0.70169997 11:46.9319 12:22.0368 13:1 14:0.721901 15:0.83254701 16:13.2835 17:2 18:-32 19:-4 20:-197.75 #
-6.2028663488496616363471192201473e-05 1:2 2:8.0625 3:1.46657 4:1.06704 5:0.220314 6:0.239952 7:0.238307 8:0.55581498 9:0.26139501 10:0.17630599 11:23.509399 12:88.971001 13:0.444444 14:0.93962002 15:0.92496699 16:6.7958698 17:2 18:8.0625 19:2 20:8.0625 #
6.2087910402510069715099894072097e-05 1:2 2:20 3:1.7039 4:0.72612101 5:0.72540599 6:0.74545401 7:1.25942 8:0.44743001 9:0.85509199 10:0.64122498 11:48.479401 12:85.553902 13:0.66666698 14:0.99139702 15:0.99168903 16:13.6955 17:2 18:20 19:5 20:132 #
-4.3898642835583923105247095008963e-06 1:0 2:0 3:3.01019 4:0.526061 5:0.49826199 6:0.294375 7:0.373456 8:0.81525701 9:0.85040498 10:1.13138 11:86.568199 12:80.394699 13:0.66666698 14:0.79782599 15:0.69822699 16:22.871099 17:0 18:0 19:-1 20:-101 #
6.2087910402510069715099894072097e-05 1:-1 2:-10 3:7.2176299 4:5.6083398 5:0.24429201 6:0.49155799 7:1.12702 8:0.98863399 9:0.91937101 10:0.58171999 11:46.040199 12:37.1572 13:0.66666698 14:0.83452499 15:0.96955299 16:13.045 17:-1 18:-10 19:-4 20:-130.5 #
-6.2087910402510069715099894072097e-05 1:2 2:13.5 3:1.64555 4:0.53803098 5:0.54049897 6:0.65967202 7:1.82942 8:0.302937 9:1.5685101 10:1.62835 11:60.964001 12:32.556198 13:0.66666698 14:0.96643299 15:0.92131901 16:16.9217 17:2 18:13.5 19:2 20:13.5 #
-6.2087910402510069715099894072097e-05 1:0 2:10 3:1.4385099 4:0.377731 5:0.41729799 6:0.466263 7:0.20709901 8:0.64216 9:0.75934398 10:0.75934398 11:51.624001 12:70.5924 13:0.66666698 14:0.91476202 15:0.84781301 16:14.5249 17:0 18:10 19:0 20:10 #
6.2087910402510069715099894072097e-05 1:2 2:8 3:4.6613598 4:0.55658799 5:0.81114399 6:0.55278897 7:0.44851199 8:0.41077301 9:0.46959999 10:0.449931 11:41.861401 12:74.341003 13:0.66666698 14:0.86215198 15:0.922113 16:11.9169 17:2 18:8 19:9 20:139.33299 #
-6.2087910402510069715099894072097e-05 1:2 2:4 3:4.36796 4:0.973234 5:0.207821 6:0.279349 7:0.66758198 8:0.46714401 9:0.49803501 10:0.19724201 11:30.9846 12:61.437698 13:1 14:0.89997602 15:0.98464602 16:8.9103603 17:2 18:4 19:3 20:29.5 #
6.2087910402510069715099894072097e-05 1:3 2:22.8333 3:6.8541899 4:0.16607299 5:0.45751399 6:0.85750002 7:1.20463 8:0.176117 9:1.42247 10:0.417449 11:41.301701 12:81.951599 13:0.66666698 14:0.96505898 15:0.96109098 16:11.7646 17:3 18:22.8333 19:2 20:-111.75 #
-6.2087910402510069715099894072097e-05 1:1 2:10 3:1.29605 4:0.76847303 5:0.57088202 6:0.155279 7:0.635791 8:0.34335801 9:0.66655201 10:0.66655201 11:49.5033 12:85.026703 13:0.66666698 14:0.94198698 15:0.90985203 16:13.9667 17:1 18:10 19:1 20:10 #
6.2087910402510069715099894072097e-05 1:1 2:2.3333299 3:2.95978 4:0.357559 5:0.89908397 6:0.83181798 7:0.53378701 8:0.35593101 9:0.26176199 10:0.45644701 11:43.273102 12:74.160004 13:0.66666698 14:0.946926 15:0.98344499 16:12.2999 17:1 18:2.3333299 19:5 20:140.714 #
-9.1268188763943733344229103376932e-06 1:4 2:6.5999999 3:3.6255901 4:0.52602601 5:0.22674701 6:1.29412 7:0.61432099 8:0.63963997 9:0.377451 10:0.377451 11:40.239399 12:50.554298 13:0.66666698 14:0.98368198 15:0.98550701 16:11.4747 17:4 18:6.5999999 19:4 20:6.5999999 #
-6.2087910402510069715099894072097e-05 1:2 2:12.375 3:4.1233602 4:0.610493 5:1.47139 6:0.388399 7:1.04466 8:0.69088 9:0.861965 10:0.861965 11:53.389801 12:83.190804 13:0.444444 14:0.90403301 15:0.91556501 16:14.986 17:2 18:12.375 19:2 20:12.375 #
6.2087910402510069715099894072097e-05 1:4 2:18.25 3:6.4834599 4:2.04269 5:0.33327499 6:0.766994 7:0.45192099 8:0.40391999 9:0.52654999 10:0.52654999 11:45.2686 12:76.726898 13:1 14:0.97156 15:0.96749097 16:12.838 17:4 18:18.25 19:3 20:-120.75 #
-6.2087910402510069715099894072097e-05 1:3 2:8.5 3:6.19245 4:0.273 5:0.50253701 6:0.17314801 7:0.271501 8:0.257238 9:0.217327 10:0.186148 11:30.946699 12:70.727798 13:0.66666698 14:0.982274 15:0.99443299 16:8.8997202 17:3 18:8.5 19:3 20:8.5 #
6.2087910402510069715099894072097e-05 1:3 2:26.8333 3:3.3057201 4:0.45941699 5:0.91971999 6:0.70538402 7:0.26003999 8:0.238774 9:0.46366301 10:0.37880501 11:39.791 12:52.1735 13:0.166667 14:0.83804297 15:0.95356601 16:11.3521 17:3 18:26.8333 19:6 20:73.666702 #
6.2087910402510069715099894072097e-05 1:3 2:24 3:2.9867899 4:0.79084498 5:1.62011 6:0.244341 7:0.34054601 8:0.201028 9:0.28885099 10:0.25022 11:32.860298 12:78.1231 13:0.66666698 14:0.89804202 15:0.95870501 16:9.4353199 17:3 18:24 19:3 20:-59 #
-6.2087910402510069715099894072097e-05 1:1 2:10 3:1.68435 4:1.09164 5:0.68135202 6:0.36992401 7:0.413977 8:0.4025 9:0.49315599 10:0.49315599 11:42.211601 12:86.068497 13:0.444444 14:0.86953503 15:0.89214897 16:12.0121 17:1 18:10 19:1 20:10 #
6.2087910402510069715099894072097e-05 1:1 2:6.5 3:2.2820799 4:0.19134299 5:0.52525401 6:1.1214499 7:0.66041398 8:0.888385 9:0.668185 10:0.668185 11:46.1469 12:46.430099 13:0.66666698 14:0.95136797 15:0.91660798 16:13.0735 17:2 18:49.3125 19:2 20:49.3125 #
-2.2935796062066820914793208174842e-05 1:2 2:26 3:5.5725002 4:1.5296201 5:5.1990299 6:2.9017501 7:1.39498 8:0.97455698 9:4.7937498 10:3.2820699 11:74.405701 12:40.34 13:1 14:0.95959097 15:0.93276203 16:20.1698 17:2 18:26 19:2 20:26 #
6.2087910402510069715099894072097e-05 1:1 2:18 3:8.7618504 4:3.40362 5:0.86598402 6:0.69750398 7:1.63658 8:0.41082501 9:1.2277 10:0.70307702 11:49.881199 12:85.589401 13:0.66666698 14:0.97671902 15:0.98770201 16:14.0665 17:1 18:18 19:0 20:-110 #
-6.2087910402510069715099894072097e-05 1:1 2:8 3:2.40253 4:0.470662 5:0.77700299 6:0.19018701 7:0.147173 8:0.21314301 9:0.25968701 10:0.25968701 11:30.2652 12:88.7696 13:0.66666698 14:0.87164801 15:0.91360199 16:8.7083502 17:1 18:8 19:1 20:8 #
6.2087910402510069715099894072097e-05 1:2 2:6 3:7.86024 4:0.87560201 5:0.530496 6:0.72533798 7:0.64759803 8:0.208808 9:0.77417201 10:0.69755 11:49.799 12:78.8088 13:0.66666698 14:0.991045 15:0.99286503 16:14.0449 17:2 18:6 19:6 20:132.571 #
-6.2087910402510069715099894072097e-05 1:2 2:13 3:7.2871799 4:1.13085 5:0.61454999 6:0.53494698 7:1.58672 8:0.886608 9:1.16827 10:1.0126899 11:55.202 12:75.1716 13:0.66666698 14:0.97723901 15:0.97255099 16:15.4554 17:2 18:13 19:2 20:13 #
6.2087910402510069715099894072097e-05 1:4 2:22.625 3:2.09231 4:0.91602099 5:0.36451399 6:0.379298 7:0.165345 8:0.21554101 9:0.264552 10:0.126968 11:21.2334 12:70.459702 13:0.33333299 14:0.936382 15:0.95053101 16:6.1459098 17:4 18:22.625 19:6 20:54.166698 #
6.2087910402510069715099894072097e-05 1:1 2:33 3:4.0297098 4:0.145696 5:0.286751 6:1.04246 7:0.468568 8:0.62018698 9:0.42841199 10:0.42841199 11:42.359798 12:89.525497 13:0.444444 14:0.98569298 15:0.97588199 16:12.0523 17:1 18:33 19:1 20:33 #
-6.2087910402510069715099894072097e-05 1:1 2:8.25 3:2.7743399 4:2.0262001 5:0.39438799 6:0.226778 7:0.60560399 8:0.42472601 9:0.50003099 10:0.444709 11:40.061501 12:74.637703 13:0.444444 14:0.89694899 15:0.906977 16:11.4261 17:1 18:8.25 19:1 20:8.25 #
6.2087910402510069715099894072097e-05 1:-1 2:-8 3:1.57693 4:0.550421 5:1.44666 6:0.76978499 7:0.57279003 8:0.243634 9:0.54429197 10:0.681467 11:48.692101 12:69.358597 13:0.66666698 14:0.929479 15:0.962125 16:13.7519 17:-1 18:-8 19:0 20:52 #
-6.2087910402510069715099894072097e-05 1:0 2:0 3:2.72685 4:0.360028 5:0.30795801 6:0.644916 7:0.18771 8:0.15048601 9:0.18111099 10:0.18111099 11:27.0991 12:64.821503 13:0.444444 14:0.94716603 15:0.95567697 16:7.8154402 17:0 18:0 19:0 20:22 #
6.2087910402510069715099894072097e-05 1:3 2:30.6667 3:1.98853 4:1.53239 5:0.73447597 6:0.53076798 7:0.60803998 8:0.28794801 9:0.656681 10:0.43731701 11:40.16 12:84.853401 13:0.444444 14:0.86308402 15:0.91439003 16:11.453 17:3 18:30.6667 19:3 20:30.6667 #
6.2087910402510069715099894072097e-05 1:5 2:29.3333 3:2.73557 4:0.51292998 5:0.37288699 6:0.67413002 7:0.41068 8:0.28908199 9:0.878654 10:0.878654 11:53.196899 12:62.930599 13:0.66666698 14:0.89637101 15:0.875606 16:14.9358 17:6 18:33.714298 19:6 20:33.714298 #
-6.2087910402510069715099894072097e-05 1:1 2:28.5 3:3.5287099 4:0.65558797 5:0.91817802 6:0.168121 7:0.98703998 8:0.55450499 9:0.86904901 10:0.86904901 11:54.5364 12:77.602501 13:0.444444 14:0.97667497 15:0.92833602 16:15.2834 17:1 18:28.5 19:1 20:28.5 #
-6.2087910402510069715099894072097e-05 1:2 2:33 3:8.2909498 4:0.38122699 5:0.50594503 6:0.51742297 7:0.51371902 8:0.29145101 9:0.49191201 10:0.40884101 11:41.799301 12:72.043297 13:0.444444 14:0.98875201 15:0.989281 16:11.9001 17:2 18:33 19:2 20:33 #
6.2087910402510069715099894072097e-05 1:1 2:2.5 3:1.31108 4:7.4162002 5:0.27757499 6:0.49775901 7:0.29171899 8:0.233483 9:0.23374 10:0.23374 11:32.091801 12:80.829697 13:0.66666698 14:0.95934302 15:0.96307802 16:9.2205296 17:1 18:2.5 19:2 20:42.333302 #
-6.2087910402510069715099894072097e-05 1:1 2:18 3:2.70205 4:0.55996698 5:0.15390299 6:0.65238601 7:0.76684898 8:0.35023201 9:1.05687 10:1.05687 11:57.894402 12:84.718597 13:0.66666698 14:0.82699299 15:0.85778898 16:16.145599 17:1 18:18 19:1 20:18 #
6.2087910402510069715099894072097e-05 1:5 2:21.6 3:3.17659 4:0.55428702 5:1.00258 6:0.344776 7:0.595819 8:0.29569599 9:0.422279 10:0.422279 11:40.488998 12:81.832397 13:0.444444 14:0.916848 15:0.93249297 16:11.5429 17:5 18:21.6 19:6 20:41.666698 #
-1.2801590747819024918800062673441e-05 1:4 2:29.25 3:3.8312199 4:0.084890202 5:0.068394899 6:0.053153101 7:0.25531799 8:0.46844599 9:0.069208302 10:0.067239001 11:19.444 12:89.531601 13:0.66666698 14:0.97717398 15:0.995327 16:5.6331902 17:4 18:29.25 19:4 20:29.25 #
6.2087910402510069715099894072097e-05 1:1 2:17 3:4.6491299 4:0.97366297 5:0.59920698 6:0.42231101 7:0.89521003 8:0.280864 9:0.262216 10:0.262216 11:33.146301 12:81.038101 13:0.222222 14:0.97279203 15:0.94580603 16:9.5151501 17:1 18:17 19:2 20:49.333302 #
-5.8279640084876949612455176996662e-05 1:0 2:0 3:2.2065301 4:0.61802799 5:0.52217603 6:0.157289 7:0.40508199 8:1.07243 9:0.47226301 10:0.156083 11:21.996 12:52.571701 13:0.66666698 14:0.92082399 15:0.92774701 16:6.3639698 17:0 18:0 19:-1 20:30 #
6.2087910402510069715099894072097e-05 1:1 2:-12.5 3:2.66664 4:0.122786 5:0.182805 6:0.68857598 7:0.47126499 8:0.225172 9:0.434935 10:0.28890201 11:35.690701 12:78.695396 13:0.444444 14:0.92733997 15:0.97086102 16:10.2227 17:2 18:13.3333 19:5 20:51.5 #
-6.2087910402510069715099894072097e-05 1:2 2:28.1667 3:3.84238 4:0.97604603 5:0.441064 6:1.0446301 7:0.41447601 8:0.299382 9:0.406221 10:0.58590901 11:43.808998 12:82.656502 13:0.444444 14:0.85919797 15:0.85133702 16:12.4447 17:2 18:28.1667 19:2 20:28.1667 #
6.2087910402510069715099894072097e-05 1:2 2:5.6666698 3:1.93872 4:0.39121401 5:0.23598 6:0.70398402 7:0.46218801 8:0.284926 9:0.29390299 10:0.29390299 11:32.1189 12:64.612503 13:0.222222 14:0.95566398 15:0.91555202 16:9.2280998 17:2 18:5.6666698 19:5 20:54.666698 #
-6.2087910402510069715099894072097e-05 1:-1 2:-6 3:3.1184199 4:0.90622801 5:0.25426 6:0.923751 7:0.421601 8:0.27164599 9:1.0447 10:0.17049199 11:29.295 12:89.114502 13:0.66666698 14:0.93652898 15:0.98869097 16:8.43542 17:0 18:21.5 19:0 20:21.5 #
6.2087910402510069715099894072097e-05 1:2 2:7 3:2.0667 4:0.094060101 5:0.112639 6:0.51614702 7:1.1528701 8:0.69382799 9:0.89253998 10:1.9058599 11:77.629799 12:84.121002 13:1 14:0.71868402 15:0.75133699 16:20.9093 17:7 18:47.75 19:9 20:58.5 #
-6.2087910402510069715099894072097e-05 1:1 2:7 3:2.23195 4:0.071092203 5:1.0786999 6:0.220147 7:0.31050199 8:0.78941602 9:0.442341 10:1.57812 11:72.541603 12:77.435402 13:0.66666698 14:0.778377 15:0.75528002 16:19.735001 17:1 18:7 19:2 20:90 #
-6.2087910402510069715099894072097e-05 1:3 2:31.75 3:3.13097 4:0.86910999 5:1.48918 6:0.80035299 7:0.262106 8:0.63581997 9:0.25489101 10:0.25489101 11:32.428398 12:81.292099 13:0.66666698 14:0.95129597 15:0.945041 16:9.3146801 17:3 18:31.75 19:3 20:31.75 #
-6.2087910402510069715099894072097e-05 1:3 2:18.6667 3:1.57003 4:0.33661401 5:0.27745599 6:0.207993 7:0.39294899 8:0.62937099 9:0.55515301 10:1.6141599 11:65.055603 12:59.349701 13:0.66666698 14:0.74435598 15:0.816158 16:17.937201 17:3 18:18.6667 19:3 20:18.6667 #
6.2087910402510069715099894072097e-05 1:1 2:5 3:2.0107801 4:0.789828 5:0.92789799 6:0.53495502 7:0.57656997 8:1.04689 9:0.718054 10:0.812868 11:50.773102 12:70.050598 13:0.66666698 14:0.454539 15:0.84765297 16:14.3016 17:1 18:5 19:2 20:54.666698 #
6.2087910402510069715099894072097e-05 1:1 2:7 3:2.7713301 4:1.5178699 5:1.70956 6:0.65381598 7:0.76671702 8:0.302086 9:0.42790401 10:0.42790401 11:40.2644 12:71.512199 13:0.222222 14:0.89673197 15:0.92942399 16:11.4816 17:1 18:7 19:3 20:59 #
-6.2087910402510069715099894072097e-05 1:3 2:26 3:1.66505 4:0.41916201 5:0.112127 6:0.308622 7:0.328821 8:0.24434701 9:0.104092 10:0.191686 11:30.549299 12:87.184898 13:0.66666698 14:0.98513901 15:0.98394698 16:8.7881804 17:3 18:26 19:3 20:26 #
-5.8818933049782379934855569558749e-05 1:1 2:-5 3:3.89972 4:1.6131999 5:0.048436299 6:0.154181 7:0.25691599 8:0.212312 9:0.17346799 10:0.109215 11:23.611799 12:79.737999 13:1 14:0.97496802 15:0.98745501 16:6.8250399 17:2 18:21.3333 19:2 20:21.3333 #
6.2087910402510069715099894072097e-05 1:6 2:23.3542 3:2.2225699 4:1.46671 5:1.81749 6:0.43944299 7:0.36221299 8:0.25065699 9:0.412121 10:0.237477 11:28.7939 12:84.376297 13:0.222222 14:0.85111499 15:0.91827899 16:8.2941999 17:6 18:23.3542 19:11 20:65.454498 #
-4.0128976499715539793741725382858e-05 1:5 2:31.6 3:1.76657 4:0.31079 5:0.185303 6:0.32462901 7:0.37402299 8:0.69915098 9:0.38182199 10:0.38182199 11:23.427 12:75.936501 13:1 14:0.74224001 15:0.71393698 16:6.7723799 17:5 18:31.6 19:5 20:31.6 #
6.2087910402510069715099894072097e-05 1:3 2:18.3333 3:3.7357299 4:1.408 5:0.41160199 6:0.52337402 7:0.96087497 8:0.255137 9:0.96762598 10:0.66518801 11:48.6866 12:69.012001 13:0.66666698 14:0.94451499 15:0.97739202 16:13.7505 17:3 18:18.3333 19:5 20:74.400002 #
6.2087910402510069715099894072097e-05 1:2 2:11.4167 3:2.34254 4:0.40958801 5:0.30053201 6:0.57238299 7:0.58665597 8:0.317231 9:0.38188499 10:0.32107699 11:34.165001 12:80.025398 13:0.33333299 14:0.89855498 15:0.90693098 16:9.7989998 17:2 18:11.4167 19:7 20:73.843803 #
-6.2087910402510069715099894072097e-05 1:5 2:26.799999 3:2.7320001 4:0.431301 5:0.174346 6:0.38029 7:0.245952 8:0.110015 9:0.163017 10:0.163017 11:27.009199 12:82.967499 13:0.66666698 14:0.98768598 15:0.96581697 16:7.79 17:5 18:26.799999 19:5 20:26.799999 #
6.2087910402510069715099894072097e-05 1:2 2:2 3:3.9656701 4:0.29630899 5:0.77710098 6:0.638421 7:1.07371 8:0.45654801 9:0.522609 10:0.61123103 11:47.8228 12:54.152401 13:0.66666698 14:0.96959198 15:0.99078298 16:13.521 17:2 18:2 19:5 20:71.833298 #
-6.185041030395323365630166900786e-05 1:0 2:0 3:4.57516 4:0.26536301 5:0.132028 6:0.072188497 7:0.32199001 8:0.114608 9:0.12862 10:0.107459 11:24.2164 12:85.423203 13:0.66666698 14:0.99791503 15:0.99376798 16:6.9972301 17:0 18:0 19:3 20:289.08301 #
-6.2087910402510069715099894072097e-05 1:0 2:0 3:1.89231 4:1.02438 5:0.42742401 6:0.10867 7:0.27204201 8:0.32301399 9:0.207197 10:0.207197 11:29.8151 12:62.894798 13:1 14:0.967565 15:0.96355402 16:8.5818195 17:-1 18:-97 19:4 20:120.1 #
6.2087910402510069715099894072097e-05 1:1 2:2 3:2.80586 4:0.288876 5:0.29251701 6:0.463507 7:0.52988797 8:0.122288 9:0.457102 10:0.36323199 11:37.987301 12:86.992996 13:0.166667 14:0.92178398 15:0.95371902 16:10.857 17:2 18:30 19:2 20:-35 #
6.2087910402510069715099894072097e-05 1:0 2:0 3:1.1365401 4:0.36137 5:0.33154601 6:0.34408101 7:0.35695601 8:0.21457 9:0.452784 10:0.452784 11:41.419899 12:49.3447 13:0.66666698 14:0.90662497 15:0.943344 16:11.7968 17:0 18:0 19:2 20:119 #
6.2087910402510069715099894072097e-05 1:0 2:0 3:1.72614 4:0.87272698 5:1.23979 6:0.467711 7:0.43238401 8:0.13523801 9:0.45520699 10:0.45520699 11:40.270802 12:55.450401 13:0.33333299 14:0.85109299 15:0.90969998 16:11.4833 17:-2 18:-45.333302 19:-3 20:-100 #
-6.2087910402510069715099894072097e-05 1:0 2:0 3:2.0490699 4:1.6385601 5:1.0446 6:0.87418199 7:0.91439599 8:0.445494 9:1.09322 10:1.09322 11:72.305801 12:74.977097 13:0.66666698 14:0.75005299 15:0.65129399 16:19.6796 17:-1 18:-74 19:-4 20:-178 #
6.2087910402510069715099894072097e-05 1:0 2:0 3:1.56775 4:0.78240401 5:1.82594 6:0.89702398 7:0.32454199 8:0.33076301 9:0.57239097 10:0.49385199 11:37.949699 12:88.856102 13:0.33333299 14:0.73281699 15:0.77308798 16:10.8466 17:0 18:0 19:1 20:123 #
-6.2087910402510069715099894072097e-05 1:-1 2:-40 3:2.8264301 4:2.8080499 5:0.406813 6:0.32519099 7:0.53212899 8:0.35138899 9:0.58648401 10:0.44184199 11:41.020599 12:55.4123 13:0.444444 14:0.94044602 15:0.95283699 16:11.688 17:-1 18:-40 19:2 20:198.66701 #
-5.9631014302371202926919546705165e-05 1:0 2:0 3:38.3965 4:0.72738701 5:0.498254 6:0.208051 7:0.29518899 8:0.1468 9:0.219777 10:0.31670901 11:38.4412 12:79.374901 13:0.66666698 14:0.96111202 15:0.99782097 16:10.9818 17:0 18:0 19:-1 20:-270 #
6.2087910402510069715099894072097e-05 1:-1 2:-9.5 3:2.2402 4:0.17031699 5:0.62263799 6:0.45429799 7:0.59072602 8:0.37910399 9:0.60506701 10:0.47981799 11:43.096001 12:88.948402 13:0.444444 14:0.86780202 15:0.90586603 16:12.2519 17:-1 18:-9.5 19:0 20:134.5 #
-6.1998629019763913574475600043456e-05 1:-1 2:-38 3:9.0275202 4:0.124778 5:0.110929 6:0.22299901 7:0.124066 8:0.127799 9:0.0999697 10:0.078042403 11:21.2892 12:77.8153 13:1 14:0.997688 15:0.99791598 16:6.16185 17:-1 18:-38 19:3 20:224 #
6.2087910402510069715099894072097e-05 1:0 2:0 3:2.3713901 4:0.61966503 5:1.02721 6:0.57413697 7:0.495262 8:0.279351 9:0.301236 10:0.39023799 11:40.668098 12:86.864502 13:0.166667 14:0.902758 15:0.96187901 16:11.5918 17:0 18:0 19:0 20:-70 #
-6.2087910402510069715099894072097e-05 1:0 2:0 3:6.81669 4:0.85053903 5:1.11641 6:0.149359 7:0.31311399 8:0.13079301 9:0.23625 10:0.23625 11:31.866899 12:87.791603 13:0.33333299 14:0.97560602 15:0.95208299 16:9.1575804 17:0 18:0 19:-1 20:-274 #
6.2087910402510069715099894072097e-05 1:0 2:0 3:3.10094 4:0.27420399 5:0.78531599 6:0.16077401 7:0.860578 8:0.25267801 9:0.72127497 10:0.51697701 11:40.184101 12:58.6558 13:0.66666698 14:0.86337 15:0.85685998 16:11.4596 17:0 18:0 19:0 20:0 #
-1.7573012360891501412729631681486e-08 1:0 2:0 3:1.94951 4:0.71330798 5:0.35708901 6:0.173595 7:0.73554099 8:0.561364 9:0.122229 10:0.122229 11:20.6628 12:79.646301 13:0.66666698 14:0.94104302 15:0.95077199 16:5.9825602 17:0 18:0 19:8 20:148.5 #
6.2087910402510069715099894072097e-05 1:0 2:0 3:2.7423201 4:2.71013 5:1.2179 6:0.40114999 7:0.289435 8:0.120092 9:0.20172299 10:0.20172299 11:29.0767 12:67.510002 13:0.66666698 14:0.92803299 15:0.95710301 16:8.3739204 17:0 18:0 19:0 20:0 #
-6.2087910402510069715099894072097e-05 1:-1 2:-25 3:3.67308 4:0.77011102 5:0.433855 6:0.41595599 7:0.33845201 8:0.42353201 9:0.29195601 10:0.29195601 11:36.3941 12:72.457298 13:1 14:0.97108299 15:0.98097599 16:10.4174 17:-1 18:-25 19:0 20:221 #
-6.2087910402510069715099894072097e-05 1:0 2:0 3:2.7186999 4:10.2993 5:0.53420001 6:0.350436 7:0.33517501 8:0.41556501 9:0.33258799 10:1.30161 11:74.134399 12:88.266998 13:0.66666698 14:0.76423401 15:0.72784001 16:20.106899 17:1 18:78 19:1 20:78 #
6.2087910402510069715099894072097e-05 1:-2 2:-21 3:3.7622099 4:0.56888902 5:0.51863301 6:0.324873 7:0.92559201 8:0.67610902 9:0.53799403 10:0.53799403 11:45.572601 12:54.113701 13:0.66666698 14:0.98014998 15:0.98397499 16:12.9196 17:-4 18:-55.5 19:-7 20:-79.142899 #
-6.0590307707133889678942362255754e-05 1:0 2:0 3:2.95837 4:0.151529 5:1.06714 6:0.090844803 7:0.091240898 8:0.448073 9:0.083953999 10:0.074548699 11:18.9464 12:74.863098 13:0.66666698 14:0.97507501 15:0.98470497 16:5.4903402 17:-1 18:-97 19:1 20:129.25 #
6.2087910402510069715099894072097e-05 1:3 2:24.3333 3:1.74266 4:1.68603 5:0.64032 6:0.58519697 7:0.749865 8:0.380418 9:0.58198899 10:0.58198899 11:47.152599 12:82.813301 13:1 14:0.99411601 15:0.99028599 16:13.3424 17:3 18:24.3333 19:4 20:88 #
-2.3665121274989851698610648922383e-05 1:0 2:0 3:7.2101102 4:0.29559699 5:0.67969799 6:0.49169201 7:0.610636 8:0.245635 9:0.60752898 10:0.48156801 11:44.258499 12:80.762199 13:0.444444 14:0.98119199 15:0.98864502 16:12.5661 17:0 18:0 19:4 20:252.75 #
-6.2087910402510069715099894072097e-05 1:0 2:0 3:1.97035 4:0.80155599 5:1.1286 6:0.36740601 7:0.89668798 8:0.81581599 9:0.52784401 10:1.24121 11:60.0495 12:86.856598 13:0.66666698 14:0.83043897 15:0.83847702 16:16.6917 17:0 18:0 19:3 20:199.33299 #
6.2087910402510069715099894072097e-05 1:0 2:4 3:5.4762802 4:0.212108 5:0.437096 6:0.222175 7:0.40633699 8:0.359725 9:0.885436 10:0.55244797 11:45.389198 12:47.041698 13:0.66666698 14:0.92854899 15:0.96785402 16:12.8704 17:-1 18:-42.5 19:1 20:94.166702 #
-2.957113698491802616040956264154e-05 1:0 2:0 3:6.9580302 4:0.172169 5:0.117817 6:0.369109 7:0.390946 8:0.10227 9:0.34784901 10:0.098708197 11:23.835899 12:88.279701 13:0.66666698 14:0.93178302 15:0.99890202 16:6.8888998 17:0 18:0 19:5 20:218 #
6.2087910402510069715099894072097e-05 1:-1 2:-18 3:4.0050101 4:0.27213201 5:0.76225102 6:0.76725799 7:1.3626 8:0.25707501 9:0.67856997 10:1.85926 11:64.3451 12:50.393299 13:0.66666698 14:0.78253198 15:0.93832099 16:17.7624 17:-1 18:-18 19:3 20:141 #
6.2087910402510069715099894072097e-05 1:2 2:11 3:4.35502 4:0.91105998 5:0.627141 6:0.50711203 7:0.7209 8:0.51428598 9:0.77745098 10:0.77745098 11:51.668098 12:86.250298 13:0.444444 14:0.98154497 15:0.97131002 16:14.5365 17:2 18:11 19:2 20:-63.200001 #
6.2087910402510069715099894072097e-05 1:1 2:-14 3:2.2039499 4:0.34525201 5:1.1861 6:0.73232901 7:0.90146798 8:0.488796 9:0.45143801 10:0.45143801 11:42.8078 12:67.203598 13:0.66666698 14:0.99188298 15:0.97191298 16:12.1739 17:1 18:-14 19:3 20:125 #
6.2087910402510069715099894072097e-05 1:-4 2:-31.0625 3:2.0021999 4:1.64266 5:2.7653201 6:0.449624 7:1.49255 8:0.438458 9:0.41100699 10:0.41100699 11:40.581299 12:54.589298 13:0.66666698 14:0.92681497 15:0.959418 16:11.5681 17:-5 18:-37.650002 19:-5 20:-37.650002 #
-3.258611584659596360422084693198e-05 1:-2 2:-27 3:2.42855 4:0.210329 5:0.297622 6:0.42932701 7:1.1126 8:0.43249601 9:1.2062401 10:1.2062401 11:57.9562 12:46.346001 13:0.66666698 14:0.82292902 15:0.88218701 16:16.1614 17:-2 18:-27 19:-2 20:-27 #
-6.2087910402510069715099894072097e-05 1:1 2:11 3:1.3793499 4:1.24191 5:1.18159 6:0.57673597 7:0.40706199 8:0.55134702 9:1.18752 10:0.367881 11:37.170101 12:47.6777 13:0.66666698 14:0.79505599 15:0.91688597 16:10.6318 17:1 18:11 19:6 20:114.429 #
-6.2087910402510069715099894072097e-05 1:-1 2:-38 3:6.9486299 4:1.7491699 5:0.328776 6:0.218061 7:0.31191301 8:0.33220401 9:0.13636699 10:0.120951 11:25.362801 12:86.432503 13:0.66666698 14:0.97796398 15:0.99159199 16:7.3231602 17:-2 18:-63 19:0 20:88.333298 #
6.2087910402510069715099894072097e-05 1:2 2:16 3:1.09226 4:1.61129 5:2.1359501 6:0.47807699 7:0.178441 8:0.63225198 9:0.61624902 10:0.61624902 11:46.7355 12:44.622398 13:0.66666698 14:0.92408901 15:0.95147598 16:13.231 17:2 18:16 19:2 20:16 #
-3.5848405518161300070505148607225e-05 1:3 2:20.6667 3:1.74149 4:0.27169099 5:0.190503 6:0.30541 7:0.31910601 8:0.45600501 9:0.26192099 10:0.223322 11:28.736799 12:70.896896 13:0.66666698 14:0.88101602 15:0.93468499 16:8.2780895 17:3 18:20.6667 19:0 20:-272.33301 #
6.2087910402510069715099894072097e-05 1:-1 2:-6 3:2.6344099 4:0.25626999 5:0.56107497 6:0.60152602 7:0.347307 8:0.227694 9:0.332975 10:0.364658 11:39.117802 12:81.887604 13:0.66666698 14:0.92009598 15:0.96332699 16:11.1676 17:-2 18:-35 19:-2 20:-35 #
-6.2087910402510069715099894072097e-05 1:1 2:-8 3:2.3211 4:0.24971899 5:0.19721 6:0.408207 7:0.77012098 8:0.441136 9:0.38434601 10:1.33531 11:83.654602 12:76.3172 13:1 14:0.53575498 15:0.68619299 16:22.246401 17:1 18:-8 19:2 20:57.333302 #
6.2087910402510069715099894072097e-05 1:-1 2:-12.75 3:2.76598 4:4.8210301 5:0.88672203 6:0.57030898 7:0.58127201 8:0.29837599 9:0.447561 10:0.31320199 11:35.311901 12:81.181999 13:0.66666698 14:0.900325 15:0.94458401 16:10.1177 17:-1 18:-12.75 19:-1 20:-12.75 #
-6.2087910402510069715099894072097e-05 1:0 2:0 3:3.1935401 4:2.2687099 5:1.51929 6:0.16360401 7:0.577447 8:0.30208501 9:0.217219 10:0.317417 11:35.483601 12:85.980202 13:0.66666698 14:0.96765602 15:0.92984903 16:10.1653 17:-2 18:-73.75 19:1 20:100.417 #
6.2087910402510069715099894072097e-05 1:0 2:0 3:3.7751501 4:0.306321 5:0.16592699 6:0.52945203 7:1.33011 8:0.65905499 9:0.84947801 10:0.64392602 11:47.561001 12:63.5149 13:0.33333299 14:0.91652399 15:0.909877 16:13.4513 17:0 18:0 19:-1 20:-42 #
-6.2087910402510069715099894072097e-05 1:-1 2:-11 3:3.1798401 4:2.13081 5:6.1947398 6:3.1394801 7:4.3234401 8:1.63156 9:2.7153399 10:2.6533799 11:86.535004 12:19.9051 13:0.166667 14:0.72681701 15:0.83189702 16:22.8641 17:2 18:54 19:2 20:54 #
-6.2087910402510069715099894072097e-05 1:7 2:28.5714 3:1.62296 4:3.05496 5:4.7487602 6:0.275381 7:0.54061598 8:0.34008801 9:0.151366 10:0.33610699 11:34.8713 12:71.540901 13:0.66666698 14:0.87222302 15:0.92119497 16:9.9953604 17:7 18:28.5714 19:9 20:67.111099 #
6.2087910402510069715099894072097e-05 1:-3 2:-19 3:2.4923601 4:0.445499 5:1.08836 6:1.00767 7:0.50327599 8:0.378277 9:1.0031 10:1.0031 11:55.532101 12:62.3769 13:0.66666698 14:0.96647799 15:0.93564802 16:15.5405 17:-3 18:-19 19:-3 20:-19 #
-6.2087910402510069715099894072097e-05 1:-1 2:-25 3:2.60412 4:0.97226202 5:1.1937 6:2.12468 7:0.62391502 8:0.37555 9:2.8273101 10:2.09215 11:73.705101 12:2.7024801 13:0.66666698 14:0.64778697 15:0.89725399 16:20.007 17:-3 18:-49 19:-9 20:-103 #
6.2087910402510069715099894072097e-05 1:3 2:20 3:1.07797 4:0.151829 5:1.52544 6:0.53989297 7:0.64150298 8:0.56703597 9:0.67323703 10:0.67323703 11:49.264 12:79.802498 13:0.66666698 14:0.94985402 15:0.938398 16:13.9034 17:3 18:20 19:7 20:82.428596 #
-4.8595233280751234158229001636187e-05 1:-2 2:-39.25 3:2.47312 4:0.32620499 5:0.39754701 6:0.289013 7:0.33150899 8:0.13722301 9:0.066014603 10:0.066014603 11:11.9843 12:86.492996 13:0.33333299 14:0.94445997 15:0.95706803 16:3.4823599 17:-3 18:-47.666698 19:-2 20:100.646 #
-6.2087910402510069715099894072097e-05 1:-1 2:-8 3:2.3689499 4:2.1742899 5:1.4597 6:0.35236701 7:0.27127999 8:0.53131902 9:0.25118399 10:0.184286 11:25.2983 12:61.7481 13:0.66666698 14:0.90913898 15:0.93230599 16:7.3048401 17:0 18:90 19:0 20:27 #
6.2087910402510069715099894072097e-05 1:5 2:21 3:1.59622 4:0.279324 5:0.84788102 6:0.18121301 7:1.2610199 8:0.33344099 9:0.910658 10:0.52874398 11:41.464901 12:52.146801 13:0.222222 14:0.78993303 15:0.82044101 16:11.8091 17:4 18:-51.75 19:7 20:21.2188 #
-6.2087910402510069715099894072097e-05 1:0 2:0 3:2.76073 4:0.58172297 5:0.217924 6:0.40070501 7:0.146405 8:0.45805699 9:0.29383999 10:0.30614901 11:36.0877 12:85.430099 13:0.66666698 14:0.91429102 15:0.96270603 16:10.3326 17:-1 18:-99 19:-1 20:-99 #
6.2087910402510069715099894072097e-05 1:2 2:14 3:1.91772 4:3.4288599 5:0.85699302 6:0.98009598 7:0.398444 8:0.124809 9:0.41126499 10:0.38719201 11:39.187599 12:59.441299 13:0.444444 14:0.89131802 15:0.94667602 16:11.1867 17:2 18:14 19:2 20:14 #
-6.2087910402510069715099894072097e-05 1:4 2:18 3:2.9786 4:0.30865601 5:0.53593999 6:0.346365 7:0.64694899 8:0.155378 9:0.37278 10:0.50177401 11:44.660099 12:83.042 13:0.66666698 14:0.90975398 15:0.98257899 16:12.6743 17:4 18:18 19:6 20:73.333298 #
6.2087910402510069715099894072097e-05 1:-2 2:-17 3:2.3584099 4:0.727332 5:0.44892901 6:0.79155201 7:0.387961 8:0.44314599 9:0.83848298 10:0.49198201 11:42.310101 12:47.741001 13:0.444444 14:0.85021502 15:0.92231601 16:12.0388 17:-2 18:-17 19:-2 20:-17 #
6.2087910402510069715099894072097e-05 1:0 2:0 3:2.9237399 4:1.19204 5:1.04625 6:1.03733 7:1.51758 8:0.30484301 9:1.00763 10:0.38327399 11:37.386799 12:85.933899 13:0.66666698 14:0.80756998 15:0.89856797 16:10.6915 17:0 18:0 19:0 20:0 #
-6.2087910402510069715099894072097e-05 1:0 2:0 3:1.40861 4:1.96075 5:0.61663902 6:0.141111 7:0.37040299 8:0.25704801 9:0.30778801 10:0.30778801 11:37.585701 12:80.919998 13:0.66666698 14:0.99586701 15:0.98472703 16:10.7464 17:-1 18:-99.5 19:-3 20:-122.167 #
6.2087910402510069715099894072097e-05 1:-1 2:9 3:1.82315 4:6.3158598 5:3.0146999 6:0.76972401 7:0.577326 8:0.701455 9:0.56624198 10:0.94064498 11:54.878201 12:69.908997 13:0.166667 14:0.75294602 15:0.901407 16:15.3718 17:-1 18:9 19:3 20:102.2 #
-6.2087910402510069715099894072097e-05 1:0 2:0 3:3.0125401 4:0.56001902 5:1.13217 6:0.28369501 7:0.56761301 8:0.0965387 9:0.26628101 10:0.539433 11:44.820801 12:82.6362 13:0.66666698 14:0.94042599 15:0.94644099 16:12.7175 17:-2 18:-73.75 19:1 20:100.417 #
-6.1809398519685314083577098998035e-05 1:3 2:51.333302 3:6.9362001 4:0.331541 5:0.185252 6:0.40588999 7:0.33082101 8:0.25142401 9:0.29454401 10:0.181125 11:29.505699 12:83.896599 13:0.66666698 14:0.97169602 15:0.97823602 16:8.49473 17:4 18:55.5 19:4 20:55.5 #
6.2087910402510069715099894072097e-05 1:-3 2:-13.5 3:1.71543 4:0.35570899 5:0.50556803 6:0.22069199 7:1.06873 8:0.936454 9:1.92249 10:1.0881 11:56.800201 12:68.598801 13:0.444444 14:0.97080302 15:0.970074 16:15.8662 17:-3 18:-13.5 19:-3 20:-13.5 #
6.2087910402510069715099894072097e-05 1:2 2:11 3:1.31227 4:1.31545 5:0.300466 6:0.250808 7:0.878892 8:0.34023401 9:0.40160599 10:0.288959 11:28.735701 12:74.598701 13:0.66666698 14:0.84184301 15:0.87256497 16:8.2777796 17:2 18:11 19:2 20:11 #
6.2087910402510069715099894072097e-05 1:0 2:0 3:1.96698 4:0.20813 5:0.24150001 6:0.34265101 7:1.56856 8:0.48952001 9:0.502675 10:1.55222 11:64.889603 12:74.6492 13:1 14:0.779652 15:0.81594402 16:17.8964 17:0 18:0 19:0 20:109.25 #
-2.2542747015881182081047801046836e-05 1:-3 2:-7.75 3:1.59276 4:11.1623 5:3.59725 6:1.09907 7:1.61278 8:2.6977401 9:2.34444 10:2.59168 11:70.884903 12:27.6082 13:0.66666698 14:0.91609001 15:0.85058498 16:19.344101 17:-1 18:41.583302 19:0 20:52.5 #
6.2087910402510069715099894072097e-05 1:-1 2:-8 3:3.8419299 4:0.24268501 5:0.513973 6:0.353284 7:1.05474 8:0.57195902 9:0.70122403 10:0.70122403 11:49.952702 12:85.045197 13:0.66666698 14:0.99101102 15:0.98495001 16:14.0854 17:-1 18:-8 19:-1 20:-8 #
-3.8362286121936110567121752668029e-05 1:-1 2:-52 3:1.9110399 4:0.98954898 5:0.092786796 6:0.072738603 7:0.044176601 8:0.195306 9:0.033234298 10:0.047498301 11:15.4884 12:83.5625 13:0.66666698 14:0.98714 15:0.99122399 16:4.49509 17:-1 18:-52 19:0 20:90 #
6.2087910402510069715099894072097e-05 1:0 2:0 3:2.7932401 4:0.338085 5:0.157502 6:0.107139 7:0.48681501 8:0.66453499 9:2.50442 10:2.50442 11:68.954803 12:28.854 13:0.66666698 14:0.86654902 15:0.904392 16:18.8836 17:0 18:0 19:0 20:0 #
6.2087910402510069715099894072097e-05 1:0 2:-18 3:11.8604 4:0.26484701 5:0.29446301 6:0.51121098 7:0.42879 8:0.169577 9:0.48016101 10:0.40489301 11:41.5816 12:81.940201 13:0.66666698 14:0.98989803 15:0.98592103 16:11.8408 17:0 18:-18 19:2 20:83.333298 #
-6.2087910402510069715099894072097e-05 1:0 2:0 3:5.3029299 4:0.42726699 5:1.2848901 6:0.0976981 7:0.49091801 8:0.16340999 9:0.30562299 10:0.26798901 11:35.2864 12:87.798203 13:0.33333299 14:0.946078 15:0.97889 16:10.1106 17:-2 18:-83.5 19:-1 20:100.5 #
6.2087910402510069715099894072097e-05 1:0 2:-6 3:3.5504799 4:0.34016201 5:2.17189 6:0.51783901 7:0.45585501 8:0.50212401 9:0.43017501 10:0.338305 11:33.882702 12:72.066902 13:0.66666698 14:0.87021703 15:0.88789898 16:9.7204304 17:0 18:-6 19:0 20:-6 #
-6.2087910402510069715099894072097e-05 1:0 2:0 3:3.41379 4:1.27807 5:8.87286 6:1.00414 7:1.25797 8:1.03196 9:1.09346 10:1.09346 11:52.225101 12:42.4711 13:1 14:0.95029998 15:0.83619303 16:14.6823 17:3 18:86.5 19:-1 20:-132.075 #
-6.2087910402510069715099894072097e-05 1:0 2:0 3:2.27689 4:0.86155999 5:0.4138 6:0.28086799 7:0.75032198 8:0.32314399 9:0.49941999 10:0.52516901 11:39.2533 12:78.584396 13:0.66666698 14:0.83495098 15:0.84562099 16:11.2048 17:1 18:64 19:1 20:64 #
6.2087910402510069715099894072097e-05 1:-1 2:-12 3:2.7253399 4:0.344715 5:0.295443 6:0.181715 7:0.344502 8:0.489463 9:0.80673897 10:0.78072298 11:51.634102 12:69.599297 13:0.66666698 14:0.91065902 15:0.95116001 16:14.5276 17:-1 18:-12 19:-1 20:-12 #
-6.2087910402510069715099894072097e-05 1:0 2:0 3:2.21383 4:1.15526 5:0.268475 6:2.0901501 7:0.52688497 8:0.25953501 9:1.00207 10:1.00207 11:56.818001 12:68.8508 13:0.33333299 14:0.92578501 15:0.889283 16:15.8707 17:-6 18:-79 19:-5 20:81 #
6.2087910402510069715099894072097e-05 1:0 2:0 3:1.51884 4:2.55936 5:0.65645403 6:0.67179197 7:0.30359101 8:0.27938899 9:0.34443799 10:0.34443799 11:30.7675 12:79.3517 13:0.66666698 14:0.86627698 15:0.82202601 16:8.8494396 17:0 18:0 19:0 20:0 #
-6.2087910402510069715099894072097e-05 1:0 2:0 3:1.35553 4:1.0254 5:0.69543201 6:0.207261 7:0.87054098 8:0.63795799 9:0.83411199 10:1.72214 11:85.439796 12:73.5625 13:0.66666698 14:0.61079198 15:0.62588501 16:22.630899 17:-1 18:-76.5 19:-1 20:-76.5 #
-2.6538745090388254910251930596132e-05 1:-3 2:-40 3:2.13462 4:1.0269901 5:0.54151201 6:4.8704801 7:2.00471 8:1.09911 9:1.77249 10:3.18226 11:80.653702 12:39.212601 13:0.66666698 14:0.84089899 15:0.78480399 16:21.5879 17:-3 18:-40 19:-2 20:95 #
6.2087910402510069715099894072097e-05 1:-1 2:-9.25 3:3.96632 4:0.27104399 5:0.42162299 6:0.507909 7:0.52246302 8:0.27884001 9:0.50405002 10:0.66011101 11:48.928299 12:79.428299 13:0.33333299 14:0.986601 15:0.98541898 16:13.8146 17:-1 18:-9.25 19:-1 20:-9.25 #
-1.5358807205066658108224761369875e-06 1:-1 2:-8 3:2.43802 4:0.45752001 5:0.74531198 6:0.62584001 7:2.3338001 8:0.58418202 9:2.6409099 10:2.6409099 11:75.787003 12:26.042101 13:0.66666698 14:0.74747598 15:0.762308 16:20.488701 17:-1 18:-8 19:-3 20:-121.333 #
-6.2087910402510069715099894072097e-05 1:1 2:-0.5 3:3.8089099 4:0.97090101 5:0.30018201 6:0.191754 7:0.687756 8:0.52529597 9:0.41801301 10:0.571455 11:46.122299 12:82.649002 13:0.66666698 14:0.93797499 15:0.94638997 16:13.067 17:1 18:-0.5 19:3 20:81.375 #
6.2087910402510069715099894072097e-05 1:-1 2:-4.75 3:3.55106 4:1.8001699 5:0.75689 6:0.51359099 7:0.55202597 8:0.37319499 9:0.789406 10:0.74982703 11:49.648899 12:39.804001 13:0.66666698 14:0.97835201 15:0.96535599 16:14.0052 17:-1 18:-4.75 19:-1 20:-4.75 #
-6.2087910402510069715099894072097e-05 1:0 2:0 3:1.76599 4:0.440377 5:0.43729499 6:0.636316 7:0.24884699 8:0.22108001 9:0.35947001 10:0.35947001 11:35.549702 12:54.453999 13:0.66666698 14:0.88208699 15:0.91203803 16:10.1836 17:0 18:0 19:-1 20:-260 #
-6.2087910402510069715099894072097e-05 1:0 2:0 3:6.3598299 4:2.60586 5:0.115554 6:0.33077201 7:0.27820101 8:0.181263 9:0.11329 10:0.163102 11:29.4032 12:81.568001 13:0.66666698 14:0.99966103 15:0.99546403 16:8.4658899 17:-2 18:-73.75 19:1 20:100.417 #
-6.2087910402510069715099894072097e-05 1:0 2:0 3:3.1523199 4:2.6512201 5:0.31910101 6:0.43254101 7:0.614519 8:0.15777101 9:0.28597799 10:0.57731402 11:47.147499 12:81.347801 13:0.33333299 14:0.96420002 15:0.97753 16:13.341 17:0 18:0 19:3 20:79.5 #
6.2087910402510069715099894072097e-05 1:-1 2:-5 3:1.8406399 4:0.386215 5:0.59045202 6:0.398783 7:0.43608901 8:0.431178 9:0.50142503 10:0.57829201 11:45.329498 12:72.287697 13:0.66666698 14:0.93807298 15:0.93673998 16:12.8543 17:-1 18:-5 19:-1 20:-5 #
6.2087910402510069715099894072097e-05 1:-1 2:-9.3125 3:2.89871 4:0.73281902 5:4.5156498 6:0.63442099 7:0.70815098 8:0.806036 9:0.60163099 10:0.712035 11:47.765099 12:84.4198 13:0.444444 14:0.74179602 15:0.83499902 16:13.5056 17:-1 18:-9.3125 19:0 20:62.625 #
6.2087910402510069715099894072097e-05 1:0 2:0 3:1.69855 4:1.19688 5:3.1882601 6:0.36776701 7:0.33681601 8:0.285166 9:0.333617 10:0.333617 11:35.861099 12:72.880096 13:0.66666698 14:0.89816701 15:0.93060201 16:10.2699 17:0 18:0 19:0 20:0 #
-6.2087910402510069715099894072097e-05 1:2 2:7 3:2.23331 4:1.12552 5:0.46606201 6:0.267474 7:0.38944501 8:0.39821899 9:0.259433 10:0.259433 11:32.687302 12:65.669098 13:0.66666698 14:0.97189897 15:0.95276397 16:9.3870001 17:5 18:56.400002 19:5 20:56.400002 #
6.2087910402510069715099894072097e-05 1:0 2:-6.25 3:2.4700699 4:4.1982598 5:0.358583 6:0.41796201 7:0.30162799 8:0.151085 9:0.17873 10:0.17873 11:26.6877 12:74.770699 13:0.33333299 14:0.95055598 15:0.95038903 16:7.6989498 17:0 18:-6.25 19:3 20:1.475 #
6.2087910402510069715099894072097e-05 1:2 2:16 3:5.4389501 4:0.98382902 5:0.23435 6:0.40466601 7:0.42254901 8:0.74528402 9:0.53430003 10:0.92722601 11:54.7672 12:77.712601 13:0.66666698 14:0.94594902 15:0.95980698 16:15.3431 17:2 18:16 19:4 20:95.75 #
6.2087910402510069715099894072097e-05 1:-1 2:-5 3:1.3548501 4:0.75735003 5:0.49195999 6:0.66259903 7:0.465579 8:0.60937399 9:0.64482898 10:0.616171 11:45.715099 12:52.987301 13:0.66666698 14:0.723638 15:0.883551 16:12.9578 17:-1 18:-5 19:-1 20:-5 #
-6.2087910402510069715099894072097e-05 1:7 2:37.142899 3:1.64535 4:1.20453 5:0.30691099 6:0.26614499 7:0.58305401 8:0.58815598 9:0.66209102 10:0.70264298 11:49.5196 12:69.789703 13:0.444444 14:0.82600898 15:0.89640599 16:13.971 17:7 18:37.142899 19:8 20:55 #
6.2087910402510069715099894072097e-05 1:0 2:0 3:3.94045 4:3.50879 5:1.48721 6:0.65474701 7:0.40338299 8:0.80334097 9:0.448302 10:0.448302 11:42.624298 12:87.712997 13:0.444444 14:0.96771002 15:0.95533901 16:12.1241 17:0 18:0 19:0 20:0 #
-6.2087910402510069715099894072097e-05 1:-1 2:-40 3:1.51613 4:0.93082201 5:0.87823498 6:0.31208801 7:0.51735198 8:0.30093101 9:0.464351 10:0.464351 11:34.252399 12:75.655701 13:0.33333299 14:0.711092 15:0.75616401 16:9.8233299 17:-1 18:-40 19:0 20:82 #
6.2087910402510069715099894072097e-05 1:0 2:0 3:2.9168899 4:1.32846 5:0.57736099 6:0.577676 7:0.32299301 8:0.231851 9:0.41244599 10:0.32868999 11:35.487 12:75.227898 13:0.444444 14:0.86054897 15:0.92008299 16:10.1662 17:0 18:0 19:0 20:0 #
-6.2087910402510069715099894072097e-05 1:0 2:0 3:1.60088 4:1.1611 5:2.4001601 6:0.24275599 7:0.53434199 8:1.10036 9:0.46501401 10:0.46501401 11:35.118099 12:55.126801 13:0.66666698 14:0.87099302 15:0.827609 16:10.0639 17:1 18:79 19:1 20:-87 #
6.2087910402510069715099894072097e-05 1:0 2:0 3:1.16971 4:0.104933 5:0.62118798 6:0.335264 7:0.32620001 8:0.378658 9:0.54166299 10:0.47262499 11:31.8717 12:56.7309 13:0.444444 14:0.85274202 15:0.76567698 16:9.1589403 17:0 18:0 19:0 20:0 #
-6.1215782217563443224489505567476e-05 1:2 2:33.4375 3:4.3943501 4:0.0911505 5:0.061880101 6:0.194269 7:0.091805197 8:0.085917801 9:0.137171 10:0.112497 11:25.111099 12:81.748596 13:1 14:0.98814499 15:0.99745399 16:7.2516599 17:4 18:59.7812 19:4 20:59.7812 #
-6.2087910402510069715099894072097e-05 1:-4 2:-18.5 3:2.1600101 4:0.38914201 5:0.96602499 6:1.4601901 7:3.9480901 8:1.16416 9:2.3531301 10:2.3531301 11:76.699699 12:43.018799 13:1 14:0.88907701 15:0.76217997 16:20.697701 17:-4 18:-18.5 19:-3 20:53.799999 #
-6.2087910402510069715099894072097e-05 1:-1 2:-26 3:2.06833 4:0.61666697 5:0.25628299 6:0.21843 7:0.234712 8:0.285079 9:0.162358 10:0.162358 11:23.1106 12:69.003197 13:0.66666698 14:0.89102697 15:0.933438 16:6.6821499 17:-1 18:-26 19:0 20:90 #
6.2087910402510069715099894072097e-05 1:0 2:-2 3:1.9508801 4:0.573156 5:0.76725298 6:0.866817 7:0.78109902 8:0.53242803 9:1.07284 10:0.5309 11:41.429401 12:70.821602 13:0.66666698 14:0.84426701 15:0.84255099 16:11.7994 17:0 18:-2 19:0 20:-2 #
6.2087910402510069715099894072097e-05 1:1 2:3 3:2.4247799 4:0.86305898 5:0.46173999 6:0.74989402 7:1.07059 8:0.33963099 9:0.71001297 10:1.0301 11:55.9547 12:55.3386 13:0.66666698 14:0.42292199 15:0.775774 16:15.6492 17:1 18:3 19:3 20:108.5 #
-6.2087910402510069715099894072097e-05 1:1 2:21 3:1.91408 4:0.34945101 5:0.30965999 6:0.125799 7:0.365253 8:0.59214199 9:0.33675 10:0.40344101 11:40.904499 12:72.4953 13:0.66666698 14:0.95328301 15:0.96026897 16:11.6563 17:1 18:21 19:2 20:69.333298 #
6.2087910402510069715099894072097e-05 1:-1 2:-4 3:2.60817 4:1.7247601 5:0.47604001 6:0.158463 7:0.69967699 8:0.44554299 9:0.53829998 10:0.53829998 11:45.394299 12:50.683498 13:0.66666698 14:0.98217797 15:0.98102403 16:12.8717 17:-1 18:-4 19:-1 20:-4 #
-6.07919659163336738695940231203e-07 1:0 2:-2 3:4.99193 4:0.51633501 5:0.299054 6:0.55519497 7:0.88336802 8:0.33743501 9:1.3322099 10:1.3322099 11:56.3811 12:34.9874 13:0.66666698 14:0.97186601 15:0.91174603 16:15.7587 17:0 18:-2 19:0 20:-2 #
6.2087910402510069715099894072097e-05 1:0 2:0 3:2.8261499 4:1.0527101 5:0.80936199 6:0.52822399 7:0.50004202 8:0.27794701 9:0.45228601 10:0.45228601 11:41.304401 12:88.4561 13:0.66666698 14:0.89912099 15:0.91699302 16:11.7653 17:0 18:0 19:0 20:26 #
-3.8888219203810579286642763741089e-06 1:2 2:10.375 3:3.8805201 4:6.4816899 5:14.0127 6:10.3261 7:8.4176903 8:0.78110701 9:24.3123 10:4.53023 11:81.448097 12:11.4044 13:1 14:0.99056 15:0.922176 16:21.763599 17:2 18:10.375 19:2 20:10.375 #
6.2087910402510069715099894072097e-05 1:1 2:3.5 3:2.4288399 4:0.38064599 5:2.75844 6:0.50577301 7:0.60216498 8:0.46697599 9:0.75352299 10:0.482638 11:43.724602 12:40.012001 13:0.66666698 14:0.98206598 15:0.97992498 16:12.4219 17:1 18:3.5 19:1 20:3.5 #
-6.2087910402510069715099894072097e-05 1:0 2:0 3:1.60238 4:0.90976399 5:1.8706501 6:0.37954801 7:0.23812801 8:0.65361702 9:0.35245901 10:0.35245901 11:31.7642 12:67.071503 13:0.66666698 14:0.84291101 15:0.849473 16:9.12883 17:1 18:76 19:1 20:46 #
6.2087910402510069715099894072097e-05 1:0 2:0 3:1.67469 4:2.8108301 5:0.33898199 6:0.60070902 7:0.43914399 8:0.53781998 9:0.54753101 10:0.54753101 11:41.506001 12:61.959499 13:0.66666698 14:0.841214 15:0.83832198 16:11.8202 17:0 18:0 19:0 20:0 #
-6.2087910402510069715099894072097e-05 1:1 2:1.33333 3:3.53949 4:0.45251301 5:0.248074 6:1.50992 7:0.47723699 8:0.078565598 9:0.45936599 10:0.394063 11:40.837898 12:76.435402 13:0.444444 14:0.95030302 15:0.976578 16:11.6382 17:1 18:1.33333 19:4 20:74 #
6.2087910402510069715099894072097e-05 1:0 2:0 3:1.40955 4:1.1330301 5:0.73081499 6:0.52219099 7:0.42460901 8:0.559367 9:0.46825799 10:0.46825799 11:40.953201 12:55.521198 13:0.444444 14:0.889983 15:0.91794801 16:11.6696 17:0 18:0 19:0 20:0 #
-6.2087910402510069715099894072097e-05 1:0 2:0 3:1.1840301 4:0.22172 5:1.02262 6:0.55338502 7:0.33822799 8:1.05211 9:0.76789999 10:1.42905 11:62.7701 12:51.639301 13:0.66666698 14:0.62225002 15:0.678958 16:17.3727 17:0 18:0 19:2 20:55.166698 #
6.2087910402510069715099894072097e-05 1:0 2:0 3:1.6295201 4:0.53298903 5:1.11543 6:1.26907 7:0.780204 8:0.63387001 9:0.937154 10:0.937154 11:54.146198 12:86.629601 13:0.66666698 14:0.911125 15:0.941531 16:15.1823 17:0 18:0 19:0 20:0 #
6.2087910402510069715099894072097e-05 1:2 2:13.1667 3:2.03754 4:0.247237 5:1.11315 6:0.39742199 7:0.68094802 8:0.65981299 9:0.59428799 10:0.52867901 11:43.277199 12:55.621399 13:0.66666698 14:0.78190899 15:0.909729 16:12.301 17:2 18:13.1667 19:4 20:91.099998 #
-5.0002794466941018983879851944607e-05 1:0 2:27 3:2.1953199 4:0.37568799 5:0.33070299 6:0.29504201 7:0.70279503 8:0.44304499 9:1.08899 10:1.08899 11:54.5298 12:35.694302 13:0.66666698 14:0.80957401 15:0.84430301 16:15.2817 17:0 18:27 19:2 20:129.66701 #
6.2087910402510069715099894072097e-05 1:0 2:0 3:1.14627 4:2.4518399 5:1.52501 6:0.69054002 7:0.25896999 8:1.55944 9:0.66004401 10:0.66004401 11:44.248199 12:56.9986 13:0.66666698 14:0.79003 15:0.80012602 16:12.5633 17:0 18:0 19:0 20:0 #
6.2087910402510069715099894072097e-05 1:1 2:-7 3:2.7516401 4:1.06871 5:0.92198098 6:0.52260298 7:0.37608299 8:0.081659101 9:0.355474 10:0.44751501 11:41.7593 12:77.868599 13:0.66666698 14:0.97229302 15:0.95098901 16:11.8892 17:1 18:-7 19:5 20:72.333298 #
-6.2087910402510069715099894072097e-05 1:0 2:0 3:2.2414401 4:0.73266798 5:4.2153602 6:0.62019998 7:0.84287298 8:0.48442 9:0.32526699 10:0.32526699 11:33.036301 12:67.325996 13:0.33333299 14:0.86557603 15:0.89401501 16:9.4844503 17:1 18:62 19:1 20:62 #
6.2087910402510069715099894072097e-05 1:0 2:0 3:2.0204201 4:0.220467 5:0.369789 6:0.24907801 7:0.572905 8:0.416235 9:0.54941797 10:0.54941797 11:45.559799 12:72.3797 13:0.66666698 14:0.94549298 15:0.96182799 16:12.9161 17:0 18:0 19:0 20:0 #
-6.2087910402510069715099894072097e-05 1:5 2:30.799999 3:5.5160699 4:1.26791 5:0.23216701 6:0.224125 7:0.35993701 8:0.15405799 9:0.28839901 10:0.310958 11:37.8685 12:88.261902 13:0.66666698 14:0.96659601 15:0.98809397 16:10.8243 17:6 18:37 19:7 20:58.5714 #
6.2087910402510069715099894072097e-05 1:0 2:0 3:2.6319699 4:0.56433398 5:1.17803 6:0.81638801 7:0.97599202 8:0.74496299 9:0.71943003 10:0.71943003 11:48.506401 12:48.254398 13:0.66666698 14:0.918796 15:0.92555201 16:13.7027 17:0 18:0 19:0 20:0 #
-6.1941926271590484385197450389882e-05 1:0 2:0 3:1.59949 4:1.97101 5:0.57601202 6:1.40511 7:0.77985603 8:1.05705 9:1.49123 10:2.0177701 11:80.452904 12:26.585699 13:0.66666698 14:0.40679899 15:0.69147098 16:21.543301 17:0 18:0 19:0 20:0 #
6.2087910402510069715099894072097e-05 1:3 2:11.3333 3:2.5245099 4:0.56247097 5:0.333731 6:0.54772598 7:0.46139801 8:0.31355599 9:0.41020799 10:0.41020799 11:41.425098 12:88.902496 13:0.33333299 14:0.98512 15:0.957973 16:11.7982 17:3 18:11.3333 19:3 20:11.3333 #
-6.2087910402510069715099894072097e-05 1:0 2:-6.5 3:1.5977401 4:1.64332 5:0.159942 6:0.438831 7:0.53926498 8:0.66054797 9:0.350059 10:0.350059 11:37.332802 12:86.998497 13:0.66666698 14:0.94580901 15:0.92593402 16:10.6766 17:1 18:28.5 19:4 20:65.099998 #
6.2087910402510069715099894072097e-05 1:0 2:0 3:5.12391 4:1.21584 5:0.73500198 6:1.11678 7:1.44143 8:0.67259502 9:1.08578 10:1.08578 11:55.979698 12:55.4991 13:0.66666698 14:0.98152298 15:0.97331101 16:15.6557 17:0 18:0 19:0 20:0 #
-6.2087910402510069715099894072097e-05 1:0 2:0 3:3.2558801 4:0.47987601 5:0.94792402 6:0.219999 7:0.19843701 8:0.51091802 9:0.17022 10:0.109296 11:23.3943 12:87.116203 13:0.66666698 14:0.973602 15:0.98464698 16:6.7630601 17:-2 18:-88 19:1 20:76.199997 #
6.2087910402510069715099894072097e-05 1:1 2:10 3:2.35306 4:0.233283 5:0.187842 6:0.41844901 7:0.65517402 8:0.40475899 9:0.580926 10:0.61312503 11:46.2677 12:55.878899 13:0.66666698 14:0.91301203 15:0.93845898 16:13.1059 17:1 18:10 19:1 20:10 #
6.2087910402510069715099894072097e-05 1:1 2:-1 3:1.38507 4:1.38712 5:2.6305399 6:0.88924998 7:0.45654601 8:0.413688 9:0.69231802 10:0.68833202 11:47.7001 12:69.331299 13:0.66666698 14:0.83922303 15:0.90567702 16:13.4883 17:1 18:-1 19:1 20:-1 #
-6.2087910402510069715099894072097e-05 1:0 2:0 3:1.5068901 4:0.60323298 5:0.82804298 6:0.330244 7:0.34502399 8:0.79130501 9:0.50518698 10:0.50518698 11:41.826401 12:72.994797 13:0.66666698 14:0.83249301 15:0.88483697 16:11.9074 17:0 18:0 19:2 20:278 #
-2.5823903812987301659848116131002e-05 1:0 2:0 3:3.4283299 4:0.51860201 5:0.36351201 6:0.44405001 7:0.27931699 8:0.76871502 9:0.46741101 10:0.311369 11:36.6931 12:47.389702 13:0.66666698 14:0.95789999 15:0.97103602 16:10.5 17:-1 18:-90 19:-1 20:-90 #
6.2087910402510069715099894072097e-05 1:0 2:0 3:2.3026199 4:1.17704 5:1.18644 6:0.57762998 7:0.63117403 8:0.447891 9:0.36549401 10:0.74865001 11:49.910702 12:74.186699 13:0.444444 14:0.87109798 15:0.88261902 16:14.0743 17:0 18:0 19:0 20:0 #
-6.2087910402510069715099894072097e-05 1:0 2:0 3:1.9435199 4:8.3374596 5:3.5904 6:0.175873 7:0.24438301 8:0.44121799 9:0.41083899 10:1.90455 11:62.773701 12:89.908096 13:0.66666698 14:0.63972002 15:0.73075098 16:17.3736 17:0 18:0 19:2 20:247.5 #
6.2087910402510069715099894072097e-05 1:1 2:2 3:2.22474 4:1.03651 5:0.77289402 6:0.72377199 7:0.598023 8:0.50419402 9:0.94042701 10:0.55392301 11:46.220901 12:59.790798 13:0.444444 14:0.93445599 15:0.97758102 16:13.0934 17:1 18:2 19:1 20:2 #
-6.2087910402510069715099894072097e-05 1:-1 2:-21 3:1.27054 4:3.8771801 5:2.3926699 6:0.99645799 7:1.1519001 8:0.81395501 9:0.82505798 10:1.66328 11:71.5159 12:59.425301 13:0.66666698 14:0.84958702 15:0.84000701 16:19.493401 17:-1 18:-21 19:-1 20:-21 #
-6.2087910402510069715099894072097e-05 1:0 2:0 3:1.28987 4:0.77737802 5:0.31017399 6:0.807078 7:1.29294 8:0.294882 9:1.06387 10:1.06387 11:55.560299 12:51.6353 13:0.66666698 14:0.82868302 15:0.79505199 16:15.5477 17:0 18:0 19:5 20:-20.6667 #
6.2087910402510069715099894072097e-05 1:2 2:8 3:4.3017001 4:0.65375 5:0.76316798 6:0.74958098 7:0.78100997 8:0.35225299 9:0.78170198 10:0.877473 11:54.626999 12:81.9422 13:0.444444 14:0.76347798 15:0.90161699 16:15.3068 17:2 18:8 19:4 20:89 #
-6.2087910402510069715099894072097e-05 1:0 2:0 3:1.97918 4:0.148167 5:0.49818599 6:0.216849 7:0.38324299 8:0.18289199 9:0.303496 10:0.303496 11:36.791302 12:86.585602 13:0.66666698 14:0.982041 15:0.97057498 16:10.5272 17:0 18:0 19:1 20:280 #
6.2087910402510069715099894072097e-05 1:0 2:3.5 3:1.54098 4:0.97489703 5:2.4492099 6:0.56207901 7:0.38493201 8:0.26246199 9:0.479835 10:0.78850502 11:50.6059 12:55.833099 13:0.444444 14:0.87189102 15:0.93296802 16:14.2576 17:0 18:3.5 19:0 20:3.5 #
-6.1148610416009423901284591806871e-05 1:0 2:0 3:1.4839 4:0.24126901 5:0.17859399 6:0.52899998 7:0.73749501 8:0.984519 9:0.422223 10:1.83702 11:88.231903 12:79.672699 13:0.66666698 14:0.78246802 15:0.75707901 16:23.2213 17:0 18:0 19:0 20:0 #
6.2087910402510069715099894072097e-05 1:1 2:-1.66667 3:1.78978 4:0.31641999 5:2.3065801 6:0.27340901 7:0.55780602 8:0.12648501 9:0.42002201 10:0.814174 11:52.568199 12:82.438004 13:0.66666698 14:0.88654202 15:0.93527001 16:14.7719 17:1 18:-1.66667 19:3 20:42.333302 #
-6.1956535932130787783581049588122e-05 1:1 2:27 3:11.106 4:2.11374 5:0.210362 6:0.174969 7:0.41239399 8:0.26518899 9:0.45573199 10:0.26520601 11:35.7103 12:87.165199 13:0.444444 14:0.98359799 15:0.99169803 16:10.2281 17:1 18:27 19:1 20:10.3333 #
6.2087910402510069715099894072097e-05 1:3 2:13.3333 3:3.44437 4:2.86531 5:2.9395101 6:0.330515 7:0.44873899 8:0.32709599 9:0.65661597 10:1.33509 11:61.094101 12:45.817699 13:0.66666698 14:0.879372 15:0.91339898 16:16.9543 17:3 18:13.3333 19:3 20:13.3333 #
-6.2087910402510069715099894072097e-05 1:1 2:9.25 3:1.1763901 4:1.23816 5:2.7198999 6:2.22668 7:2.3703499 8:1.43852 9:1.54079 10:1.22618 11:60.825401 12:30.4604 13:0.66666698 14:0.787247 15:0.80737901 16:16.8869 17:1 18:9.25 19:3 20:-13.5 #
6.2087910402510069715099894072097e-05 1:1 2:7 3:3.7762699 4:1.73906 5:0.99593198 6:0.34837499 7:1.60443 8:0.568928 9:1.3799 10:1.3799 11:60.2831 12:88.4972 13:0.66666698 14:0.89312798 15:0.93499601 16:16.750601 17:1 18:7 19:2 20:31 #
-6.2087910402510069715099894072097e-05 1:5 2:21.549999 3:4.67594 4:0.45650101 5:1.1477799 6:0.29457301 7:0.26943299 8:0.23918401 9:0.35196701 10:0.25703299 11:31.9401 12:89.950798 13:0.33333299 14:0.91856003 15:0.92995399 16:9.1780701 17:5 18:21.549999 19:8 20:56 #
-6.2087910402510069715099894072097e-05 1:0 2:0 3:2.36043 4:1.1001101 5:0.859339 6:0.51961797 7:1.6971 8:0.54121703 9:0.625076 10:1.92582 11:70.233002 12:88.655602 13:0.66666698 14:0.67611003 15:0.84252799 16:19.189199 17:0 18:0 19:0 20:0 #
6.2087910402510069715099894072097e-05 1:2 2:8 3:5.3352199 4:0.893363 5:1.54465 6:0.94876403 7:1.54502 8:0.39106399 9:0.93741399 10:1.1598901 11:57.174801 12:62.2169 13:0.66666698 14:0.94398201 15:0.965325 16:15.962 17:2 18:8 19:2 20:8 #
6.2087910402510069715099894072097e-05 1:5 2:21.9 3:1.95336 4:1.85218 5:0.32478601 6:0.33039701 7:0.627159 8:0.316385 9:0.95371199 10:0.824947 11:51.855598 12:78.455902 13:0.444444 14:0.94876301 15:0.95003498 16:14.5856 17:5 18:21.9 19:5 20:21.9 #
6.2087910402510069715099894072097e-05 1:2 2:10 3:4.5060401 4:0.17573 5:0.67298001 6:0.39345101 7:0.848248 8:0.286659 9:0.95216697 10:0.73285699 11:49.019402 12:72.909302 13:0.444444 14:0.94998401 15:0.93734598 16:13.8387 17:2 18:10 19:2 20:10 #
-6.2087910402510069715099894072097e-05 1:2 2:31 3:9.3606596 4:0.46513599 5:0.939915 6:0.32610801 7:1.07626 8:0.30083501 9:0.85620099 10:0.85620099 11:52.803501 12:69.906898 13:0.66666698 14:0.98762298 15:0.98057699 16:14.8333 17:2 18:31 19:6 20:138.16701 #
6.2087910402510069715099894072097e-05 1:1 2:6 3:3.6503401 4:0.135079 5:0.56087202 6:0.50944299 7:0.80412102 8:0.37325999 9:0.82886302 10:1.1788501 11:58.112701 12:72.966103 13:0.66666698 14:0.96492398 15:0.95630097 16:16.2012 17:1 18:6 19:1 20:6 #
-2.1462611168271162340528968037745e-05 1:4 2:17.875 3:1.5600801 4:0.087748699 5:0.073332198 6:0.47455001 7:0.33771801 8:0.233629 9:0.30484101 10:0.37871799 11:40.827301 12:76.873001 13:0.33333299 14:0.98693001 15:0.991934 16:11.6353 17:4 18:17.875 19:0 20:-259.5 #
6.2087910402510069715099894072097e-05 1:2 2:14.5 3:2.9781401 4:0.69136602 5:0.41741899 6:0.22667401 7:0.34128299 8:0.13481601 9:0.434347 10:0.75586498 11:50.354 12:67.333099 13:0.66666698 14:0.91394401 15:0.96776497 16:14.1912 17:2 18:14.5 19:2 20:14.5 #
-4.1786600163278527007675033910772e-05 1:3 2:21.3333 3:1.37983 4:0.44725499 5:0.114815 6:0.106128 7:0.086808898 8:0.623959 9:0.044911601 10:0.043366499 11:10.151 12:87.449501 13:0.66666698 14:0.96010399 15:0.97325802 16:2.95118 17:3 18:21.3333 19:14 20:154.35699 #
-8.1474909503167487311980216047047e-06 1:0 2:0 3:1.6032 4:1.24402 5:0.18865199 6:0.58000499 7:0.74564803 8:1.64368 9:2.1373601 10:2.1373601 11:86.373596 12:47.222198 13:0.66666698 14:0.59285003 15:0.70244199 16:22.829901 17:0 18:0 19:-3 20:-171.33299 #
6.2087910402510069715099894072097e-05 1:3 2:17.3333 3:2.1703 4:0.461557 5:1.00023 6:0.58851802 7:1.12012 8:0.835796 9:0.64224702 10:0.64224702 11:48.2407 12:57.3274 13:0.66666698 14:0.98374897 15:0.98249698 16:13.6321 17:3 18:17.3333 19:3 20:17.3333 #
-6.1859115278858119862936959520994e-05 1:0 2:0 3:1.9684 4:0.40619701 5:0.47054201 6:0.683927 7:0.35730001 8:0.99684 9:0.39756799 10:0.45163199 11:34.603699 12:71.625702 13:0.66666698 14:0.78925401 15:0.81639999 16:9.9210196 17:1 18:98 19:4 20:147 #
-2.275023026797253367786710853693e-08 1:0 2:0 3:3.4428201 4:1.0482 5:0.473097 6:0.26315901 7:0.54485601 8:0.12466 9:0.72487402 10:0.70492899 11:48.811798 12:65.012901 13:0.66666698 14:0.90836102 15:0.92467898 16:13.7837 17:0 18:0 19:2 20:147 #
6.2087910402510069715099894072097e-05 1:3 2:12.75 3:4.6437302 4:0.28452799 5:0.835675 6:0.66806698 7:0.49275401 8:0.856475 9:0.78775102 10:1.2168601 11:58.521198 12:89.559601 13:0.33333299 14:0.87241602 15:0.84786999 16:16.305 17:3 18:12.75 19:3 20:12.75 #
6.2087910402510069715099894072097e-05 1:4 2:18 3:3.69397 4:0.454725 5:0.59297299 6:0.67281997 7:0.381017 8:0.92162001 9:0.57114297 10:1.89326 11:66.593803 12:60.9123 13:0.66666698 14:0.73399001 15:0.88907099 16:18.313101 17:4 18:18 19:4 20:18 #
-6.2087910402510069715099894072097e-05 1:5 2:20.799999 3:1.7365 4:1.02674 5:0.58954102 6:2.6752 7:0.976004 8:1.11559 9:1.59255 10:1.09284 11:53.521198 12:38.560501 13:0.444444 14:0.92002898 15:0.80249602 16:15.0201 17:5 18:20.799999 19:5 20:20.799999 #
6.2087910402510069715099894072097e-05 1:3 2:14 3:2.69541 4:0.222379 5:0.60812098 6:0.55835402 7:0.36733499 8:0.34065899 9:0.266045 10:1.34149 11:66.2258 12:89.801201 13:0.66666698 14:0.89578998 15:0.82945901 16:18.2234 17:3 18:14 19:3 20:14 #
-6.2087910402510069715099894072097e-05 1:3 2:12.6667 3:1.75791 4:1.96252 5:0.26005301 6:0.783517 7:1.43452 8:0.23476601 9:1.51452 10:1.04019 11:54.6273 12:72.338501 13:0.444444 14:0.91105998 15:0.97280902 16:15.3069 17:3 18:12.6667 19:6 20:100.333 #
-5.1111148687319732288741880310567e-05 1:1 2:14 3:1.21289 4:0.63781601 5:0.295261 6:0.62945998 7:0.56735098 8:0.27445701 9:0.88045597 10:2.8840699 11:77.065201 12:80.327797 13:0.66666698 14:0.80802399 15:0.85509199 16:20.781 17:1 18:14 19:0 20:-172 #
6.2087910402510069715099894072097e-05 1:0 2:0 3:2.9333501 4:0.21419001 5:0.74706 6:0.82072699 7:0.97934097 8:0.573964 9:1.0700001 10:0.66090202 11:48.6175 12:68.077599 13:0.444444 14:0.97828603 15:0.95522898 16:13.7321 17:-2 18:-78 19:0 20:76.666702 #
-6.2087910402510069715099894072097e-05 1:0 2:0 3:2.19312 4:0.342042 5:0.523682 6:0.12943 7:0.36164501 8:0.18901999 9:0.299862 10:0.299862 11:36.499599 12:74.232498 13:0.444444 14:0.96401298 15:0.97499597 16:10.4466 17:-1 18:-100 19:-2 20:-60 #
-1.8735764693864812144210446609449e-05 1:-1 2:-57.5 3:2.1517501 4:2.5367801 5:0.445025 6:0.40408099 7:0.20041201 8:0.236541 9:0.53018302 10:0.371849 11:36.701801 12:59.386902 13:0.33333299 14:0.91553998 15:0.91344398 16:10.5025 17:-1 18:-57.5 19:-2 20:-93.25 #
-5.9154591133168812151690157952189e-05 1:-1 2:-31.0625 3:1.32164 4:1.40679 5:0.817514 6:1.0764199 7:0.22442999 8:0.307179 9:0.54636401 10:1.5981899 11:61.1548 12:68.339203 13:0.444444 14:0.77657199 15:0.78820801 16:16.9695 17:-1 18:-31.0625 19:0 20:175.875 #
-6.2087910402510069715099894072097e-05 1:0 2:-2.75 3:1.38652 4:0.210471 5:1.51346 6:0.4912 7:0.46001199 8:0.89594698 9:0.57816702 10:0.584674 11:41.215801 12:58.640099 13:0.444444 14:0.77589202 15:0.81603801 16:11.7412 17:0 18:-2.75 19:5 20:93.541702 #
-2.3833866945276677848310382945574e-06 1:2 2:7.75 3:1.56566 4:1.14788 5:0.55699301 6:0.56164902 7:0.347076 8:0.241064 9:0.231684 10:0.52732301 11:44.839001 12:88.3004 13:0.66666698 14:0.880786 15:0.93277103 16:12.7224 17:2 18:7.75 19:4 20:136.5 #
-4.1812885273411243996534436551116e-05 1:-1 2:-15.5 3:2.3264101 4:0.267131 5:1.53793 6:0.445544 7:0.40856701 8:0.313932 9:0.39500999 10:0.68974102 11:49.382198 12:66.377602 13:1 14:0.95333099 15:0.92919999 16:13.9347 17:-2 18:-54 19:1 20:141.16701 #
-6.2087910402510069715099894072097e-05 1:0 2:-36 3:3.38922 4:0.090810999 5:0.383582 6:0.617504 7:0.543006 8:0.22221901 9:0.51823401 10:0.87063497 11:51.9076 12:67.796204 13:0.66666698 14:0.80142701 15:0.896047 16:14.5992 17:0 18:-36 19:-1 20:-112.5 #
-9.4159329657744930106065897601475e-07 1:0 2:0 3:4.0071998 4:2.9200699 5:0.45983201 6:0.25092101 7:0.548406 8:0.32318699 9:0.27277601 10:0.291538 11:37.115601 12:89.404701 13:0.66666698 14:0.98376298 15:0.993653 16:10.6167 17:0 18:0 19:4 20:240.25 #
-6.2087910402510069715099894072097e-05 1:0 2:0 3:2.72141 4:0.46107799 5:2.48912 6:0.32145599 7:0.221609 8:0.26387101 9:0.382725 10:0.382725 11:39.09 12:83.814003 13:0.66666698 14:0.92285299 15:0.943178 16:11.16 17:0 18:0 19:8 20:160.875 #
-3.352886640910776941404414230874e-05 1:3 2:36 3:3.9188499 4:0.42128301 5:0.19594599 6:0.242033 7:0.218955 8:0.151895 9:0.205125 10:0.205125 11:27.6334 12:87.569099 13:0.33333299 14:0.96264601 15:0.92804402 16:7.9665699 17:3 18:36 19:2 20:-248 #
-6.2087910402510069715099894072097e-05 1:3 2:13.6667 3:1.85297 4:0.62492502 5:0.60385603 6:0.263569 7:0.33708 8:0.66974199 9:0.34069401 10:0.34069401 11:34.824001 12:58.4636 13:0.66666698 14:0.88866001 15:0.91442698 16:9.9822302 17:3 18:13.6667 19:7 20:161.14301 #
-7.9809247959782014542745587348804e-07 1:1 2:-5.5 3:2.5250199 4:1.37634 5:0.430711 6:0.382943 7:0.383369 8:0.13933501 9:0.44782901 10:0.157276 11:27.361799 12:53.320599 13:0.66666698 14:0.966658 15:0.98044598 16:7.88976 17:1 18:-5.5 19:5 20:120.333 #
-4.5735188965929216464885442849919e-06 1:3 2:19.3333 3:3.0457201 4:1.22878 5:0.76049101 6:0.73653901 7:0.353544 8:0.47618899 9:0.161255 10:0.161255 11:26.0119 12:74.690697 13:0.66666698 14:0.99022299 15:0.95955002 16:7.5074 17:3 18:19.3333 19:9 20:177.61099 #
-6.2087910402510069715099894072097e-05 1:1 2:59 3:1.31665 4:0.33469599 5:0.253097 6:0.49980399 7:0.35206801 8:0.27301699 9:0.40912899 10:0.44363299 11:42.5135 12:70.482597 13:0.66666698 14:0.94517899 15:0.97756302 16:12.0941 17:3 18:71.333298 19:3 20:71.333298 #
-1.3600382242168029321249637930702e-05 1:0 2:0 3:5.1881099 4:0.71821398 5:0.147247 6:0.375386 7:0.58905298 8:1.06945 9:0.52015299 10:0.40996301 11:41.387798 12:47.777 13:0.66666698 14:0.95455599 15:0.97256702 16:11.7881 17:2 18:82 19:2 20:82 #
-6.0151368233876537690990593532092e-05 1:-1 2:-10 3:1.4359699 4:1.03874 5:1.39807 6:1.44551 7:0.89501399 8:0.984676 9:2.4686899 10:2.4686899 11:75.810204 12:22.863501 13:1 14:0.71096897 15:0.65340298 16:20.493999 17:-2 18:-55 19:-6 20:-161.66701 #
-6.2087910402510069715099894072097e-05 1:0 2:0 3:2.8636401 4:0.38491699 5:0.29752001 6:0.74214602 7:0.43748599 8:0.221123 9:0.359568 10:0.359568 11:38.343899 12:58.740002 13:0.66666698 14:0.95863098 15:0.960522 16:10.9551 17:0 18:0 19:5 20:119.4 #
-2.8889772425299572013515647661563e-07 1:-1 2:-6 3:4.8501201 4:3.68435 5:1.07718 6:0.49357301 7:0.798011 8:0.31263301 9:0.89383602 10:0.451377 11:40.557999 12:40.798599 13:0.66666698 14:0.834409 15:0.93069798 16:11.5618 17:-1 18:-6 19:0 20:176 #
-2.7595666787620885129642470112721e-06 1:0 2:0 3:2.12099 4:0.53885001 5:0.417081 6:0.29533601 7:0.65600997 8:0.71137601 9:0.504722 10:0.504722 11:40.550301 12:61.949699 13:0.66666698 14:0.87220299 15:0.86289799 16:11.5597 17:-1 18:-92 19:-1 20:-92 #
-5.6013397265208502546172952829551e-05 1:-2 2:-18.9688 3:2.4600201 4:1.27281 5:1.10902 6:0.37170899 7:1.07853 8:0.126103 9:0.70900798 10:0.69930899 11:49.256901 12:78.415199 13:0.444444 14:0.93358302 15:0.951451 16:13.9016 17:-2 18:-18.9688 19:1 20:143.40601 #
-3.3260645825147907390581525355344e-05 1:1 2:6 3:1.24561 4:2.0134001 5:1.27802 6:0.33694899 7:0.73889202 8:0.454088 9:0.50293797 10:0.50293797 11:43.2696 12:53.9692 13:0.66666698 14:0.93304098 15:0.94715297 16:12.2989 17:0 18:-58 19:1 20:32 #
-7.6178836783382590340518714100426e-07 1:-1 2:-22 3:1.7445 4:0.32713699 5:0.16546699 6:0.97119701 7:2.10602 8:0.48118901 9:2.1570101 10:1.75207 11:62.0397 12:28.351 13:0.66666698 14:0.84304798 15:0.81217802 16:17.1908 17:-1 18:-22 19:-1 20:-9.1666698 #
-4.5211943199044730555720417175536e-06 1:1 2:52 3:2.49403 4:0.74856102 5:2.36801 6:0.51963198 7:0.60006499 8:0.35673901 9:0.49992099 10:0.49131399 11:42.584499 12:49.9338 13:0.66666698 14:0.86350799 15:0.91891003 16:12.1133 17:1 18:52 19:1 20:52 #
-6.2087910402510069715099894072097e-05 1:0 2:0 3:1.60045 4:0.72056299 5:2.9942501 6:0.67737901 7:0.51870602 8:0.73613697 9:0.70176202 10:0.596623 11:42.9702 12:68.718697 13:0.444444 14:0.69123501 15:0.85082603 16:12.2178 17:0 18:0 19:-1 20:-268.5 #
-6.2087910402510069715099894072097e-05 1:0 2:0 3:1.56629 4:0.85467398 5:2.87237 6:0.305574 7:0.499726 8:0.29990801 9:0.58376598 10:0.58376598 11:44.910999 12:45.567799 13:0.444444 14:0.95281899 15:0.94195402 16:12.7418 17:0 18:0 19:-3 20:-224 #
-3.2321902680845982685012285351434e-07 1:0 2:0 3:1.26679 4:0.67634499 5:0.31771499 6:1.27747 7:0.64604503 8:0.96109802 9:0.795627 10:0.795627 11:48.280499 12:43.340401 13:0.66666698 14:0.82474297 15:0.84671301 16:13.6427 17:0 18:0 19:2 20:166 #
-7.7899974517059504238239431295199e-06 1:0 2:0 3:4.5025301 4:0.748083 5:0.42014101 6:1.0383199 7:0.54994899 8:0.221957 9:0.524279 10:1.14429 11:57.254398 12:63.3092 13:0.33333299 14:0.92447501 15:0.94223499 16:15.9823 17:0 18:0 19:-1 20:-190 #
-4.121886441714123021883009467814e-07 1:-3 2:-33.333302 3:14.5123 4:0.32351899 5:0.131017 6:0.128961 7:0.16763499 8:0.12892599 9:0.17872301 10:0.112786 11:24.961 12:65.498497 13:0.444444 14:0.98148501 15:0.99560499 16:7.2090201 17:-3 18:-33.333302 19:2 20:180.66701 #
-2.0622931834481111760051796899518e-05 1:0 2:0 3:1.8365 4:1.60805 5:4.1452699 6:0.70282799 7:0.61480701 8:0.41913599 9:0.83516598 10:0.74369103 11:48.751499 12:43.306499 13:0.66666698 14:0.93384898 15:0.93184799 16:13.7677 17:0 18:0 19:0 20:0 #
-9.2066520015947561845007229841542e-06 1:0 2:0 3:2.07585 4:1.85584 5:3.50177 6:0.75592798 7:0.29263401 8:0.386549 9:0.48853901 10:0.48853901 11:41.063499 12:57.465199 13:0.66666698 14:0.88385999 15:0.90047002 16:11.6997 17:0 18:0 19:2 20:169 #
-3.731029635469212940969765957e-05 1:1 2:6 3:8.6006203 4:0.70455801 5:0.44960201 6:0.163436 7:0.243411 8:0.4614 9:0.207389 10:0.198129 11:31.811701 12:58.162399 13:0.66666698 14:0.99502802 15:0.99447697 16:9.1421499 17:1 18:6 19:0 20:-250 #
-6.2087910402510069715099894072097e-05 1:0 2:0 3:1.24353 4:0.57801998 5:0.59009397 6:0.47886899 7:0.69025397 8:0.80948299 9:0.60690397 10:0.62676698 11:46.182499 12:57.5811 13:0.66666698 14:0.90672898 15:0.91388601 16:13.0831 17:0 18:0 19:4 20:181 #
-5.885369366798611607486529928579e-05 1:2 2:11 3:2.4918101 4:0.92347503 5:2.5005801 6:0.60820901 7:0.375377 8:0.133711 9:0.26306701 10:0.76142401 11:50.730701 12:81.380997 13:0.33333299 14:0.91491699 15:0.98118198 16:14.2904 17:2 18:11 19:2 20:-90.666702 #
-6.2087910402510069715099894072097e-05 1:2 2:7 3:1.96692 4:0.90578997 5:0.35835901 6:0.178838 7:0.33383599 8:0.36005801 9:0.233073 10:0.27636299 11:32.1889 12:67.544403 13:0.444444 14:0.881181 15:0.928904 16:9.2476997 17:2 18:7 19:2 20:-236 #
-6.34571308426242573622923226484e-07 1:-2 2:-9.125 3:1.15206 4:1.44002 5:3.8909199 6:0.19133399 7:0.214699 8:0.47493199 9:1.57283 10:1.57283 11:69.8181 12:65.095299 13:0.66666698 14:0.85278201 15:0.814381 16:19.0902 17:-2 18:-9.125 19:-3 20:-49.333302 #
-4.2884995543511084256042137363707e-05 1:0 2:24 3:1.98642 4:1.9131401 5:0.38482001 6:0.59929699 7:5.1554399 8:1.12482 9:5.9251299 10:1.71747 11:63.537701 12:12.8459 13:0.444444 14:0.86875099 15:0.87791401 16:17.563 17:0 18:24 19:4 20:132.39999 #
-2.3766721615296748648660241087782e-05 1:1 2:10 3:2.6623299 4:0.41322601 5:1.77218 6:0.722794 7:2.37481 8:1.1734 9:1.01175 10:1.43116 11:72.101601 12:77.320396 13:0.66666698 14:0.795591 15:0.81812298 16:19.631599 17:1 18:10 19:2 20:151.5 #
-1.283526409267028039508373726818e-06 1:0 2:0 3:1.13551 4:0.096629702 5:0.53677601 6:0.65002501 7:0.97583401 8:0.74259299 9:1.03903 10:0.82692099 11:51.0835 12:44.98 13:0.66666698 14:0.81335002 15:0.89805102 16:14.3831 17:-1 18:-77 19:-2 20:-134 #
-1.449080511467526477531464479398e-05 1:2 2:16 3:1.79111 4:0.72116399 5:0.48438501 6:0.95531499 7:0.59125799 8:0.375056 9:0.53425097 10:0.53425097 11:44.058399 12:68.7705 13:0.66666698 14:0.90239203 15:0.91970301 16:12.5121 17:2 18:16 19:3 20:-167.5 #
-1.5754643099043953030375525559137e-06 1:5 2:27.200001 3:5.3713999 4:0.50537699 5:0.26764199 6:0.45037901 7:0.29643601 8:0.201783 9:0.20111699 10:0.331247 11:37.300499 12:82.983597 13:0.66666698 14:0.9655 15:0.94987899 16:10.6677 17:5 18:27.200001 19:7 20:-83 #
-3.1799241147507776618363894982622e-08 1:-2 2:0.66666698 3:4.2988 4:2.2144201 5:0.305143 6:0.237261 7:0.46682701 8:0.50072598 9:0.35190499 10:0.46403801 11:43.672401 12:76.8955 13:0.66666698 14:0.99819601 15:0.98584902 16:12.4078 17:-3 18:-21 19:1 20:196.2 #
-1.4846651189806443923801084275316e-06 1:0 2:0 3:2.19344 4:1.40286 5:0.194249 6:0.369838 7:0.101922 8:0.176098 9:0.234437 10:0.14935701 11:25.0182 12:87.610298 13:0.66666698 14:0.95819801 15:0.96297801 16:7.2252698 17:2 18:96 19:5 20:106.4 #
-5.7033807878728888106530103829783e-08 1:0 2:0 3:1.94418 4:0.41354701 5:0.49066401 6:0.782166 7:0.268801 8:0.30781901 9:0.37270099 10:0.37270099 11:35.6203 12:65.207603 13:0.66666698 14:0.84876001 15:0.891433 16:10.2032 17:0 18:0 19:3 20:139.33299 #
-2.0814168325137798599804017651849e-06 1:0 2:0 3:2.4144599 4:1.30955 5:0.60441297 6:0.39200899 7:0.697312 8:0.162535 9:0.56202698 10:0.56202698 11:45.675201 12:82.909103 13:0.166667 14:0.92044699 15:0.93229699 16:12.9471 17:0 18:0 19:0 20:0 #
-3.8653476264888242397432804864366e-05 1:0 2:0 3:1.40061 4:0.630723 5:0.74755502 6:0.480407 7:0.67812502 8:0.37408501 9:0.84926802 10:0.543109 11:44.503399 12:52.316799 13:0.66666698 14:0.98482198 15:0.95493197 16:12.6321 17:0 18:0 19:-1 20:-190 #
-6.63024649087326761048855061631e-08 1:0 2:-2 3:1.86533 4:3.0343699 5:0.56588697 6:0.29142699 7:0.46925801 8:0.243734 9:0.44796401 10:0.44796401 11:42.017399 12:49.338001 13:0.66666698 14:0.96988702 15:0.96941501 16:11.9593 17:0 18:-2 19:0 20:-2 #
-1.1724521193856585199455366819166e-05 1:1 2:6 3:2.5290301 4:0.38857001 5:0.94495302 6:0.36960301 7:0.58471102 8:0.30461699 9:0.51811999 10:0.51811999 11:44.683701 12:66.101501 13:0.66666698 14:0.96063101 15:0.96581399 16:12.6806 17:1 18:6 19:0 20:-216 #
-6.2087883723851424941364562926083e-05 1:3 2:20 3:3.00369 4:2.7144499 5:0.55176198 6:0.585796 7:1.42067 8:0.170104 9:1.66926 10:0.52759397 11:44.938 12:83.1679 13:0.444444 14:0.87155402 15:0.94405198 16:12.7491 17:3 18:20 19:2 20:-182.5 #
-3.4220249590791865977818311805869e-07 1:-1 2:-14 3:7.2643499 4:1.2210799 5:0.81132001 6:0.88095301 7:0.59275401 8:0.38376999 9:0.64617699 10:0.42228401 11:42.0242 12:52.097401 13:0.66666698 14:0.975061 15:0.96771902 16:11.9612 17:-1 18:-14 19:-1 20:-14 #
-5.7875653544411362122143471786728e-08 1:-1 2:-6 3:1.92284 4:1.5493 5:0.40576699 6:0.247509 7:0.405756 8:0.19804899 9:0.37744501 10:0.29658699 11:37.2173 12:83.944298 13:0.66666698 14:0.96263999 15:0.989227 16:10.6448 17:-1 18:-6 19:2 20:155.66701 #
-3.2029290976273852098801797616545e-05 1:0 2:0 3:4.0702 4:0.63866901 5:1.00481 6:0.61574602 7:0.16844501 8:0.45467901 9:0.434973 10:0.676292 11:49.261501 12:68.551003 13:0.444444 14:0.81263602 15:0.95991099 16:13.9028 17:0 18:0 19:-1 20:-220 #
-1.3851544389062095397058271828428e-05 1:1 2:5.5 3:3.20473 4:9.7267704 5:1.45068 6:0.37950599 7:0.38246101 8:0.43808901 9:0.416473 10:0.416473 11:41.759701 12:80.441498 13:0.444444 14:0.995112 15:0.96201402 16:11.8893 17:1 18:5.5 19:0 20:-218.5 #
-1.3134791867205826724693262796961e-07 1:0 2:0 3:1.8623199 4:0.356163 5:1.30142 6:0.32167399 7:0.138794 8:0.185568 9:0.20797101 10:0.197401 11:31.2328 12:86.808296 13:0.66666698 14:0.98314297 15:0.98646098 16:8.97995 17:0 18:0 19:5 20:162.8 #
-4.4152161760453197255835156020964e-05 1:0 2:0 3:3.62503 4:1.3247401 5:0.59980297 6:1.1770101 7:0.35410199 8:0.222268 9:0.77180499 10:0.95622301 11:56.912399 12:77.889099 13:0.66666698 14:0.87762898 15:0.86425 16:15.8949 17:0 18:0 19:-1 20:-174.75 #
-2.8242716702088022442951320556404e-07 1:0 2:0 3:2.4503801 4:0.56778699 5:0.447 6:1.10166 7:0.35331699 8:0.648817 9:1.5663199 10:0.77772301 11:51.1376 12:53.7094 13:0.66666698 14:0.93397999 15:0.886343 16:14.3974 17:0 18:0 19:1 20:244 #
-2.0930382542749123510501807476913e-07 1:0 2:0 3:1.6978199 4:0.28423601 5:0.56146199 6:0.71709299 7:0.57044202 8:0.159523 9:0.204992 10:0.72462702 11:50.173 12:64.229897 13:0.66666698 14:0.87225002 15:0.953399 16:14.1435 17:0 18:0 19:1 20:198 #
-3.8297340607488146457543926048928e-06 1:0 2:0 3:2.8487401 4:0.19758099 5:0.751127 6:0.28661299 7:0.37487701 8:0.267207 9:0.37777099 10:0.38344201 11:38.5979 12:53.5326 13:0.33333299 14:0.90066397 15:0.94046599 16:11.0249 17:0 18:0 19:1 20:238 #
-3.520525231883464838296415866381e-07 1:-2 2:-25.5 3:2.5596299 4:1.14103 5:1.04325 6:0.742378 7:0.473014 8:0.50677198 9:0.26124001 10:0.26124001 11:31.874701 12:72.843803 13:0.66666698 14:0.90010899 15:0.93686903 16:9.15979 17:-2 18:-25.5 19:1 20:130.04201 #
-7.8138578270442492820085922389239e-08 1:0 2:0 3:2.0982101 4:2.0325999 5:1.8989201 6:0.16569901 7:0.27175 8:0.174447 9:0.224637 10:0.41168901 11:41.0448 12:60.408901 13:0.66666698 14:0.90726799 15:0.97047102 16:11.6946 17:0 18:0 19:-2 20:-187.75 #
-1.5186813188702479571586456338905e-06 1:-1 2:-7 3:1.67169 4:1.82297 5:0.83449 6:5.4269099 7:1.75326 8:1.2342499 9:2.54533 10:1.43822 11:61.3503 12:29.7162 13:0.66666698 14:0.87944299 15:0.83760202 16:17.018499 17:0 18:35 19:0 20:35 #
-3.7893681068187359210069908854734e-08 1:1 2:58 3:2.72598 4:0.89716297 5:0.78509301 6:0.22808699 7:0.42041799 8:0.289186 9:0.31191599 10:0.31191599 11:37.6614 12:79.823402 13:0.66666698 14:0.98850501 15:0.98351502 16:10.7672 17:1 18:58 19:2 20:112 #
-3.6294146201466489544407156841999e-08 1:0 2:0 3:1.53699 4:0.093297303 5:0.34184399 6:0.33110699 7:0.59104198 8:1.0679899 9:1.12603 10:1.12603 11:56.6633 12:57.952301 13:0.66666698 14:0.91848898 15:0.94806999 16:15.8311 17:-1 18:-86 19:-2 20:-164 #
-1.0977377012526741168352978350597e-07 1:0 2:0 3:3.19155 4:0.332551 5:1.60035 6:1.2186 7:0.215679 8:0.32853699 9:0.48503599 10:0.48503599 11:42.847698 12:87.921204 13:0.444444 14:0.92930198 15:0.885472 16:12.1847 17:-1 18:-69.875 19:-1 20:-69.875 #
-8.2377639055108108079306106219519e-08 1:1 2:57.5 3:1.64505 4:1.48331 5:0.60099697 6:0.39193401 7:0.46162599 8:0.179757 9:0.37001801 10:0.41731799 11:40.360699 12:78.281097 13:0.444444 14:0.93524301 15:0.92901099 16:11.5079 17:2 18:64.25 19:2 20:64.25 #
