SVM-light Version V6.02
0 # kernel type
3 # kernel parameter -d 
1 # kernel parameter -g 
1 # kernel parameter -s 
1 # kernel parameter -r 
empty# kernel parameter -u 
20 # highest feature index 
2179 # number of training documents 
35 # number of support vectors plus 1 
1.0010822 # threshold b, each following line is a SV (starting with alpha*y)
-2.4478047281305259641470684073283e-07 1:-1 2:-60 3:3.2256899 4:0.33478001 5:0.24389 6:0.241327 7:0.192626 8:0.30119401 9:0.18692 10:0.18692 11:30.687099 12:64.270599 13:0.66666698 14:0.98686898 15:0.99052399 16:8.8268604 17:-1 18:-60 19:5 20:164 #
5.6517922670702754463049888311588e-05 1:4 2:26.9 3:9.9081097 4:0.73829299 5:0.88946199 6:1.2286 7:1.92896 8:1.48616 9:1.57649 10:1.57649 11:60.918301 12:64.8367 13:0.33333299 14:0.98405403 15:0.988612 16:16.9102 17:5 18:32.25 19:5 20:32.25 #
-5.6517922670702754463049888311588e-05 1:6 2:30.8333 3:2.0957999 4:0.80288398 5:3.181 6:0.380842 7:1.11796 8:0.89405799 9:1.10267 10:1.10267 11:55.662399 12:40.7122 13:0.166667 14:0.968692 15:0.96608597 16:15.574 17:9 18:43.888901 19:9 20:43.888901 #
5.6517922670702754463049888311588e-05 1:3 2:-5.5 3:3.6911299 4:0.98764402 5:0.320622 6:0.50101602 7:1.59891 8:0.887079 9:0.978903 10:1.60353 11:61.300499 12:44.997501 13:0.33333299 14:0.91223902 15:0.946055 16:17.006001 17:3 18:-5.5 19:3 20:-5.5 #
-1.2364013760865130291425814657025e-05 1:0 2:0 3:28.065001 4:0.23783401 5:0.20087101 6:0.28029701 7:0.27491099 8:0.32612699 9:0.29746199 10:0.28586701 11:37.063702 12:52.789101 13:0.444444 14:0.992908 15:0.99940002 16:10.6024 17:0 18:0 19:1 20:297 #
5.6517922670702754463049888311588e-05 1:6 2:35.333302 3:2.95439 4:0.47353199 5:1.12228 6:0.63803297 7:1.36673 8:2.6073599 9:1.89407 10:1.8976001 11:62.784698 12:29.2614 13:0.444444 14:0.98775601 15:0.98891699 16:17.376301 17:8 18:45 19:8 20:45 #
-3.1998870977177629182364171356312e-05 1:0 2:0 3:3.72403 4:0.37755701 5:0.41913399 6:1.0986 7:0.67190301 8:0.46401501 9:0.70660299 10:0.89555597 11:53.4053 12:50.437698 13:0.66666698 14:0.89519501 15:0.927149 16:14.99 17:0 18:0 19:1 20:294 #
5.6517922670702754463049888311588e-05 1:3 2:19 3:3.60818 4:0.18584 5:1.7412699 6:4.5947099 7:0.69068301 8:1.18204 9:0.916655 10:1.67945 11:63.172798 12:75.1409 13:0.444444 14:0.95054197 15:0.88995898 16:17.4727 17:7 18:39.25 19:7 20:39.25 #
-5.5772758710778171098443323216998e-06 1:0 2:0 3:17.1556 4:0.66707999 5:0.503111 6:0.59657502 7:0.54980499 8:0.57382101 9:0.59919298 10:0.53447503 11:45.914101 12:51.486698 13:0.66666698 14:0.99947101 15:0.99886501 16:13.0112 17:3 18:88.666702 19:4 20:92 #
5.6517922670702754463049888311588e-05 1:3 2:20.5 3:5.5377598 4:0.29841501 5:1.7903399 6:1.94877 7:1.46831 8:1.2397701 9:1.48096 10:1.67811 11:61.979198 12:31.8785 13:0.444444 14:0.92617601 15:0.98195302 16:17.175699 17:4 18:27.3333 19:4 20:27.3333 #
-2.100160505138365385491283632291e-09 1:0 2:-1.65 3:2.65906 4:0.24834999 5:1.6436501 6:10.4572 7:2.1076901 8:1.23577 9:2.8545899 10:2.8545899 11:79.949799 12:85.645798 13:1 14:0.82630801 15:0.867818 16:21.4312 17:1 18:9.96667 19:1 20:9.96667 #
-1.1043468067101214202807568653952e-09 1:5 2:21.6786 3:3.1675501 4:0.28713301 5:3.7543199 6:2.4595799 7:0.97522801 8:3.6961901 9:4.0662298 10:4.0662298 11:84.427399 12:75.259201 13:0.66666698 14:0.84011102 15:0.89116699 16:22.4135 17:5 18:21.6786 19:3 20:-61.8214 #
-7.4225722247422565861418516930392e-06 1:5 2:36 3:1.61455 4:1.4675601 5:0.85665202 6:0.47880399 7:0.492751 8:0.57210797 9:0.49183899 10:0.49183899 11:43.551498 12:63.8881 13:0.66666698 14:0.98279601 15:0.954404 16:12.3752 17:6 18:41 19:5 20:-253 #
5.6517922670702754463049888311588e-05 1:6 2:28.1667 3:3.03386 4:5.91188 5:1.36936 6:2.5372901 7:1.21639 8:0.69425899 9:1.24369 10:1.2545 11:59.766102 12:36.523499 13:0.444444 14:0.85511398 15:0.927239 16:16.620199 17:9 18:43 19:9 20:43 #
-5.6517922670702754463049888311588e-05 1:6 2:33.666698 3:3.51548 4:1.12229 5:0.68741602 6:0.97547603 7:1.05281 8:1.3377399 9:1.33732 10:1.09727 11:55.984402 12:33.869999 13:0.33333299 14:0.98749 15:0.98832703 16:15.6569 17:9 18:46.888901 19:9 20:46.888901 #
-3.4610691232131987258007627117351e-05 1:6 2:35.333302 3:4.0226598 4:0.37649 5:1.0687701 6:0.46106601 7:1.48317 8:1.36762 9:1.20883 10:1.20883 11:57.298302 12:33.384201 13:0.166667 14:0.96650302 15:0.98040903 16:15.9936 17:8 18:45 19:8 20:45 #
-5.6517922670702754463049888311588e-05 1:6 2:29 3:3.9647701 4:1.8073601 5:0.69488001 6:1.4702899 7:2.21998 8:0.492497 9:2.5072 10:3.1375101 11:88.046898 12:52.5009 13:1 14:0.95004499 15:0.87337101 16:23.1826 17:8 18:41.5 19:3 20:-166.89999 #
-1.5165317781310890215933084856914e-06 1:-1 2:-8 3:3.49807 4:9.7818499 5:3.02279 6:2.1043899 7:0.63790399 8:0.40377399 9:2.69155 10:2.70715 11:66.844299 12:27.2852 13:1 14:0.967058 15:0.93358397 16:18.374001 17:-1 18:-8 19:0 20:230 #
-4.0260253606133769596164655169002e-06 1:2 2:-28 3:1.48374 4:0.76740301 5:2.55951 6:0.72164798 7:0.85118097 8:0.250184 9:0.40994501 10:2.6960499 11:85.107597 12:80.100601 13:0.66666698 14:0.761244 15:0.87704098 16:22.559799 17:2 18:-28 19:2 20:-28 #
-2.434269775870293359533794164129e-05 1:3 2:0.5 3:8.1503801 4:1.12429 5:0.53122902 6:0.69953603 7:0.47921699 8:0.51993799 9:0.51982802 10:0.444226 11:42.998001 12:49.112 13:0.66666698 14:0.99565601 15:0.992679 16:12.2254 17:3 18:0.5 19:11 20:159.66701 #
-1.1483041911320725735057290961549e-05 1:3 2:27.3333 3:4.2274699 4:4.7543101 5:2.5935299 6:6.1508298 7:1.54014 8:0.45500201 9:4.3653598 10:4.3653598 11:74.114197 12:33.9454 13:1 14:0.98093998 15:0.91478902 16:20.1022 17:3 18:27.3333 19:2 20:-138.66701 #
-2.0762069638882241565114306069972e-05 1:0 2:-11.25 3:2.8092101 4:0.186425 5:1.43571 6:10.4814 7:4.25419 8:1.6151 9:3.5366399 10:3.5366399 11:83.739098 12:89.348297 13:0.66666698 14:0.79098302 15:0.86670703 16:22.2647 17:0 18:-11.25 19:0 20:-11.25 #
-9.0785185459865691548486665851669e-07 1:0 2:0 3:5.8158002 4:7.07021 5:7.2302999 6:6.6823401 7:1.22755 8:0.953556 9:10.3695 10:5.0423398 11:84.786903 12:6.5391502 13:1 14:0.912099 15:0.92735201 16:22.4909 17:0 18:0 19:0 20:0 #
-4.8583934245793186645911987397994e-06 1:5 2:3.4166701 3:1.07672 4:0.37623399 5:0.916677 6:1.11377 7:0.89481997 8:0.80338699 9:0.902987 10:0.902987 11:53.108501 12:41.873001 13:0.33333299 14:0.93094999 15:0.96157098 16:14.9128 17:8 18:9.3333302 19:8 20:9.3333302 #
-2.7118213802024282443881020299159e-06 1:2 2:32 3:3.8185899 4:5.6840601 5:0.67021102 6:0.32284701 7:0.321244 8:0.48010299 9:0.344345 10:0.344345 11:39.046398 12:68.726501 13:0.66666698 14:0.98341298 15:0.984927 16:11.148 17:6 18:64 19:7 20:-80.666702 #
-1.927839666819673031250559347427e-06 1:-2 2:8.3333302 3:4.3108802 4:5.62255 5:16.707899 6:11.7143 7:3.32394 8:4.7827101 9:6.4858999 10:4.9664502 11:82.547897 12:72.798401 13:0.66666698 14:0.890504 15:0.92933899 16:22.005301 17:-2 18:8.3333302 19:-2 20:8.3333302 #
-7.5426373841115581381222554568922e-09 1:2 2:16.5 3:2.7393999 4:16.7547 5:0.81802398 6:0.222794 7:0.188908 8:0.19183201 9:0.255483 10:0.255483 11:33.379501 12:58.633099 13:0.66666698 14:0.97479099 15:0.96934301 16:9.5801897 17:3 18:41.333302 19:0 20:-188.33299 #
-1.1935364297270791014639497451544e-07 1:5 2:26.450001 3:3.2042699 4:0.941724 5:0.25237 6:0.47051999 7:0.26010001 8:0.415865 9:0.52450699 10:0.52450699 11:42.9505 12:67.858101 13:0.66666698 14:0.85309798 15:0.90072399 16:12.2125 17:4 18:-56.799999 19:8 20:47.090302 #
-2.3449672295195206902991861760976e-08 1:3 2:25 3:3.7959599 4:0.62696999 5:0.39186299 6:0.63873601 7:0.49678099 8:0.34466299 9:0.51406199 10:0.42208499 11:41.775501 12:47.229801 13:0.444444 14:0.95931 15:0.97769803 16:11.8936 17:3 18:25 19:10 20:168 #
-3.4262140954838348589576307867688e-08 1:1 2:60 3:1.55986 4:1.07039 5:0.97109902 6:3.02141 7:0.54168999 8:0.87928301 9:0.89358902 10:1.41658 11:67.115196 12:56.418301 13:0.66666698 14:0.88370001 15:0.842987 16:18.439699 17:4 18:79.5 19:5 20:-88.636398 #
-4.4717203648708681029688705166336e-06 1:5 2:40.200001 3:2.3385999 4:1.28659 5:0.166658 6:0.32987899 7:0.410808 8:0.50748998 9:0.39239201 10:0.39239201 11:41.273499 12:52.9002 13:0.66666698 14:0.99792397 15:0.99501902 16:11.7569 17:7 18:53 19:7 20:-203.75 #
-3.9998970556603041445753454752321e-08 1:3 2:19 3:3.33724 4:0.182449 5:0.485589 6:1.09421 7:0.92539102 8:1.19962 9:1.50744 10:2.76437 11:76.306099 12:44.027302 13:0.444444 14:0.94717598 15:0.90412301 16:20.6077 17:3 18:19 19:2 20:-243 #
-9.0324337276356556269355912308638e-08 1:-1 2:-14 3:4.5201802 4:0.91319299 5:0.48796499 6:1.45701 7:1.13817 8:0.64734799 9:1.82117 10:5.6915302 11:88.572899 12:85.9646 13:0.66666698 14:0.86029702 15:0.94263899 16:23.2924 17:-1 18:-14 19:5 20:137.286 #
-9.4344258273759695754279164248146e-09 1:2 2:56 3:4.2716599 4:0.21844099 5:0.99854499 6:1.57991 7:0.87841898 8:1.57145 9:1.25872 10:7.6059699 11:86.2528 12:79.791801 13:0.33333299 14:0.807356 15:0.93633598 16:22.804199 17:3 18:58.916698 19:3 20:58.916698 #
