SVM-light Version V6.02
0 # kernel type
3 # kernel parameter -d 
1 # kernel parameter -g 
1 # kernel parameter -s 
1 # kernel parameter -r 
empty# kernel parameter -u 
20 # highest feature index 
2243 # number of training documents 
21 # number of support vectors plus 1 
1.003532 # threshold b, each following line is a SV (starting with alpha*y)
-1.8817849235949432075420961751888e-05 1:3 2:25.4792 3:2.44613 4:0.23939399 5:0.095323898 6:0.12786201 7:0.16966499 8:0.416004 9:0.10248 10:0.0275607 11:8.7498102 12:84.153503 13:0.68965501 14:0.97682202 15:0.984384 16:2.7261801 17:3 18:25.4792 19:3 20:25.4792 #
2.4570215140692736689514638626086e-05 1:0 2:0 3:2.4196501 4:0.31041399 5:0.71605402 6:0.436773 7:0.191347 8:0.25211301 9:0.24157301 10:0.24157301 11:28.3514 12:83.575401 13:0.66666698 14:0.87845802 15:0.90611702 16:8.7521296 17:0 18:0 19:0 20:0 #
-1.3386298790906506634692738066938e-05 1:0 2:0 3:1.2373 4:0.52801901 5:0.129169 6:0.43437999 7:0.87246799 8:0.51281703 9:0.31594101 10:2.8422301 11:79.598701 12:80.126503 13:0.66666698 14:0.768821 15:0.83021802 16:22.875999 17:0 18:0 19:1 20:300 #
2.4570215140692736689514638626086e-05 1:1 2:13.6667 3:2.1228499 4:4.36588 5:1.5932699 6:1.34249 7:0.33448601 8:0.75119197 9:0.33959699 10:1.84234 11:79.147598 12:89.095802 13:0.68965501 14:0.857831 15:0.72954798 16:22.7677 17:5 18:31.6667 19:7 20:42.666698 #
-1.9782598400558823462038089691095e-06 1:0 2:0 3:3.4425001 4:0.32121199 5:0.099856503 6:0.64729702 7:1.52968 8:1.66045 9:2.5492001 10:4.4010301 11:78.671799 12:51.7952 13:0.66666698 14:0.83556002 15:0.86742097 16:22.653099 17:0 18:0 19:-1 20:-280.5 #
2.4570215140692736689514638626086e-05 1:0 2:0 3:1.5765001 4:0.25348601 5:0.275314 6:0.26453799 7:0.47465399 8:0.480037 9:0.29108801 10:0.29108801 11:28.0532 12:80.158401 13:0.444444 14:0.828291 15:0.85217202 16:8.6619301 17:0 18:0 19:-1 20:-134 #
-7.1270975904836895487882986177652e-06 1:0 2:0 3:1.95963 4:0.57239902 5:0.160597 6:0.38025901 7:0.0647614 8:0.124005 9:0.094187401 10:0.0766626 11:10.4958 12:83.046303 13:0.444444 14:0.88050598 15:0.94134003 16:3.26878 17:0 18:0 19:-1 20:-298 #
-1.5764027100341614122868891256779e-05 1:0 2:0 3:1.61005 4:0.503609 5:0.57671899 6:0.30574301 7:0.27478299 8:0.35142401 9:0.21701901 10:1.08526 11:56.537899 12:89.7043 13:0.66666698 14:0.96741301 15:0.90104401 16:16.926001 17:0 18:0 19:-1 20:-268 #
-1.9195462288720796933678535561851e-06 1:-2 2:-54 3:1.93492 4:0.117746 5:0.150509 6:0.27398399 7:0.386572 8:0.098590903 9:0.243329 10:0.244232 11:30.5361 12:88.153 13:0.66666698 14:0.84657598 15:0.93381399 16:9.4110804 17:1 18:27.5 19:2 20:56 #
-3.0518488700545063366459733189551e-09 1:0 2:0 3:3.0158601 4:0.34562299 5:0.118924 6:0.236913 7:0.073031597 8:0.043070499 9:0.055619501 10:0.117503 11:23.5217 12:86.943901 13:0.33333299 14:0.98022199 15:0.977467 16:7.2844 17:1 18:100 19:0 20:-180 #
-7.5625008595062333249803288026669e-07 1:1 2:20 3:2.8246601 4:0.282334 5:0.40248701 6:0.66019601 7:0.265975 8:0.32745901 9:0.91121101 10:2.7136099 11:67.114899 12:87.626999 13:0.66666698 14:0.76815498 15:0.94290799 16:19.754999 17:2 18:50 19:3 20:-107 #
-2.8092163513737666846736829029396e-06 1:0 2:0 3:7.12534 4:0.63215899 5:1.57573 6:0.84891897 7:1.4681799 8:0.537642 9:1.41962 10:4.1428099 11:76.030701 12:86.358704 13:0.68965501 14:0.87180001 15:0.93137997 16:22.010099 17:2 18:91 19:3 20:153 #
-6.2391076843631920951279562492786e-06 1:0 2:0 3:1.9136699 4:0.076338001 5:0.146117 6:0.58161801 7:0.33175099 8:0.57033098 9:0.184848 10:2.00702 11:84.904701 12:89.079399 13:0.66666698 14:0.81633598 15:0.830809 16:24.1224 17:0 18:0 19:0 20:0 #
-3.0399123967513952751517969375072e-06 1:-1 2:-33 3:1.6401 4:21.3897 5:2.9424801 6:0.25899601 7:0.221182 8:0.49282399 9:0.713696 10:0.113914 11:10.9762 12:79.186401 13:0.66666698 14:0.91556299 15:0.90697199 16:3.4179499 17:-1 18:-33 19:-1 20:-33 #
-1.9927544525101537065125967274071e-08 1:3 2:9.3333302 3:2.83235 4:0.23791599 5:0.33270401 6:0.099384502 7:0.968256 8:0.608841 9:0.60027802 10:6.8819299 11:84.835503 12:74.764198 13:0.166667 14:0.91326702 15:0.89916199 16:24.1064 17:3 18:9.3333302 19:1 20:-277.66699 #
-2.5972600855376868223944181179874e-07 1:7 2:33.285702 3:10.7986 4:0.37000901 5:0.68572903 6:0.671139 7:0.50415802 8:0.25897101 9:0.41177601 10:0.34590799 11:39.383999 12:82.601799 13:0.66666698 14:0.91253102 15:0.98482502 16:12.0424 17:10 18:45.299999 19:13 20:79.076897 #
-9.8399367642578372192274649421506e-09 1:2 2:23.5 3:1.71975 4:3.5641999 5:7.5597301 6:1.87264 7:0.65293401 8:0.63877201 9:0.74812299 10:2.0632 11:64.546997 12:79.5896 13:0.57142901 14:0.74021399 15:0.95008898 16:19.0828 17:2 18:23.5 19:-1 20:-165.5 #
-1.4123851057416814125389237233321e-06 1:6 2:28.6667 3:2.4072599 4:0.55889499 5:0.611031 6:0.87588501 7:0.30658701 8:0.34099799 9:0.47727999 10:0.49431899 11:43.613602 12:73.8396 13:0.444444 14:0.89078301 15:0.94344598 16:13.2759 17:7 18:33.4286 19:11 20:-149.83299 #
-6.7715746425663649971050592202282e-08 1:1 2:7 3:1.5917799 4:0.078691401 5:0.47644499 6:0.103574 7:0.047464401 8:0.321008 9:0.35668799 10:0.35668799 11:38.518002 12:87.690804 13:0.66666698 14:0.97035599 15:0.94358897 16:11.7878 17:0 18:-86 19:3 20:6.75 #
-1.0043392614948327020406044357559e-07 1:4 2:1.4 3:1.40874 4:0.2394 5:0.73530698 6:0.28521401 7:0.42919901 8:0.135902 9:0.25580999 10:0.769602 11:48.488701 12:83.903603 13:0.444444 14:0.83748698 15:0.87777603 16:14.6751 17:5 18:12.5 19:9 20:65.5 #
