SVM-light Version V6.02
0 # kernel type
3 # kernel parameter -d 
1 # kernel parameter -g 
1 # kernel parameter -s 
1 # kernel parameter -r 
empty# kernel parameter -u 
20 # highest feature index 
2139 # number of training documents 
1232 # number of support vectors plus 1 
1.0000033 # threshold b, each following line is a SV (starting with alpha*y)
-6.6232265701768288800648065115774e-12 1:3 2:22.0833 3:4.3151002 4:7.19068 5:0.153364 6:0.218704 7:1.13765 8:4.2153602 9:0.32738999 10:10.8395 11:87.485603 12:75.564201 13:1 14:0.92313802 15:0.93423301 16:23.0648 17:3 18:22.0833 19:1 20:-169.646 #
6.6232265701768288800648065115774e-12 1:4 2:29.4688 3:1.98772 4:0.97137898 5:0.77598798 6:0.87360698 7:1.7078201 8:0.58190799 9:1.3950599 10:2.4124801 11:64.976898 12:61.405602 13:0.166667 14:0.788674 15:0.787251 16:17.917801 17:7 18:48.25 19:7 20:48.25 #
-6.6232265701768288800648065115774e-12 1:0 2:0 3:1.42809 4:0.75798601 5:0.69135201 6:1.56671 7:1.91301 8:0.40009901 9:1.17953 10:2.0753801 11:84.399002 12:71.449303 13:0.33333299 14:0.642573 15:0.72833401 16:22.4074 17:0 18:0 19:2 20:295 #
6.0752264270387769663028481898032e-12 1:-2 2:-13 3:2582.95 4:58.2715 5:238.98399 6:1271.99 7:168787 8:34301200 9:3603930 10:3603930 11:89.999199 12:39.435101 13:0.66666698 14:1 15:1 16:23.5879 17:-2 18:-13 19:-5 20:-53.333302 #
-6.6232265701768288800648065115774e-12 1:0 2:-29 3:534.97601 4:1.7580301 5:11.3735 6:195.26601 7:302.13501 8:3907.05 9:240316 10:240316 11:89.984802 12:17.0488 13:0.166667 14:0.99999601 15:0.99999702 16:23.5849 17:1 18:-5.1666698 19:5 20:6.625 #
6.6232265701768288800648065115774e-12 1:0 2:0 3:1.68882 4:0.45993501 5:0.527426 6:1.36296 7:1.09894 8:0.85326999 9:2.0852599 10:3.2491 11:86.432098 12:22.0945 13:0.33333299 14:0.61611003 15:0.62209302 16:22.8423 17:0 18:0 19:-1 20:-296 #
-6.6232265701768288800648065115774e-12 1:1 2:7 3:804.19202 4:236.42599 5:8311.5303 6:51810.898 7:8514.0801 8:6672.9199 9:723664 10:723664 11:89.986504 12:11.4112 13:0.166667 14:0.99999899 15:0.99999797 16:23.5853 17:-1 18:-30 19:-7 20:-40.564098 #
-6.6232265701768288800648065115774e-12 1:-2 2:-13.3333 3:3228.3501 4:762.479 5:11492.1 6:23702.4 7:166352 8:4119210 9:1396730 10:2234540 11:89.982498 12:32.171902 13:1 14:1 15:1 16:23.5844 17:-2 18:7.75 19:-2 20:11.1714 #
6.6232265701768288800648065115774e-12 1:1 2:8 3:2.4314101 4:0.44290501 5:0.51052499 6:0.566199 7:1.48716 8:0.34246501 9:1.0515701 10:2.12413 11:88.206902 12:66.094704 13:0.33333299 14:0.65876102 15:0.801709 16:23.216 17:1 18:8 19:-1 20:-256 #
6.6232265701768288800648065115774e-12 1:0 2:0 3:2.3874199 4:0.481208 5:1.14236 6:1.44195 7:1.5951101 8:0.78871602 9:0.98569101 10:1.03269 11:77.850304 12:51.430801 13:0.166667 14:0.53905702 15:0.65863699 16:20.959299 17:0 18:0 19:-2 20:-261.5 #
6.6232265701768288800648065115774e-12 1:4 2:22.4 3:189.041 4:155.556 5:3595.6201 6:50901.898 7:194152 8:349153 9:20161.801 10:29937.4 11:89.9804 12:24.182699 13:0.33333299 14:0.99995297 15:0.99997598 16:23.584 17:4 18:3.6666701 19:7 20:-5.5500002 #
-6.6232265701768288800648065115774e-12 1:0 2:0 3:2.2491701 4:0.31332099 5:1.12167 6:0.75210601 7:0.33842 8:0.42161301 9:0.160266 10:0.160266 11:20.870199 12:79.8489 13:0.33333299 14:0.91279799 15:0.91484499 16:6.0419402 17:0 18:0 19:1 20:281 #
6.6232265701768288800648065115774e-12 1:3 2:11.5 3:2974.52 4:3334.72 5:176778 6:287840 7:617121 8:46704 9:228592 10:1607040 11:89.979103 12:63.456299 13:0.166667 14:0.99999797 15:1 16:23.5837 17:3 18:11.5 19:7 20:-3.8333299 #
-6.6232265701768288800648065115774e-12 1:0 2:0 3:2.6655099 4:1.04294 5:0.380667 6:0.386839 7:0.352469 8:0.54658902 9:1.4962699 10:0.28087601 11:23.503 12:64.848602 13:0.33333299 14:0.91185898 15:0.82720298 16:6.7940402 17:0 18:0 19:1 20:272 #
-6.6232265701768288800648065115774e-12 1:1 2:10 3:2.1884699 4:0.77707499 5:1.03751 6:1.2261 7:0.60677803 8:0.70155901 9:37.272999 10:3.8151 11:85.127602 12:6.87603 13:0.33333299 14:0.98400497 15:0.88867599 16:22.563999 17:0 18:-86 19:0 20:-86 #
-6.6232265701768288800648065115774e-12 1:0 2:-10.5 3:224.05701 4:29069 5:29311.1 6:171387 7:25838.801 8:31095.1 9:39493.602 10:25654.699 11:89.9897 12:6.2090502 13:0.166667 14:0.99998599 15:0.99997997 16:23.585899 17:0 18:-4.6666698 19:3 20:22.553801 #
-6.6232265701768288800648065115774e-12 1:-1 2:-18.3333 3:287.34698 4:752.11401 5:151.09399 6:304.72 7:920.21198 8:41201.102 9:24026.199 10:24026.199 11:89.963402 12:52.2276 13:0.444444 14:0.99997598 15:0.99998099 16:23.5805 17:-1 18:-12.3 19:-7 20:-36.552898 #
6.6232265701768288800648065115774e-12 1:5 2:15.8929 3:1.54105 4:0.78704101 5:0.59325099 6:0.91611201 7:1.27359 8:3.8373499 9:5.6757498 10:0.505081 11:42.2738 12:19.125 13:0.166667 14:0.89745802 15:0.88395798 16:12.029 17:7 18:22.694401 19:6 20:-60.722198 #
6.6232265701768288800648065115774e-12 1:4 2:26 3:2.0269899 4:0.74945599 5:0.71498901 6:0.89598399 7:2.34203 8:1.26849 9:5.6080999 10:0.55644101 11:46.063801 12:15.8458 13:1 14:0.947402 15:0.97615701 16:13.0513 17:4 18:26 19:3 20:-172 #
6.6232265701768288800648065115774e-12 1:3 2:7.5 3:1.39353 4:0.90253401 5:0.48949999 6:0.93597603 7:0.512191 8:3.5106399 9:3.7288599 10:1.27807 11:60.265301 12:29.3216 13:0.166667 14:0.854716 15:0.86317301 16:16.746099 17:3 18:7.5 19:0 20:-193.5 #
6.6232265701768288800648065115774e-12 1:2 2:16.25 3:6.6652799 4:1.8422101 5:0.29765499 6:1.01051 7:1.0616 8:1.32131 9:5.2093701 10:0.52486801 11:44.804401 12:44.412201 13:0.66666698 14:0.99309701 15:0.96673799 16:12.7131 17:2 18:16.25 19:2 20:16.25 #
6.6232265701768288800648065115774e-12 1:-1 2:-3.8333299 3:5.3196502 4:1.55305 5:0.398913 6:1.6065 7:4.5975699 8:236.924 9:3.90856 10:3.90856 11:76.319397 12:56.280899 13:1 14:0.96676302 15:0.93924499 16:20.610701 17:1 18:12.5333 19:1 20:-9.61905 #
6.6232265701768288800648065115774e-12 1:1 2:24 3:1.81379 4:0.32039699 5:0.278382 6:0.20721699 7:0.593373 8:2.0127001 9:3.97089 10:0.73990798 11:50.5667 12:4.0356598 13:0.166667 14:0.75329101 15:0.72325897 16:14.2472 17:0 18:-70 19:9 20:-13 #
6.6232265701768288800648065115774e-12 1:2 2:5.3333302 3:89.9412 4:17.8074 5:1165.35 6:9102.0996 7:2508.53 8:1474.5 9:4334.9199 10:4334.9199 11:89.809898 12:36.5116 13:0.33333299 14:0.99985802 15:0.99988198 16:23.5488 17:0 18:-20 19:-5 20:-36.294102 #
6.6232265701768288800648065115774e-12 1:1 2:20 3:1.53819 4:2.10272 5:0.59850401 6:1.68287 7:0.52697402 8:0.67294198 9:0.79398501 10:1.65194 11:61.1544 12:55.215698 13:0.33333299 14:0.48379499 15:0.89727902 16:16.9694 17:1 18:20 19:1 20:20 #
6.6232265701768288800648065115774e-12 1:1 2:-14 3:1031.87 4:1313.52 5:1979 6:14002.5 7:49401.102 8:179562 9:576279 10:576279 11:89.9645 12:29.2145 13:0.166667 14:0.99999899 15:0.99999899 16:23.5807 17:3 18:-2.07143 19:0 20:-34.666698 #
6.6232265701768288800648065115774e-12 1:1 2:-3.8333299 3:2.12468 4:2.9393699 5:1.30327 6:5.1286201 7:2.21644 8:1.35625 9:4.4174399 10:1.16737 11:61.0215 12:8.91222 13:0.166667 14:0.81113702 15:0.91454101 16:16.9361 17:1 18:-3.8333299 19:-4 20:-123.762 #
6.6232265701768288800648065115774e-12 1:0 2:21 3:2.55758 4:1.65548 5:1.02908 6:6.89009 7:2.31657 8:0.892676 9:1.2690099 10:0.84202099 11:52.015202 12:50.1507 13:0.166667 14:0.77507401 15:0.87618297 16:14.6274 17:0 18:21 19:5 20:211.33299 #
6.6232265701768288800648065115774e-12 1:-2 2:-19 3:1288.29 4:4437.5601 5:70205.297 6:46270.898 7:7051.6001 8:12427.4 9:17102.9 10:525695 11:89.9589 12:49.0518 13:0.33333299 14:0.99997097 15:0.99999899 16:23.579599 17:-1 18:-6 19:-3 20:-7.3714299 #
6.6232265701768288800648065115774e-12 1:4 2:18.799999 3:1030.79 4:386.79401 5:19020 6:30873.801 7:2152.5601 8:649.08502 9:4732.9102 10:410491 11:89.969002 12:33.893902 13:0.166667 14:0.99994302 15:0.99999899 16:23.5816 17:4 18:18.799999 19:5 20:-14.7857 #
-6.9993813984873601074113579249175e-13 1:1 2:-38 3:3950.4399 4:1305.71 5:38754.398 6:1390190 7:3608990 8:1.9334e+08 9:5594720 10:15654700 11:89.998001 12:67.348999 13:0.444444 14:1 15:1 16:23.587601 17:2 18:-16.6667 19:3 20:-64.777802 #
-6.6232265701768288800648065115774e-12 1:2 2:-6.3333302 3:2.9595799 4:2.8490801 5:56.7771 6:5.16009 7:17.0497 8:1.28081 9:7.1825299 10:7.1825299 11:89.6875 12:30.7166 13:0.166667 14:0.919433 15:0.891433 16:23.5236 17:2 18:-6.3333302 19:2 20:-6.3333302 #
-6.6232265701768288800648065115774e-12 1:0 2:3 3:173.14 4:20.291599 5:108.733 6:226.28101 7:3317.5801 8:390211 9:22846.301 10:20012.4 11:89.977203 12:21.269899 13:0.444444 14:0.99997699 15:0.99997002 16:23.5833 17:0 18:7.3333302 19:1 20:-3.53333 #
-6.6232265701768288800648065115774e-12 1:3 2:21.5 3:112.975 4:5.5524702 5:567.92603 6:2803.4299 7:464.45099 8:387.134 9:47401.102 10:47401.102 11:89.986603 12:9.0875301 13:0.166667 14:0.99998099 15:0.99996901 16:23.5853 17:6 18:37.714298 19:5 20:-12.303 #
-6.6232265701768288800648065115774e-12 1:2 2:23.3333 3:2.52561 4:0.47570801 5:0.55135798 6:0.56512201 7:2.82552 8:1.45684 9:1.1612099 10:6.4289198 11:79.778099 12:65.649002 13:1 14:0.91445601 15:0.88789302 16:21.3929 17:2 18:23.3333 19:2 20:23.3333 #
-5.3103933339088958011694155565956e-17 1:0 2:12 3:3.6407001 4:0.917144 5:2.2433801 6:0.27682301 7:2.30826 8:0.64143002 9:0.27225 10:0.179625 11:11.8671 12:89.774498 13:1 14:0.91174901 15:0.84564698 16:3.4484501 17:-1 18:2.4000001 19:3 20:15.3 #
-6.6232265701768288800648065115774e-12 1:-3 2:-24 3:4.5655699 4:0.89513201 5:2.22261 6:4.3604898 7:2.57147 8:4.2742801 9:6.8670301 10:26.4055 11:89.430099 12:40.0303 13:0.66666698 14:0.90164798 15:0.96160799 16:23.4704 17:-6 18:-51.666698 19:-7 20:172 #
-6.6232265701768288800648065115774e-12 1:-1 2:-10 3:2.7518499 4:0.66099101 5:1.22571 6:1.01284 7:3.2602501 8:0.37409401 9:2.8206501 10:6.7195802 11:87.207001 12:54.879799 13:0.166667 14:0.91055298 15:0.91603303 16:23.006201 17:-1 18:-10 19:-1 20:-10 #
-6.7839945741519729321190028896761e-17 1:1 2:12 3:2.9760001 4:0.4621 5:0.42949399 6:1.73869 7:5.0422802 8:1.5718 9:1.49743 10:1.49743 11:60.537498 12:70.206596 13:0.66666698 14:0.97236001 15:0.97977501 16:16.8146 17:1 18:12 19:0 20:-140 #
-6.6232265701768288800648065115774e-12 1:-2 2:-14 3:3.9166701 4:0.57244402 5:3.9249401 6:3.30406 7:2.4918799 8:12.2457 9:27.9324 10:27.9324 11:84.415703 12:10.2195 13:0.33333299 14:0.98484099 15:0.95684201 16:22.410999 17:-2 18:-14 19:-7 20:-103 #
-6.6232265701768288800648065115774e-12 1:2 2:22 3:1.49212 4:1.27335 5:0.085731901 6:0.29412201 7:0.25123399 8:0.29852599 9:0.364748 10:6.16292 11:82.380997 12:75.748802 13:0.444444 14:0.90152299 15:0.87779999 16:21.9687 17:2 18:22 19:1 20:-133.33299 #
-6.6232265701768288800648065115774e-12 1:-1 2:7.6666698 3:64.138 4:665.08801 5:2088.76 6:2701.3401 7:70454.602 8:9443.6797 9:583.77502 10:840.99902 11:89.123299 12:60.072498 13:0.166667 14:0.99981898 15:0.99974602 16:23.4069 17:-3 18:-7.6666698 19:-5 20:-2.24038 #
-6.6232265701768288800648065115774e-12 1:-1 2:-50 3:2.52775 4:0.130124 5:0.97152197 6:1.06271 7:2.42255 8:4.4113798 9:12.6366 10:8.58113 11:85.089401 12:10.795 13:0.166667 14:0.94282597 15:0.88785499 16:22.555901 17:-1 18:-50 19:-3 20:-97.666702 #
-6.6232265701768288800648065115774e-12 1:5 2:27 3:42.738499 4:17.4062 5:379.686 6:161.463 7:378.48599 8:95021.102 9:127.288 10:1626.02 11:89.9422 12:59.432499 13:0.444444 14:0.99846298 15:0.99947399 16:23.576099 17:4 18:-59.5 19:-3 20:-120.286 #
-6.6232265701768288800648065115774e-12 1:1 2:24 3:348.798 4:61.051998 5:860.15302 6:277.28299 7:62.299599 8:1085.74 9:98.292801 10:161998 11:89.980003 12:73.5009 13:0.444444 14:0.99616998 15:0.99999499 16:23.5839 17:1 18:24 19:-2 20:-146.5 #
-6.6232265701768288800648065115774e-12 1:-3 2:12.3929 3:1844.29 4:1592.08 5:18351.801 6:8159.77 7:23875.801 8:657033 9:592373 10:638323 11:89.977402 12:31.0618 13:0.444444 14:0.99999899 15:0.99999899 16:23.583401 17:-2 18:16.5417 19:-5 20:-10.9286 #
-9.8541813020169564856441250375855e-16 1:-1 2:-5.5 3:13666.8 4:6231.79 5:393584 6:460100 7:11766300 8:5.7121101e+08 9:8358520 10:8358520 11:89.994598 12:89.689796 13:0.444444 14:1 15:1 16:23.586901 17:1 18:38.5 19:0 20:-45.799999 #
6.6232265701768288800648065115774e-12 1:-2 2:-47 3:23.561001 4:5.7519002 5:131.731 6:1555.88 7:577.19702 8:466.86401 9:26.2383 10:473.75101 11:89.8022 12:14.6394 13:0.166667 14:0.96874303 15:0.99856001 16:23.5473 17:-4 18:-63 19:0 20:76.285698 #
6.6232265701768288800648065115774e-12 1:5 2:-14.4167 3:48.353001 4:19.0525 5:62.473 6:913.86603 7:88.942497 8:108.892 9:93.430496 10:240.569 11:89.5037 12:50.0009 13:0.166667 14:0.993653 15:0.99849302 16:23.4856 17:4 18:-24.75 19:9 20:17.0441 #
6.6232265701768288800648065115774e-12 1:-3 2:-26.6667 3:260.91699 4:452.58301 5:9995.9199 6:12868.3 7:8511.6104 8:13122.6 9:19726.699 10:37825 11:89.971901 12:43.965302 13:0.66666698 14:0.99998802 15:0.99998403 16:23.582199 17:-3 18:42.25 19:-16 20:44.5 #
6.6232265701768288800648065115774e-12 1:2 2:19 3:184.623 4:210.03799 5:5080.6201 6:5879.7598 7:9479.3398 8:9823.6904 9:10674.7 10:38830.398 11:89.969101 12:19.594601 13:0.166667 14:0.99995399 15:0.999982 16:23.581699 17:1 18:-43 19:-7 20:6.9523802 #
6.6232265701768288800648065115774e-12 1:-1 2:-1.5 3:305.29401 4:3122.77 5:1847.4399 6:4465.02 7:3083.3301 8:590.16602 9:8441.54 10:8441.54 11:89.696198 12:72.961601 13:0.166667 14:0.99997699 15:0.99997801 16:23.5254 17:-1 18:4.8333302 19:3 20:66.514297 #
6.6232265701768288800648065115774e-12 1:6 2:20.8571 3:539.69202 4:564.08801 5:48891.301 6:14862.9 7:51248.801 8:4048.1399 9:17463.9 10:65750 11:89.960197 12:66.716904 13:0.33333299 14:0.99996501 15:0.99999499 16:23.5798 17:6 18:20.8571 19:2 20:-141 #
-6.6232265701768288800648065115774e-12 1:-1 2:0 3:97.485603 4:63417.898 5:36407.602 6:23945.6 7:2949.5 8:10654.3 9:2921.52 10:2921.52 11:89.848999 12:47.745899 13:0.66666698 14:0.99981701 15:0.99984199 16:23.5569 17:-1 18:12 19:0 20:18 #
6.6232265701768288800648065115774e-12 1:0 2:2 3:3.7827499 4:2.2372 5:4.1532602 6:21.688 7:138.298 8:306.81601 9:9.0204697 10:9.0204697 11:89.737602 12:8.8690701 13:0.166667 14:0.89085197 15:0.92186397 16:23.534 17:-2 18:-25.3333 19:-2 20:13.3143 #
-6.6232265701768288800648065115774e-12 1:2 2:25 3:165.582 4:16.7693 5:1621.45 6:9406.6299 7:17655.699 8:12049.7 9:58318.5 10:58318.5 11:89.989403 12:1.37387 13:0.33333299 14:0.99998301 15:0.99997503 16:23.5858 17:2 18:25 19:-4 20:-29.799999 #
6.6232265701768288800648065115774e-12 1:3 2:19 3:2.0818 4:0.65982598 5:20.3589 6:326.422 7:0.62897301 8:2.6321299 9:1.87284 10:25.1168 11:89.673302 12:24.025801 13:0.166667 14:0.72933602 15:0.892609 16:23.5207 17:3 18:19 19:5 20:32.166698 #
-6.6232265701768288800648065115774e-12 1:-3 2:-26 3:149.47501 4:1857.54 5:3185.8999 6:1351.66 7:1145.73 8:238.037 9:636.05499 10:14358.9 11:89.952599 12:8.3260298 13:0.66666698 14:0.998972 15:0.99994302 16:23.5783 17:-4 18:-33.400002 19:-3 20:54.833302 #
6.6232265701768288800648065115774e-12 1:5 2:10 3:2.85341 4:1.41409 5:0.371364 6:1.34513 7:0.95468199 8:0.245483 9:1.16501 10:0.90472198 11:50.601501 12:80.540398 13:0.166667 14:0.77930701 15:0.88281697 16:14.2564 17:6 18:14.7143 19:5 20:-59.785702 #
-6.6232265701768288800648065115774e-12 1:3 2:8 3:701.14697 4:8.6470299 5:322.849 6:6881.0898 7:92547.703 8:4898420 9:48523.102 10:308174 11:89.991699 12:55.402401 13:0.166667 14:0.99999899 15:0.99999899 16:23.5863 17:3 18:8 19:4 20:-29.75 #
6.6232265701768288800648065115774e-12 1:-1 2:14.1667 3:23.285 4:2.1313601 5:28.923401 6:489.58801 7:396.60999 8:58.415501 9:587.32202 10:587.32202 11:88.388802 12:2.80568 13:0.166667 14:0.99988401 15:0.99862099 16:23.254 17:2 18:20.2857 19:-3 20:-18.6154 #
6.6232265701768288800648065115774e-12 1:0 2:0 3:2.1210401 4:0.547409 5:0.409895 6:3.8871701 7:0.80385703 8:1.93604 9:1.99879 10:0.73438102 11:43.049801 12:23.3944 13:0.166667 14:0.69147497 15:0.798684 16:12.2394 17:0 18:0 19:1 20:289 #
6.6232265701768288800648065115774e-12 1:3 2:52 3:3.36092 4:1.08549 5:0.50985098 6:4.6016898 7:30.5231 8:5.2248502 9:12.5962 10:12.5962 11:88.996002 12:20.729401 13:0.33333299 14:0.94121498 15:0.92392099 16:23.3804 17:5 18:-3.3333299 19:5 20:-57.285702 #
6.6232265701768288800648065115774e-12 1:-2 2:7.3333302 3:8.31709 4:1.74182 5:32.336601 6:134.88699 7:37.271702 8:17.2055 9:55.793301 10:43.184502 11:89.878998 12:14.367 13:0.166667 14:0.98701698 15:0.98398101 16:23.563101 17:-4 18:4 19:-2 20:78.25 #
-6.6232265701768288800648065115774e-12 1:2 2:33 3:152.938 4:51.5201 5:125.68 6:882.57202 7:1409.79 8:47739.699 9:24094.6 10:24094.6 11:89.903801 12:26.0492 13:0.66666698 14:0.99997699 15:0.99997097 16:23.568199 17:3 18:-19.5 19:7 20:-102.367 #
-6.6232265701768288800648065115774e-12 1:0 2:1 3:110.185 4:5.8730698 5:120.943 6:204.356 7:223.92101 8:15210.4 9:157.42101 10:3336.1101 11:89.7799 12:75.995903 13:0.33333299 14:0.99938601 15:0.99988103 16:23.5427 17:-1 18:-1.33333 19:-8 20:-92.800003 #
6.6232265701768288800648065115774e-12 1:-3 2:18 3:12.6445 4:3.20824 5:3.07797 6:28.7749 7:108.993 8:67.496498 9:236.58501 10:236.58501 11:89.804703 12:10.0783 13:0.166667 14:0.99614102 15:0.99522197 16:23.5478 17:-3 18:18 19:-4 20:15.8 #
6.6232265701768288800648065115774e-12 1:-2 2:-12.6667 3:2.6639099 4:3.0524299 5:0.69612002 6:6.3600502 7:9.5650101 8:40.8797 9:1.95434 10:0.73880303 11:51.134998 12:52.332699 13:0.33333299 14:0.80128402 15:0.84209102 16:14.3967 17:-3 18:-29.5 19:-6 20:-37.333302 #
-6.6232265701768288800648065115774e-12 1:-1 2:-14 3:26.7712 4:0.16833501 5:0.117778 6:0.49631301 7:0.48749101 8:3.81691 9:0.19750901 10:787.34003 11:88.927399 12:69.112602 13:0.66666698 14:0.91395003 15:0.99923199 16:23.366199 17:-4 18:-49.599998 19:-7 20:22.3333 #
6.6232265701768288800648065115774e-12 1:0 2:0 3:2.6652 4:0.30716601 5:0.352106 6:0.33574 7:1.31341 8:1.05075 9:0.434508 10:0.44155201 11:38.0779 12:61.4133 13:1 14:0.86298603 15:0.90475899 16:10.8819 17:-1 18:-94 19:-2 20:-100 #
-6.6232265701768288800648065115774e-12 1:2 2:16 3:1.19916 4:0.35203499 5:1.00826 6:1.5802701 7:0.68238598 8:1.01059 9:1.85666 10:0.87779701 11:50.458199 12:24.2656 13:0.166667 14:0.60106498 15:0.67630398 16:14.2187 17:1 18:-54 19:1 20:-54 #
6.6232265701768288800648065115774e-12 1:0 2:-4 3:2.3986399 4:1.2028 5:0.38289699 6:3.6084199 7:2.34533 8:0.84076202 9:1.90509 10:1.56637 11:71.001999 12:37.324799 13:0.166667 14:0.70489597 15:0.77762401 16:19.371799 17:0 18:-4 19:0 20:-4 #
-6.6232265701768288800648065115774e-12 1:1 2:-18.3333 3:25.430599 4:1320.9301 5:344.414 6:288.84 7:21.619699 8:180.14101 9:602.78497 10:602.78497 11:89.799599 12:34.197102 13:0.444444 14:0.99967498 15:0.99879903 16:23.5467 17:4 18:13.6667 19:-5 20:-57.825401 #
6.6232265701768288800648065115774e-12 1:0 2:0 3:5.1348801 4:0.657848 5:0.765396 6:7.30407 7:4.0764599 8:2.7938299 9:6.9023199 10:0.84514499 11:55.236198 12:13.1553 13:0.166667 14:0.91592401 15:0.87312299 16:15.4642 17:0 18:0 19:0 20:0 #
-6.6232265701768288800648065115774e-12 1:0 2:-4 3:95.294197 4:80.745697 5:101.313 6:3089.22 7:9487.7998 8:44743.5 9:31211.4 10:31211.4 11:89.993698 12:1.27794 13:0.33333299 14:0.99996799 15:0.99993199 16:23.5867 17:4 18:21 19:2 20:-9.75 #
6.6232265701768288800648065115774e-12 1:2 2:13 3:2.35076 4:0.48422199 5:0.73262501 6:2.01052 7:3.02121 8:1.3197 9:6.7081599 10:3.37865 11:86.014198 12:3.2276199 13:0.166667 14:0.85398299 15:0.83483702 16:22.7535 17:2 18:13 19:3 20:108 #
-6.6232265701768288800648065115774e-12 1:-3 2:-7.5 3:74.702003 4:0.266348 5:0.73019803 6:0.179598 7:138.379 8:42200 9:14588.5 10:14588.5 11:89.931099 12:21.2521 13:0.66666698 14:0.99995798 15:0.99993402 16:23.573799 17:0 18:18 19:0 20:46 #
6.6232265701768288800648065115774e-12 1:0 2:-6 3:12.1026 4:9.32201 5:67.930099 6:79.867401 7:68.887497 8:63.797699 9:96.926598 10:96.926598 11:89.235901 12:26.9272 13:0.33333299 14:0.99282598 15:0.992953 16:23.430201 17:5 18:28.7143 19:0 20:-55.833302 #
-6.6232265701768288800648065115774e-12 1:0 2:0 3:147.578 4:0.32207701 5:10.217 6:34.067699 7:431.698 8:2566.75 9:9566.9697 10:9566.9697 11:89.954002 12:27.4193 13:0.444444 14:0.99990898 15:0.99993998 16:23.5786 17:0 18:0 19:3 20:-4.25 #
-6.6232265701768288800648065115774e-12 1:-3 2:4.5999999 3:135.79201 4:852.47498 5:10409.7 6:30680.5 7:5856.6499 8:31107.199 9:14618.4 10:14618.4 11:89.851501 12:6.2849398 13:0.66666698 14:0.99994498 15:0.99996299 16:23.5574 17:-6 18:-9.5 19:-7 20:58.151501 #
6.6232265701768288800648065115774e-12 1:5 2:2.6666701 3:3.6082699 4:0.80216998 5:0.224777 6:3.4124801 7:4.3758101 8:1.34259 9:3.7720001 10:0.59265202 11:47.263401 12:25.2432 13:0.166667 14:0.863428 15:0.94981498 16:13.372 17:5 18:2.6666701 19:5 20:2.6666701 #
-6.6232265701768288800648065115774e-12 1:-2 2:-4.75 3:147.259 4:1777.41 5:4861.25 6:1276.0601 7:2201.8501 8:16832.6 9:5356.6001 10:5884.2202 11:89.862396 12:38.901199 13:1 14:0.999888 15:0.999937 16:23.5597 17:-4 18:-7.1999998 19:-3 20:9.4722204 #
6.6232265701768288800648065115774e-12 1:0 2:16 3:2.2202301 4:0.92828298 5:0.479487 6:1.2754 7:1.48256 8:1.4744101 9:2.42729 10:0.39774001 11:39.941898 12:41.359402 13:0.33333299 14:0.79729801 15:0.94341397 16:11.3934 17:0 18:16 19:-3 20:-5 #
-6.6232265701768288800648065115774e-12 1:-4 2:-12.25 3:81.690697 4:2292.8799 5:1991.1 6:9484.3896 7:2478.24 8:1018.34 9:995.71002 10:6363.1401 11:89.974701 12:28.253401 13:0.33333299 14:0.99934 15:0.999892 16:23.5828 17:-6 18:-22.5 19:-11 20:-100.7 #
6.6232265701768288800648065115774e-12 1:1 2:12 3:1.55989 4:11.1775 5:1.98769 6:2.0971799 7:1.6812 8:0.668275 9:2.1866701 10:0.71293002 11:42.091702 12:29.118299 13:0.33333299 14:0.65894699 15:0.74758101 16:11.9795 17:1 18:12 19:1 20:-126 #
-6.6232265701768288800648065115774e-12 1:-2 2:-9.8333302 3:23.3731 4:21.780399 5:1178.7 6:1062.47 7:274.25101 8:127.021 9:766.73102 10:766.73102 11:89.473198 12:0.52971101 13:1 14:0.998864 15:0.99855101 16:23.4793 17:-3 18:-4.4499998 19:-9 20:-36.4286 #
6.6232265701768288800648065115774e-12 1:-2 2:-25 3:2.68103 4:1.3523099 5:0.59686297 6:2.70399 7:4.39539 8:2.1156499 9:4.1687999 10:0.97251302 11:58.7953 12:18.015699 13:0.166667 14:0.79331499 15:0.84202701 16:16.374599 17:1 18:47 19:-1 20:-17 #
-6.6232265701768288800648065115774e-12 1:-2 2:10.4667 3:26.142 4:3.85197 5:63.877399 6:517.13898 7:298.42599 8:58.9501 9:1694.46 10:1694.46 11:89.994797 12:12.5044 13:0.166667 14:0.99956799 15:0.99893999 16:23.587 17:-3 18:4.6666698 19:-11 20:-9.8627501 #
6.6232265701768288800648065115774e-12 1:2 2:14.8333 3:4.15061 4:1.83786 5:0.32524699 6:6.54527 7:3.5871301 8:1.04176 9:9.1164904 10:2.1881599 11:74.782204 12:13.5816 13:0.166667 14:0.91004598 15:0.87898201 16:20.257 17:4 18:23.75 19:4 20:23.75 #
-6.6232265701768288800648065115774e-12 1:1 2:4 3:53.528 4:6.8471799 5:223.142 6:13.355 7:34.630798 8:891.51001 9:1109.55 10:1109.55 11:89.682098 12:41.167999 13:0.444444 14:0.99953502 15:0.999551 16:23.522499 17:1 18:4 19:6 20:7.7777801 #
6.6232265701768288800648065115774e-12 1:7 2:36.607101 3:1.45846 4:0.98271298 5:0.92574799 6:3.2248099 7:4.6234002 8:1.28708 9:3.1524401 10:0.627967 11:46.2444 12:31.706699 13:0.166667 14:0.88665998 15:0.916547 16:13.0997 17:11 18:50.295502 19:11 20:-117.387 #
-6.6232265701768288800648065115774e-12 1:0 2:4 3:24.9991 4:0.370231 5:0.26104 6:3.1168499 7:1.73199 8:1.17646 9:3.4748499 10:822.19702 11:89.7062 12:61.9827 13:0.33333299 14:0.91866702 15:0.999286 16:23.5275 17:-1 18:-10.6667 19:10 20:60.5714 #
6.6232265701768288800648065115774e-12 1:0 2:0 3:4.0384998 4:0.38355401 5:0.800524 6:2.74617 7:4.6630301 8:2.54844 9:10.0149 10:2.8687201 11:72.888802 12:1.08191 13:0.33333299 14:0.90070802 15:0.90097898 16:19.816401 17:0 18:0 19:-1 20:-243 #
-6.6232265701768288800648065115774e-12 1:3 2:24 3:18.2078 4:19.5825 5:53.349499 6:61.693199 7:79.9991 8:402.36301 9:90.124001 10:866.18298 11:89.844299 12:70.639603 13:0.33333299 14:0.99916703 15:0.99752802 16:23.556 17:4 18:-32 19:5 20:-20.200001 #
6.6232265701768288800648065115774e-12 1:-4 2:-20.5 3:2.0636699 4:2.47121 5:1.79444 6:2.2607901 7:4.3695402 8:0.68092197 9:1.55986 10:0.73295999 11:48.5522 12:38.572701 13:0.166667 14:0.72195601 15:0.85682201 16:13.7148 17:-4 18:-20.5 19:4 20:154.578 #
-6.6232265701768288800648065115774e-12 1:-4 2:-27.6 3:6.9065599 4:0.114624 5:3.4245801 6:33.499199 7:80.746498 8:147.767 9:79.465103 10:450.125 11:89.865898 12:2.1771801 13:0.444444 14:0.98771399 15:0.98290998 16:23.5604 17:-4 18:-27.6 19:-3 20:99 #
6.6232265701768288800648065115774e-12 1:1 2:22 3:3.0882499 4:1.11569 5:0.0828574 6:1.07289 7:2.3855 8:2.1565499 9:4.9149699 10:0.63359398 11:48.3377 12:17.2686 13:1 14:0.95289701 15:0.98985702 16:13.6579 17:1 18:22 19:1 20:22 #
-6.6232265701768288800648065115774e-12 1:3 2:19 3:18.677099 4:15.9234 5:373.69199 6:417.08801 7:112.044 8:118.474 9:266.29901 10:266.29901 11:89.085197 12:16.1691 13:1 14:0.99701297 15:0.99766099 16:23.399 17:3 18:19 19:5 20:32.166698 #
6.6232265701768288800648065115774e-12 1:-3 2:-11.3333 3:2.2079899 4:7.8112998 5:2.0380001 6:0.92387098 7:2.0711701 8:0.46531901 9:2.45383 10:1.23274 11:58.229 12:27.503 13:0.166667 14:0.902062 15:0.87696499 16:16.230801 17:-3 18:-11.3333 19:-7 20:53 #
-6.6232265701768288800648065115774e-12 1:5 2:43.599998 3:38.0602 4:8.1577101 5:49.378201 6:42.896 7:6.2288299 8:10.9525 9:8.4428902 10:266.71799 11:89.8479 12:10.7274 13:0.33333299 14:0.895432 15:0.99862599 16:23.5567 17:10 18:61.200001 19:10 20:61.200001 #
6.6232265701768288800648065115774e-12 1:0 2:0 3:2.22944 4:2.6717999 5:0.84830898 6:0.55907899 7:3.99193 8:1.02755 9:1.49266 10:1.69109 11:70.605103 12:27.310801 13:0.166667 14:0.554591 15:0.774167 16:19.2777 17:0 18:0 19:-3 20:-222 #
-6.6232265701768288800648065115774e-12 1:1 2:-5.3000002 3:13.9453 4:16.405899 5:29.714001 6:88.202698 7:421.70599 8:235.845 9:1020.22 10:1020.22 11:89.841599 12:6.5124698 13:0.66666698 14:0.99912697 15:0.99777299 16:23.555401 17:1 18:-5.3000002 19:-3 20:-54.666698 #
6.6232265701768288800648065115774e-12 1:0 2:0 3:2.9030399 4:4.46032 5:0.64379799 6:2.46403 7:1.85965 8:1.60969 9:3.32481 10:1.1984 11:59.2034 12:27.065701 13:0.166667 14:0.877823 15:0.959162 16:16.478001 17:3 18:84.333298 19:4 20:93 #
-6.6232265701768288800648065115774e-12 1:0 2:12 3:19.01 4:6.4291 5:39.360001 6:226.77699 7:82.3321 8:80.323601 9:491.37399 10:491.37399 11:89.575897 12:2.9295101 13:0.66666698 14:0.99809301 15:0.99721497 16:23.500601 17:0 18:8.8000002 19:-7 20:-20.6842 #
6.6232265701768288800648065115774e-12 1:2 2:12.2143 3:2.04879 4:0.98647702 5:0.42238101 6:1.2292 7:2.9423399 8:2.05003 9:3.03127 10:1.09059 11:56.308102 12:25.0968 13:0.166667 14:0.879439 15:0.92786902 16:15.74 17:2 18:12.2143 19:2 20:12.2143 #
-6.6232265701768288800648065115774e-12 1:1 2:1.83333 3:46.557598 4:2.7486 5:6.1539001 6:33.079899 7:406.103 8:3515.23 9:1195.46 10:1195.46 11:89.753304 12:35.094101 13:0.444444 14:0.99949801 15:0.999524 16:23.537201 17:1 18:1.83333 19:1 20:1.83333 #
-6.6232265701768288800648065115774e-12 1:2 2:12 3:18.347401 4:3.4130299 5:3.3683701 6:49.357899 7:45.706402 8:40.5909 9:39.763199 10:279.46701 11:89.2379 12:34.607101 13:0.166667 14:0.980793 15:0.99773198 16:23.430599 17:4 18:37.400002 19:8 20:120.111 #
6.6232265701768288800648065115774e-12 1:0 2:0 3:1.50748 4:6.7990198 5:0.445171 6:2.91063 7:0.92713797 8:0.84963101 9:0.91021901 10:1.0822001 11:55.112202 12:54.073101 13:0.166667 14:0.692985 15:0.85183001 16:15.4322 17:1 18:78 19:8 20:119.375 #
-6.6232265701768288800648065115774e-12 1:-2 2:-32 3:53.053799 4:4.4650898 5:0.21468 6:0.58812702 7:23.0116 8:1508.5 9:399.76501 10:399.76501 11:89.940598 12:70.764397 13:0.444444 14:0.99906802 15:0.99909401 16:23.5758 17:1 18:41.666698 19:-9 20:-50.367599 #
6.6232265701768288800648065115774e-12 1:0 2:0 3:2.8517499 4:0.399517 5:0.411778 6:2.3856299 7:1.90025 8:1.554 9:6.2575898 10:0.97650301 11:56.168499 12:7.1002002 13:0.444444 14:0.86015499 15:0.84600198 16:15.7042 17:-2 18:-82 19:-3 20:-12.5 #
-6.6232265701768288800648065115774e-12 1:2 2:56 3:43.277199 4:19.243799 5:142.242 6:212.939 7:208.229 8:251.46201 9:491.293 10:491.293 11:88.772697 12:15.3477 13:0.166667 14:0.99890399 15:0.99937099 16:23.334 17:1 18:-27.3333 19:-4 20:0.044444401 #
6.6232265701768288800648065115774e-12 1:2 2:-8 3:4.5261302 4:1.9649 5:0.45325199 6:0.54029602 7:4.4529901 8:0.53623098 9:3.4224501 10:3.4224501 11:84.423897 12:85.9095 13:0.33333299 14:0.92175102 15:0.90564799 16:22.412701 17:2 18:-8 19:3 20:-20 #
-6.6232265701768288800648065115774e-12 1:-1 2:-24.6667 3:9.2582302 4:8.7620096 5:63.8269 6:29.5721 7:3.23035 8:26.337799 9:1.63791 10:61.2472 11:89.104202 12:59.6507 13:0.66666698 14:0.76516801 15:0.98913097 16:23.402901 17:-2 18:-29.4667 19:-3 20:-12.8 #
6.6232265701768288800648065115774e-12 1:-1 2:-8 3:6.1985698 4:5.0236402 5:0.343871 6:0.78630799 7:3.8501301 8:1.79404 9:4.5664401 10:4.5664401 11:74.846703 12:19.022301 13:0.33333299 14:0.91275603 15:0.89172399 16:20.271999 17:-2 18:-49 19:-3 20:-129.33299 #
-6.6232265701768288800648065115774e-12 1:-2 2:-50 3:31.291599 4:0.67724001 5:4.8452702 6:18.6493 7:57.4856 8:611.526 9:244.88 10:244.88 11:89.7649 12:63.744701 13:0.33333299 14:0.99778998 15:0.99831998 16:23.5396 17:-1 18:34 19:0 20:93.5 #
6.6232265701768288800648065115774e-12 1:8 2:27.1875 3:2.4235101 4:1.2192 5:0.538486 6:1.49576 7:2.70032 8:1.03555 9:2.3965199 10:0.80942601 11:51.146099 12:24.1346 13:0.166667 14:0.86235398 15:0.91168499 16:14.3996 17:9 18:30.944401 19:9 20:30.944401 #
-6.6232265701768288800648065115774e-12 1:3 2:16.6667 3:7.00207 4:1.26421 5:0.76437098 6:8.9378405 7:50.133202 8:252.133 9:34.877499 10:133.276 11:88.6651 12:17.643 13:0.33333299 14:0.98006302 15:0.99127001 16:23.3116 17:3 18:16.6667 19:0 20:-154 #
6.6232265701768288800648065115774e-12 1:0 2:0 3:2.3701601 4:0.426754 5:0.92136699 6:1.78808 7:2.5959499 8:1.98984 9:2.97224 10:0.742396 11:51.071499 12:32.662399 13:0.166667 14:0.868554 15:0.93604302 16:14.38 17:0 18:0 19:12 20:210.25 #
-6.6232265701768288800648065115774e-12 1:3 2:32.5 3:8.1318197 4:0.369766 5:3.69314 6:1.7743599 7:2.9324 8:0.60318702 9:1.87802 10:49.143501 11:89.207802 12:44.483601 13:0.166667 14:0.78943902 15:0.98757797 16:23.4244 17:4 18:3.1428599 19:2 20:-37.916698 #
6.6232265701768288800648065115774e-12 1:0 2:0 3:4.0552201 4:2.94645 5:1.43311 6:7.9481401 7:2.5187299 8:1.76026 9:3.70981 10:2.1608701 11:68.837898 12:19.5553 13:0.166667 14:0.78703499 15:0.88301301 16:18.8556 17:-1 18:-96 19:-1 20:-96 #
-6.6232265701768288800648065115774e-12 1:-8 2:-33 3:8.4723902 4:32.584599 5:29.7593 6:19.060499 7:8.2583704 8:10.6938 9:70.630699 10:71.935799 11:88.315804 12:7.2231102 13:0.166667 14:0.98956299 15:0.98637998 16:23.2388 17:-8 18:36 19:-6 20:51.775002 #
6.6232265701768288800648065115774e-12 1:5 2:9.4583302 3:2.1850801 4:0.261352 5:0.20844001 6:2.14696 7:2.61432 8:1.00187 9:2.41347 10:0.56230301 11:43.136299 12:30.1434 13:0.166667 14:0.81558001 15:0.80573201 16:12.2628 17:6 18:13.3929 19:5 20:-97.763901 #
-6.6232265701768288800648065115774e-12 1:6 2:33 3:6.4138198 4:13.7934 5:2.7415299 6:2.0436399 7:2.13115 8:0.79564601 9:2.46065 10:51.209 11:88.297401 12:24.562901 13:0.444444 14:0.91095197 15:0.98036897 16:23.235001 17:10 18:52.400002 19:10 20:-73.272697 #
6.6232265701768288800648065115774e-12 1:4 2:18.7917 3:2.1689401 4:0.47016001 5:0.89481699 6:2.8171501 7:3.5374999 8:0.938613 9:1.53368 10:1.1803 11:54.168301 12:28.5364 13:0.166667 14:0.66949499 15:0.77816302 16:15.1881 17:8 18:35.849998 19:8 20:35.849998 #
-6.6232265701768288800648065115774e-12 1:-3 2:-21.3333 3:4.1159701 4:0.285752 5:0.78774399 6:0.26223201 7:1.75229 8:493.67099 9:0.85480303 10:68.138496 11:88.309303 12:47.636299 13:0.166667 14:0.97046798 15:0.97186399 16:23.2374 17:-5 18:-39.200001 19:-6 20:-59.333302 #
6.6232265701768288800648065115774e-12 1:0 2:0 3:4.4352798 4:0.92370099 5:0.51070201 6:2.7951 7:2.83707 8:1.57578 9:1.8462 10:1.23184 11:60.536301 12:28.0303 13:0.166667 14:0.51152802 15:0.90344101 16:16.814301 17:0 18:0 19:0 20:0 #
-6.6232265701768288800648065115774e-12 1:0 2:37 3:2.60852 4:3.5606599 5:47.352001 6:5.1605 7:5.4296799 8:5.10601 9:5.98806 10:9.0335102 11:88.0224 12:9.6410799 13:1 14:0.87301898 15:0.89358997 16:23.1775 17:0 18:37 19:0 20:37 #
-6.6232265701768288800648065115774e-12 1:1 2:-5 3:7.5169802 4:8.6225996 5:91.603798 6:297.327 7:47.3978 8:319.077 9:113.742 10:113.742 11:89.0569 12:3.8522401 13:0.444444 14:0.99189901 15:0.98613799 16:23.393101 17:3 18:11.8 19:-4 20:-44.916698 #
6.6232265701768288800648065115774e-12 1:0 2:28 3:2.45398 4:1.16824 5:1.8322999 6:2.5190401 7:3.9642301 8:1.7883101 9:4.5488801 10:2.2646101 11:72.885201 12:17.144699 13:0.166667 14:0.90837699 15:0.84116799 16:19.8155 17:0 18:28 19:-1 20:-96 #
-6.6232265701768288800648065115774e-12 1:0 2:0 3:13.503 4:0.30890599 5:2.09163 6:7.9686799 7:33.159302 8:336.103 9:88.937599 10:115.408 11:89.953201 12:39.313301 13:0.166667 14:0.99420601 15:0.99465197 16:23.5784 17:-2 18:-76 19:0 20:100 #
6.6232265701768288800648065115774e-12 1:5 2:29.200001 3:3.0633199 4:0.96343702 5:0.236 6:1.20271 7:3.10783 8:1.03385 9:1.9722199 10:1.6325999 11:71.554901 12:46.634701 13:0.33333299 14:0.73318398 15:0.81801802 16:19.502701 17:7 18:47.714298 19:9 20:62.222198 #
-6.6232265701768288800648065115774e-12 1:-1 2:-60 3:8.3543196 4:0.173136 5:1.19783 6:7.6555099 7:3.4556 8:318.00601 9:76.698799 10:76.698799 11:87.644997 12:18.848801 13:0.444444 14:0.994084 15:0.987571 16:23.098301 17:-3 18:-64.666702 19:-5 20:-120 #
6.6232265701768288800648065115774e-12 1:0 2:2 3:2.8197701 4:2.1528599 5:0.41953599 6:1.13258 7:2.19522 8:0.984074 9:1.97019 10:1.19349 11:60.370602 12:60.782902 13:0.166667 14:0.72913802 15:0.74027401 16:16.7726 17:0 18:2 19:4 20:136 #
-6.6232265701768288800648065115774e-12 1:-1 2:-12.8333 3:6.7171698 4:4.4288101 5:4.4066801 6:3.09886 7:2.39711 8:1.23467 9:4.0471501 10:34.7444 11:88.2117 12:57.579498 13:1 14:0.89841801 15:0.95930803 16:23.2171 17:-1 18:-12.8333 19:0 20:72.571404 #
6.6232265701768288800648065115774e-12 1:0 2:0 3:3.3445201 4:0.55804402 5:0.38320401 6:5.6760898 7:2.76176 8:0.92839301 9:1.73874 10:1.46086 11:60.171398 12:38.716202 13:0.166667 14:0.77495801 15:0.89060599 16:16.7225 17:0 18:0 19:4 20:-45.979198 #
-6.6232265701768288800648065115774e-12 1:0 2:-6 3:12.9715 4:0.47215301 5:3.93871 6:26.4252 7:32.553799 8:9.77215 9:31.8465 10:78.852798 11:89.594498 12:27.2316 13:0.33333299 14:0.98170203 15:0.99069297 16:23.5044 17:-1 18:-26.6667 19:8 20:21.3333 #
6.6232265701768288800648065115774e-12 1:3 2:14.8 3:2.91447 4:1.40716 5:0.82105702 6:1.74499 7:2.7195699 8:1.25472 9:2.7032001 10:1.1950001 11:59.0676 12:28.3585 13:0.166667 14:0.700517 15:0.88635999 16:16.4436 17:4 18:22.3333 19:3 20:-54.333302 #
-6.6232265701768288800648065115774e-12 1:0 2:-22 3:3.3665099 4:0.106141 5:1.0423501 6:0.70778102 7:1.00024 8:1.22092 9:0.52144498 10:28.0163 11:89.643097 12:88.2556 13:0.66666698 14:0.93313497 15:0.93261302 16:23.5144 17:-1 18:-36 19:-1 20:-35 #
6.6232265701768288800648065115774e-12 1:7 2:33.142899 3:1.90703 4:0.76253098 5:0.98615098 6:2.43398 7:3.1012001 8:1.39545 9:1.01563 10:0.92421597 11:54.402 12:79.874001 13:0.166667 14:0.40113899 15:0.84195203 16:15.2486 17:6 18:-46.857101 19:6 20:-46.857101 #
-6.6232265701768288800648065115774e-12 1:-2 2:-10 3:8.0314102 4:1.50351 5:2.8778701 6:4.51894 7:2.36045 8:3.07517 9:4.9416599 10:26.9452 11:88.005997 12:49.2798 13:0.66666698 14:0.93659502 15:0.98439401 16:23.174 17:-1 18:60 19:0 20:117 #
6.6232265701768288800648065115774e-12 1:3 2:17.5 3:6.8914599 4:1.77011 5:2.74494 6:1.60382 7:5.1936698 8:0.97130501 9:4.2698798 10:3.34709 11:70.633102 12:55.571899 13:0.166667 14:0.95536202 15:0.97971302 16:19.2843 17:2 18:-19.5 19:2 20:-94.971397 #
-6.6232265701768288800648065115774e-12 1:1 2:5 3:10.117 4:0.26881099 5:0.12580299 6:0.24812201 7:0.96973801 8:3.8238699 9:0.84009099 10:24.7038 11:84.997803 12:78.733902 13:0.33333299 14:0.838162 15:0.98851699 16:22.5362 17:-2 18:-37.75 19:-7 20:-120.556 #
6.6232265701768288800648065115774e-12 1:0 2:0 3:2.41468 4:0.48958799 5:0.281993 6:4.6626501 7:1.77508 8:0.76884103 9:2.1043301 10:0.74980998 11:50.1954 12:46.081402 13:0.166667 14:0.945575 15:0.94075102 16:14.1494 17:0 18:0 19:1 20:236.75 #
6.6232265701768288800648065115774e-12 1:0 2:6 3:2.9763701 4:0.27511901 5:0.48216099 6:1.44453 7:4.15903 8:0.55094701 9:3.20033 10:2.90821 11:75.475403 12:55.1064 13:0.166667 14:0.819511 15:0.89161801 16:20.417 17:0 18:6 19:0 20:-35.333302 #
-6.6232265701768288800648065115774e-12 1:0 2:0 3:7.6230698 4:0.180121 5:0.45054099 6:2.2003601 7:0.707892 8:1.24896 9:3.57447 10:22.2897 11:85.553596 12:32.4711 13:1 14:0.961788 15:0.98387903 16:22.655199 17:-1 18:-10 19:-3 20:1.66667 #
6.6232265701768288800648065115774e-12 1:-1 2:-21 3:5.2386799 4:0.220533 5:0.49529701 6:4.8305302 7:2.1431701 8:4.3600602 9:5.1336598 10:1.95818 11:63.908798 12:31.754601 13:0.33333299 14:0.90505302 15:0.98593199 16:17.6548 17:-1 18:-21 19:-2 20:-65 #
-6.6232265701768288800648065115774e-12 1:0 2:46.5 3:2.66222 4:0.47899199 5:1.16415 6:1.0082999 7:2.0340199 8:2.07901 9:36.754501 10:32.428501 11:87.867401 12:0.59413201 13:0.166667 14:0.97284299 15:0.88378298 16:23.145 17:1 18:51.3125 19:0 20:-83 #
6.6232265701768288800648065115774e-12 1:-1 2:-15 3:4.7432899 4:0.249854 5:0.54789901 6:5.9245501 7:2.9948699 8:1.65554 9:3.60094 10:2.4877999 11:70.227203 12:29.196899 13:0.166667 14:0.940081 15:0.940216 16:19.187799 17:0 18:49 19:0 20:49 #
-6.6232265701768288800648065115774e-12 1:0 2:-21 3:3.9449 4:0.20517799 5:2.03176 6:4.2275901 7:2.7172899 8:0.99656701 9:1.73621 10:22.565901 11:88.054802 12:55.840199 13:0.166667 14:0.66267103 15:0.95309597 16:23.1842 17:0 18:-21 19:0 20:-21 #
-6.6232265701768288800648065115774e-12 1:2 2:9 3:2.5148101 4:22.5361 5:41.538799 6:16.2708 7:1.57175 8:21.565001 9:2.5137501 10:1.92936 11:63.259201 12:42.0755 13:0.66666698 14:0.74289697 15:0.85507703 16:17.493999 17:5 18:48 19:-3 20:-129.864 #
-6.6232265701768288800648065115774e-12 1:-3 2:-22 3:28.5874 4:0.338698 5:7.36519 6:4.7333498 7:9.9514103 8:693.008 9:21.175501 10:68.879997 11:89.8694 12:52.630798 13:0.33333299 14:0.98171699 15:0.99549598 16:23.5611 17:0 18:60 19:2 20:92.666702 #
-6.6232265701768288800648065115774e-12 1:0 2:-38 3:2.2532201 4:1.49277 5:3.2992301 6:0.806045 7:0.686885 8:3.3401699 9:2.56037 10:16.936199 11:89.102501 12:7.07094 13:0.444444 14:0.619564 15:0.88471401 16:23.402599 17:1 18:-0.5 19:1 20:-0.5 #
-6.6232265701768288800648065115774e-12 1:3 2:1.66667 3:4.01508 4:0.39679 5:0.38049999 6:3.8527601 7:1.3856 8:1.31902 9:7.32056 10:20.4459 11:85.0075 12:23.332701 13:1 14:0.97384101 15:0.95978302 16:22.5383 17:3 18:1.66667 19:2 20:-22.4167 #
6.6232265701768288800648065115774e-12 1:3 2:29.3333 3:1.78511 4:3.39221 5:0.51247299 6:1.27248 7:1.67072 8:1.36257 9:0.91326302 10:0.52390599 11:40.527199 12:49.712101 13:0.166667 14:0.61115998 15:0.857265 16:11.5534 17:3 18:29.3333 19:4 20:-96.333298 #
6.6232265701768288800648065115774e-12 1:3 2:31.3333 3:2.2247 4:0.74448597 5:0.71423399 6:3.7693701 7:2.27351 8:2.30619 9:4.63692 10:1.34384 11:60.1371 12:23.5973 13:0.166667 14:0.93751901 15:0.86597902 16:16.7138 17:6 18:51 19:5 20:-190 #
6.6232265701768288800648065115774e-12 1:-1 2:-38 3:1.27171 4:2.3545799 5:0.661798 6:1.34457 7:1.8577501 8:0.69951397 9:0.91738701 10:0.513116 11:33.581902 12:52.514198 13:0.166667 14:0.86911398 15:0.76378697 16:9.6366396 17:-2 18:-60 19:-2 20:-60 #
6.6232265701768288800648065115774e-12 1:1 2:1.5 3:3.4208801 4:0.74907702 5:0.21311601 6:1.19335 7:1.72563 8:2.5325601 9:4.0883098 10:0.89697498 11:53.168098 12:26.2316 13:1 14:0.948286 15:0.98398799 16:14.9283 17:1 18:1.5 19:0 20:-82 #
6.6232265701768288800648065115774e-12 1:4 2:26.5 3:1.24801 4:0.492984 5:0.52044499 6:2.1043 7:2.92576 8:0.59807998 9:1.64893 10:1.1949199 11:53.229801 12:29.9737 13:0.166667 14:0.646146 15:0.70117199 16:14.9443 17:5 18:34 19:5 20:34 #
-6.6232265701768288800648065115774e-12 1:1 2:5 3:3.64868 4:1.26162 5:1.3936 6:0.53282899 7:2.72384 8:7.3868499 9:26.653799 10:26.653799 11:89.6185 12:2.3761899 13:0.166667 14:0.96278203 15:0.94470799 16:23.509399 17:2 18:36 19:2 20:-185.66701 #
6.6232265701768288800648065115774e-12 1:0 2:0 3:1.41997 4:0.98716301 5:0.42263901 6:1.70903 7:2.34027 8:1.16398 9:1.33973 10:1.39362 11:59.8531 12:41.133999 13:0.166667 14:0.86765897 15:0.807558 16:16.6422 17:0 18:0 19:1 20:272 #
-6.6232265701768288800648065115774e-12 1:0 2:21 3:2.9944401 4:0.60893703 5:1.72688 6:1.0900199 7:4.9963899 8:11.327 9:8.3845196 10:23.8603 11:87.865898 12:11.9723 13:0.166667 14:0.913068 15:0.93234301 16:23.144699 17:0 18:21 19:0 20:21 #
6.6232265701768288800648065115774e-12 1:3 2:14.6 3:4.99262 4:0.20874 5:1.45266 6:1.86013 7:3.32003 8:1.70233 9:5.0106502 10:2.0083101 11:65.4478 12:15.3953 13:0.166667 14:0.917077 15:0.95238799 16:18.0333 17:3 18:14.6 19:2 20:-19.733299 #
-6.6232265701768288800648065115774e-12 1:0 2:0 3:3.9789801 4:1.28725 5:1.36606 6:1.8741601 7:0.378638 8:0.31377599 9:1.26984 10:16.298201 11:88.017601 12:89.545799 13:0.33333299 14:0.91713601 15:0.95092499 16:23.176399 17:0 18:0 19:0 20:0 #
6.6232265701768288800648065115774e-12 1:6 2:35.958302 3:2.5392399 4:0.23376501 5:0.35184601 6:2.9960999 7:2.1900101 8:1.0733401 9:2.5794599 10:0.80627298 11:57.052399 12:14.7643 13:0.166667 14:0.64614499 15:0.74077201 16:15.9307 17:10 18:51.512501 19:10 20:51.512501 #
-6.6232265701768288800648065115774e-12 1:2 2:19 3:1.92222 4:1.22358 5:3.5357001 6:1.17917 7:5.40519 8:2.48543 9:27.1416 10:27.1416 11:89.422302 12:7.5183902 13:1 14:0.96947598 15:0.87109399 16:23.4688 17:-1 18:-63 19:-3 20:-76.599998 #
6.6232265701768288800648065115774e-12 1:-1 2:-8 3:1.73882 4:0.458597 5:0.38802701 6:0.53117597 7:2.35429 8:2.9611299 9:1.29897 10:0.689758 11:48.230202 12:34.341999 13:1 14:0.94578397 15:0.94074899 16:13.6293 17:-3 18:-62.666698 19:-3 20:-62.666698 #
-6.6232265701768288800648065115774e-12 1:0 2:0 3:1.7234401 4:0.79881799 5:0.80087 6:1.23753 7:0.32549801 8:0.42947999 9:0.56466699 10:14.2071 11:83.079803 12:69.780502 13:0.33333299 14:0.740587 15:0.84304601 16:22.121401 17:0 18:0 19:0 20:-156 #
6.6232265701768288800648065115774e-12 1:-4 2:-15.5 3:1.48812 4:1.4811 5:0.20812599 6:0.84489202 7:2.5737 8:0.838157 9:1.22303 10:1.5098701 11:57.651901 12:42.104 13:0.166667 14:0.28704301 15:0.84309798 16:16.083799 17:-5 18:-32 19:-6 20:-69.333298 #
-6.6232265701768288800648065115774e-12 1:1 2:-7.8333302 3:2.5461299 4:2.71503 5:0.913495 6:2.7820101 7:1.6795501 8:3.8763001 9:2.00279 10:17.0007 11:88.666496 12:41.145599 13:0.66666698 14:0.858549 15:0.90327197 16:23.311899 17:-1 18:-20.5333 19:-3 20:-30.085699 #
6.6232265701768288800648065115774e-12 1:7 2:31.0714 3:2.09618 4:0.35186401 5:0.79517198 6:1.25931 7:2.5088899 8:2.2558801 9:3.5991299 10:1.06879 11:60.466499 12:0.23490199 13:0.166667 14:0.72216302 15:0.85768199 16:16.7967 17:8 18:38.875 19:8 20:38.875 #
-6.6232265701768288800648065115774e-12 1:0 2:0 3:3.7639 4:0.59475201 5:0.658517 6:1.5111001 7:0.27067101 8:1.0973901 9:1.3219399 10:13.5997 11:84.0364 12:52.834801 13:0.33333299 14:0.77394003 15:0.94483101 16:22.3291 17:0 18:0 19:1 20:172 #
6.6232265701768288800648065115774e-12 1:7 2:35.607101 3:2.24928 4:0.64218903 5:0.436028 6:4.94311 7:2.1105199 8:0.52464402 9:1.64475 10:1.02165 11:54.155602 12:38.661499 13:0.166667 14:0.82116801 15:0.86921102 16:15.1848 17:8 18:-37.150002 19:4 20:-39.740299 #
-6.6232265701768288800648065115774e-12 1:0 2:-4.125 3:2.4224701 4:1.32392 5:0.77048999 6:5.5131402 7:4.7438798 8:4.5299902 9:5.4567699 10:20.9618 11:87.828598 12:44.354401 13:0.66666698 14:0.915479 15:0.90494901 16:23.136801 17:-1 18:-13.6875 19:-1 20:-13.6875 #
6.6232265701768288800648065115774e-12 1:0 2:0 3:2.8808999 4:0.482061 5:0.459764 6:0.66471201 7:3.07407 8:0.64179301 9:2.42504 10:1.77965 11:65.6521 12:40.465698 13:0.166667 14:0.87937999 15:0.91572702 16:18.0833 17:0 18:0 19:0 20:0 #
-6.6232265701768288800648065115774e-12 1:-2 2:-30 3:4.2104301 4:0.28827399 5:1.08091 6:5.4137702 7:2.77632 8:2.5869701 9:3.03334 10:16.9084 11:88.2127 12:29.381901 13:0.166667 14:0.81666303 15:0.94936401 16:23.2173 17:-2 18:-30 19:-5 20:-6 #
6.6232265701768288800648065115774e-12 1:5 2:38.599998 3:4.24263 4:0.46788701 5:0.66659099 6:1.0499099 7:3.10941 8:1.08775 9:1.8308901 10:1.38569 11:64.478203 12:26.2092 13:0.166667 14:0.71217799 15:0.881706 16:17.7952 17:5 18:38.599998 19:5 20:38.599998 #
-6.6232265701768288800648065115774e-12 1:-2 2:-16 3:6.0103698 4:0.61932099 5:0.151999 6:2.0603499 7:1.53407 8:0.99190801 9:1.8681901 10:15.1558 11:86.362 12:56.676899 13:0.444444 14:0.891828 15:0.97029102 16:22.8274 17:1 18:33 19:2 20:27.657101 #
6.6232265701768288800648065115774e-12 1:0 2:9 3:5.5183101 4:3.50473 5:0.180537 6:3.82727 7:0.87991899 8:0.69341803 9:1.88916 10:1.18593 11:56.9981 12:46.9258 13:0.66666698 14:0.88637102 15:0.98444402 16:15.9168 17:0 18:9 19:0 20:9 #
-6.6232265701768288800648065115774e-12 1:1 2:6 3:4.0798001 4:0.38640401 5:0.54613698 6:0.62405699 7:1.0407799 8:2.3555801 9:1.31414 10:13.7346 11:84.981903 12:53.136299 13:0.33333299 14:0.921404 15:0.94061702 16:22.532801 17:2 18:39 19:3 20:120.667 #
6.6232265701768288800648065115774e-12 1:3 2:-20 3:7.7729602 4:0.61324197 5:0.40537399 6:5.8049998 7:2.1433101 8:0.79936898 9:2.24207 10:1.73627 11:66.042 12:32.109001 13:0.166667 14:0.73708898 15:0.94590002 16:18.1786 17:3 18:-20 19:2 20:-110 #
-6.6232265701768288800648065115774e-12 1:-3 2:-5.6999998 3:2.8077199 4:0.70684201 5:3.25263 6:2.2532899 7:1.17768 8:4.2561998 9:3.3661599 10:7.83709 11:87.526901 12:22.109501 13:1 14:0.72928101 15:0.85828501 16:23.0735 17:-3 18:-5.6999998 19:-4 20:-21.5 #
6.6232265701768288800648065115774e-12 1:2 2:26 3:2.8080699 4:1.5412 5:0.30537501 6:1.74362 7:1.43565 8:1.58716 9:2.3134201 10:2.3134201 11:82.252098 12:64.767403 13:0.166667 14:0.81501299 15:0.81413299 16:21.9405 17:2 18:26 19:2 20:26 #
-6.6232265701768288800648065115774e-12 1:-4 2:-23.4 3:4.06709 4:0.50012398 5:6.4656401 6:1.39925 7:0.71157801 8:1.89906 9:1.54484 10:8.6475296 11:86.373703 12:87.7939 13:0.66666698 14:0.75055802 15:0.92949402 16:22.829901 17:-5 18:-28.9167 19:-6 20:-39.642899 #
6.6232265701768288800648065115774e-12 1:0 2:0 3:3.2347801 4:1.29143 5:0.236167 6:1.21066 7:4.2442698 8:0.77384299 9:4.6803498 10:4.6803498 11:80.932404 12:9.4391499 13:0.166667 14:0.82759702 15:0.84531701 16:21.649599 17:0 18:0 19:3 20:78 #
-6.6232265701768288800648065115774e-12 1:0 2:-17.6667 3:2.8456099 4:2.1591001 5:0.91448802 6:3.45046 7:2.8201699 8:2.2571399 9:7.5097399 10:18.0422 11:89.450996 12:12.5655 13:0.444444 14:0.91650403 15:0.91124701 16:23.474701 17:0 18:-17.6667 19:0 20:-17.6667 #
6.6232265701768288800648065115774e-12 1:3 2:7.8000002 3:6.4955902 4:5.2410898 5:0.87977201 6:4.4131198 7:1.2013299 8:0.589984 9:1.37927 10:1.89189 11:65.994003 12:31.5042 13:0.166667 14:0.688272 15:0.91848898 16:18.166901 17:3 18:7.8000002 19:3 20:7.8000002 #
-6.6232265701768288800648065115774e-12 1:-2 2:-16.75 3:2.2085199 4:1.0367301 5:1.78513 6:2.55161 7:0.26565701 8:0.53719902 9:0.64472002 10:11.6276 11:86.2547 12:69.122299 13:0.33333299 14:0.720222 15:0.86351103 16:22.8046 17:-2 18:-16.75 19:-1 20:178.25 #
6.6232265701768288800648065115774e-12 1:3 2:-3.8 3:2.5313001 4:1.19567 5:0.361963 6:2.3194201 7:1.81866 8:0.35469699 9:3.1828101 10:1.31426 11:60.8153 12:20.9825 13:0.166667 14:0.80348301 15:0.89919502 16:16.884399 17:5 18:-5.1666698 19:3 20:-43.299999 #
-6.6232265701768288800648065115774e-12 1:0 2:-20.5833 3:10.7687 4:1.4384201 5:0.287238 6:0.917162 7:5.1999302 8:4.3178301 9:5.8853302 10:20.018999 11:85.292503 12:35.954498 13:0.66666698 14:0.86855698 15:0.98742998 16:22.5994 17:0 18:-20.5833 19:-1 20:-71.156197 #
6.6232265701768288800648065115774e-12 1:0 2:0 3:6.6038399 4:0.278366 5:0.285743 6:0.99657398 7:2.6324301 8:3.6454101 9:0.64134598 10:1.53732 11:59.084801 12:83.611 13:1 14:0.95758998 15:0.94516802 16:16.448 17:0 18:0 19:4 20:231.5 #
-6.6232265701768288800648065115774e-12 1:1 2:-6.5 3:4.9439201 4:1.5711499 5:5.9802299 6:1.91794 7:2.71438 8:11.5466 9:3.4560599 10:12.3874 11:88.182098 12:75.418404 13:0.166667 14:0.92218798 15:0.90736002 16:23.210899 17:1 18:-6.5 19:0 20:-31.25 #
6.6232265701768288800648065115774e-12 1:2 2:6.875 3:2.0269599 4:0.274138 5:0.49419501 6:2.4245 7:1.99277 8:0.729936 9:2.1465001 10:0.643287 11:47.523899 12:82.861801 13:0.33333299 14:0.86000299 15:0.903485 16:13.4414 17:1 18:-19.3333 19:-4 20:-78.625 #
-6.6232265701768288800648065115774e-12 1:0 2:-5 3:5.76688 4:3.01004 5:6.8982601 6:1.74695 7:2.68062 8:1.1360199 9:3.25682 10:11.5792 11:89.393898 12:31.0151 13:0.33333299 14:0.768628 15:0.96437299 16:23.4629 17:0 18:-5 19:0 20:-5 #
6.6232265701768288800648065115774e-12 1:2 2:24.6667 3:1.78359 4:0.39555499 5:0.739555 6:3.41874 7:1.81534 8:1.7907799 9:2.95948 10:0.188232 11:16.4251 12:14.304 13:0.166667 14:0.709692 15:0.85841697 16:4.76512 17:2 18:24.6667 19:0 20:-134.33299 #
-6.6232265701768288800648065115774e-12 1:0 2:0 3:2.6122999 4:0.64639097 5:1.22856 6:3.41975 7:1.2508 8:1.1277601 9:2.1026101 10:12.7594 11:89.036598 12:51.828899 13:0.33333299 14:0.94788003 15:0.91715997 16:23.388901 17:0 18:0 19:0 20:-116 #
6.6232265701768288800648065115774e-12 1:3 2:31.5 3:4.74406 4:0.146437 5:0.51246798 6:1.68336 7:2.83915 8:1.09461 9:2.5518 10:1.65169 11:71.210701 12:24.0436 13:0.166667 14:0.74168599 15:0.854182 16:19.421301 17:5 18:6.5714302 19:1 20:-38.761902 #
-6.6232265701768288800648065115774e-12 1:-2 2:-23.733299 3:3.1090901 4:8.8492203 5:23.122601 6:8.9851303 7:14.6865 8:3.697 9:6.1000299 10:16.9627 11:87.407799 12:23.374901 13:0.66666698 14:0.891267 15:0.95517898 16:23.048401 17:-2 18:-17.6667 19:-4 20:-24.5333 #
6.6232265701768288800648065115774e-12 1:-1 2:-18 3:2.4588599 4:1.88798 5:0.43174899 6:1.53382 7:2.04213 8:0.64241898 9:1.58745 10:1.58745 11:70.429604 12:59.591801 13:0.166667 14:0.72324002 15:0.75037801 16:19.236 17:-1 18:-18 19:-1 20:-18 #
-6.6232265701768288800648065115774e-12 1:1 2:-26 3:3.61443 4:4.5285001 5:14.2505 6:11.3301 7:8.4239702 8:1.69235 9:18.2932 10:18.2932 11:82.380501 12:10.469 13:1 14:0.98024702 15:0.924393 16:21.968599 17:1 18:-26 19:1 20:-26 #
6.6232265701768288800648065115774e-12 1:7 2:32.1786 3:2.08254 4:1.6609 5:0.84720302 6:3.2479801 7:1.47984 8:1.03022 9:2.7119901 10:0.668208 11:42.643902 12:22.415199 13:0.166667 14:0.83256698 15:0.82169998 16:12.1294 17:7 18:-31.4375 19:7 20:-31.4375 #
-6.6232265701768288800648065115774e-12 1:2 2:28.3333 3:5.0281601 4:0.550587 5:0.52209699 6:2.2963099 7:1.24251 8:0.80240798 9:1.2747101 10:12.067 11:85.026299 12:34.810501 13:0.166667 14:0.60898298 15:0.96513897 16:22.542299 17:2 18:28.3333 19:1 20:-108.667 #
6.6232265701768288800648065115774e-12 1:0 2:0 3:5.4853902 4:0.362661 5:0.69180298 6:3.6588199 7:2.5011599 8:1.03696 9:2.5862999 10:1.48193 11:62.152901 12:22.7169 13:0.166667 14:0.87860399 15:0.95154703 16:17.219 17:1 18:77 19:10 20:126.8 #
-6.6232265701768288800648065115774e-12 1:-1 2:-14 3:2.82898 4:0.48762 5:0.90280497 6:0.86236298 7:1.36554 8:0.39803699 9:1.4018101 10:11.8423 11:86.915802 12:50.295101 13:0.166667 14:0.641949 15:0.91294402 16:22.9447 17:-1 18:-14 19:0 20:142 #
-6.6232265701768288800648065115774e-12 1:-1 2:-16.5 3:2.37711 4:1.33083 5:4.5486898 6:4.4958801 7:2.9542201 8:2.4462299 9:4.0134001 10:12.4403 11:84.257401 12:11.9416 13:0.33333299 14:0.78058898 15:0.866503 16:22.376801 17:-1 18:-16.5 19:-5 20:-97 #
-6.6232265701768288800648065115774e-12 1:2 2:32.333302 3:4.5471501 4:0.37890199 5:0.92386001 6:3.2927401 7:1.07926 8:1.3559999 9:1.6546299 10:11.1163 11:81.737396 12:57.3508 13:0.444444 14:0.881203 15:0.95672798 16:21.8274 17:2 18:32.333302 19:2 20:-45.25 #
-6.6232265701768288800648065115774e-12 1:-1 2:-13 3:2.2077501 4:0.65109801 5:0.45922801 6:1.6617399 7:1.19892 8:1.78526 9:1.83271 10:11.738 11:81.708 12:41.5508 13:0.66666698 14:0.93374902 15:0.87582701 16:21.8209 17:-1 18:-13 19:0 20:120 #
-6.6232265701768288800648065115774e-12 1:-4 2:-30.4 3:2.1370499 4:0.18070801 5:0.26816499 6:2.01017 7:6.2171698 8:7.2946901 9:7.6084399 10:19.092899 11:89.883797 12:12.2302 13:0.66666698 14:0.906322 15:0.857126 16:23.5641 17:-5 18:-35.333302 19:-8 20:102 #
6.6232265701768288800648065115774e-12 1:5 2:36.400002 3:1.84413 4:2.0847001 5:0.86413503 6:3.1515501 7:2.0566299 8:0.51330101 9:1.09276 10:1.27688 11:69.399902 12:44.617199 13:0.166667 14:0.68546802 15:0.65335202 16:18.990299 17:8 18:-33.652802 19:7 20:-68.9375 #
6.6232265701768288800648065115774e-12 1:7 2:38.214298 3:2.57463 4:0.431292 5:0.237073 6:6.7726798 7:1.7065099 8:1.06304 9:1.35912 10:0.66019601 11:44.845901 12:61.880501 13:0.33333299 14:0.83404499 15:0.86265898 16:12.7243 17:13 18:58.403801 19:12 20:-60.096199 #
6.6232265701768288800648065115774e-12 1:0 2:-20 3:3.8469601 4:0.71903598 5:0.52769899 6:1.31909 7:1.94762 8:0.43547499 9:1.66618 10:0.76597601 11:50.561901 12:49.507 13:0.166667 14:0.887779 15:0.86720699 16:14.246 17:0 18:-20 19:1 20:-61 #
6.6232265701768288800648065115774e-12 1:5 2:12.3333 3:3.1547301 4:1.5132 5:0.212705 6:3.1326499 7:0.98063201 8:0.69861799 9:2.1070099 10:0.52528602 11:45.2258 12:39.723598 13:0.166667 14:0.81285602 15:0.94676501 16:12.8264 17:4 18:-30.0952 19:3 20:-64.928596 #
6.6232265701768288800648065115774e-12 1:0 2:0 3:2.0162499 4:1.30801 5:0.33957899 6:3.57283 7:1.21174 8:1.65806 9:1.99365 10:0.73256302 11:49.583099 12:21.719 13:0.166667 14:0.66689801 15:0.79431802 16:13.9878 17:0 18:0 19:-3 20:-207.08299 #
-6.6232265701768288800648065115774e-12 1:-1 2:11.8333 3:5.5640898 4:1.11121 5:2.88117 6:1.25861 7:5.84199 8:12.9476 9:6.5830798 10:16.377199 11:83.9487 12:26.9158 13:0.444444 14:0.911991 15:0.975025 16:22.310101 17:-2 18:3.73333 19:-4 20:-60.381001 #
6.6232265701768288800648065115774e-12 1:0 2:0 3:3.20228 4:1.13899 5:0.96370697 6:2.5335901 7:1.74157 8:1.0795701 9:1.65819 10:0.557895 11:45.0891 12:77.8041 13:0.33333299 14:0.742661 15:0.91295999 16:12.7897 17:0 18:0 19:-1 20:148.75 #
-6.6232265701768288800648065115774e-12 1:-1 2:20.4 3:1.97616 4:0.57349402 5:1.57682 6:2.8014901 7:3.01439 8:1.5192699 9:3.5076201 10:12.411 11:83.916199 12:14.4813 13:1 14:0.73622102 15:0.84730399 16:22.303101 17:1 18:29.4 19:1 20:29.4 #
6.6232265701768288800648065115774e-12 1:2 2:10 3:2.13411 4:1.79119 5:1.1334701 6:1.65003 7:3.43382 8:0.58134699 9:1.99958 10:2.7054701 11:78.364098 12:31.4093 13:0.33333299 14:0.877159 15:0.80154598 16:21.075399 17:2 18:10 19:4 20:66 #
-6.6232265701768288800648065115774e-12 1:-1 2:-4 3:2.9855599 4:0.33128399 5:0.997774 6:1.84962 7:1.9942 8:5.04392 9:15.305 10:15.305 11:84.2258 12:5.7754698 13:0.66666698 14:0.95250797 15:0.91659999 16:22.370001 17:-6 18:-50.285702 19:-7 20:-56.25 #
6.6232265701768288800648065115774e-12 1:0 2:0 3:1.7657501 4:0.35038301 5:0.471048 6:1.94276 7:4.3328099 8:1.52463 9:4.4379401 10:4.4379401 11:82.327202 12:8.0185604 13:0.166667 14:0.79700702 15:0.64077997 16:21.9569 17:0 18:0 19:0 20:0 #
-6.6232265701768288800648065115774e-12 1:1 2:4.5 3:2.95755 4:0.188163 5:3.2418499 6:2.0290999 7:1.25534 8:2.3880401 9:1.6248 10:8.35777 11:83.619598 12:35.144402 13:0.33333299 14:0.92070401 15:0.85840303 16:22.2388 17:1 18:4.5 19:3 20:104.75 #
6.6232265701768288800648065115774e-12 1:1 2:38 3:2.9133999 4:0.680273 5:0.55599201 6:1.75667 7:2.5499599 8:1.05645 9:1.2083499 10:1.20918 11:68.469704 12:37.389198 13:0.33333299 14:0.632658 15:0.67853999 16:18.767 17:1 18:38 19:1 20:38 #
-6.6232265701768288800648065115774e-12 1:0 2:0 3:3.46558 4:0.64638901 5:0.40863499 6:2.35427 7:1.8234299 8:2.4221799 9:11.4744 10:13.8075 11:81.389801 12:10.3436 13:1 14:0.950266 15:0.93892902 16:21.750799 17:1 18:98 19:1 20:-62 #
6.6232265701768288800648065115774e-12 1:-1 2:-4 3:2.20365 4:1.83507 5:1.23764 6:2.4458499 7:1.49263 8:1.64871 9:3.46275 10:1.30902 11:54.431999 12:14.4072 13:0.166667 14:0.73788798 15:0.81154001 16:15.2564 17:-1 18:-4 19:4 20:248.7 #
-6.6232265701768288800648065115774e-12 1:-1 2:-1.875 3:2.7707601 4:0.92497599 5:0.66896403 6:2.3174801 7:3.12552 8:3.21732 9:17.260799 10:17.260799 11:87.125 12:9.8193703 13:1 14:0.95283699 15:0.90382999 16:22.988899 17:-1 18:-1.875 19:-1 20:-1.875 #
-6.6232265701768288800648065115774e-12 1:0 2:-4 3:2.71083 4:1.96593 5:0.337827 6:1.2164299 7:2.50916 8:7.2940798 9:9.1143398 10:14.8642 11:84.879799 12:13.078 13:0.166667 14:0.91347498 15:0.88919002 16:22.5109 17:0 18:-4 19:0 20:-4 #
-6.6232265701768288800648065115774e-12 1:1 2:7 3:2.06198 4:0.46171001 5:0.97833002 6:1.69549 7:2.3453901 8:5.00804 9:15.0091 10:15.0091 11:88.995003 12:6.8536301 13:0.166667 14:0.93810898 15:0.87295401 16:23.380199 17:1 18:7 19:1 20:7 #
-6.6232265701768288800648065115774e-12 1:-3 2:-34.666698 3:3.2648799 4:1.09711 5:1.37291 6:6.0031199 7:2.01319 8:3.1454101 9:15.6211 10:15.6211 11:87.341698 12:19.9091 13:0.33333299 14:0.96354699 15:0.92194599 16:23.0345 17:-3 18:-34.666698 19:-4 20:-55.75 #
-6.6232265701768288800648065115774e-12 1:0 2:0 3:3.2371399 4:0.643785 5:0.72740698 6:1.78818 7:0.52423298 8:1.77501 9:1.03346 10:8.77349 11:87.339897 12:45.845001 13:0.33333299 14:0.822676 15:0.90638399 16:23.0341 17:0 18:0 19:0 20:0 #
6.6232265701768288800648065115774e-12 1:0 2:0 3:2.4955101 4:1.02298 5:0.37154901 6:1.52432 7:2.3907599 8:0.96836698 9:1.93259 10:1.7469701 11:65.0093 12:41.497398 13:0.166667 14:0.89972901 15:0.89776802 16:17.9258 17:0 18:0 19:0 20:0 #
6.6232265701768288800648065115774e-12 1:3 2:5.6500001 3:5.2644801 4:1.58539 5:0.76553702 6:2.5343399 7:1.09351 8:1.0016299 9:8.98491 10:2.64784 11:78.049202 12:15.2166 13:0.166667 14:0.91303998 15:0.903992 16:21.004299 17:3 18:5.6500001 19:2 20:-72.933296 #
6.6232265701768288800648065115774e-12 1:-2 2:-8.25 3:9.6540899 4:0.466887 5:0.35228401 6:2.9274499 7:1.54971 8:1.5676 9:1.5278 10:0.652605 11:48.658298 12:77.960899 13:0.444444 14:0.974693 15:0.96335399 16:13.743 17:-2 18:-8.25 19:-4 20:-114.25 #
6.6232265701768288800648065115774e-12 1:3 2:1.6125 3:2.0641999 4:0.45764199 5:0.615399 6:8.6396704 7:1.81732 8:0.85142899 9:1.22059 10:1.3825999 11:61.919399 12:44.753502 13:0.444444 14:0.82192099 15:0.92921799 16:17.160801 17:4 18:6.125 19:1 20:-70.537498 #
6.6232265701768288800648065115774e-12 1:3 2:13.5 3:2.36112 4:0.78769898 5:0.57222801 6:1.69607 7:2.16413 8:1.14161 9:2.08513 10:1.2061599 11:60.4715 12:24.994801 13:0.166667 14:0.53659397 15:0.85826498 16:16.798 17:3 18:13.5 19:3 20:13.5 #
-6.6232265701768288800648065115774e-12 1:1 2:-15 3:3.8543401 4:0.53706598 5:2.1033101 6:8.4367704 7:6.8559499 8:5.66642 9:9.3362999 10:18.478901 11:88.621101 12:12.8903 13:0.66666698 14:0.93220299 15:0.94250798 16:23.3025 17:1 18:-15 19:-3 20:-139.16701 #
6.6232265701768288800648065115774e-12 1:0 2:0 3:3.34219 4:1.43437 5:0.392524 6:4.3579402 7:1.67388 8:4.7992201 9:2.44631 10:1.78733 11:65.516998 12:30.225201 13:0.166667 14:0.752298 15:0.9077 16:18.050301 17:1 18:68 19:1 20:68 #
-6.6232265701768288800648065115774e-12 1:1 2:16 3:5.8786702 4:0.28815699 5:4.4800801 6:3.88134 7:2.10989 8:3.4958701 9:2.48598 10:8.1257401 11:83.617599 12:57.955898 13:0.66666698 14:0.88963699 15:0.957156 16:22.2383 17:3 18:6.4000001 19:3 20:6.4000001 #
6.6232265701768288800648065115774e-12 1:0 2:0 3:3.2170501 4:0.180647 5:0.39238301 6:3.00278 7:1.57748 8:1.25314 9:2.2999499 10:1.20061 11:62.227402 12:66.021004 13:0.33333299 14:0.721228 15:0.86498302 16:17.2376 17:-1 18:-76.5 19:-3 20:-218 #
6.6232265701768288800648065115774e-12 1:0 2:0 3:1.71106 4:0.356006 5:0.65248001 6:2.3531899 7:1.38029 8:0.873878 9:5.7610002 10:1.4763 11:57.438099 12:18.775999 13:0.166667 14:0.90035498 15:0.75949001 16:16.029301 17:0 18:0 19:0 20:0 #
-6.6232265701768288800648065115774e-12 1:1 2:-5.1999998 3:7.72294 4:7.7806001 5:10.9468 6:0.67118698 7:0.45072299 8:24.863001 9:0.71509498 10:4.7557902 11:89.834099 12:69.731201 13:0.33333299 14:0.54105997 15:0.93451798 16:23.553801 17:-2 18:-23.7714 19:-3 20:-33.181801 #
6.6232265701768288800648065115774e-12 1:-1 2:2 3:33.733898 4:0.29123399 5:18.363899 6:35.117298 7:78.4468 8:30.7094 9:485.90701 10:485.90701 11:89.514099 12:45.572899 13:0.166667 14:0.99961799 15:0.99905699 16:23.487801 17:1 18:53.333302 19:4 20:12.3556 #
-6.6232265701768288800648065115774e-12 1:-5 2:-29.299999 3:1.49668 4:1.13718 5:1.1997 6:0.53293997 7:0.438905 8:0.91064799 9:0.283692 10:7.6213799 11:87.093102 12:85.598396 13:0.444444 14:0.750974 15:0.87208802 16:22.9821 17:-5 18:-29.299999 19:-10 20:-129.25 #
6.6232265701768288800648065115774e-12 1:4 2:22.799999 3:18.3503 4:1.62449 5:1.61338 6:14.9441 7:39.009701 8:54.6884 9:32.470901 10:114.688 11:89.452499 12:31.157801 13:0.166667 14:0.98192197 15:0.99602902 16:23.4751 17:2 18:-18.5333 19:4 20:46.177799 #
-6.6232265701768288800648065115774e-12 1:0 2:0 3:2.2082701 4:1.3719701 5:0.30412701 6:0.187573 7:0.51648998 8:0.86650401 9:0.96471202 10:8.6821899 11:83.5103 12:58.308601 13:0.444444 14:0.67130798 15:0.80258799 16:22.215099 17:0 18:0 19:1 20:229 #
-6.6232265701768288800648065115774e-12 1:4 2:16.625 3:4.1842999 4:0.61523598 5:5.4477401 6:1.2119499 7:0.74924999 8:0.23764101 9:1.1974601 10:3.9049599 11:79.284897 12:56.841599 13:0.33333299 14:0.50259101 15:0.92220098 16:21.2826 17:6 18:42.25 19:6 20:-182.929 #
6.6232265701768288800648065115774e-12 1:0 2:0 3:2.53332 4:0.226935 5:0.40503299 6:2.5550599 7:3.84181 8:1.36453 9:2.9563999 10:4.2315202 11:74.782204 12:24.914499 13:0.166667 14:0.72075498 15:0.876342 16:20.257 17:0 18:0 19:8 20:267.25 #
-6.6232265701768288800648065115774e-12 1:-3 2:-16 3:2.11992 4:0.92149299 5:0.44139799 6:0.556723 7:0.68194199 8:1.02386 9:0.443324 10:8.3929195 11:85.3507 12:57.423901 13:0.444444 14:0.92835897 15:0.90288103 16:22.611799 17:-3 18:-16 19:-4 20:-77 #
6.6232265701768288800648065115774e-12 1:-2 2:-8 3:5.1894598 4:1.09317 5:0.59731901 6:1.39276 7:4.1025901 8:0.99800801 9:2.62287 10:5.07409 11:77.050301 12:26.7306 13:0.33333299 14:0.84784502 15:0.94253302 16:20.777599 17:-2 18:-8 19:3 20:243.2 #
-6.6232265701768288800648065115774e-12 1:0 2:0 3:2.9575901 4:2.23085 5:0.34411901 6:1.53611 7:0.79364198 8:1.3539 9:2.1825299 10:9.9185305 11:85.556 12:60.124699 13:0.444444 14:0.90173101 15:0.91309297 16:22.655701 17:0 18:0 19:2 20:122 #
6.6232265701768288800648065115774e-12 1:6 2:37.375 3:2.6672399 4:1.1962 5:0.78259498 6:2.8892801 7:2.0814099 8:3.0185399 9:5.1751299 10:2.6580999 11:88.750999 12:12.5639 13:0.166667 14:0.86122501 15:0.81153399 16:23.3295 17:10 18:54.775002 19:9 20:-124.975 #
-6.6232265701768288800648065115774e-12 1:-1 2:-12 3:5.8364301 4:0.35719299 5:1.02321 6:0.50493801 7:0.71680599 8:0.203392 9:0.84748298 10:7.5032601 11:85.531898 12:63.5485 13:0.444444 14:0.70375198 15:0.94893003 16:22.6506 17:-1 18:-12 19:-2 20:-65 #
6.6232265701768288800648065115774e-12 1:-1 2:-28.5 3:4.3385 4:0.082923703 5:0.51284099 6:1.37938 7:2.9065001 8:0.64932603 9:2.8190401 10:2.8190401 11:74.009903 12:83.118698 13:0.33333299 14:0.90098298 15:0.91839498 16:20.077999 17:-1 18:-28.5 19:3 20:85.300003 #
-6.6232265701768288800648065115774e-12 1:0 2:0 3:2.6406 4:0.55916703 5:2.6986699 6:2.24034 7:0.452113 8:0.18974701 9:1.61393 10:5.6792202 11:79.640404 12:42.576099 13:0.33333299 14:0.85265601 15:0.861664 16:21.362101 17:0 18:0 19:0 20:0 #
6.6232265701768288800648065115774e-12 1:0 2:0 3:2.9022501 4:1.31322 5:0.467242 6:0.73185003 7:2.33881 8:1.21429 9:3.1038499 10:2.2250199 11:64.786598 12:23.804501 13:0.166667 14:0.847449 15:0.85725403 16:17.871099 17:0 18:0 19:-1 20:-63 #
-6.6232265701768288800648065115774e-12 1:1 2:7 3:3.5469601 4:0.44110301 5:0.983832 6:1.22551 7:1.23902 8:0.81609398 9:1.89844 10:8.3861198 11:78.716103 12:54.137001 13:0.166667 14:0.80080599 15:0.94901299 16:21.1548 17:1 18:7 19:4 20:117.75 #
6.6232265701768288800648065115774e-12 1:0 2:0 3:2.3146901 4:0.821545 5:0.45554399 6:1.5079499 7:2.7468901 8:1.52246 9:2.7897501 10:2.7897501 11:65.330902 12:24.803801 13:0.444444 14:0.96104401 15:0.85900402 16:18.0047 17:0 18:0 19:3 20:148 #
-6.6232265701768288800648065115774e-12 1:1 2:16 3:8.7870398 4:0.50159299 5:1.2730401 6:0.57419997 7:0.50010401 8:0.289684 9:0.51049203 10:5.98559 11:85.749298 12:88.136101 13:0.33333299 14:0.828448 15:0.947335 16:22.697001 17:-1 18:-38 19:-4 20:-60.761902 #
6.6232265701768288800648065115774e-12 1:0 2:0 3:2.37485 4:0.55804503 5:1.17787 6:1.36896 7:2.59675 8:4.3264599 9:3.7009499 10:3.1854 11:88.269203 12:20.42 13:0.166667 14:0.91105998 15:0.87941599 16:23.229099 17:0 18:2 19:-4 20:-93.666702 #
-6.6232265701768288800648065115774e-12 1:0 2:0 3:2.3762701 4:0.29916999 5:4.1255598 6:0.26098201 7:0.26891601 8:0.87471199 9:0.25460699 10:0.25460699 11:22.957701 12:81.090302 13:0.33333299 14:0.876966 15:0.83419698 16:6.6385598 17:1 18:76 19:2 20:156 #
6.6232265701768288800648065115774e-12 1:0 2:0 3:3.0536799 4:0.45913601 5:0.493678 6:1.29635 7:2.3989899 8:2.46277 9:3.14957 10:3.14957 11:79.751099 12:51.124401 13:0.166667 14:0.81814897 15:0.85748601 16:21.3869 17:0 18:0 19:-1 20:-258 #
-6.6232265701768288800648065115774e-12 1:-1 2:-13.5 3:12.1574 4:0.485652 5:16.9158 6:47.494202 7:35.333302 8:175.907 9:62.957401 10:62.957401 11:89.888702 12:36.6115 13:0.444444 14:0.98831099 15:0.99113202 16:23.5651 17:1 18:6.0999999 19:6 20:46.833302 #
-6.6232265701768288800648065115774e-12 1:2 2:20 3:1.4303 4:1.82683 5:0.72291601 6:1.69081 7:3.01546 8:1.69832 9:15.7883 10:15.7883 11:87.745201 12:5.1044998 13:0.444444 14:0.94303799 15:0.688043 16:23.1194 17:2 18:20 19:2 20:-62 #
6.6232265701768288800648065115774e-12 1:0 2:12 3:2.22505 4:0.62147897 5:0.69330001 6:0.60835701 7:2.3584199 8:1.08046 9:0.77550799 10:0.77550799 11:50.015701 12:44.700699 13:1 14:0.93253601 15:0.941414 16:14.1021 17:0 18:12 19:-1 20:-105.5 #
6.6232265701768288800648065115774e-12 1:7 2:35.857101 3:2.6845901 4:0.487533 5:1.1102901 6:1.74224 7:2.1317501 8:1.7509201 9:1.94554 10:0.72553802 11:49.132301 12:31.153299 13:0.166667 14:0.88089401 15:0.80749798 16:13.8686 17:9 18:43.111099 19:8 20:-256.88901 #
6.6232265701768288800648065115774e-12 1:1 2:21.3333 3:2.8833699 4:0.21432801 5:1.32296 6:25.362801 7:5.8144398 8:1.038 9:2.6728799 10:15.6939 11:82.523598 12:45.162899 13:0.166667 14:0.81926602 15:0.92776603 16:21.999901 17:1 18:21.3333 19:3 20:61.599998 #
-6.6232265701768288800648065115774e-12 1:0 2:0 3:2.64131 4:0.92559397 5:5.4235101 6:0.78446603 7:0.24913999 8:1.96858 9:0.676624 10:0.676624 11:46.853901 12:43.904301 13:0.66666698 14:0.95687997 15:0.93342799 16:13.2627 17:0 18:0 19:-2 20:-166.5 #
-6.6232265701768288800648065115774e-12 1:-3 2:-14.1667 3:3.00384 4:9.6622 5:4.3136401 6:2.1676099 7:3.48244 8:4.4173298 9:6.0872302 10:14.6023 11:87.988098 12:15.5785 13:1 14:0.88841599 15:0.91343498 16:23.1703 17:-3 18:-14.1667 19:-3 20:-14.1667 #
-6.6232265701768288800648065115774e-12 1:-4 2:-18.200001 3:3.08022 4:1.59574 5:0.765697 6:5.5689201 7:4.01614 8:4.3372698 9:6.1893902 10:14.5058 11:80.906898 12:23.3281 13:0.166667 14:0.95413297 15:0.94340402 16:21.643999 17:-5 18:-24.3333 19:-5 20:-24.3333 #
-6.6232265701768288800648065115774e-12 1:-2 2:-28.6667 3:1.72155 4:0.46913901 5:1.7929699 6:2.12428 7:1.66372 8:2.4304199 9:12.1907 10:12.1907 11:83.678497 12:17.5119 13:0.444444 14:0.97508401 15:0.82689202 16:22.2516 17:-2 18:-28.6667 19:-3 20:-84 #
-6.6232265701768288800648065115774e-12 1:-4 2:-24.6 3:2.15273 4:0.74997097 5:1.07769 6:2.0157599 7:2.5317299 8:4.4217 9:3.5501599 10:11.5964 11:86.235703 12:44.166199 13:0.166667 14:0.77646202 15:0.85272199 16:22.8006 17:-5 18:-34 19:-8 20:51.099998 #
-6.6232265701768288800648065115774e-12 1:2 2:13 3:4.02527 4:0.53606498 5:0.76694399 6:13.5494 7:1.73009 8:1.68062 9:14.4883 10:13.3991 11:84.724998 12:9.2411604 13:0.166667 14:0.93903399 15:0.95381898 16:22.4776 17:4 18:55.5 19:8 20:-85.111099 #
6.6232265701768288800648065115774e-12 1:5 2:9 3:4.59868 4:0.88062698 5:0.95441002 6:2.75034 7:1.82976 8:1.6956 9:1.56428 10:0.66949499 11:47.549 12:61.925598 13:0.166667 14:0.81638402 15:0.87062299 16:13.4481 17:5 18:9 19:7 20:60.3125 #
6.6232265701768288800648065115774e-12 1:1 2:8 3:1.93095 4:0.68014199 5:0.53630197 6:0.58378601 7:2.08495 8:1.2172199 9:1.28897 10:1.28897 11:82.460503 12:88.026802 13:0.33333299 14:0.82382601 15:0.72569197 16:21.986099 17:1 18:8 19:1 20:8 #
6.6232265701768288800648065115774e-12 1:1 2:4 3:2.1027901 4:0.81767398 5:0.31348801 6:0.56830102 7:1.74543 8:0.551211 9:1.6916 10:0.83335 11:50.463799 12:57.8232 13:0.33333299 14:0.69487202 15:0.81893802 16:14.2202 17:1 18:4 19:1 20:-92.666702 #
6.6232265701768288800648065115774e-12 1:4 2:16 3:2.3577399 4:0.21819399 5:0.98430502 6:1.27089 7:1.77083 8:1.64624 9:2.0955 10:0.29285201 11:27.444 12:78.713997 13:0.166667 14:0.766761 15:0.853073 16:7.9130101 17:5 18:21.3333 19:4 20:-76.666702 #
-6.6232265701768288800648065115774e-12 1:0 2:48 3:229.755 4:1274.8199 5:43.841702 6:164.009 7:3017.74 8:114974 9:13741.6 10:13741.6 11:89.9701 12:50.079102 13:1 14:0.99997097 15:0.99996698 16:23.5819 17:-2 18:10.5 19:4 20:74 #
6.6232265701768288800648065115774e-12 1:-1 2:-14 3:2.7676599 4:0.89065498 5:1.43634 6:2.2394199 7:2.0966599 8:1.78722 9:1.84079 10:1.07876 11:58.809502 12:32.534599 13:0.166667 14:0.526784 15:0.84779799 16:16.378201 17:-1 18:-14 19:-1 20:-14 #
-6.6232265701768288800648065115774e-12 1:-2 2:-13.5 3:4.0288 4:0.254682 5:1.9181401 6:1.84824 7:1.64873 8:0.62892503 9:5.6117902 10:10.1402 11:80.872498 12:16.843599 13:0.66666698 14:0.95391297 15:0.96069002 16:21.6364 17:-3 18:-33.666698 19:-3 20:-33.666698 #
6.6232265701768288800648065115774e-12 1:2 2:26 3:2.8317599 4:0.73962301 5:0.28088 6:0.96758902 7:1.77012 8:1.4737999 9:3.2377801 10:1.4188499 11:65.515602 12:70.943703 13:0.33333299 14:0.80944997 15:0.89366299 16:18.0499 17:2 18:26 19:2 20:-37.833302 #
-6.6232265701768288800648065115774e-12 1:-6 2:-30.6667 3:2.1840701 4:0.60259801 5:0.49476099 6:1.47448 7:2.00982 8:4.12081 9:4.2679501 10:11.1208 11:88.824303 12:10.08 13:0.166667 14:0.804362 15:0.87923402 16:23.344801 17:-6 18:-30.6667 19:-7 20:-59.4286 #
6.6232265701768288800648065115774e-12 1:0 2:0 3:2.3645 4:0.56724399 5:0.23209 6:1.58991 7:1.21469 8:1.43506 9:1.93791 10:0.60713798 11:42.868301 12:33.290298 13:0.33333299 14:0.83315802 15:0.87407899 16:12.1903 17:-2 18:-48 19:5 20:134.75 #
-6.6232265701768288800648065115774e-12 1:0 2:-27.25 3:1.49651 4:0.27122 5:5.2590199 6:2.62833 7:1.2588201 8:2.63465 9:7.0548401 10:8.0366201 11:85.148201 12:23.966 13:1 14:0.91120797 15:0.86719501 16:22.568501 17:-4 18:-44.224998 19:-13 20:10.5104 #
6.6232265701768288800648065115774e-12 1:1 2:0.75 3:2.08372 4:0.718916 5:0.55540901 6:3.51917 7:1.48034 8:0.99463701 9:1.48276 10:0.54919302 11:43.323299 12:37.4394 13:0.166667 14:0.70612103 15:0.86296201 16:12.3134 17:1 18:0.75 19:2 20:42.166698 #
-6.6232265701768288800648065115774e-12 1:1 2:1.85 3:2.3841901 4:0.46899799 5:1.15135 6:1.31362 7:1.43215 8:1.54151 9:2.46749 10:8.7630997 11:89.319801 12:25.045601 13:1 14:0.839975 15:0.87749499 16:23.447599 17:1 18:1.85 19:1 20:1.85 #
6.6232265701768288800648065115774e-12 1:3 2:29 3:2.32217 4:2.9863601 5:1.3697799 6:2.6358199 7:1.71899 8:1.98453 9:2.20397 10:1.31628 11:66.723099 12:40.589699 13:0.166667 14:0.78971899 15:0.79883897 16:18.3445 17:5 18:45 19:5 20:45 #
-6.6232265701768288800648065115774e-12 1:-1 2:23 3:3.7943599 4:0.59006602 5:0.69397497 6:3.32933 7:6.9729099 8:5.15976 9:20.824699 10:20.824699 11:88.5131 12:3.3278999 13:0.166667 14:0.95347899 15:0.95118201 16:23.280001 17:-1 18:23 19:1 20:114.333 #
6.6232265701768288800648065115774e-12 1:5 2:15.9286 3:3.2507999 4:0.241258 5:0.32938099 6:1.24628 7:1.3259 8:3.5190001 9:2.8466599 10:0.78188097 11:51.432999 12:28.062 13:0.166667 14:0.84271401 15:0.83388197 16:14.4749 17:5 18:15.9286 19:4 20:-27.5714 #
-6.6232265701768288800648065115774e-12 1:4 2:21.875 3:3.37938 4:0.27821901 5:0.83306801 6:1.6966799 7:1.1117899 8:0.53447098 9:1.18928 10:7.8389001 11:86.587799 12:74.054703 13:0.33333299 14:0.82297897 15:0.90877098 16:22.875299 17:4 18:21.875 19:2 20:-101.125 #
6.6232265701768288800648065115774e-12 1:-1 2:-6 3:2.6782601 4:0.71741802 5:0.51112503 6:1.36421 7:1.38951 8:0.88545001 9:4.4554601 10:1.49839 11:61.171101 12:32.096298 13:1 14:0.968835 15:0.93302298 16:16.9736 17:-1 18:-6 19:-1 20:48 #
-6.6232265701768288800648065115774e-12 1:-4 2:-13 3:2.5313301 4:3.1777101 5:3.2860301 6:3.0977499 7:2.13851 8:6.5798402 9:9.2296801 10:11.4481 11:85.736099 12:12.3857 13:0.166667 14:0.90864599 15:0.90640199 16:22.694201 17:-4 18:-13 19:-4 20:22.6667 #
6.6232265701768288800648065115774e-12 1:4 2:40 3:3.09707 4:0.35448399 5:0.41603601 6:2.0087299 7:1.8726799 8:0.65908802 9:1.6398799 10:0.76743001 11:51.265202 12:31.5502 13:0.166667 14:0.76229602 15:0.97687101 16:14.4308 17:7 18:53.714298 19:6 20:-242.286 #
6.6232265701768288800648065115774e-12 1:0 2:0 3:1.80642 4:0.74951601 5:0.21668001 6:2.74073 7:1.0118001 8:1.17606 9:3.0803101 10:0.89346802 11:56.344898 12:19.840401 13:0.166667 14:0.81485498 15:0.81194699 16:15.7494 17:0 18:0 19:6 20:137.95799 #
-6.6232265701768288800648065115774e-12 1:0 2:0 3:1.77455 4:0.53887302 5:0.79987901 6:0.805749 7:1.03731 8:0.72062099 9:1.74955 10:8.1262598 11:82.289803 12:22.5651 13:0.166667 14:0.60894102 15:0.80159497 16:21.9487 17:-2 18:-75 19:-2 20:-75 #
-6.6232265701768288800648065115774e-12 1:2 2:24 3:5.93715 4:1.25167 5:2.8817699 6:7.50143 7:3.1322601 8:1.29794 9:2.4479499 10:9.71492 11:80.304298 12:77.586304 13:1 14:0.97186601 15:0.94182301 16:21.510201 17:2 18:24 19:0 20:-21.6875 #
-6.6232265701768288800648065115774e-12 1:-1 2:-29.125 3:1.471 4:0.81769502 5:1.62229 6:4.0957499 7:0.862185 8:2.7088799 9:1.39666 10:7.5567999 11:77.373199 12:47.625999 13:0.166667 14:0.491705 15:0.76038802 16:20.851101 17:-1 18:-29.125 19:-7 20:-150.125 #
-6.6232265701768288800648065115774e-12 1:-4 2:-24 3:1.99152 4:0.26831001 5:2.49511 6:3.36604 7:4.95785 8:3.4108 9:5.0155101 10:12.6621 11:82.183601 12:10.2199 13:1 14:0.81808698 15:0.878227 16:21.925501 17:-5 18:-32.200001 19:-5 20:-32.200001 #
-6.6232265701768288800648065115774e-12 1:2 2:15.5625 3:3.8455701 4:3.5408199 5:3.9913399 6:5.1434798 7:1.8057801 8:3.3485 9:3.2090299 10:8.5907402 11:82.409302 12:18.0357 13:1 14:0.83877701 15:0.92022401 16:21.974899 17:0 18:-61.6875 19:0 20:-61.6875 #
6.6232265701768288800648065115774e-12 1:-2 2:-17.5 3:1.89053 4:0.69607902 5:1.14371 6:2.9786999 7:1.43075 8:1.18977 9:2.2766099 10:0.74090803 11:48.630901 12:34.0117 13:0.33333299 14:0.84358799 15:0.78300703 16:13.7357 17:-3 18:-42.666698 19:-3 20:-42.666698 #
6.6232265701768288800648065115774e-12 1:3 2:52.666698 3:2.2199199 4:0.79280901 5:0.74199897 6:1.24236 7:2.1617701 8:0.73643398 9:2.30604 10:1.30964 11:64.679901 12:61.011101 13:0.33333299 14:0.68109 15:0.80238599 16:17.8449 17:5 18:64.599998 19:6 20:71 #
6.6232265701768288800648065115774e-12 1:2 2:13.3333 3:1.32178 4:1.07156 5:0.387245 6:1.49568 7:1.85006 8:1.8641 9:2.44789 10:1.59674 11:60.330502 12:28.407499 13:1 14:0.96213698 15:0.90492201 16:16.762501 17:2 18:13.3333 19:2 20:13.3333 #
6.6232265701768288800648065115774e-12 1:0 2:0 3:4.26016 4:2.16817 5:1.10103 6:1.58056 7:1.4548 8:1.2076 9:1.60043 10:0.88065398 11:52.938702 12:41.515701 13:0.66666698 14:0.95653403 15:0.989703 16:14.8685 17:0 18:0 19:0 20:0 #
6.6232265701768288800648065115774e-12 1:0 2:0 3:5.5667701 4:0.89921701 5:0.361671 6:0.681934 7:1.32664 8:2.7627101 9:3.2572501 10:1.44898 11:67.992699 12:8.84935 13:0.166667 14:0.71991998 15:0.88732702 16:18.6521 17:0 18:0 19:0 20:0 #
-6.6232265701768288800648065115774e-12 1:-3 2:-26.5 3:3.0253301 4:0.32435501 5:5.6096601 6:12.1717 7:6.03549 8:3.1337199 9:15.6168 10:15.6168 11:86.510002 12:19.398001 13:0.444444 14:0.96354502 15:0.92578298 16:22.858801 17:-5 18:-51.5 19:-5 20:-51.5 #
6.6232265701768288800648065115774e-12 1:0 2:0 3:7.1151199 4:0.49327499 5:0.242819 6:2.6138699 7:1.5693099 8:1.88422 9:1.62606 10:1.1435601 11:56.404598 12:85.644096 13:0.66666698 14:0.97176301 15:0.97444701 16:15.7648 17:0 18:0 19:-2 20:-207 #
-6.6232265701768288800648065115774e-12 1:3 2:36.166698 3:3.0797801 4:0.76017201 5:1.7386 6:2.96365 7:4.46877 8:5.2481699 9:5.0995798 10:12.0793 11:86.480499 12:14.859 13:0.444444 14:0.86579502 15:0.87766099 16:22.852501 17:2 18:-37.833302 19:1 20:-89.583298 #
6.6232265701768288800648065115774e-12 1:0 2:0 3:5.7744398 4:0.68049198 5:0.47744501 6:1.9700201 7:1.26123 8:1.76512 9:3.14994 10:1.57339 11:60.9226 12:27.4601 13:0.66666698 14:0.99284101 15:0.98836899 16:16.911301 17:-1 18:-90.5 19:-1 20:-90.5 #
-6.6232265701768288800648065115774e-12 1:-2 2:-24 3:2.91067 4:0.28555599 5:0.50977099 6:2.2423301 7:3.1863401 8:3.79125 9:4.4888601 10:10.8385 11:86.032097 12:19.663 13:0.444444 14:0.83320898 15:0.91054899 16:22.757299 17:-2 18:-24 19:1 20:70.300003 #
6.6232265701768288800648065115774e-12 1:2 2:2.6666701 3:3.55654 4:0.77521801 5:0.29046699 6:1.19192 7:1.63028 8:0.92443901 9:1.83913 10:1.24502 11:58.446899 12:33.7411 13:0.33333299 14:0.91686201 15:0.91565299 16:16.2862 17:2 18:2.6666701 19:1 20:-74.333298 #
-6.6232265701768288800648065115774e-12 1:-4 2:-27 3:2.01844 4:0.31658399 5:0.45204401 6:2.9705801 7:1.8562599 8:5.58634 9:2.60887 10:8.4075804 11:87.674004 12:19.440201 13:0.66666698 14:0.75998098 15:0.844203 16:23.104401 17:-3 18:41 19:-3 20:41 #
6.6232265701768288800648065115774e-12 1:0 2:0 3:2.1823599 4:0.26581401 5:0.87627798 6:1.51265 7:2.3364201 8:1.50099 9:2.3255501 10:2.3255501 11:88.222 12:29.3417 13:0.166667 14:0.59964103 15:0.70096898 16:23.2192 17:-1 18:-66 19:1 20:86 #
-6.6232265701768288800648065115774e-12 1:0 2:0 3:2.3067801 4:1.01754 5:1.45672 6:0.89205998 7:0.74525899 8:0.88083899 9:1.5772099 10:6.1149802 11:78.4338 12:43.6255 13:0.444444 14:0.85517597 15:0.89998102 16:21.0912 17:0 18:0 19:1 20:281 #
6.6232265701768288800648065115774e-12 1:2 2:11 3:4.82547 4:0.82674301 5:0.166235 6:1.14985 7:1.97 8:2.4486201 9:1.71102 10:1.71102 11:60.988602 12:29.6024 13:1 14:0.98477101 15:0.96524298 16:16.9279 17:2 18:11 19:2 20:11 #
-6.6232265701768288800648065115774e-12 1:-1 2:-4 3:16.7831 4:0.24766301 5:0.083786003 6:8.8454199 7:3.17606 8:2.1180799 9:3.9846399 10:10.5714 11:82.869499 12:42.342098 13:0.66666698 14:0.90300202 15:0.97905898 16:22.0755 17:-1 18:-4 19:-2 20:-142 #
6.6232265701768288800648065115774e-12 1:0 2:8 3:1.9004 4:1.19654 5:0.71631497 6:1.60922 7:0.82038897 8:1.30906 9:4.21732 10:0.65440398 11:45.332001 12:8.06499 13:0.166667 14:0.78001797 15:0.83532399 16:12.855 17:1 18:44 19:3 20:161.5 #
-6.6232265701768288800648065115774e-12 1:-1 2:-24.1667 3:2.3958199 4:0.39422199 5:1.09562 6:5.2707701 7:3.11866 8:5.81072 9:7.4776702 10:11.2688 11:86.058197 12:1.72113 13:0.166667 14:0.86750799 15:0.85542202 16:22.7628 17:-1 18:-24.1667 19:2 20:51.085701 #
-6.6232265701768288800648065115774e-12 1:-1 2:-34 3:5.3106298 4:0.29047099 5:1.1820199 6:2.15361 7:1.2546099 8:1.19175 9:1.7379301 10:6.8878698 11:86.921898 12:39.902599 13:0.166667 14:0.77454501 15:0.94313997 16:22.945999 17:2 18:19.5 19:1 20:-39.893902 #
6.6232265701768288800648065115774e-12 1:1 2:4.4166698 3:1.6495301 4:0.093320601 5:0.72603798 6:1.47542 7:2.65482 8:2.6010499 9:2.4043 10:2.4043 11:76.234398 12:22.790701 13:0.166667 14:0.68790299 15:0.71313298 16:20.591299 17:1 18:4.4166698 19:1 20:4.4166698 #
-6.6232265701768288800648065115774e-12 1:1 2:6 3:8.00424 4:0.49458501 5:0.56901997 6:1.06264 7:1.22487 8:1.0986201 9:1.43041 10:6.89363 11:79.099403 12:71.071999 13:0.66666698 14:0.98756301 15:0.97384101 16:21.2409 17:1 18:6 19:1 20:6 #
6.6232265701768288800648065115774e-12 1:-1 2:-52 3:3.67817 4:0.26596299 5:0.217454 6:2.1575201 7:0.85271901 8:0.94277298 9:1.56732 10:0.472718 11:43.5494 12:30.812401 13:0.166667 14:0.782184 15:0.97628498 16:12.3746 17:-1 18:-52 19:-1 20:103.667 #
-6.6232265701768288800648065115774e-12 1:-1 2:-10 3:2.6693499 4:1.53958 5:0.34229901 6:0.62520099 7:1.49068 8:0.77052301 9:2.80761 10:8.27316 11:87.113403 12:15.0971 13:0.33333299 14:0.71311802 15:0.84770399 16:22.986401 17:-2 18:-44 19:-1 20:86 #
6.6232265701768288800648065115774e-12 1:3 2:3.25 3:2.46558 4:1.32363 5:1.1905299 6:0.95606899 7:2.25334 8:0.57876199 9:1.69803 10:1.69803 11:66.351303 12:85.045601 13:0.166667 14:0.82885599 15:0.878021 16:18.254 17:3 18:3.25 19:1 20:-163.41701 #
-6.6232265701768288800648065115774e-12 1:-2 2:-10.1667 3:2.18557 4:0.89627898 5:0.65732902 6:2.18419 7:1.21608 8:1.55809 9:1.5802701 10:7.1676402 11:78.200996 12:88.133499 13:0.33333299 14:0.70894802 15:0.81898999 16:21.038601 17:-4 18:-21.5 19:-4 20:-21.5 #
6.6232265701768288800648065115774e-12 1:-1 2:-29 3:1.66582 4:1.27774 5:0.19914401 6:1.65807 7:1.20998 8:2.10549 9:1.94441 10:1.4363199 11:61.911999 12:29.3297 13:0.66666698 14:0.84225202 15:0.840123 16:17.158899 17:-2 18:-46 19:-2 20:57.5 #
-6.6232265701768288800648065115774e-12 1:0 2:-4.3333302 3:2.7181399 4:0.999336 5:2.5002799 6:1.38675 7:3.90959 8:2.7372 9:3.7056899 10:9.8710403 11:81.806396 12:33.383099 13:0.166667 14:0.78788799 15:0.85456097 16:21.8426 17:-1 18:-16.1667 19:-1 20:-16.1667 #
6.6232265701768288800648065115774e-12 1:3 2:12.3333 3:1.59515 4:0.50041401 5:0.689264 6:0.633515 7:1.74694 8:1.3616199 9:3.2741599 10:1.5243599 11:68.257797 12:21.3169 13:0.33333299 14:0.81288302 15:0.77134198 16:18.716 17:3 18:12.3333 19:4 20:65.25 #
-6.6232265701768288800648065115774e-12 1:1 2:38 3:3.3091199 4:1.26319 5:0.646887 6:0.80082101 7:0.87660998 8:0.39543599 9:8.1044998 10:8.1044998 11:78.2183 12:13.4061 13:0.33333299 14:0.95538998 15:0.92276102 16:21.0425 17:1 18:38 19:1 20:38 #
6.6232265701768288800648065115774e-12 1:5 2:13.3333 3:2.5308001 4:1.6898201 5:0.78843403 6:3.40288 7:1.96448 8:1.88484 9:1.72277 10:1.73838 11:64.115303 12:48.3899 13:0.166667 14:0.745565 15:0.85269397 16:17.705799 17:5 18:13.3333 19:4 20:-81.619003 #
-6.6232265701768288800648065115774e-12 1:1 2:4 3:9.60888 4:0.38025901 5:1.08871 6:2.1632099 7:2.58798 8:0.37947699 9:10.7296 10:10.7296 11:82.593803 12:89.722 13:0.33333299 14:0.96809798 15:0.97652799 16:22.015301 17:1 18:4 19:2 20:52.5 #
6.6232265701768288800648065115774e-12 1:-2 2:-49.25 3:2.49229 4:0.36647999 5:1.66387 6:1.2962 7:2.24932 8:2.96053 9:4.0519099 10:2.52108 11:79.003197 12:24.653 13:0.33333299 14:0.82299399 15:0.816787 16:21.219299 17:-2 18:-49.25 19:-2 20:48.666698 #
-6.6232265701768288800648065115774e-12 1:4 2:33.25 3:2.5441599 4:6.1044102 5:1.71707 6:2.77231 7:2.2249899 8:0.84620398 9:1.50432 10:8.8187199 11:86.324699 12:35.181801 13:0.166667 14:0.74352002 15:0.87889099 16:22.8195 17:5 18:39 19:6 20:66.666702 #
6.6232265701768288800648065115774e-12 1:0 2:0 3:2.06692 4:0.83261597 5:1.16668 6:2.11042 7:2.0416701 8:1.86563 9:1.52338 10:1.37175 11:61.1744 12:55.181599 13:0.33333299 14:0.77157801 15:0.84417701 16:16.9744 17:0 18:0 19:3 20:184.66701 #
-6.6232265701768288800648065115774e-12 1:1 2:8.1499996 3:1.51727 4:0.35402301 5:3.22995 6:2.71492 7:2.3063099 8:3.6530199 9:4.4647498 10:7.4781199 11:86.7015 12:6.2175398 13:0.166667 14:0.79026902 15:0.74164099 16:22.899401 17:1 18:8.1499996 19:0 20:-29.4 #
6.6232265701768288800648065115774e-12 1:2 2:-6.6666698 3:1.95708 4:1.2592601 5:0.476356 6:0.48353201 7:1.25413 8:0.765149 9:1.7119401 10:0.901353 11:51.415298 12:33.9814 13:0.166667 14:0.621584 15:0.83902198 16:14.4702 17:1 18:-30 19:0 20:-70 #
-6.6232265701768288800648065115774e-12 1:-1 2:-12 3:6.7115002 4:1.26046 5:0.51585603 6:1.45094 7:1.82052 8:3.63481 9:10.2721 10:10.2721 11:79.456001 12:13.8322 13:0.33333299 14:0.97016001 15:0.96848702 16:21.3209 17:-1 18:-12 19:0 20:266 #
6.6232265701768288800648065115774e-12 1:4 2:32.75 3:1.71679 4:0.37474599 5:0.65756798 6:0.92900097 7:2.0060401 8:2.0527201 9:0.962699 10:0.807576 11:47.903301 12:76.938103 13:0.33333299 14:0.75158602 15:0.74275899 16:13.5424 17:5 18:39.349998 19:5 20:39.349998 #
-6.6232265701768288800648065115774e-12 1:0 2:0 3:2.6315899 4:0.183521 5:0.67545801 6:1.37675 7:2.4272101 8:2.2581501 9:2.6710401 10:7.9941602 11:84.012901 12:26.336201 13:0.166667 14:0.75172901 15:0.85452402 16:22.323999 17:1 18:64 19:-1 20:-179 #
6.6232265701768288800648065115774e-12 1:0 2:0 3:6.3432698 4:0.506827 5:1.01324 6:2.9430599 7:2.1415 8:1.36844 9:2.1120801 10:1.82399 11:67.855598 12:47.8498 13:0.166667 14:0.94294101 15:0.90483803 16:18.618999 17:0 18:0 19:1 20:188 #
-6.6232265701768288800648065115774e-12 1:1 2:17 3:2.91134 4:0.98392999 5:0.47994801 6:0.44341299 7:0.57682502 8:2.0764899 9:0.523754 10:5.4414802 11:77.449898 12:63.6437 13:0.66666698 14:0.94687402 15:0.89659899 16:20.8685 17:1 18:17 19:7 20:176.14301 #
6.6232265701768288800648065115774e-12 1:0 2:0 3:2.2008801 4:2.8083601 5:0.61649102 6:3.8887801 7:1.2092 8:1.17689 9:2.3050699 10:1.2378 11:60.161999 12:27.3529 13:0.166667 14:0.81539202 15:0.78125697 16:16.7201 17:1 18:92 19:8 20:-15 #
-6.6232265701768288800648065115774e-12 1:0 2:0 3:3.39502 4:0.619587 5:0.37211201 6:1.10263 7:0.68470198 8:0.91720998 9:1.4627 10:5.9306998 11:75.6502 12:68.352898 13:0.33333299 14:0.87127 15:0.92112499 16:20.457199 17:0 18:0 19:0 20:0 #
6.6232265701768288800648065115774e-12 1:6 2:30 3:3.49892 4:0.194296 5:0.39548001 6:2.8746099 7:1.61211 8:2.14134 9:2.46646 10:1.07607 11:56.295399 12:39.0229 13:0.166667 14:0.92608798 15:0.98259002 16:15.7367 17:10 18:42.363602 19:10 20:42.363602 #
-6.6232265701768288800648065115774e-12 1:-1 2:-9.9166698 3:2.74664 4:1.60531 5:3.7562101 6:0.70985299 7:3.8894501 8:2.83845 9:4.9998899 10:9.2928104 11:79.775597 12:16.3246 13:0.33333299 14:0.85730797 15:0.90166098 16:21.392401 17:-1 18:-9.9166698 19:-1 20:-9.9166698 #
6.6232265701768288800648065115774e-12 1:0 2:0 3:1.97912 4:0.79126298 5:0.32970101 6:1.2362601 7:1.2752399 8:0.63790202 9:1.2119 10:0.54648203 11:42.390999 12:40.188599 13:0.166667 14:0.853719 15:0.89566499 16:12.0608 17:0 18:0 19:0 20:0 #
-6.6232265701768288800648065115774e-12 1:0 2:0 3:5.24753 4:1.98209 5:1.14802 6:0.36784199 7:0.64637703 8:2.0626299 9:0.244046 10:5.28268 11:78.826897 12:85.436203 13:0.66666698 14:0.91305703 15:0.946163 16:21.179701 17:1 18:75 19:1 20:-129 #
-6.6232265701768288800648065115774e-12 1:0 2:0 3:2.8873401 4:0.60159802 5:0.111785 6:1.66205 7:1.00815 8:0.77322203 9:2.8482499 10:6.9222102 11:88.618103 12:19.2218 13:0.33333299 14:0.78835398 15:0.86396003 16:23.3018 17:0 18:0 19:6 20:176.66701 #
6.6232265701768288800648065115774e-12 1:2 2:44 3:4.6800499 4:0.220843 5:1.13489 6:1.41662 7:2.3225 8:2.4159601 9:4.39431 10:2.09742 11:70.104897 12:24.443399 13:0.33333299 14:0.86098999 15:0.89333099 16:19.1586 17:7 18:71.285698 19:6 20:-63.714298 #
-6.6232265701768288800648065115774e-12 1:1 2:10.5 3:2.4565899 4:1.07465 5:5.1615801 6:5.7898102 7:1.46477 8:4.7875199 9:2.9241099 10:5.3658299 11:81.397202 12:19.0539 13:1 14:0.77542102 15:0.86732399 16:21.752399 17:-3 18:-64.25 19:-4 20:-70.800003 #
6.6232265701768288800648065115774e-12 1:2 2:12 3:2.8177199 4:0.43958101 5:1.0537601 6:0.71743202 7:2.3534999 8:1.05076 9:2.73614 10:2.04895 11:74.097298 12:27.7535 13:0.166667 14:0.804842 15:0.79881698 16:20.098301 17:2 18:12 19:2 20:12 #
-6.6232265701768288800648065115774e-12 1:0 2:0 3:3.89065 4:0.65125 5:0.628636 6:0.33929899 7:0.458119 8:0.53671098 9:0.355923 10:5.12572 11:83.793404 12:68.241898 13:0.33333299 14:0.73831898 15:0.92163998 16:22.276501 17:0 18:0 19:-1 20:-261 #
6.6232265701768288800648065115774e-12 1:3 2:-1 3:1.7366 4:4.3264799 5:2.08039 6:2.4586899 7:1.34429 8:0.82823497 9:0.88582599 10:0.88582599 11:49.244701 12:49.0476 13:0.166667 14:0.76947099 15:0.74640602 16:13.8983 17:3 18:-16.200001 19:3 20:-27.3333 #
-6.6232265701768288800648065115774e-12 1:-4 2:-18.375 3:1.6941 4:0.470833 5:0.58089501 6:0.121556 7:0.244892 8:0.86525702 9:0.231141 10:4.9055099 11:79.753998 12:72.726196 13:0.444444 14:0.88153201 15:0.875615 16:21.387501 17:-4 18:-18.375 19:-3 20:191.625 #
6.6232265701768288800648065115774e-12 1:-2 2:-10.25 3:3.7652099 4:1.9528 5:0.91472101 6:1.73589 7:1.73947 8:0.69973099 9:0.90482497 10:1.44139 11:61.7738 12:53.324902 13:0.166667 14:0.61493498 15:0.90872699 16:17.124399 17:-2 18:-10.25 19:-4 20:-108.375 #
-6.6232265701768288800648065115774e-12 1:-1 2:-10.5 3:3.1259799 4:0.2308 5:0.404156 6:1.28781 7:1.68062 8:3.38363 9:2.4858799 10:7.3111501 11:78.126404 12:40.122002 13:0.166667 14:0.93565202 15:0.94292498 16:21.021799 17:-1 18:-10.5 19:-1 20:164.75 #
6.6232265701768288800648065115774e-12 1:5 2:1.16667 3:2.24579 4:0.44784001 5:1.34885 6:4.5826702 7:1.4670399 8:1.44841 9:2.2298501 10:0.76436102 11:47.755299 12:38.0308 13:0.166667 14:0.81170899 15:0.883367 16:13.503 17:4 18:-33.833302 19:4 20:-33.833302 #
-6.6232265701768288800648065115774e-12 1:-3 2:-47.666698 3:8.34723 4:0.57458299 5:5.9811401 6:6.0328002 7:2.4990699 8:1.76499 9:7.4643402 10:7.16397 11:80.153801 12:26.355301 13:0.66666698 14:0.95441902 15:0.965635 16:21.4767 17:-4 18:-52.25 19:-4 20:-52.25 #
6.6232265701768288800648065115774e-12 1:0 2:0 3:2.52753 4:1.67844 5:0.39183301 6:0.253212 7:1.43959 8:1.32513 9:0.94617701 10:1.27986 11:57.328701 12:69.778397 13:0.33333299 14:0.84169102 15:0.79821098 16:16.001301 17:0 18:0 19:3 20:264.66699 #
-6.6232265701768288800648065115774e-12 1:3 2:17.3333 3:4.74827 4:0.44567999 5:0.77297503 6:1.3947999 7:0.97780102 8:0.672849 9:0.83522302 10:5.4917202 11:80.079803 12:89.754097 13:0.33333299 14:0.74872202 15:0.94320101 16:21.460199 17:3 18:17.3333 19:3 20:17.3333 #
6.6232265701768288800648065115774e-12 1:0 2:0 3:2.0000501 4:1.53864 5:0.36148801 6:1.16078 7:1.88982 8:1.0588599 9:1.8097 10:2.0069699 11:67.9617 12:23.3354 13:0.166667 14:0.59795201 15:0.768094 16:18.6446 17:0 18:0 19:-1 20:-91 #
-6.6232265701768288800648065115774e-12 1:0 2:0 3:3.02755 4:0.90591902 5:1.0178699 6:3.0204201 7:1.72782 8:1.19258 9:3.4009199 10:7.3284502 11:83.4842 12:26.796499 13:0.33333299 14:0.81940597 15:0.90784901 16:22.2094 17:0 18:0 19:0 20:0 #
6.6232265701768288800648065115774e-12 1:0 2:0 3:1.57022 4:0.31206301 5:0.42992899 6:2.4477899 7:1.2868201 8:0.83050698 9:1.72666 10:0.733778 11:51.819099 12:45.7668 13:0.166667 14:0.784042 15:0.75674999 16:14.5761 17:0 18:0 19:5 20:23.7857 #
6.6232265701768288800648065115774e-12 1:2 2:2.1666701 3:1.56584 4:1.20251 5:0.71519899 6:4.33986 7:1.23045 8:3.04269 9:2.1155801 10:1.11476 11:56.058201 12:24.166901 13:0.166667 14:0.72326601 15:0.721578 16:15.6758 17:2 18:2.1666701 19:3 20:-12 #
-6.6232265701768288800648065115774e-12 1:-4 2:-14 3:1.57188 4:1.31261 5:5.7511902 6:1.96386 7:3.96837 8:4.98843 9:9.6174603 10:9.6174603 11:86.819801 12:13.5587 13:1 14:0.93082398 15:0.74505001 16:22.9244 17:-5 18:-24.4286 19:-6 20:-33.25 #
6.6232265701768288800648065115774e-12 1:2 2:15.5 3:1.44591 4:0.310572 5:0.58928198 6:2.73666 7:1.25415 8:2.0239501 9:2.4405301 10:0.418672 11:29.8654 12:32.632599 13:0.166667 14:0.86074197 15:0.76608801 16:8.5959597 17:3 18:32.5 19:3 20:18.549999 #
-6.6232265701768288800648065115774e-12 1:2 2:23 3:7.1213799 4:0.42217499 5:0.165287 6:2.23686 7:1.6705199 8:0.62023997 9:1.80469 10:6.8283801 11:81.725304 12:28.7537 13:0.66666698 14:0.92657501 15:0.937612 16:21.824699 17:2 18:23 19:2 20:23 #
6.6232265701768288800648065115774e-12 1:0 2:0 3:1.88897 4:0.941504 5:0.54926902 6:1.5149 7:2.4040101 8:2.01543 9:2.0323801 10:2.67414 11:80.606201 12:49.217499 13:0.166667 14:0.81465203 15:0.76385301 16:21.577299 17:0 18:0 19:0 20:0 #
-6.6232265701768288800648065115774e-12 1:-1 2:-36.5 3:1.7041 4:0.88462198 5:0.29854599 6:0.86015701 7:1.00359 8:0.77162403 9:1.47384 10:6.3617201 11:74.676804 12:34.6572 13:0.33333299 14:0.78343201 15:0.84027201 16:20.2327 17:-1 18:-36.5 19:0 20:96.5 #
6.6232265701768288800648065115774e-12 1:0 2:0 3:2.80229 4:0.60733002 5:1.2900701 6:1.09475 7:2.67171 8:1.74202 9:2.2137599 10:2.37638 11:69.847397 12:27.0972 13:0.444444 14:0.91254997 15:0.89399302 16:19.0972 17:0 18:0 19:1 20:120 #
-6.6232265701768288800648065115774e-12 1:-3 2:-40.666698 3:2.71679 4:0.70710897 5:2.03438 6:2.5135 7:1.11765 8:3.6167099 9:1.42195 10:6.0013499 11:89.141098 12:69.765297 13:0.444444 14:0.85609102 15:0.876966 16:23.410601 17:-7 18:-68.571404 19:-9 20:-83.333298 #
6.6232265701768288800648065115774e-12 1:0 2:0 3:1.98057 4:0.65859401 5:0.688272 6:2.90044 7:1.1621 8:0.93229699 9:4.0881901 10:1.39586 11:57.295502 12:20.3708 13:0.166667 14:0.901802 15:0.82263702 16:15.9928 17:0 18:0 19:0 20:0 #
-6.6232265701768288800648065115774e-12 1:0 2:54 3:3.6788299 4:2.73826 5:5.1552901 6:1.64891 7:0.98971701 8:2.16028 9:5.22576 10:4.59056 11:75.598099 12:15.8479 13:1 14:0.91556799 15:0.88425797 16:20.4452 17:2 18:61.333302 19:4 20:112 #
-6.6232265701768288800648065115774e-12 1:0 2:0 3:2.0972099 4:0.74057001 5:1.5122401 6:1.22032 7:0.216436 8:1.67136 9:0.93830103 10:2.2973599 11:73.933098 12:86.817398 13:0.33333299 14:0.671992 15:0.85457599 16:20.060101 17:0 18:0 19:3 20:212.33299 #
6.6232265701768288800648065115774e-12 1:0 2:0 3:2.0118101 4:0.217994 5:1.18472 6:0.55256701 7:3.12588 8:1.24666 9:1.28786 10:2.6308501 11:68.790398 12:49.518299 13:0.166667 14:0.63652402 15:0.81107002 16:18.844101 17:0 18:0 19:1 20:164 #
-6.6232265701768288800648065115774e-12 1:-1 2:-5.5 3:5.8433499 4:1.25073 5:1.40056 6:0.987782 7:0.59053302 8:0.33757201 9:0.74946201 10:5.0352702 11:85.958099 12:58.270199 13:0.33333299 14:0.64921898 15:0.93524998 16:22.741501 17:-1 18:-5.5 19:-2 20:-110 #
6.6232265701768288800648065115774e-12 1:-1 2:-17 3:1.88538 4:2.7874 5:0.67223102 6:1.46868 7:0.68807501 8:2.26283 9:1.46109 10:0.96791601 11:53.871201 12:79.650902 13:0.33333299 14:0.87359798 15:0.89756399 16:15.111 17:-3 18:-35 19:-1 20:29 #
-6.6232265701768288800648065115774e-12 1:0 2:0 3:2.29989 4:0.81845701 5:3.43256 6:2.17471 7:0.80248302 8:0.81017399 9:1.98735 10:4.40798 11:89.265999 12:25.090099 13:0.33333299 14:0.57329297 15:0.71518701 16:23.436399 17:0 18:0 19:-1 20:85 #
-6.6232265701768288800648065115774e-12 1:2 2:28 3:4.2842002 4:1.63647 5:0.88308102 6:2.1415901 7:0.67061299 8:1.2026401 9:0.98629898 10:5.3531098 11:86.664398 12:65.251198 13:0.444444 14:0.860672 15:0.92601502 16:22.8915 17:2 18:28 19:-6 20:-109.889 #
6.6232265701768288800648065115774e-12 1:-5 2:-32.400002 3:2.6006999 4:1.2123801 5:0.28961599 6:0.75111502 7:0.67922503 8:1.23892 9:0.66837901 10:0.51297498 11:43.873402 12:83.097603 13:0.166667 14:0.81588697 15:0.93388498 16:12.4621 17:-7 18:-46.4286 19:-5 20:237.071 #
-6.6232265701768288800648065115774e-12 1:-3 2:-26 3:1.74334 4:0.65795398 5:0.57235098 6:2.6384699 7:4.2135801 8:2.4918799 9:5.7114601 10:11.0977 11:81.6791 12:5.7235799 13:0.444444 14:0.83439398 15:0.75805098 16:21.8146 17:-3 18:-26 19:-3 20:-26 #
6.6232265701768288800648065115774e-12 1:2 2:22 3:1.40722 4:1.15449 5:0.76423401 6:1.56203 7:2.1754501 8:1.15214 9:2.0982101 10:2.2794001 11:65.173103 12:22.021 13:0.166667 14:0.543513 15:0.79146397 16:17.966 17:0 18:-43 19:0 20:-104 #
-6.6232265701768288800648065115774e-12 1:1 2:-21.6667 3:1.90474 4:2.8276899 5:1.50925 6:1.75219 7:0.39497599 8:3.6639299 9:1.4289401 10:5.6778598 11:89.068703 12:38.734798 13:0.66666698 14:0.431945 15:0.77336597 16:23.3955 17:1 18:-21.6667 19:1 20:12.6 #
6.6232265701768288800648065115774e-12 1:-1 2:-32 3:2.2662499 4:1.25397 5:0.78647298 6:1.04933 7:1.14138 8:0.86907101 9:5.1511002 10:1.7934 11:65.278397 12:5.5706301 13:0.33333299 14:0.81220299 15:0.82911199 16:17.9918 17:0 18:64 19:7 20:3.8666699 #
-6.6232265701768288800648065115774e-12 1:0 2:0 3:1.76359 4:0.341066 5:1.76248 6:0.39214301 7:0.69871801 8:1.36105 9:0.320274 10:4.3077502 11:78.195099 12:83.331902 13:0.66666698 14:0.95462197 15:0.89081103 16:21.0373 17:0 18:0 19:0 20:0 #
6.6232265701768288800648065115774e-12 1:2 2:-11.3333 3:4.3703399 4:0.120014 5:0.29583699 6:1.45026 7:1.73684 8:1.15792 9:1.8926001 10:1.8926001 11:73.612 12:81.413696 13:0.33333299 14:0.92051202 15:0.87580901 16:19.9853 17:1 18:-36.333302 19:-1 20:-50.599998 #
-6.6232265701768288800648065115774e-12 1:0 2:-9 3:5.1096101 4:1.52171 5:7.73105 6:3.23489 7:11.2669 8:7.53369 9:19.9657 10:19.9657 11:87.941002 12:35.282398 13:1 14:0.96977597 15:0.97096699 16:23.1604 17:0 18:-9 19:-3 20:-56.295502 #
6.6232265701768288800648065115774e-12 1:1 2:21.6667 3:1.0586801 4:1.0525 5:0.894301 6:0.85549498 7:1.8694 8:0.824812 9:2.2547801 10:1.57125 11:64.931297 12:39.8741 13:0.166667 14:0.64587599 15:0.85863602 16:17.906601 17:1 18:21.6667 19:1 20:21.6667 #
-6.6232265701768288800648065115774e-12 1:-1 2:-2.4166701 3:3.0434 4:0.35482299 5:0.72766101 6:1.92796 7:2.73769 8:3.9814601 9:4.5397701 10:8.58638 11:83.098198 12:14.4163 13:0.166667 14:0.84424299 15:0.92795199 16:22.125401 17:-1 18:-2.4166701 19:0 20:36.75 #
6.6232265701768288800648065115774e-12 1:1 2:12 3:2.73506 4:2.1854401 5:0.501248 6:1.47543 7:1.90247 8:2.72001 9:2.78458 10:2.5913401 11:68.354401 12:64.368301 13:0.66666698 14:0.867715 15:0.893592 16:18.7393 17:1 18:12 19:1 20:12 #
-6.6232265701768288800648065115774e-12 1:-2 2:-43.666698 3:2.0367301 4:2.76386 5:2.07686 6:1.38141 7:1.44839 8:4.07586 9:1.56234 10:6.6013398 11:81.513901 12:46.3116 13:0.66666698 14:0.66353202 15:0.84215498 16:21.7782 17:-3 18:-48.5 19:-3 20:-48.5 #
6.6232265701768288800648065115774e-12 1:0 2:0 3:4.1799202 4:3.79245 5:0.282612 6:1.16831 7:0.726089 8:1.48554 9:1.86993 10:1.57196 11:63.616501 12:33.881199 13:0.166667 14:0.653799 15:0.92220902 16:17.5825 17:0 18:0 19:0 20:0 #
-6.6232265701768288800648065115774e-12 1:0 2:0.5 3:3.4172299 4:2.1378901 5:1.40671 6:0.60607702 7:0.394537 8:2.0885501 9:0.86803502 10:4.81282 11:86.524803 12:84.460999 13:0.444444 14:0.84407401 15:0.869048 16:22.8619 17:0 18:0.5 19:4 20:164.60001 #
6.6232265701768288800648065115774e-12 1:-2 2:-14 3:2.12444 4:0.374659 5:0.46361199 6:1.84937 7:1.01579 8:1.4644099 9:3.18662 10:0.91601199 11:58.384899 12:15.1279 13:0.166667 14:0.71581 15:0.75185299 16:16.270399 17:-2 18:58.666698 19:-4 20:62.190498 #
-6.6232265701768288800648065115774e-12 1:3 2:36.166698 3:2.12746 4:0.50788301 5:0.35411 6:0.95008099 7:0.61677498 8:0.733513 9:2.7729299 10:5.70719 11:88.293701 12:39.591099 13:0.33333299 14:0.82525498 15:0.86075199 16:23.2342 17:2 18:-37.833302 19:1 20:-89.583298 #
6.6232265701768288800648065115774e-12 1:-1 2:-19 3:1.87445 4:0.718768 5:0.310112 6:1.5630701 7:1.12565 8:0.76083201 9:3.7643199 10:2.0464301 11:84.540901 12:22.0051 13:0.166667 14:0.806063 15:0.75690401 16:22.438 17:-1 18:-19 19:0 20:66 #
-6.6232265701768288800648065115774e-12 1:0 2:0 3:2.1334 4:1.5859801 5:0.59231001 6:0.488722 7:0.88950598 8:1.29204 9:0.332798 10:5.51122 11:89.5457 12:65.371201 13:0.66666698 14:0.92194301 15:0.87770498 16:23.494301 17:0 18:0 19:0 20:0 #
6.6232265701768288800648065115774e-12 1:3 2:18.3333 3:3.0298901 4:1.54301 5:2.21892 6:1.6938601 7:2.2277901 8:0.47257999 9:2.87363 10:1.70399 11:63.361801 12:55.663799 13:0.166667 14:0.906385 15:0.951204 16:17.519501 17:4 18:30.25 19:3 20:-217.75 #
-6.6232265701768288800648065115774e-12 1:0 2:0 3:3.1954701 4:0.599859 5:0.60289699 6:0.934066 7:6.1203899 8:3.06038 9:15.7914 10:15.7914 11:85.549004 12:13.0879 13:0.33333299 14:0.956034 15:0.92301702 16:22.654301 17:0 18:0 19:-4 20:-178.5 #
6.6232265701768288800648065115774e-12 1:1 2:4 3:2.4702899 4:0.73031098 5:0.48124799 6:0.87308198 7:1.61089 8:4.1085801 9:2.69684 10:2.2465 11:65.545502 12:25.2813 13:0.166667 14:0.852557 15:0.87750399 16:18.057199 17:0 18:-80 19:-1 20:108.467 #
-6.6232265701768288800648065115774e-12 1:-2 2:-15.5 3:8.9013596 4:0.247099 5:0.51611203 6:2.8315301 7:2.6800499 8:2.6830399 9:7.2102399 10:9.1856098 11:77.641701 12:14.4453 13:0.33333299 14:0.97899002 15:0.98943502 16:20.912001 17:-2 18:-15.5 19:-3 20:-102.333 #
6.6232265701768288800648065115774e-12 1:1 2:16.5 3:3.62391 4:0.60988897 5:0.38535899 6:1.04608 7:2.27755 8:1.40466 9:2.1296201 10:2.4449999 11:69.641296 12:57.147099 13:0.444444 14:0.91735798 15:0.94504797 16:19.048 17:1 18:16.5 19:-1 20:-222.25 #
-6.6232265701768288800648065115774e-12 1:1 2:9 3:2.5436399 4:0.92529202 5:0.29763699 6:1.00577 7:0.930646 8:1.5765001 9:1.21824 10:5.4257898 11:84.781998 12:63.1483 13:0.33333299 14:0.58124399 15:0.84542501 16:22.489901 17:1 18:9 19:0 20:-162 #
6.6232265701768288800648065115774e-12 1:3 2:12 3:2.8029699 4:0.38239101 5:0.545587 6:2.0418799 7:1.6566401 8:1.54126 9:1.04731 10:1.04731 11:57.2187 12:75.799004 13:0.444444 14:0.91893798 15:0.91214103 16:15.9732 17:3 18:12 19:4 20:44 #
-6.6232265701768288800648065115774e-12 1:2 2:42.25 3:3.1956999 4:1.09372 5:2.02091 6:0.336889 7:0.386619 8:1.09851 9:0.209254 10:3.16381 11:84.465698 12:81.932602 13:0.66666698 14:0.96007699 15:0.82220799 16:22.4217 17:2 18:42.25 19:2 20:42.25 #
6.6232265701768288800648065115774e-12 1:3 2:10.6667 3:2.6123199 4:0.26717699 5:0.74146199 6:2.7583899 7:1.70279 8:1.11735 9:2.5236001 10:1.5966901 11:64.954399 12:20.220301 13:0.166667 14:0.69189399 15:0.86332202 16:17.9123 17:3 18:10.6667 19:6 20:-98.857101 #
-6.6232265701768288800648065115774e-12 1:0 2:18.3333 3:4.0669899 4:7.3470998 5:3.6391101 6:2.0280099 7:3.4510901 8:5.6508999 9:11.4802 10:11.4802 11:79.304199 12:10.8622 13:1 14:0.978562 15:0.95193899 16:21.2869 17:0 18:18.3333 19:0 20:18.3333 #
