SVM-light Version V6.02
0 # kernel type
3 # kernel parameter -d 
1 # kernel parameter -g 
1 # kernel parameter -s 
1 # kernel parameter -r 
empty# kernel parameter -u 
20 # highest feature index 
2282 # number of training documents 
28 # number of support vectors plus 1 
1.0005532 # threshold b, each following line is a SV (starting with alpha*y)
-3.0316352397558114220230129909339e-05 1:-1 2:-33 3:1.44397 4:0.61473697 5:0.164341 6:0.13812099 7:0.082712203 8:0.0571796 9:0.0782419 10:0.0782419 11:20.0853 12:79.039398 13:0.444444 14:0.99841702 15:0.98892802 16:5.81709 17:-1 18:-33 19:-2 20:41.666698 #
5.6439910059119798393413580672728e-05 1:1 2:16 3:2.31881 4:0.69226801 5:0.31314701 6:0.53393197 7:0.50298798 8:1.17109 9:0.61986899 10:0.47712699 11:41.355 12:64.184402 13:0.66666698 14:0.82064599 15:0.89743102 16:11.7791 17:1 18:16 19:-1 20:-135.5 #
-4.5800594162360237695391651513432e-06 1:-1 2:-10 3:5.0205302 4:0.221239 5:0.115711 6:0.154424 7:2.65484 8:0.93514401 9:1.56493 10:1.56493 11:79.0308 12:86.878601 13:0.33333299 14:0.91962999 15:0.82181102 16:21.2255 17:0 18:72 19:0 20:-33.333302 #
5.6439910059119798393413580672728e-05 1:0 2:0 3:2.3875401 4:2.4054201 5:0.63679898 6:0.50899899 7:0.52322203 8:0.38873199 9:0.48781601 10:1.96384 11:64.289497 12:68.045403 13:0.66666698 14:0.84314799 15:0.85402399 16:17.748699 17:0 18:0 19:1 20:166 #
-2.3356170656752169023651077850445e-05 1:0 2:0 3:2.0757401 4:0.688263 5:0.16899 6:0.41738501 7:0.45206901 8:0.215048 9:1.7142 10:0.39012101 11:37.814499 12:31.4856 13:0.33333299 14:0.52961498 15:0.93653798 16:10.8094 17:0 18:0 19:1 20:292 #
5.6439910059119798393413580672728e-05 1:1 2:-10.5 3:1.44894 4:1.00371 5:0.72710198 6:1.45112 7:0.60837501 8:0.243012 9:0.74025798 10:0.93951702 11:59.743401 12:71.062698 13:0.444444 14:0.788809 15:0.80253297 16:16.6145 17:1 18:-10.5 19:0 20:10 #
-4.7378752995590081402432769408506e-07 1:2 2:14.6667 3:3.24033 4:6.5700798 5:9.9121399 6:1.74506 7:0.092195898 8:0.082677498 9:1.0946 10:7.8818102 11:78.905998 12:69.172997 13:0.444444 14:0.65179402 15:0.916857 16:21.1975 17:2 18:14.6667 19:1 20:-85.333298 #
-2.5590908782339993887688933682512e-05 1:1 2:44 3:1.72849 4:0.046203099 5:0.28881699 6:0.52398199 7:0.067969598 8:0.087578498 9:0.248776 10:1.45556 11:63.041401 12:67.681602 13:0.444444 14:0.892932 15:0.93075502 16:17.4401 17:1 18:44 19:0 20:-184 #
-1.5743672068026862414114735999604e-05 1:2 2:24 3:5.3715301 4:1.9304399 5:0.15240701 6:1.46553 7:0.32225701 8:0.45370799 9:5.22403 10:5.22403 11:85.666801 12:66.792801 13:1 14:0.901757 15:0.92103398 16:22.679399 17:2 18:24 19:2 20:-98.333298 #
-1.9970862096067795054448248959211e-05 1:0 2:0 3:3.77244 4:0.80563903 5:0.32713601 6:0.45699701 7:0.078317299 8:0.25501201 9:0.199596 10:0.864344 11:51.556198 12:87.806999 13:0.33333299 14:0.79276001 15:0.85724002 16:14.5072 17:0 18:0 19:2 20:237.5 #
-2.6749010854620260016316357631894e-05 1:0 2:-16.5 3:1.58257 4:0.35004199 5:0.46872601 6:0.49105 7:0.42332801 8:0.64752102 9:0.59598702 10:2.4916301 11:88.1325 12:76.917397 13:0.444444 14:0.69936103 15:0.84890598 16:23.2005 17:-1 18:-32.5 19:0 20:10.75 #
-8.1774736464412952317848404248934e-06 1:1 2:18 3:4.03479 4:2.8013699 5:2.66716 6:4.3648801 7:0.49456099 8:0.25525299 9:4.3156199 10:4.3156199 11:75.693604 12:29.427099 13:1 14:0.92334801 15:0.89053202 16:20.467199 17:1 18:18 19:0 20:-210 #
-1.8475950091939585817613078688737e-06 1:-1 2:-12 3:1.41783 4:0.89368999 5:0.22024199 6:0.191791 7:0.370994 8:0.36827299 9:0.433961 10:1.49578 11:68.042198 12:81.937103 13:0.444444 14:0.90463001 15:0.79109597 16:18.664 17:1 18:29 19:-2 20:-20.25 #
-1.3720799988958809478845068952069e-06 1:1 2:40 3:1.30785 4:0.22004899 5:0.135868 6:0.30631801 7:0.62246603 8:0.703224 9:0.796812 10:0.796812 11:55.073898 12:72.963997 13:0.444444 14:0.86793602 15:0.73858798 16:15.4223 17:1 18:40 19:-1 20:-173 #
-3.712228890397420433266972850106e-06 1:2 2:10 3:1.31338 4:13.7044 5:0.125103 6:0.173072 7:0.164125 8:0.38310099 9:0.25067699 10:0.25227299 11:31.812 12:64.9207 13:0.66666698 14:0.94501501 15:0.94873899 16:9.14223 17:2 18:10 19:0 20:-184 #
-9.8700145123284714013950358335592e-07 1:3 2:14.3333 3:1.61142 4:0.28466299 5:0.067503303 6:0.072996803 7:0.087304302 8:0.43305501 9:0.189566 10:0.12838399 11:22.920099 12:88.423203 13:0.444444 14:0.96036202 15:0.96454602 16:6.62783 17:3 18:14.3333 19:2 20:-278.66699 #
-4.1951014877568068572877280075772e-06 1:0 2:0 3:1.20296 4:0.20317601 5:0.21986599 6:0.136374 7:0.229826 8:0.116208 9:0.111473 10:0.111473 11:17.4484 12:76.837097 13:0.66666698 14:0.98049098 15:0.940651 16:5.0597701 17:0 18:0 19:-1 20:-294 #
-6.3403249454832689873990010653859e-08 1:1 2:60 3:1.64974 4:0.29838499 5:0.32917401 6:0.672921 7:0.310056 8:0.230745 9:0.20519499 10:0.363047 11:37.425598 12:72.882301 13:0.66666698 14:0.93383902 15:0.91329998 16:10.7022 17:0 18:-26 19:1 20:-26.1 #
-1.1185698877956183687172944662969e-06 1:1 2:36 3:1.39325 4:0.40422201 5:0.326974 6:0.208801 7:0.208041 8:0.90359199 9:0.103809 10:0.103809 11:19.8568 12:83.950996 13:0.66666698 14:0.97474402 15:0.96180201 16:5.7515898 17:1 18:36 19:-2 20:-51.5 #
-2.5414924854584217388947520177567e-07 1:2 2:26.75 3:1.25351 4:0.51308602 5:0.83489901 6:0.16561501 7:0.186808 8:0.125163 9:0.220551 10:0.220551 11:28.9496 12:61.863998 13:0.444444 14:0.971569 15:0.94496602 16:8.3381004 17:1 18:-58.25 19:-3 20:-90.333298 #
-2.9297643588331042088917783965119e-07 1:2 2:24 3:1.5868599 4:0.072805397 5:0.15906 6:0.118721 7:0.077664897 8:0.14210901 9:0.13248 10:0.116271 11:25.5107 12:64.240997 13:1 14:0.99334401 15:0.997881 16:7.36518 17:2 18:24 19:-1 20:-269.33301 #
-1.3211108850301174575531115706895e-07 1:3 2:27.6667 3:1.30112 4:0.085856602 5:0.083013304 6:0.135649 7:0.089853399 8:0.27086699 9:0.075875297 10:0.109891 11:24.8242 12:78.722702 13:0.66666698 14:0.99478 15:0.997495 16:7.1701398 17:3 18:27.6667 19:-2 20:-220.133 #
-2.2742786809891186311505251183007e-08 1:0 2:0 3:2.97282 4:2.37041 5:2.5209601 6:0.43946999 7:0.333886 8:0.27192101 9:2.8468101 10:3.2351799 11:70.042702 12:25.786301 13:1 14:0.973782 15:0.94256699 16:19.143801 17:0 18:0 19:-7 20:-205.714 #
-6.6078942450242209721844588443673e-08 1:3 2:17.3333 3:1.8293999 4:0.64636397 5:0.16256 6:0.13226099 7:0.079845101 8:0.31581801 9:0.109752 10:0.131965 11:25.558001 12:70.340698 13:0.66666698 14:0.98222297 15:0.983477 16:7.3786001 17:3 18:17.3333 19:2 20:-280.66699 #
-6.4863808054958471514686926817639e-08 1:-1 2:-42 3:1.47395 4:0.284118 5:0.37327501 6:0.50669801 7:0.74525201 8:0.26041999 9:0.75537801 10:1.4387701 11:70.479797 12:85.206802 13:0.444444 14:0.75496697 15:0.81133199 16:19.2479 17:-1 18:-42 19:3 20:77.400002 #
-1.8788542676202443088854176448527e-07 1:7 2:22.5714 3:2.0784299 4:1.59542 5:0.3955 6:0.245406 7:0.250747 8:0.194281 9:0.239687 10:0.239687 11:31.6313 12:83.010498 13:0.66666698 14:0.97916001 15:0.944462 16:9.0916405 17:7 18:22.5714 19:7 20:22.5714 #
-4.4645017624344275554600092181801e-08 1:-1 2:-54 3:1.35174 4:0.196481 5:0.143709 6:0.14326 7:0.143483 8:0.366662 9:0.158099 10:0.158099 11:29.1542 12:77.763496 13:1 14:0.99798101 15:0.997567 16:8.3957396 17:-2 18:-58 19:0 20:204 #
