SVM-light Version V6.02
0 # kernel type
3 # kernel parameter -d 
1 # kernel parameter -g 
1 # kernel parameter -s 
1 # kernel parameter -r 
empty# kernel parameter -u 
20 # highest feature index 
7893 # number of training documents 
176 # number of support vectors plus 1 
1.0001059 # threshold b, each following line is a SV (starting with alpha*y)
-5.3392361001465001675223009947047e-05 1:1 2:-5.5 3:1.8085999 4:1.44346 5:0.646622 6:0.97178203 7:0.574022 8:0.717942 9:0.72049201 10:1.0635999 11:51.7584 12:50.352501 13:0.444444 14:0.86013299 15:0.87466502 16:14.696 17:1 18:-5.5 19:1 20:-5.5 #
5.3392361001465001675223009947047e-05 1:0 2:-10.9375 3:2.7419801 4:0.16500799 5:1.23765 6:0.50977999 7:0.76480299 8:0.37373099 9:0.58536398 10:0.321881 11:35.802399 12:83.177399 13:0.222222 14:0.94278598 15:0.94106102 16:10.3493 17:0 18:-10.9375 19:-1 20:-75.468803 #
-1.4299896474616579635993907082536e-05 1:0 2:0 3:1.94417 4:0.50583798 5:1.19313 6:0.71886802 7:0.50545102 8:0.182956 9:0.80375999 10:0.80375999 11:55.673401 12:85.074501 13:0.33333299 14:0.92384797 15:0.83126599 16:15.7222 17:0 18:0 19:8 20:216.78101 #
5.3392361001465001675223009947047e-05 1:-1 2:-10 3:1.53168 4:0.39102501 5:0.87287599 6:0.77729303 7:0.40678301 8:0.48664701 9:0.708148 10:0.54250598 11:34.772099 12:62.233501 13:0.444444 14:0.840639 15:0.688685 16:10.0608 17:-1 18:-10 19:2 20:210 #
-2.6835752821949835278045326525387e-07 1:2 2:56.25 3:2.3352699 4:1.14753 5:0.684726 6:1.65811 7:0.204841 8:0.133193 9:0.333601 10:0.333601 11:35.8643 12:78.723701 13:0.33333299 14:0.94378 15:0.91781098 16:10.3666 17:3 18:60.333302 19:10 20:-56.727299 #
5.3392361001465001675223009947047e-05 1:7 2:32.142899 3:1.25991 4:0.29628399 5:0.614384 6:0.64482999 7:0.31350201 8:1.10498 9:0.291879 10:0.93740499 11:53.547699 12:77.725098 13:0.444444 14:0.93551201 15:0.91262901 16:15.1673 17:8 18:35.75 19:7 20:-225.25 #
-2.1118429511076319479712104509872e-08 1:0 2:0 3:1.53891 4:0.161851 5:0.56689399 6:0.68137699 7:0.337769 8:0.184764 9:1.2097501 10:1.5217 11:77.564301 12:62.204601 13:0.444444 14:0.623079 15:0.69205499 16:21.0895 17:0 18:0 19:-1 20:-258.5 #
-5.3392361001465001675223009947047e-05 1:0 2:0 3:8.0973997 4:0.320723 5:0.67673999 6:2.7575901 7:0.151287 8:0.146001 9:0.61095703 10:0.50916499 11:42.720699 12:86.036301 13:0.444444 14:0.90494102 15:0.90981102 16:12.2636 17:0 18:0 19:-1 20:-300 #
-1.1245577085071489738038116867891e-05 1:1 2:59.5 3:2.1543601 4:0.37716001 5:0.86376202 6:0.63863802 7:0.28782499 8:0.65175599 9:1.4587801 10:0.53660798 11:42.6684 12:65.240799 13:0.444444 14:0.76468003 15:0.808312 16:12.2493 17:1 18:59.5 19:4 20:198.375 #
5.3392361001465001675223009947047e-05 1:1 2:13 3:4.1613798 4:0.75349402 5:1.1287301 6:1.51815 7:0.20010699 8:0.38283101 9:1.10166 10:2.80145 11:83.566101 12:74.638603 13:0.33333299 14:0.86302799 15:0.88462597 16:22.434601 17:0 18:-79 19:-2 20:-176.16701 #
5.3392361001465001675223009947047e-05 1:1 2:36 3:1.50765 4:0.180217 5:1.03474 6:0.59118801 7:0.66667598 8:0.42324001 9:0.68773502 10:0.61708802 11:46.395599 12:57.250999 13:0.33333299 14:0.90882802 15:0.87805599 16:13.2628 17:1 18:36 19:10 20:189.2 #
-3.2423405830199643600647574359641e-05 1:0 2:0 3:1.82459 4:0.66733199 5:1.09329 6:0.76374602 7:0.14744 8:0.310444 9:1.76252 10:0.54906201 11:38.965199 12:43.0434 13:0.444444 14:0.78799897 15:0.82018501 16:11.2296 17:0 18:0 19:1 20:298 #
-5.3392361001465001675223009947047e-05 1:1 2:10 3:1.1801 4:0.28844401 5:0.28816399 6:1.1296999 7:0.248886 8:0.30700299 9:0.76432401 10:0.35274401 11:23.7679 12:56.418499 13:0.444444 14:0.63122499 15:0.76414198 16:6.93364 17:1 18:10 19:0 20:-290 #
5.3392361001465001675223009947047e-05 1:-2 2:-39 3:3.2739999 4:0.49943501 5:0.57834601 6:1.11324 7:0.39208299 8:0.89298099 9:1.62073 10:1.56227 11:65.517502 12:46.091999 13:0.444444 14:0.64661402 15:0.82169801 16:18.218901 17:-2 18:-39 19:4 20:127.667 #
-5.3392361001465001675223009947047e-05 1:0 2:0 3:2.3117199 4:0.66623503 5:1.16475 6:0.93477398 7:0.35706401 8:1.07763 9:1.19792 10:1.85771 11:84.2351 12:69.560402 13:0.444444 14:0.94155502 15:0.843117 16:22.580799 17:0 18:0 19:1 20:298.75 #
5.3392361001465001675223009947047e-05 1:4 2:30 3:1.95981 4:0.342457 5:0.36592999 6:0.95874 7:0.62668198 8:0.258634 9:0.54514498 10:0.283409 11:31.1369 12:61.6945 13:0.222222 14:0.81405097 15:0.90785497 16:9.0366201 17:7 18:52 19:11 20:-199.29201 #
-4.8151864787709121567670783603532e-05 1:0 2:0 3:2.44473 4:0.425311 5:0.81667501 6:0.344614 7:0.16608 8:0.128792 9:2.9401901 10:0.65588498 11:38.680302 12:35.504601 13:0.222222 14:0.87534797 15:0.76214099 16:11.1506 17:0 18:0 19:-1 20:-300 #
5.3392361001465001675223009947047e-05 1:-1 2:-32 3:1.29671 4:0.54960197 5:0.79706401 6:0.51182503 7:0.14857499 8:0.57551098 9:0.67566299 10:0.69945103 11:45.828098 12:51.996799 13:0.222222 14:0.68376797 15:0.73889297 16:13.1093 17:-1 18:-32 19:-4 20:-184 #
-4.289399566724477568229606516681e-05 1:1 2:59 3:2.7158699 4:0.94224697 5:0.40331 6:0.83600998 7:0.21258301 8:0.84285903 9:1.8226399 10:0.55786502 11:42.8829 12:32.495499 13:0.444444 14:0.55145299 15:0.84000301 16:12.308 17:2 18:63.5 19:0 20:-233 #
-3.3875049086295578551920187893032e-05 1:0 2:0 3:2.03776 4:1.87898 5:0.852763 6:0.235416 7:0.207358 8:0.159677 9:0.73177898 10:0.578116 11:42.472698 12:72.146797 13:0.222222 14:0.927068 15:0.82913601 16:12.1958 17:0 18:0 19:1 20:299 #
5.3392361001465001675223009947047e-05 1:-1 2:-29 3:3.4077499 4:0.057844099 5:0.854662 6:0.46819499 7:0.277291 8:0.449058 9:0.68173802 10:0.68173802 11:46.1329 12:47.594799 13:0.444444 14:0.89986998 15:0.888506 16:13.1918 17:-1 18:-29 19:2 20:133.66701 #
-5.3392361001465001675223009947047e-05 1:0 2:0 3:2.0235801 4:0.34958401 5:0.71033698 6:0.62039202 7:0.210642 8:0.27143601 9:0.221663 10:0.221663 11:28.734301 12:78.752502 13:0.33333299 14:0.97373199 15:0.92623597 16:8.3546495 17:0 18:0 19:-1 20:-299.5 #
5.3392361001465001675223009947047e-05 1:0 2:0 3:1.59242 4:0.395188 5:1.08834 6:0.91073799 7:0.33017799 8:1.34843 9:0.747926 10:0.747926 11:53.433701 12:82.1521 13:0.66666698 14:0.95787001 15:0.86333501 16:15.1373 17:0 18:0 19:-2 20:-182.5 #
-5.3392361001465001675223009947047e-05 1:0 2:0 3:1.68857 4:1.087 5:1.0351501 6:1.75402 7:0.61464399 8:0.57272899 9:0.69644701 10:2.2016101 11:75.760498 12:73.727997 13:0.33333299 14:0.766868 15:0.81752998 16:20.6737 17:0 18:0 19:-1 20:-300 #
5.3392361001465001675223009947047e-05 1:1 2:4 3:2.7079101 4:0.70862901 5:0.30108699 6:2.03705 7:0.58444703 8:0.41400701 9:1.26877 10:1.26877 11:56.578499 12:39.494701 13:0.222222 14:0.85416502 15:0.81653601 16:15.9569 17:1 18:4 19:5 20:131.2 #
-2.3282923604170593240032111070903e-05 1:0 2:0 3:2.6821899 4:0.20916 5:0.58608401 6:2.15236 7:0.17004 8:0.22514801 9:1.0161 10:1.0161 11:56.6726 12:60.314899 13:0.444444 14:0.98705399 15:0.87982398 16:15.9812 17:-1 18:-98 19:-3 20:-216 #
5.3392361001465001675223009947047e-05 1:2 2:47.333302 3:2.2794199 4:2.9735301 5:1.02811 6:0.74915802 7:0.29475501 8:0.25787899 9:0.430915 10:0.430915 11:33.935699 12:56.805599 13:0.222222 14:0.84731799 15:0.82997203 16:9.8260498 17:3 18:51.5 19:12 20:118.462 #
5.3392361001465001675223009947047e-05 1:-4 2:-20 3:2.3619699 4:0.82255602 5:0.208077 6:1.0193 7:1.0115401 8:0.79798901 9:0.66076899 10:1.10154 11:60.604 12:51.8498 13:0.33333299 14:0.79525501 15:0.87221998 16:16.9884 17:-4 18:-20 19:-2 20:126 #
-6.7316329527601618324110944319161e-07 1:0 2:0 3:3.69607 4:0.262389 5:1.26975 6:0.59154999 7:0.21883 8:0.21345399 9:3.4568501 10:3.4568501 11:78.598297 12:32.280201 13:0.444444 14:0.860641 15:0.81119698 16:21.3255 17:0 18:0 19:4 20:281 #
-5.3375675388995364161609513686813e-05 1:0 2:0 3:1.52022 4:0.61006403 5:0.75206101 6:0.71326602 7:0.28701299 8:0.205796 9:0.60422498 10:0.60422498 11:37.7258 12:66.096901 13:0.444444 14:0.808402 15:0.65782499 16:10.8856 17:0 18:0 19:1 20:298 #
-5.9665745070081998430167047331452e-09 1:3 2:10.6667 3:2.0468199 4:0.288232 5:0.41832301 6:0.347388 7:0.15050399 8:1.3516099 9:0.882357 10:1.0175101 11:56.335701 12:47.4431 13:0.444444 14:0.83449298 15:0.87282902 16:15.8941 17:3 18:10.6667 19:3 20:-216 #
-5.3283374295556325392006491448171e-05 1:0 2:0 3:1.60737 4:0.46084699 5:0.81958097 6:1.29559 7:0.22156399 8:0.46325901 9:0.27136999 10:0.27136999 11:30.309999 12:59.713402 13:0.66666698 14:0.864191 15:0.91035801 16:8.8023596 17:0 18:0 19:1 20:296 #
5.3392361001465001675223009947047e-05 1:-1 2:-8 3:3.36183 4:0.95372498 5:0.389929 6:0.404627 7:0.474489 8:0.4835 9:0.72743899 10:0.62053901 11:43.690102 12:55.528198 13:0.33333299 14:0.659563 15:0.86251801 16:12.5285 17:1 18:90 19:4 20:109.2 #
-5.3351753662770847776164462317183e-05 1:0 2:0 3:1.89266 4:0.53868502 5:0.859263 6:1.0014499 7:0.17877699 8:0.64507902 9:0.256248 10:0.71743602 11:46.630699 12:71.9422 13:0.66666698 14:0.95295697 15:0.87203503 16:13.3262 17:0 18:0 19:1 20:299 #
-1.7271994653431793631526147692057e-05 1:0 2:0 3:23.211399 4:0.40751699 5:0.035967201 6:0.069886602 7:0.069021598 8:0.201038 9:0.10391 10:0.058332998 11:18.6693 12:70.790604 13:0.444444 14:0.992854 15:0.99883699 16:5.4612498 17:0 18:0 19:2 20:289 #
5.3392361001465001675223009947047e-05 1:7 2:33.5 3:2.5753 4:0.53421098 5:2.3624799 6:1.14838 7:0.231308 8:0.36963299 9:0.87379903 10:0.47265801 11:41.6022 12:45.301899 13:0.222222 14:0.88187897 15:0.920609 16:11.957 17:7 18:-48.875 19:4 20:-66.375 #
-5.3392361001465001675223009947047e-05 1:0 2:0 3:2.9863 4:0.134359 5:0.75411201 6:1.0667 7:0.39076501 8:0.269936 9:0.39203301 10:0.53721899 11:43.3974 12:68.662003 13:0.444444 14:0.87561601 15:0.83312798 16:12.4486 17:0 18:0 19:-1 20:-299 #
5.3392361001465001675223009947047e-05 1:0 2:0 3:2.21121 4:0.40398899 5:2.5587499 6:1.81378 7:0.56369698 8:0.42426199 9:0.83090901 10:0.83090901 11:50.645 12:46.130699 13:0.33333299 14:0.860717 15:0.89328098 16:14.401 17:1 18:95.5 19:4 20:-152.58299 #
5.3392361001465001675223009947047e-05 1:2 2:9.5 3:1.57118 4:0.54826599 5:3.7718101 6:0.60699999 7:0.80736399 8:0.59551698 9:0.49206299 10:0.49674401 11:37.949902 12:60.710701 13:0.33333299 14:0.882824 15:0.82577801 16:10.9479 17:2 18:9.5 19:-1 20:-146.5 #
5.3392361001465001675223009947047e-05 1:6 2:27.1429 3:2.89747 4:0.28950799 5:0.653768 6:0.86020601 7:0.26214799 8:0.45657399 9:0.327842 10:0.327842 11:36.615799 12:78.709801 13:0.222222 14:0.951711 15:0.94253302 16:10.5765 17:6 18:27.1429 19:-3 20:-135.85699 #
5.3392361001465001675223009947047e-05 1:2 2:16 3:4.3113899 4:0.209824 5:0.57806802 6:0.33509299 7:0.909841 8:0.60158902 9:0.40959099 10:0.40959099 11:39.891102 12:79.839401 13:0.5 14:0.966856 15:0.90494502 16:11.4857 17:2 18:16 19:8 20:117.556 #
-2.9658905675650963727069120423607e-06 1:0 2:-28 3:1.4151599 4:0.468335 5:0.58447301 6:0.96330398 7:0.38807699 8:1.18213 9:0.216446 10:0.216446 11:24.797501 12:84.950897 13:0.66666698 14:0.90309799 15:0.889422 16:7.2293801 17:0 18:-28 19:9 20:109.3 #
-2.5917830517955937571529523300029e-05 1:0 2:0 3:1.44642 4:0.42004901 5:0.60376698 6:0.29391301 7:0.67660701 8:0.36463699 9:0.25254101 10:0.25254101 11:26.157301 12:80.131897 13:0.66666698 14:0.83109701 15:0.87187701 16:7.6190901 17:0 18:0 19:1 20:296 #
5.3392361001465001675223009947047e-05 1:-1 2:-8 3:1.57446 4:0.71480101 5:1.14845 6:0.22545099 7:0.71375501 8:0.58276999 9:0.310709 10:0.310709 11:31.710501 12:58.878101 13:0.66666698 14:0.90450901 15:0.90037 16:9.1988802 17:-4 18:-47.400002 19:2 20:104.73 #
-5.2473404582028398968063243046345e-05 1:0 2:0 3:2.01212 4:0.19509099 5:1.2178 6:0.86954302 7:0.27611899 8:0.179006 9:0.34983701 10:0.34983701 11:36.941502 12:68.643501 13:0.33333299 14:0.95777702 15:0.93300998 16:10.6673 17:0 18:0 19:6 20:-116.857 #
5.3392361001465001675223009947047e-05 1:0 2:-29.5 3:3.72932 4:0.66451102 5:0.68473899 6:0.75592601 7:0.739268 8:0.48687899 9:0.36524299 10:0.36524299 11:39.024399 12:78.248398 13:0.222222 14:0.95338702 15:0.95973098 16:11.246 17:0 18:-29.5 19:-1 20:-94.666702 #
-7.7652829153548440926924101290751e-09 1:-4 2:-26 3:2.35934 4:0.114039 5:2.1510701 6:0.64386702 7:0.37705201 8:1.60457 9:0.47746 10:0.575553 11:45.259399 12:49.9114 13:0.444444 14:0.86748302 15:0.94450599 16:12.9553 17:-4 18:-26 19:-3 20:246 #
5.3392361001465001675223009947047e-05 1:-2 2:-25.75 3:2.35817 4:0.68199998 5:0.41886699 6:0.44668299 7:0.47237399 8:0.406795 9:0.41885501 10:0.41885501 11:41.854801 12:87.150902 13:0.222222 14:0.97405797 15:0.97668999 16:12.0264 17:-1 18:65.75 19:6 20:110.333 #
-1.8291883979264223197142014143424e-07 1:0 2:0 3:5.0549402 4:0.50716299 5:0.48851001 6:0.107812 7:0.186515 8:0.42415401 9:0.16189501 10:0.102906 11:23.181 12:75.945999 13:0.66666698 14:0.98856503 15:0.98934799 16:6.7647901 17:0 18:0 19:10 20:158.39999 #
-5.27397545659308812767904206531e-05 1:0 2:0 3:1.59952 4:0.483888 5:0.80049503 6:0.768511 7:0.35617501 8:0.190494 9:0.302968 10:0.302968 11:33.1348 12:70.005997 13:0.33333299 14:0.89638603 15:0.91517502 16:9.6007204 17:0 18:0 19:1 20:296 #
-5.3392361001465001675223009947047e-05 1:0 2:0 3:1.67703 4:0.28521299 5:1.94042 6:0.79974401 7:0.18244 8:0.42951599 9:2.5518601 10:2.5518601 11:77.689796 12:23.2381 13:0.444444 14:0.69276202 15:0.76638901 16:21.1182 17:1 18:92 19:0 20:-200 #
5.3392361001465001675223009947047e-05 1:-5 2:-28 3:2.8461001 4:0.65969199 5:0.709508 6:0.90344101 7:0.44693199 8:0.34022099 9:0.51378 10:0.51378 11:40.7859 12:53.103699 13:0.222222 14:0.87857002 15:0.88183302 16:11.7325 17:-10 18:-57 19:-12 20:69.846199 #
5.3392361001465001675223009947047e-05 1:1 2:26 3:1.51837 4:0.402738 5:0.488738 6:0.321904 7:0.51069099 8:0.45577699 9:0.61273098 10:0.63746601 11:45.6455 12:51.3913 13:0.444444 14:0.88698 15:0.79995 16:13.0599 17:1 18:26 19:8 20:-107.6 #
-5.1441562320758436118069145681631e-05 1:2 2:10 3:1.2262599 4:0.32584801 5:0.566912 6:0.84174198 7:0.61619502 8:0.40954301 9:2.9997301 10:0.360448 11:30.739201 12:21.063601 13:0.444444 14:0.81510198 15:0.828538 16:8.9240198 17:2 18:10 19:1 20:-274 #
-5.337532308086864101057816833773e-05 1:0 2:0 3:3.36869 4:0.15333401 5:0.95412201 6:1.5047801 7:0.452479 8:0.41173699 9:0.60996801 10:0.60996801 11:45.784698 12:75.251404 13:0.33333299 14:0.83829999 15:0.88265502 16:13.0976 17:0 18:0 19:1 20:296.875 #
5.3392361001465001675223009947047e-05 1:0 2:0 3:1.86421 4:0.98541099 5:1.16213 6:0.56462699 7:0.557028 8:0.29632699 9:0.51023901 10:0.344724 11:24.3664 12:72.733398 13:0.222222 14:0.81931901 15:0.76409501 16:7.1056399 17:2 18:75 19:9 20:-112.2 #
5.3392361001465001675223009947047e-05 1:1 2:31 3:3.48455 4:0.182844 5:0.66730797 6:1.70205 7:0.51714599 8:0.60659701 9:0.40150699 10:0.45463499 11:42.247601 12:87.353401 13:0.222222 14:0.91848803 15:0.96446401 16:12.1341 17:1 18:31 19:6 20:88.428596 #
5.3392361001465001675223009947047e-05 1:0 2:-11 3:1.5288301 4:0.59505498 5:0.36597601 6:0.34818801 7:0.328058 8:0.248671 9:0.88607502 10:0.33509001 11:36.438599 12:71.660698 13:0.33333299 14:0.89292902 15:0.92979199 16:10.527 17:0 18:-11 19:-1 20:-97.5 #
-5.3335465888317646959357332114848e-05 1:0 2:0 3:1.78827 4:0.77204603 5:1.09877 6:0.49793801 7:0.239856 8:0.57194197 9:0.206728 10:0.206728 11:28.996 12:80.176697 13:0.444444 14:0.95857501 15:0.94660997 16:8.4291296 17:0 18:0 19:-1 20:-294 #
-4.9368991290520310155631733550763e-05 1:0 2:0 3:2.81407 4:0.44766101 5:0.32005 6:0.50611299 7:0.202924 8:1.2174 9:1.16913 10:2.4205799 11:87.854103 12:88.186096 13:0.444444 14:0.50979 15:0.77679998 16:23.3582 17:3 18:77.333298 19:2 20:-212.66701 #
5.3392361001465001675223009947047e-05 1:0 2:0 3:2.3975301 4:0.23544399 5:0.091045402 6:2.90154 7:0.25681499 8:0.306894 9:0.39721099 10:0.46900499 11:42.648499 12:72.167198 13:0.222222 14:0.92882699 15:0.94550699 16:12.2439 17:0 18:0 19:3 20:27.5625 #
-5.3392361001465001675223009947047e-05 1:0 2:0 3:3.1759901 4:0.25758201 5:1.24145 6:0.32183999 7:0.18525 8:0.17124499 9:0.21256 10:0.21256 11:32.0965 12:62.114799 13:0.444444 14:0.98554099 15:0.98658699 16:9.30793 17:0 18:0 19:1 20:294 #
5.3392361001465001675223009947047e-05 1:-2 2:-13.3333 3:1.3259701 4:1.66866 5:1.61453 6:1.0046099 7:0.26951501 8:0.43068901 9:0.88934398 10:1.73435 11:64.232903 12:65.813797 13:0.444444 14:0.77183098 15:0.84336501 16:17.900299 17:-2 18:-13.3333 19:-2 20:-13.3333 #
5.3392361001465001675223009947047e-05 1:2 2:22.5 3:1.9337 4:0.66619498 5:0.683056 6:1.5876499 7:0.62382001 8:0.190038 9:1.12665 10:1.12665 11:58.0769 12:59.324501 13:0.222222 14:0.90451503 15:0.87162399 16:16.343201 17:4 18:46.875 19:8 20:81.6875 #
5.3392361001465001675223009947047e-05 1:0 2:0 3:1.25245 4:0.26277 5:0.670129 6:0.38843301 7:0.346174 8:0.33046499 9:0.245313 10:0.178892 11:24.329201 12:85.8853 13:0.444444 14:0.84199703 15:0.92771697 16:7.0949302 17:0 18:0 19:6 20:-90.857101 #
-5.3392361001465001675223009947047e-05 1:0 2:0 3:7.1867199 4:0.46438199 5:0.095531397 6:0.139741 7:0.31147099 8:0.236471 9:0.223465 10:0.18783499 11:30.643 12:71.213699 13:0.33333299 14:0.99066198 15:0.98931599 16:8.89676 17:0 18:0 19:2 20:290 #
5.3392361001465001675223009947047e-05 1:2 2:-8 3:2.67363 4:0.37961501 5:0.64042598 6:0.79413801 7:0.307962 8:0.55730098 9:1.0075099 10:0.350499 11:35.340199 12:47.896198 13:0.222222 14:0.87016499 15:0.90211099 16:10.22 17:2 18:-8 19:1 20:-77 #
5.3392361001465001675223009947047e-05 1:2 2:-5.8333302 3:10.2311 4:0.472727 5:1.03909 6:1.0675 7:0.85826999 8:0.201335 9:0.68596298 10:0.78321701 11:51.507099 12:83.2491 13:0.66666698 14:0.99367702 15:0.99166298 16:14.6296 17:3 18:2.75 19:13 20:65.25 #
-3.7197720379254034463092221107772e-06 1:-1 2:-26 3:5.4633298 4:1.15545 5:0.72790402 6:0.30475101 7:0.208119 8:0.152338 9:0.239997 10:0.239997 11:33.7892 12:66.404999 13:0.444444 14:0.98647201 15:0.98565501 16:9.7848501 17:1 18:52 19:8 20:172.722 #
5.3392361001465001675223009947047e-05 1:-1 2:-8 3:3.33796 4:0.477725 5:1.76982 6:0.98185199 7:0.72321999 8:0.411533 9:0.81779099 10:0.81779099 11:51.681599 12:60.804501 13:0.222222 14:0.94307101 15:0.89855099 16:14.6757 17:2 18:44 19:2 20:44 #
5.3392361001465001675223009947047e-05 1:4 2:29 3:1.71728 4:0.44587001 5:0.86788702 6:0.84060198 7:0.31066099 8:0.45267999 9:0.38664901 10:0.31160599 11:37.475498 12:69.384499 13:0.33333299 14:0.89761102 15:0.97755402 16:10.816 17:7 18:55.714298 19:9 20:67.555603 #
5.3392361001465001675223009947047e-05 1:6 2:17.7857 3:2.61499 4:0.15484001 5:0.85394901 6:1.01498 7:0.78978002 8:0.77417099 9:0.75677699 10:0.75677699 11:50.5186 12:52.217701 13:0.66666698 14:0.95487499 15:0.97169602 16:14.3675 17:6 18:17.7857 19:5 20:-73.214302 #
-5.3392361001465001675223009947047e-05 1:0 2:0 3:1.47829 4:0.31923801 5:0.29507101 6:0.58445501 7:0.307037 8:0.284675 9:0.45728999 10:0.811607 11:52.566601 12:80.524399 13:0.33333299 14:0.53136098 15:0.61590898 16:14.9093 17:2 18:75 19:9 20:-112.2 #
5.3392361001465001675223009947047e-05 1:2 2:3.3333299 3:2.5544801 4:0.71954399 5:0.71664298 6:0.50269699 7:0.245066 8:0.32617801 9:0.66299701 10:0.57104802 11:42.858299 12:49.3167 13:0.222222 14:0.78197402 15:0.893893 16:12.3013 17:4 18:32.799999 19:4 20:32.799999 #
-1.4914491839606339886980905518055e-05 1:-1 2:-6.5 3:2.29636 4:0.92244297 5:0.223588 6:0.30391601 7:0.32124799 8:0.115189 9:0.27030101 10:0.27030101 11:33.4552 12:59.688499 13:0.33333299 14:0.93985099 15:0.95538902 16:9.6908998 17:-1 18:-6.5 19:0 20:292.5 #
5.3392361001465001675223009947047e-05 1:0 2:0 3:1.3499 4:0.486754 5:0.17817201 6:0.37227499 7:1.41878 8:0.509251 9:0.77351201 10:0.593449 11:44.123699 12:58.711102 13:0.33333299 14:0.938205 15:0.88274503 16:12.6466 17:3 18:85.5 19:8 20:-79.055603 #
-5.3386394426958101895597241792757e-05 1:0 2:0 3:1.7782 4:0.69543099 5:0.54505098 6:1.04695 7:0.12777001 8:0.115742 9:0.207792 10:0.207792 11:26.6931 12:63.668999 13:0.444444 14:0.871795 15:0.92510098 16:7.7723498 17:0 18:0 19:1 20:292 #
-1.7728120790896633465977619281695e-05 1:0 2:0 3:2.6805501 4:0.47887301 5:2.1619101 6:0.35547999 7:0.088161401 8:0.26017901 9:0.116946 10:0.14127401 11:18.956699 12:86.435402 13:0.444444 14:0.89769399 15:0.91962397 16:5.54457 17:1 18:98.375 19:0 20:-102 #
-5.3392361001465001675223009947047e-05 1:1 2:57 3:2.4321799 4:0.94233102 5:0.93710202 6:0.30814299 7:0.49777699 8:0.26159099 9:0.95478702 10:0.92523497 11:57.969299 12:54.685799 13:0.33333299 14:0.72997397 15:0.71638501 16:16.315599 17:6 18:73.666702 19:7 20:-107.5 #
5.3392361001465001675223009947047e-05 1:0 2:0 3:2.8103001 4:1.34556 5:0.70580602 6:2.0187099 7:0.35811001 8:0.24067 9:0.32293099 10:0.29884201 11:27.741501 12:78.648804 13:0.33333299 14:0.94713199 15:0.83967102 16:8.0717602 17:0 18:0 19:0 20:0 #
-4.865514997631770199859602143988e-05 1:3 2:-17.375 3:3.2862501 4:0.586191 5:3.6076 6:0.101782 7:0.106307 8:0.116893 9:0.108917 10:0.108917 11:23.507601 12:87.246002 13:0.444444 14:0.98105001 15:0.98624003 16:6.8587699 17:3 18:-17.375 19:3 20:-100.35 #
5.3392361001465001675223009947047e-05 1:5 2:32 3:3.05246 4:0.54617703 5:0.373366 6:0.70763999 7:0.295654 8:0.44455901 9:0.428085 10:0.428085 11:40.292702 12:50.353901 13:0.222222 14:0.95074701 15:0.94927597 16:11.5965 17:7 18:44.214298 19:7 20:44.214298 #
5.3392361001465001675223009947047e-05 1:0 2:0 3:2.61692 4:2.3854101 5:0.68871701 6:0.78981102 7:0.27840599 8:0.27822399 9:0.50532103 10:0.50532103 11:43.678699 12:77.601097 13:0.33333299 14:0.93508399 15:0.913463 16:12.5254 17:0 18:0 19:0 20:0 #
5.3392361001465001675223009947047e-05 1:3 2:2.6500001 3:1.7320499 4:0.138243 5:1.4742301 6:2.3203001 7:2.04971 8:0.50757003 9:0.852799 10:0.852799 11:55.9328 12:87.961304 13:0.222222 14:0.895989 15:0.84085 16:15.7896 17:2 18:-7.7666702 19:1 20:-71.724998 #
-3.8792782266414138625520990899531e-05 1:7 2:27.3571 3:4.07585 4:1.1215 5:1.61062 6:0.410355 7:0.202682 8:0.19142701 9:0.113764 10:0.113764 11:23.035299 12:87.734802 13:0.222222 14:0.984492 15:0.97659999 16:6.7228498 17:7 18:27.3571 19:6 20:-107.143 #
-3.2066230342898591719469347793847e-05 1:0 2:0 3:3.14066 4:0.35025299 5:1.52167 6:1.77955 7:0.51129597 8:0.193307 9:2.4296 10:3.61695 11:82.911003 12:40.8046 13:0.33333299 14:0.80679601 15:0.87561899 16:22.290701 17:0 18:0 19:1 20:282 #
-5.3392361001465001675223009947047e-05 1:0 2:0 3:1.3645 4:0.63030702 5:0.92646098 6:0.72045898 7:0.399988 8:0.37335199 9:0.21924999 10:1.0357 11:53.279999 12:69.335602 13:0.33333299 14:0.88812 15:0.87186497 16:15.097 17:3 18:78.666702 19:4 20:-109 #
5.3392361001465001675223009947047e-05 1:2 2:13.3333 3:2.31357 4:0.441663 5:0.54766297 6:1.1031801 7:0.215666 8:0.41877899 9:0.510611 10:0.384482 11:35.061001 12:60.043301 13:0.222222 14:0.81323802 15:0.88700199 16:10.1418 17:4 18:41.599998 19:4 20:41.599998 #
-1.8712717652780070417672247939933e-05 1:0 2:0 3:1.15868 4:0.75090098 5:0.99361801 6:1.1504101 7:0.40049401 8:0.20261 9:0.377653 10:0.48075101 11:40.8866 12:60.820999 13:0.444444 14:0.91929799 15:0.88919598 16:11.7602 17:0 18:0 19:1 20:288 #
5.3392361001465001675223009947047e-05 1:1 2:15.3333 3:1.72715 4:0.665016 5:1.40843 6:0.572312 7:0.29568899 8:0.59001899 9:0.73198003 10:0.712672 11:48.780701 12:53.700699 13:0.66666698 14:0.88858902 15:0.92769998 16:13.904 17:1 18:15.3333 19:8 20:37.363602 #
-5.3210746247085407211949159567155e-05 1:0 2:0 3:3.4245901 4:0.511518 5:0.51177698 6:0.457542 7:0.589297 8:0.492746 9:0.73967302 10:3.4711201 11:88.677803 12:89.350899 13:0.33333299 14:0.63155001 15:0.851165 16:23.5319 17:0 18:0 19:2 20:-97.333298 #
-3.3517535385666624714318118094525e-05 1:1 2:6 3:1.43888 4:3.26493 5:0.61570001 6:0.261857 7:0.310985 8:0.226412 9:0.202866 10:0.24701101 11:27.9398 12:74.310501 13:0.444444 14:0.92116803 15:0.901537 16:8.1283197 17:6 18:67.666702 19:6 20:-108.75 #
-5.3392361001465001675223009947047e-05 1:3 2:14.6667 3:3.62692 4:0.33241701 5:0.69606799 6:1.09737 7:0.41903299 8:1.75921 9:0.497105 10:2.0069599 11:85.822098 12:84.466003 13:0.66666698 14:0.9253 15:0.79628003 16:22.9245 17:2 18:-77.333298 19:1 20:-85.333298 #
5.3392361001465001675223009947047e-05 1:5 2:16.7143 3:2.07075 4:0.406068 5:0.40464601 6:0.36861199 7:0.23389401 8:0.18197 9:0.296231 10:0.296231 11:32.6273 12:64.158798 13:0.33333299 14:0.88167399 15:0.91735703 16:9.4576998 17:8 18:28.6 19:8 20:28.6 #
5.3392361001465001675223009947047e-05 1:0 2:2.25 3:5.0619402 4:1.25939 5:0.67135799 6:0.72386301 7:0.45648101 8:0.42947599 9:0.55720502 10:0.40430999 11:41.251099 12:78.827797 13:0.444444 14:0.95261902 15:0.98066199 16:11.8605 17:0 18:2.25 19:-1 20:-40.666698 #
-4.0560975073456884273329775547623e-05 1:0 2:0 3:2.3643601 4:1.6767401 5:0.354148 6:0.50541598 7:0.15909199 8:0.40119699 9:0.20006201 10:0.20006201 11:19.3881 12:89.452301 13:0.33333299 14:0.88341397 15:0.86109102 16:5.6695499 17:1 18:90 19:0 20:-102.75 #
-5.3392361001465001675223009947047e-05 1:1 2:28 3:1.23684 4:0.711869 5:0.33391801 6:0.185865 7:0.111056 8:0.18492 9:0.10365 10:0.10365 11:22.912201 12:71.036301 13:0.5 14:0.98630399 15:0.98686498 16:6.6873999 17:2 18:62 19:6 20:-106.25 #
5.3392361001465001675223009947047e-05 1:0 2:0 3:1.62149 4:0.38941401 5:0.63169402 6:0.96856099 7:0.28086099 8:0.533382 9:0.55807 10:0.44571599 11:37.336102 12:87.760803 13:0.33333299 14:0.74822599 15:0.81041998 16:10.7772 17:0 18:0 19:0 20:0 #
5.3392361001465001675223009947047e-05 1:2 2:10 3:4.2832899 4:0.425852 5:1.50393 6:1.66865 7:0.271043 8:0.392984 9:1.40451 10:1.95919 11:84.0196 12:51.262501 13:0.33333299 14:0.89335197 15:0.84167999 16:22.5338 17:3 18:36 19:7 20:-56.222198 #
5.3392361001465001675223009947047e-05 1:4 2:8.3999996 3:1.6308399 4:0.56129199 5:0.118599 6:1.27549 7:0.288638 8:0.327773 9:0.38020101 10:0.61707598 11:46.879799 12:72.139999 13:0.222222 14:0.85356802 15:0.88392001 16:13.3934 17:4 18:8.3999996 19:4 20:8.3999996 #
-1.6470427160659688049218138394814e-05 1:0 2:-45 3:1.4553 4:0.70054102 5:0.78103501 6:1.34312 7:0.33081201 8:0.26030999 9:2.007 10:0.24905699 11:24.6541 12:62.301998 13:0.33333299 14:0.869129 15:0.86257201 16:7.18823 17:0 18:-45 19:-1 20:-86.75 #
-5.3392361001465001675223009947047e-05 1:6 2:33.416698 3:2.3891699 4:0.49711499 5:0.661192 6:1.7144099 7:0.38600001 8:0.194342 9:0.86202699 10:2.8456199 11:73.880402 12:64.773804 13:0.444444 14:0.84726399 15:0.83671802 16:20.2349 17:10 18:56.049999 19:14 20:-62.9375 #
-7.5534460909632006320180153124966e-07 1:0 2:0 3:3.0204301 4:5.6276498 5:2.0473199 6:0.79538101 7:0.16800401 8:0.22031499 9:0.158067 10:0.158067 11:24.233 12:76.785103 13:0.33333299 14:0.96088201 15:0.94533002 16:7.0673199 17:-2 18:-86.593803 19:7 20:72.031197 #
-5.3392361001465001675223009947047e-05 1:0 2:0 3:2.8975501 4:0.46235499 5:4.1834998 6:4.0124502 7:0.50375599 8:0.60251302 9:1.31955 10:1.45456 11:69.143997 12:45.743099 13:0.444444 14:0.76323003 15:0.86248499 16:19.1057 17:1 18:97.25 19:2 20:-99.5 #
5.3392361001465001675223009947047e-05 1:2 2:-2 3:3.3753099 4:0.72564799 5:0.68484902 6:0.789639 7:0.26632601 8:0.27800399 9:0.37625501 10:0.36542901 11:39.144199 12:87.870598 13:0.222222 14:0.95430797 15:0.965832 16:11.2792 17:4 18:-1.8571399 19:3 20:-29.6071 #
5.3392361001465001675223009947047e-05 1:0 2:-12 3:5.5276399 4:0.43801299 5:0.41174299 6:0.611637 7:0.53897703 8:0.56740099 9:1.14652 10:0.355189 11:34.615898 12:58.286301 13:0.222222 14:0.68835598 15:0.85847098 16:10.017 17:4 18:50.400002 19:8 20:-0.60606098 #
-1.948575967712435545817900583998e-05 1:0 2:0 3:2.5274401 4:0.282767 5:0.95546401 6:0.95052099 7:0.176612 8:0.73188901 9:0.90869403 10:0.90869403 11:49.386398 12:46.857899 13:0.444444 14:0.91280502 15:0.81884098 16:14.0659 17:0 18:0 19:1 20:289 #
5.3392361001465001675223009947047e-05 1:4 2:25.5 3:1.36836 4:0.60726303 5:0.71984398 6:1.21746 7:1.30416 8:0.72298199 9:0.69169301 10:0.69169301 11:47.3055 12:48.0103 13:0.222222 14:0.95316398 15:0.92416298 16:13.5081 17:4 18:25.5 19:10 20:-74.083298 #
-5.3371494133643793632802709847596e-05 1:6 2:30 3:1.28703 4:0.56648397 5:1.25867 6:0.901667 7:0.078500099 8:0.191093 9:0.181446 10:0.181446 11:23.4865 12:75.2202 13:0.444444 14:0.94894099 15:0.916713 16:6.8527198 17:6 18:30 19:7 20:-101 #
5.3392361001465001675223009947047e-05 1:2 2:12.375 3:3.8617699 4:0.47444499 5:0.77369201 6:0.51679802 7:0.52037501 8:0.52746201 9:0.43339199 10:0.71547002 11:47.204201 12:84.891602 13:0.444444 14:0.92201501 15:0.848508 16:13.4808 17:2 18:12.375 19:7 20:-21.25 #
-1.551447504272591756805700635713e-05 1:-1 2:-55.75 3:2.32249 4:1.36729 5:3.0132301 6:1.04935 7:0.20984399 8:0.55691803 9:0.68619901 10:1.42664 11:71.372498 12:72.548698 13:0.33333299 14:0.75835103 15:0.721816 16:19.641199 17:-1 18:-55.75 19:-2 20:-81.25 #
-5.1285422239748246209245507998276e-05 1:9 2:31.7778 3:1.1837699 4:0.40648499 5:1.0354 6:1.05784 7:0.218567 8:0.094275497 9:0.331826 10:0.331826 11:36.299099 12:56.0826 13:0.444444 14:0.92172301 15:0.94680101 16:10.4881 17:12 18:-39.307701 19:12 20:-39.307701 #
-1.0741939914225561659359524380175e-05 1:0 2:-50.5 3:1.0659699 4:0.41854301 5:0.185693 6:0.335623 7:0.57230002 8:0.28123301 9:0.29693601 10:0.29693601 11:35.520802 12:87.973099 13:0.33333299 14:0.947662 15:0.955791 16:10.2705 17:6 18:13.5357 19:9 20:41.25 #
-1.9657610870508059140032708356216e-05 1:9 2:31.555599 3:3.83532 4:0.912898 5:0.854756 6:1.66898 7:0.557446 8:0.58266699 9:0.59326202 10:0.59326202 11:44.496101 12:47.7276 13:0.444444 14:0.83114201 15:0.89174598 16:12.748 17:9 18:31.555599 19:8 20:-156.444 #
-4.8478210831447310781138620994213e-05 1:9 2:28.888901 3:3.0502801 4:0.34396499 5:0.303637 6:0.278779 7:0.181878 8:0.239539 9:0.291832 10:0.12781499 11:21.773001 12:79.391602 13:0.444444 14:0.79929799 15:0.95245397 16:6.3590298 17:11 18:35.545502 19:10 20:-201.455 #
-5.3392361001465001675223009947047e-05 1:-2 2:-20 3:1.2970901 4:0.131797 5:0.35265401 6:0.352202 7:0.33747599 8:0.172618 9:0.148729 10:0.15317599 11:22.739799 12:70.890198 13:0.222222 14:0.98775202 15:0.936607 16:6.6377501 17:0 18:60 19:10 20:56.266701 #
-5.3392361001465001675223009947047e-05 1:-1 2:-50 3:2.59411 4:0.62124902 5:0.83789301 6:1.19412 7:0.150121 8:0.41342601 9:0.30703899 10:0.30703899 11:28.854601 12:66.341202 13:0.444444 14:0.82810003 15:0.85700399 16:8.3888998 17:-1 18:-50 19:12 20:180.308 #
-5.3392361001465001675223009947047e-05 1:4 2:-27.200001 3:1.4675699 4:0.26714501 5:0.34426001 6:0.50595897 7:0.35344699 8:0.526604 9:0.51048398 10:0.51048398 11:43.319401 12:49.116199 13:0.66666698 14:0.97728401 15:0.956671 16:12.4273 17:4 18:-27.200001 19:12 20:78 #
-5.0636677913010945221994330012194e-05 1:7 2:28.8571 3:4.9251699 4:1.39816 5:0.708884 6:0.55760002 7:0.46184301 8:0.79446602 9:0.50178999 10:0.50178999 11:44.356098 12:83.790703 13:0.222222 14:0.95809102 15:0.959189 16:12.7099 17:8 18:33 19:7 20:-257 #
-3.7146212711008000481767432621183e-06 1:0 2:-12 3:2.14622 4:0.32543999 5:3.1533401 6:2.6170299 7:0.54243797 8:0.49967101 9:0.428123 10:1.20049 11:66.799896 12:77.040199 13:0.33333299 14:0.89320898 15:0.73979801 16:18.534599 17:4 18:50.400002 19:8 20:-0.60606098 #
-3.0528928215857139335381864597707e-05 1:0 2:-20 3:1.89643 4:1.974 5:2.74703 6:0.92405301 7:0.074286997 8:0.241771 9:0.29194 10:0.29194 11:32.916801 12:57.623299 13:0.444444 14:0.96126801 15:0.93634301 16:9.5393 17:3 18:36.5 19:10 20:135.81799 #
-3.2535911045329971636494003489615e-06 1:1 2:5.3125 3:3.2373199 4:0.51818901 5:0.390917 6:0.262759 7:0.23860499 8:0.32078499 9:0.37767801 10:1.97153 11:65.955498 12:79.325897 13:0.33333299 14:0.954983 15:0.87911201 16:18.3269 17:3 18:47.9375 19:11 20:145.78999 #
-3.629771239030106858014512738464e-08 1:0 2:0 3:1.3109601 4:0.46934399 5:1.31078 6:0.395354 7:0.517268 8:0.58146101 9:0.144712 10:1.7837501 11:64.731903 12:77.928902 13:0.66666698 14:0.89808798 15:0.90281099 16:18.0243 17:1 18:86.5 19:2 20:-114.5 #
-5.3392361001465001675223009947047e-05 1:3 2:18.6667 3:3.0318699 4:0.239675 5:0.82135201 6:0.34462699 7:0.34002399 8:0.79027498 9:0.41866001 10:0.252132 11:25.6761 12:89.173401 13:0.444444 14:0.76596397 15:0.86502302 16:7.4813199 17:3 18:18.6667 19:12 20:-77.692299 #
-8.4046708243419059243019264560104e-06 1:0 2:0 3:1.54931 4:0.73484099 5:0.498449 6:0.33029801 7:0.269339 8:1.13457 9:0.223254 10:0.223254 11:17.465599 12:77.0504 13:0.66666698 14:0.83092201 15:0.83139402 16:5.11199 17:3 18:81.583298 19:9 20:-131.21201 #
-3.9520631330050765873951323925439e-05 1:0 2:0 3:4.0373001 4:2.2841899 5:0.421289 6:1.13481 7:0.19311801 8:0.45466 9:0.32083601 10:0.25466999 11:28.3874 12:63.5266 13:0.444444 14:0.96799201 15:0.90318698 16:8.2558804 17:0 18:0 19:11 20:51.5 #
-5.2665532987692214293186376838918e-05 1:0 2:0 3:1.96645 4:0.43696401 5:0.26400799 6:0.175863 7:0.16965599 8:0.28629699 9:0.169983 10:0.169983 11:28.350401 12:61.691399 13:0.444444 14:0.96444303 15:0.97833902 16:8.2453499 17:-1 18:-85.125 19:7 20:53.921902 #
-1.4015784866933849242554011027551e-08 1:0 2:0 3:2.1013501 4:0.410465 5:0.749677 6:1.1159101 7:0.14404599 8:0.114543 9:0.35438299 10:0.73631102 11:48.714802 12:66.370102 13:0.444444 14:0.936854 15:0.85736102 16:13.8864 17:0 18:0 19:-1 20:-275.5 #
-2.1852179970416113138909075530592e-05 1:4 2:17 3:4.0759602 4:0.59588301 5:2.8594 6:5.8042302 7:16.5613 8:0.98947799 9:6.9931102 10:6.0300298 11:74.023102 12:14.4716 13:0.36363599 14:0.93220502 15:0.966793 16:20.2684 17:4 18:17 19:4 20:17 #
-6.6650416232315995955504117631563e-08 1:-5 2:-22.799999 3:4.0173702 4:0.145092 5:0.099300899 6:0.081171699 7:0.140083 8:2.6131899 9:0.097546302 10:0.097546302 11:23.243799 12:82.977501 13:0.58823502 14:0.99723703 15:0.99473798 16:6.7828798 17:-6 18:-35.333302 19:-2 20:164.66701 #
-6.032513696473253372821662909864e-07 1:-6 2:-25.75 3:1.77354 4:0.511949 5:0.70332402 6:0.737764 7:0.131106 8:0.140861 9:0.223611 10:0.315525 11:28.6779 12:85.207199 13:0.444444 14:0.90347999 15:0.85261297 16:8.3386002 17:-6 18:-25.75 19:0 20:249.75 #
-6.1049785400844043668398212348913e-07 1:-8 2:-31.75 3:6.5609102 4:0.158994 5:0.51554102 6:3.38275 7:0.65793699 8:1.19212 9:1.7102799 10:1.7102799 11:76.721703 12:82.780899 13:0.5 14:0.96662199 15:0.86345202 16:20.895901 17:-8 18:-31.75 19:-8 20:-31.75 #
-8.4366197451589853163050891637909e-07 1:1 2:56 3:2.8373699 4:0.162964 5:0.58351898 6:0.73436499 7:0.52129501 8:0.89333302 9:0.46198499 10:0.99721903 11:54.776699 12:54.8741 13:0.444444 14:0.97020501 15:0.90947402 16:15.4888 17:1 18:56 19:2 20:-64 #
-1.2837308374663518165982589724905e-06 1:-6 2:-2.2857101 3:1.44617 4:0.200798 5:0.444446 6:0.495711 7:0.236439 8:0.781721 9:0.43540001 10:0.43540001 11:36.162601 12:53.902302 13:0.66666698 14:0.92379099 15:0.875202 16:10.45 17:-8 18:-9.6111097 19:-7 20:151.41701 #
-5.3392361001465001675223009947047e-05 1:-1 2:-2.5 3:2.12658 4:0.34873801 5:0.15121 6:1.02604 7:0.95538098 8:0.55501801 9:0.87899798 10:0.76266998 11:50.6842 12:60.001598 13:0.33333299 14:0.95852298 15:0.95764202 16:14.4114 17:-1 18:-2.5 19:7 20:118.167 #
-3.4717063495960190684996925052086e-07 1:1 2:58 3:2.99366 4:0.155195 5:0.269191 6:0.69563901 7:0.68228501 8:0.92527801 9:0.75683099 10:2.8197401 11:83.078003 12:69.328499 13:0.444444 14:0.66963398 15:0.84645802 16:22.327499 17:1 18:58 19:1 20:-53 #
-6.0285680262004469882170486216832e-06 1:-2 2:-38 3:2.22593 4:0.31790799 5:0.66601801 6:1.32128 7:1.6987799 8:0.79505199 9:0.90328503 10:1.95155 11:84.467598 12:62.087101 13:0.66666698 14:0.72685498 15:0.78195798 16:22.631399 17:-6 18:-59.142899 19:-6 20:-59.142899 #
-3.658525713453304284254741229887e-07 1:0 2:0 3:3.1335599 4:0.095062897 5:0.56742102 6:0.84321898 7:0.318856 8:0.19633099 9:0.70267701 10:0.70267701 11:45.044102 12:47.062302 13:0.444444 14:0.89646798 15:0.85400802 16:12.8969 17:1 18:96 19:4 20:-60.666698 #
-3.0715324511222709684583886957654e-05 1:-1 2:-24.75 3:1.89792 4:0.90855098 5:0.136985 6:0.571392 7:1.74505 8:0.570445 9:1.41114 10:1.63185 11:89.9235 12:48.018002 13:0.444444 14:0.85910702 15:0.78090799 16:23.792299 17:-1 18:-24.75 19:2 20:231.83299 #
-2.8709607586707267158502090986794e-05 1:0 2:0 3:3.4225199 4:0.137573 5:0.27161199 6:1.10101 7:0.257929 8:0.88053101 9:0.84106302 10:0.84106302 11:50.5397 12:42.5355 13:0.444444 14:0.84603602 15:0.88393199 16:14.3731 17:0 18:0 19:-1 20:-280 #
-3.0574075891909302526983083225787e-05 1:0 2:34 3:4.6225901 4:0.22591799 5:0.49579301 6:1.13857 7:0.50297803 8:0.98827302 9:0.92969 10:1.5957299 11:74.115097 12:41.666801 13:0.444444 14:0.79730302 15:0.83747101 16:20.290001 17:0 18:34 19:3 20:102.1 #
-1.1243049395306015537238097934392e-06 1:0 2:0 3:2.1026399 4:0.071233101 5:0.98211598 6:1.95921 7:0.277955 8:0.147199 9:0.58548802 10:1.95526 11:83.288696 12:61.085201 13:0.444444 14:0.76314801 15:0.69141603 16:22.3738 17:0 18:0 19:5 20:275.79999 #
-3.2407194809231385304593153762198e-06 1:0 2:0 3:2.61743 4:0.218069 5:1.06214 6:0.74435902 7:0.439239 8:0.54870099 9:0.789325 10:1.21148 11:65.394302 12:67.0354 13:0.444444 14:0.87463802 15:0.81783301 16:18.1884 17:0 18:0 19:-1 20:-282.875 #
-2.3762868685766420570604218198696e-08 1:1 2:36 3:3.0922 4:0.172986 5:1.03658 6:0.291881 7:0.366317 8:0.41739401 9:0.407134 10:0.67429101 11:48.1749 12:66.636803 13:0.444444 14:0.72961098 15:0.802549 16:13.7417 17:2 18:59 19:1 20:-224 #
-4.0451870754186253394124594962022e-08 1:2 2:29.5 3:2.2121301 4:0.237895 5:0.57503998 6:1.04084 7:0.234942 8:0.287783 9:0.77603197 10:0.75199002 11:50.579899 12:46.124298 13:0.444444 14:0.94977897 15:0.91645497 16:14.3837 17:2 18:29.5 19:1 20:-249.5 #
-4.9694450484045820607553745063001e-07 1:0 2:0 3:1.06695 4:0.47235301 5:0.49737799 6:0.67263901 7:0.156363 8:0.174466 9:0.2165 10:0.50356698 11:43.236801 12:64.655403 13:0.444444 14:0.93524599 15:0.93787599 16:12.4048 17:0 18:0 19:-1 20:-290 #
-2.2476038561089766061595884849567e-08 1:0 2:0 3:1.08539 4:1.17489 5:1.16336 6:1.68934 7:0.56259102 8:0.710195 9:1.04004 10:1.1205699 11:54.960701 12:40.929901 13:0.33333299 14:0.79133803 15:0.85678101 16:15.5368 17:1 18:71 19:0 20:-207 #
-1.0604482165313205109524741232008e-07 1:0 2:0 3:1.6988699 4:0.482342 5:0.39914799 6:0.31848001 7:0.25637901 8:0.63270301 9:0.24386001 10:0.246649 11:31.646601 12:63.638401 13:0.444444 14:0.96184403 15:0.955975 16:9.18081 17:0 18:0 19:7 20:212 #
-1.5504542106071247768717125126159e-08 1:0 2:0 3:1.89667 4:0.74664801 5:0.66233999 6:0.52417302 7:0.33225799 8:0.289794 9:0.24448 10:1.20312 11:56.888802 12:84.530197 13:0.33333299 14:0.82484102 15:0.89510697 16:16.037201 17:0 18:0 19:-1 20:-251.5 #
-1.3959661611585199095242337818945e-08 1:2 2:33.25 3:1.91708 4:0.268509 5:0.41683301 6:0.71979302 7:0.23785999 8:0.40143001 9:0.355571 10:0.55694503 11:42.6012 12:81.669701 13:0.5 14:0.75869101 15:0.83622998 16:12.231 17:2 18:33.25 19:1 20:-248.25 #
-1.7212576950751778785686507688979e-07 1:0 2:0 3:5.63867 4:0.67422301 5:0.85881102 6:0.63807797 7:0.31536099 8:0.21334399 9:1.38534 10:1.38534 11:75.387398 12:86.324699 13:0.33333299 14:0.91787499 15:0.81110799 16:20.587099 17:1 18:98 19:5 20:172.8 #
-1.0532129508214103062735400584415e-06 1:0 2:0 3:3.3172901 4:0.38433501 5:0.248005 6:0.201177 7:0.25038499 8:0.333175 9:0.232114 10:0.232114 11:31.5956 12:59.574799 13:0.33333299 14:0.97519499 15:0.96565402 16:9.1663799 17:1 18:94 19:7 20:170.205 #
-4.4988367412827084691187215503838e-07 1:0 2:0 3:2.42699 4:0.22324599 5:0.18489 6:2.5728099 7:0.12729999 8:0.98179901 9:0.22331899 10:2.3562601 11:77.706398 12:85.287003 13:0.444444 14:0.91110301 15:0.83966798 16:21.122 17:0 18:0 19:-3 20:-233.33299 #
-1.613401806312756401901725711312e-06 1:1 2:12 3:4.12989 4:0.482813 5:0.379195 6:1.1268899 7:0.42074999 8:1.97624 9:0.87825298 10:0.87825298 11:69.084702 12:89.248199 13:0.444444 14:0.93810397 15:0.72951299 16:19.091299 17:1 18:12 19:0 20:-216 #
-2.3098889963154015097859263726254e-07 1:-3 2:-21.3333 3:1.59703 4:0.14563 5:0.61657 6:1.2777801 7:0.51304197 8:1.23936 9:1.39511 10:1.39511 11:65.946404 12:73.382599 13:0.444444 14:0.838018 15:0.83114302 16:18.324699 17:-3 18:-21.3333 19:-1 20:257.66699 #
-8.6005075935059564773421669769959e-08 1:1 2:39 3:2.5767701 4:0.37022701 5:0.30215499 6:1.32683 7:0.30563101 8:0.197965 9:0.57290298 10:0.73151302 11:46.752102 12:62.470001 13:0.33333299 14:0.817532 15:0.853149 16:13.359 17:1 18:39 19:-2 20:-256.66699 #
-7.8818876421615162008310617736129e-08 1:1 2:56.5 3:1.45112 4:0.43686399 5:1.82584 6:3.4609001 7:0.41446099 8:0.13415299 9:0.87798297 10:0.87798297 11:53.708302 12:62.4133 13:0.33333299 14:0.89455497 15:0.80780703 16:15.2094 17:1 18:56.5 19:-1 20:-179.5 #
-1.4097835040194350852971183485352e-06 1:-1 2:-9 3:1.71613 4:0.50379801 5:1.6519001 6:1.105 7:0.90140998 8:1.0704 9:1.40597 10:1.6642801 11:83.317902 12:43.896301 13:0.444444 14:0.77009398 15:0.73097903 16:22.380199 17:-1 18:-9 19:4 20:167.60001 #
-4.9066399126586508083356849563295e-06 1:2 2:47.333302 3:2.6700399 4:0.18563101 5:0.267295 6:0.334759 7:0.441221 8:0.33451101 9:0.37092799 10:0.36843699 11:39.909 12:66.608002 13:0.33333299 14:0.93705702 15:0.97348499 16:11.4906 17:3 18:51.5 19:12 20:118.462 #
-5.1795111725909033121651239839345e-06 1:0 2:8 3:4.45577 4:1.63778 5:0.190543 6:0.55471998 7:0.64180398 8:0.689354 9:0.58612299 10:0.36159101 11:39.905998 12:46.999599 13:0.66666698 14:0.96671098 15:0.98437399 16:11.4898 17:0 18:8 19:8 20:110.889 #
-8.3732493222607397381177397194252e-07 1:0 2:0 3:2.31864 4:0.211004 5:0.42741999 6:0.19358601 7:0.13347299 8:0.23680501 9:0.14157601 10:0.15401299 11:28.6884 12:66.929001 13:0.66666698 14:0.98852903 15:0.99595797 16:8.3415804 17:0 18:0 19:7 20:268.85699 #
-2.4075445308920626931448172314276e-08 1:-1 2:-5.875 3:2.4121301 4:0.57774299 5:1.25913 6:0.202298 7:0.19477101 8:0.123235 9:0.18756001 10:0.221003 11:31.886 12:62.5937 13:0.33333299 14:0.93235499 15:0.97430903 16:9.2484703 17:-1 18:-5.875 19:7 20:226.73399 #
-1.2136409643628126497016082863123e-07 1:0 2:0 3:5.5423899 4:0.22672699 5:0.231925 6:0.13422599 7:0.26899001 8:0.305994 9:0.28874999 10:0.28874999 11:36.125702 12:86.8265 13:0.66666698 14:0.966272 15:0.97823501 16:10.4397 17:0 18:0 19:-1 20:-290 #
-9.9873492100509427514543059345442e-08 1:1 2:10.5 3:3.6730399 4:0.23904 5:0.83691698 6:0.75677902 7:1.20707 8:0.69003701 9:0.344401 10:0.344401 11:36.3134 12:76.903801 13:0.5 14:0.90149999 15:0.92523301 16:10.4921 17:1 18:10.5 19:0 20:-272.875 #
-5.4749628014642284182939002690205e-06 1:0 2:0 3:1.46077 4:0 5:0 6:0 7:0 8:0 9:0.70455199 10:0.84731102 11:57.689701 12:64.239601 13:0.444444 14:0.672171 15:0.62720299 16:16.2437 17:0 18:0 19:4 20:281 #
-1.0115987683482520476108135198956e-08 1:0 2:0 3:1.20129 4:0.39769599 5:0.27913699 6:0.54563302 7:0.19845 8:0.311317 9:0.21254601 10:0.28009999 11:31.183701 12:67.822403 13:0.444444 14:0.95144397 15:0.92053801 16:9.04988 17:0 18:0 19:7 20:239.14301 #
-1.8724136686454430105375126153211e-07 1:1 2:32 3:1.94965 4:2.3695099 5:0.51859099 6:0.54580498 7:0.29775101 8:0.46570501 9:0.38500699 10:0.52377701 11:42.916302 12:59.181702 13:0.66666698 14:0.91958898 15:0.86592197 16:12.3171 17:1 18:32 19:5 20:-163.33299 #
-6.7254974434593666799981487303128e-09 1:0 2:0 3:5.0666699 4:0.38083401 5:2.9635301 6:0.938793 7:0.64223301 8:0.55259299 9:1.07384 10:1.03664 11:55.230499 12:49.508999 13:0.444444 14:0.87094098 15:0.79671901 16:15.607 17:0 18:0 19:-1 20:-274 #
-4.8381014867494073067311077807062e-08 1:0 2:0 3:2.10114 4:1.08846 5:1.29065 6:1.447 7:0.33766299 8:0.14819799 9:0.885849 10:0.885849 11:55.548801 12:63.7714 13:0.33333299 14:0.93061298 15:0.77895898 16:15.6899 17:0 18:0 19:-1 20:-272 #
-1.2538559386823951678768818140952e-08 1:0 2:0 3:2.9191201 4:0.49956799 5:0.30383301 6:0.57042599 7:0.22089501 8:0.406358 9:0.28103501 10:0.28103501 11:35.235401 12:68.959602 13:0.444444 14:0.96729898 15:0.97055501 16:10.1907 17:1 18:78 19:4 20:-168.39999 #
-9.6202938523198161004101880422468e-09 1:0 2:0 3:1.5635099 4:1.8392299 5:1.50126 6:0.67488402 7:0.36102599 8:0.413266 9:0.55756301 10:0.679555 11:47.839901 12:64.958 13:0.444444 14:0.630077 15:0.85382497 16:13.6518 17:0 18:0 19:6 20:182.33299 #
-3.1113867383385340178785991027688e-12 1:0 2:0 3:2.1549799 4:0.58891898 5:1.47008 6:0.62602299 7:0.511181 8:0.16284899 9:0.98617399 10:0.98617399 11:52.6362 12:41.9688 13:0.33333299 14:0.90033901 15:0.88437003 16:14.9277 17:0 18:0 19:-1 20:-280 #
-5.3152378021935949539602660890436e-09 1:0 2:0 3:2.30229 4:0.53925198 5:0.579485 6:3.6426001 7:0.28909901 8:0.31247801 9:1.68413 10:0.99312598 11:55.918499 12:58.6208 13:0.33333299 14:0.92093498 15:0.89410001 16:15.7859 17:0 18:0 19:5 20:256.79999 #
-2.1704539713078931825487692805141e-08 1:1 2:42 3:3.1106 4:0.61091 5:0.39383599 6:0.66559303 7:0.14559101 8:0.397535 9:0.55044901 10:1.19587 11:57.428001 12:58.755299 13:0.33333299 14:0.74555701 15:0.887963 16:16.1763 17:1 18:42 19:5 20:183.2 #
-5.2416902970322219734722324346876e-09 1:0 2:0 3:2.6370299 4:0.73584098 5:0.46662501 6:1.08206 7:0.216617 8:0.378907 9:1.39012 10:0.82062501 11:56.8522 12:33.067001 13:0.444444 14:0.68112499 15:0.79527098 16:16.0277 17:0 18:0 19:-1 20:-256 #
