SVM-light Version V6.02
0 # kernel type
3 # kernel parameter -d 
1 # kernel parameter -g 
1 # kernel parameter -s 
1 # kernel parameter -r 
empty# kernel parameter -u 
20 # highest feature index 
7866 # number of training documents 
222 # number of support vectors plus 1 
0.99986518 # threshold b, each following line is a SV (starting with alpha*y)
-2.3064902867751829350015380093453e-05 1:1 2:-5.5 3:1.8085999 4:1.44346 5:0.646622 6:0.97178203 7:0.574022 8:0.717942 9:0.72049201 10:1.0635999 11:51.7584 12:50.352501 13:0.444444 14:0.86013299 15:0.87466502 16:14.696 17:1 18:-5.5 19:1 20:-5.5 #
5.3453507567363259332226393949483e-05 1:0 2:0 3:1.56335 4:2.0422499 5:0.33343601 6:1.03974 7:0.55948102 8:2.0286601 9:1.17065 10:1.17065 11:55.521801 12:47.3382 13:0.66666698 14:0.980838 15:0.84720701 16:15.6828 17:0 18:0 19:1 20:240 #
-5.3453507567363259332226393949483e-05 1:-1 2:-15.75 3:1.1713001 4:0.92505598 5:0.54460502 6:1.8351001 7:0.33908901 8:5.88873 9:0.11373 10:0.11373 11:11.8106 12:78.859901 13:0.66666698 14:0.86771202 15:0.91000497 16:3.4641199 17:-1 18:-15.75 19:-1 20:205.125 #
5.3453507567363259332226393949483e-05 1:1 2:6 3:7.29814 4:0.50345403 5:1.66195 6:1.7299 7:3.8780999 8:0.96831298 9:3.0487299 10:3.0487299 11:69.500099 12:51.3214 13:0.66666698 14:0.99176502 15:0.97301698 16:19.1917 17:1 18:6 19:0 20:-277 #
-2.8258312983654048679282855260908e-07 1:2 2:22 3:20.444201 4:1.27536 5:0.41339999 6:0.173986 7:0.220807 8:0.520419 9:0.206442 10:0.224599 11:33.7066 12:57.631302 13:0.444444 14:0.99825501 15:0.99778402 16:9.7616501 17:2 18:22 19:0 20:-113.667 #
5.3453507567363259332226393949483e-05 1:0 2:0 3:1.94574 4:7.54668 5:4.8840098 6:1.59613 7:0.51195699 8:0.62014699 9:2.6603899 10:1.34047 11:56.557098 12:49.102798 13:0.58823502 14:0.76093602 15:0.90726101 16:15.9514 17:0 18:0 19:3 20:279.33301 #
-5.3453507567363259332226393949483e-05 1:3 2:13.3333 3:4.9656 4:1.01447 5:0.96297699 6:0.86152899 7:0.082339302 8:0.25893101 9:0.25520599 10:12.2123 11:82.2202 12:69.635902 13:0.66666698 14:0.83883202 15:0.95703298 16:22.138201 17:2 18:-71.666702 19:2 20:-71.666702 #
5.3453507567363259332226393949483e-05 1:0 2:0 3:3.0557201 4:1.3555501 5:1.24002 6:1.71831 7:1.97891 8:0.45296499 9:2.38623 10:1.34963 11:55.865501 12:32.898998 13:0.5 14:0.99632603 15:0.90926498 16:15.7721 17:0 18:0 19:-1 20:-264 #
-1.8823736986717644423944273412985e-05 1:-2 2:-53.5 3:2.12287 4:1.1914999 5:0.40924099 6:0.177913 7:0.92822599 8:0.363087 9:1.0716701 10:1.0716701 11:44.888302 12:46.6036 13:0.33333299 14:0.96395099 15:0.66273099 16:12.8546 17:-1 18:31.5 19:-1 20:31.5 #
5.3453507567363259332226393949483e-05 1:0 2:0 3:1.7058901 4:1.34736 5:1.85761 6:1.79245 7:0.80517203 8:0.98801798 9:1.2551301 10:1.2551301 11:54.236 12:36.914398 13:0.444444 14:0.89894301 15:0.81659901 16:15.3475 17:0 18:0 19:1 20:245 #
-5.3453507567363259332226393949483e-05 1:0 2:0 3:1.81397 4:0.95713401 5:1.02706 6:0.585742 7:1.3387001 8:0.177406 9:1.48813 10:1.23113 11:62.750999 12:32.029999 13:0.33333299 14:0.70793098 15:0.80437899 16:17.530001 17:0 18:0 19:0 20:-40 #
-5.3453507567363259332226393949483e-05 1:2 2:-8 3:2.3642099 4:1.81962 5:4.39961 6:1.81398 7:1.32644 8:1.8281 9:2.0531099 10:1.4747 11:60.325298 12:32.557999 13:0.5 14:0.60158098 15:0.75981498 16:16.917601 17:2 18:-8 19:1 20:-77 #
-6.3983668607927094134496526223188e-07 1:0 2:-24 3:3.20718 4:0.33002001 5:0.56074703 6:0.96088499 7:0.82850599 8:0.613837 9:1.85905 10:0.61781698 11:46.387699 12:27.174 13:0.444444 14:0.665986 15:0.91595399 16:13.2606 17:0 18:-24 19:-2 20:-97.5 #
-5.3453507567363259332226393949483e-05 1:0 2:0 3:2.06653 4:0.68791401 5:1.09355 6:1.13427 7:0.294626 8:1.76065 9:3.57812 10:0.30237401 11:29.145599 12:4.3242698 13:0.444444 14:0.72539401 15:0.85328001 16:8.4716597 17:1 18:76 19:1 20:38 #
5.3453507567363259332226393949483e-05 1:-3 2:-38.916698 3:2.17647 4:0.057781801 5:2.7238901 6:1.4251601 7:0.903036 8:0.547041 9:0.82726699 10:0.48153701 11:36.923302 12:71.305801 13:0.66666698 14:0.82209599 15:0.74283898 16:10.6622 17:-3 18:-38.916698 19:-4 20:-99.4375 #
-5.3453507567363259332226393949483e-05 1:-2 2:-14.25 3:3.10992 4:0.117833 5:2.6389201 6:2.8212099 7:2.05598 8:0.44749701 9:2.94697 10:4.6171799 11:88.417297 12:77.031303 13:0.5 14:0.89574802 15:0.88914299 16:23.4771 17:-2 18:-14.25 19:-2 20:-14.25 #
-4.9034927003727410080172535722376e-07 1:-1 2:-26 3:5.8952999 4:3.6194 5:0.55112201 6:0.203354 7:1.11991 8:0.89851499 9:0.419707 10:2.8074501 11:74.986198 12:74.976303 13:0.66666698 14:0.88744003 15:0.92725199 16:20.4937 17:-4 18:-64 19:-6 20:-123 #
5.3453507567363259332226393949483e-05 1:0 2:0 3:1.0929 4:0.42783499 5:0.43100899 6:0.58023697 7:0.46525899 8:0.53076702 9:0.383872 10:0.45159701 11:30.9886 12:73.5914 13:0.444444 14:0.64370298 15:0.759314 16:8.9946604 17:1 18:100 19:2 20:125 #
5.3453507567363259332226393949483e-05 1:3 2:15.3333 3:5.4965601 4:0.53909999 5:0.66934597 6:0.32227799 7:2.5507801 8:0.74430102 9:2.7720301 10:2.7720301 11:67.005798 12:26.5284 13:0.5 14:0.97863501 15:0.96042198 16:18.5851 17:3 18:15.3333 19:-2 20:-241.067 #
-3.0677122766041477891496569441188e-05 1:-1 2:-10 3:3.90435 4:0.53830898 5:2.6904399 6:1.13116 7:0.67480898 8:0.32683 9:20.1749 10:20.1749 11:85.479202 12:31.148399 13:0.33333299 14:0.97805798 15:0.97346199 16:22.850599 17:-1 18:-10 19:1 20:137 #
-5.3453507567363259332226393949483e-05 1:1 2:7 3:2.3753901 4:0.068635702 5:1.03152 6:0.41078901 7:1.27983 8:0.19985899 9:1.7052 10:3.02177 11:71.577202 12:35.806301 13:0.33333299 14:0.76758403 15:0.8538 16:19.690001 17:1 18:7 19:-2 20:-29.5 #
5.3453507567363259332226393949483e-05 1:0 2:0 3:2.53929 4:1.12253 5:0.61580098 6:0.41687301 7:0.44277501 8:0.76397997 9:1.89931 10:0.193225 11:21.864901 12:43.516998 13:0.66666698 14:0.807823 15:0.89283001 16:6.38554 17:-1 18:-79.75 19:-2 20:-115.875 #
-5.3434602516468937972570624195257e-05 1:0 2:0 3:1.99235 4:1.32956 5:0.88964999 6:2.1484101 7:0.45856899 8:0.114087 9:2.2681799 10:8.7250204 11:84.080902 12:40.3465 13:0.33333299 14:0.67576897 15:0.718463 16:22.547199 17:0 18:0 19:-2 20:-158 #
5.3453507567363259332226393949483e-05 1:0 2:0 3:1.2384 4:3.19575 5:2.3528199 6:1.5348001 7:0.76330602 8:1.31476 9:2.26528 10:0.141019 11:16.1745 12:25.3715 13:0.5 14:0.85725302 15:0.90271097 16:4.7367101 17:1 18:66 19:0 20:-214 #
-5.3453507567363259332226393949483e-05 1:0 2:0 3:4.9366999 4:3.0164599 5:0.94849902 6:0.85447198 7:0.29890299 8:0.25137901 9:1.3606 10:10.2279 11:89.404503 12:41.269798 13:0.222222 14:0.62184399 15:0.94364399 16:23.684099 17:0 18:0 19:0 20:0 #
5.3453507567363259332226393949483e-05 1:-2 2:-11.625 3:1.96442 4:6.5823598 5:2.19787 6:1.93183 7:1.44403 8:1.39579 9:2.9935 10:2.21754 11:64.415497 12:28.754299 13:0.58823502 14:0.99765903 15:0.96755803 16:17.9457 17:-3 18:-30 19:-2 20:228.938 #
-5.3453507567363259332226393949483e-05 1:-1 2:-60 3:1.12688 4:0.43156499 5:1.11226 6:1.64978 7:0.16885599 8:0.56226498 9:0.52517402 10:0.165657 11:17.3843 12:57.630402 13:0.66666698 14:0.82172 15:0.88881099 16:5.0883598 17:-2 18:-75.5 19:-2 20:88 #
5.3453507567363259332226393949483e-05 1:2 2:11 3:3.46034 4:0.46221301 5:1.4838099 6:1.23097 7:1.8693 8:1.1439101 9:2.09729 10:4.3191299 11:80.137398 12:28.867901 13:0.5 14:0.994739 15:0.92154503 16:21.6735 17:2 18:11 19:-1 20:-233 #
5.3453507567363259332226393949483e-05 1:-4 2:-32.25 3:3.15503 4:0.364344 5:1.2524101 6:1.88952 7:1.75111 8:2.1203001 9:2.5233099 10:2.3934 11:65.436699 12:37.611599 13:0.58823502 14:0.98972499 15:0.98720598 16:18.1989 17:-5 18:-38.200001 19:-5 20:225.33299 #
-4.1795909357629313165844592292686e-05 1:0 2:0 3:2.8054099 4:0.38263801 5:1.39284 6:0.43922201 7:0.28500399 8:0.389339 9:0.50295901 10:0.50295901 11:42.957298 12:47.220402 13:0.33333299 14:0.89143801 15:0.935691 16:12.3284 17:-1 18:-95 19:-4 20:89.083298 #
5.3453507567363259332226393949483e-05 1:5 2:24.299999 3:1.47715 4:0.14377099 5:0.157443 6:0.824341 7:0.32001701 8:0.22622401 9:0.49781799 10:0.193021 11:19.500999 12:76.647202 13:0.5 14:0.57600302 15:0.87518197 16:5.70225 17:5 18:24.299999 19:0 20:-217.2 #
-2.9642021566941902121529450742088e-07 1:0 2:0 3:1.18591 4:0.313214 5:0.924209 6:1.4177099 7:0.78339702 8:1.18422 9:1.28695 10:0.37213799 11:30.144199 12:42.6227 13:0.444444 14:0.56056601 15:0.83227003 16:8.7553101 17:0 18:0 19:1 20:-24.5 #
-2.8817201756852515797616837156525e-05 1:1 2:59 3:2.7158699 4:0.94224697 5:0.40331 6:0.83600998 7:0.21258301 8:0.84285903 9:1.8226399 10:0.55786502 11:42.8829 12:32.495499 13:0.444444 14:0.55145299 15:0.84000301 16:12.308 17:2 18:63.5 19:0 20:-233 #
-1.8187463419478735722565471144563e-05 1:0 2:0 3:2.0428901 4:1.14378 5:1.99677 6:4.24686 7:0.13401 8:0.216116 9:3.8780701 10:3.8780701 11:89.358299 12:0.817092 13:0.33333299 14:0.74234098 15:0.78718501 16:23.6745 17:0 18:0 19:0 20:0 #
-2.2799582661260714086266104816403e-05 1:2 2:36 3:1.2977099 4:0.61654598 5:1.10914 6:1.2345099 7:1.1100301 8:0.381309 9:0.75538701 10:0.75538701 11:45.391201 12:45.549702 13:0.444444 14:0.86692202 15:0.82335699 16:12.991 17:2 18:36 19:3 20:-47.5 #
-1.574211617458012442655017337767e-05 1:-1 2:-46 3:1.47821 4:0.26555699 5:1.3452899 6:0.631531 7:0.190707 8:0.42601699 9:0.26602301 10:0.175402 11:19.959801 12:71.110603 13:0.66666698 14:0.867769 15:0.89750999 16:5.8350701 17:-4 18:-73.5 19:-2 20:89.5 #
5.3453507567363259332226393949483e-05 1:-1 2:-57 3:3.92469 4:0.493884 5:2.40189 6:1.61768 7:1.37263 8:1.0369101 9:2.7734201 10:3.8331201 11:73.207199 12:28.9937 13:0.5 14:0.98904002 15:0.92563897 16:20.0765 17:-1 18:-57 19:-2 20:-146.75 #
-1.6628155153571194701297292217745e-05 1:2 2:9.5 3:1.57118 4:0.54826599 5:3.7718101 6:0.60699999 7:0.80736399 8:0.59551698 9:0.49206299 10:0.49674401 11:37.949902 12:60.710701 13:0.33333299 14:0.882824 15:0.82577801 16:10.9479 17:2 18:9.5 19:-1 20:-146.5 #
5.3453507567363259332226393949483e-05 1:-4 2:-17.6 3:7.9752498 4:0.20033599 5:0.567828 6:0.60573101 7:0.44061401 8:1.3195601 9:0.69075501 10:1.76823 11:79.689003 12:73.747398 13:0.66666698 14:0.96799099 15:0.85531002 16:21.5725 17:-4 18:-17.6 19:1 20:164.048 #
5.3453507567363259332226393949483e-05 1:-1 2:-8 3:1.57744 4:0.58599102 5:0.440878 6:0.74688298 7:0.41060999 8:0.411816 9:0.35489601 10:0.25709 11:16.355 12:73.989197 13:0.33333299 14:0.85367 15:0.78686303 16:4.7892098 17:-1 18:-8 19:0 20:158 #
5.3453507567363259332226393949483e-05 1:-1 2:-8 3:2.8460901 4:0.57016701 5:0.98930001 6:1.03693 7:0.29544801 8:0.13160899 9:1.0814199 10:3.08057 11:81.917397 12:40.949402 13:0.444444 14:0.47692701 15:0.77287501 16:22.0711 17:-1 18:-8 19:-3 20:-117.333 #
5.3453507567363259332226393949483e-05 1:-1 2:-10 3:1.36191 4:1.09356 5:1.0478899 6:0.78460401 7:1.75295 8:0.57120001 9:1.3089499 10:0.58379 11:42.1814 12:75.4328 13:0.33333299 14:0.60883301 15:0.73388702 16:12.1159 17:-3 18:-63.333302 19:-3 20:-63.333302 #
5.3453507567363259332226393949483e-05 1:0 2:0 3:2.50611 4:2.27352 5:1.11938 6:1.9886 7:1.35762 8:0.87900001 9:2.4881201 10:2.4881201 11:66.0783 12:32.093601 13:0.5 14:0.97654301 15:0.95242101 16:18.357201 17:0 18:0 19:3 20:190 #
5.3453507567363259332226393949483e-05 1:1 2:7 3:1.33395 4:0.361316 5:0.72870398 6:1.03133 7:0.57890201 8:1.7171201 9:1.34653 10:1.34653 11:64.856697 12:62.9231 13:0.5 14:0.827806 15:0.80225003 16:18.0553 17:-3 18:-50.599998 19:-4 20:-85.333298 #
-3.2833159397086522028174487841667e-05 1:-6 2:-36.416698 3:2.9693601 4:0.30004299 5:3.4397099 6:0.15755101 7:0.17902599 8:0.29433 9:0.198009 10:0.184485 11:29.429899 12:67.943901 13:0.33333299 14:0.95487303 15:0.97712398 16:8.5524998 17:-11 18:-53.704498 19:-17 20:-118.25 #
-5.3453507567363259332226393949483e-05 1:2 2:38.125 3:11.1683 4:2.26402 5:0.67276502 6:4.4108 7:1.57428 8:0.89564103 9:4.7052498 10:4.7052498 11:75.854401 12:75.668297 13:0.66666698 14:0.98049802 15:0.97146702 16:20.695499 17:4 18:56.3125 19:-1 20:-80.837502 #
5.3453507567363259332226393949483e-05 1:-2 2:-14 3:3.3341701 4:0.53805202 5:0.97314101 6:1.3475699 7:1.0305099 8:1.13761 9:1.24145 10:2.08182 11:82.439903 12:74.159401 13:0.222222 14:0.57635701 15:0.81130499 16:22.1868 17:0 18:63 19:-4 20:-75 #
-5.3453507567363259332226393949483e-05 1:-3 2:-6.6666698 3:1.83301 4:0.769638 5:4.9302301 6:5.1475201 7:1.39065 8:1.22799 9:1.5783499 10:1.5783499 11:64.479599 12:40.684799 13:0.444444 14:0.75887603 15:0.72998703 16:17.9617 17:-3 18:-6.6666698 19:-4 20:-42.666698 #
5.3453507567363259332226393949483e-05 1:3 2:24.6667 3:2.15309 4:3.83321 5:0.227612 6:1.08086 7:0.33398899 8:0.87644303 9:0.336624 10:0.336624 11:24.4666 12:79.538696 13:0.444444 14:0.79795802 15:0.76412398 16:7.1343899 17:2 18:-37.333302 19:1 20:-62.200001 #
5.3453507567363259332226393949483e-05 1:-1 2:-8 3:3.50529 4:1.3990999 5:1.07583 6:3.1932199 7:1.12817 8:1.63872 9:4.1371002 10:13.1951 11:86.280899 12:31.1639 13:0.5 14:0.91710597 15:0.87837899 16:23.0231 17:-1 18:-8 19:3 20:187.5 #
-5.3453507567363259332226393949483e-05 1:3 2:2.6500001 3:1.7320499 4:0.138243 5:1.4742301 6:2.3203001 7:2.04971 8:0.50757003 9:0.852799 10:0.852799 11:55.9328 12:87.961304 13:0.222222 14:0.895989 15:0.84085 16:15.7896 17:2 18:-7.7666702 19:1 20:-71.724998 #
5.3453507567363259332226393949483e-05 1:-5 2:-23.7857 3:2.10079 4:0.72742999 5:0.99855399 6:2.0791199 7:0.74133402 8:0.61137801 9:3.4135599 10:3.4135599 11:72.752602 12:18.464701 13:0.444444 14:0.858091 15:0.83264601 16:19.969101 17:-5 18:-23.7857 19:-8 20:-84.5 #
-5.3453507567363259332226393949483e-05 1:0 2:0 3:4.9516802 4:0.181624 5:0.41989899 6:0.97252601 7:0.26299 8:0.21475001 9:0.77798998 10:18.8057 11:89.9618 12:58.7309 13:0.444444 14:0.90034002 15:0.963121 16:23.8002 17:0 18:0 19:0 20:0 #
5.3453507567363259332226393949483e-05 1:0 2:3.5 3:1.3573999 4:0.54726303 5:0.45482999 6:0.27772 7:0.189547 8:0.60996801 9:0.55233902 10:0.385703 11:33.162998 12:70.5233 13:0.66666698 14:0.75444299 15:0.85743999 16:9.6086702 17:0 18:3.5 19:-2 20:-74.916702 #
-5.3453507567363259332226393949483e-05 1:1 2:-51 3:2.61519 4:0.383903 5:4.3779802 6:0.49549901 7:0.73738599 8:0.72279102 9:0.37942299 10:0.37942299 11:32.7155 12:57.577999 13:0.66666698 14:0.94630897 15:0.86816698 16:9.4825802 17:1 18:-51 19:0 20:-49.333302 #
5.3453507567363259332226393949483e-05 1:0 2:4 3:2.6429701 4:0.45903 5:0.712722 6:0.87403601 7:0.89381999 8:1.22764 9:1.14283 10:1.11665 11:59.999401 12:60.310501 13:0.444444 14:0.52903497 15:0.81628001 16:16.834801 17:-4 18:-53.200001 19:-4 20:-53.200001 #
-5.1402128611378301934874829326461e-05 1:1 2:58 3:2.95983 4:0.309367 5:0.77888101 6:0.46376199 7:0.317123 8:0.59215301 9:0.86906302 10:0.329851 11:33.3405 12:50.870098 13:0.444444 14:0.91933799 15:0.86646903 16:9.6586504 17:0 18:-3 19:0 20:-3 #
5.3453507567363259332226393949483e-05 1:1 2:-33 3:11.0966 4:0.68615901 5:1.12885 6:2.6621399 7:7.0177002 8:1.14022 9:57.7113 10:57.7113 11:87.8218 12:39.395302 13:0.5 14:0.99118602 15:0.99201602 16:23.3514 17:1 18:-33 19:-2 20:-51 #
5.3453507567363259332226393949483e-05 1:3 2:15.3333 3:6.7565899 4:1.1419801 5:0.90640199 6:1.04805 7:1.3394901 8:0.254581 9:0.86995 10:0.86995 11:53.818001 12:83.119797 13:0.58823502 14:0.969486 15:0.95087397 16:15.2381 17:3 18:15.3333 19:7 20:110.286 #
-5.3453507567363259332226393949483e-05 1:4 2:25.5 3:1.36836 4:0.60726303 5:0.71984398 6:1.21746 7:1.30416 8:0.72298199 9:0.69169301 10:0.69169301 11:47.3055 12:48.0103 13:0.222222 14:0.95316398 15:0.92416298 16:13.5081 17:4 18:25.5 19:10 20:-74.083298 #
5.3453507567363259332226393949483e-05 1:1 2:58 3:2.99366 4:0.155195 5:0.269191 6:0.69563901 7:0.68228501 8:0.92527801 9:0.75683099 10:2.8197401 11:83.078003 12:69.328499 13:0.444444 14:0.66963398 15:0.84645802 16:22.327499 17:1 18:58 19:1 20:-53 #
5.3453507567363259332226393949483e-05 1:0 2:-28.6667 3:1.79953 4:1.11543 5:0.64842898 6:0.48618099 7:1.24624 8:1.86025 9:0.32831499 10:0.31643099 11:23.750401 12:74.413696 13:0.444444 14:0.85704499 15:0.785869 16:6.9285898 17:-3 18:-41.666698 19:-2 20:2.6666701 #
-1.0345102552378193649929016828537e-10 1:0 2:0 3:1.32456 4:0.62743402 5:0.459032 6:0.93426597 7:1.41106 8:0.62690502 9:0.70558399 10:1.68094 11:83.000397 12:61.4244 13:0.444444 14:0.84157902 15:0.75857598 16:22.3104 17:0 18:0 19:1 20:225 #
-5.3453507567363259332226393949483e-05 1:-1 2:-17.5 3:3.9638801 4:4.9433699 5:0.35723799 6:1.3342201 7:0.92046201 8:0.437657 9:0.82027602 10:0.82027602 11:51.427101 12:40.977699 13:0.66666698 14:0.974096 15:0.97457302 16:14.6084 17:-2 18:-58.5 19:-3 20:-133.5 #
5.3453507567363259332226393949483e-05 1:-1 2:-36 3:4.64679 4:0.171589 5:2.6912701 6:1.24836 7:0.84618503 8:0.79031801 9:1.1950001 10:1.1950001 11:55.112701 12:34.938 13:0.58823502 14:0.97003901 15:0.92600697 16:15.5764 17:-1 18:-36 19:-1 20:-36 #
-5.3453507567363259332226393949483e-05 1:1 2:5 3:3.0915699 4:0.40403599 5:1.00848 6:1.16423 7:2.30585 8:0.75826502 9:1.12718 10:0.77444702 11:59.037899 12:75.686996 13:0.66666698 14:0.68689603 15:0.78548503 16:16.5895 17:0 18:-29 19:0 20:-18.6667 #
5.3453507567363259332226393949483e-05 1:-2 2:-1.96667 3:2.09922 4:0.173498 5:0.698856 6:0.999053 7:0.85676199 8:0.47516301 9:0.79172301 10:0.394786 11:30.5823 12:82.208603 13:0.33333299 14:0.66549402 15:0.76502901 16:8.87955 17:-2 18:-1.96667 19:-3 20:-34.916698 #
-3.8532587680467633717285025340971e-06 1:0 2:0 3:2.1370699 4:0.38743699 5:1.04659 6:2.0880699 7:0.680803 8:0.25344199 9:14.3814 10:14.3814 11:85.765297 12:10.2024 13:0.444444 14:0.94776201 15:0.87281901 16:22.9123 17:0 18:0 19:-1 20:42 #
5.3453507567363259332226393949483e-05 1:2 2:17.75 3:1.27185 4:1.5765001 5:1.2563601 6:0.660411 7:0.55999702 8:1.0257601 9:1.34653 10:2.1814201 11:87.1782 12:36.822498 13:0.33333299 14:0.67764097 15:0.61191702 16:23.2148 17:2 18:17.75 19:0 20:-90.5 #
-5.3453507567363259332226393949483e-05 1:-6 2:-22.8571 3:3.56861 4:0.181595 5:0.574853 6:1.6743701 7:1.89072 8:0.66870099 9:0.81595302 10:1.2187901 11:65.334198 12:66.664001 13:0.66666698 14:0.76800901 15:0.76296097 16:18.1735 17:-6 18:-22.8571 19:-12 20:-73.076897 #
-5.3453507567363259332226393949483e-05 1:0 2:0 3:2.6870999 4:0.53817499 5:1.5108401 6:2.1036999 7:0.28571299 8:0.210254 9:5.9132199 10:5.9132199 11:77.386703 12:12.6416 13:0.444444 14:0.910276 15:0.85641599 16:21.0488 17:0 18:0 19:0 20:0 #
-5.3453507567363259332226393949483e-05 1:0 2:0 3:5.7004399 4:0.84105098 5:0.484487 6:2.33325 7:0.69410199 8:0.26189801 9:4.1051502 10:5.8264699 11:85.413002 12:21.3929 13:0.33333299 14:0.77109802 15:0.93897903 16:22.8363 17:0 18:0 19:0 20:0 #
-5.1706774392174953425011657559551e-05 1:0 2:0 3:1.83711 4:0.624246 5:1.02192 6:1.79662 7:0.32374001 8:0.89929903 9:4.8747802 10:4.8747802 11:79.270699 12:19.657301 13:0.444444 14:0.88004798 15:0.79767197 16:21.478001 17:0 18:0 19:0 20:0 #
-5.3210465848190054356011552405548e-05 1:0 2:-1.5 3:2.70948 4:0.85959899 5:1.8555599 6:6.5991702 7:0.594778 8:1.78476 9:2.20046 10:2.5275199 11:78.034203 12:43.7827 13:0.66666698 14:0.88457602 15:0.83689898 16:21.196899 17:0 18:-1.5 19:1 20:52 #
5.3453507567363259332226393949483e-05 1:-5 2:-18.4583 3:2.19116 4:1.34127 5:0.62581402 6:1.0091701 7:0.74572301 8:0.609568 9:0.89951301 10:0.78198701 11:48.241001 12:71.281403 13:0.33333299 14:0.66026503 15:0.71551102 16:13.7594 17:-5 18:-18.4583 19:-6 20:-55.214298 #
5.3453507567363259332226393949483e-05 1:-4 2:-23.3333 3:2.3018899 4:0.82728499 5:0.508762 6:1.5424 7:0.531564 8:0.51592898 9:1.9351 10:0.52256799 11:43.462002 12:29.278 13:0.33333299 14:0.83225203 15:0.89370698 16:12.4662 17:-4 18:-23.3333 19:-6 20:-67.25 #
5.3453507567363259332226393949483e-05 1:-1 2:-0.75 3:1.32195 4:1.3005 5:0.75606102 6:0.98151302 7:0.94003099 8:0.73617798 9:0.97089899 10:0.97089899 11:53.875198 12:36.333099 13:0.58823502 14:0.98419499 15:0.98084199 16:15.2531 17:-4 18:-42.799999 19:-4 20:-42.799999 #
5.3453507567363259332226393949483e-05 1:0 2:-11.25 3:1.7655801 4:4.6951399 5:1.64932 6:1.4440399 7:0.31814301 8:0.58458799 9:0.70291102 10:0.70291102 11:43.4799 12:49.172901 13:0.33333299 14:0.76916403 15:0.77233601 16:12.4711 17:0 18:-11.25 19:-4 20:-68.9375 #
5.3453507567363259332226393949483e-05 1:0 2:-7.25 3:1.45935 4:0.27314699 5:0.34185401 6:1.4498 7:0.64677 8:1.44994 9:0.739712 10:1.1288 11:54.964699 12:76.742401 13:0.33333299 14:0.60623199 15:0.83889902 16:15.5378 17:0 18:-7.25 19:-1 20:-61.650002 #
-3.6582279527762529062985194516777e-06 1:1 2:42 3:1.60148 4:0.226768 5:0.60513699 6:1.41136 7:0.41876799 8:0.369203 9:1.27561 10:0.244249 11:21.948099 12:17.412701 13:0.33333299 14:0.25211301 15:0.85095298 16:6.4095402 17:1 18:42 19:1 20:42 #
5.3453507567363259332226393949483e-05 1:2 2:-17.5208 3:1.73429 4:0.140394 5:0.38468701 6:0.83013099 7:2.22878 8:0.774782 9:2.29001 10:1.88459 11:74.363297 12:17.6803 13:0.66666698 14:0.70044398 15:0.78026003 16:20.3482 17:2 18:-18.634899 19:0 20:-57.5 #
-5.3453507567363259332226393949483e-05 1:-4 2:-26.2812 3:2.99333 4:1.9919 5:1.09584 6:0.202517 7:0.218831 8:0.31841299 9:0.19687399 10:0.12788799 11:24.996 12:64.903603 13:0.5 14:0.97845101 15:0.98270398 16:7.2863498 17:-3 18:34.0938 19:-4 20:-5.6500001 #
5.3453507567363259332226393949483e-05 1:-4 2:-34 3:3.8777499 4:0.264447 5:0.28189501 6:1.19822 7:3.5432701 8:0.332809 9:2.3511801 10:3.9709699 11:86.787903 12:34.7705 13:0.58823502 14:0.89883399 15:0.892636 16:23.1315 17:-5 18:-40 19:-5 20:-40 #
-6.0725784570629626982901649867586e-08 1:-4 2:-20 3:2.3619699 4:0.82255602 5:0.208077 6:1.0193 7:1.0115401 8:0.79798901 9:0.66076899 10:1.10154 11:60.604 12:51.8498 13:0.33333299 14:0.79525501 15:0.87221998 16:16.9884 17:-4 18:-20 19:-2 20:126 #
5.3453507567363259332226393949483e-05 1:3 2:12.9 3:1.9133101 4:0.25979999 5:0.92811298 6:1.522 7:0.84326702 8:0.91576302 9:0.98218203 10:0.98218203 11:54.335999 12:55.709 13:0.33333299 14:0.68841898 15:0.78645903 16:15.3737 17:3 18:12.9 19:-1 20:-71.599998 #
5.3453507567363259332226393949483e-05 1:0 2:0 3:2.19997 4:0.26990801 5:3.4770999 6:2.84427 7:1.08471 8:0.43801299 9:2.7305701 10:4.0908799 11:81.757797 12:26.709801 13:0.444444 14:0.90864497 15:0.834001 16:22.0357 17:0 18:0 19:1 20:164 #
-5.3453507567363259332226393949483e-05 1:0 2:0 3:3.0754299 4:0.48737201 5:0.83802497 6:1.27841 7:1.14055 8:0.40262601 9:1.33606 10:0.62576503 11:46.0938 12:43.7603 13:0.33333299 14:0.83433598 15:0.83161402 16:13.1812 17:0 18:0 19:3 20:-54.5 #
5.3453507567363259332226393949483e-05 1:1 2:-6.4000001 3:1.68713 4:0.30207899 5:4.65101 6:1.46984 7:1.18195 8:0.80602002 9:0.91972601 10:0.68335402 11:34.9487 12:70.0625 13:0.33333299 14:0.778193 15:0.63068497 16:10.1103 17:1 18:-6.4000001 19:0 20:-43.599998 #
-5.2638077067004755227406370687859e-05 1:-1 2:-29.5 3:1.79939 4:1.77952 5:0.46533099 6:0.54887599 7:0.30397999 8:0.14511199 9:0.237331 10:0.237331 11:30.2059 12:64.379204 13:0.33333299 14:0.905936 15:0.93884498 16:8.77283 17:-1 18:39.25 19:-3 20:-9.5500002 #
5.3453507567363259332226393949483e-05 1:2 2:31 3:1.3893 4:0 5:0 6:0 7:0 8:0 9:2.2681999 10:2.72452 11:89.295601 12:51.2108 13:0.444444 14:0.86414897 15:0.79122102 16:23.6614 17:2 18:-43 19:1 20:-27.5333 #
-1.7900592279661907781952712159779e-05 1:1 2:50 3:3.26354 4:0.77743697 5:2.47521 6:0.43526301 7:0.579418 8:0.76849902 9:0.87365299 10:0.813016 11:57.8708 12:78.761299 13:0.33333299 14:0.54062301 15:0.75435698 16:16.290199 17:0 18:-34 19:2 20:13 #
5.3453507567363259332226393949483e-05 1:0 2:-12 3:2.14622 4:0.32543999 5:3.1533401 6:2.6170299 7:0.54243797 8:0.49967101 9:0.428123 10:1.20049 11:66.799896 12:77.040199 13:0.33333299 14:0.89320898 15:0.73979801 16:18.534599 17:4 18:50.400002 19:8 20:-0.60606098 #
-3.06737256730305052343510396895e-05 1:0 2:0 3:1.72916 4:3.2049501 5:0.832555 6:1.61895 7:0.60311902 8:0.204087 9:3.1946499 10:3.1946499 11:83.355103 12:30.843201 13:0.33333299 14:0.803056 15:0.75222403 16:22.388399 17:0 18:0 19:0 20:0 #
5.3453507567363259332226393949483e-05 1:-5 2:-19.799999 3:1.96455 4:0.402619 5:0.58908498 6:1.14489 7:1.32542 8:0.533225 9:0.66566801 10:0.66566801 11:38.103298 12:52.634899 13:0.444444 14:0.83448899 15:0.72066897 16:10.9905 17:-6 18:-31.8333 19:-9 20:19.299999 #
-5.7742841688690482726542541058734e-09 1:0 2:-2 3:2.5262401 4:12.4764 5:0.64794499 6:0.50953001 7:0.88460797 8:0.315043 9:0.647753 10:0.647753 11:47.7509 12:79.821999 13:0.444444 14:0.88715899 15:0.91386002 16:13.6279 17:0 18:-2 19:-2 20:18.25 #
5.3453507567363259332226393949483e-05 1:1 2:6 3:2.67278 4:0.56385601 5:0.238791 6:1.97568 7:1.52369 8:1.53721 9:2.7443399 10:2.7848499 11:72.858803 12:19.2484 13:0.36363599 14:0.80957001 15:0.87451202 16:19.9942 17:-3 18:-49.200001 19:-3 20:-49.200001 #
-5.3453507567363259332226393949483e-05 1:0 2:0 3:2.6461301 4:2.06197 5:1.33407 6:1.15426 7:0.76520598 8:0.72462797 9:2.1092701 10:2.1092701 11:64.672302 12:27.661699 13:0.33333299 14:0.90525198 15:0.89849299 16:18.009501 17:-1 18:-75 19:-1 20:39 #
5.3453507567363259332226393949483e-05 1:-1 2:-3 3:4.8681598 4:0.196693 5:0.75106198 6:1.02947 7:0.16665401 8:0.99639302 9:0.68849301 10:0.32681501 11:31.302601 12:78.886597 13:0.66666698 14:0.90555799 15:0.83386701 16:9.0835199 17:-1 18:-3 19:-3 20:22.4 #
5.3453507567363259332226393949483e-05 1:-1 2:-28 3:2.3891399 4:4.81674 5:1.26458 6:2.6484599 7:1.1737 8:0.96111602 9:3.1789899 10:2.1998899 11:64.896896 12:29.4573 13:0.58823502 14:0.99737799 15:0.94688302 16:18.065201 17:-1 18:-28 19:-4 20:48.400002 #
-5.3453507567363259332226393949483e-05 1:1 2:4.6145802 3:1.87172 4:0.420039 5:0.309484 6:0.74920601 7:1.2480201 8:0.36799899 9:1.9283201 10:0.69676697 11:52.712399 12:26.947701 13:0.444444 14:0.73146302 15:0.826976 16:14.9477 17:1 18:4.6145802 19:-1 20:-78.666702 #
5.3453507567363259332226393949483e-05 1:-3 2:-6.6666698 3:1.86323 4:0.40641499 5:0.75239497 6:1.61703 7:0.34792101 8:0.65292603 9:1.14105 10:0.56738698 11:44.830898 12:44.077999 13:0.444444 14:0.79303098 15:0.89478397 16:12.839 17:-3 18:-6.6666698 19:-4 20:-42.666698 #
-1.0177963416502480340462832852921e-05 1:0 2:0 3:2.4971199 4:2.82709 5:1.8484401 6:0.61005199 7:0.77554601 8:0.91599101 9:1.97656 10:0.52209097 11:40.6618 12:31.4671 13:0.444444 14:0.80467498 15:0.82773501 16:11.6983 17:0 18:0 19:2 20:142.5 #
5.3453507567363259332226393949483e-05 1:-3 2:-23.6667 3:2.01596 4:1.57517 5:0.912278 6:1.09462 7:0.708731 8:1.72679 9:1.5243 10:1.5243 11:65.545403 12:46.052898 13:0.5 14:0.72885197 15:0.743469 16:18.2257 17:-6 18:-36.222198 19:-6 20:-36.222198 #
-5.3453507567363259332226393949483e-05 1:-2 2:-38 3:2.22593 4:0.31790799 5:0.66601801 6:1.32128 7:1.6987799 8:0.79505199 9:0.90328503 10:1.95155 11:84.467598 12:62.087101 13:0.66666698 14:0.72685498 15:0.78195798 16:22.631399 17:-6 18:-59.142899 19:-6 20:-59.142899 #
5.3453507567363259332226393949483e-05 1:2 2:13.25 3:2.2040901 4:0.68552899 5:0.53534198 6:0.72740602 7:0.56095201 8:0.67970502 9:1.0256701 10:0.77772099 11:46.003799 12:48.159698 13:0.444444 14:0.55980998 15:0.68388402 16:13.1569 17:0 18:-11 19:1 20:41 #
-5.3453507567363259332226393949483e-05 1:0 2:0 3:1.19175 4:2.51741 5:1.19574 6:0.75232297 7:1.92532 8:0.21292999 9:0.918917 10:0.53904098 11:36.217701 12:71.601196 13:0.33333299 14:0.76220798 15:0.74518698 16:10.4654 17:0 18:0 19:0 20:0 #
5.3453507567363259332226393949483e-05 1:0 2:0 3:1.63025 4:0.146529 5:0.61229599 6:0.75019097 7:0.22351 8:1.1823601 9:0.176947 10:0.204082 11:27.379299 12:72.054298 13:0.66666698 14:0.97480899 15:0.93653202 16:7.96839 17:0 18:0 19:0 20:0 #
-1.9278266327898805368402587734344e-05 1:-1 2:-4 3:3.1894701 4:1.78704 5:0.35835999 6:0.137604 7:0.48802799 8:4.3608999 9:0.25042301 10:0.25042301 11:28.063 12:75.584702 13:0.66666698 14:0.985201 15:0.89000797 16:8.1634398 17:-1 18:-4 19:0 20:178 #
-5.3453507567363259332226393949483e-05 1:0 2:0 3:1.29959 4:0.40948701 5:0.210291 6:0.49069399 7:1.03553 8:0.60956198 9:1.09146 10:0.156766 11:10.2162 12:79.3526 13:0.66666698 14:0.82892698 15:0.86151099 16:2.9978001 17:-1 18:-96 19:-3 20:-175.33299 #
5.3453507567363259332226393949483e-05 1:-5 2:-17.200001 3:9.1062698 4:5.9935999 5:2.6459701 6:4.5988698 7:0.70536 8:0.611808 9:7.0339298 10:11.7604 11:84.3993 12:32.558201 13:0.58823502 14:0.99750799 15:0.97680998 16:22.6166 17:-5 18:-17.200001 19:-6 20:-63.666698 #
-5.3453507567363259332226393949483e-05 1:0 2:0 3:2.52002 4:1.91327 5:1.75809 6:1.31494 7:0.441107 8:0.73645002 9:3.4103701 10:3.4103701 11:71.496399 12:19.032301 13:0.444444 14:0.89278603 15:0.88296098 16:19.6707 17:0 18:0 19:0 20:0 #
-5.3453507567363259332226393949483e-05 1:0 2:0 3:3.29 4:2.82549 5:0.33167201 6:4.1921 7:0.91476202 8:0.242441 9:2.9519401 10:1.37077 11:74.172401 12:20.914499 13:0.33333299 14:0.77602202 15:0.75760102 16:20.303499 17:0 18:0 19:0 20:0 #
-2.979867020705927183055194973349e-05 1:0 2:0 3:4.1689801 4:0.47019699 5:1.51689 6:1.1186301 7:0.76278698 8:0.27258801 9:7.1125398 10:1.1302 11:62.699299 12:16.2777 13:0.222222 14:0.92609501 15:0.83482897 16:17.517099 17:0 18:0 19:0 20:0 #
-5.3019628444561189796122024908698e-05 1:0 2:0 3:1.80998 4:0.53359199 5:0.289015 6:2.2349999 7:0.52498698 8:0.18566801 9:3.39223 10:1.60501 11:64.197502 12:15.4902 13:0.33333299 14:0.77190602 15:0.849033 16:17.8915 17:0 18:0 19:0 20:0 #
-5.3453507567363259332226393949483e-05 1:0 2:0 3:2.20455 4:2.0554299 5:2.3845401 6:0.499134 7:0.243717 8:0.56029201 9:3.4339499 10:3.4339499 11:67.671402 12:22.6831 13:0.444444 14:0.94235301 15:0.79309499 16:18.747801 17:0 18:0 19:0 20:0 #
-5.320532224840615793687997880923e-05 1:0 2:0 3:3.77087 4:0.61422497 5:0.92101002 6:0.39565799 7:0.28211701 8:0.462699 9:2.76984 10:4.7245798 11:81.562698 12:29.3794 13:0.33333299 14:0.85273898 15:0.85249102 16:21.9923 17:0 18:0 19:0 20:0 #
5.3453507567363259332226393949483e-05 1:1 2:-4 3:1.17511 4:0.191608 5:1.05141 6:1.84161 7:0.89261901 8:0.319758 9:0.35719299 10:1.05114 11:51.356201 12:68.802498 13:0.444444 14:0.67202902 15:0.82952601 16:14.5896 17:0 18:-9.25 19:-1 20:-19.111099 #
5.3453507567363259332226393949483e-05 1:0 2:0 3:2.7356 4:3.7416699 5:3.18593 6:0.453991 7:0.260719 8:0.289639 9:0.58747602 10:0.56507599 11:42.335999 12:72.956596 13:0.58823502 14:0.91293001 15:0.89703602 16:12.1583 17:0 18:0 19:0 20:0 #
5.3453507567363259332226393949483e-05 1:0 2:0 3:2.0882199 4:0.59430403 5:0.30039001 6:0.679196 7:0.24125101 8:0.64972597 9:0.49526799 10:1.54952 11:72.4963 12:84.770203 13:0.444444 14:0.80645698 15:0.82637602 16:19.9084 17:0 18:0 19:0 20:0 #
5.3453507567363259332226393949483e-05 1:0 2:0 3:1.51531 4:0.67916799 5:1.61507 6:1.0013601 7:0.74284399 8:0.71538198 9:0.94531298 10:0.26451901 11:11.4161 12:54.9161 13:0.36363599 14:0.793782 15:0.75448501 16:3.3487899 17:0 18:0 19:0 20:0 #
5.3453507567363259332226393949483e-05 1:-4 2:-17.3333 3:1.5451 4:0.250642 5:1.0238 6:0.98851502 7:0.72723401 8:0.92895699 9:0.71527702 10:0.71527702 11:42.702999 12:49.0923 13:0.33333299 14:0.83121002 15:0.771617 16:12.2588 17:-4 18:-17.3333 19:-4 20:-17.3333 #
-1.3904112688787610056882076969842e-05 1:1 2:8 3:2.1712899 4:0.23696899 5:1.39873 6:0.37769899 7:0.98398399 8:0.70627701 9:0.49369201 10:0.75145203 11:49.6814 12:54.952801 13:0.66666698 14:0.78688997 15:0.83212298 16:14.1446 17:-1 18:-89.5 19:-3 20:-156 #
5.3453507567363259332226393949483e-05 1:-1 2:-4 3:1.61453 4:4.91292 5:1.60417 6:2.7992401 7:0.97481698 8:0.62123299 9:3.7179 10:2.82494 11:70.374199 12:22.125099 13:0.58823502 14:0.96135902 15:0.89162201 16:19.402201 17:-1 18:-4 19:0 20:80 #
-5.3453507567363259332226393949483e-05 1:-1 2:50 3:3.0204401 4:0.91651797 5:0.48702201 6:0.56388402 7:0.725218 8:0.32683399 9:1.6712199 10:0.230056 11:9.8705597 12:50.927299 13:0.66666698 14:0.78756499 15:0.79015201 16:2.89663 17:-1 18:50 19:-1 20:50 #
5.3453507567363259332226393949483e-05 1:-3 2:-8.1999998 3:1.97996 4:1.5533201 5:1.0355099 6:0.94830102 7:0.73353499 8:1.28628 9:1.658 10:4.1336999 11:85.368202 12:29.4923 13:0.66666698 14:0.74074298 15:0.77190101 16:22.8267 17:-3 18:-8.1999998 19:-4 20:-50.333302 #
-5.3453507567363259332226393949483e-05 1:-5 2:-18.4583 3:2.6465199 4:0.487822 5:2.3635399 6:5.5274501 7:4.8803301 8:1.42755 9:3.3705101 10:3.3705101 11:83.268097 12:67.587601 13:0.36363599 14:0.95025897 15:0.90478301 16:22.369301 17:-5 18:-18.4583 19:-6 20:-55.214298 #
5.3453507567363259332226393949483e-05 1:0 2:0 3:2.83762 4:0.56289798 5:0.671547 6:1.52109 7:1.18962 8:0.28863099 9:2.2714801 10:0.700611 11:45.329899 12:37.777599 13:0.5 14:0.96113801 15:0.83839703 16:12.9744 17:0 18:0 19:-2 20:64.5 #
-5.3453507567363259332226393949483e-05 1:-4 2:-39.25 3:2.0372701 4:0.14036299 5:1.06826 6:0.70434701 7:0.72091103 8:2.0428901 9:4.16434 10:4.16434 11:77.594498 12:29.1549 13:0.66666698 14:0.86479801 15:0.89657497 16:21.096399 17:-7 18:-55.857101 19:-12 20:-119.083 #
5.3453507567363259332226393949483e-05 1:1 2:33.875 3:1.96707 4:0.68219799 5:0.64625102 6:0.50980902 7:0.44185999 8:0.78166598 9:1.75554 10:0.80620801 11:48.857399 12:36.382099 13:0.444444 14:0.77069801 15:0.82241303 16:13.9245 17:3 18:58.5625 19:3 20:-60 #
5.3453507567363259332226393949483e-05 1:-2 2:-10.1333 3:2.6861 4:0.558029 5:0.99750203 6:1.37034 7:0.34875399 8:0.290492 9:1.9906 10:0.62696999 11:48.298199 12:37.900902 13:0.33333299 14:0.84843498 15:0.82823598 16:13.7747 17:-2 18:-10.1333 19:0 20:56.799999 #
-5.3453507567363259332226393949483e-05 1:0 2:0 3:2.6031799 4:1.2025 5:0.83894497 6:3.7597201 7:1.32932 8:0.477514 9:4.41538 10:4.41538 11:78.686203 12:25.4965 13:0.33333299 14:0.87337703 15:0.86172301 16:21.3454 17:0 18:0 19:3 20:186.33299 #
5.3453507567363259332226393949483e-05 1:-3 2:-16.3333 3:2.2044899 4:0.82737201 5:0.495242 6:0.61750197 7:1.00731 8:1.03793 9:2.5953701 10:0.70793498 11:47.063202 12:48.487499 13:0.66666698 14:0.84792 15:0.86738998 16:13.4428 17:-3 18:-16.3333 19:-3 20:-16.3333 #
-5.3453507567363259332226393949483e-05 1:0 2:0 3:1.77983 4:0.56394702 5:0.31132799 6:1.2449501 7:1.13738 8:0.45574301 9:0.62301397 10:0.62301397 11:42.504101 12:54.0634 13:0.33333299 14:0.93188697 15:0.83729202 16:12.2043 17:2 18:84 19:2 20:-32 #
-1.7435424113518283029122812877176e-05 1:0 2:0 3:3.1001401 4:0.198643 5:0.28912899 6:1.28929 7:0.57794499 8:0.73664999 9:2.32061 10:2.47264 11:85.086098 12:31.707899 13:0.444444 14:0.80535799 15:0.82421398 16:22.765699 17:0 18:0 19:0 20:0 #
5.3453507567363259332226393949483e-05 1:-1 2:-3.8333299 3:1.2827801 4:0.40753999 5:1.0204901 6:0.56535703 7:0.72741097 8:0.81813902 9:1.17559 10:0.56319302 11:31.519501 12:42.225498 13:0.222222 14:0.43203801 15:0.662736 16:9.1448698 17:-2 18:-13.7333 19:-2 20:-13.7333 #
5.3453507567363259332226393949483e-05 1:2 2:3.3333299 3:2.3602901 4:5.8400302 5:1.7061501 6:0.77875 7:1.37205 8:0.85758197 9:1.56936 10:4.7845302 11:77.708397 12:68.686401 13:0.58823502 14:0.83595598 15:0.90634501 16:21.122499 17:2 18:3.3333299 19:2 20:3.3333299 #
-4.1937670010039069645041420741904e-08 1:-1 2:-6.5 3:2.1056299 4:4.01441 5:0.95217699 6:1.6819299 7:0.3057 8:0.81017601 9:3.62572 10:5.40379 11:83.8368 12:2.4935601 13:0.444444 14:0.72549599 15:0.800713 16:22.4939 17:-1 18:-6.5 19:0 20:182 #
-1.0781567871437746898794288186174e-06 1:-2 2:-31.7188 3:1.42953 4:0.77755803 5:1.32559 6:1.09593 7:0.339607 8:0.49434799 9:3.9481599 10:0.25228101 11:19.316601 12:9.1582804 13:0.66666698 14:0.77508003 15:0.81741703 16:5.64887 17:-2 18:-31.7188 19:-2 20:66.770798 #
5.3453507567363259332226393949483e-05 1:-1 2:25.8333 3:1.2711999 4:0.284787 5:0.68435597 6:0.95509702 7:0.55297703 8:0.73897302 9:0.47017899 10:0.47017899 11:41.027401 12:82.372398 13:0.444444 14:0.91499698 15:0.840927 16:11.799 17:1 18:32.900002 19:1 20:32.900002 #
-2.9490729631991507118937700937522e-05 1:0 2:0 3:1.5134799 4:0.94575202 5:0.366294 6:0.78006899 7:1.12418 8:0.14207 9:0.70324099 10:0.70324099 11:45.244499 12:45.2659 13:0.222222 14:0.85500401 15:0.84873497 16:12.9512 17:-1 18:-98 19:-1 20:7 #
5.3453507567363259332226393949483e-05 1:-4 2:-25.5 3:5.40803 4:1.11511 5:0.63673401 6:1.4530801 7:3.6026399 8:0.92241198 9:1.81274 10:16.169901 11:83.059601 12:35.238899 13:0.58823502 14:0.95669699 15:0.95731801 16:22.3234 17:-4 18:-25.5 19:-4 20:-25.5 #
-5.3453507567363259332226393949483e-05 1:-1 2:-15.5 3:3.8198199 4:0.91414601 5:2.0633399 6:0.98825502 7:1.46622 8:0.55069 9:8.4946299 10:8.4946299 11:83.370399 12:34.9785 13:0.66666698 14:0.94852901 15:0.93797499 16:22.391701 17:-1 18:-15.5 19:-4 20:11.1 #
5.3453507567363259332226393949483e-05 1:0 2:1.5 3:1.69021 4:0.35824099 5:0.50784099 6:1.0736001 7:0.59548497 8:0.47791901 9:1.35821 10:0.664276 11:33.508099 12:45.120998 13:0.222222 14:0.62453699 15:0.62332302 16:9.7058096 17:0 18:1.5 19:0 20:1.5 #
-1.8306759414673541276575782776881e-05 1:1 2:-4 3:2.82078 4:0.24397101 5:1.62863 6:0.443427 7:0.658023 8:1.06208 9:1.11035 10:0.35224101 11:28.086201 12:46.167301 13:0.66666698 14:0.57312298 15:0.78797001 16:8.1700602 17:1 18:-4 19:-1 20:-126.75 #
5.3453507567363259332226393949483e-05 1:-2 2:-1.36667 3:2.7999599 4:1.04787 5:0.34571099 6:0.82860899 7:1.29961 8:0.95399803 9:2.12409 10:2.06112 11:73.75 12:59.648998 13:0.36363599 14:0.77375901 15:0.86009502 16:20.2043 17:-2 18:-1.36667 19:-3 20:-4.75 #
-5.3453507567363259332226393949483e-05 1:0 2:0 3:3.24753 4:0.363693 5:1.59569 6:1.1156501 7:0.59496897 8:0.12776899 9:1.73989 10:1.73886 11:65.844803 12:26.6294 13:0.33333299 14:0.662292 15:0.82240301 16:18.299601 17:0 18:0 19:0 20:0 #
5.3453507567363259332226393949483e-05 1:4 2:31 3:8.1612997 4:0.92210501 5:1.12098 6:1.5337 7:1.87699 8:0.94257098 9:1.5708899 10:1.5708899 11:58.540199 12:31.603201 13:0.58823502 14:0.99333602 15:0.92961001 16:16.462099 17:4 18:31 19:4 20:31 #
5.3453507567363259332226393949483e-05 1:-1 2:-22 3:4.2134099 4:5.40838 5:4.3414898 6:3.2901599 7:4.3278098 8:1.04976 9:2.9112799 10:2.8528199 11:68.492798 12:31.123501 13:0.58823502 14:0.93296599 15:0.95352602 16:18.9478 17:-1 18:-22 19:-1 20:-22 #
-5.3453507567363259332226393949483e-05 1:0 2:0 3:1.96255 4:0.236535 5:0.437318 6:1.25938 7:0.50713497 8:0.52414203 9:2.1475899 10:2.1475899 11:66.770302 12:28.6737 13:0.444444 14:0.83784503 15:0.84815598 16:18.5273 17:0 18:0 19:0 20:0 #
5.3453507567363259332226393949483e-05 1:0 2:6.6666698 3:1.66921 4:0.75722998 5:0.75686198 6:0.53563702 7:1.3681901 8:0.46032801 9:1.43714 10:1.44822 11:56.384201 12:37.405899 13:0.222222 14:0.667063 15:0.70499599 16:15.9066 17:2 18:24.266701 19:2 20:24.266701 #
-5.3453507567363259332226393949483e-05 1:0 2:0 3:1.3499 4:0.486754 5:0.17817201 6:0.37227499 7:1.41878 8:0.509251 9:0.77351201 10:0.593449 11:44.123699 12:58.711102 13:0.33333299 14:0.938205 15:0.88274503 16:12.6466 17:3 18:85.5 19:8 20:-79.055603 #
-5.202843156139854617842424588936e-05 1:0 2:0 3:2.58954 4:0.196713 5:0.431537 6:2.9814601 7:0.37339601 8:0.28586099 9:3.94732 10:0.41382799 11:39.443199 12:12.5039 13:0.444444 14:0.75242198 15:0.88558298 16:11.3619 17:0 18:0 19:0 20:0 #
5.3453507567363259332226393949483e-05 1:-3 2:-3.3 3:1.1877199 4:0.33670399 5:0.72549099 6:0.67153698 7:1.02607 8:1.01036 9:1.27066 10:0.62354302 11:36.526402 12:41.432201 13:0.444444 14:0.52587301 15:0.70500398 16:10.5515 17:-3 18:-3.3 19:-5 20:-27.7857 #
-8.3904646885094947493218334177989e-06 1:-2 2:-28.75 3:2.5334899 4:0.44719401 5:2.03913 6:0.160593 7:0.134839 8:0.120641 9:0.136915 10:0.157285 11:28.7223 12:64.6064 13:0.33333299 14:0.98378301 15:0.99356002 16:8.3512402 17:-3 18:18.125 19:-5 20:8.9642897 #
5.3453507567363259332226393949483e-05 1:-2 2:37.333302 3:2.8597 4:0.33630499 5:0.70140702 6:1.54503 7:0.65309298 8:1.68397 9:2.1014199 10:0.89027297 11:58.244598 12:10.9798 13:0.444444 14:0.55817598 15:0.76205498 16:16.386299 17:2 18:39.142899 19:4 20:46.222198 #
-2.4785214504826472473562881670972e-05 1:1 2:8 3:3.29301 4:0.39225799 5:0.20833699 6:0.96148098 7:0.212943 8:0.054917902 9:0.505189 10:5.9674401 11:80.441101 12:57.589298 13:0.33333299 14:0.68405098 15:0.902336 16:21.741699 17:1 18:8 19:1 20:8 #
5.3453507567363259332226393949483e-05 1:-2 2:-17.3333 3:2.17993 4:0.85069299 5:1.06365 6:1.0876499 7:1.61225 8:1.11963 9:2.70313 10:2.9602699 11:85.225098 12:34.152599 13:0.36363599 14:0.78250599 15:0.85403401 16:22.7957 17:-4 18:-16.3333 19:-5 20:-37.285702 #
-5.3004861309472816146334123166284e-05 1:0 2:0 3:1.67566 4:0.13462199 5:1.3906 6:2.1500499 7:0.29362401 8:0.47615001 9:2.6281199 10:0.85558099 11:56.174999 12:22.3673 13:0.444444 14:0.65169698 15:0.83626997 16:15.8524 17:0 18:0 19:0 20:0 #
5.3453507567363259332226393949483e-05 1:-2 2:-25 3:2.52951 4:0.380905 5:0.41657901 6:4.62427 7:0.516985 8:0.346901 9:2.5924499 10:2.5924499 11:68.545303 12:33.963402 13:0.66666698 14:0.94805002 15:0.746108 16:18.9606 17:0 18:49 19:0 20:49 #
-2.4491668797822579805136336550397e-05 1:0 2:0 3:2.5030401 4:0.66016698 5:2.4718001 6:0.62769198 7:0.79070598 8:0.21537501 9:1.94022 10:4.1880202 11:87.518997 12:5.4055901 13:0.33333299 14:0.49205399 15:0.75976199 16:23.287201 17:0 18:0 19:1 20:-48.25 #
5.3453507567363259332226393949483e-05 1:-1 2:-8 3:3.62605 4:2.0828199 5:2.35517 6:2.98245 7:4.41118 8:1.79346 9:2.77424 10:1.55633 11:59.945999 12:33.314999 13:0.444444 14:0.847305 15:0.93943399 16:16.821199 17:-1 18:-8 19:-1 20:-8 #
-5.3241051268242873021566824442985e-05 1:0 2:0 3:6.5577102 4:0.483174 5:0.62391597 6:1.87587 7:0.321455 8:0.55927199 9:3.6836801 10:1.30033 11:56.1394 12:22.814301 13:0.33333299 14:0.83026201 15:0.85872698 16:15.8432 17:0 18:0 19:0 20:0 #
5.3453507567363259332226393949483e-05 1:-3 2:0.35714301 3:1.3273 4:6.8531399 5:0.78675801 6:1.49901 7:0.69118798 8:0.71185303 9:1.27043 10:1.2525001 11:57.8176 12:37.040199 13:0.222222 14:0.47883299 15:0.78210402 16:16.2766 17:-4 18:-4.25 19:-6 20:-40.700001 #
5.3453507567363259332226393949483e-05 1:1 2:10 3:1.34978 4:0.337881 5:1.30143 6:1.65395 7:2.2469399 8:0.313283 9:3.49544 10:3.49544 11:69.626701 12:23.3839 13:0.5 14:0.941881 15:0.85754102 16:19.2223 17:1 18:10 19:1 20:10 #
-1.3987332722818691021961917675398e-05 1:0 2:0 3:1.76782 4:0.155959 5:0.48658299 6:0.33998501 7:1.12204 8:0.66625899 9:0.381814 10:0.381814 11:33.593399 12:56.838902 13:0.5 14:0.90341198 15:0.87164998 16:9.7297897 17:0 18:0 19:5 20:180.45 #
5.3453507567363259332226393949483e-05 1:1 2:24 3:2.22786 4:2.3634601 5:1.4046201 6:3.9763501 7:1.79375 8:0.77033401 9:6.4792299 10:2.0004699 11:64.387802 12:24.1448 13:0.58823502 14:0.97294497 15:0.91631401 16:17.938801 17:1 18:24 19:1 20:24 #
-5.3453507567363259332226393949483e-05 1:0 2:0 3:3.5346999 4:0.260169 5:2.6500599 6:0.92726499 7:0.35286301 8:0.24194001 9:2.4045801 10:0.76742101 11:50.4631 12:19.9352 13:0.33333299 14:0.74869001 15:0.96579301 16:14.3527 17:0 18:0 19:0 20:0 #
-1.8905050894761816788341990402955e-08 1:-1 2:-11 3:3.7147999 4:1.2088701 5:0.60679299 6:0.50479698 7:0.67962402 8:0.70646501 9:0.34299701 10:0.34299701 11:36.950401 12:58.362 13:0.444444 14:0.97932202 15:0.95300698 16:10.6698 17:-1 18:-11 19:0 20:232 #
5.3453507567363259332226393949483e-05 1:0 2:0 3:4.21104 4:0.230964 5:1.37542 6:2.2529399 7:1.43278 8:0.47403499 9:4.3190699 10:53.127201 11:87.445099 12:24.9986 13:0.58823502 14:0.98336601 15:0.90004098 16:23.2715 17:0 18:0 19:0 20:0 #
5.3453507567363259332226393949483e-05 1:4 2:17 3:4.0759602 4:0.59588301 5:2.8594 6:5.8042302 7:16.5613 8:0.98947799 9:6.9931102 10:6.0300298 11:74.023102 12:14.4716 13:0.36363599 14:0.93220502 15:0.966793 16:20.2684 17:4 18:17 19:4 20:17 #
-5.3453507567363259332226393949483e-05 1:0 2:0 3:1.77956 4:0.68405497 5:0.725218 6:1.77042 7:0.76339298 8:0.092541799 9:1.8947099 10:1.26547 11:60.234699 12:28.3743 13:0.33333299 14:0.59451401 15:0.62712502 16:16.8946 17:0 18:0 19:0 20:0 #
-5.3453507567363259332226393949483e-05 1:-1 2:-6 3:4.5994501 4:0.988635 5:0.738437 6:1.95497 7:0.60637599 8:0.49054801 9:36.533199 10:36.533199 11:89.704102 12:19.737499 13:0.222222 14:0.98360097 15:0.96630698 16:23.746599 17:0 18:68 19:1 20:75.333298 #
-5.3453507567363259332226393949483e-05 1:-4 2:-2 3:2.51231 4:0.66893399 5:0.45817301 6:0.069745399 7:0.39325601 8:5.9625802 9:0.090076298 10:0.090076298 11:8.0459099 12:82.091202 13:0.58823502 14:0.97154999 15:0.92124701 16:2.36215 17:-4 18:-2 19:0 20:135.8 #
-5.3453507567363259332226393949483e-05 1:1 2:48 3:2.2624099 4:0.42492899 5:0.75569302 6:0.46671399 7:2.0480499 8:0.19155499 9:0.99098599 10:5.1334701 11:77.305397 12:86.869301 13:0.222222 14:0.74962598 15:0.86410201 16:21.0301 17:2 18:69 19:1 20:-27.3333 #
-5.3453507567363259332226393949483e-05 1:0 2:0 3:1.5644799 4:31.355499 5:1.40703 6:0.37277001 7:0.65078002 8:0.25499299 9:0.387853 10:0.387853 11:39.874901 12:59.8652 13:0.66666698 14:0.96642101 15:0.96603101 16:11.4812 17:0 18:0 19:0 20:12 #
-4.3977554591252935743597024531581e-05 1:-5 2:-21.200001 3:1.63099 4:0.79246598 5:1.2361 6:0.213735 7:0.395114 8:0.176999 9:0.216511 10:0.216511 11:27.641001 12:66.246597 13:0.5 14:0.90117598 15:0.92802298 16:8.0430899 17:-7 18:-37.142899 19:-16 20:115.647 #
-5.3453507567363259332226393949483e-05 1:-2 2:0.45833299 3:2.3322599 4:0.31850001 5:1.09807 6:0.62958902 7:2.7209499 8:0.803756 9:1.84361 10:2.63166 11:75.810204 12:50.777802 13:0.66666698 14:0.66337699 15:0.80302298 16:20.6852 17:-2 18:0.45833299 19:-3 20:-29.6964 #
-5.3453507567363259332226393949483e-05 1:-4 2:-17.4762 3:3.29125 4:1.78113 5:0.44839701 6:4.0419302 7:2.1487601 8:1.4702801 9:3.0114901 10:1.99624 11:66.871002 12:20.209801 13:0.66666698 14:0.807679 15:0.895899 16:18.552 17:-8 18:-37.242401 19:-9 20:-42.75 #
-4.4820184193290754713460966041083e-05 1:0 2:0 3:1.13389 4:15.8654 5:0.48137999 6:0.63141799 7:0.28649601 8:0.981601 9:0.48794299 10:0.47800699 11:34.769402 12:64.739403 13:0.444444 14:0.81428403 15:0.78028798 16:10.0601 17:0 18:0 19:-4 20:-239 #
-5.3453507567363259332226393949483e-05 1:-7 2:-31.7143 3:5.0879402 4:0.60896099 5:2.0537801 6:2.2181001 7:2.3095801 8:0.86955398 9:2.41766 10:2.41766 11:81.835098 12:81.531601 13:0.36363599 14:0.91720599 15:0.87430698 16:22.052799 17:-7 18:-31.7143 19:-8 20:-42.125 #
-5.3453507567363259332226393949483e-05 1:1 2:19.125 3:1.66188 4:0.386489 5:0.60176498 6:1.9867899 7:0.54225302 8:0.408016 9:12.9884 10:12.9884 11:83.329903 12:8.0338497 13:0.444444 14:0.94503301 15:0.74951398 16:22.382799 17:1 18:19.125 19:-1 20:-195.188 #
-2.282837236413292822390097569496e-05 1:-6 2:-26.3333 3:1.29705 4:0.127018 5:0.278395 6:0.160201 7:0.71589398 8:0.41486001 9:0.201341 10:0.207992 11:28.5082 12:68.430397 13:0.33333299 14:0.98606098 15:0.94561398 16:8.2902899 17:-6 18:-26.3333 19:-17 20:-110.471 #
-5.3453507567363259332226393949483e-05 1:0 2:0 3:3.74878 4:0.29846901 5:0.37708101 6:0.75799102 7:1.00375 8:0.64375001 9:0.940045 10:16.4732 11:86.3964 12:69.894096 13:0.444444 14:0.95583397 15:0.94870502 16:23.0478 17:0 18:0 19:1 20:86 #
-5.3453507567363259332226393949483e-05 1:-5 2:-25.5 3:2.6712301 4:0.18663201 5:0.56203598 6:5.2572398 7:1.0521801 8:2.87871 9:0.887793 10:8.3750401 11:84.349701 12:79.7463 13:0.5 14:0.79345697 15:0.88203597 16:22.605801 17:-5 18:-25.5 19:-9 20:-83 #
-5.3453507567363259332226393949483e-05 1:2 2:12 3:1.29495 4:0.84354103 5:1.25019 6:0.47854799 7:1.07335 8:0.89472502 9:0.76954103 10:5.3400502 11:76.173103 12:60.482399 13:0.33333299 14:0.77113003 15:0.93318802 16:20.7693 17:2 18:12 19:6 20:129 #
-4.7556433495914569560894524791195e-05 1:0 2:0 3:1.90054 4:0.30529201 5:2.02244 6:1.46808 7:0.39930299 8:2.98962 9:3.23563 10:0.51413399 11:34.7616 12:21.598801 13:0.66666698 14:0.88429999 15:0.77978998 16:10.0579 17:0 18:0 19:6 20:150.66701 #
-5.3453507567363259332226393949483e-05 1:-1 2:-48 3:3.5856199 4:0.17511199 5:0.27113301 6:1.0253299 7:2.30551 8:0.29710701 9:1.90183 10:0.74770898 11:50.975201 12:82.641296 13:0.222222 14:0.93178302 15:0.93932599 16:14.4887 17:-1 18:-48 19:0 20:162 #
-8.2106889976958068736367576945234e-06 1:0 2:0 3:3.27459 4:1.6545399 5:0.68080002 6:1.14029 7:0.70041299 8:2.6677799 9:0.94815701 10:3.3196101 11:82.627701 12:43.726898 13:0.444444 14:0.75284803 15:0.84520102 16:22.2283 17:0 18:0 19:-2 20:-285.5 #
-5.3453507567363259332226393949483e-05 1:6 2:28.3333 3:2.44486 4:0.22498199 5:0.87884802 6:0.258825 7:1.09345 8:1.4425 9:0.44592601 10:0.48687401 11:41.811298 12:75.649902 13:0.66666698 14:0.92155701 15:0.912126 16:12.0144 17:6 18:28.3333 19:4 20:-170.16701 #
-5.3453507567363259332226393949483e-05 1:-1 2:-42 3:2.3552301 4:0.217391 5:0.310527 6:0.403155 7:1.6593699 8:1.49779 9:0.32684201 10:0.129657 11:18.4314 12:65.470001 13:0.66666698 14:0.91770899 15:0.926184 16:5.3922801 17:-1 18:-42 19:-1 20:-42 #
-1.0372207527586432536468447063172e-07 1:1 2:-37 3:1.23375 4:0.106073 5:0.81069398 6:0.304858 7:0.85375899 8:0.53051502 9:0.59330601 10:0.73839903 11:46.657001 12:52.383598 13:0.66666698 14:0.80047798 15:0.79259098 16:13.3333 17:1 18:-37 19:1 20:-37 #
-5.3453507567363259332226393949483e-05 1:1 2:-6.4000001 3:4.7523799 4:0.19394401 5:0.80718398 6:1.25318 7:0.84451598 8:1.4531 9:4.2551398 10:8.5882797 11:85.663597 12:46.926601 13:0.5 14:0.924649 15:0.93946803 16:22.8904 17:1 18:-6.4000001 19:0 20:-43.599998 #
-5.3453507567363259332226393949483e-05 1:-6 2:-27 3:1.91236 4:0.265457 5:0.176762 6:2.7109399 7:1.04085 8:0.49309599 9:0.75235498 10:0.381657 11:31.9993 12:67.221901 13:0.66666698 14:0.84234101 15:0.80322802 16:9.2804699 17:-6 18:-27 19:-8 20:-72.75 #
-1.5874851762225208667497766690246e-05 1:0 2:0 3:1.8978601 4:1.5944901 5:2.4690499 6:0.79470998 7:0.477669 8:0.29206201 9:0.965976 10:0.26483601 11:21.6117 12:47.3204 13:0.33333299 14:0.72118998 15:0.82445002 16:6.31248 17:0 18:0 19:1 20:288 #
-3.7795113624118963568335877178939e-06 1:0 2:0 3:1.41392 4:0.14987899 5:0.56223398 6:1.52063 7:0.52810502 8:0.77434999 9:1.51415 10:0.35079601 11:31.4956 12:26.820299 13:0.444444 14:0.43104199 15:0.87089002 16:9.1381302 17:1 18:94 19:1 20:-168.5 #
-3.6320194651407539056155865386799e-06 1:2 2:10 3:1.2262599 4:0.32584801 5:0.566912 6:0.84174198 7:0.61619502 8:0.40954301 9:2.9997301 10:0.360448 11:30.739201 12:21.063601 13:0.444444 14:0.81510198 15:0.828538 16:8.9240198 17:2 18:10 19:1 20:-274 #
-1.1082826041480276917398570257767e-05 1:-7 2:-31.375 3:3.8180399 4:1.9173501 5:1.09218 6:1.54509 7:1.10962 8:1.64016 9:1.03736 10:1.03736 11:63.662399 12:83.951302 13:0.58823502 14:0.86441803 15:0.786722 16:17.758101 17:-8 18:-38.166698 19:-15 20:-78.75 #
-2.9654475067355470801642655653829e-06 1:0 2:0 3:2.08741 4:1.42284 5:1.70972 6:0.60242403 7:0.87323499 8:0.76027399 9:0.97763598 10:0.70510298 11:45.898201 12:49.057499 13:0.66666698 14:0.81392598 15:0.83598399 16:13.1283 17:1 18:77 19:2 20:126.5 #
-1.2048969527158457271283353851032e-05 1:-6 2:-26.5 3:2.1210301 4:0.59616899 5:1.13007 6:0.64286798 7:0.18477701 8:1.6185 9:0.50566602 10:0.50566602 11:38.7262 12:54.1353 13:0.444444 14:0.96249998 15:0.86827397 16:11.1634 17:-6 18:-26.5 19:-5 20:216.5 #
-7.8597165403042251920076935456372e-07 1:-4 2:-26 3:2.35934 4:0.114039 5:2.1510701 6:0.64386702 7:0.37705201 8:1.60457 9:0.47746 10:0.575553 11:45.259399 12:49.9114 13:0.444444 14:0.86748302 15:0.94450599 16:12.9553 17:-4 18:-26 19:-3 20:246 #
-5.3453507567363259332226393949483e-05 1:1 2:42 3:2.12009 4:0.38868901 5:2.2472701 6:0.41938001 7:1.1249501 8:0.41354001 9:1.01195 10:0.85003603 11:54.545799 12:43.98 13:0.33333299 14:0.543971 15:0.72011697 16:15.4285 17:1 18:42 19:2 20:84 #
-3.7888150151699911960534450372506e-05 1:-3 2:-9.75 3:1.75728 4:1.06959 5:3.6798401 6:1.2950799 7:0.504493 8:0.32210201 9:1.36449 10:0.473959 11:38.683701 12:28.515499 13:0.444444 14:0.39565101 15:0.79945397 16:11.1516 17:-5 18:-23 19:-5 20:-23 #
-3.3597280066436340210543533973953e-06 1:0 2:0 3:1.39001 4:0.70712399 5:0.429986 6:1.1296099 7:0.46095401 8:0.22491699 9:2.1561601 10:0.19102401 11:8.8202 12:18.254299 13:0.444444 14:0.64060998 15:0.82136202 16:2.58904 17:-1 18:-74 19:0 20:19 #
-1.9823578516339843830218470088766e-05 1:-1 2:-10 3:2.7950001 4:0.182689 5:0.783099 6:0.72390401 7:0.99339598 8:1.52071 9:0.71343899 10:0.269315 11:32.6012 12:67.271896 13:0.66666698 14:0.73435903 15:0.92875499 16:9.4503403 17:-1 18:-10 19:-2 20:-57 #
-1.278433555996127870407752524784e-06 1:0 2:0 3:5.0666699 4:0.38083401 5:2.9635301 6:0.938793 7:0.64223301 8:0.55259299 9:1.07384 10:1.03664 11:55.230499 12:49.508999 13:0.444444 14:0.87094098 15:0.79671901 16:15.607 17:0 18:0 19:-1 20:-274 #
-5.3453507567363259332226393949483e-05 1:0 2:0 3:3.13099 4:0.147975 5:1.30803 6:0.211799 7:1.4786299 8:0.29367101 9:0.37395799 10:0.37395799 11:19.5641 12:86.659698 13:0.33333299 14:0.87419999 15:0.670443 16:5.72052 17:0 18:0 19:0 20:0 #
-8.1655880367095226742002456177261e-08 1:0 2:0 3:1.36757 4:2.0561299 5:0.543567 6:0.38695699 7:0.47291201 8:0.74682498 9:0.96170199 10:0.209777 11:17.589399 12:53.5452 13:0.66666698 14:0.70616102 15:0.84655201 16:5.1479402 17:0 18:0 19:3 20:210.66701 #
-4.4734090248962514240957388800268e-07 1:0 2:0 3:2.0386801 4:0.38761199 5:0.423152 6:1.31081 7:0.90495598 8:0.235706 9:5.2156301 10:1.2878 11:56.768101 12:7.08917 13:0.33333299 14:0.81706899 15:0.912588 16:16.005899 17:5 18:81.199997 19:4 20:-151.33299 #
-3.3822338895211666645861797730888e-05 1:-2 2:-15.625 3:3.13606 4:0.21190099 5:1.45082 6:0.426285 7:1.3969001 8:0.58411199 9:0.73901099 10:0.73901099 11:54.77 12:72.361603 13:0.33333299 14:0.89279598 15:0.67615402 16:15.487 17:-2 18:-15.625 19:-3 20:106.438 #
-1.4860094922600805799868875500813e-06 1:-1 2:-32.125 3:3.0805199 4:0.96158099 5:1.33465 6:0.47012699 7:0.92888302 8:0.68158102 9:0.36173701 10:0.34413099 11:35.7827 12:61.5172 13:0.66666698 14:0.91619003 15:0.92056298 16:10.3438 17:0 18:37.875 19:-1 20:-49.625 #
-2.3512085840879815706871980296455e-07 1:0 2:0 3:1.63569 4:1.2452199 5:0.398819 6:0.30667999 7:0.623312 8:0.23825 9:1.14951 10:0.13860101 11:8.8371096 12:59.460999 13:0.33333299 14:0.92141199 15:0.87399298 16:2.5939901 17:0 18:0 19:-1 20:-273.5 #
-1.6806338142985415267521842608289e-08 1:-1 2:-18 3:2.5994599 4:0.236837 5:0.31498399 6:0.357959 7:0.23401199 8:1.01474 9:0.63617402 10:0.138944 11:6.1271801 12:58.584 13:0.444444 14:0.56488502 15:0.86781198 16:1.7994601 17:-1 18:-18 19:-1 20:155 #
-5.2809788431080987046234084814067e-08 1:-3 2:-26.3333 3:1.61246 4:1.3973 5:0.786385 6:0.248353 7:0.63037699 8:0.82608998 9:0.252323 10:0.252323 11:23.152901 12:77.0914 13:0.66666698 14:0.774831 15:0.84503597 16:6.7567201 17:-3 18:-26.3333 19:-4 20:208.8 #
-9.5284268914473040594905264843995e-06 1:0 2:0 3:1.96935 4:1.07558 5:0.578668 6:0.221615 7:0.76047897 8:0.46086401 9:0.13283201 10:0.066966698 11:6.62883 12:78.119797 13:0.58823502 14:0.87411702 15:0.93997997 16:1.94663 17:0 18:0 19:1 20:283.5 #
-1.548451105204116961568117094572e-05 1:-1 2:-24.75 3:1.89792 4:0.90855098 5:0.136985 6:0.571392 7:1.74505 8:0.570445 9:1.41114 10:1.63185 11:89.9235 12:48.018002 13:0.444444 14:0.85910702 15:0.78090799 16:23.792299 17:-1 18:-24.75 19:2 20:231.83299 #
-2.1245629911968496737924294581745e-07 1:0 2:0 3:2.1399901 4:0.31025001 5:0.598746 6:0.87127298 7:1.04993 8:0.178186 9:0.95519799 10:0.91638303 11:53.2854 12:46.232601 13:0.33333299 14:0.74848098 15:0.84693497 16:15.0984 17:0 18:0 19:1 20:92.333298 #
-3.1920085228611202619528053325837e-08 1:0 2:0 3:1.5846 4:0.63061398 5:0.74011999 6:0.447191 7:0.70934099 8:0.827151 9:0.12736499 10:0.12736499 11:19.3368 12:74.6502 13:0.66666698 14:0.91995502 15:0.93748802 16:5.6547098 17:0 18:0 19:-2 20:-228.25 #
-4.4984558039129203359240971593636e-08 1:-1 2:-56 3:2.6417201 4:0.37053099 5:1.76967 6:0.59797502 7:1.33652 8:0.40648401 9:1.58276 10:1.58276 11:69.969299 12:72.437302 13:0.33333299 14:0.76256001 15:0.79349899 16:19.3048 17:-2 18:-68 19:-3 20:137 #
-2.9726702376929973212302954488351e-06 1:0 2:0 3:3.5704999 4:0.60225302 5:0.43771699 6:1.4582601 7:0.99971998 8:0.343481 9:1.3479 10:4.9337702 11:84.577202 12:50.674801 13:0.444444 14:0.81798601 15:0.90045702 16:22.6553 17:0 18:0 19:-1 20:-244 #
-2.3979822494146709501968220412671e-08 1:1 2:25.25 3:3.6121099 4:2.7179899 5:1.63352 6:2.5891199 7:0.78902501 8:0.152197 9:2.2516999 10:1.69675 11:63.501301 12:35.299702 13:0.222222 14:0.955746 15:0.92922997 16:17.717899 17:1 18:25.25 19:0 20:-254.75 #
-2.5825057016559047051978276199335e-08 1:0 2:0 3:2.0676301 4:0.34468099 5:1.08601 6:0.83576602 7:0.76462698 8:0.82756102 9:0.85759401 10:0.51353502 11:41.449299 12:48.764999 13:0.444444 14:0.85390598 15:0.89020503 16:11.915 17:0 18:0 19:2 20:250 #
