SVM-light Version V6.02
0 # kernel type
3 # kernel parameter -d 
1 # kernel parameter -g 
1 # kernel parameter -s 
1 # kernel parameter -r 
empty# kernel parameter -u 
20 # highest feature index 
2099 # number of training documents 
702 # number of support vectors plus 1 
1.0002347 # threshold b, each following line is a SV (starting with alpha*y)
-5.8362509719873108900069919036113e-05 1:0 2:2 3:2.6474099 4:0.171463 5:0.101517 6:0.51668102 7:0.14368799 8:0.174941 9:0.49232501 10:0.060664002 11:13.2155 12:87.527702 13:0.66666698 14:0.929492 15:0.96731198 16:3.8386199 17:0 18:2 19:-1 20:-132.03101 #
5.8362509719873108900069919036113e-05 1:2 2:2.9166701 3:1.80143 4:0.858693 5:0.451473 6:0.147284 7:0.325865 8:0.090929903 9:0.38350901 10:0.29916 11:34.346199 12:67.341202 13:0.444444 14:0.86585498 15:0.94696701 16:9.8494101 17:4 18:29.5 19:3 20:-79 #
-1.0658234353603883957928299963669e-07 1:2 2:38 3:1.3166 4:0.52380902 5:0.80260801 6:0.39429301 7:0.47587299 8:0.51461297 9:0.259269 10:0.259269 11:26.7857 12:63.740501 13:0.33333299 14:0.84543997 15:0.88089597 16:7.7267098 17:4 18:51.5 19:2 20:-160.5 #
5.8362509719873108900069919036113e-05 1:0 2:0 3:4.10395 4:1.11287 5:0.751095 6:0.34620401 7:0.24437501 8:0.64139998 9:0.28282699 10:0.191054 11:22.041599 12:81.502602 13:0.66666698 14:0.97392499 15:0.88711298 16:6.3769999 17:0 18:0 19:-1 20:-277.25 #
-4.1043915875114308209649360836835e-05 1:6 2:33.333302 3:1.5414701 4:0.560583 5:0.99020499 6:1.2393301 7:0.179603 8:0.39168799 9:0.51926702 10:0.39679801 11:31.277399 12:59.288799 13:0.33333299 14:0.86868501 15:0.80796301 16:8.9924603 17:8 18:44.75 19:9 20:-132.60001 #
5.8362509719873108900069919036113e-05 1:0 2:0 3:1.68768 4:0.59423 5:0.224241 6:0.121082 7:0.51548302 8:0.70548201 9:0.280561 10:0.16940901 11:27.7003 12:66.722198 13:0.33333299 14:0.96517497 15:0.97034699 16:7.9854698 17:0 18:0 19:1 20:298 #
-8.2783376569729554249479170843773e-07 1:2 2:12.5 3:2.0127101 4:1.4203 5:0.69225001 6:0.48664501 7:0.260571 8:0.51393199 9:0.29475501 10:1.24642 11:58.716499 12:69.863098 13:0.33333299 14:0.98721403 15:0.896258 16:16.354601 17:1 18:-48.5 19:1 20:-48.5 #
-5.8331371295602595322769140517849e-05 1:0 2:0 3:2.29228 4:0.68533802 5:0.20748501 6:0.097628102 7:0.243861 8:1.3615 9:0.083066903 10:0.068784602 11:18.9321 12:71.437897 13:0.66666698 14:0.98171997 15:0.99098402 16:5.4862499 17:0 18:0 19:-1 20:-298 #
5.8362509719873108900069919036113e-05 1:0 2:0 3:3.54671 4:1.60493 5:2.1805501 6:1.18211 7:0.457394 8:0.48691899 9:0.553002 10:5.2740598 11:80.958801 12:66.484703 13:0.33333299 14:0.64815301 15:0.90910399 16:21.6555 17:0 18:0 19:-1 20:-268 #
-5.8362509719873108900069919036113e-05 1:3 2:8.375 3:5.5767202 4:0.195039 5:0.301631 6:0.150694 7:0.149505 8:0.208303 9:0.21605299 10:0.21605299 11:28.767799 12:88.650002 13:0.444444 14:0.95102102 15:0.93166602 16:8.2868299 17:3 18:8.375 19:3 20:8.375 #
5.8362509719873108900069919036113e-05 1:0 2:0 3:3.5228701 4:0.10676 5:0.322411 6:0.168079 7:0.186482 8:0.54223597 9:0.159748 10:0.159748 11:28.127701 12:81.301498 13:0.66666698 14:0.98658299 15:0.983289 16:8.1062202 17:0 18:0 19:1 20:295.5 #
-5.8362509719873108900069919036113e-05 1:3 2:12 3:5.6216502 4:0.164187 5:0.69143403 6:0.369519 7:0.24196599 8:0.21070801 9:0.38501599 10:0.26407 11:34.743301 12:56.615299 13:0.33333299 14:0.91443199 15:0.97431499 16:9.9598103 17:4 18:33.5 19:6 20:60 #
-5.8362509719873108900069919036113e-05 1:0 2:0 3:1.32244 4:0.211412 5:1.35465 6:0.45862699 7:0.56072199 8:1.15598 9:0.43279499 10:2.2716999 11:74.785698 12:87.684196 13:0.66666698 14:0.69732702 15:0.84389502 16:20.257799 17:0 18:0 19:-2 20:-281 #
-5.8362509719873108900069919036113e-05 1:0 2:0 3:2.1285 4:0.661066 5:0.14042801 6:0.171294 7:0.407902 8:1.10399 9:0.161698 10:0.133481 11:24.732201 12:64.064499 13:0.66666698 14:0.96673 15:0.97468603 16:7.14398 17:0 18:0 19:-1 20:-298.25 #
5.8362509719873108900069919036113e-05 1:0 2:0 3:1.65688 4:0.50626498 5:0.657125 6:0.23215 7:0.228967 8:0.34324399 9:0.20487 10:0.20487 11:23.894501 12:71.444 13:0.33333299 14:0.92501599 15:0.90082198 16:6.90557 17:0 18:0 19:-1 20:-248 #
-4.8134364264207363248715410009027e-05 1:6 2:35.333302 3:3.92589 4:0.497888 5:0.68933898 6:0.33285701 7:0.120612 8:0.18581299 9:0.234429 10:0.102366 11:17.681801 12:82.379501 13:0.33333299 14:0.80115998 15:0.951765 16:5.1269102 17:6 18:35.333302 19:4 20:-128.66701 #
-5.8362509719873108900069919036113e-05 1:4 2:31.25 3:2.5148499 4:0.53477502 5:0.794752 6:0.92946303 7:0.20714299 8:0.48070699 9:0.514422 10:1.81117 11:80.857597 12:70.2658 13:0.33333299 14:0.81767702 15:0.84157002 16:21.633101 17:7 18:53.857101 19:6 20:-221.14301 #
5.8362509719873108900069919036113e-05 1:0 2:0 3:1.0183901 4:0.589167 5:2.86338 6:0.17100599 7:0.248386 8:0.14241201 9:0.240587 10:0.223048 11:31.9408 12:63.4893 13:0.444444 14:0.92642498 15:0.97425097 16:9.1782799 17:-2 18:-77 19:-2 20:183.33299 #
-5.8362509719873108900069919036113e-05 1:0 2:0 3:1.4920501 4:0.30829099 5:0.52408898 6:0.18099301 7:0.158315 8:0.692559 9:0.152698 10:0.152698 11:21.6586 12:73.557404 13:0.66666698 14:0.91374302 15:0.93037301 16:6.2675099 17:0 18:0 19:1 20:296 #
5.8362509719873108900069919036113e-05 1:4 2:23.25 3:3.3247099 4:0.33754501 5:0.713238 6:0.349444 7:0.206853 8:0.67858201 9:0.33107299 10:0.33107299 11:38.125401 12:57.993 13:0.66666698 14:0.98696399 15:0.98163497 16:10.895 17:4 18:23.25 19:3 20:-250.25 #
5.8362509719873108900069919036113e-05 1:0 2:0 3:12.8167 4:0.268107 5:0.308772 6:0.238401 7:0.142055 8:0.68350101 9:0.15695 10:0.1556 11:25.992001 12:87.509201 13:1 14:0.99748999 15:0.96359199 16:7.50177 17:0 18:0 19:3 20:271.75 #
-5.8319677540166287238801445802494e-05 1:0 2:0 3:1.81201 4:0.60574102 5:2.0823801 6:0.50237101 7:0.48391801 8:1.23873 9:0.57972699 10:0.358888 11:27.945101 12:59.5201 13:0.66666698 14:0.782552 15:0.799263 16:8.0546398 17:0 18:0 19:1 20:295 #
5.8362509719873108900069919036113e-05 1:-1 2:-7 3:2.8032701 4:0.60078597 5:3.3817899 6:0.45836401 7:0.25412601 8:0.465841 9:0.298659 10:0.180507 11:24.372101 12:76.752899 13:0.444444 14:0.84167498 15:0.92158598 16:7.0415502 17:-1 18:-7 19:0 20:268 #
-5.8362509719873108900069919036113e-05 1:0 2:0 3:1.94063 4:0.81678599 5:0.27319199 6:0.144522 7:0.33312699 8:0.676871 9:0.38692001 10:0.35489699 11:32.068802 12:87.801697 13:0.33333299 14:0.82285601 15:0.83279002 16:9.2140999 17:0 18:0 19:4 20:287.5 #
5.8362509719873108900069919036113e-05 1:-1 2:-16 3:1.19379 4:0.67385101 5:0.47715899 6:0.19959401 7:0.395787 8:0.84490401 9:0.156361 10:0.156361 11:12.0378 12:77.9646 13:0.66666698 14:0.82632601 15:0.86931098 16:3.4978499 17:-2 18:-44 19:-2 20:204 #
-4.8953848337127051483595036041052e-05 1:0 2:0 3:3.2512901 4:1.11466 5:0.13521799 6:0.109513 7:0.34735301 8:1.21264 9:0.111492 10:0.111492 11:20.9084 12:80.135597 13:1 14:0.96080703 15:0.96279502 16:6.0528798 17:0 18:0 19:1 20:294 #
5.8362509719873108900069919036113e-05 1:5 2:20.4 3:1.48874 4:0.58748102 5:0.57297897 6:0.50396699 7:0.193995 8:0.63911903 9:0.37539199 10:0.193361 11:15.1281 12:88.908699 13:0.444444 14:0.74476498 15:0.84829003 16:4.39113 17:5 18:20.4 19:-2 20:-244.02901 #
-8.1809000519710565373435184888251e-06 1:2 2:14 3:1.87635 4:0.27415001 5:1.22866 6:1.37096 7:0.70232701 8:0.61549699 9:0.83140898 10:0.657278 11:41.828701 12:68.653702 13:0.33333299 14:0.58075702 15:0.68248999 16:11.9081 17:3 18:34 19:3 20:-194.25 #
5.8362509719873108900069919036113e-05 1:-1 2:-54 3:2.2488999 4:2.00423 5:0.90997499 6:0.87550199 7:0.634525 8:0.222395 9:0.72053802 10:1.66207 11:75.0979 12:50.581699 13:0.33333299 14:0.82738298 15:0.75265902 16:20.33 17:-1 18:-54 19:1 20:136 #
5.8362509719873108900069919036113e-05 1:0 2:0 3:2.4563799 4:0.20088799 5:0.61062598 6:2.9240799 7:0.078679197 8:0.79783702 9:0.480104 10:7.10076 11:87.624702 12:73.286903 13:0.66666698 14:0.855694 15:0.86675203 16:23.094 17:0 18:0 19:2 20:264.5 #
5.8362509719873108900069919036113e-05 1:0 2:0 3:2.78246 4:0.654809 5:0.64610499 6:0.219266 7:0.369454 8:0.221981 9:0.273678 10:0.146593 11:17.9259 12:83.116997 13:0.33333299 14:0.78237599 15:0.909769 16:5.1971202 17:0 18:0 19:4 20:265 #
5.8362509719873108900069919036113e-05 1:0 2:0 3:2.79251 4:1.10018 5:3.14765 6:0.31190401 7:0.44801301 8:0.33942601 9:0.47542 10:0.165396 11:24.2651 12:64.112602 13:0.66666698 14:0.97285497 15:0.93851298 16:7.0110998 17:0 18:0 19:-1 20:-238.625 #
-5.8362509719873108900069919036113e-05 1:0 2:0 3:2.94947 4:0.22910801 5:0.78716701 6:0.52541399 7:0.322438 8:0.45503801 9:0.42765701 10:0.32620499 11:34.703602 12:88.520798 13:0.66666698 14:0.85637802 15:0.90088302 16:9.9487801 17:0 18:0 19:-2 20:-284.93799 #
-5.8362509719873108900069919036113e-05 1:0 2:0 3:1.47747 4:0.47384399 5:0.545515 6:0.172851 7:0.29584101 8:0.59076899 9:0.285101 10:0.220532 11:20.2878 12:67.718903 13:1 14:0.91380101 15:0.85498202 16:5.8751202 17:0 18:0 19:2 20:294.5 #
5.8362509719873108900069919036113e-05 1:0 2:0 3:2.2217901 4:0.164305 5:0.38515201 6:0.239002 7:0.11309 8:0.92645001 9:0.28209901 10:0.097091697 11:20.149 12:89.440102 13:1 14:0.920434 15:0.970631 16:5.83535 17:0 18:0 19:5 20:267.20001 #
-1.8328812075891467905236487112575e-05 1:1 2:-39.5 3:4.7112398 4:0.520069 5:0.46898201 6:0.43606001 7:0.163407 8:0.87757701 9:0.270062 10:0.192881 11:28.946899 12:71.598396 13:0.444444 14:0.94181401 15:0.96320701 16:8.3373203 17:1 18:-39.5 19:1 20:-39.5 #
-5.8268109623085747065737716177125e-05 1:-1 2:-6 3:2.18662 4:0.46701801 5:0.46703699 6:0.67129302 7:0.57713699 8:0.76123399 9:0.16859099 10:0.115405 11:17.0068 12:79.499397 13:0.66666698 14:0.97044402 15:0.93224603 16:4.9326601 17:-1 18:-6 19:0 20:290 #
5.8362509719873108900069919036113e-05 1:3 2:38 3:2.65044 4:0.41626599 5:0.70425099 6:0.35321099 7:0.48163599 8:0.242837 9:0.464506 10:0.159251 11:26.280199 12:77.159897 13:0.444444 14:0.86623001 15:0.96251702 16:7.5834799 17:3 18:38 19:2 20:-222 #
-5.8362509719873108900069919036113e-05 1:0 2:0 3:2.4207101 4:0.212447 5:0.52823001 6:0.370727 7:0.35999599 8:0.80255002 9:0.365668 10:0.246099 11:31.1187 12:65.819298 13:0.66666698 14:0.94792098 15:0.93641698 16:8.9479504 17:0 18:0 19:-1 20:-294 #
-2.2368611104801231395764089804334e-06 1:1 2:34 3:3.6826501 4:0.301783 5:0.54398102 6:3.09656 7:1.2717201 8:1.15215 9:3.12766 10:3.12766 11:85.379097 12:81.314796 13:0.33333299 14:0.86492401 15:0.87624103 16:22.617901 17:0 18:-52 19:0 20:-52 #
5.8362509719873108900069919036113e-05 1:0 2:0 3:1.7118 4:0.82622898 5:4.67276 6:0.50377202 7:0.390522 8:0.749919 9:0.329027 10:0.329027 11:25.5343 12:87.553802 13:0.66666698 14:0.80550802 15:0.77608103 16:7.3718801 17:0 18:0 19:-2 20:-223.25 #
5.8362509719873108900069919036113e-05 1:0 2:0 3:1.44803 4:1.16039 5:1.70056 6:0.239645 7:0.312361 8:0.54976201 9:0.311887 10:0.311887 11:28.374701 12:62.693001 13:0.66666698 14:0.77495301 15:0.846717 16:8.17593 17:0 18:0 19:-1 20:-200.688 #
-5.8362509719873108900069919036113e-05 1:0 2:0 3:2.6310201 4:1.14045 5:0.177949 6:0.93640798 7:0.065869302 8:0.197934 9:0.099376999 10:0.141987 11:24.479601 12:84.615097 13:0.33333299 14:0.928747 15:0.963498 16:7.0721302 17:0 18:0 19:-2 20:-288.25 #
5.8362509719873108900069919036113e-05 1:0 2:0 3:1.25134 4:0.185847 5:0.53904998 6:0.1331 7:0.376544 8:0.196605 9:0.62369698 10:0.181751 11:20.4599 12:62.665699 13:0.166667 14:0.82681501 15:0.89796698 16:5.9244499 17:0 18:0 19:1 20:251 #
-5.7791033689753192720793550929415e-05 1:0 2:0 3:1.16424 4:1.0564899 5:3.8146 6:0.917023 7:1.03552 8:0.64364201 9:0.38273799 10:0.38273799 11:26.065001 12:70.427597 13:0.66666698 14:0.82284099 15:0.74838799 16:7.52246 17:0 18:0 19:2 20:293 #
5.8362509719873108900069919036113e-05 1:0 2:0 3:1.95881 4:0.23204701 5:0.46803901 6:0.187075 7:0.094880097 8:0.63801998 9:0.099896602 10:0.099896602 11:18.3291 12:79.758301 13:0.66666698 14:0.940566 15:0.95659697 16:5.3130298 17:-1 18:-95 19:-4 20:-183.75 #
-5.398194039646415394581233093696e-05 1:0 2:16 3:5.3024201 4:0.22496399 5:0.65793699 6:0.53926301 7:0.086203597 8:0.22973099 9:0.18037599 10:0.196463 11:30.384501 12:83.794899 13:0.444444 14:0.99702901 15:0.972386 16:8.7419004 17:2 18:44 19:2 20:4.5 #
5.8362509719873108900069919036113e-05 1:0 2:0 3:1.75081 4:0.40623099 5:0.25490499 6:0.41474101 7:0.27896899 8:0.205764 9:0.47018799 10:0.47018799 11:41.908401 12:65.347198 13:1 14:0.89728099 15:0.93206698 16:11.9297 17:0 18:0 19:2 20:249.5 #
-5.8362509719873108900069919036113e-05 1:0 2:0 3:2.1744399 4:1.08813 5:0.395354 6:0.67501903 7:0.26607499 8:0.58964199 9:0.59186399 10:0.28291801 11:32.161701 12:81.766701 13:0.444444 14:0.862275 15:0.92281199 16:9.2400799 17:-1 18:-90 19:0 20:80 #
5.8362509719873108900069919036113e-05 1:2 2:2.6666701 3:1.73156 4:0.26087701 5:0.702838 6:0.132884 7:0.35909799 8:0.45501399 9:0.422553 10:0.082325503 11:20.3428 12:87.363098 13:0.33333299 14:0.94945002 15:0.98687798 16:5.8909101 17:2 18:2.6666701 19:1 20:-120.333 #
5.8362509719873108900069919036113e-05 1:0 2:0 3:1.1504 4:0.168826 5:0.73555601 6:0.15275 7:0.234272 8:0.71720499 9:0.310592 10:0.48999 11:41.5429 12:74.122704 13:0.66666698 14:0.68097901 15:0.89121002 16:11.8303 17:0 18:0 19:7 20:251.14301 #
-5.8362509719873108900069919036113e-05 1:0 2:0 3:3.9618199 4:0.91418898 5:0.67380798 6:0.88803399 7:0.123805 8:1.02121 9:2.6792901 10:2.1486599 11:68.440598 12:22.806801 13:0.33333299 14:0.77336502 15:0.89066201 16:18.76 17:1 18:89 19:5 20:201 #
5.8362509719873108900069919036113e-05 1:0 2:0 3:1.50246 4:0.30206099 5:0.628546 6:0.167722 7:0.18606301 8:0.57218403 9:0.142968 10:0.142968 11:23.641899 12:78.708 13:1 14:0.977063 15:0.95383 16:6.8336101 17:0 18:0 19:-1 20:-200 #
-5.8362509719873108900069919036113e-05 1:0 2:0 3:2.3439901 4:1.40955 5:0.51788503 6:0.24743199 7:0.085045703 8:0.66908902 9:0.15369099 10:0.15369099 11:22.959801 12:73.687202 13:0.66666698 14:0.988828 15:0.940009 16:6.6391602 17:0 18:0 19:1 20:290 #
-5.8362509719873108900069919036113e-05 1:0 2:0 3:2.11971 4:0.90138298 5:0.52772802 6:0.46032301 7:0.292602 8:0.18911099 9:0.370617 10:0.246213 11:28.154699 12:68.994904 13:0.33333299 14:0.80679703 15:0.89813602 16:8.1138401 17:0 18:0 19:1 20:292 #
5.8362509719873108900069919036113e-05 1:1 2:7 3:1.36511 4:0.63515699 5:1.37336 6:0.431474 7:0.158108 8:0.922454 9:0.206357 10:0.169485 11:22.621599 12:87.848801 13:0.33333299 14:0.79263997 15:0.91954303 16:6.5426202 17:2 18:51.5 19:2 20:-205.66701 #
-5.8362509719873108900069919036113e-05 1:0 2:0 3:2.8753099 4:0.36318699 5:5.3659101 6:0.87740499 7:0.228377 8:0.427275 9:0.236559 10:0.236559 11:28.376801 12:80.473198 13:0.33333299 14:0.94275999 15:0.90669298 16:8.1765404 17:0 18:0 19:-1 20:-288 #
5.8362509719873108900069919036113e-05 1:0 2:0 3:1.6813101 4:0.263466 5:0.362984 6:0.44718599 7:0.22982401 8:0.33967599 9:0.53268498 10:0.166457 11:21.745001 12:85.350098 13:0.33333299 14:0.83522701 15:0.919168 16:6.2922301 17:0 18:0 19:1 20:244.25 #
-5.8362509719873108900069919036113e-05 1:0 2:0 3:1.45399 4:1.34973 5:0.19144601 6:0.089801401 7:0.0573931 8:0.45511001 9:0.095078804 10:0.065617397 11:12.5698 12:87.073799 13:0.66666698 14:0.94031399 15:0.96090603 16:3.65183 17:0 18:0 19:2 20:283 #
5.8362509719873108900069919036113e-05 1:0 2:0 3:1.7334501 4:1.03522 5:0.362389 6:0.485246 7:0.39393201 8:0.221756 9:0.343505 10:0.59358901 11:41.773201 12:60.691399 13:0.66666698 14:0.80592299 15:0.85056102 16:11.8929 17:0 18:0 19:-3 20:-179 #
5.8362509719873108900069919036113e-05 1:-1 2:-37 3:2.6175301 4:0.181343 5:0.28896001 6:0.180079 7:0.12842099 8:0.24033999 9:0.12514301 10:0.12514301 11:24.891399 12:83.316597 13:0.33333299 14:0.99285197 15:0.98233801 16:7.18924 17:-1 18:-37 19:5 20:215.5 #
5.8362509719873108900069919036113e-05 1:2 2:11 3:3.89293 4:1.1312701 5:0.479689 6:0.210355 7:0.145374 8:0.45082101 9:0.153239 10:0.153239 11:25.944401 12:73.121201 13:1 14:0.97415298 15:0.96744102 16:7.4882598 17:2 18:11 19:0 20:-193.5 #
-5.8362509719873108900069919036113e-05 1:0 2:0 3:3.42079 4:0.261841 5:0.79452902 6:0.140572 7:0.076586202 8:0.260813 9:0.235397 10:0.13434599 11:25.747499 12:83.763702 13:1 14:0.997235 15:0.98150897 16:7.4324002 17:0 18:0 19:-1 20:-286 #
5.8362509719873108900069919036113e-05 1:0 2:0 3:1.09358 4:1.40601 5:0.60130203 6:0.40073699 7:0.36278301 8:0.84692401 9:0.37114799 10:0.519512 11:44.022999 12:85.770798 13:0.66666698 14:0.83356798 15:0.930013 16:12.5025 17:0 18:0 19:1 20:234 #
5.8362509719873108900069919036113e-05 1:0 2:0 3:5.05901 4:0.65079099 5:0.58439201 6:0.249947 7:0.649315 8:0.179061 9:0.39613 10:0.114457 11:20.362 12:78.717796 13:0.444444 14:0.87943 15:0.95355803 16:5.89641 17:0 18:0 19:6 20:229.66701 #
-5.8362509719873108900069919036113e-05 1:0 2:0 3:3.5548899 4:0.26415101 5:0.55618203 6:0.27891299 7:0.14073201 8:1.00889 9:0.31319401 10:3.61429 11:78.444801 12:89.549896 13:0.444444 14:0.97266501 15:0.87594998 16:21.093599 17:0 18:0 19:-2 20:-264 #
-5.8362509719873108900069919036113e-05 1:0 2:0 3:1.59215 4:0.67536002 5:0.60342097 6:0.22104 7:0.097209901 8:0.286888 9:0.201427 10:0.14193 11:10.6627 12:72.358597 13:0.33333299 14:0.779149 15:0.877379 16:3.09953 17:0 18:0 19:3 20:288.66699 #
5.8362509719873108900069919036113e-05 1:2 2:11.875 3:1.6518199 4:1.0330499 5:0.975465 6:0.202343 7:0.31494099 8:3.0743699 9:0.17502999 10:0.17502999 11:27.981501 12:75.6334 13:1 14:0.96762401 15:0.96778101 16:8.0649405 17:2 18:11.875 19:-2 20:-186.84399 #
-5.8362509719873108900069919036113e-05 1:0 2:0 3:1.77077 4:2.24933 5:0.786605 6:0.219456 7:0.36151099 8:0.21808501 9:0.31241199 10:0.20929401 11:27.7565 12:81.212502 13:0.33333299 14:0.88088 15:0.929717 16:8.0013504 17:0 18:0 19:-1 20:-284 #
-7.6993888089110961494296661578041e-07 1:1 2:50 3:1.99822 4:1.33305 5:1.3208801 6:1.40584 7:0.878649 8:0.80555701 9:1.9546 10:1.9546 11:75.775803 12:80.747597 13:0.66666698 14:0.817496 15:0.828906 16:20.486099 17:1 18:50 19:0 20:-232 #
5.8362509719873108900069919036113e-05 1:2 2:9.25 3:1.50225 4:0.27687499 5:0.32390001 6:0.26243901 7:0.347011 8:3.2685201 9:0.192413 10:0.192413 11:10.2563 12:81.577698 13:0.66666698 14:0.85814703 15:0.82638198 16:2.9816999 17:2 18:9.25 19:-1 20:-187.29201 #
-5.8362509719873108900069919036113e-05 1:0 2:0 3:2.0313301 4:0.277536 5:0.57676798 6:0.31148201 7:0.34854999 8:0.90168798 9:0.68268299 10:0.68268299 11:45.493801 12:48.1152 13:1 14:0.81542999 15:0.84587902 16:12.8984 17:0 18:0 19:-1 20:-290.5 #
5.8362509719873108900069919036113e-05 1:6 2:27.5833 3:2.12798 4:0.258239 5:1.25927 6:0.18133 7:0.367277 8:0.43148601 9:0.74069399 10:0.15583099 11:17.365601 12:47.419701 13:0.444444 14:0.53060597 15:0.89540303 16:5.0359201 17:7 18:32.285702 19:6 20:-179.214 #
-5.8362509719873108900069919036113e-05 1:0 2:0 3:1.3812 4:0.32122001 5:0.31198499 6:0.349067 7:0.198351 8:0.31286001 9:0.136709 10:0.136709 11:20.0723 12:75.652 13:0.66666698 14:0.918253 15:0.93336201 16:5.8133702 17:0 18:0 19:-1 20:-286 #
-5.8362509719873108900069919036113e-05 1:0 2:0 3:3.7904699 4:0.0710072 5:0.399093 6:0.28600901 7:0.211256 8:0.612396 9:0.227456 10:0.227456 11:26.576799 12:77.223 13:1 14:0.912754 15:0.89985102 16:7.6675501 17:0 18:0 19:5 20:277.60001 #
5.8362509719873108900069919036113e-05 1:-1 2:-19 3:1.78283 4:2.6415501 5:0.40644801 6:0.58592999 7:0.396198 8:0.64294302 9:0.55452901 10:0.69470501 11:45.474701 12:64.889 13:0.66666698 14:0.82567602 15:0.81505299 16:12.8933 17:1 18:51 19:8 20:204.222 #
-9.772165262395769149902924333162e-06 1:-2 2:-7.5 3:1.5064501 4:0.37316501 5:0.92718101 6:0.75774699 7:0.52096301 8:0.165774 9:0.29749501 10:0.62875998 11:48.060699 12:82.309601 13:0.33333299 14:0.90452999 15:0.93397403 16:13.5843 17:0 18:65 19:-2 20:-41.5 #
5.8362509719873108900069919036113e-05 1:-1 2:-54.5 3:2.368 4:2.8324599 5:0.30966401 6:0.399423 7:0.91817999 8:0.33645901 9:0.51094002 10:0.284917 11:20.5868 12:65.019302 13:1 14:0.72966599 15:0.78864902 16:5.9607801 17:-1 18:-54.5 19:-1 20:-54.5 #
-5.8362509719873108900069919036113e-05 1:0 2:0 3:3.4679899 4:0.063902497 5:4.6482701 6:0.69451898 7:0.19582 8:0.316728 9:0.131235 10:0.88592702 11:53.4967 12:80.739601 13:0.444444 14:0.99160099 15:0.96750802 16:15.0138 17:-2 18:-72.5 19:-3 20:-102 #
5.8362509719873108900069919036113e-05 1:1 2:60 3:1.23432 4:0.41798201 5:0.187654 6:0.59671998 7:0.22178499 8:0.28311601 9:0.32720301 10:0.14267799 11:25.5261 12:73.505096 13:0.33333299 14:0.94069499 15:0.97105801 16:7.3695598 17:3 18:72.666702 19:4 20:129.5 #
-5.8362509719873108900069919036113e-05 1:-2 2:-10 3:2.51829 4:0.46857101 5:0.24118599 6:0.115077 7:0.27761999 8:0.65474099 9:0.074768201 10:0.0554539 11:15.7178 12:76.071701 13:0.444444 14:0.93180799 15:0.98506498 16:4.5612402 17:-2 18:-10 19:-1 20:280 #
5.8362509719873108900069919036113e-05 1:3 2:17.3333 3:2.7042999 4:0.65397799 5:2.1041801 6:0.385315 7:0.226882 8:0.46432599 9:0.18292899 10:0.343757 11:36.040298 12:86.715797 13:0.66666698 14:0.93866599 15:0.91524798 16:10.3195 17:4 18:35.5 19:3 20:-186.5 #
5.8362509719873108900069919036113e-05 1:5 2:41.200001 3:3.43048 4:0.50487697 5:0.41119799 6:1.64082 7:0.46918699 8:0.67096001 9:0.54079002 10:0.217095 11:24.4974 12:61.536701 13:0.33333299 14:0.93297201 15:0.89438599 16:7.0771799 17:5 18:41.200001 19:6 20:-176 #
5.8362509719873108900069919036113e-05 1:0 2:0 3:1.25969 4:1.2314399 5:1.42974 6:0.21051601 7:0.63885802 8:0.62858701 9:0.382718 10:0.31914699 11:25.674 12:88.699303 13:0.66666698 14:0.70701301 15:0.81438899 16:7.41152 17:0 18:0 19:7 20:216.14301 #
-5.1281241985568856863418607527905e-05 1:-1 2:-38 3:1.60251 4:1.11206 5:2.05001 6:0.305444 7:0.31019899 8:1.25437 9:0.27142799 10:0.27142799 11:18.271299 12:74.095802 13:0.66666698 14:0.896038 15:0.79424101 16:5.2964101 17:-2 18:-50 19:3 20:213 #
-5.8362509719873108900069919036113e-05 1:0 2:0 3:1.6786 4:0.58427203 5:1.90093 6:0.188657 7:0.244973 8:0.52187401 9:0.12943099 10:0.12943099 11:23.1805 12:69.834602 13:0.66666698 14:0.97429901 15:0.965837 16:6.7020898 17:0 18:0 19:2 20:287 #
5.8362509719873108900069919036113e-05 1:0 2:0 3:2.23523 4:0.76005501 5:0.52604097 6:0.207709 7:0.16663 8:0.234538 9:0.20803501 10:0.310545 11:28.5336 12:83.900497 13:0.444444 14:0.79412502 15:0.83629698 16:8.2207804 17:0 18:0 19:13 20:218.15401 #
5.8362509719873108900069919036113e-05 1:3 2:15.5 3:1.81497 4:0.16889501 5:0.242483 6:0.20686001 7:0.172122 8:1.0398099 9:0.220908 10:0.24242499 11:31.854799 12:79.089897 13:1 14:0.88937902 15:0.95599598 16:9.1542196 17:2 18:-55.5 19:1 20:-156.25 #
-5.1425737436570443110624151206167e-05 1:2 2:14 3:1.45692 4:0.080630101 5:0.34371999 6:0.133999 7:0.485975 8:0.79064101 9:0.118568 10:0.103317 11:14.0236 12:86.237396 13:1 14:0.90108001 15:0.92977297 16:4.0721898 17:2 18:14 19:1 20:-274 #
5.8362509719873108900069919036113e-05 1:0 2:0 3:1.66739 4:0.33684501 5:0.207563 6:0.88291198 7:0.71491301 8:0.29639399 9:0.79929698 10:0.79929698 11:49.432201 12:53.403999 13:0.444444 14:0.73642302 15:0.818084 16:13.9479 17:0 18:0 19:2 20:194.125 #
-2.0553856874502133726201683061596e-05 1:0 2:0 3:2.3010001 4:1.00495 5:1.11005 6:0.131767 7:0.110113 8:0.93537402 9:0.078395799 10:0.078395799 11:7.4948301 12:83.298203 13:0.66666698 14:0.95343399 15:0.93102098 16:2.1802499 17:0 18:0 19:2 20:267 #
5.8362509719873108900069919036113e-05 1:-1 2:-21.25 3:1.32091 4:3.96737 5:0.34814501 6:0.34463599 7:0.28924999 8:1.44407 9:0.83793902 10:0.351504 11:28.3687 12:69.588699 13:1 14:0.86441499 15:0.77905899 16:8.1742601 17:-1 18:-21.25 19:-3 20:-142.20799 #
-5.8362509719873108900069919036113e-05 1:0 2:0 3:1.9450999 4:0.61298698 5:0.12593099 6:0.796965 7:0.236377 8:0.155982 9:0.257808 10:0.257808 11:26.909201 12:75.1604 13:0.33333299 14:0.86095899 15:0.875714 16:7.7616901 17:0 18:0 19:-1 20:-282 #
-5.8362509719873108900069919036113e-05 1:0 2:0 3:1.37415 4:0.752473 5:0.379814 6:0.80088699 7:0.214816 8:1.02213 9:0.235404 10:0.235404 11:23.149 12:73.070999 13:0.66666698 14:0.91053897 15:0.86365801 16:6.69311 17:0 18:0 19:4 20:274.25 #
-4.4413034109592181681268330262213e-05 1:6 2:39.666698 3:1.28668 4:6.0239 5:2.41429 6:0.221775 7:0.160834 8:0.205364 9:0.413773 10:0.15437099 11:13.9987 12:86.535301 13:0.33333299 14:0.75338501 15:0.881863 16:4.06499 17:7 18:43.4286 19:4 20:-238.571 #
5.8362509719873108900069919036113e-05 1:1 2:28 3:2.3171 4:0.55310899 5:0.80521202 6:0.058977999 7:0.100348 8:0.192405 9:0.079487301 10:0.18397 11:30.0557 12:85.904404 13:0.66666698 14:0.93715799 15:0.98261499 16:8.6494799 17:1 18:28 19:-2 20:-159.33299 #
-5.8362509719873108900069919036113e-05 1:-1 2:-4 3:3.2656701 4:0.29485801 5:0.373238 6:0.10619 7:0.28970799 8:0.55274999 9:0.122311 10:0.122311 11:24.423401 12:70.273201 13:1 14:0.97720701 15:0.98242003 16:7.0561299 17:-1 18:-4 19:0 20:278 #
-5.8160619324434867903356877194554e-05 1:1 2:4 3:1.8226399 4:0.238838 5:1.6811 6:0.28510201 7:0.125328 8:0.81200099 9:0.354397 10:0.238034 11:12.1104 12:69.456001 13:0.444444 14:0.77741599 15:0.78717202 16:3.5188601 17:1 18:4 19:1 20:4 #
5.8362509719873108900069919036113e-05 1:0 2:0 3:1.14951 4:0.29582301 5:0.30540401 6:0.53926998 7:0.42939699 8:0.530918 9:0.56433499 10:0.56433499 11:39.3176 12:66.198097 13:0.166667 14:0.72076797 15:0.75156802 16:11.2224 17:0 18:0 19:7 20:151.429 #
-5.8362509719873108900069919036113e-05 1:0 2:0 3:2.07252 4:0.191475 5:1.10988 6:0.084821001 7:0.19434801 8:0.372857 9:0.145393 10:0.0887613 11:18.287399 12:89.6269 13:0.444444 14:0.89396399 15:0.96825403 16:5.3010402 17:0 18:0 19:-2 20:-277 #
-5.8362509719873108900069919036113e-05 1:0 2:0 3:1.7947201 4:2.6038401 5:0.94615901 6:0.87298203 7:0.134988 8:0.586142 9:0.35061601 10:0.55487001 11:45.158699 12:76.587898 13:0.444444 14:0.84107 15:0.88188499 16:12.8084 17:0 18:0 19:1 20:276.375 #
-5.8362509719873108900069919036113e-05 1:0 2:0 3:1.45442 4:1.7875201 5:0.96840298 6:0.246933 7:0.127875 8:0.74217701 9:0.071448497 10:0.071434401 11:16.5674 12:79.271004 13:0.66666698 14:0.94785702 15:0.97462398 16:4.8061099 17:0 18:0 19:-1 20:-280 #
5.8362509719873108900069919036113e-05 1:0 2:0 3:3.4558799 4:0.444058 5:0.83366501 6:0.46434501 7:0.115584 8:0.63357598 9:0.228953 10:0.236485 11:30.1891 12:77.153999 13:0.66666698 14:0.992939 15:0.92891002 16:8.6869802 17:0 18:0 19:6 20:205.66701 #
5.8362509719873108900069919036113e-05 1:3 2:18.3333 3:2.73826 4:0.56033701 5:0.34683099 6:0.27247 7:0.46777901 8:0.226457 9:0.458832 10:0.208418 11:29.350201 12:82.505501 13:0.33333299 14:0.84577203 15:0.94561899 16:8.4509697 17:4 18:38.5 19:4 20:-157 #
5.8362509719873108900069919036113e-05 1:-1 2:21 3:2.58829 4:1.12104 5:1.7100101 6:0.70242703 7:0.305152 8:0.79082102 9:1.70178 10:0.44248199 11:37.388802 12:14.9108 13:0.166667 14:0.47565401 15:0.826092 16:10.6921 17:-1 18:21 19:1 20:133 #
-5.8362509719873108900069919036113e-05 1:2 2:12 3:1.2939301 4:0.186186 5:1.43613 6:0.341699 7:0.16188399 8:0.80139601 9:0.48739499 10:0.206717 11:20.6842 12:82.7948 13:0.66666698 14:0.71803302 15:0.87330401 16:5.9886799 17:2 18:12 19:1 20:-274 #
5.8362509719873108900069919036113e-05 1:-2 2:-38 3:2.6496699 4:0.116747 5:0.82297498 6:0.21882799 7:0.30611101 8:0.42579401 9:0.382366 10:0.31655899 11:24.002399 12:70.661797 13:0.33333299 14:0.80686498 15:0.77249497 16:6.9362998 17:-2 18:-38 19:0 20:184.5 #
5.8362509719873108900069919036113e-05 1:0 2:0 3:2.0529499 4:0.38524199 5:1.17308 6:0.196031 7:0.235716 8:0.303931 9:0.19975901 10:0.122634 11:24.0707 12:84.053299 13:0.33333299 14:0.85867703 15:0.97666198 16:6.95574 17:0 18:0 19:-1 20:-150 #
-5.8362509719873108900069919036113e-05 1:5 2:40 3:1.33943 4:0.30303001 5:0.499603 6:0.202224 7:0.28934601 8:0.209337 9:0.33159301 10:0.16520999 11:18.2607 12:73.112701 13:0.33333299 14:0.803303 15:0.89896703 16:5.2933798 17:9 18:-3.4000001 19:9 20:-3.4000001 #
5.8362509719873108900069919036113e-05 1:-1 2:-4 3:2.0248799 4:4.2902298 5:0.93110299 6:0.180885 7:0.32850301 8:0.27597201 9:0.411468 10:0.19235601 11:19.716499 12:75.694801 13:0.33333299 14:0.88162601 15:0.87403703 16:5.71135 17:0 18:90 19:0 20:79 #
5.8362509719873108900069919036113e-05 1:0 2:0 3:2.5987201 4:1.1335 5:0.82566702 6:0.83556998 7:0.116892 8:0.27541301 9:0.104279 10:0.043359 11:11.301 12:87.896896 13:0.33333299 14:0.96689898 15:0.97689801 16:3.2844701 17:-1 18:-100 19:-2 20:-135 #
-5.8362509719873108900069919036113e-05 1:0 2:0 3:3.40488 4:0.27225399 5:1.2415 6:0.26449001 7:0.37395599 8:0.68532401 9:0.10752 10:0.10752 11:23.129299 12:81.256599 13:0.66666698 14:0.98329401 15:0.98427302 16:6.68751 17:0 18:0 19:1 20:272 #
5.8362509719873108900069919036113e-05 1:4 2:28 3:1.66167 4:2.2339699 5:0.463195 6:0.259096 7:0.275668 8:0.20640001 9:0.215041 10:0.31405199 11:36.4258 12:63.082901 13:0.444444 14:0.90438402 15:0.95404398 16:10.4261 17:7 18:51.714298 19:6 20:-152.286 #
5.8362509719873108900069919036113e-05 1:0 2:34 3:2.84185 4:0.141864 5:0.53638297 6:0.282635 7:0.198412 8:0.25065801 9:0.29991701 10:0.14861099 11:18.7139 12:88.367996 13:0.444444 14:0.86228001 15:0.91379201 16:5.4235802 17:0 18:34 19:-3 20:-108.375 #
5.8362509719873108900069919036113e-05 1:-1 2:-9 3:2.5773499 4:0.55355299 5:1.79057 6:0.25175801 7:0.706213 8:0.86293501 9:0.48120999 10:0.39117 11:37.0625 12:62.896599 13:0.66666698 14:0.62127 15:0.90997303 16:10.6021 17:-1 18:-9 19:0 20:186.5 #
-5.4616636589635125104136292861767e-07 1:2 2:11 3:4.2837801 4:0.244726 5:0.39257199 6:0.235548 7:0.495543 8:0.388004 9:0.23375601 10:0.27499899 11:34.1464 12:84.994904 13:1 14:0.92127597 15:0.95019197 16:9.7938299 17:2 18:11 19:1 20:-204 #
-5.8362509719873108900069919036113e-05 1:2 2:8 3:1.52754 4:0.67266601 5:3.8243999 6:0.79531503 7:0.29965299 8:0.55774498 9:0.37438399 10:0.43113199 11:38.216999 12:80.691803 13:0.444444 14:0.72748297 15:0.827874 16:10.9202 17:4 18:39 19:3 20:-251 #
5.8362509719873108900069919036113e-05 1:0 2:0 3:2.64642 4:0.73361301 5:1.39908 6:0.207866 7:0.16197801 8:0.81296599 9:0.101042 10:0.33404601 11:37.846199 12:84.054199 13:0.444444 14:0.96117401 15:0.96715498 16:10.8181 17:-2 18:-74 19:0 20:132.5 #
-5.8362509719873108900069919036113e-05 1:2 2:-22.6667 3:4.6818199 4:0.459813 5:0.35067499 6:0.269925 7:0.133147 8:0.18285701 9:0.12963299 10:0.095437899 11:22.424 12:75.657204 13:0.444444 14:0.93503797 15:0.98997098 16:6.4862299 17:2 18:-22.6667 19:1 20:-66.666702 #
-9.2978036475352235400767403339373e-06 1:0 2:-31.5 3:2.3315201 4:0.40036899 5:1.43871 6:23.081699 7:0.64399499 8:0.418861 9:1.4735301 10:0.292768 11:29.317801 12:45.566898 13:1 14:0.74315298 15:0.86591399 16:8.4418201 17:-2 18:-44.25 19:-2 20:-44.25 #
5.8362509719873108900069919036113e-05 1:0 2:0 3:3.1411099 4:0.57381701 5:0.507433 6:0.370251 7:0.26345301 8:0.223359 9:0.25714099 10:0.214844 11:27.135 12:80.735298 13:0.66666698 14:0.91443402 15:0.915456 16:7.8256102 17:0 18:0 19:-1 20:-147 #
5.8362509719873108900069919036113e-05 1:2 2:56 3:1.40596 4:0.29202199 5:2.14677 6:2.5699201 7:0.27111799 8:0.12827399 9:0.94541103 10:3.6694701 11:74.640099 12:79.456802 13:0.33333299 14:0.69198197 15:0.902004 16:20.224199 17:6 18:69.833298 19:8 20:85.625 #
-5.8362509719873108900069919036113e-05 1:0 2:0 3:1.96504 4:0.13475899 5:0.71671599 6:0.34514999 7:0.131843 8:0.432657 9:0.171251 10:0.103689 11:11.8028 12:83.623199 13:0.444444 14:0.962883 15:0.918567 16:3.4298301 17:0 18:0 19:1 20:266 #
5.8362509719873108900069919036113e-05 1:0 2:51 3:1.41761 4:0.377873 5:0.59180897 6:0.271952 7:0.460105 8:0.180457 9:0.457923 10:0.14106899 11:23.7155 12:54.490501 13:0.33333299 14:0.85477197 15:0.95658499 16:6.8545899 17:0 18:51 19:-1 20:-20.5 #
5.8362509719873108900069919036113e-05 1:-1 2:-8 3:2.5320101 4:0.31616899 5:0.91899699 6:0.52590698 7:0.47279701 8:0.27710101 9:0.147128 10:0.147128 11:19.656099 12:70.346397 13:0.66666698 14:0.94470203 15:0.92382097 16:5.6940198 17:0 18:69 19:1 20:172 #
5.8362509719873108900069919036113e-05 1:0 2:0 3:2.64362 4:0.186343 5:1.25965 6:0.817747 7:0.289671 8:0.36071399 9:0.75664502 10:0.187406 11:19.256701 12:65.484299 13:0.166667 14:0.77902299 15:0.87491602 16:5.5794201 17:-2 18:-71 19:-4 20:-127 #
5.8362509719873108900069919036113e-05 1:3 2:11.6667 3:1.9980299 4:0.69107002 5:0.495511 6:0.342985 7:0.343613 8:0.55840701 9:0.179534 10:0.37909499 11:38.561199 12:71.000397 13:0.66666698 14:0.89030898 15:0.94471902 16:11.0148 17:3 18:11.6667 19:2 20:-138.83299 #
5.8362509719873108900069919036113e-05 1:0 2:0 3:1.38331 4:0.20872299 5:0.83240497 6:0.36874601 7:0.288138 8:3.6226799 9:0.804775 10:0.804775 11:53.3228 12:80.4683 13:0.66666698 14:0.77182603 15:0.74850702 16:14.9685 17:0 18:0 19:4 20:164.5 #
5.8362509719873108900069919036113e-05 1:4 2:36.5 3:2.2400601 4:0.97527701 5:4.7216201 6:0.666444 7:0.077991202 8:0.102314 9:0.147522 10:0.147522 11:19.3148 12:89.121803 13:0.33333299 14:0.90488899 15:0.91505498 16:5.5961099 17:5 18:42.400002 19:2 20:-121.6 #
5.8362509719873108900069919036113e-05 1:0 2:10 3:2.8104601 4:0.67894101 5:0.503245 6:0.683559 7:0.38875401 8:0.217034 9:0.79737097 10:0.31805599 11:34.319901 12:46.728199 13:0.33333299 14:0.58406597 15:0.90465897 16:9.8420897 17:1 18:48 19:-1 20:-91.666702 #
5.8362509719873108900069919036113e-05 1:1 2:2 3:3.0892899 4:0.311261 5:1.36264 6:0.137987 7:0.20002 8:0.14758 9:0.213625 10:0.62225503 11:48.709202 12:89.874496 13:0.33333299 14:0.84803498 15:0.86642301 16:13.7565 17:1 18:2 19:-1 20:-122 #
5.8362509719873108900069919036113e-05 1:2 2:0 3:3.0163801 4:0.78419602 5:0.50045198 6:0.554654 7:0.214057 8:0.31587899 9:0.417117 10:0.27449301 11:29.438801 12:73.082603 13:0.444444 14:0.93001199 15:0.87395298 16:8.4758997 17:2 18:0 19:0 20:-140.66701 #
-5.5560311780752660523480940257812e-05 1:-1 2:-46 3:2.0527501 4:0.40856901 5:1.8073 6:0.369037 7:0.27037299 8:0.61503702 9:0.14076699 10:0.14076699 11:4.6870499 12:86.337502 13:0.66666698 14:0.94121802 15:0.86302102 16:1.36406 17:-1 18:-46 19:-3 20:-162.66701 #
-5.8362509719873108900069919036113e-05 1:0 2:0 3:2.3679299 4:1.15512 5:1.74139 6:0.17459001 7:0.145172 8:0.76397598 9:0.17351601 10:0.13362201 11:22.753901 12:86.193901 13:0.66666698 14:0.95459598 15:0.95355099 16:6.58039 17:0 18:0 19:3 20:261 #
-5.8362509719873108900069919036113e-05 1:2 2:13 3:2.2088799 4:3.1574399 5:1.35581 6:0.200913 7:0.47886601 8:0.71301699 9:0.178781 10:0.178781 11:23.271799 12:85.7817 13:0.66666698 14:0.920151 15:0.91402501 16:6.7281399 17:2 18:13 19:1 20:-261 #
-2.9691814987909004731458234571662e-05 1:1 2:-31 3:5.6735301 4:0.88360298 5:1.00437 6:0.36834201 7:0.219744 8:0.25901401 9:0.28922701 10:0.141931 11:19.187901 12:87.707199 13:0.166667 14:0.72196603 15:0.92494601 16:5.55967 17:0 18:-54 19:0 20:-54 #
-5.8362509719873108900069919036113e-05 1:0 2:0 3:2.71333 4:0.45402801 5:1.76255 6:0.25135499 7:0.246712 8:0.89630097 9:0.44303101 10:0.144538 11:20.001801 12:52.819 13:0.444444 14:0.86451101 15:0.92267901 16:5.79317 17:0 18:0 19:3 20:263 #
5.8362509719873108900069919036113e-05 1:2 2:4.6666698 3:1.24142 4:0.156103 5:0.49248999 6:0.156249 7:0.429721 8:0.68406898 9:0.13153701 10:0.147413 11:24.7955 12:73.208199 13:0.66666698 14:0.947981 15:0.96330899 16:7.1619601 17:2 18:4.6666698 19:1 20:-141.33299 #
5.8362509719873108900069919036113e-05 1:0 2:0 3:4.27774 4:0.27784801 5:0.383917 6:0.15152501 7:0.135437 8:0.46926901 9:0.194355 10:0.230055 11:33.193401 12:70.902397 13:0.444444 14:0.92912102 15:0.98333001 16:9.5283003 17:0 18:0 19:10 20:174.60001 #
-5.8362509719873108900069919036113e-05 1:2 2:13 3:1.64308 4:0.36968401 5:0.82097799 6:0.34970099 7:0.248292 8:0.394934 9:0.259152 10:0.458011 11:41.078201 12:69.772598 13:1 14:0.94541901 15:0.87823999 16:11.7037 17:2 18:13 19:0 20:-262 #
5.8362509719873108900069919036113e-05 1:-1 2:-10 3:3.2420001 4:1.48076 5:0.66224998 6:0.221008 7:0.383948 8:0.86343801 9:0.26967499 10:0.123771 11:18.659901 12:72.499199 13:0.66666698 14:0.849338 15:0.93355203 16:5.4080801 17:-2 18:-48 19:-3 20:-130.33299 #
-5.8362509719873108900069919036113e-05 1:0 2:0 3:2.1426699 4:0.47126499 5:3.72616 6:0.375229 7:0.124635 8:1.2299401 9:0.206066 10:0.259294 11:23.1493 12:82.170303 13:0.444444 14:0.91315699 15:0.831514 16:6.6932001 17:-1 18:-98.5 19:2 20:160.375 #
-5.8362509719873108900069919036113e-05 1:0 2:0 3:2.3269899 4:0.86845601 5:1.79993 6:0.50462699 7:0.29739699 8:0.81743902 9:0.361882 10:0.361882 11:36.681301 12:70.352699 13:0.66666698 14:0.91275197 15:0.91578901 16:10.4968 17:0 18:0 19:1 20:263 #
-5.3158136012462775532583236781647e-05 1:0 2:0 3:1.79509 4:0.545524 5:1.24444 6:1.14159 7:0.54090798 8:0.70565301 9:1.4141001 10:0.626724 11:45.402599 12:47.398998 13:0.66666698 14:0.89651901 15:0.84599799 16:12.8739 17:-1 18:-82 19:-1 20:-82 #
5.8362509719873108900069919036113e-05 1:0 2:0 3:2.8432801 4:0.20412999 5:0.653754 6:0.29238501 7:0.269274 8:0.184581 9:0.303031 10:0.0635579 11:15.1428 12:85.245102 13:0.33333299 14:0.89993501 15:0.97347099 16:4.39536 17:0 18:0 19:8 20:162.5 #
-5.8362509719873108900069919036113e-05 1:-1 2:-14 3:1.46892 4:0.072700299 5:0.25593701 6:0.44183001 7:0.089926101 8:0.54000098 9:0.189964 10:0.189964 11:17.1726 12:73.2117 13:1 14:0.93471402 15:0.86729801 16:4.9803901 17:-1 18:-14 19:0 20:262 #
-5.8362509719873108900069919036113e-05 1:-1 2:-8 3:2.3551199 4:0.34541899 5:0.38519701 6:0.163681 7:0.162228 8:0.20443 9:0.219198 10:0.114764 11:21.052999 12:73.310204 13:0.166667 14:0.892555 15:0.96154499 16:6.0942798 17:-1 18:-8 19:8 20:252.222 #
5.8362509719873108900069919036113e-05 1:-2 2:-9.78125 3:7.7685099 4:0.21987 5:0.29692701 6:0.19808801 7:0.311988 8:1.07458 9:0.202391 10:0.148958 11:26.145201 12:86.519997 13:1 14:0.976556 15:0.96993101 16:7.5452199 17:-2 18:-9.78125 19:-5 20:-127.312 #
-4.9266150012387927253736108479387e-05 1:1 2:24 3:2.8989201 4:0.46291101 5:0.26135099 6:0.078781098 7:0.33364499 8:2.10569 9:0.073773399 10:0.077378899 11:19.680201 12:77.248497 13:0.66666698 14:0.97300702 15:0.98766798 16:5.7009301 17:1 18:24 19:0 20:-254 #
5.8362509719873108900069919036113e-05 1:0 2:0 3:2.18942 4:1.6763099 5:0.722691 6:0.75418699 7:0.241997 8:0.72277498 9:0.35895899 10:0.20400999 11:21.8197 12:86.858498 13:0.166667 14:0.78854197 15:0.87642598 16:6.31358 17:0 18:0 19:1 20:150 #
-5.8362509719873108900069919036113e-05 1:3 2:38.666698 3:1.79377 4:1.91521 5:0.648673 6:0.31822899 7:0.54674 8:0.60774702 9:0.303675 10:0.173987 11:23.2094 12:63.826199 13:0.66666698 14:0.809843 15:0.92073101 16:6.71035 17:3 18:38.666698 19:3 20:38.666698 #
5.8362509719873108900069919036113e-05 1:4 2:34.5 3:2.38539 4:0.25247401 5:0.325618 6:0.26583299 7:0.17286099 8:0.42240399 9:0.123128 10:0.104709 11:20.449499 12:77.720596 13:0.444444 14:0.92790103 15:0.96595401 16:5.9214602 17:5 18:41.599998 19:4 20:-102.4 #
-5.8362509719873108900069919036113e-05 1:0 2:0 3:2.4117801 4:0.50431198 5:0.38826901 6:0.46778801 7:0.091186099 8:0.330672 9:0.17626201 10:0.143151 11:18.0539 12:89.920799 13:0.33333299 14:0.80644298 15:0.913535 16:5.2339301 17:-1 18:-74.5 19:9 20:106.45 #
-5.8362509719873108900069919036113e-05 1:1 2:24 3:1.30176 4:0.34810701 5:1.45553 6:0.49944001 7:0.352521 8:0.42247099 9:0.46331599 10:0.169845 11:20.185499 12:66.1763 13:0.33333299 14:0.76236498 15:0.904993 16:5.8458099 17:1 18:24 19:0 20:-252.5 #
5.8362509719873108900069919036113e-05 1:0 2:0 3:1.97571 4:1.2044899 5:0.82969701 6:0.54567999 7:0.207334 8:0.38197699 9:0.29345101 10:0.24375699 11:25.5835 12:79.827003 13:0.33333299 14:0.74638098 15:0.87686801 16:7.38585 17:-1 18:-98 19:1 20:114 #
-1.8896281533979617807926520978157e-05 1:0 2:0 3:1.11051 4:0.34622699 5:0.56325102 6:0.17915501 7:0.24555001 8:0.35102001 9:0.90867901 10:0.51191401 11:36.141201 12:69.157204 13:0.33333299 14:0.50349599 15:0.82023901 16:10.3474 17:0 18:0 19:0 20:194 #
-5.8362509719873108900069919036113e-05 1:0 2:0 3:1.25249 4:0.369432 5:1.5737799 6:0.200085 7:0.10376 8:0.25613099 9:0.35536 10:0.142947 11:15.9041 12:64.601601 13:0.33333299 14:0.73929697 15:0.90259498 16:4.6149502 17:0 18:0 19:2 20:259 #
5.8362509719873108900069919036113e-05 1:0 2:0 3:1.96121 4:0.106063 5:2.07005 6:0.199927 7:0.267694 8:0.236367 9:0.262968 10:0.152685 11:18.851101 12:71.566597 13:0.33333299 14:0.83582902 15:0.90816802 16:5.4629798 17:0 18:0 19:-2 20:-137.25 #
5.8362509719873108900069919036113e-05 1:0 2:0 3:1.37596 4:1.01164 5:0.81757599 6:0.94807899 7:0.151815 8:0.29489601 9:0.28041601 10:0.062580198 11:14.0926 12:89.189598 13:0.33333299 14:0.90820998 15:0.970496 16:4.0921302 17:1 18:98 19:8 20:141.25 #
-5.8362509719873108900069919036113e-05 1:0 2:0 3:1.95953 4:1.04728 5:1.01956 6:0.28273499 7:0.233547 8:0.13799299 9:0.507873 10:0.114461 11:11.9721 12:77.411903 13:0.33333299 14:0.70769697 15:0.91001201 16:3.4788401 17:0 18:0 19:-1 20:-244 #
-5.8362509719873108900069919036113e-05 1:0 2:0 3:2.9743099 4:0.26070899 5:2.80266 6:0.48797199 7:0.92176503 8:1.5017 9:0.71660203 10:0.945297 11:56.2873 12:75.152298 13:1 14:0.86455399 15:0.83796299 16:15.7347 17:0 18:0 19:-4 20:-250.875 #
5.8362509719873108900069919036113e-05 1:3 2:24 3:3.58463 4:0.089925103 5:0.219203 6:0.17972501 7:0.175137 8:0.193735 9:0.18274 10:0.218631 11:32.3549 12:66.262497 13:0.33333299 14:0.95213997 15:0.980299 16:9.2941103 17:3 18:24 19:7 20:149.14301 #
5.8362509719873108900069919036113e-05 1:2 2:14.5 3:1.45134 4:4.3675399 5:0.581635 6:0.230809 7:0.45561501 8:0.59428799 9:0.53470898 10:0.437659 11:37.120998 12:87.269203 13:0.444444 14:0.72268301 15:0.88185799 16:10.6182 17:2 18:-26.6667 19:1 20:-130.66701 #
-5.8362509719873108900069919036113e-05 1:2 2:33.3125 3:2.1753199 4:0.096829601 5:0.180759 6:0.124272 7:0.162259 8:0.28378901 9:0.062095799 10:0.062095799 11:14.2471 12:82.311798 13:0.66666698 14:0.97180301 15:0.97075099 16:4.1367798 17:2 18:33.3125 19:-3 20:-240.812 #
-5.8347910770986279981997063570631e-05 1:0 2:0 3:4.5579901 4:0.17805 5:0.29816699 6:0.20131899 7:0.162661 8:0.753582 9:0.199709 10:0.199709 11:21.5324 12:88.459801 13:1 14:0.97050101 15:0.87230599 16:6.23141 17:0 18:0 19:4 20:252.625 #
-3.9041660855513169912055226884462e-05 1:-6 2:-34.166698 3:3.28878 4:0.51730299 5:0.62956899 6:0.87712401 7:1.2200201 8:1.09191 9:1.6673 10:2.075 11:64.619698 12:55.729401 13:0.66666698 14:0.85246497 15:0.87304503 16:17.83 17:-6 18:-34.166698 19:-5 20:259.83301 #
-5.8362509719873108900069919036113e-05 1:6 2:24.3333 3:2.6617501 4:0.77591902 5:0.39477399 6:0.42917699 7:0.093566701 8:0.43926501 9:0.143831 10:0.084977597 11:16.265699 12:81.926399 13:0.444444 14:0.966021 15:0.95769101 16:4.7191801 17:8 18:41.5 19:9 20:-189 #
5.8362509719873108900069919036113e-05 1:-1 2:-60 3:1.50456 4:0.86054999 5:1.27961 6:1.75289 7:0.125828 8:0.175633 9:0.56165302 10:1.46378 11:85.453499 12:82.688499 13:0.33333299 14:0.49924701 15:0.781335 16:22.633801 17:-1 18:-60 19:-1 20:40 #
-5.8346727056228366665915213706839e-05 1:0 2:0 3:2.1189301 4:0.63536298 5:1.02908 6:0.27086201 7:0.22006901 8:0.54161203 9:0.220368 10:0.113291 11:13.006 12:81.395203 13:0.66666698 14:0.96498799 15:0.91364801 16:3.7780199 17:0 18:0 19:1 20:258 #
-5.835296832293628590789327792443e-05 1:6 2:26.5 3:2.7551701 4:1.61458 5:0.56476498 6:0.089559004 7:0.37792301 8:1.26226 9:0.287521 10:0.287521 11:24.868799 12:86.867302 13:1 14:0.90783501 15:0.80716199 16:7.1827998 17:6 18:26.5 19:5 20:-221.25 #
5.8362509719873108900069919036113e-05 1:-1 2:-20 3:1.57522 4:1.3608299 5:1.32684 6:1.37455 7:0.21849699 8:0.145759 9:0.30844101 10:0.26061001 11:24.115601 12:69.332901 13:0.166667 14:0.75789899 15:0.85562998 16:6.9685302 17:-1 18:-20 19:0 20:120.75 #
-5.8362509719873108900069919036113e-05 1:-1 2:-10 3:3.32341 4:0.104304 5:1.19073 6:0.653642 7:0.85421503 8:0.67750102 9:0.47700199 10:1.99411 11:89.510597 12:86.451797 13:0.66666698 14:0.625229 15:0.79459798 16:23.487101 17:-2 18:-45 19:-2 20:212.66701 #
5.8362509719873108900069919036113e-05 1:0 2:0 3:2.72368 4:0.231288 5:0.65887398 6:0.27379 7:0.203389 8:0.49586099 9:0.22195201 10:0.19194899 11:31.0439 12:75.718903 13:0.66666698 14:0.922611 15:0.988388 16:8.9269896 17:0 18:0 19:-1 20:-120 #
-5.8355995620176925463458428300356e-05 1:4 2:14.1875 3:2.31528 4:0.18729299 5:0.242245 6:0.19573399 7:0.21576799 8:2.0151601 9:0.45787099 10:0.45787099 11:34.747501 12:69.859398 13:1 14:0.73875803 15:0.78053403 16:9.9609604 17:4 18:14.1875 19:3 20:-240.312 #
5.8362509719873108900069919036113e-05 1:1 2:34 3:1.23706 4:4.5390501 5:3.00718 6:0.79943502 7:0.287662 8:0.23968001 9:0.80740499 10:0.35148799 11:17.9177 12:73.6474 13:0.166667 14:0.44490099 15:0.71649998 16:5.1947498 17:2 18:48.75 19:1 20:-80.25 #
-5.8319683766815759418632170163477e-05 1:1 2:42 3:1.91878 4:0.304113 5:0.12262 6:0.168759 7:0.49277499 8:0.431389 9:0.113277 10:0.113277 11:15.8036 12:78.978699 13:1 14:0.93456697 15:0.92895502 16:4.5859699 17:1 18:42 19:0 20:-223 #
5.8362509719873108900069919036113e-05 1:0 2:0 3:1.81742 4:0.55769002 5:0.25960499 6:0.472734 7:0.180535 8:0.37940201 9:0.21825799 10:0.21825799 11:27.250299 12:64.257103 13:0.66666698 14:0.927122 15:0.92520303 16:7.8582201 17:-1 18:-82 19:1 20:89.333298 #
-5.8362509719873108900069919036113e-05 1:0 2:0 3:4.48704 4:0.12599701 5:0.174569 6:0.161708 7:0.120971 8:0.63270199 9:0.12650201 10:0.069587097 11:19.6483 12:86.746902 13:1 14:0.99438697 15:0.99432999 16:5.6917901 17:0 18:0 19:-5 20:-241.2 #
-5.8362496072982775890958251352458e-05 1:0 2:0 3:2.5099101 4:0.048613898 5:0.26388201 6:0.20486601 7:0.52504802 8:0.226713 9:0.50869101 10:1.58562 11:61.390701 12:74.174599 13:0.66666698 14:0.93678403 15:0.97481799 16:17.028601 17:0 18:0 19:1 20:-110.3 #
5.8362509719873108900069919036113e-05 1:0 2:0 3:1.96839 4:0.30018699 5:3.3766501 6:2.4697599 7:0.235879 8:1.01402 9:0.544209 10:1.34647 11:62.889702 12:65.747299 13:0.444444 14:0.93563199 15:0.71993202 16:17.402399 17:1 18:71 19:1 20:71 #
5.8362509719873108900069919036113e-05 1:0 2:0 3:2.6742001 4:0.48106799 5:0.358863 6:0.36697599 7:0.238326 8:1.07634 9:0.183897 10:0.183897 11:22.219101 12:76.606499 13:0.444444 14:0.943335 15:0.90282702 16:6.4277101 17:-1 18:-98 19:-1 20:-98 #
-5.8362509719873108900069919036113e-05 1:1 2:59.25 3:2.5808101 4:1.27695 5:0.26341099 6:0.19734199 7:0.213361 8:0.425152 9:0.19401599 10:0.107388 11:18.9517 12:63.667099 13:0.66666698 14:0.90795398 15:0.95380598 16:5.4918699 17:4 18:73.625 19:3 20:-194.062 #
-5.7898095734705258769495217485712e-05 1:-1 2:-28 3:3.0460899 4:0.57236201 5:2.93714 6:0.24763501 7:0.25351101 8:0.82911098 9:0.192477 10:0.192477 11:17.164801 12:89.945099 13:0.66666698 14:0.90664399 15:0.85365999 16:4.9781299 17:0 18:72 19:0 20:72 #
-5.8362509719873108900069919036113e-05 1:0 2:0 3:1.5775501 4:0.542395 5:0.75031799 6:0.550017 7:0.157217 8:0.76608998 9:0.19072799 10:0.19072799 11:16.9391 12:73.261002 13:0.66666698 14:0.89380997 15:0.86395299 16:4.9131498 17:-1 18:-98 19:-2 20:-185 #
5.8362509719873108900069919036113e-05 1:0 2:0 3:3.3928299 4:1.62992 5:0.14290699 6:0.52000999 7:0.47552499 8:0.53309101 9:0.56863099 10:0.58086002 11:36.957298 12:66.265602 13:1 14:0.51975602 15:0.697658 16:10.573 17:4 18:86.5 19:4 20:86.5 #
5.8362509719873108900069919036113e-05 1:-1 2:-45 3:2.2977901 4:1.2329201 5:0.55063403 6:0.135933 7:0.24647599 8:0.15893801 9:0.19468901 10:0.060231298 11:16.419399 12:76.388901 13:0.33333299 14:0.85125703 15:0.98380297 16:4.7634702 17:-1 18:-45 19:-2 20:-96.5 #
5.8362509719873108900069919036113e-05 1:0 2:0 3:3.83356 4:0.27605301 5:2.2404399 6:0.32523799 7:0.36666 8:0.79772103 9:0.20378999 10:0.154618 11:23.437401 12:68.027496 13:0.33333299 14:0.90981197 15:0.93833899 16:6.7753501 17:-1 18:-78 19:-1 20:-78 #
5.8362509719873108900069919036113e-05 1:0 2:0 3:1.79178 4:2.21315 5:0.581568 6:0.39806601 7:0.151592 8:0.54320002 9:0.13274699 10:0.13274699 11:19.5707 12:82.183403 13:0.66666698 14:0.90204698 15:0.93280202 16:5.6695199 17:0 18:0 19:2 20:119 #
5.8362509719873108900069919036113e-05 1:0 2:0 3:3.0975499 4:0.57890201 5:0.240346 6:0.187951 7:0.159987 8:0.50438398 9:0.225651 10:0.225651 11:27.637501 12:84.950401 13:0.66666698 14:0.91594398 15:0.91041899 16:7.96773 17:0 18:0 19:-1 20:-121.125 #
5.8362509719873108900069919036113e-05 1:0 2:0 3:1.345 4:0.707286 5:0.52695501 6:0.44233301 7:0.44231001 8:0.42954001 9:0.180007 10:0.118101 11:15.1539 12:77.483498 13:0.66666698 14:0.89123398 15:0.92131299 16:4.3985801 17:-1 18:-68 19:-1 20:95 #
5.8362509719873108900069919036113e-05 1:2 2:25.3333 3:2.80915 4:0.454126 5:1.5239201 6:0.36244699 7:0.488051 8:0.245497 9:0.41756499 10:0.095536001 11:15.7453 12:84.121498 13:0.33333299 14:0.89766699 15:0.94449002 16:4.56916 17:2 18:25.3333 19:1 20:-112.667 #
5.8362509719873108900069919036113e-05 1:3 2:46 3:3.4339001 4:0.39681801 5:0.47099099 6:0.99505103 7:0.37801 8:0.527107 9:0.775846 10:0.92287397 11:62.758301 12:60.562901 13:0.166667 14:0.61751199 15:0.74550498 16:17.369699 17:4 18:55 19:6 20:108.333 #
5.8362509719873108900069919036113e-05 1:0 2:-42 3:3.23878 4:1.49032 5:2.20451 6:0.871696 7:0.116093 8:0.56828499 9:0.84003103 10:0.44449499 11:38.420799 12:66.971199 13:0.33333299 14:0.527812 15:0.89173502 16:10.9762 17:0 18:-42 19:1 20:96 #
-5.8362509719873108900069919036113e-05 1:2 2:51 3:1.74967 4:0.40190101 5:0.38866001 6:0.159857 7:0.146547 8:0.281829 9:0.192839 10:0.076753996 11:18.326799 12:88.497398 13:0.66666698 14:0.95209801 15:0.97900498 16:5.3123598 17:9 18:74.777802 19:10 20:77.800003 #
-3.2988869731008366777830209670697e-06 1:-1 2:-8 3:4.9604702 4:0.65969998 5:0.766325 6:0.93542898 7:0.55022401 8:0.122762 9:0.445575 10:2.9828401 11:79.0149 12:75.954903 13:0.33333299 14:0.866391 15:0.90217 16:21.222 17:0 18:54 19:1 20:172 #
-6.2593203905073058201935509714531e-06 1:0 2:-45.5 3:4.2472 4:0.13109 5:1.67642 6:0.63172102 7:1.77406 8:0.58799499 9:8.7961597 10:2.01735 11:72.471497 12:6.3358598 13:0.444444 14:0.89970303 15:0.85243797 16:19.7185 17:-1 18:-54 19:-1 20:-54 #
5.8362509719873108900069919036113e-05 1:0 2:50 3:2.5044601 4:16.5084 5:0.54315197 6:1.02634 7:0.15462001 8:0.19025899 9:0.089768298 10:0.079880401 11:16.565599 12:83.478203 13:0.33333299 14:0.95426601 15:0.96517301 16:4.8056102 17:4 18:72 19:5 20:76.666702 #
-5.8362509719873108900069919036113e-05 1:1 2:60 3:1.95786 4:0.171969 5:0.25499699 6:0.13712101 7:0.0921221 8:0.25756401 9:0.058448501 10:0.085659496 11:20.9461 12:75.098396 13:0.66666698 14:0.993608 15:0.98868197 16:6.0636802 17:3 18:64.666702 19:3 20:64.666702 #
5.8362509719873108900069919036113e-05 1:2 2:17.625 3:2.1795499 4:0.161391 5:0.458471 6:0.239462 7:1.13407 8:1.45559 9:0.51604402 10:0.51604402 11:40.688301 12:49.946999 13:0.66666698 14:0.88308901 15:0.88545501 16:11.5974 17:2 18:17.625 19:3 20:79.75 #
5.8362509719873108900069919036113e-05 1:-1 2:-12.75 3:2.6609399 4:0.254722 5:0.216087 6:0.21128701 7:0.173822 8:0.74982601 9:0.202281 10:0.32007501 11:37.315701 12:76.970299 13:0.66666698 14:0.94183898 15:0.96967602 16:10.6719 17:-1 18:-12.75 19:-2 20:-112.75 #
-5.8362509719873108900069919036113e-05 1:0 2:25 3:2.17693 4:0.23114499 5:0.26636001 6:0.175078 7:0.167088 8:0.67038101 9:0.18762399 10:0.104971 11:21.4429 12:81.312401 13:1 14:0.968934 15:0.97366798 16:6.2058401 17:4 18:59.5 19:7 20:76.1875 #
5.8362509719873108900069919036113e-05 1:2 2:11.5 3:1.4141001 4:1.14847 5:0.36339301 6:0.291619 7:0.33077401 8:1.91422 9:0.274005 10:0.274005 11:31.020399 12:89.881401 13:0.66666698 14:0.91231799 15:0.90132397 16:8.9203997 17:2 18:11.5 19:7 20:120.286 #
-5.6768111162639534386913781061068e-05 1:0 2:-53 3:1.95886 4:0.52947098 5:0.30537599 6:5.2469201 7:0.48563099 8:2.69051 9:1.04152 10:2.1568 11:84.608299 12:81.7752 13:0.33333299 14:0.60840303 15:0.82249099 16:22.452499 17:0 18:-53 19:1 20:53 #
-5.8362509719873108900069919036113e-05 1:-1 2:-45.5 3:7.1928802 4:0.58585799 5:0.42106301 6:0.235917 7:0.38829201 8:0.212173 9:0.331826 10:0.226503 11:31.740299 12:81.763 13:0.66666698 14:0.98150897 15:0.96057397 16:9.1221399 17:-1 18:-45.5 19:4 20:68.333298 #
-5.8362509719873108900069919036113e-05 1:3 2:34.666698 3:1.08371 4:0.85703999 5:0.80813199 6:0.57095802 7:0.230005 8:0.28605399 9:0.21412399 10:0.138546 11:15.5403 12:81.1446 13:0.33333299 14:0.73864299 15:0.904293 16:4.5100498 17:6 18:57.666698 19:7 20:66 #
5.8362509719873108900069919036113e-05 1:0 2:-34 3:1.37 4:0.69018102 5:1.01311 6:0.91622102 7:0.393718 8:0.60556698 9:0.247068 10:0.247068 11:28.470301 12:69.361801 13:0.66666698 14:0.859945 15:0.907184 16:8.20294 17:-1 18:-54 19:-2 20:-74.666702 #
5.8362509719873108900069919036113e-05 1:0 2:0 3:1.18062 4:0.35913 5:0.71313798 6:0.61918098 7:0.261572 8:0.918841 9:0.362688 10:0.26280299 11:29.480101 12:80.324699 13:0.33333299 14:0.718095 15:0.91167301 16:8.4875202 17:4 18:87.5 19:5 20:90.800003 #
-5.8362509719873108900069919036113e-05 1:-1 2:-52 3:1.60308 4:0.72297102 5:2.55949 6:0.88057202 7:0.72069103 8:0.352413 9:0.82069802 10:0.46506301 11:34.241402 12:72.655296 13:0.166667 14:0.60811102 15:0.74577999 16:9.8202696 17:-1 18:-52 19:-1 20:-52 #
5.8362509719873108900069919036113e-05 1:1 2:49.5 3:3.3793399 4:0.82543701 5:0.76565301 6:0.198807 7:0.232953 8:0.35360599 9:0.21155301 10:0.14060199 11:20.4382 12:78.811897 13:0.444444 14:0.98314101 15:0.92894202 16:5.91822 17:2 18:62.875 19:2 20:62.875 #
5.8362509719873108900069919036113e-05 1:0 2:1.5 3:5.0086799 4:1.61133 5:0.31035301 6:0.48793 7:0.382357 8:0.211586 9:0.50264001 10:0.20547099 11:25.792999 12:74.677803 13:0.33333299 14:0.83741599 15:0.90595502 16:7.4453001 17:-1 18:-25.25 19:-2 20:-104.083 #
-5.8362509719873108900069919036113e-05 1:0 2:54 3:1.09656 4:1.1899199 5:0.36364901 6:0.40343401 7:0.30169401 8:0.40907601 9:0.49600801 10:0.133779 11:6.8584099 12:79.316498 13:0.33333299 14:0.83452898 15:0.87423599 16:1.99535 17:2 18:60.666698 19:2 20:60.666698 #
5.8362509719873108900069919036113e-05 1:3 2:10.75 3:4.1552 4:0.27429801 5:1.29342 6:0.146819 7:0.29819399 8:1.06804 9:0.32999399 10:0.158216 11:24.2938 12:80.628799 13:0.66666698 14:0.98253697 15:0.94245702 16:7.0192599 17:5 18:29.75 19:4 20:-110.5 #
-5.8291313645175845564207206539464e-05 1:4 2:47 3:1.1332901 4:0.71397901 5:0.64152497 6:1.13599 7:0.68860602 8:2.0536699 9:0.21273901 10:1.6899 11:67.281502 12:85.329201 13:1 14:0.75286901 15:0.85745299 16:18.480101 17:6 18:55 19:7 20:66.857101 #
5.8362509719873108900069919036113e-05 1:-1 2:-40 3:1.27501 4:0.21029601 5:0.151802 6:0.16124199 7:0.37116799 8:0.38877001 9:0.48394901 10:0.235514 11:22.1833 12:61.725899 13:0.66666698 14:0.76222903 15:0.85354602 16:6.41747 17:-1 18:-40 19:-1 20:-40 #
-5.8362509719873108900069919036113e-05 1:-1 2:-52 3:4.0289202 4:0.97209197 5:0.75876701 6:0.802652 7:1.11299 8:1.19449 9:2.1643801 10:0.68023002 11:47.773701 12:86.492699 13:1 14:0.916457 15:0.93225598 16:13.5079 17:-1 18:-52 19:1 20:64 #
5.8362509719873108900069919036113e-05 1:2 2:44 3:1.16835 4:1.42374 5:1.80688 6:0.167853 7:0.147581 8:0.11017 9:0.615134 10:0.176863 11:21.547001 12:72.093498 13:0.166667 14:0.70457101 15:0.91123497 16:6.23559 17:5 18:73.199997 19:5 20:-31.6667 #
-5.6249578052725013321833102963865e-05 1:0 2:0 3:4.0079899 4:1.00941 5:1.32256 6:0.62379599 7:0.298556 8:0.803303 9:0.35245699 10:0.26415801 11:11.853 12:84.489799 13:0.444444 14:0.77716303 15:0.76120698 16:3.44435 17:2 18:88 19:3 20:-78 #
-5.8362509719873108900069919036113e-05 1:-1 2:-50 3:1.20127 4:3.1950099 5:1.13756 6:0.69122797 7:0.185239 8:0.490578 9:0.60651499 10:0.212929 11:21.2402 12:74.044601 13:0.33333299 14:0.65970701 15:0.87117499 16:6.1478601 17:0 18:48 19:2 20:36.5 #
5.8362509719873108900069919036113e-05 1:0 2:0 3:3.3689201 4:0.49536499 5:0.725357 6:0.32373801 7:0.47352201 8:1.16389 9:0.57603699 10:0.57603699 11:46.026501 12:89.0215 13:1 14:0.88674599 15:0.795753 16:13.0413 17:0 18:0 19:0 20:-95.3125 #
-5.8362509719873108900069919036113e-05 1:6 2:35.583302 3:1.0732 4:0.46121499 5:0.49792701 6:0.16071001 7:0.141104 8:0.173246 9:0.11911 10:0.11911 11:14.7731 12:75.226898 13:0.444444 14:0.93819499 15:0.91974503 16:4.2886701 17:7 18:40.357101 19:6 20:-62.642899 #
-5.8362509719873108900069919036113e-05 1:0 2:0 3:3.6942599 4:0.156775 5:0.210834 6:0.06374 7:0.60672599 8:0.75750899 9:0.180712 10:0.157621 11:27.035 12:89.597 13:1 14:0.95376498 15:0.973378 16:7.7972798 17:0 18:0 19:0 20:0 #
5.8362509719873108900069919036113e-05 1:3 2:18.6667 3:1.16685 4:1.1111701 5:0.33125499 6:0.16554999 7:0.25228801 8:1.0071599 9:0.073934503 10:0.078839302 11:10.998 12:81.631798 13:1 14:0.89499003 15:0.94086999 16:3.1967001 17:3 18:18.6667 19:5 20:83.199997 #
-5.820925055238107965723329262353e-05 1:1 2:24 3:5.33887 4:0.28301501 5:0.722772 6:0.70773399 7:3.2096 8:0.68918002 9:1.75295 10:1.75295 11:64.476997 12:77.627098 13:0.66666698 14:0.95311999 15:0.95015901 16:17.794901 17:0 18:-68 19:1 20:51 #
5.8362509719873108900069919036113e-05 1:3 2:-1 3:3.44508 4:0.50091201 5:0.335565 6:0.197896 7:0.90954 8:0.178596 9:0.52961898 10:0.388836 11:38.628201 12:79.051003 13:0.33333299 14:0.96616 15:0.90354502 16:11.0332 17:6 18:24.5714 19:5 20:-100.429 #
-5.8362509719873108900069919036113e-05 1:0 2:0 3:1.78471 4:0.65129799 5:1.0334001 6:0.14896999 7:0.25379899 8:0.22251099 9:0.25307 10:0.115267 11:17.5945 12:87.974503 13:0.33333299 14:0.770625 15:0.93924201 16:5.10179 17:-1 18:-94 19:-3 20:43.5 #
-5.8362509719873108900069919036113e-05 1:6 2:32.229198 3:1.76667 4:0.36790901 5:0.61260498 6:0.399564 7:0.20865799 8:0.36421999 9:0.50119501 10:0.17616101 11:16.338699 12:74.492401 13:0.444444 14:0.67899901 15:0.87497401 16:4.7402301 17:6 18:-25.1071 19:6 20:-25.1071 #
-5.8362509719873108900069919036113e-05 1:-2 2:-14 3:1.54052 4:0.296056 5:0.71506602 6:0.32968301 7:0.066457704 8:0.106799 9:0.078297697 10:0.078297697 11:14.6392 12:75.4702 13:0.444444 14:0.935408 15:0.957376 16:4.24999 17:1 18:69.666702 19:1 20:69.666702 #
5.8362509719873108900069919036113e-05 1:0 2:0 3:1.9260401 4:0.59779799 5:0.91751999 6:0.424999 7:0.27319801 8:0.155396 9:0.492632 10:0.58735102 11:46.540401 12:68.325996 13:0.33333299 14:0.61102498 15:0.81344497 16:13.1789 17:0 18:0 19:-1 20:-106 #
-5.8362509719873108900069919036113e-05 1:3 2:38.5 3:2.27877 4:1.9818 5:1.55547 6:0.64121598 7:1.13291 8:1.67075 9:2.0404201 10:0.46549001 11:37.282398 12:27.2712 13:0.33333299 14:0.79188299 15:0.85745102 16:10.6627 17:3 18:38.5 19:1 20:-58.833302 #
5.8362509719873108900069919036113e-05 1:0 2:2 3:2.1995299 4:1.79997 5:1.10941 6:0.64105803 7:0.18009201 8:0.608715 9:0.569058 10:0.36733001 11:31.184799 12:86.250198 13:1 14:0.84571201 15:0.85579097 16:8.9665003 17:0 18:2 19:1 20:113 #
5.8362509719873108900069919036113e-05 1:4 2:23 3:1.34026 4:1.01951 5:5.8022699 6:0.226252 7:0.64623499 8:0.133793 9:0.363509 10:0.21571299 11:31.2617 12:55.2882 13:0.66666698 14:0.87208802 15:0.97118503 16:8.9880505 17:3 18:-65 19:3 20:-65 #
5.8362509719873108900069919036113e-05 1:1 2:5 3:2.05393 4:0.58475798 5:0.69649398 6:0.58082199 7:0.64475501 8:0.231086 9:0.34234101 10:0.253508 11:33.076199 12:74.474602 13:0.33333299 14:0.95627397 15:0.96626198 16:9.4955997 17:3 18:47.5 19:4 20:102.375 #
5.8362509719873108900069919036113e-05 1:3 2:6.75 3:1.86879 4:0.427535 5:0.427542 6:0.418374 7:0.458105 8:0.24698 9:0.27335501 10:0.123811 11:17.077999 12:86.915398 13:0.33333299 14:0.75459099 15:0.92563403 16:4.9531598 17:3 18:6.75 19:2 20:-107.75 #
-5.8362509719873108900069919036113e-05 1:0 2:0 3:3.12819 4:1.66705 5:0.80313498 6:1.33674 7:0.122216 8:0.30505899 9:0.253995 10:1.07639 11:56.850101 12:77.770897 13:0.444444 14:0.97092098 15:0.90345103 16:15.8789 17:1 18:93 19:3 20:155.66701 #
-5.8362509719873108900069919036113e-05 1:0 2:0 3:2.4939699 4:0.43920201 5:0.197579 6:0.200794 7:0.206789 8:0.659805 9:0.30127701 10:0.28070101 11:28.1444 12:82.303902 13:0.33333299 14:0.75337499 15:0.87285501 16:8.1109304 17:0 18:0 19:-1 20:-240 #
-5.8362509719873108900069919036113e-05 1:0 2:0 3:1.5641201 4:0.31448299 5:0.466398 6:0.60293102 7:0.56359601 8:0.61484098 9:0.55157101 10:0.55157101 11:43.612999 12:89.114601 13:0.33333299 14:0.82517499 15:0.86216497 16:12.3918 17:0 18:0 19:6 20:222 #
5.8362509719873108900069919036113e-05 1:-3 2:-16 3:5.11169 4:0.51624101 5:0.63210702 6:0.73851001 7:0.462749 8:0.46526 9:0.96849799 10:0.097976997 11:18.7477 12:58.594501 13:0.66666698 14:0.63609898 15:0.95985699 16:5.43329 17:-3 18:-16 19:-4 20:-77 #
-5.8362509719873108900069919036113e-05 1:1 2:16 3:2.30265 4:0.924959 5:0.60834801 6:1.36071 7:2.03228 8:0.69492698 9:1.71297 10:1.1107301 11:56.740002 12:30.6084 13:0.66666698 14:0.77311897 15:0.80225801 16:15.8507 17:1 18:16 19:-3 20:-243 #
5.8362509719873108900069919036113e-05 1:0 2:0 3:1.4491301 4:0.45456299 5:0.78845501 6:0.34339899 7:0.18298499 8:0.23627201 9:0.28777599 10:0.17628001 11:20.741699 12:72.780899 13:0.444444 14:0.78504199 15:0.89970601 16:6.0051398 17:0 18:0 19:9 20:103.15 #
-5.8362509719873108900069919036113e-05 1:0 2:0 3:1.40011 4:1.27315 5:0.67217302 6:0.29711601 7:0.176232 8:0.256614 9:0.20951501 10:0.20951501 11:21.8797 12:81.090599 13:0.66666698 14:0.80386502 15:0.87598997 16:6.3307199 17:0 18:0 19:2 20:256 #
5.8362509719873108900069919036113e-05 1:5 2:9.3333302 3:1.43167 4:0.509745 5:0.38656199 6:0.121489 7:0.16561 8:0.410604 9:0.27204901 10:0.319666 11:33.787899 12:81.749901 13:0.33333299 14:0.74805701 15:0.89501899 16:9.6940098 17:5 18:9.3333302 19:4 20:-111.667 #
-5.8362509719873108900069919036113e-05 1:0 2:0 3:2.5255001 4:0.114691 5:0.50931001 6:0.074094199 7:0.325663 8:0.46766099 9:0.121036 10:0.077263802 11:11.1339 12:82.391998 13:1 14:0.95428199 15:0.94284898 16:3.2360599 17:0 18:0 19:3 20:250 #
5.8362509719873108900069919036113e-05 1:2 2:35.333302 3:2.17241 4:2.2112501 5:1.07476 6:0.82501602 7:0.426649 8:0.353818 9:0.30068499 10:0.34220201 11:32.3284 12:77.907997 13:0.33333299 14:0.75187701 15:0.86986798 16:9.2867098 17:2 18:35.333302 19:3 20:93 #
5.8362509719873108900069919036113e-05 1:0 2:0 3:2.3854499 4:0.261554 5:0.216713 6:0.559232 7:0.46103501 8:0.20431399 9:0.28289199 10:0.196374 11:25.566 12:77.406197 13:0.33333299 14:0.75758201 15:0.92369801 16:7.3808899 17:0 18:0 19:-1 20:-104 #
-5.7501140269783422662858152207832e-05 1:5 2:20.799999 3:1.51245 4:0.18112899 5:0.305563 6:0.27751601 7:0.29479399 8:1.20516 9:0.41871801 10:0.25909501 11:26.392599 12:71.6231 13:1 14:0.86742502 15:0.87341201 16:7.6153402 17:5 18:20.799999 19:2 20:-232.867 #
5.8362509719873108900069919036113e-05 1:-2 2:-13.4375 3:5.2891998 4:0.14304 5:0.378759 6:0.168704 7:0.407756 8:0.67375898 9:0.14573 10:0.14573 11:23.6738 12:88.230698 13:0.66666698 14:0.98046899 15:0.948897 16:6.8427 17:-2 18:-13.4375 19:-1 20:90.270798 #
-5.8362509719873108900069919036113e-05 1:0 2:0 3:1.36762 4:0.194557 5:0.66626197 6:0.272277 7:0.14052001 8:1.06481 9:0.101533 10:0.101533 11:17.691099 12:73.554604 13:0.444444 14:0.949431 15:0.95221001 16:5.12959 17:0 18:0 19:-1 20:-237.5 #
-5.8362509719873108900069919036113e-05 1:0 2:0 3:1.11217 4:5.2927499 5:0.51383299 6:0.539406 7:0.47765401 8:1.03606 9:0.776784 10:1.3607399 11:58.467899 12:59.6133 13:0.66666698 14:0.81701499 15:0.82248598 16:16.2915 17:0 18:0 19:1 20:263 #
-5.8344278193668943147121019876522e-05 1:0 2:0 3:1.49474 4:0.82627898 5:0.880099 6:1.1644 7:0.093548097 8:0.35591799 9:0.096925303 10:0.096925303 11:13.4376 12:88.820396 13:0.66666698 14:0.93466902 15:0.93210799 16:3.9028299 17:0 18:0 19:4 20:242.375 #
5.8362509719873108900069919036113e-05 1:-1 2:-13 3:1.9849401 4:0.87183702 5:0.41959 6:0.29716 7:0.062115502 8:0.14652 9:0.21864399 10:0.18295901 11:27.4443 12:66.038002 13:0.444444 14:0.91183501 15:0.952443 16:7.9130802 17:0 18:62 19:0 20:62 #
5.8362509719873108900069919036113e-05 1:1 2:22 3:1.58727 4:1.03992 5:1.78423 6:0.54861099 7:0.212308 8:0.68698502 9:0.28679201 10:0.097225003 11:15.6772 12:80.088501 13:0.33333299 14:0.805695 15:0.94516802 16:4.5495501 17:1 18:22 19:2 20:84 #
5.8362509719873108900069919036113e-05 1:0 2:-2 3:2.0017099 4:0.33150399 5:0.98108798 6:0.37640399 7:0.151832 8:0.776115 9:0.29751 10:0.55562299 11:46.3283 12:71.608398 13:0.66666698 14:0.83071202 15:0.95212197 16:13.1221 17:0 18:-2 19:-1 20:-73.208298 #
5.8362509719873108900069919036113e-05 1:2 2:14 3:1.8751301 4:0.21293899 5:0.47352201 6:0.27838001 7:0.126265 8:1.05987 9:0.386738 10:0.35401899 11:35.021801 12:88.074997 13:1 14:0.83153301 15:0.902022 16:10.0372 17:2 18:14 19:3 20:79.3125 #
-5.833664206886283808790524818555e-05 1:4 2:16.5781 3:2.1134901 4:0.21378601 5:0.52322698 6:0.24073499 7:0.20772 8:1.3528 9:0.24040499 10:0.164534 11:26.4692 12:81.484497 13:1 14:0.993415 15:0.96089602 16:7.6370401 17:4 18:16.5781 19:3 20:-226.60899 #
5.8362509719873108900069919036113e-05 1:1 2:5.5 3:1.46503 4:0.21483099 5:0.49259299 6:0.276077 7:0.104381 8:2.2347701 9:0.158629 10:0.158629 11:21.600599 12:71.772797 13:0.444444 14:0.91422898 15:0.925035 16:6.2509198 17:1 18:5.5 19:2 20:75.833298 #
-5.8362509719873108900069919036113e-05 1:1 2:34 3:4.5251598 4:0.378241 5:0.125798 6:0.322303 7:0.087516896 8:1.0724 9:0.196621 10:0.130252 11:10.298 12:82.781197 13:0.444444 14:0.83950698 15:0.88578099 16:2.9937999 17:1 18:34 19:0 20:-212 #
5.8362509719873108900069919036113e-05 1:3 2:29 3:1.6948 4:0.30735299 5:0.87523502 6:0.22434901 7:0.36609599 8:0.191725 9:0.32880601 10:0.32880601 11:37.249298 12:68.7994 13:0.166667 14:0.96049899 15:0.96169502 16:10.6536 17:6 18:59.166698 19:6 20:59.166698 #
-5.8362509719873108900069919036113e-05 1:0 2:0 3:2.4384699 4:0.47290999 5:0.179713 6:0.29725099 7:0.14031 8:0.33446199 9:0.18744899 10:0.117641 11:19.0599 12:77.760201 13:0.444444 14:0.96928501 15:0.94624299 16:5.5229301 17:1 18:90 19:5 20:109.4 #
-5.8362509719873108900069919036113e-05 1:0 2:0 3:3.5495701 4:0.367897 5:0.38375801 6:0.21821301 7:0.46728101 8:0.350584 9:0.2238 10:0.24304099 11:32.230598 12:78.910797 13:0.66666698 14:0.93288898 15:0.96232498 16:9.2593498 17:-1 18:-90 19:-2 20:104.667 #
5.8362509719873108900069919036113e-05 1:3 2:20.8333 3:4.6331701 4:0.160229 5:0.358116 6:0.21439201 7:0.25503701 8:0.105739 9:0.23159 10:0.171029 11:28.667601 12:88.166496 13:0.66666698 14:0.99862701 15:0.97726601 16:8.2585897 17:7 18:55.0714 19:6 20:-86.428596 #
-5.8362509719873108900069919036113e-05 1:4 2:27.5 3:1.36465 4:0.30045399 5:0.577416 6:0.149912 7:0.247455 8:0.28128001 9:0.283871 10:0.112806 11:16.467699 12:59.179401 13:1 14:0.94207299 15:0.93536699 16:4.77738 17:4 18:27.5 19:2 20:-223.5 #
-5.8362509719873108900069919036113e-05 1:1 2:14 3:6.1704202 4:0.82114899 5:0.39488599 6:0.17986999 7:0.177625 8:0.41004699 9:0.202557 10:0.205036 11:31.6327 12:67.821503 13:0.33333299 14:0.942545 15:0.98338699 16:9.0920095 17:2 18:54 19:1 20:-210 #
5.8362509719873108900069919036113e-05 1:0 2:-2 3:1.11326 4:0.50526398 5:0.27051699 6:0.263338 7:0.78193903 8:0.76710701 9:0.54374701 10:0.68080801 11:42.041302 12:83.1763 13:1 14:0.74610901 15:0.71312499 16:11.9658 17:-1 18:-41 19:-1 20:-41 #
-5.8362509719873108900069919036113e-05 1:0 2:0 3:2.5803101 4:0.0420372 5:0.21572401 6:0.098538198 7:0.14676499 8:0.60155201 9:0.189566 10:0.081251599 11:11.973 12:82.128403 13:1 14:0.84836102 15:0.94165301 16:3.47909 17:-1 18:-62 19:4 20:101.2 #
5.8362509719873108900069919036113e-05 1:3 2:-0.5 3:3.0041299 4:0.73100501 5:0.36945999 6:0.323356 7:0.20267899 8:0.49178299 9:0.152731 10:0.21026599 11:30.9779 12:88.906502 13:0.66666698 14:0.96084398 15:0.97196901 16:8.9084702 17:6 18:24.8571 19:5 20:-97.142899 #
-5.8362509719873108900069919036113e-05 1:7 2:31.7143 3:2.9009199 4:0.081182502 5:0.158949 6:0.098306701 7:0.25852299 8:0.21309499 9:0.205441 10:0.247932 11:33.197399 12:64.254601 13:0.444444 14:0.94295698 15:0.97102302 16:9.5294104 17:7 18:31.7143 19:7 20:31.7143 #
5.8362509719873108900069919036113e-05 1:5 2:19.6 3:2.27614 4:0.112664 5:0.483082 6:0.20371599 7:0.81931198 8:1.11446 9:0.25975901 10:0.25975901 11:31.035101 12:61.1245 13:1 14:0.95508403 15:0.935197 16:8.92451 17:5 18:19.6 19:6 20:65 #
5.8362509719873108900069919036113e-05 1:4 2:-43.599998 3:2.3366499 4:0.238536 5:0.38177201 6:0.40113601 7:0.31573799 8:1.09135 9:0.38608301 10:0.38608301 11:37.117298 12:85.922203 13:0.66666698 14:0.83609599 15:0.90355599 16:10.6172 17:4 18:-43.599998 19:4 20:-64.166702 #
-1.2018469672803178127651335671544e-05 1:3 2:3.5 3:3.0873899 4:0.14244699 5:0.332533 6:0.272497 7:0.197485 8:0.169688 9:0.23419701 10:0.14110599 11:23.834 12:80.791397 13:0.444444 14:0.84805 15:0.95886898 16:6.88835 17:3 18:3.5 19:1 20:-143.16701 #
-5.8362509719873108900069919036113e-05 1:-1 2:-52 3:1.63334 4:0.49910599 5:0.96541798 6:0.356583 7:0.177468 8:0.97588801 9:0.1573 10:0.153598 11:15.5061 12:74.902496 13:0.444444 14:0.95051402 15:0.88830298 16:4.5001702 17:-1 18:-52 19:-3 20:-194 #
-5.8362509719873108900069919036113e-05 1:3 2:19.5 3:3.0752699 4:0.182869 5:2.1079099 6:0.16732299 7:0.33655801 8:0.648296 9:0.36346099 10:0.60273403 11:47.408298 12:84.457298 13:0.444444 14:0.92049003 15:0.88540399 16:13.4106 17:3 18:19.5 19:5 20:101.333 #
5.8362509719873108900069919036113e-05 1:0 2:-6.6666698 3:2.6603799 4:0.31808099 5:0.343775 6:0.234722 7:0.47423401 8:0.35652599 9:0.096423797 10:0.096423797 11:19.006901 12:84.296303 13:0.66666698 14:0.96331799 15:0.96366298 16:5.50772 17:0 18:-6.6666698 19:-2 20:-91.466698 #
-5.8362509719873108900069919036113e-05 1:0 2:0 3:1.55081 4:0.63379902 5:4.1181598 6:0.83932799 7:0.319318 8:0.29036301 9:0.354303 10:0.30156001 11:25.535299 12:79.579102 13:0.33333299 14:0.70236099 15:0.83092898 16:7.37217 17:0 18:0 19:-1 20:-230 #
5.8362509719873108900069919036113e-05 1:-1 2:-3 3:2.46769 4:0.99387401 5:2.7119501 6:0.63042301 7:0.216282 8:0.40169999 9:0.28286001 10:0.17553601 11:28.278999 12:62.4646 13:0.444444 14:0.94032103 15:0.97383499 16:8.1489296 17:2 18:56 19:2 20:56 #
-5.8195741344152984372839476634454e-05 1:0 2:0 3:1.09307 4:0.40368 5:0.26426601 6:0.091651499 7:0.33221 8:0.914271 9:0.047332201 10:0.047332201 11:11.8562 12:89.6604 13:1 14:0.95515698 15:0.97515601 16:3.4452901 17:1 18:96 19:1 20:96 #
5.8362509719873108900069919036113e-05 1:4 2:23.25 3:3.0133901 4:0.72255498 5:0.26538801 6:0.33878699 7:0.13180099 8:0.45026699 9:0.25889701 10:0.0860174 11:19.589399 12:75.587601 13:0.166667 14:0.88812101 15:0.97777998 16:5.67489 17:3 18:-12.625 19:2 20:-93.916702 #
-5.8362509719873108900069919036113e-05 1:0 2:0 3:2.31739 4:0.50313902 5:0.10238 6:0.093082599 7:0.17431 8:0.62159997 9:0.0970558 10:0.095467597 11:21.8284 12:73.241699 13:0.66666698 14:0.98515499 15:0.98622 16:6.3160601 17:-1 18:-97.5 19:-3 20:-153.16701 #
-5.8362509719873108900069919036113e-05 1:0 2:0 3:1.92945 4:0.74128699 5:0.209354 6:0.242819 7:0.22364201 8:0.64319998 9:0.116233 10:0.077007197 11:12.3732 12:78.163803 13:0.66666698 14:0.88119298 15:0.94803298 16:3.59495 17:-1 18:-100 19:-2 20:-138 #
5.8362509719873108900069919036113e-05 1:0 2:2 3:1.55331 4:0.903054 5:0.92843199 6:0.30616501 7:0.40221199 8:0.42596 9:0.337264 10:0.27642301 11:34.972 12:89.854797 13:0.444444 14:0.813999 15:0.96321303 16:10.0233 17:1 18:37.5 19:-1 20:-55.166698 #
-5.8362509719873108900069919036113e-05 1:0 2:0 3:1.2852499 4:1.60963 5:0.77940798 6:0.18436299 7:0.17071401 8:0.26223999 9:0.20068701 10:0.15267 11:24.4111 12:70.827698 13:0.33333299 14:0.82259601 15:0.95371401 16:7.05264 17:1 18:98 19:1 20:98 #
-5.8362509719873108900069919036113e-05 1:0 2:0 3:2.2044499 4:0.76562798 5:0.56409401 6:3.35272 7:0.40573299 8:1.40897 9:1.09684 10:1.56487 11:76.647697 12:66.2658 13:1 14:0.83956701 15:0.70149702 16:20.685801 17:4 18:76 19:0 20:-175.75 #
5.8362509719873108900069919036113e-05 1:-2 2:-31.375 3:1.6676199 4:1.13587 5:0.353769 6:0.62990999 7:0.108904 8:0.53320301 9:0.37898999 10:0.25646099 11:18.424299 12:79.358803 13:0.33333299 14:0.77602899 15:0.80524999 16:5.3403702 17:-2 18:-31.375 19:-2 20:-31.375 #
5.8362509719873108900069919036113e-05 1:4 2:28.5312 3:4.3470201 4:0.26565501 5:0.41774699 6:0.240004 7:0.23185501 8:1.03084 9:0.2606 10:0.2606 11:35.0476 12:81.860802 13:1 14:0.97930402 15:0.985901 16:10.0443 17:4 18:28.5312 19:3 20:-85.968803 #
-5.8362509719873108900069919036113e-05 1:0 2:0 3:1.5124 4:0.30972099 5:2.1019199 6:0.26655099 7:0.73492301 8:1.22216 9:0.34730199 10:0.34730199 11:34.905899 12:57.431801 13:0.66666698 14:0.87463701 15:0.909486 16:10.005 17:-1 18:-90 19:-1 20:96 #
-5.8362509719873108900069919036113e-05 1:3 2:10.9167 3:2.6459401 4:0.283158 5:0.371914 6:0.239043 7:0.164736 8:0.537229 9:0.26381201 10:0.16671699 11:25.7656 12:87.805496 13:0.66666698 14:0.92929602 15:0.949884 16:7.43751 17:7 18:49.607101 19:4 20:-203.726 #
5.8362509719873108900069919036113e-05 1:0 2:0 3:1.29796 4:2.23194 5:0.79490602 6:0.57913703 7:0.20292599 8:0.32569501 9:0.643399 10:0.220718 11:22.510201 12:54.286999 13:0.33333299 14:0.761648 15:0.875696 16:6.5108399 17:0 18:0 19:0 20:-28 #
-5.8362509719873108900069919036113e-05 1:0 2:0 3:1.4237601 4:3.53196 5:0.22876801 6:0.21504501 7:0.13818701 8:0.37172699 9:0.27215201 10:0.19317999 11:13.2025 12:88.753601 13:0.444444 14:0.88018101 15:0.839634 16:3.8348501 17:0 18:0 19:1 20:111 #
5.8362509719873108900069919036113e-05 1:2 2:10.375 3:4.2245302 4:0.22177599 5:0.328962 6:0.243544 7:0.56145799 8:1.9945101 9:0.225493 10:0.349121 11:39.2729 12:70.107597 13:0.66666698 14:0.98824698 15:0.98051101 16:11.2101 17:2 18:10.375 19:1 20:-78.093803 #
5.8362509719873108900069919036113e-05 1:2 2:21.3125 3:1.16484 4:3.64938 5:1.40618 6:0.258701 7:0.276779 8:0.16183101 9:1.75448 10:0.260254 11:21.934099 12:48.030998 13:0.33333299 14:0.71811002 15:0.829795 16:6.3462801 17:2 18:8.8833303 19:1 20:-33.075001 #
5.8362509719873108900069919036113e-05 1:-2 2:-26.6667 3:1.3513401 4:0.352716 5:0.74906701 6:0.29170999 7:0.73003697 8:0.808837 9:0.34232599 10:0.34232599 11:34.628201 12:77.316498 13:1 14:0.911506 15:0.88751298 16:9.9278097 17:-2 18:-26.6667 19:-2 20:-26.6667 #
-5.8362509719873108900069919036113e-05 1:-1 2:-30 3:1.09723 4:0.80821598 5:2.5164599 6:1.02405 7:0.57401597 8:0.31423599 9:0.58202201 10:0.087457597 11:13.1458 12:60.107899 13:0.166667 14:0.843826 15:0.94208598 16:3.81845 17:-1 18:-30 19:3 20:94 #
5.8362509719873108900069919036113e-05 1:2 2:43.5 3:1.55288 4:1.54044 5:1.41228 6:0.52597398 7:0.28624901 8:0.42717999 9:0.147385 10:0.147385 11:13.9539 12:77.530998 13:0.66666698 14:0.84966302 15:0.88661897 16:4.0520701 17:2 18:43.5 19:1 20:-51.666698 #
-5.8362509719873108900069919036113e-05 1:1 2:56 3:1.62459 4:3.2699599 5:1.62372 6:0.84671599 7:0.307266 8:0.284805 9:0.55801201 10:0.52836603 11:37.439701 12:72.345596 13:0.33333299 14:0.53197497 15:0.73922598 16:10.7061 17:1 18:56 19:1 20:-209 #
-5.8362509719873108900069919036113e-05 1:-1 2:-59 3:1.76433 4:1.11762 5:0.220825 6:0.158237 7:0.31044599 8:0.35905099 9:0.130456 10:0.102026 11:21.0767 12:72.6241 13:0.66666698 14:0.96333897 15:0.97460699 16:6.1010699 17:-1 18:-59 19:-2 20:-170.5 #
5.8362509719873108900069919036113e-05 1:-2 2:-10.5 3:1.60361 4:0.206075 5:0.37406299 6:0.21726701 7:0.50536102 8:0.17065801 9:0.297362 10:0.297362 11:36.4156 12:83.252998 13:0.66666698 14:0.98813599 15:0.96795398 16:10.4233 17:-2 18:-10.5 19:-3 20:-75.166702 #
-5.8362509719873108900069919036113e-05 1:1 2:60 3:1.7466 4:0.25005099 5:1.86151 6:0.53030401 7:0.090343297 8:0.40464699 9:0.12587699 10:0.12587699 11:7.4583001 12:82.655197 13:0.444444 14:0.94454199 15:0.88426602 16:2.1696401 17:2 18:74 19:2 20:74 #
-5.8362509719873108900069919036113e-05 1:0 2:0 3:2.4268301 4:0.68184602 5:0.62174398 6:0.93407398 7:0.56323802 8:0.64258999 9:1.49696 10:1.49696 11:69.094597 12:56.495701 13:0.444444 14:0.71215397 15:0.72548801 16:18.9172 17:0 18:0 19:-1 20:-234 #
5.8362509719873108900069919036113e-05 1:1 2:16 3:2.08021 4:0.62307602 5:0.35901099 6:1.1057301 7:0.182621 8:0.27978599 9:0.181269 10:0.24146 11:31.614401 12:88.732002 13:0.444444 14:0.93296301 15:0.95234001 16:9.0869102 17:3 18:43 19:2 20:-40 #
-5.8362509719873108900069919036113e-05 1:1 2:4 3:1.3265001 4:1.36342 5:0.64735699 6:0.96275598 7:0.22250199 8:0.27705801 9:0.36222899 10:0.25378799 11:18.4529 12:79.844002 13:0.33333299 14:0.85424203 15:0.80554301 16:5.3485899 17:1 18:4 19:2 20:114 #
5.8362509719873108900069919036113e-05 1:2 2:20 3:1.4677401 4:0.51557302 5:0.91032302 6:1.09093 7:0.69953102 8:0.44498599 9:0.31226701 10:0.31226701 11:35.180199 12:85.022003 13:0.166667 14:0.930224 15:0.93074203 16:10.0811 17:1 18:-5 19:0 20:-76.666702 #
-5.8362509719873108900069919036113e-05 1:0 2:0 3:1.8331701 4:0.60520297 5:0.26485699 6:0.215854 7:0.198835 8:0.52370799 9:0.37526399 10:0.219723 11:24.020201 12:83.204803 13:0.444444 14:0.67233598 15:0.88465703 16:6.94137 17:0 18:0 19:-1 20:-224 #
5.8362509719873108900069919036113e-05 1:1 2:-9 3:1.5274 4:0.200185 5:0.67838597 6:0.28494099 7:0.110806 8:0.166526 9:0.192129 10:0.084918901 11:21.5152 12:81.068001 13:0.66666698 14:0.96921301 15:0.99318898 16:6.2265 17:2 18:10 19:1 20:-37 #
-5.8362509719873108900069919036113e-05 1:1 2:8 3:1.65597 4:1.96608 5:0.24843 6:0.058275901 7:0.037554599 8:0.22113401 9:0.047093298 10:0.047093298 11:7.09058 12:82.9235 13:0.444444 14:0.97731698 15:0.96113998 16:2.0628099 17:3 18:58.666698 19:6 20:98.666702 #
5.8362509719873108900069919036113e-05 1:1 2:0.1875 3:1.12488 4:0.21129601 5:0.64685398 6:0.130142 7:0.209297 8:0.649629 9:0.116169 10:0.116169 11:17.671101 12:78.024696 13:1 14:0.972938 15:0.93684298 16:5.1238298 17:1 18:0.1875 19:-1 20:-77.229202 #
-5.8362509719873108900069919036113e-05 1:0 2:0 3:1.69156 4:0.66846699 5:1.16768 6:0.22434001 7:0.36406499 8:0.45482501 9:0.39688501 10:0.39688501 11:35.8685 12:70.178703 13:0.66666698 14:0.85332501 15:0.86426198 16:10.2719 17:0 18:0 19:-1 20:-230 #
5.8362509719873108900069919036113e-05 1:7 2:38 3:6.3631501 4:0.393628 5:0.22876801 6:0.248346 7:0.129875 8:0.441282 9:0.181447 10:0.23445199 11:33.185902 12:81.8806 13:0.66666698 14:0.97628897 15:0.97929001 16:9.5262003 17:11 18:55.818199 19:11 20:-44.333302 #
-5.8362509719873108900069919036113e-05 1:0 2:44.5 3:2.2153699 4:0.77896398 5:1.11025 6:1.79985 7:0.55164301 8:1.25515 9:0.78371501 10:0.728962 11:48.427399 12:75.411102 13:0.444444 14:0.69535899 15:0.69702601 16:13.6817 17:2 18:54.5 19:7 20:96.550003 #
5.8362509719873108900069919036113e-05 1:-2 2:-11.3333 3:4.9943099 4:0.37642401 5:2.01262 6:0.73820001 7:0.199645 8:0.095075898 9:0.223391 10:0.178583 11:27.5488 12:81.408302 13:0.33333299 14:0.930511 15:0.95711797 16:7.9426498 17:-2 18:-11.3333 19:-3 20:-64.5 #
5.8362509719873108900069919036113e-05 1:2 2:20.6667 3:3.8954599 4:0.16680799 5:0.423933 6:0.27311501 7:0.38056901 8:0.82458198 9:0.430168 10:0.30979601 11:35.559299 12:84.729401 13:0.66666698 14:0.90194702 15:0.938407 16:10.1863 17:3 18:36.5 19:2 20:-45.5 #
-5.8362509719873108900069919036113e-05 1:3 2:30 3:5.4303699 4:0.25024799 5:0.32427901 6:0.308826 7:0.149132 8:0.216631 9:0.119936 10:0.076643698 11:19.437201 12:84.324997 13:0.444444 14:0.99281198 15:0.98563999 16:5.6312299 17:3 18:30 19:4 20:92 #
5.8362509719873108900069919036113e-05 1:1 2:-3 3:1.85297 4:0.50481999 5:0.37460399 6:0.297737 7:0.136584 8:0.37256601 9:0.120438 10:0.079478003 11:16.4102 12:79.855202 13:0.66666698 14:0.90797901 15:0.96412802 16:4.7608199 17:5 18:41.666698 19:3 20:-64.333298 #
-5.8362509719873108900069919036113e-05 1:0 2:0 3:4.4296999 4:0.94983798 5:0.70087099 6:0.16284899 7:0.236904 8:0.26673999 9:0.25429299 10:0.18987399 11:29.3587 12:73.3041 13:0.33333299 14:0.91589898 15:0.96992898 16:8.4533596 17:0 18:0 19:-1 20:-224 #
-5.8362509719873108900069919036113e-05 1:3 2:20.3333 3:9.0474901 4:1.39974 5:0.31577501 6:0.19940799 7:0.48617101 8:0.19079299 9:0.305325 10:0.192508 11:30.5786 12:87.399101 13:0.444444 14:0.95113802 15:0.98035097 16:8.7964096 17:7 18:52.357101 19:8 20:58.4375 #
5.8362509719873108900069919036113e-05 1:4 2:35.5 3:1.24473 4:2.5992401 5:0.746454 6:0.38172099 7:0.18101799 8:0.20662799 9:0.260564 10:0.260564 11:24.690599 12:65.4412 13:0.444444 14:0.89642 15:0.86363399 16:7.1321502 17:5 18:-34 19:5 20:-34 #
5.8362509719873108900069919036113e-05 1:3 2:29.5 3:1.8411 4:0.83174199 5:0.83976799 6:0.61692101 7:0.459382 8:0.52487099 9:0.59327501 10:0.14603899 11:5.81989 12:88.687302 13:0.444444 14:0.78937799 15:0.86000299 16:1.69349 17:3 18:29.5 19:2 20:-41.5 #
5.8362509719873108900069919036113e-05 1:0 2:0 3:2.7428 4:0.134562 5:0.22982299 6:0.37356001 7:0.40018299 8:0.41133201 9:0.251912 10:0.251912 11:30.756599 12:85.840302 13:0.33333299 14:0.90592599 15:0.92591298 16:8.8463697 17:0 18:0 19:6 20:-74.285698 #
-4.651931625555481809256713754408e-05 1:5 2:27.4 3:1.30011 4:0.48528799 5:0.889691 6:0.233575 7:0.216261 8:1.31207 9:0.25477201 10:0.25477201 11:6.3053999 12:87.7994 13:0.66666698 14:0.82340002 15:0.75119102 16:1.83463 17:4 18:-33.599998 19:3 20:-123.6 #
5.8362509719873108900069919036113e-05 1:3 2:18.200001 3:1.4879 4:0.472725 5:1.76359 6:0.57709903 7:0.499984 8:0.39148 9:0.34396601 10:0.86843801 11:49.929798 12:80.615196 13:0.33333299 14:0.65824503 15:0.79547697 16:14.0794 17:4 18:23.6667 19:3 20:-66.666702 #
5.8362509719873108900069919036113e-05 1:4 2:-7.5999999 3:3.3318 4:0.38391101 5:0.66329998 6:0.123657 7:0.080561303 8:0.189827 9:0.184799 10:0.163417 11:27.097601 12:84.684303 13:0.444444 14:0.98941398 15:0.96623498 16:7.8150001 17:4 18:-7.5999999 19:5 20:-73.642899 #
5.8362509719873108900069919036113e-05 1:2 2:33.333302 3:3.2997899 4:0.415277 5:0.45199001 6:0.51244098 7:0.300834 8:0.680915 9:0.37342101 10:0.28461599 11:28.4646 12:68.667 13:0.33333299 14:0.83028799 15:0.86847299 16:8.2013197 17:3 18:3.5999999 19:2 20:-63.5 #
-5.8362509719873108900069919036113e-05 1:0 2:0 3:2.3180301 4:0.24413399 5:0.236279 6:0.209095 7:0.227259 8:0.80674499 9:0.20821901 10:0.158819 11:21.052099 12:80.148903 13:0.66666698 14:0.89414299 15:0.91988403 16:6.0940099 17:-1 18:-64 19:3 20:53.5 #
-4.9665071661272503530763777757073e-05 1:4 2:47 3:3.5341899 4:2.7093301 5:2.64484 6:0.78857601 7:0.551925 8:0.135736 9:0.60631502 10:4.3069701 11:85.707298 12:82.689697 13:0.166667 14:0.80245101 15:0.836721 16:22.688101 17:4 18:47 19:2 20:-173 #
5.8362509719873108900069919036113e-05 1:1 2:1.58333 3:1.26114 4:0.179028 5:0.83807403 6:0.28097901 7:0.60352498 8:0.52429599 9:0.26535299 10:0.122096 11:19.0861 12:85.087997 13:0.33333299 14:0.912552 15:0.94116801 16:5.5304499 17:1 18:1.58333 19:0 20:-63.083302 #
-5.8362509719873108900069919036113e-05 1:-1 2:-32 3:1.09743 4:0.52000302 5:1.0892299 6:0.153051 7:0.30225199 8:0.284338 9:0.23763201 10:0.073576897 11:7.9787998 12:78.371201 13:0.33333299 14:0.83403301 15:0.93677598 16:2.3208201 17:-1 18:-32 19:-1 20:64 #
5.8362509719873108900069919036113e-05 1:2 2:25.25 3:5.7481699 4:0.119628 5:2.84583 6:0.20117299 7:0.35408801 8:0.43043399 9:0.25215501 10:0.21225201 11:26.527901 12:85.261803 13:0.66666698 14:0.97365898 15:0.914316 16:7.6536899 17:4 18:40.833302 19:2 20:-58.416698 #
5.8362509719873108900069919036113e-05 1:3 2:8.5 3:1.12906 4:0.118005 5:0.36520299 6:0.204761 7:0.24940901 8:0.059239998 9:0.19673599 10:0.171358 11:28.206301 12:83.869202 13:0.66666698 14:0.98843497 15:0.97006202 16:8.1284103 17:4 18:-16.8333 19:2 20:-70.083298 #
5.8362509719873108900069919036113e-05 1:6 2:9.1428604 3:1.72399 4:0.0944032 5:0.72750902 6:0.195996 7:0.27231899 8:0.30162001 9:0.238708 10:0.238708 11:20.044399 12:79.579697 13:0.444444 14:0.82948202 15:0.830944 16:5.8053699 17:10 18:23.6364 19:9 20:-48.363602 #
-5.8362509719873108900069919036113e-05 1:0 2:0 3:1.5043499 4:0.25049499 5:0.38457799 6:0.322808 7:0.190321 8:0.50313503 9:0.166132 10:0.144033 11:24.1723 12:89.553902 13:0.444444 14:0.967085 15:0.958143 16:6.9846702 17:0 18:0 19:5 20:243.8 #
-4.2670238962324913206333731885422e-07 1:2 2:-4 3:1.6435601 4:0.86848801 5:0.54299402 6:0.306804 7:0.575073 8:0.134075 9:0.301415 10:0.70208299 11:47.655602 12:81.636803 13:0.33333299 14:0.85389602 15:0.90594202 16:13.4765 17:2 18:-4 19:2 20:-4 #
-5.8362509719873108900069919036113e-05 1:0 2:0 3:1.1831501 4:0.52650702 5:0.302468 6:0.30524001 7:0.39709499 8:1.22286 9:0.44018701 10:0.337596 11:26.5193 12:89.904297 13:1 14:0.87792599 15:0.80576497 16:7.6512399 17:1 18:94 19:1 20:-16.6667 #
5.8362509719873108900069919036113e-05 1:2 2:-23.6562 3:2.2077301 4:1.34466 5:1.6777 6:1.27974 7:0.46923399 8:0.42768601 9:4.9482002 10:4.9482002 11:80.225502 12:30.589001 13:0.166667 14:0.92543697 15:0.85774797 16:21.492701 17:4 18:-7.6041698 19:4 20:-7.6041698 #
-3.7070820280292911535081207263786e-05 1:0 2:52 3:3.57727 4:1.19059 5:0.52323997 6:0.64982802 7:1.21921 8:0.387319 9:0.679667 10:0.93334001 11:54.286598 12:86.686096 13:0.33333299 14:0.80196297 15:0.88009101 16:15.2187 17:1 18:55 19:-1 20:-99.666702 #
5.8362509719873108900069919036113e-05 1:0 2:0 3:2.53879 4:1.18659 5:0.45038301 6:0.47798899 7:0.56741297 8:0.573098 9:0.43329301 10:0.43329301 11:40.733501 12:73.963097 13:0.444444 14:0.91321301 15:0.93145198 16:11.6097 17:3 18:74 19:9 20:-35.636398 #
-5.8362509719873108900069919036113e-05 1:0 2:0 3:1.07741 4:0.161429 5:0.23204 6:0.163362 7:0.21061601 8:0.979527 9:0.24763501 10:0.24763501 11:23.280899 12:66.7789 13:0.66666698 14:0.92940199 15:0.86398602 16:6.7307401 17:1 18:100 19:0 20:-123.5 #
5.8362509719873108900069919036113e-05 1:0 2:0 3:2.45596 4:2.1983299 5:1.2514499 6:0.90383798 7:0.23463701 8:0.58822101 9:0.205642 10:0.205642 11:24.7285 12:71.429199 13:0.33333299 14:0.85266399 15:0.90653402 16:7.14293 17:-2 18:-73.5 19:-2 20:21.200001 #
5.8362509719873108900069919036113e-05 1:2 2:8.3333302 3:2.49491 4:1.00902 5:0.81186903 6:0.484191 7:0.25119799 8:0.30688199 9:0.275089 10:0.17240401 11:28.5268 12:71.309998 13:1 14:0.91007102 15:0.97676098 16:8.2188702 17:5 18:34.166698 19:4 20:-29.3333 #
-5.8362509719873108900069919036113e-05 1:0 2:0 3:1.71995 4:0.119068 5:1.5790499 6:0.236901 7:0.34541401 8:1.27054 9:0.27256399 10:0.27256399 11:22.102699 12:68.685898 13:0.66666698 14:0.76299399 15:0.820548 16:6.3944502 17:-1 18:-96 19:-1 20:-96 #
5.8362509719873108900069919036113e-05 1:3 2:46.833302 3:1.33892 4:0.15656 5:0.66032499 6:0.51041901 7:0.452342 8:0.172234 9:0.226099 10:0.20640001 11:19.501699 12:79.129097 13:0.33333299 14:0.69492102 15:0.861624 16:5.6497302 17:4 18:50.625 19:4 20:50.625 #
-5.8362509719873108900069919036113e-05 1:0 2:0 3:2.6790099 4:0.39833099 5:0.41958699 6:0.32901701 7:0.304519 8:0.65427798 9:0.28914201 10:0.18205699 11:25.794001 12:58.989399 13:1 14:0.89966702 15:0.93575799 16:7.44559 17:1 18:96 19:4 20:122.5 #
5.8362509719873108900069919036113e-05 1:2 2:-29.5 3:1.25194 4:2.6984501 5:0.602552 6:0.59626198 7:0.37503999 8:0.208317 9:0.36473301 10:0.160127 11:18.2708 12:86.736099 13:0.33333299 14:0.71770102 15:0.90126503 16:5.2962599 17:2 18:-29.5 19:2 20:-29.5 #
-5.8362509719873108900069919036113e-05 1:2 2:13 3:1.77305 4:3.6916599 5:1.19446 6:0.297034 7:0.099439003 8:0.64060199 9:0.21772701 10:0.163288 11:22.248899 12:73.685097 13:0.66666698 14:0.88322002 15:0.92068601 16:6.4362202 17:1 18:-81 19:1 20:-118.333 #
5.8362509719873108900069919036113e-05 1:0 2:-1 3:3.0223899 4:0.346129 5:0.17225499 6:0.24576899 7:0.275502 8:0.476105 9:0.54673803 10:0.113905 11:23.2439 12:57.842499 13:0.444444 14:0.89731002 15:0.97967601 16:6.72019 17:2 18:37 19:2 20:37 #
-5.6514413929985605556174932395663e-05 1:-1 2:-4.75 3:2.49332 4:0.39743301 5:1.16704 6:0.139833 7:0.092170097 8:1.64872 9:0.15671 10:0.15671 11:14.0519 12:83.987602 13:0.66666698 14:0.911385 15:0.87544298 16:4.0803599 17:0 18:80.5 19:0 20:120.25 #
5.8362509719873108900069919036113e-05 1:1 2:8 3:1.46076 4:0.38663101 5:3.06089 6:0.295021 7:0.15702499 8:0.249189 9:0.166695 10:0.205395 11:31.2966 12:81.3685 13:0.33333299 14:0.97635698 15:0.98049402 16:8.9978399 17:3 18:-25.5 19:3 20:-25.5 #
-5.8352601488677468427081207469342e-05 1:2 2:12.125 3:2.2760799 4:0.126029 5:0.20556501 6:0.332454 7:0.426999 8:3.22013 9:0.33855399 10:1.01294 11:59.9156 12:76.889198 13:1 14:0.78819603 15:0.83425701 16:16.658001 17:1 18:-87.625 19:-1 20:-101.708 #
5.8362509719873108900069919036113e-05 1:-1 2:15 3:1.35772 4:2.10063 5:0.27313 6:0.258293 7:0.100524 8:0.123283 9:0.12508801 10:0.12508801 11:23.5266 12:74.576302 13:0.33333299 14:0.984532 15:0.97144097 16:6.8007598 17:2 18:45 19:2 20:45 #
-5.8026047058686818348825081637088e-05 1:0 2:0 3:1.7248501 4:1.4434299 5:2.54094 6:0.213782 7:0.089152001 8:1.40765 9:0.093428902 10:0.093428902 11:19.1877 12:86.773003 13:0.66666698 14:0.94682699 15:0.96840298 16:5.5596399 17:1 18:64 19:2 20:125 #
5.8362509719873108900069919036113e-05 1:0 2:0 3:1.8292201 4:0.23205601 5:0.596569 6:0.37259501 7:0.22606701 8:0.851385 9:0.426191 10:0.426191 11:41.410801 12:78.798401 13:0.66666698 14:0.95829499 15:0.94832498 16:11.7943 17:2 18:-23.6667 19:2 20:-23.6667 #
-5.8362509719873108900069919036113e-05 1:6 2:38 3:3.0367801 4:0.188912 5:0.53709501 6:0.254076 7:0.171055 8:0.31419501 9:0.23041099 10:0.15296701 11:23.4533 12:75.357002 13:0.33333299 14:0.96777499 15:0.94101602 16:6.77987 17:10 18:55.400002 19:9 20:-150.60001 #
5.8362509719873108900069919036113e-05 1:-3 2:-12.625 3:1.36906 4:0.297815 5:1.16697 6:0.33356699 7:0.412687 8:0.22163799 9:0.0849538 10:0.0849538 11:16.257999 12:74.1007 13:0.33333299 14:0.96613699 15:0.959984 16:4.71698 17:-3 18:-12.625 19:-3 20:-12.625 #
-5.8362509719873108900069919036113e-05 1:0 2:-5.5 3:1.65343 4:0.15918601 5:0.46287599 6:0.24903201 7:0.36409101 8:0.201837 9:0.323212 10:0.153954 11:25.224701 12:74.1222 13:0.444444 14:0.925363 15:0.95591301 16:7.2839398 17:2 18:49.5 19:3 20:108.5 #
-5.8362509719873108900069919036113e-05 1:0 2:-42 3:2.0903101 4:0.26334 5:0.967812 6:0.76936299 7:0.33772299 8:0.386071 9:0.22904401 10:0.29914299 11:29.983 12:81.447197 13:0.444444 14:0.88715899 15:0.86172903 16:8.6290398 17:0 18:-42 19:1 20:43.75 #
5.8362509719873108900069919036113e-05 1:2 2:19.3333 3:1.7776901 4:0.377262 5:0.22044601 6:0.43144599 7:0.197869 8:0.38351601 9:0.179427 10:0.30098599 11:35.988098 12:83.196999 13:0.33333299 14:0.884606 15:0.95289701 16:10.305 17:6 18:47.142899 19:5 20:-9.8571396 #
-5.8362509719873108900069919036113e-05 1:7 2:33.4286 3:2.70959 4:0.202314 5:0.353488 6:0.171674 7:0.326482 8:0.98339999 9:0.388401 10:0.28896099 11:31.6733 12:59.622799 13:1 14:0.87672001 15:0.90441197 16:9.1034002 17:10 18:44.799999 19:9 20:-100.2 #
5.8362509719873108900069919036113e-05 1:-2 2:-20.75 3:1.4642299 4:6.84725 5:1.79432 6:0.36953899 7:0.266812 8:0.626697 9:0.397827 10:0.240863 11:32.039001 12:84.457603 13:0.66666698 14:0.96966702 15:0.95557302 16:9.2057505 17:-2 18:-20.75 19:-2 20:-20.75 #
-5.8362509719873108900069919036113e-05 1:-1 2:-4.125 3:3.9209099 4:0.58035398 5:0.291518 6:0.139404 7:0.147113 8:0.174173 9:0.12890901 10:0.12890901 11:17.7756 12:89.651802 13:0.444444 14:0.93469 15:0.92279798 16:5.1539001 17:-3 18:-42.9375 19:-3 20:62.400002 #
5.8362509719873108900069919036113e-05 1:2 2:16.25 3:3.3179901 4:3.00721 5:0.39813 6:0.67437398 7:0.412314 8:0.44372201 9:0.37163901 10:0.37163901 11:33.008499 12:87.807999 13:1 14:0.89606398 15:0.80350602 16:9.4767103 17:3 18:23.6 19:4 20:-24.9524 #
-5.8362509719873108900069919036113e-05 1:0 2:0 3:3.78212 4:2.8045299 5:0.795313 6:1.4529999 7:0.327126 8:0.38224399 9:0.58127302 10:0.58127302 11:43.129601 12:88.883698 13:0.166667 14:0.74789101 15:0.81146699 16:12.261 17:5 18:78.400002 19:7 20:-84.75 #
5.8362509719873108900069919036113e-05 1:0 2:0 3:2.03757 4:0.341281 5:0.152234 6:0.493453 7:0.83724898 8:0.98608202 9:0.57139701 10:0.31938401 11:23.6805 12:50.726799 13:1 14:0.64685601 15:0.783113 16:6.8446202 17:0 18:0 19:0 20:0 #
-5.8362509719873108900069919036113e-05 1:1 2:6 3:3.4100599 4:3.48946 5:1.00676 6:0.143373 7:0.19082899 8:0.140394 9:0.35924101 10:0.19478901 11:28.868799 12:70.0942 13:0.444444 14:0.72914302 15:0.96125799 16:8.3153296 17:0 18:-74 19:1 20:37 #
5.8362509719873108900069919036113e-05 1:5 2:23.5714 3:2.48087 4:0.80305701 5:0.25469899 6:0.47392699 7:0.162863 8:0.60079801 9:0.18084601 10:0.28499699 11:33.9007 12:68.389503 13:0.66666698 14:0.91805702 15:0.95399499 16:9.72542 17:5 18:23.5714 19:4 20:-8.0952396 #
-5.8362509719873108900069919036113e-05 1:4 2:34.75 3:2.29088 4:0.36978501 5:0.48166901 6:1.33286 7:0.25356299 8:0.31673899 9:0.42812899 10:0.42120999 11:40.269199 12:52.172001 13:0.444444 14:0.95736599 15:0.93276203 16:11.4829 17:4 18:34.75 19:4 20:34.75 #
5.8362509719873108900069919036113e-05 1:-2 2:-13 3:1.16913 4:0.93129098 5:1.91417 6:0.29652801 7:0.249136 8:0.58348799 9:0.32020801 10:0.194479 11:17.1931 12:73.872498 13:0.444444 14:0.82845801 15:0.85837197 16:4.98629 17:-2 18:-13 19:-2 20:-13 #
5.8362509719873108900069919036113e-05 1:3 2:22.5 3:2.04533 4:0.897358 5:1.79498 6:1.13748 7:0.216103 8:0.53934699 9:0.38633201 10:0.38891 11:34.638199 12:69.391701 13:0.444444 14:0.90490103 15:0.84132802 16:9.9306002 17:7 18:56.642899 19:7 20:56.642899 #
-5.8362509719873108900069919036113e-05 1:0 2:0 3:1.59505 4:0.466575 5:0.89514399 6:0.545735 7:0.14976101 8:0.19183201 9:0.230067 10:0.303857 11:34.187698 12:71.704002 13:0.66666698 14:0.80487299 15:0.92698902 16:9.8053303 17:-1 18:-84.25 19:-1 20:23.1667 #
-5.8087258983059933815755460084773e-05 1:0 2:-18.25 3:1.61259 4:1.2329201 5:0.430776 6:1.32015 7:1.29748 8:0.63936597 9:0.224828 10:0.224828 11:22.3584 12:76.099197 13:1 14:0.84429199 15:0.864977 16:6.4674802 17:-3 18:-42.150002 19:-2 20:50.266701 #
-5.8362509719873108900069919036113e-05 1:-1 2:-6 3:2.0336201 4:0.51523203 5:0.43077001 6:0.300731 7:0.160226 8:0.95549399 9:0.167404 10:0.167404 11:24.9133 12:65.722504 13:0.66666698 14:0.941881 15:0.94708502 16:7.1954498 17:-2 18:-36 19:3 20:47.333302 #
-5.8362509719873108900069919036113e-05 1:2 2:15 3:2.5606699 4:0.327638 5:0.144095 6:0.13293301 7:0.229743 8:0.52593702 9:0.21132199 10:0.116693 11:22.888201 12:81.104797 13:0.66666698 14:0.94756901 15:0.973849 16:6.6187301 17:2 18:15 19:3 20:91.666702 #
-5.8138168860807794399627596027003e-05 1:1 2:7.1666698 3:2.3693399 4:0.435238 5:0.52846497 6:0.10692 7:0.212862 8:2.37374 9:0.057548299 10:0.057548299 11:16.8002 12:74.445999 13:0.444444 14:0.98892403 15:0.98869401 16:4.8731599 17:4 18:24.0952 19:7 20:91.466698 #
5.8362509719873108900069919036113e-05 1:-2 2:-12 3:1.62208 4:0.41099799 5:0.374598 6:0.067628399 7:0.68302202 8:1.62686 9:0.44125101 10:0.295957 11:26.992901 12:85.486099 13:1 14:0.73365498 15:0.83847201 16:7.7853899 17:-2 18:-12 19:-2 20:-12 #
5.8362509719873108900069919036113e-05 1:-1 2:-8 3:1.7569 4:1.84861 5:0.24428 6:0.449624 7:0.164681 8:0.237734 9:0.30472201 10:0.101787 11:6.3657198 12:87.242798 13:0.33333299 14:0.71072 15:0.90486199 16:1.85216 17:-1 18:-8 19:-1 20:-8 #
5.8362509719873108900069919036113e-05 1:0 2:0 3:2.3942499 4:7.4075799 5:1.85799 6:0.184375 7:0.35204801 8:0.61823601 9:0.23726501 10:0.151216 11:11.3346 12:89.520302 13:0.66666698 14:0.915609 15:0.87297601 16:3.29423 17:0 18:0 19:0 20:0 #
5.8362509719873108900069919036113e-05 1:0 2:0 3:1.25139 4:0.098835401 5:0.46731901 6:0.25666699 7:0.343514 8:1.09192 9:0.45036599 10:0.207109 11:10.2467 12:86.445198 13:0.66666698 14:0.73724002 15:0.81162101 16:2.97892 17:0 18:0 19:0 20:0 #
5.8362509719873108900069919036113e-05 1:-1 2:-6 3:1.53837 4:0.67437398 5:1.00491 6:1.12544 7:0.22539 8:1.84043 9:0.35293499 10:0.35293499 11:35.474499 12:86.6464 13:0.444444 14:0.85654497 15:0.90013099 16:10.1627 17:-1 18:-6 19:-1 20:-6 #
-5.8362509719873108900069919036113e-05 1:3 2:38 3:1.52944 4:1.2710299 5:0.55466199 6:0.19332699 7:0.096602 8:1.0356899 9:0.167873 10:0.230261 11:30.184999 12:73.091698 13:0.66666698 14:0.89997 15:0.94271898 16:8.6858196 17:3 18:38 19:2 20:-206 #
5.8362509719873108900069919036113e-05 1:5 2:24.3333 3:1.53281 4:0.43946099 5:0.465655 6:0.35486799 7:0.38699999 8:0.23837601 9:0.47843999 10:0.47843999 11:35.6036 12:55.300098 13:1 14:0.72830099 15:0.79633403 16:10.1985 17:6 18:30.5714 19:8 20:52 #
-7.7982659074614098064504030816124e-08 1:1 2:-4.3333302 3:2.37129 4:0.35064799 5:1.23123 6:0.90880501 7:0.34849501 8:0.46438199 9:0.53428102 10:0.526182 11:44.1619 12:54.021301 13:0.66666698 14:0.86998701 15:0.943681 16:12.54 17:1 18:-4.3333302 19:0 20:-91.666702 #
5.8362509719873108900069919036113e-05 1:3 2:51.333302 3:1.7368 4:0.67126 5:1.65671 6:0.328269 7:0.51935703 8:0.258313 9:0.49581099 10:0.49581099 11:43.562099 12:79.219101 13:0.33333299 14:0.94843203 15:0.91151798 16:12.378 17:3 18:-7 19:8 20:22.4 #
-5.8362509719873108900069919036113e-05 1:1 2:28 3:1.82329 4:1.44512 5:0.29103699 6:0.360612 7:0.27638501 8:0.76353198 9:0.35837099 10:0.233078 11:19.6136 12:79.101303 13:0.66666698 14:0.75543201 15:0.83374399 16:5.6818399 17:1 18:28 19:2 20:104 #
5.8362509719873108900069919036113e-05 1:1 2:-16.1667 3:2.4379699 4:0.793432 5:0.44137001 6:0.44782299 7:0.89222097 8:0.80771399 9:0.83695602 10:1.31955 11:59.583698 12:50.572601 13:1 14:0.949139 15:0.82855099 16:16.5742 17:1 18:-16.1667 19:1 20:-16.1667 #
-5.8362509719873108900069919036113e-05 1:2 2:10 3:2.69012 4:0.55431801 5:1.34805 6:0.84391302 7:0.27531299 8:0.105163 9:0.196529 10:0.196529 11:27.148199 12:84.9291 13:0.33333299 14:0.95836002 15:0.93284899 16:7.82934 17:1 18:-88 19:2 20:-4 #
5.8362509719873108900069919036113e-05 1:3 2:40 3:2.4240401 4:0.499933 5:2.47668 6:0.23998 7:0.558402 8:0.81939101 9:0.79021901 10:0.178628 11:22.6614 12:81.855499 13:0.444444 14:0.76775098 15:0.90992898 16:6.5539999 17:5 18:52.400002 19:5 20:52.400002 #
-1.0495079527512546054349162893971e-06 1:-1 2:-18 3:3.5618701 4:0.34347701 5:0.80576098 6:0.81503499 7:0.51999599 8:0.44976401 9:1.37503 10:1.92743 11:81.615097 12:76.600502 13:0.66666698 14:0.63764697 15:0.83546197 16:21.800501 17:-2 18:-32.5 19:-4 20:-112.333 #
5.8362509719873108900069919036113e-05 1:-2 2:-13.5 3:1.51327 4:0.346834 5:0.36777499 6:0.215064 7:0.15134799 8:0.81362998 9:0.224466 10:0.224466 11:28.6196 12:70.416397 13:1 14:0.99667603 15:0.92985803 16:8.2450399 17:-2 18:-13.5 19:-2 20:-13.5 #
5.8362509719873108900069919036113e-05 1:4 2:50 3:2.83746 4:2.7994101 5:1.00195 6:0.083724 7:0.92987299 8:0.188656 9:0.40724701 10:0.438649 11:40.8507 12:84.857399 13:0.33333299 14:0.881073 15:0.92601699 16:11.6417 17:4 18:50 19:4 20:50 #
-5.8362509719873108900069919036113e-05 1:8 2:35.5 3:2.4719601 4:0.33409601 5:0.42389801 6:0.23455501 7:0.119276 8:0.23798899 9:0.15309 10:0.19103301 11:30.065001 12:74.046997 13:0.66666698 14:0.95832801 15:0.97815502 16:8.6520901 17:11 18:45.545502 19:11 20:45.545502 #
-5.8289665500391025219385776612313e-05 1:2 2:8 3:3.1363001 4:0.26995301 5:0.416188 6:0.220228 7:0.17494 8:0.98640102 9:0.088559203 10:0.088559203 11:9.4323997 12:86.619301 13:0.66666698 14:0.980084 15:0.92532599 16:2.7427499 17:3 18:31.3333 19:4 20:96 #
-5.8362509719873108900069919036113e-05 1:4 2:40.75 3:1.50473 4:3.4215701 5:1.5477901 6:0.29738301 7:0.303087 8:1.5183901 9:1.02973 10:1.02973 11:68.818901 12:83.618896 13:0.166667 14:0.76982701 15:0.68007702 16:18.851 17:5 18:45.799999 19:5 20:45.799999 #
5.8362509719873108900069919036113e-05 1:-2 2:-20.5 3:2.8626201 4:0.75960499 5:0.238452 6:0.26426801 7:0.20678701 8:0.54828203 9:0.197952 10:0.18842401 11:29.493799 12:81.133003 13:0.444444 14:0.94067299 15:0.972844 16:8.4913797 17:2 18:49 19:2 20:49 #
-5.7873874690100588825437954998421e-05 1:-1 2:-10 3:1.75089 4:0.32511601 5:0.42532399 6:1.30111 7:0.197476 8:0.58765501 9:0.47182101 10:0.200743 11:3.3124499 12:61.8102 13:0.444444 14:0.75193602 15:0.801054 16:0.96414697 17:1 18:70 19:1 20:70 #
5.8362509719873108900069919036113e-05 1:6 2:32.666698 3:4.4030399 4:0.305978 5:0.87046999 6:0.89234799 7:0.279183 8:0.20965201 9:0.39261401 10:2.88135 11:74.959801 12:79.060799 13:0.33333299 14:0.76580501 15:0.89561701 16:20.2981 17:7 18:37.142899 19:7 20:37.142899 #
-5.8362509719873108900069919036113e-05 1:3 2:34.666698 3:1.34082 4:1.46145 5:1.54268 6:0.15672 7:0.32318699 8:0.77993399 9:0.29665199 10:2.8468101 11:78.571701 12:87.027702 13:0.166667 14:0.70181298 15:0.86466998 16:21.122299 17:3 18:34.666698 19:4 20:75.375 #
-5.8362509719873108900069919036113e-05 1:4 2:17.5 3:1.70898 4:0.61619598 5:3.4307201 6:0.927562 7:0.93500102 8:0.18448199 9:1.16451 10:1.16451 11:57.430199 12:58.645699 13:0.444444 14:0.84437299 15:0.91026402 16:16.027201 17:6 18:41.333302 19:8 20:57.25 #
5.8362509719873108900069919036113e-05 1:4 2:45.5 3:1.40301 4:0.340013 5:0.85992903 6:0.150024 7:0.190313 8:0.17544401 9:0.387274 10:0.35815001 11:29.873699 12:71.852898 13:0.166667 14:0.59629899 15:0.82384402 16:8.59828 17:5 18:49.200001 19:5 20:49.200001 #
-5.8362509719873108900069919036113e-05 1:3 2:43.333302 3:1.26688 4:0.84049499 5:0.59447998 6:0.62350601 7:0.21494199 8:1.00989 9:0.28040001 10:0.34718001 11:30.640699 12:79.873703 13:0.33333299 14:0.74014598 15:0.788167 16:8.8138304 17:3 18:43.333302 19:4 20:65 #
5.8362509719873108900069919036113e-05 1:0 2:0 3:1.10114 4:1.011 5:1.4631701 6:0.87672901 7:0.31881401 8:0.51508498 9:0.36150399 10:0.175007 11:13.1651 12:68.789803 13:0.33333299 14:0.82891899 15:0.85658199 16:3.8240499 17:0 18:28 19:3 20:52.049999 #
-5.8173026273285278271892029255952e-05 1:-1 2:-22 3:1.91403 4:0.0760125 5:1.09988 6:1.06049 7:2.2934 8:1.24403 9:2.31867 10:1.2886699 11:61.8353 12:37.014599 13:1 14:0.73902202 15:0.88076401 16:17.139799 17:1 18:49 19:1 20:49 #
