SVM-light Version V6.02
0 # kernel type
3 # kernel parameter -d 
1 # kernel parameter -g 
1 # kernel parameter -s 
1 # kernel parameter -r 
empty# kernel parameter -u 
20 # highest feature index 
2237 # number of training documents 
41 # number of support vectors plus 1 
1.000304 # threshold b, each following line is a SV (starting with alpha*y)
-2.3475070174627598413794049569958e-06 1:3 2:25.4792 3:2.44613 4:0.23939399 5:0.095323898 6:0.12786201 7:0.16966499 8:0.416004 9:0.10248 10:0.0275607 11:8.7498102 12:84.153503 13:0.68965501 14:0.97682202 15:0.984384 16:2.7261801 17:3 18:25.4792 19:3 20:25.4792 #
2.4389454786751460637706304113159e-05 1:0 2:0 3:1.50483 4:0.50825399 5:0.32878101 6:0.33230501 7:0.382476 8:0.60878301 9:0.19843 10:0.19843 11:16.161501 12:75.756897 13:0.66666698 14:0.82742 15:0.84895802 16:5.0236602 17:0 18:0 19:0 20:0 #
-5.220687570401880139847605732939e-18 1:0 2:0 3:4.5735502 4:1.11458 5:0.46489301 6:0.179478 7:0.119523 8:0.158627 9:0.214095 10:0.214095 11:27.202101 12:83.2901 13:0.66666698 14:0.93263602 15:0.91686898 16:8.4041796 17:-1 18:-96 19:-10 20:-135 #
2.4389454786751460637706304113159e-05 1:0 2:0 3:6.55689 4:7.0258799 5:2.85045 6:1.18425 7:0.741988 8:0.43326801 9:2.31478 10:3.7630799 11:80.704399 12:26.4828 13:0.68965501 14:0.95393598 15:0.93595701 16:23.1399 17:0 18:0 19:8 20:190.5 #
-2.3954089580594123962738878352852e-05 1:0 2:0 3:5.4121299 4:0.18801101 5:0.231683 6:0.18779799 7:0.397688 8:0.18938801 9:0.37044299 10:0.35162699 11:39.2388 12:60.931 13:0.68965501 14:0.99360001 15:0.985654 16:11.9998 17:0 18:0 19:-1 20:-300 #
2.4389454786751460637706304113159e-05 1:0 2:0 3:3.04884 4:0.086892404 5:1.00578 6:0.970891 7:0.71812898 8:0.66234201 9:1.14572 10:1.14572 11:55.2705 12:39.365002 13:0.68965501 14:0.96412998 15:0.931072 16:16.576799 17:0 18:0 19:-1 20:-246 #
-2.4389454786751460637706304113159e-05 1:0 2:0 3:1.382 4:0.809475 5:0.44937599 6:0.21290299 7:0.095086202 8:0.122836 9:0.18836699 10:0.18836699 11:25.3277 12:68.737999 13:0.222222 14:0.92587799 15:0.930435 16:7.8348799 17:0 18:0 19:1 20:300 #
-1.7658017341413721675589046378185e-05 1:2 2:16.0625 3:2.3262601 4:13.5527 5:2.29022 6:1.19485 7:2.0929999 8:0.95313698 9:4.0784302 10:4.0784302 11:71.662498 12:20.1567 13:0.57142901 14:0.92969197 15:0.84191698 16:20.921101 17:2 18:16.0625 19:1 20:-277.43799 #
2.4389454786751460637706304113159e-05 1:1 2:12 3:2.00436 4:0.270154 5:1.2983 6:0.367199 7:0.2157 8:0.25099999 9:0.100192 10:0.100192 11:11.7259 12:78.671997 13:0.68965501 14:0.90561199 15:0.92322701 16:3.65061 17:1 18:12 19:1 20:12 #
-3.9620917598707354760536464288734e-06 1:0 2:0 3:3.79108 4:0.244305 5:0.071056098 6:0.102754 7:0.161231 8:0.74541801 9:0.072493598 10:0.089463897 11:17.662399 12:86.536797 13:0.68965501 14:0.984734 15:0.96127599 16:5.48666 17:0 18:0 19:1 20:300 #
2.4389454786751460637706304113159e-05 1:-4 2:-33 3:2.34815 4:1.68831 5:5.97856 6:1.05685 7:0.29273099 8:0.322395 9:0.513161 10:0.38171601 11:30.280199 12:81.137604 13:0.66666698 14:0.77932298 15:0.77263802 16:9.3340702 17:-4 18:-33 19:-5 20:-50 #
-2.0846180902031544309675054060804e-05 1:0 2:0 3:1.35918 4:0.588925 5:0.221288 6:0.155174 7:0.142922 8:0.108204 9:0.22235399 10:0.16936401 11:29.8589 12:89.555397 13:0.66666698 14:0.81534201 15:0.994856 16:9.20718 17:0 18:0 19:-1 20:-300 #
2.4389454786751460637706304113159e-05 1:2 2:30 3:2.1988699 4:1.72085 5:0.97087097 6:1.61315 7:1.26432 8:0.91544998 9:1.42454 10:2.3069999 11:74.914101 12:68.474602 13:0.222222 14:0.82095098 15:0.75612003 16:21.734699 17:2 18:30 19:2 20:30 #
-2.3678471402672064509420390976402e-05 1:0 2:0 3:5.0573802 4:0.161258 5:1.24789 6:0.58025599 7:0.210474 8:0.220127 9:0.304746 10:0.18814901 11:29.972099 12:67.922096 13:0.33333299 14:0.87428498 15:0.98069698 16:9.2412901 17:0 18:0 19:2 20:293 #
2.4389454786751460637706304113159e-05 1:-5 2:-11.7143 3:2.35482 4:1.59893 5:1.01601 6:0.82094401 7:1.5583 8:0.92800403 9:2.70365 10:1.9281501 11:65.338402 12:50.065601 13:0.222222 14:0.71369398 15:0.87868702 16:19.291 17:-6 18:-15.5 19:-6 20:-15.5 #
-2.4389454786751460637706304113159e-05 1:0 2:0 3:3.4425001 4:0.32121199 5:0.099856503 6:0.64729702 7:1.52968 8:1.66045 9:2.5492001 10:4.4010301 11:78.671799 12:51.7952 13:0.66666698 14:0.83556002 15:0.86742097 16:22.653099 17:0 18:0 19:-1 20:-280.5 #
2.4389454786751460637706304113159e-05 1:-4 2:-28 3:2.0479 4:1.63446 5:0.79229999 6:0.65509999 7:0.68738401 8:1.83676 9:0.44027299 10:0.492605 11:41.671398 12:71.961601 13:0.444444 14:0.76981997 15:0.89945501 16:12.7116 17:-7 18:16.25 19:-7 20:16.25 #
-2.2938108721239750561853021348924e-05 1:-2 2:-38 3:1.54978 4:0.61928999 5:2.88692 6:0.64383399 7:0.74217802 8:0.65923101 9:0.63367802 10:0.63367802 11:42.668098 12:47.605999 13:0.68965501 14:0.86007798 15:0.84144002 16:13.0017 17:-2 18:-38 19:-1 20:260 #
2.4389454786751460637706304113159e-05 1:-1 2:-12 3:2.5192399 4:0.93769598 5:0.48502401 6:0.90170902 7:0.78976703 8:1.72533 9:2.0281701 10:1.13404 11:59.068501 12:37.8064 13:0.57142901 14:0.76226503 15:0.84334397 16:17.616899 17:-1 18:-12 19:-1 20:-12 #
2.4389454786751460637706304113159e-05 1:1 2:22.200001 3:3.8866501 4:0.81907398 5:0.49819699 6:1.2492 7:1.5170799 8:1.77107 9:1.1917 10:2.5639999 11:77.092102 12:80.479301 13:0.166667 14:0.86049598 15:0.84332299 16:22.27 17:1 18:22.200001 19:1 20:22.200001 #
-1.7141736233066323701404454205033e-05 1:0 2:0 3:7.12534 4:0.63215899 5:1.57573 6:0.84891897 7:1.4681799 8:0.537642 9:1.41962 10:4.1428099 11:76.030701 12:86.358704 13:0.68965501 14:0.87180001 15:0.93137997 16:22.010099 17:2 18:91 19:3 20:153 #
-1.1253170984646907739571558559888e-06 1:-1 2:-11 3:2.7398801 4:5.64779 5:1.93286 6:1.1380301 7:0.75402403 8:0.2295 9:2.9907899 10:8.2598896 11:82.8787 12:17.595699 13:0.68965501 14:0.75447601 15:0.92406303 16:23.652399 17:1 18:62 19:0 20:-37.5 #
-4.1936808053970855622843288967871e-06 1:-1 2:-7.5 3:3.0550001 4:0.87307698 5:0.63243002 6:1.57768 7:0.32387501 8:0.396285 9:0.49214 10:4.6503401 11:81.286903 12:81.507896 13:0.444444 14:0.88810599 15:0.897291 16:23.278 17:-4 18:-62.625 19:-4 20:-62.625 #
-2.6910192696740760858560223556246e-06 1:0 2:0 3:1.9136699 4:0.076338001 5:0.146117 6:0.58161801 7:0.33175099 8:0.57033098 9:0.184848 10:2.00702 11:84.904701 12:89.079399 13:0.66666698 14:0.81633598 15:0.830809 16:24.1224 17:0 18:0 19:0 20:0 #
-1.4629791000085209456093009866562e-06 1:-5 2:-27.200001 3:4.2197299 4:1.8372999 5:6.4521799 6:3.5787599 7:1.42773 8:0.68076199 9:4.4769402 10:4.4769402 11:89.864998 12:57.263901 13:0.57142901 14:0.96499002 15:0.91032702 16:25.240801 17:-6 18:-37.333302 19:-6 20:-37.333302 #
-4.7655835084029857197027157944547e-06 1:-2 2:-1 3:3.13943 4:2.6788499 5:3.3238001 6:2.2042601 7:0.79071802 8:0.38826099 9:2.0715899 10:2.09884 11:83.808502 12:86.397301 13:0.68965501 14:0.77723598 15:0.81533402 16:23.868999 17:-2 18:-1 19:-2 20:-1 #
-1.2976707632182971333849926670601e-06 1:0 2:0 3:1.61005 4:0.503609 5:0.57671899 6:0.30574301 7:0.27478299 8:0.35142401 9:0.21701901 10:1.08526 11:56.537899 12:89.7043 13:0.66666698 14:0.96741301 15:0.90104401 16:16.926001 17:0 18:0 19:-1 20:-268 #
-1.0305721760794506333073355941465e-05 1:-4 2:-11.9 3:2.2741599 4:1.3352 5:1.7234401 6:1.03947 7:0.961155 8:0.94103003 9:1.16224 10:3.0350399 11:76.371597 12:69.680603 13:0.57142901 14:0.469937 15:0.815341 16:22.0938 17:-6 18:-24.8571 19:-7 20:-35.875 #
-2.2830689504942873712918863238208e-07 1:-5 2:-31.299999 3:1.5245301 4:0.61302203 5:2.27666 6:1.82428 7:0.35217199 8:0.406409 9:0.802616 10:1.7168601 11:76.512199 12:54.5774 13:0.444444 14:0.51476002 15:0.80200601 16:22.128201 17:-5 18:-31.299999 19:-5 20:-31.299999 #
-2.0690224107881049803343842530268e-05 1:-4 2:5.1999998 3:2.5703101 4:2.07163 5:2.03526 6:1.37681 7:0.91571099 8:0.42017701 9:1.1163 10:1.1163 11:54.3951 12:37.090099 13:0.68965501 14:0.96043402 15:0.923989 16:16.334499 17:-5 18:0.041666701 19:-5 20:0.041666701 #
-7.5322084653851206458561630407988e-07 1:0 2:0 3:1.36562 4:0.63331997 5:1.42752 6:1.7698801 7:0.67371398 8:0.36368701 9:4.2378402 10:1.88556 11:75.075699 12:27.1376 13:0.68965501 14:0.97390002 15:0.80616099 16:21.7747 17:-1 18:-63 19:-7 20:-125.143 #
-3.4027579216748446886103666997325e-06 1:-3 2:-16 3:1.81888 4:0.82119203 5:0.350261 6:2.5571499 7:0.409832 8:0.66241598 9:1.2000099 10:3.4998 11:71.077904 12:43.164902 13:0.66666698 14:0.81033403 15:0.843328 16:20.773001 17:-3 18:-16 19:-2 20:250 #
-4.8501291309288783012076615164254e-06 1:1 2:44 3:2.81938 4:0.26120499 5:3.596 6:2.4105899 7:1.9972301 8:0.649719 9:2.39486 10:1.08397 11:61.888199 12:23.1954 13:0.57142901 14:0.67013401 15:0.80843598 16:18.3766 17:1 18:44 19:1 20:44 #
-3.9395143228853664866444608816387e-06 1:-3 2:-18 3:1.7040401 4:1.33173 5:2.4142101 6:0.568335 7:0.91913903 8:0.95893002 9:1.15839 10:0.41018 11:36.939701 12:89.240097 13:0.68965501 14:0.79590201 15:0.848818 16:11.322 17:-7 18:-41.5 19:-7 20:-41.5 #
-5.2036436427057624140449579308587e-07 1:0 2:6 3:2.8669 4:3.7725401 5:1.48202 6:1.70893 7:0.604536 8:1.19248 9:4.27771 10:4.27771 11:85.233597 12:64.497704 13:0.68965501 14:0.88222301 15:0.90099698 16:24.198 17:-4 18:-51.599998 19:-4 20:-51.599998 #
-1.423946167613431750334496150856e-06 1:-5 2:16.6667 3:2.6883199 4:4.4117098 5:0.268704 6:0.39379901 7:0.164959 8:0.179864 9:0.15669601 10:0.13478801 11:25.2495 12:63.475498 13:0.166667 14:0.97433102 15:0.97899401 16:7.81107 17:-5 18:16.6667 19:1 20:152.095 #
-5.4520973411006032213971597699675e-07 1:1 2:49 3:1.33374 4:0.21505199 5:0.27062801 6:0.34091699 7:0.78166902 8:0.182541 9:0.38841099 10:0.14881399 11:19.750299 12:86.9832 13:0.68965501 14:0.851574 15:0.92426598 16:6.1291399 17:1 18:49 19:-3 20:-170.5 #
-3.3078989141794631986153493036218e-07 1:-6 2:-28.6667 3:1.35595 4:0.28471801 5:3.6073899 6:0.75723201 7:0.203394 8:0.30673599 9:0.365841 10:0.215082 11:23.882999 12:59.494202 13:0.66666698 14:0.82703 15:0.88508999 16:7.39466 17:-6 18:-28.6667 19:-6 20:-28.6667 #
-4.8661666736527886111679519487438e-08 1:-6 2:-5.4285698 3:1.24892 4:1.99064 5:0.169568 6:0.0751324 7:0.183697 8:0.37671399 9:0.077451602 10:0.0181948 11:7.5771499 12:83.749496 13:0.68965501 14:0.965792 15:0.99072802 16:2.3613901 17:-5 18:14.5714 19:-3 20:75.971397 #
-1.4337980588682961054225462049772e-08 1:-6 2:-37.208302 3:1.2907 4:0.60060698 5:0.119109 6:0.185386 7:0.33851701 8:0.48064601 9:0.106605 10:0.074988902 11:9.5019598 12:74.096298 13:0.68965501 14:0.90406102 15:0.93990499 16:2.9600101 17:-6 18:-37.208302 19:-11 20:-125.58 #
