SVM-light Version V6.02
0 # kernel type
3 # kernel parameter -d 
1 # kernel parameter -g 
1 # kernel parameter -s 
1 # kernel parameter -r 
empty# kernel parameter -u 
20 # highest feature index 
2384 # number of training documents 
139 # number of support vectors plus 1 
2.1542312 # threshold b, each following line is a SV (starting with alpha*y)
-6.1229133800463905810788911576736e-05 1:-1 2:-4.75 3:3.55106 4:1.8001699 5:0.75689 6:0.51359099 7:0.55202597 8:0.37319499 9:0.789406 10:0.74982703 11:49.648899 12:39.804001 13:0.66666698 14:0.97835201 15:0.96535599 16:14.0052 17:-1 18:-4.75 19:-1 20:-4.75 #
6.1229133800463905810788911576736e-05 1:4 2:19.1406 3:1.8436 4:0.298657 5:0.65728801 6:3.37781 7:2.72279 8:2.03988 9:2.8562801 10:2.8562801 11:76.153503 12:32.196201 13:0.444444 14:0.82442498 15:0.77722299 16:20.572701 17:2 18:-64.765602 19:1 20:-73.817703 #
-6.1229133800463905810788911576736e-05 1:3 2:19.5 3:2.8766501 4:0.42626601 5:0.219497 6:4.5220399 7:0.64743602 8:1.22411 9:0.91523802 10:2.8822 11:77.440903 12:89.8927 13:1 14:0.87759602 15:0.91276002 16:20.866501 17:0 18:-67.833298 19:-6 20:-151.33299 #
6.1229133800463905810788911576736e-05 1:-4 2:-13.125 3:2.9261799 4:0.41747299 5:2.6610999 6:1.27652 7:0.61051601 8:1.10825 9:0.90153402 10:3.7435801 11:85.949997 12:76.546204 13:0.66666698 14:0.86720997 15:0.73288 16:22.739799 17:-3 18:82.875 19:-2 20:89.125 #
-5.257265291598009525689261245418e-05 1:0 2:0 3:1.45664 4:0.124211 5:0.75469297 6:0.57884002 7:0.81576502 8:0.78391701 9:1.08485 10:1.08485 11:54.394001 12:40.922401 13:0.66666698 14:0.91790801 15:0.89720702 16:15.2465 17:0 18:0 19:3 20:278.33301 #
6.1229133800463905810788911576736e-05 1:0 2:0 3:3.10028 4:0.94921201 5:1.07759 6:1.38578 7:3.0132301 8:2.4409699 9:3.02771 10:3.02771 11:85.955803 12:83.333603 13:0.66666698 14:0.812168 15:0.854716 16:22.740999 17:0 18:0 19:-1 20:-214 #
-6.1229133800463905810788911576736e-05 1:0 2:0 3:2.0773799 4:0.198698 5:0.45769501 6:1.51419 7:0.99161202 8:0.38311601 9:1.1602499 10:1.1602499 11:65.667801 12:60.653301 13:0.66666698 14:0.77047402 15:0.66897601 16:18.0872 17:0 18:0 19:0 20:0 #
6.1229133800463905810788911576736e-05 1:0 2:0 3:1.96311 4:0.34162501 5:0.37109599 6:1.0238301 7:1.95921 8:1.17547 9:6.24262 10:7.3504901 11:83.555801 12:19.8605 13:0.66666698 14:0.90107203 15:0.80718303 16:22.224899 17:0 18:0 19:3 20:187.16701 #
6.1229133800463905810788911576736e-05 1:0 2:0 3:1.50301 4:0.71616501 5:1.02968 6:2.8132701 7:1.01293 8:0.56748402 9:0.88349801 10:1.86736 11:65.779404 12:87.249298 13:0.66666698 14:0.451956 15:0.75307 16:18.114401 17:0 18:0 19:-1 20:-187 #
-6.1229133800463905810788911576736e-05 1:-1 2:-10 3:1.4359699 4:1.03874 5:1.39807 6:1.44551 7:0.89501399 8:0.984676 9:2.4686899 10:2.4686899 11:75.810204 12:22.863501 13:1 14:0.71096897 15:0.65340298 16:20.493999 17:-2 18:-55 19:-6 20:-161.66701 #
-6.1229133800463905810788911576736e-05 1:1 2:-8 3:2.3211 4:0.24971899 5:0.19721 6:0.408207 7:0.77012098 8:0.441136 9:0.38434601 10:1.33531 11:83.654602 12:76.3172 13:1 14:0.53575498 15:0.68619299 16:22.246401 17:1 18:-8 19:2 20:57.333302 #
-6.1229133800463905810788911576736e-05 1:6 2:21 3:5.3246598 4:0.74490798 5:1.22298 6:0.298273 7:0.88453799 8:0.57176101 9:0.44806001 10:2.5455401 11:80.935898 12:57.502201 13:0.66666698 14:0.91447002 15:0.88476598 16:21.6504 17:6 18:21 19:6 20:-216 #
-2.2763426493767384634417383360017e-05 1:-3 2:-23.6667 3:5.39364 4:0.087246798 5:0.71951199 6:1.44919 7:0.82766598 8:0.46097001 9:2.91394 10:2.3562 11:69.688599 12:87.203102 13:0.66666698 14:0.94684201 15:0.93619299 16:19.059299 17:-5 18:-45.799999 19:-14 20:-137.14301 #
-6.1229133800463905810788911576736e-05 1:0 2:0 3:2.6906099 4:0.54469699 5:0.94314802 6:0.49316001 7:0.44041601 8:1.32912 9:0.48865601 10:2.67382 11:85.816002 12:70.760101 13:0.66666698 14:0.83811301 15:0.82698298 16:22.711201 17:0 18:0 19:1 20:144 #
6.1229133800463905810788911576736e-05 1:0 2:0 3:2.21767 4:0.74982899 5:0.70810997 6:0.97280103 7:0.84421098 8:0.935633 9:1.63904 10:0.41872299 11:30.032 12:36.831299 13:0.66666698 14:0.81938601 15:0.70367903 16:8.6428003 17:0 18:0 19:0 20:0 #
6.1229133800463905810788911576736e-05 1:1 2:15 3:1.86831 4:0.45356399 5:0.475752 6:2.5713501 7:0.94656098 8:0.68478799 9:4.3435602 10:0.322413 11:33.223301 12:12.0824 13:0.66666698 14:0.80060202 15:0.90481299 16:9.5366497 17:1 18:15 19:-2 20:-151.66701 #
-6.1229133800463905810788911576736e-05 1:3 2:30.6667 3:5.8308201 4:24.4638 5:1.49942 6:1.24024 7:0.98974502 8:0.49950501 9:2.0908 10:1.09016 11:54.360298 12:44.917999 13:1 14:0.76065898 15:0.83688903 16:15.2378 17:4 18:38.5 19:4 20:38.5 #
-6.1229133800463905810788911576736e-05 1:3 2:18.6667 3:1.57003 4:0.33661401 5:0.27745599 6:0.207993 7:0.39294899 8:0.62937099 9:0.55515301 10:1.6141599 11:65.055603 12:59.349701 13:0.66666698 14:0.74435598 15:0.816158 16:17.937201 17:3 18:18.6667 19:3 20:18.6667 #
-6.1229133800463905810788911576736e-05 1:-1 2:-25 3:2.60412 4:0.97226202 5:1.1937 6:2.12468 7:0.62391502 8:0.37555 9:2.8273101 10:2.09215 11:73.705101 12:2.7024801 13:0.66666698 14:0.64778697 15:0.89725399 16:20.007 17:-3 18:-49 19:-9 20:-103 #
-6.1229133800463905810788911576736e-05 1:1 2:7 3:2.23195 4:0.071092203 5:1.0786999 6:0.220147 7:0.31050199 8:0.78941602 9:0.442341 10:1.57812 11:72.541603 12:77.435402 13:0.66666698 14:0.778377 15:0.75528002 16:19.735001 17:1 18:7 19:2 20:90 #
6.1229133800463905810788911576736e-05 1:-3 2:-35 3:3.1145899 4:1.90267 5:4.5388799 6:1.63622 7:4.9999299 8:0.58354598 9:1.47246 10:4.4345899 11:74.095398 12:69.9832 13:1 14:0.95491999 15:0.901452 16:20.097799 17:-4 18:-42.75 19:-4 20:-42.75 #
-1.2077247839096413276234465161707e-05 1:0 2:0 3:4.5025301 4:0.748083 5:0.42014101 6:1.0383199 7:0.54994899 8:0.221957 9:0.524279 10:1.14429 11:57.254398 12:63.3092 13:0.33333299 14:0.92447501 15:0.94223499 16:15.9823 17:0 18:0 19:-1 20:-190 #
6.1229133800463905810788911576736e-05 1:2 2:9.75 3:3.7314601 4:0.66092998 5:0.98157102 6:0.51328099 7:1.4895 8:2.50546 9:1.50161 10:1.50161 11:70.7006 12:77.734001 13:0.66666698 14:0.92054898 15:0.84860498 16:19.3004 17:2 18:9.75 19:-3 20:-158.95 #
6.1229133800463905810788911576736e-05 1:3 2:37.333302 3:3.52036 4:0.63580197 5:0.268047 6:1.38683 7:0.84824502 8:0.55240703 9:0.94303101 10:0.94303101 11:55.094398 12:68.541901 13:0.66666698 14:0.89667302 15:0.88702798 16:15.4276 17:5 18:49.599998 19:4 20:-58.400002 #
-6.1229133800463905810788911576736e-05 1:5 2:27.6 3:1.91442 4:2.0655301 5:0.337791 6:0.51739597 7:0.749264 8:0.475218 9:1.4407099 10:1.24296 11:58.152 12:28.427 13:0.444444 14:0.69365299 15:0.90952897 16:16.211201 17:5 18:27.6 19:7 20:90 #
6.1229133800463905810788911576736e-05 1:-3 2:-27.0833 3:3.2391801 4:0.59552097 5:1.37649 6:2.54211 7:1.24874 8:1.18583 9:1.15969 10:3.3568399 11:82.285301 12:43.351101 13:1 14:0.78426999 15:0.886361 16:21.9478 17:-3 18:-27.0833 19:0 20:147.33299 #
6.1229133800463905810788911576736e-05 1:0 2:24 3:1.98642 4:1.9131401 5:0.38482001 6:0.59929699 7:5.1554399 8:1.12482 9:5.9251299 10:1.71747 11:63.537701 12:12.8459 13:0.444444 14:0.86875099 15:0.87791401 16:17.563 17:0 18:24 19:4 20:132.39999 #
-6.1229133800463905810788911576736e-05 1:2 2:8 3:3.66097 4:0.565211 5:0.77794498 6:0.71098697 7:0.68616599 8:0.53394997 9:1.52274 10:2.6728699 11:85.375397 12:44.670799 13:0.66666698 14:0.828161 15:0.82989299 16:22.6171 17:2 18:8 19:1 20:-169 #
6.1229133800463905810788911576736e-05 1:0 2:0 3:1.4046299 4:0.53134298 5:0.74817598 6:0.35136399 7:0.84318298 8:1.86159 9:0.80809999 10:2.09675 11:85.113998 12:47.812401 13:0.66666698 14:0.58261698 15:0.64271098 16:22.5611 17:0 18:0 19:-3 20:-147.33299 #
6.1229133800463905810788911576736e-05 1:2 2:13 3:3.2974601 4:0.43232101 5:1.33936 6:0.89583403 7:10.0516 8:0.60305399 9:5.15135 10:5.15135 11:87.297302 12:86.054001 13:0.66666698 14:0.82675499 15:0.90007299 16:23.0252 17:2 18:13 19:-1 20:-153 #
-6.1229133800463905810788911576736e-05 1:0 2:0 3:1.28987 4:0.77737802 5:0.31017399 6:0.807078 7:1.29294 8:0.294882 9:1.06387 10:1.06387 11:55.560299 12:51.6353 13:0.66666698 14:0.82868302 15:0.79505199 16:15.5477 17:0 18:0 19:5 20:-20.6667 #
-6.1229133800463905810788911576736e-05 1:4 2:18 3:3.69397 4:0.454725 5:0.59297299 6:0.67281997 7:0.381017 8:0.92162001 9:0.57114297 10:1.89326 11:66.593803 12:60.9123 13:0.66666698 14:0.73399001 15:0.88907099 16:18.313101 17:4 18:18 19:4 20:18 #
-6.1229133800463905810788911576736e-05 1:-8 2:-30.25 3:2.30878 4:1.78476 5:0.57536501 6:0.46686199 7:0.446336 8:0.64822 9:0.455654 10:4.2531099 11:89.786903 12:64.036903 13:0.66666698 14:0.82671398 15:0.82423902 16:23.5441 17:-10 18:-37.799999 19:-10 20:-37.799999 #
-6.1229133800463905810788911576736e-05 1:0 2:27 3:2.1953199 4:0.37568799 5:0.33070299 6:0.29504201 7:0.70279503 8:0.44304499 9:1.08899 10:1.08899 11:54.5298 12:35.694302 13:0.66666698 14:0.80957401 15:0.84430301 16:15.2817 17:0 18:27 19:2 20:129.66701 #
6.1229133800463905810788911576736e-05 1:0 2:-11 3:2.1245501 4:4.7880001 5:0.39849901 6:1.16798 7:1.13223 8:2.2669599 9:1.12468 10:1.12468 11:57.6436 12:56.5144 13:1 14:0.91935098 15:0.86959201 16:16.081699 17:0 18:-11 19:-1 20:-97.5 #
1.1759090786034785976296897225257e-05 1:-1 2:-25 3:3.7741699 4:0.636051 5:1.3963799 6:0.77686799 7:2.9926 8:2.4714701 9:2.0012 10:6.0410399 11:76.416702 12:6.7349601 13:0.444444 14:0.50849998 15:0.92883301 16:20.632999 17:-1 18:-25 19:5 20:136.83299 #
6.1229133800463905810788911576736e-05 1:1 2:10 3:1.33656 4:0.228177 5:2.3239 6:3.0562999 7:0.68274897 8:0.666794 9:1.12155 10:1.12155 11:57.595001 12:72.859703 13:0.66666698 14:0.79032803 15:0.86430699 16:16.0693 17:1 18:10 19:1 20:10 #
6.1229133800463905810788911576736e-05 1:0 2:0 3:2.36043 4:1.1001101 5:0.859339 6:0.51961797 7:1.6971 8:0.54121703 9:0.625076 10:1.92582 11:70.233002 12:88.655602 13:0.66666698 14:0.67611003 15:0.84252799 16:19.189199 17:0 18:0 19:0 20:0 #
-6.1229133800463905810788911576736e-05 1:1 2:14 3:1.21289 4:0.63781601 5:0.295261 6:0.62945998 7:0.56735098 8:0.27445701 9:0.88045597 10:2.8840699 11:77.065201 12:80.327797 13:0.66666698 14:0.80802399 15:0.85509199 16:20.781 17:1 18:14 19:0 20:-172 #
6.1229133800463905810788911576736e-05 1:-3 2:-20.25 3:2.8499 4:0.51227802 5:0.38755599 6:0.53649598 7:4.1558399 8:2.0009601 9:2.4172399 10:2.4172399 11:79.662804 12:56.586498 13:1 14:0.906353 15:0.837152 16:21.3671 17:-3 18:-20.25 19:0 20:93.833298 #
6.1229133800463905810788911576736e-05 1:0 2:0 3:1.6032 4:1.24402 5:0.18865199 6:0.58000499 7:0.74564803 8:1.64368 9:2.1373601 10:2.1373601 11:86.373596 12:47.222198 13:0.66666698 14:0.59285003 15:0.70244199 16:22.829901 17:0 18:0 19:-3 20:-171.33299 #
6.1229133800463905810788911576736e-05 1:-1 2:-18 3:2.30811 4:1.96314 5:1.41231 6:0.65882498 7:2.33534 8:1.13054 9:3.00194 10:4.47118 11:80.216698 12:24.292299 13:1 14:0.81680399 15:0.87564802 16:21.4907 17:-1 18:-18 19:3 20:141 #
-6.1229133800463905810788911576736e-05 1:-1 2:-10.25 3:2.49716 4:1.40681 5:0.27388999 6:0.48072299 7:0.55978799 8:0.63636601 9:0.95709801 10:0.95709801 11:53.113899 12:42.036598 13:0.66666698 14:0.92768198 15:0.93029898 16:14.9142 17:-1 18:-10.25 19:-1 20:-10.25 #
6.1229133800463905810788911576736e-05 1:-1 2:-10 3:3.86865 4:0.69836599 5:0.970294 6:0.96525198 7:2.6257901 8:0.97345603 9:1.21885 10:1.74376 11:73.505798 12:58.938099 13:0.66666698 14:0.74490499 15:0.83194399 16:19.9606 17:-1 18:-10 19:-3 20:-124.333 #
-6.1229133800463905810788911576736e-05 1:2 2:-32 3:1.76287 4:2.57372 5:3.90049 6:1.77179 7:1.85499 8:1.90765 9:2.2356999 10:0.70169997 11:46.9319 12:22.0368 13:1 14:0.721901 15:0.83254701 16:13.2835 17:2 18:-32 19:-4 20:-197.75 #
-6.1229133800463905810788911576736e-05 1:0 2:0 3:1.50406 4:5.3879299 5:0.74925399 6:0.89312899 7:0.89481199 8:1.10263 9:2.1263299 10:0.83143097 11:45.072701 12:17.103001 13:0.66666698 14:0.61953402 15:0.67298698 16:12.7853 17:0 18:0 19:0 20:0 #
-6.1229133800463905810788911576736e-05 1:0 2:0 3:2.0490699 4:1.6385601 5:1.0446 6:0.87418199 7:0.91439599 8:0.445494 9:1.09322 10:1.09322 11:72.305801 12:74.977097 13:0.66666698 14:0.75005299 15:0.65129399 16:19.6796 17:-1 18:-74 19:-4 20:-178 #
6.1229133800463905810788911576736e-05 1:5 2:20.799999 3:1.7365 4:1.02674 5:0.58954102 6:2.6752 7:0.976004 8:1.11559 9:1.59255 10:1.09284 11:53.521198 12:38.560501 13:0.444444 14:0.92002898 15:0.80249602 16:15.0201 17:5 18:20.799999 19:5 20:20.799999 #
-6.1229133800463905810788911576736e-05 1:0 2:7.5 3:1.55588 4:0.35178101 5:1.84841 6:0.43571001 7:0.52740502 8:0.54054803 9:1.25746 10:1.69247 11:72.803703 12:73.499603 13:0.66666698 14:0.78906101 15:0.80377901 16:19.7964 17:0 18:7.5 19:1 20:94.5 #
6.1229133800463905810788911576736e-05 1:0 2:0 3:3.1486299 4:0.215747 5:0.12417 6:0.44483501 7:4.0971298 8:1.66597 9:2.14308 10:2.14308 11:73.027496 12:88.434998 13:0.33333299 14:0.837556 15:0.86852199 16:19.848801 17:0 18:0 19:0 20:0 #
-6.1229133800463905810788911576736e-05 1:-3 2:-18 3:3.2031801 4:0.67268097 5:0.61801898 6:1.11611 7:0.61843002 8:1.76717 9:3.0853 10:8.0490198 11:81.158699 12:61.351898 13:1 14:0.91330099 15:0.90299898 16:21.699699 17:-6 18:-42.285702 19:-10 20:-104.455 #
-1.9607962676723304150340140838971e-05 1:1 2:10 3:2.6623299 4:0.41322601 5:1.77218 6:0.722794 7:2.37481 8:1.1734 9:1.01175 10:1.43116 11:72.101601 12:77.320396 13:0.66666698 14:0.795591 15:0.81812298 16:19.631599 17:1 18:10 19:2 20:151.5 #
6.1229133800463905810788911576736e-05 1:0 2:0 3:1.6942101 4:1.20954 5:0.74760699 6:1.87131 7:1.47458 8:0.58223599 9:1.85171 10:0.82424003 11:48.734699 12:32.9547 13:0.66666698 14:0.75649297 15:0.768125 16:13.7632 17:0 18:0 19:0 20:0 #
6.1229133800463905810788911576736e-05 1:-2 2:-24 3:1.8246 4:0.89221001 5:0.77999902 6:0.49441901 7:2.0413301 8:0.75842297 9:0.724392 10:4.0191898 11:83.518303 12:74.274597 13:0.66666698 14:0.64398497 15:0.70113701 16:22.216801 17:-2 18:-24 19:0 20:66.666702 #
6.1229133800463905810788911576736e-05 1:0 2:0 3:1.5203 4:0.21224 5:0.66525102 6:0.82399702 7:1.33325 8:2.0404999 9:1.49954 10:4.29245 11:82.453102 12:51.844002 13:0.444444 14:0.85086 15:0.79182798 16:21.984501 17:0 18:0 19:-5 20:-159.2 #
-6.1229133800463905810788911576736e-05 1:1 2:-6 3:1.7306 4:0.77638 5:0.57920998 6:1.58384 7:1.17009 8:0.50223601 9:1.0862401 10:1.23974 11:56.540501 12:41.4632 13:0.66666698 14:0.93909502 15:0.883075 16:15.7996 17:1 18:-6 19:-2 20:-171.25 #
-6.1229133800463905810788911576736e-05 1:0 2:0 3:5.9780898 4:0.098566197 5:0.90067399 6:0.371445 7:0.55256897 8:0.56962597 9:0.83140999 10:0.82496798 11:52.912498 12:47.477798 13:0.66666698 14:0.90985298 15:0.93680298 16:14.8617 17:0 18:0 19:0 20:0 #
6.1229133800463905810788911576736e-05 1:-1 2:-21 3:1.27054 4:3.8771801 5:2.3926699 6:0.99645799 7:1.1519001 8:0.81395501 9:0.82505798 10:1.66328 11:71.5159 12:59.425301 13:0.66666698 14:0.84958702 15:0.84000701 16:19.493401 17:-1 18:-21 19:-1 20:-21 #
-6.1229133800463905810788911576736e-05 1:0 2:0 3:1.35553 4:1.0254 5:0.69543201 6:0.207261 7:0.87054098 8:0.63795799 9:0.83411199 10:1.72214 11:85.439796 12:73.5625 13:0.66666698 14:0.61079198 15:0.62588501 16:22.630899 17:-1 18:-76.5 19:-1 20:-76.5 #
6.1229133800463905810788911576736e-05 1:-1 2:-7 3:1.67169 4:1.82297 5:0.83449 6:5.4269099 7:1.75326 8:1.2342499 9:2.54533 10:1.43822 11:61.3503 12:29.7162 13:0.66666698 14:0.87944299 15:0.83760202 16:17.018499 17:0 18:35 19:0 20:35 #
6.1229133800463905810788911576736e-05 1:2 2:11 3:2.1414499 4:11.7435 5:0.84908599 6:2.3677001 7:2.16467 8:2.1588099 9:2.1998301 10:2.1998301 11:80.291801 12:57.080799 13:0.66666698 14:0.70626098 15:0.76762402 16:21.507401 17:-1 18:-82.333298 19:-4 20:-91 #
6.1229133800463905810788911576736e-05 1:3 2:17.3333 3:2.2666299 4:1.06714 5:3.6564901 6:3.9412701 7:3.7884901 8:3.56985 9:2.8565199 10:2.8565199 11:78.931702 12:57.768101 13:1 14:0.81677997 15:0.85382497 16:21.2033 17:2 18:-82.666702 19:1 20:-68.300003 #
-6.1229133800463905810788911576736e-05 1:-2 2:-6.25 3:4.4264798 4:0.62033701 5:0.70946699 6:1.33356 7:0.61268401 8:0.64866799 9:0.37848899 10:2.7311299 11:70.580498 12:80.0392 13:0.66666698 14:0.77225298 15:0.88239402 16:19.271799 17:-6 18:-39.125 19:-7 20:-45.5 #
-6.1229133800463905810788911576736e-05 1:-2 2:-10.5 3:2.08198 4:0.215645 5:1.16976 6:0.51204097 7:1.8008699 8:0.78165901 9:1.58246 10:1.58246 11:60.7981 12:31.8654 13:1 14:0.92299002 15:0.93349302 16:16.8801 17:-5 18:-48.400002 19:-7 20:-104.929 #
6.1229133800463905810788911576736e-05 1:-2 2:-8.5 3:1.79127 4:0.71253598 5:0.25124699 6:1.78095 7:2.1484699 8:4.4862499 9:2.01071 10:2.01071 11:66.083397 12:36.331501 13:0.444444 14:0.86295003 15:0.85010201 16:18.1887 17:-1 18:37.75 19:1 20:70.375 #
6.1229133800463905810788911576736e-05 1:-3 2:-21.3333 3:2.9130299 4:0.74725199 5:1.32468 6:1.27212 7:2.9388599 8:1.95565 9:2.4371901 10:1.13627 11:56.946701 12:24.421101 13:0.444444 14:0.722184 15:0.83223802 16:15.9037 17:-3 18:-21.3333 19:-3 20:-21.3333 #
6.1229133800463905810788911576736e-05 1:-1 2:-0.25 3:3.2083001 4:0.87017298 5:0.298426 6:0.410422 7:1.15211 8:2.2170701 9:3.2624199 10:8.6217699 11:88.4786 12:75.559601 13:0.444444 14:0.78251803 15:0.87477797 16:23.2728 17:-1 18:-0.25 19:0 20:60.25 #
-6.1229133800463905810788911576736e-05 1:0 2:0 3:1.57891 4:0.29165399 5:0.15904 6:0.286955 7:1.3202 8:1.2671601 9:1.01475 10:1.5640301 11:62.226002 12:67.061798 13:0.66666698 14:0.92412001 15:0.90086901 16:17.237301 17:0 18:0 19:-1 20:-205 #
-6.1229133800463905810788911576736e-05 1:0 2:0 3:1.87568 4:1.9329799 5:0.92041898 6:0.56006598 7:0.45635 8:1.96626 9:0.74571103 10:0.74571103 11:49.022499 12:41.038601 13:0.66666698 14:0.93563199 15:0.93942499 16:13.8395 17:0 18:0 19:-1 20:-168.5 #
6.1229133800463905810788911576736e-05 1:-1 2:5 3:4.44101 4:1.53514 5:0.62035602 6:0.92896402 7:1.7609 8:1.58617 9:1.1556 10:17.3384 11:89.585403 12:85.224602 13:0.66666698 14:0.74711901 15:0.93745399 16:23.502501 17:-1 18:5 19:1 20:5.6666698 #
6.1229133800463905810788911576736e-05 1:-1 2:-6 3:5.3305302 4:0.18209 5:1.49973 6:4.3077202 7:0.92574799 8:0.77382201 9:4.0605998 10:6.7557502 11:79.221497 12:36.770901 13:1 14:0.96263802 15:0.96261603 16:21.268299 17:-1 18:-6 19:-2 20:-73.75 #
6.1229133800463905810788911576736e-05 1:-1 2:-7.875 3:5.0397801 4:0.44785199 5:0.78482801 6:1.00651 7:2.0971701 8:1.11378 9:1.74199 10:6.03404 11:76.691101 12:47.510101 13:0.66666698 14:0.57107502 15:0.955006 16:20.6957 17:-1 18:-7.875 19:-3 20:-119.583 #
6.1229133800463905810788911576736e-05 1:-1 2:-22 3:1.7445 4:0.32713699 5:0.16546699 6:0.97119701 7:2.10602 8:0.48118901 9:2.1570101 10:1.75207 11:62.0397 12:28.351 13:0.66666698 14:0.84304798 15:0.81217802 16:17.1908 17:-1 18:-22 19:-1 20:-9.1666698 #
6.1229133800463905810788911576736e-05 1:0 2:-1 3:2.2004099 4:0.26846701 5:0.85535198 6:0.56279403 7:2.96417 8:1.2040401 9:0.556445 10:5.4095101 11:84.522202 12:62.6609 13:0.66666698 14:0.771698 15:0.84185702 16:22.433901 17:0 18:-1 19:-3 20:-123.25 #
6.1229133800463905810788911576736e-05 1:2 2:11.5 3:4.1170301 4:0.51509398 5:1.83427 6:2.2332201 7:3.0885401 8:1.56559 9:2.8498299 10:2.8498299 11:70.022697 12:19.997299 13:0.444444 14:0.88924903 15:0.93290102 16:19.139099 17:-1 18:-78.833298 19:-3 20:-86.5 #
-6.1229133800463905810788911576736e-05 1:0 2:0 3:1.13551 4:0.096629702 5:0.53677601 6:0.65002501 7:0.97583401 8:0.74259299 9:1.03903 10:0.82692099 11:51.0835 12:44.98 13:0.66666698 14:0.81335002 15:0.89805102 16:14.3831 17:-1 18:-77 19:-2 20:-134 #
-6.1229133800463905810788911576736e-05 1:0 2:-4 3:2.64886 4:1.26235 5:1.1355 6:0.40094799 7:0.41920701 8:0.87174797 9:4.7170601 10:4.7170601 11:79.710503 12:29.1957 13:0.66666698 14:0.87376499 15:0.89203602 16:21.3778 17:0 18:-4 19:0 20:-4 #
6.1229133800463905810788911576736e-05 1:0 2:-10 3:3.82339 4:0.51285797 5:0.62131399 6:3.9746599 7:3.1360099 8:0.66504401 9:3.44241 10:3.44241 11:76.476303 12:57.779099 13:0.66666698 14:0.91834497 15:0.91633099 16:20.646601 17:0 18:-10 19:0 20:-10 #
-6.1229133800463905810788911576736e-05 1:0 2:0 3:2.7932401 4:0.338085 5:0.157502 6:0.107139 7:0.48681501 8:0.66453499 9:2.50442 10:2.50442 11:68.954803 12:28.854 13:0.66666698 14:0.86654902 15:0.904392 16:18.8836 17:0 18:0 19:0 20:0 #
6.1229133800463905810788911576736e-05 1:4 2:14.75 3:2.1212399 4:0.64096397 5:0.69845098 6:1.41429 7:2.8020599 8:2.6063099 9:4.5174799 10:3.44206 11:69.896698 12:20.020901 13:0.33333299 14:0.89059699 15:0.86963803 16:19.108999 17:2 18:-66.5 19:-1 20:-82.400002 #
-6.1229133800463905810788911576736e-05 1:0 2:8 3:2.01912 4:1.66673 5:2.22929 6:0.384159 7:1.06739 8:0.41124699 9:0.558824 10:1.81853 11:83.581001 12:66.382103 13:1 14:0.87764901 15:0.83166498 16:22.2304 17:0 18:8 19:-2 20:-78 #
-6.1229133800463905810788911576736e-05 1:2 2:10 3:5.9770198 4:0.227632 5:0.38827699 6:0.30985099 7:1.58876 8:0.38960299 9:1.5965101 10:1.5965101 11:60.939602 12:29.318501 13:0.444444 14:0.93815798 15:0.95251697 16:16.9156 17:2 18:10 19:5 20:127.2 #
-6.1229133800463905810788911576736e-05 1:0 2:0 3:2.86888 4:1.06387 5:0.246328 6:0.36993399 7:0.77708298 8:0.62541401 9:0.93783301 10:0.93783301 11:53.189201 12:52.224098 13:0.66666698 14:0.96266401 15:0.91705102 16:14.9338 17:0 18:0 19:-1 20:-111 #
-6.1229133800463905810788911576736e-05 1:0 2:0 3:1.4839 4:0.24126901 5:0.17859399 6:0.52899998 7:0.73749501 8:0.984519 9:0.422223 10:1.83702 11:88.231903 12:79.672699 13:0.66666698 14:0.78246802 15:0.75707901 16:23.2213 17:0 18:0 19:0 20:0 #
6.1229133800463905810788911576736e-05 1:-1 2:-0.25 3:2.69625 4:0.47224 5:0.88957101 6:2.0074601 7:2.01651 8:1.07469 9:3.3548999 10:3.4619601 11:76.363899 12:41.245998 13:0.66666698 14:0.82235199 15:0.86908901 16:20.620899 17:-1 18:-0.25 19:-7 20:-126.312 #
6.1229133800463905810788911576736e-05 1:1 2:19 3:3.65716 4:0.52703202 5:1.28207 6:0.57365799 7:2.1991899 8:2.3041401 9:0.76042497 10:7.5962701 11:83.437401 12:54.402302 13:0.66666698 14:0.69392902 15:0.89538199 16:22.1992 17:1 18:19 19:-5 20:-116.333 #
-6.1229133800463905810788911576736e-05 1:-1 2:-18 3:4.0050101 4:0.27213201 5:0.76225102 6:0.76725799 7:1.3626 8:0.25707501 9:0.67856997 10:1.85926 11:64.3451 12:50.393299 13:0.66666698 14:0.78253198 15:0.93832099 16:17.7624 17:-1 18:-18 19:3 20:141 #
6.1229133800463905810788911576736e-05 1:-4 2:-18.5 3:2.1600101 4:0.38914201 5:0.96602499 6:1.4601901 7:3.9480901 8:1.16416 9:2.3531301 10:2.3531301 11:76.699699 12:43.018799 13:1 14:0.88907701 15:0.76217997 16:20.697701 17:-4 18:-18.5 19:-3 20:53.799999 #
6.1229133800463905810788911576736e-05 1:-2 2:-10.5 3:2.8910799 4:0.71420997 5:2.6621699 6:0.91497302 7:0.97803098 8:0.902233 9:0.96662998 10:12.8106 11:89.095901 12:66.461601 13:1 14:0.62527502 15:0.84499401 16:23.401199 17:-2 18:-10.5 19:-7 20:-130.14301 #
6.1229133800463905810788911576736e-05 1:2 2:-15.25 3:4.8431802 4:5.3172202 5:1.5134 6:3.2528999 7:1.57863 8:2.0735199 9:5.1961598 10:5.1961598 11:86.707703 12:63.895302 13:0.66666698 14:0.93112397 15:0.92462802 16:22.9007 17:-3 18:-39.111099 19:-4 20:-48.849998 #
-6.1229133800463905810788911576736e-05 1:1 2:2.5 3:3.4230299 4:1.1149499 5:0.70803499 6:0.37488699 7:1.21354 8:0.84216499 9:1.03204 10:2.46558 11:65.737 12:36.861099 13:0.66666698 14:0.89479601 15:0.93786597 16:18.104099 17:1 18:2.5 19:1 20:2.5 #
6.1229133800463905810788911576736e-05 1:2 2:26 3:5.5725002 4:1.5296201 5:5.1990299 6:2.9017501 7:1.39498 8:0.97455698 9:4.7937498 10:3.2820699 11:74.405701 12:40.34 13:1 14:0.95959097 15:0.93276203 16:20.1698 17:2 18:26 19:2 20:26 #
-6.1229133800463905810788911576736e-05 1:1 2:11 3:5.84303 4:0.47117999 5:0.51540399 6:0.60366499 7:2.1156199 8:0.42210299 9:5.2514501 10:5.2514501 11:76.738197 12:64.115501 13:0.33333299 14:0.95008802 15:0.96334499 16:20.706499 17:1 18:11 19:1 20:11 #
6.1229133800463905810788911576736e-05 1:-3 2:-40 3:2.13462 4:1.0269901 5:0.54151201 6:4.8704801 7:2.00471 8:1.09911 9:1.77249 10:3.18226 11:80.653702 12:39.212601 13:0.66666698 14:0.84089899 15:0.78480399 16:21.5879 17:-3 18:-40 19:-2 20:95 #
-6.1229133800463905810788911576736e-05 1:-1 2:-40 3:1.71768 4:0.64717001 5:0.41104999 6:0.55785501 7:0.76202202 8:0.119886 9:0.90448898 10:0.90448898 11:52.661301 12:37.624199 13:0.66666698 14:0.86194599 15:0.916291 16:14.7962 17:-1 18:-40 19:0 20:140 #
-6.1229133800463905810788911576736e-05 1:-1 2:-11.5 3:1.24963 4:3.9990499 5:1.01186 6:0.57533199 7:0.48153499 8:0.2983 9:0.93098903 10:0.74480897 11:48.986198 12:42.367699 13:0.66666698 14:0.90886098 15:0.888699 16:13.8299 17:-1 18:-11.5 19:-1 20:-11.5 #
-6.1229133800463905810788911576736e-05 1:-1 2:-54 3:2.8015101 4:0.702784 5:0.242035 6:0.38338801 7:0.46062601 8:1.05208 9:1.49244 10:1.49244 11:62.688202 12:48.007 13:1 14:0.831967 15:0.83742702 16:17.352301 17:-1 18:-54 19:-1 20:-54 #
6.1229133800463905810788911576736e-05 1:0 2:0 3:2.4558401 4:1.92072 5:1.2377599 6:5.2096801 7:1.0797499 8:0.48925799 9:4.81813 10:2.87695 11:65.937798 12:21.294701 13:1 14:0.95011997 15:0.88534099 16:18.1532 17:0 18:0 19:0 20:0 #
-6.1229133800463905810788911576736e-05 1:0 2:0 3:3.41379 4:1.27807 5:8.87286 6:1.00414 7:1.25797 8:1.03196 9:1.09346 10:1.09346 11:52.225101 12:42.4711 13:1 14:0.95029998 15:0.83619303 16:14.6823 17:3 18:86.5 19:-1 20:-132.075 #
-6.1229133800463905810788911576736e-05 1:2 2:13.5 3:1.64555 4:0.53803098 5:0.54049897 6:0.65967202 7:1.82942 8:0.302937 9:1.5685101 10:1.62835 11:60.964001 12:32.556198 13:0.66666698 14:0.96643299 15:0.92131901 16:16.9217 17:2 18:13.5 19:2 20:13.5 #
-6.1229133800463905810788911576736e-05 1:-2 2:-7.5 3:1.4711699 4:0.68663299 5:0.40674299 6:0.96368998 7:0.54185599 8:0.77234203 9:0.86207098 10:1.95822 11:72.627899 12:56.729198 13:0.66666698 14:0.73700398 15:0.72827899 16:19.755199 17:-2 18:-7.5 19:-2 20:-7.5 #
6.1229133800463905810788911576736e-05 1:-3 2:-7.75 3:1.59276 4:11.1623 5:3.59725 6:1.09907 7:1.61278 8:2.6977401 9:2.34444 10:2.59168 11:70.884903 12:27.6082 13:0.66666698 14:0.91609001 15:0.85058498 16:19.344101 17:-1 18:41.583302 19:0 20:52.5 #
-6.1229133800463905810788911576736e-05 1:1 2:7 3:1.3311501 4:0.43779001 5:0.35845399 6:1.10672 7:0.99930698 8:0.194374 9:1.102 10:1.17936 11:57.796501 12:39.074699 13:0.444444 14:0.94570202 15:0.94710797 16:16.120701 17:1 18:7 19:2 20:94.5 #
6.1229133800463905810788911576736e-05 1:0 2:0 3:3.2413499 4:0.54778999 5:1.08012 6:1.60833 7:0.71693301 8:2.00524 9:0.885997 10:8.1108999 11:89.672798 12:54.010799 13:0.66666698 14:0.82082897 15:0.90341502 16:23.520599 17:0 18:0 19:-2 20:-156 #
6.1229133800463905810788911576736e-05 1:5 2:25.4 3:4.1563902 4:4.6031299 5:3.1180401 6:2.72843 7:5.2237902 8:0.76571101 9:7.1393499 10:3.8778801 11:70.587402 12:22.3092 13:1 14:0.98664701 15:0.94822198 16:19.2735 17:5 18:25.4 19:5 20:25.4 #
6.1229133800463905810788911576736e-05 1:-3 2:-25.3333 3:3.83623 4:5.90695 5:3.07936 6:3.2450099 7:2.5687201 8:0.72383302 9:3.3841801 10:4.3275099 11:72.954597 12:25.959499 13:1 14:0.969607 15:0.91398698 16:19.8318 17:-6 18:-53.333302 19:-7 20:-83.142899 #
6.1229133800463905810788911576736e-05 1:0 2:0 3:3.8410299 4:1.25421 5:10.8734 6:6.7897801 7:0.571253 8:0.237207 9:5.5749698 10:5.5749698 11:87.090302 12:58.962799 13:1 14:0.85762399 15:0.91049999 16:22.981501 17:0 18:0 19:0 20:0 #
-6.1229133800463905810788911576736e-05 1:2 2:14.0833 3:2.8623199 4:0.58348799 5:0.78241599 6:0.57667601 7:0.71329099 8:1.9295599 9:1.37326 10:1.37326 11:58.837601 12:31.2374 13:1 14:0.889431 15:0.91408098 16:16.3853 17:-1 18:-17.125 19:-3 20:-32.8438 #
-6.1229133800463905810788911576736e-05 1:5 2:30.200001 3:2.6052899 4:0.70602399 5:1.07243 6:0.59823197 7:0.519481 8:0.58781999 9:0.54565102 10:1.75343 11:85.642899 12:88.110603 13:1 14:0.74602997 15:0.73466003 16:22.674299 17:5 18:30.200001 19:5 20:30.200001 #
6.1229133800463905810788911576736e-05 1:-2 2:-15 3:2.12602 4:0.62766099 5:1.85405 6:6.83777 7:2.1867199 8:3.9379799 9:2.9084699 10:2.9084699 11:71.353699 12:19.0807 13:0.66666698 14:0.82401901 15:0.80493098 16:19.455099 17:-2 18:-15 19:-6 20:-111 #
-6.1229133800463905810788911576736e-05 1:-2 2:-9 3:1.60391 4:2.6421399 5:0.67619401 6:0.24553999 7:0.68100202 8:0.50790602 9:1.37517 10:1.0311199 11:55.945801 12:30.0987 13:0.66666698 14:0.833736 15:0.91982901 16:15.6469 17:-2 18:-9 19:-3 20:-65.333298 #
6.1229133800463905810788911576736e-05 1:4 2:21 3:3.64222 4:2.8941901 5:5.6508698 6:6.4229898 7:2.47633 8:1.59656 9:6.7069998 10:9.2529802 11:80.939903 12:40.694401 13:1 14:0.95492297 15:0.95672899 16:21.6513 17:4 18:21 19:4 20:21 #
-6.1229133800463905810788911576736e-05 1:0 2:0 3:1.4432 4:0.55556798 5:2.39728 6:0.50762498 7:0.41536301 8:1.1740299 9:0.75048602 10:0.94428098 11:54.310001 12:44.2094 13:0.66666698 14:0.82731301 15:0.87858999 16:15.2248 17:0 18:0 19:0 20:0 #
-6.1229133800463905810788911576736e-05 1:-2 2:-9.125 3:1.15206 4:1.44002 5:3.8909199 6:0.19133399 7:0.214699 8:0.47493199 9:1.57283 10:1.57283 11:69.8181 12:65.095299 13:0.66666698 14:0.85278201 15:0.814381 16:19.0902 17:-2 18:-9.125 19:-3 20:-49.333302 #
-6.1229133800463905810788911576736e-05 1:0 2:-2 3:4.99193 4:0.51633501 5:0.299054 6:0.55519497 7:0.88336802 8:0.33743501 9:1.3322099 10:1.3322099 11:56.3811 12:34.9874 13:0.66666698 14:0.97186601 15:0.91174603 16:15.7587 17:0 18:-2 19:0 20:-2 #
-6.1229133800463905810788911576736e-05 1:-2 2:-13 3:1.49762 4:1.55354 5:0.74843699 6:0.81131101 7:1.95904 8:0.36662599 9:1.31779 10:0.91882098 11:54.029701 12:33.905701 13:0.66666698 14:0.88191098 15:0.90991402 16:15.1521 17:-2 18:-13 19:-2 20:-13 #
6.1229133800463905810788911576736e-05 1:2 2:14.625 3:1.84868 4:0.30978099 5:1.3594 6:2.65465 7:2.5811801 8:1.04107 9:3.29424 10:1.99652 11:74.249001 12:14.0616 13:0.33333299 14:0.746086 15:0.71557701 16:20.133499 17:-1 18:-69.291702 19:-2 20:-76 #
-6.1229133800463905810788911576736e-05 1:-1 2:-10 3:7.2176299 4:5.6083398 5:0.24429201 6:0.49155799 7:1.12702 8:0.98863399 9:0.91937101 10:0.58171999 11:46.040199 12:37.1572 13:0.66666698 14:0.83452499 15:0.96955299 16:13.045 17:-1 18:-10 19:-4 20:-130.5 #
6.1229133800463905810788911576736e-05 1:-2 2:-10 3:1.43229 4:1.23861 5:0.45668799 6:2.27912 7:0.89274198 8:3.04076 9:1.72215 10:3.22491 11:75.494904 12:29.0089 13:0.444444 14:0.77842402 15:0.814677 16:20.421499 17:-1 18:90 19:-1 20:45.166698 #
6.1229133800463905810788911576736e-05 1:5 2:29.200001 3:1.90178 4:1.84464 5:2.7960601 6:1.59956 7:4.50524 8:2.58743 9:4.4622102 10:4.5250201 11:75.411003 12:13.2694 13:0.33333299 14:0.81215 15:0.79264599 16:20.402201 17:3 18:-48.799999 19:-1 20:-131.133 #
6.1229133800463905810788911576736e-05 1:2 2:6 3:3.80865 4:0.54403597 5:4.7093301 6:1.95285 7:3.5676301 8:1.7260799 9:10.6536 10:2.47596 11:69.724297 12:8.96453 13:0.33333299 14:0.93239498 15:0.85655099 16:19.0679 17:0 18:-54.666698 19:-2 20:-72.800003 #
-6.1229133800463905810788911576736e-05 1:1 2:14 3:3.7072599 4:0.187659 5:0.25410599 6:1.06399 7:0.453062 8:1.25272 9:2.3340199 10:2.3340199 11:68.079399 12:59.838001 13:0.66666698 14:0.91704601 15:0.93866402 16:18.673 17:1 18:14 19:1 20:14 #
6.1229133800463905810788911576736e-05 1:-5 2:-31.6 3:5.1080298 4:1.29205 5:5.9972401 6:6.5801201 7:2.39888 8:0.37784299 9:5.5103598 10:5.5103598 11:74.2696 12:17.773199 13:1 14:0.96700799 15:0.95206398 16:20.1383 17:-5 18:-31.6 19:-5 20:-31.6 #
-6.1229133800463905810788911576736e-05 1:-2 2:-27 3:2.42855 4:0.210329 5:0.297622 6:0.42932701 7:1.1126 8:0.43249601 9:1.2062401 10:1.2062401 11:57.9562 12:46.346001 13:0.66666698 14:0.82292902 15:0.88218701 16:16.1614 17:-2 18:-27 19:-2 20:-27 #
6.1229133800463905810788911576736e-05 1:-4 2:-23.625 3:2.48612 4:1.11796 5:0.393987 6:0.93246901 7:3.18013 8:1.87097 9:5.2367101 10:5.2367101 11:80.471802 12:27.0387 13:0.166667 14:0.91734201 15:0.84809297 16:21.547501 17:-2 18:56.625 19:-2 20:56.625 #
-6.1229133800463905810788911576736e-05 1:0 2:0 3:1.1840301 4:0.22172 5:1.02262 6:0.55338502 7:0.33822799 8:1.05211 9:0.76789999 10:1.42905 11:62.7701 12:51.639301 13:0.66666698 14:0.62225002 15:0.678958 16:17.3727 17:0 18:0 19:2 20:55.166698 #
-6.1229133800463905810788911576736e-05 1:1 2:4.6666698 3:1.20456 4:2.3877299 5:1.64572 6:0.975425 7:0.70493299 8:0.60901201 9:1.36616 10:1.36616 11:61.586201 12:48.0928 13:0.444444 14:0.74911398 15:0.80562502 16:17.077499 17:1 18:4.6666698 19:1 20:4.6666698 #
6.1229133800463905810788911576736e-05 1:-2 2:-9 3:2.2076099 4:0.46706399 5:2.02352 6:2.5883601 7:1.8436199 8:1.2630301 9:5.70543 10:5.70543 11:78.204201 12:20.3731 13:0.66666698 14:0.92277098 15:0.84126699 16:21.039301 17:-2 18:-9 19:0 20:84 #
-6.1229133800463905810788911576736e-05 1:0 2:-4 3:3.0790401 4:0.98193598 5:0.27399001 6:0.34638199 7:0.86605 8:0.566338 9:0.90696198 10:0.90696198 11:52.9025 12:37.8992 13:0.66666698 14:0.922638 15:0.95123798 16:14.8591 17:0 18:-4 19:0 20:-4 #
6.1229133800463905810788911576736e-05 1:3 2:19.3333 3:3.2725101 4:0.75187999 5:1.7749799 6:4.01508 7:1.13767 8:0.66531801 9:12.3421 10:2.9964299 11:71.972298 12:12.8497 13:1 14:0.95701498 15:0.89482301 16:19.601101 17:3 18:19.3333 19:3 20:19.3333 #
6.1229133800463905810788911576736e-05 1:-2 2:-8.5 3:5.04561 4:0.20170499 5:2.0966401 6:4.0194898 7:2.7483799 8:0.817981 9:5.8271198 10:5.8271198 11:74.565201 12:15.5486 13:0.66666698 14:0.97530001 15:0.976632 16:20.2068 17:-2 18:-8.5 19:-2 20:-8.5 #
-6.1229133800463905810788911576736e-05 1:0 2:0 3:2.86957 4:1.17434 5:0.63561898 6:0.66058701 7:0.905963 8:0.600618 9:0.76207602 10:0.76207602 11:47.861801 12:43.3134 13:0.66666698 14:0.84169298 15:0.86510599 16:13.5314 17:0 18:0 19:-2 20:-147.75 #
6.1229133800463905810788911576736e-05 1:-3 2:-16 3:2.39042 4:0.34334299 5:0.89420903 6:2.18156 7:1.85129 8:1.06414 9:6.0218301 10:6.0218301 11:80.153397 12:16.112 13:0.444444 14:0.894759 15:0.87652701 16:21.476601 17:-3 18:-16 19:2 20:131.39999 #
-6.1229133800463905810788911576736e-05 1:0 2:-13.5 3:2.18729 4:0.31881699 5:1.6943001 6:0.61897302 7:0.59253699 8:0.43212399 9:0.60982698 10:0.77670801 11:51.233898 12:45.247799 13:0.66666698 14:0.97321802 15:0.95591801 16:14.4226 17:1 18:21.125 19:1 20:21.125 #
-6.1229133800463905810788911576736e-05 1:1 2:8.0625 3:2.4881499 4:1.8857599 5:0.30199301 6:0.55928499 7:0.64647597 8:0.187058 9:0.75772399 10:0.75823897 11:50.771599 12:40.215099 13:0.66666698 14:0.96716499 15:0.97088099 16:14.3012 17:1 18:8.0625 19:1 20:8.0625 #
-2.7196068461395398585924224055255e-05 1:-1 2:-18.5 3:4.1816702 4:6.1902599 5:1.02158 6:0.70897698 7:0.68291998 8:0.53026402 9:0.742872 10:0.58955997 11:46.9161 12:39.942101 13:0.444444 14:0.98044002 15:0.98755801 16:13.2793 17:2 18:49.083302 19:2 20:49.083302 #
6.1229133800463905810788911576736e-05 1:1 2:10 3:2.5522499 4:0.93739599 5:2.1410401 6:0.67838103 7:1.16585 8:2.1735401 9:4.5803499 10:4.5803499 11:81.639297 12:15.7247 13:0.66666698 14:0.82792997 15:0.82677102 16:21.805799 17:1 18:10 19:2 20:89.25 #
-6.1229133800463905810788911576736e-05 1:0 2:0 3:1.53649 4:0.73124099 5:0.163811 6:0.93748403 7:0.26995099 8:0.48011699 9:1.23431 10:1.23431 11:61.164799 12:62.864601 13:0.66666698 14:0.88312298 15:0.850815 16:16.972 17:0 18:0 19:0 20:0 #
