SVM-light Version V6.02
0 # kernel type
3 # kernel parameter -d 
1 # kernel parameter -g 
1 # kernel parameter -s 
1 # kernel parameter -r 
empty# kernel parameter -u 
20 # highest feature index 
5218 # number of training documents 
48 # number of support vectors plus 1 
1.0003806 # threshold b, each following line is a SV (starting with alpha*y)
-1.2070914274874000593484879573225e-05 1:1 2:10.75 3:1.24419 4:0.501028 5:0.18945301 6:0.27607501 7:0.114997 8:0.58171999 9:0.17645 10:0.025785999 11:1.72431 12:76.420898 13:0.444444 14:0.96956402 15:0.97467601 16:0.50194103 17:1 18:10.75 19:1 20:10.75 #
5.3929915839987524884928393742456e-05 1:1 2:-20.6667 3:3.14959 4:1.3236099 5:0.78543198 6:1.1932 7:1.00177 8:1.04787 9:1.31813 10:0.80571002 11:47.995998 12:74.432404 13:1 14:0.84459299 15:0.82677501 16:13.5671 17:-1 18:-42.916698 19:-7 20:-86.166702 #
-5.387938724859815502188364888525e-05 1:0 2:0 3:2.83163 4:0.31029499 5:1.90914 6:1.14274 7:0.360708 8:0.50618601 9:1.75117 10:1.75117 11:64.173103 12:26.376801 13:0.166667 14:0.77852798 15:0.82644802 16:17.719999 17:0 18:0 19:-2 20:-293.25 #
5.3929915839987524884928393742456e-05 1:-3 2:17.5 3:1.32732 4:1.14362 5:0.293439 6:1.16676 7:0.424023 8:1.23642 9:0.81806397 10:0.378286 11:24.097799 12:70.616997 13:0.66666698 14:0.56465298 15:0.71186 16:6.96347 17:1 18:35.099998 19:0 20:7 #
-2.6399684298294978646026720525697e-05 1:0 2:0 3:10.2869 4:0.853827 5:3.5287399 6:1.78722 7:0.32416001 8:0.442332 9:1.35317 10:2.4895999 11:89.899902 12:89.400902 13:0.166667 14:0.97617102 15:0.85269302 16:23.5674 17:0 18:0 19:1 20:292 #
5.3929915839987524884928393742456e-05 1:-1 2:-10 3:1.88065 4:1.1163599 5:1.3735 6:1.19423 7:0.96771097 8:1.33056 9:2.9751999 10:2.0178199 11:73.700401 12:20.163 13:0.66666698 14:0.72045702 15:0.74032003 16:20.005899 17:-4 18:-25 19:-6 20:-64 #
5.3929915839987524884928393742456e-05 1:1 2:3 3:4.8710899 4:1.00913 5:0.85122198 6:0.400655 7:0.38625699 8:2.6294601 9:0.62125897 10:1.23115 11:58.1092 12:54.6021 13:1 14:0.92982399 15:0.94321901 16:16.2003 17:1 18:3 19:2 20:45.333302 #
-4.3657112235265249644555751729058e-05 1:-1 2:-54 3:1.97797 4:3.1716299 5:0.69545501 6:0.50517601 7:0.53247499 8:0.56264102 9:0.69023901 10:0.69023901 11:47.367699 12:70.381699 13:0.166667 14:0.79916799 15:0.758807 16:13.3998 17:-2 18:-66 19:-8 20:-167 #
5.3929915839987524884928393742456e-05 1:0 2:30 3:2.41575 4:0.48941699 5:0.97173202 6:0.45688099 7:0.242974 8:1.12804 9:0.40245801 10:0.40245801 11:37.101101 12:54.130402 13:0.66666698 14:0.83872199 15:0.89579397 16:10.6127 17:1 18:37 19:-1 20:-0.66666698 #
-5.3929915839987524884928393742456e-05 1:0 2:0 3:1.5415601 4:0.130291 5:0.72293001 6:2.1342599 7:0.37454 8:0.37119699 9:1.78236 10:0.80214101 11:51.8895 12:54.666302 13:0.166667 14:0.90150601 15:0.89579099 16:14.5945 17:0 18:0 19:1 20:300 #
5.3929915839987524884928393742456e-05 1:1 2:-29.5 3:3.31827 4:0.12777799 5:0.91490102 6:2.5039001 7:0.20162199 8:0.66621798 9:1.75349 10:1.75349 11:66.464302 12:84.747902 13:1 14:0.90015602 15:0.91105902 16:18.281601 17:-1 18:-53.166698 19:-4 20:-84.833298 #
-3.3036128605026232455711687752142e-05 1:0 2:0 3:1.55555 4:1.26306 5:1.77974 6:0.55324298 7:0.32492599 8:0.465507 9:0.44680801 10:0.37012699 11:40.464001 12:87.209801 13:0.33333299 14:0.99300098 15:0.98901701 16:11.5361 17:0 18:0 19:-1 20:-300 #
-1.2447937664925458995605206391488e-05 1:1 2:58.5 3:4.6368899 4:1.3065 5:1.8796 6:0.72879303 7:0.675758 8:0.88361502 9:1.85198 10:1.85198 11:70.844002 12:45.7104 13:1 14:0.91021103 15:0.74105197 16:19.3344 17:1 18:58.5 19:0 20:-223 #
-3.9222310725030989919659418774245e-06 1:0 2:0 3:1.79168 4:0.35727599 5:0.64002103 6:0.96318799 7:0.103098 8:0.30002499 9:0.326529 10:3.86322 11:84.839996 12:68.658096 13:0.33333299 14:0.87756902 15:0.81127298 16:22.5023 17:0 18:0 19:1 20:279 #
5.3929915839987524884928393742456e-05 1:-2 2:-14.6667 3:1.9198999 4:0.459104 5:2.1566899 6:1.17524 7:1.49406 8:0.77850997 9:1.2516 10:1.2516 11:70.2118 12:71.146896 13:0.33333299 14:0.64652801 15:0.65416002 16:19.184099 17:-2 18:-14.6667 19:-5 20:-72 #
5.3929915839987524884928393742456e-05 1:0 2:0 3:1.5365601 4:0.723611 5:0.365848 6:0.49522999 7:0.37966901 8:0.181242 9:0.79590398 10:0.84808701 11:44.134102 12:89.544296 13:0.444444 14:0.34608701 15:0.669056 16:12.5325 17:0 18:0 19:0 20:0 #
-2.2228566386495061870266082282299e-05 1:0 2:0 3:2.0680599 4:0.61860502 5:0.82255 6:0.36721 7:0.173609 8:0.224236 9:0.233849 10:0.233849 11:30.575199 12:64.028801 13:0.33333299 14:0.965002 15:0.94931298 16:8.7954302 17:0 18:0 19:-1 20:-300 #
-1.0837176522989510178977996812666e-05 1:0 2:0 3:4.2794499 4:0.107723 5:0.579144 6:0.17642801 7:0.191199 8:0.15379 9:0.089002199 10:0.140145 11:27.364599 12:85.134697 13:0.444444 14:0.98704702 15:0.99433398 16:7.8905401 17:0 18:0 19:-1 20:-300 #
5.3929915839987524884928393742456e-05 1:2 2:31 3:1.56578 4:4.5332198 5:0.70744401 6:2.61324 7:0.62086701 8:0.362771 9:0.84875202 10:0.84875202 11:51.9883 12:59.868401 13:0.66666698 14:0.87280297 15:0.91366202 16:14.6203 17:1 18:5 19:0 20:-11 #
-1.8441113658076882346470437568087e-05 1:1 2:16.5 3:1.76416 4:0.85070902 5:0.58667701 6:1.22685 7:0.45791301 8:0.40411299 9:1.86068 10:6.73876 11:83.078903 12:61.335701 13:0.166667 14:0.74909598 15:0.78498697 16:22.121201 17:0 18:-73 19:3 20:110.75 #
-6.2188965770747092045103460861144e-07 1:-2 2:17.3333 3:1.1765 4:5.8989801 5:2.14836 6:0.30739999 7:0.83203 8:1.0591201 9:0.91752499 10:0.31913701 11:25.203501 12:88.636002 13:1 14:0.76676798 15:0.80898601 16:7.2779298 17:-5 18:-8 19:-7 20:-41.75 #
-1.3208856340721220057332629949087e-06 1:1 2:60 3:4.4979601 4:0.44968599 5:0.36533999 6:0.684614 7:0.14684799 8:0.70242399 9:0.387398 10:5.2348099 11:82.144302 12:62.860802 13:0.33333299 14:0.92376602 15:0.92036301 16:21.9168 17:1 18:60 19:1 20:60 #
-1.1740460361310327638438219532979e-05 1:0 2:49.5 3:1.82357 4:1.2938499 5:0.075337604 6:0.31783 7:0.922315 8:0.98424602 9:1.0648201 10:1.49149 11:89.607903 12:85.139801 13:0.66666698 14:0.58169198 15:0.620242 16:23.5072 17:0 18:49.5 19:-1 20:-6.75 #
-8.5670359911687460081203271400341e-06 1:1 2:55.625 3:1.23546 4:1.32871 5:0.90855998 6:0.46272099 7:0.109733 8:0.53502601 9:0.249378 10:0.249378 11:31.1392 12:88.4674 13:0.33333299 14:0.93057603 15:0.931072 16:8.9537001 17:0 18:-43.375 19:-2 20:-113.5 #
-1.8386415639850143600476928273935e-06 1:1 2:43 3:2.1947601 4:1.5700001 5:0.30362499 6:0.35347199 7:0.22448701 8:0.170274 9:0.222514 10:0.55435097 11:42.919899 12:69.752502 13:0.33333299 14:0.84074003 15:0.86946601 16:12.2042 17:0 18:-19 19:1 20:98 #
-2.2268003772880509171026679193783e-06 1:-8 2:-36.75 3:3.81161 4:0.34666401 5:0.320546 6:0.212892 7:0.24203099 8:0.176364 9:0.175899 10:0.104449 11:21.8141 12:69.363197 13:0.444444 14:0.95293498 15:0.97587103 16:6.3119798 17:-8 18:-36.75 19:-7 20:219.25 #
-7.9643755250251996313792801629461e-06 1:-1 2:24 3:1.32061 4:0.24387001 5:0.57880998 6:0.75766701 7:0.083558902 8:0.104707 9:0.206551 10:0.206551 11:20.1567 12:69.930603 13:0.33333299 14:0.927351 15:0.87354702 16:5.8375702 17:-3 18:-4 19:-9 20:-79.400002 #
-4.5966640225991728385679380153306e-05 1:0 2:0 3:1.17838 4:4.1805401 5:0.92409497 6:0.80655497 7:0.14089601 8:6.2060299 9:0.50064403 10:0.50064403 11:42.7644 12:69.360901 13:0.66666698 14:0.95339602 15:0.897277 16:12.1621 17:0 18:0 19:1 20:294 #
-6.3843371711275958392480022254856e-07 1:-3 2:-11.6667 3:2.16959 4:0.27920499 5:0.187051 6:0.37712601 7:0.301278 8:0.79680699 9:0.66426897 10:0.30566999 11:20.7012 12:73.288902 13:1 14:0.74041301 15:0.76679403 16:5.9935498 17:-2 18:54.333302 19:-6 20:-28.7143 #
-5.0697797719254713037437265477081e-06 1:-1 2:-6.40625 3:1.53435 4:1.7816401 5:0.64543301 6:0.47578901 7:0.94518 8:0.77515 9:0.352604 10:0.352604 11:34.727402 12:83.092697 13:0.66666698 14:0.83318597 15:0.88921797 16:9.95539 17:-1 18:-6.40625 19:-9 20:-164.48801 #
-2.6258634340862354174077342161553e-05 1:-2 2:-12 3:1.57947 4:0.60865402 5:0.77135301 6:0.91748899 7:1.7034 8:0.83797598 9:1.3005 10:1.63091 11:64.246002 12:48.7612 13:0.444444 14:0.55719697 15:0.78457302 16:17.738001 17:-2 18:-12 19:-6 20:183.286 #
-2.8725762247975141026185008641392e-07 1:-1 2:4.3000002 3:2.43314 4:0.319428 5:0.65133101 6:0.479233 7:2.0246301 8:1.65655 9:1.23917 10:1.48752 11:61.415199 12:70.999603 13:1 14:0.78269798 15:0.84442401 16:17.0347 17:-2 18:-7.5 19:-8 20:-32.276901 #
-2.3882787833896030492479524084959e-07 1:1 2:7.5 3:1.84583 4:0.44774801 5:0.30026501 6:0.82931501 7:2.93648 8:0.862113 9:4.9303699 10:4.9303699 11:85.290001 12:6.4156699 13:0.66666698 14:0.80884802 15:0.76905102 16:22.5989 17:-1 18:-45.833302 19:-4 20:-73.333298 #
-1.04679841304671211038579414776e-06 1:-1 2:-16 3:1.8221101 4:1.50968 5:0.97068298 6:0.81165397 7:1.14657 8:0.65387702 9:2.7549 10:2.7549 11:72.996399 12:18.640699 13:0.33333299 14:0.76487303 15:0.72215599 16:19.841499 17:-1 18:-16 19:-7 20:-192.214 #
-5.19042107261270688417856278285e-06 1:-1 2:-8 3:2.9194801 4:0.51617599 5:1.66351 6:2.3276401 7:0.86992103 8:0.48874599 9:1.06872 10:6.5198598 11:77.532204 12:86.405602 13:1 14:0.790829 15:0.90739697 16:20.887199 17:-1 18:-8 19:-13 20:-153.34599 #
-4.5610556764739962343213619533344e-06 1:0 2:0 3:1.78092 4:0.45107499 5:0.57780999 6:0.87622702 7:0.15583099 8:0.393536 9:0.97631299 10:0.28130299 11:21.149599 12:55.580399 13:0.444444 14:0.55580199 15:0.80025101 16:6.1219201 17:0 18:0 19:1 20:297 #
-2.4133565418513192035732117801672e-05 1:1 2:7.3125 3:2.34079 4:0.73887199 5:0.192893 6:0.82692802 7:1.69646 8:0.789213 9:0.97824299 10:0.91550303 11:55.3853 12:51.3596 13:0.66666698 14:0.92325801 15:0.861408 16:15.5026 17:1 18:7.3125 19:-7 20:-193.444 #
-2.1987266027461457688907398022593e-07 1:0 2:18.25 3:2.23101 4:0.54727203 5:0.88600898 6:0.33827299 7:0.75543499 8:6.7672 9:2.70631 10:0.49778399 11:38.555 12:24.8545 13:1 14:0.886621 15:0.839302 16:11.0131 17:0 18:18.25 19:-4 20:-103.708 #
-1.3056901468052120596219367598678e-05 1:0 2:44 3:1.42489 4:0.056586001 5:0.55746198 6:0.79484302 7:0.378755 8:0.52472502 9:0.95827502 10:1.23276 11:64.507401 12:74.9496 13:1 14:0.87098497 15:0.827618 16:17.802401 17:0 18:44 19:-4 20:-85.599998 #
-1.9598796624585752834679652778505e-05 1:-2 2:-8.5 3:1.92055 4:2.7565701 5:1.2257 6:0.978122 7:1.02721 8:0.45882699 9:1.40651 10:0.94542801 11:51.628799 12:87.473602 13:1 14:0.87333697 15:0.89766902 16:14.5262 17:-2 18:-8.5 19:-9 20:-172.38901 #
-1.2117021637170617654952198272156e-07 1:-4 2:32.799999 3:3.17524 4:0.87898201 5:0.34488201 6:0.56519699 7:0.96715897 8:4.2435799 9:4.3533301 10:4.3533301 11:80.1968 12:37.239201 13:0.33333299 14:0.85692 15:0.89324301 16:21.4863 17:-3 18:34.799999 19:-3 20:34.799999 #
-5.0728067579886015892043360508978e-12 1:0 2:0 3:1.00967 4:0.31672099 5:0.31128201 6:0.28748 7:0.094696902 8:0.27142501 9:0.24367601 10:0.219923 11:32.1772 12:76.360901 13:0.66666698 14:0.99592799 15:0.97643697 16:9.2444401 17:0 18:0 19:-8 20:-245.625 #
-5.4219951976860333449337835121096e-08 1:0 2:0 3:4.1495199 4:2.26476 5:3.2742 6:8.0593796 7:4.8098202 8:0.71988499 9:6.9422002 10:6.9422002 11:75.905296 12:28.003599 13:1 14:0.98765397 15:0.97910398 16:20.5158 17:0 18:0 19:-8 20:-15.8333 #
-1.2367195316475339955664125568546e-06 1:2 2:25.3333 3:12.2227 4:1.68053 5:0.489923 6:26.7169 7:26.422899 8:1.54495 9:24.8253 10:14.9284 11:80.4823 12:15.5035 13:0.66666698 14:0.97415298 15:0.996526 16:21.549801 17:2 18:25.3333 19:1 20:-92.666702 #
-1.2378645661985040755254106059624e-05 1:0 2:0 3:1.52062 4:0.37306499 5:0.46852401 6:8.1586399 7:0.097768404 8:0.141078 9:0.342861 10:0.342861 11:21.374001 12:74.976303 13:0.33333299 14:0.81560498 15:0.74017799 16:6.18611 17:0 18:0 19:-2 20:-271.5 #
-1.4575293037685901941305499640578e-07 1:3 2:20.6667 3:2.5785799 4:0.342224 5:0.378405 6:0.47545999 7:1.4579 8:1.84082 9:0.97386998 10:2.1959 11:83.103203 12:41.451698 13:1 14:0.646263 15:0.773031 16:22.126499 17:2 18:-71.333298 19:-3 20:-99.333298 #
-3.5487386859707633311733498970852e-08 1:0 2:0 3:2.1018901 4:0.69500601 5:0.302634 6:0.157813 7:0.090700597 8:0.582407 9:0.230434 10:0.15433 11:12.5346 12:71.417099 13:0.66666698 14:0.80176502 15:0.87410003 16:3.64165 17:0 18:0 19:1 20:298 #
