SVM-light Version V6.02
0 # kernel type
3 # kernel parameter -d 
1 # kernel parameter -g 
1 # kernel parameter -s 
1 # kernel parameter -r 
empty# kernel parameter -u 
20 # highest feature index 
2126 # number of training documents 
62 # number of support vectors plus 1 
0.99946491 # threshold b, each following line is a SV (starting with alpha*y)
-7.2871440491410132908340485657916e-06 1:1 2:59.25 3:2.5808101 4:1.27695 5:0.26341099 6:0.19734199 7:0.213361 8:0.425152 9:0.19401599 10:0.107388 11:18.9517 12:63.667099 13:0.66666698 14:0.90795398 15:0.95380598 16:5.4918699 17:4 18:73.625 19:3 20:-194.062 #
5.8722731720563139772017802187065e-05 1:0 2:0 3:3.9676199 4:1.20899 5:1.43566 6:0.21051399 7:0.155595 8:0.55145198 9:0.30541599 10:0.204238 11:30.4545 12:61.327499 13:0.66666698 14:0.97019202 15:0.973189 16:8.7615604 17:0 18:0 19:7 20:216.14301 #
-1.9102584440887243463151178718418e-06 1:0 2:0 3:2.2115901 4:7.4573598 5:1.7645299 6:0.293268 7:0.37259701 8:0.63686502 9:0.26109999 10:0.241027 11:19.3818 12:86.293503 13:0.66666698 14:0.84499103 15:0.82665098 16:5.6153202 17:0 18:0 19:1 20:300 #
5.8722731720563139772017802187065e-05 1:0 2:0 3:4.4296999 4:0.94983798 5:0.70087099 6:0.16284899 7:0.236904 8:0.26673999 9:0.25429299 10:0.18987399 11:29.3587 12:73.3041 13:0.33333299 14:0.91589898 15:0.96992898 16:8.4533596 17:0 18:0 19:-1 20:-224 #
-1.8980030466398458430590800993798e-07 1:0 2:0 3:1.9450999 4:0.61298698 5:0.12593099 6:0.796965 7:0.236377 8:0.155982 9:0.257808 10:0.257808 11:26.909201 12:75.1604 13:0.33333299 14:0.86095899 15:0.875714 16:7.7616901 17:0 18:0 19:-1 20:-282 #
-4.6537227366173772313828749247477e-05 1:0 2:0 3:1.6184 4:0.116664 5:0.86178201 6:0.16948999 7:0.138446 8:1.1311001 9:0.085281201 10:0.085281201 11:9.88766 12:85.366096 13:0.66666698 14:0.91208702 15:0.93057197 16:2.8748 17:0 18:0 19:1 20:300 #
-5.8722731720563139772017802187065e-05 1:0 2:0 3:2.29228 4:0.68533802 5:0.20748501 6:0.097628102 7:0.243861 8:1.3615 9:0.083066903 10:0.068784602 11:18.9321 12:71.437897 13:0.66666698 14:0.98171997 15:0.99098402 16:5.4862499 17:0 18:0 19:-1 20:-298 #
5.8722731720563139772017802187065e-05 1:2 2:21 3:2.1217501 4:0.40913501 5:0.44192499 6:0.337989 7:0.091832697 8:0.253824 9:0.21318901 10:0.14829101 11:23.893499 12:89.529404 13:0.33333299 14:0.82701898 15:0.95392501 16:6.9052901 17:2 18:21 19:2 20:21 #
5.8722731720563139772017802187065e-05 1:1 2:14.5 3:4.1896801 4:0.987432 5:6.0883598 6:1.00271 7:0.244003 8:0.196482 9:0.083494797 10:0.083494797 11:18.2258 12:85.485298 13:0.166667 14:0.98978299 15:0.97071999 16:5.28333 17:0 18:-66.5 19:-1 20:-127.5 #
-5.8722731720563139772017802187065e-05 1:0 2:0 3:1.95881 4:0.23204701 5:0.46803901 6:0.187075 7:0.094880097 8:0.63801998 9:0.099896602 10:0.099896602 11:18.3291 12:79.758301 13:0.66666698 14:0.940566 15:0.95659697 16:5.3130298 17:-1 18:-95 19:-4 20:-183.75 #
-2.9549636161524562579612160351239e-05 1:0 2:0 3:2.6812999 4:4.3295298 5:3.2586701 6:0.51440603 7:0.23185501 8:1.31902 9:0.104547 10:0.104547 11:21.213699 12:76.418503 13:0.66666698 14:0.95547801 15:0.972363 16:6.1402702 17:0 18:0 19:-1 20:-298 #
5.8722731720563139772017802187065e-05 1:2 2:14.625 3:2.7683201 4:0.161433 5:0.83273399 6:0.38687199 7:0.56565303 8:0.46323401 9:0.76919901 10:0.65314102 11:47.1464 12:71.816498 13:1 14:0.74005598 15:0.774472 16:13.3408 17:2 18:14.625 19:2 20:14.625 #
-1.9054628499753449149276343654869e-05 1:1 2:50 3:1.99822 4:1.33305 5:1.3208801 6:1.40584 7:0.878649 8:0.80555701 9:1.9546 10:1.9546 11:75.775803 12:80.747597 13:0.66666698 14:0.817496 15:0.828906 16:20.486099 17:1 18:50 19:0 20:-232 #
5.8722731720563139772017802187065e-05 1:-1 2:-30 3:3.1514101 4:0.857445 5:0.61792099 6:0.26322401 7:0.169324 8:0.42141399 9:0.26980799 10:0.095790498 11:21.316 12:87.124802 13:0.33333299 14:0.86496598 15:0.98101997 16:6.1695299 17:-1 18:-30 19:-1 20:-30 #
-5.8722731720563139772017802187065e-05 1:0 2:0 3:1.68768 4:0.59423 5:0.224241 6:0.121082 7:0.51548302 8:0.70548201 9:0.280561 10:0.16940901 11:27.7003 12:66.722198 13:0.33333299 14:0.96517497 15:0.97034699 16:7.9854698 17:0 18:0 19:1 20:298 #
-2.1490809132274080184288322925568e-11 1:0 2:0 3:2.5987201 4:1.1335 5:0.82566702 6:0.83556998 7:0.116892 8:0.27541301 9:0.104279 10:0.043359 11:11.301 12:87.896896 13:0.33333299 14:0.96689898 15:0.97689801 16:3.2844701 17:-1 18:-100 19:-2 20:-135 #
5.8722731720563139772017802187065e-05 1:2 2:-22.6667 3:4.6818199 4:0.459813 5:0.35067499 6:0.269925 7:0.133147 8:0.18285701 9:0.12963299 10:0.095437899 11:22.424 12:75.657204 13:0.444444 14:0.93503797 15:0.98997098 16:6.4862299 17:2 18:-22.6667 19:1 20:-66.666702 #
5.8722731720563139772017802187065e-05 1:4 2:10.6667 3:2.8480201 4:1.45526 5:0.267272 6:0.098528303 7:0.22000299 8:0.46958801 9:0.413425 10:0.53892797 11:37.035099 12:82.912201 13:0.33333299 14:0.73342901 15:0.75421703 16:10.5945 17:4 18:10.6667 19:4 20:10.6667 #
-2.052981826744952358520992369284e-06 1:0 2:0 3:3.5228701 4:0.10676 5:0.322411 6:0.168079 7:0.186482 8:0.54223597 9:0.159748 10:0.159748 11:28.127701 12:81.301498 13:0.66666698 14:0.98658299 15:0.983289 16:8.1062202 17:0 18:0 19:1 20:295.5 #
5.8722731720563139772017802187065e-05 1:0 2:12.3333 3:2.52649 4:0.30324 5:1.5463001 6:0.35385999 7:0.30488601 8:0.38146099 9:0.37463799 10:0.37463799 11:36.503799 12:54.980801 13:0.444444 14:0.92261302 15:0.91991502 16:10.4477 17:0 18:7 19:0 20:7 #
-4.6334504394385505471332109550531e-06 1:0 2:0 3:3.2360699 4:0.59276497 5:0.71517301 6:0.303992 7:0.15905499 8:1.09825 9:0.27948701 10:0.091651902 11:20.5476 12:83.496002 13:0.33333299 14:0.79763299 15:0.97902602 16:5.9495702 17:-1 18:-98 19:8 20:-35.9394 #
-1.708515528538017276246122055916e-05 1:-1 2:-38 3:1.60251 4:1.11206 5:2.05001 6:0.305444 7:0.31019899 8:1.25437 9:0.27142799 10:0.27142799 11:18.271299 12:74.095802 13:0.66666698 14:0.896038 15:0.79424101 16:5.2964101 17:-2 18:-50 19:3 20:213 #
-1.3831852963760993269204391253879e-05 1:6 2:39.666698 3:1.28668 4:6.0239 5:2.41429 6:0.221775 7:0.160834 8:0.205364 9:0.413773 10:0.15437099 11:13.9987 12:86.535301 13:0.33333299 14:0.75338501 15:0.881863 16:4.06499 17:7 18:43.4286 19:4 20:-238.571 #
-1.1947621330297975017487033255748e-05 1:-1 2:-60 3:1.50456 4:0.86054999 5:1.27961 6:1.75289 7:0.125828 8:0.175633 9:0.56165302 10:1.46378 11:85.453499 12:82.688499 13:0.33333299 14:0.49924701 15:0.781335 16:22.633801 17:-1 18:-60 19:-1 20:40 #
-2.4989656968621432042709784582257e-05 1:0 2:0 3:3.42079 4:0.261841 5:0.79452902 6:0.140572 7:0.076586202 8:0.260813 9:0.235397 10:0.13434599 11:25.747499 12:83.763702 13:1 14:0.997235 15:0.98150897 16:7.4324002 17:0 18:0 19:-1 20:-286 #
-4.1000274591903584377704239383178e-05 1:0 2:0 3:12.8167 4:0.268107 5:0.308772 6:0.238401 7:0.142055 8:0.68350101 9:0.15695 10:0.1556 11:25.992001 12:87.509201 13:1 14:0.99748999 15:0.96359199 16:7.50177 17:0 18:0 19:3 20:271.75 #
-4.4530699846068484359603613376155e-06 1:-1 2:-58 3:1.4155 4:0.96347302 5:2.30425 6:0.299492 7:0.27524099 8:0.31713301 9:0.303215 10:0.191937 11:22.8057 12:76.281303 13:0.66666698 14:0.83445001 15:0.90264899 16:6.59518 17:1 18:16 19:3 20:64.5 #
-1.1843532805235199105556341894752e-06 1:0 2:0 3:1.32244 4:0.211412 5:1.35465 6:0.45862699 7:0.56072199 8:1.15598 9:0.43279499 10:2.2716999 11:74.785698 12:87.684196 13:0.66666698 14:0.69732702 15:0.84389502 16:20.257799 17:0 18:0 19:-2 20:-281 #
-6.928539963979574167751707136631e-10 1:0 2:0 3:3.5548899 4:0.26415101 5:0.55618203 6:0.27891299 7:0.14073201 8:1.00889 9:0.31319401 10:3.61429 11:78.444801 12:89.549896 13:0.444444 14:0.97266501 15:0.87594998 16:21.093599 17:0 18:0 19:-2 20:-264 #
-1.030366916259854129407635969784e-05 1:4 2:31.25 3:2.5148499 4:0.53477502 5:0.794752 6:0.92946303 7:0.20714299 8:0.48070699 9:0.514422 10:1.81117 11:80.857597 12:70.2658 13:0.33333299 14:0.81767702 15:0.84157002 16:21.633101 17:7 18:53.857101 19:6 20:-221.14301 #
-5.5270069348513305141322449198782e-06 1:4 2:-43.599998 3:2.3366499 4:0.238536 5:0.38177201 6:0.40113601 7:0.31573799 8:1.09135 9:0.38608301 10:0.38608301 11:37.117298 12:85.922203 13:0.66666698 14:0.83609599 15:0.90355599 16:10.6172 17:4 18:-43.599998 19:4 20:-64.166702 #
-3.0156318000768012055345934641082e-05 1:-1 2:-45.5 3:7.1928802 4:0.58585799 5:0.42106301 6:0.235917 7:0.38829201 8:0.212173 9:0.331826 10:0.226503 11:31.740299 12:81.763 13:0.66666698 14:0.98150897 15:0.96057397 16:9.1221399 17:-1 18:-45.5 19:4 20:68.333298 #
-9.2975843653092234229046164628585e-07 1:6 2:24.3333 3:2.6617501 4:0.77591902 5:0.39477399 6:0.42917699 7:0.093566701 8:0.43926501 9:0.143831 10:0.084977597 11:16.265699 12:81.926399 13:0.444444 14:0.966021 15:0.95769101 16:4.7191801 17:8 18:41.5 19:9 20:-189 #
-3.5147507124244636855792123242281e-05 1:7 2:38 3:6.3631501 4:0.393628 5:0.22876801 6:0.248346 7:0.129875 8:0.441282 9:0.181447 10:0.23445199 11:33.185902 12:81.8806 13:0.66666698 14:0.97628897 15:0.97929001 16:9.5262003 17:11 18:55.818199 19:11 20:-44.333302 #
-3.1754319512628272127751673237217e-06 1:8 2:35.5 3:2.4719601 4:0.33409601 5:0.42389801 6:0.23455501 7:0.119276 8:0.23798899 9:0.15309 10:0.19103301 11:30.065001 12:74.046997 13:0.66666698 14:0.95832801 15:0.97815502 16:8.6520901 17:11 18:45.545502 19:11 20:45.545502 #
-5.9366351973610237933998146075965e-07 1:4 2:23.25 3:3.3247099 4:0.33754501 5:0.713238 6:0.349444 7:0.206853 8:0.67858201 9:0.33107299 10:0.33107299 11:38.125401 12:57.993 13:0.66666698 14:0.98696399 15:0.98163497 16:10.895 17:4 18:23.25 19:3 20:-250.25 #
-1.3892109255448591352647422572653e-06 1:0 2:0 3:7.3376298 4:3.5638399 5:43.300098 6:2.5982399 7:1.03696 8:0.72773099 9:6.99084 10:5.5837302 11:74.681602 12:48.334599 13:1 14:0.97608101 15:0.989474 16:20.233801 17:0 18:0 19:-3 20:-139.5 #
-1.200235612690801756397007693522e-05 1:3 2:18.9 3:2.5188401 4:0.971928 5:19.162201 6:1.8131 7:1.07939 8:1.18133 9:2.2319601 10:2.2319601 11:67.9049 12:27.992001 13:0.33333299 14:0.82130599 15:0.829283 16:18.630899 17:3 18:18.9 19:2 20:-50.599998 #
-1.9043714015899235593269611666045e-06 1:6 2:27.5833 3:2.12798 4:0.258239 5:1.25927 6:0.18133 7:0.367277 8:0.43148601 9:0.74069399 10:0.15583099 11:17.365601 12:47.419701 13:0.444444 14:0.53060597 15:0.89540303 16:5.0359201 17:7 18:32.285702 19:6 20:-179.214 #
-2.4013397903377051677276110552839e-08 1:0 2:0 3:2.8753099 4:0.36318699 5:5.3659101 6:0.87740499 7:0.228377 8:0.427275 9:0.236559 10:0.236559 11:28.376801 12:80.473198 13:0.33333299 14:0.94275999 15:0.90669298 16:8.1765404 17:0 18:0 19:-1 20:-288 #
-7.4653475060992515897548282843843e-08 1:0 2:-45.5 3:4.2472 4:0.13109 5:1.67642 6:0.63172102 7:1.77406 8:0.58799499 9:8.7961597 10:2.01735 11:72.471497 12:6.3358598 13:0.444444 14:0.89970303 15:0.85243797 16:19.7185 17:-1 18:-54 19:-1 20:-54 #
-1.1650448762585182815171291892398e-07 1:0 2:0 3:2.4207101 4:0.212447 5:0.52823001 6:0.370727 7:0.35999599 8:0.80255002 9:0.365668 10:0.246099 11:31.1187 12:65.819298 13:0.66666698 14:0.94792098 15:0.93641698 16:8.9479504 17:0 18:0 19:-1 20:-294 #
-4.0606536305654119297769283347677e-07 1:2 2:9.25 3:2.41746 4:0.57820398 5:1.56358 6:0.301393 7:0.56356502 8:0.59844202 9:0.821257 10:1.54368 11:85.162598 12:87.049698 13:0.33333299 14:0.43226901 15:0.684596 16:22.571501 17:2 18:9.25 19:2 20:9.25 #
-2.4945829542391551036928376561264e-06 1:0 2:0 3:1.0183901 4:0.589167 5:2.86338 6:0.17100599 7:0.248386 8:0.14241201 9:0.240587 10:0.223048 11:31.9408 12:63.4893 13:0.444444 14:0.92642498 15:0.97425097 16:9.1782799 17:-2 18:-77 19:-2 20:183.33299 #
-4.6579354483685683443365890821219e-07 1:1 2:6 3:2.9377799 4:0.37757 5:0.53898799 6:0.677562 7:1.47183 8:0.481821 9:3.5209601 10:1.03433 11:69.931297 12:22.787701 13:0.444444 14:0.85087401 15:0.71312201 16:19.1173 17:-1 18:-81 19:-2 20:-130 #
-9.4014366219229161553833096220956e-08 1:2 2:51 3:1.5133801 4:0.52151 5:0.70966798 6:0.77843601 7:1.2700599 8:0.398976 9:2.5961499 10:2.5961499 11:84.919296 12:35.938999 13:0.444444 14:0.90551198 15:0.63261497 16:22.5194 17:2 18:51 19:1 20:-125 #
-3.5942833496347640492851738258651e-06 1:2 2:13 3:1.64308 4:0.36968401 5:0.82097799 6:0.34970099 7:0.248292 8:0.394934 9:0.259152 10:0.458011 11:41.078201 12:69.772598 13:1 14:0.94541901 15:0.87823999 16:11.7037 17:2 18:13 19:0 20:-262 #
-2.8783499383261412774004384118598e-07 1:0 2:0 3:2.4353199 4:0 5:0 6:0 7:0 8:0 9:3.3870299 10:3.9039299 11:86.883202 12:18.969601 13:0.33333299 14:0.79159403 15:0.71569198 16:22.937799 17:0 18:0 19:0 20:0 #
-1.71521680800333317130912380577e-08 1:2 2:8 3:1.6549 4:0.53046799 5:0.617145 6:0.255427 7:0.49125299 8:0.35692501 9:0.38828701 10:0.47992301 11:39.676399 12:60.299301 13:0.66666698 14:0.88000399 15:0.90132201 16:11.3207 17:3 18:36.666698 19:3 20:-97.5 #
-3.1194303872043860348384214375983e-06 1:4 2:-2.0999999 3:1.81732 4:0.193817 5:1.56768 6:0.33629599 7:0.158886 8:0.27400801 9:0.189365 10:0.346232 11:32.112701 12:82.8312 13:0.33333299 14:0.922387 15:0.862418 16:9.2263899 17:4 18:-2.0999999 19:-2 20:-177.52901 #
-2.1880932146625241968562747274518e-08 1:-1 2:-28.1667 3:1.84497 4:0.654827 5:1.4145499 6:3.57288 7:2.45628 8:1.0158401 9:4.2419901 10:1.45627 11:68.008003 12:8.7495604 13:0.444444 14:0.78122503 15:0.82101399 16:18.6558 17:-1 18:-28.1667 19:-2 20:-57.466702 #
-2.3186738666858275337290251627564e-06 1:6 2:36.916698 3:1.64106 4:1.03476 5:0.570602 6:0.083835296 7:0.26415399 8:0.12112 9:0.453049 10:0.243949 11:32.266899 12:54.576 13:0.166667 14:0.894508 15:0.96092701 16:9.2695103 17:7 18:40.4286 19:5 20:-184.259 #
-3.6275124902654666786232240394128e-07 1:-1 2:-6 3:3.27601 4:0.40326899 5:2.55637 6:0.41192099 7:0.305484 8:0.332331 9:0.30845201 10:2.6452899 11:86.310303 12:75.878899 13:0.444444 14:0.97898901 15:0.876046 16:22.816401 17:-3 18:-60.666698 19:-3 20:-60.666698 #
-1.174445467763685080342384026153e-05 1:2 2:25 3:1.50129 4:0.41246301 5:2.4312501 6:0.18025 7:0.229614 8:1.0866801 9:1.09553 10:1.02659 11:62.788898 12:37.243698 13:0.33333299 14:0.71249998 15:0.73619801 16:17.3773 17:2 18:25 19:2 20:25 #
-1.2766258472536288093735629134429e-08 1:4 2:27.5 3:1.36465 4:0.30045399 5:0.577416 6:0.149912 7:0.247455 8:0.28128001 9:0.283871 10:0.112806 11:16.467699 12:59.179401 13:1 14:0.94207299 15:0.93536699 16:4.77738 17:4 18:27.5 19:2 20:-223.5 #
-1.1763398330129604910532920003519e-07 1:-2 2:-22 3:2.0551801 4:0.87890297 5:0.70411801 6:2.5934401 7:1.97799 8:0.61788899 9:2.5857201 10:0.61708802 11:43.088402 12:4.2156601 13:0.66666698 14:0.61744499 15:0.84559703 16:12.2499 17:-3 18:-32 19:-3 20:-32 #
-2.4370293079947049155482147186902e-08 1:0 2:0 3:3.3559301 4:0.89619398 5:0.66296601 6:0.177743 7:0.33690599 8:0.383075 9:0.29829699 10:0.29829699 11:32.990501 12:70.140099 13:0.66666698 14:0.94073802 15:0.91580403 16:9.4716797 17:0 18:0 19:-1 20:-295 #
-5.5698368973140547547159753122292e-08 1:4 2:34.75 3:2.29088 4:0.36978501 5:0.48166901 6:1.33286 7:0.25356299 8:0.31673899 9:0.42812899 10:0.42120999 11:40.269199 12:52.172001 13:0.444444 14:0.95736599 15:0.93276203 16:11.4829 17:4 18:34.75 19:4 20:34.75 #
-8.5029132252688287251765533042436e-08 1:0 2:0 3:1.55696 4:0.50975603 5:0.69678903 6:0.28558999 7:0.40064201 8:0.106323 9:0.411291 10:0.353706 11:36.9977 12:61.8806 13:0.444444 14:0.87569398 15:0.933779 16:10.5842 17:1 18:100 19:7 20:150.85699 #
-5.4791266643925632794792646151905e-08 1:-1 2:-58 3:1.80327 4:0.88530701 5:0.54659897 6:1.0243 7:0.453098 8:0.72001803 9:0.92119801 10:2.3071201 11:87.739799 12:59.353802 13:0.33333299 14:0.54507798 15:0.65326399 16:23.1182 17:-1 18:-58 19:3 20:193.2 #
-6.8923820014539212506360366106151e-09 1:0 2:0 3:2.4268301 4:0.68184602 5:0.62174398 6:0.93407398 7:0.56323802 8:0.64258999 9:1.49696 10:1.49696 11:69.094597 12:56.495701 13:0.444444 14:0.71215397 15:0.72548801 16:18.9172 17:0 18:0 19:-1 20:-234 #
