SVM-light Version V6.02
0 # kernel type
3 # kernel parameter -d 
1 # kernel parameter -g 
1 # kernel parameter -s 
1 # kernel parameter -r 
empty# kernel parameter -u 
20 # highest feature index 
2105 # number of training documents 
450 # number of support vectors plus 1 
1.0005237 # threshold b, each following line is a SV (starting with alpha*y)
-4.0330641705199010108463114621102e-05 1:-3 2:-13 3:2.6224799 4:2.4503801 5:2.8310399 6:1.19514 7:1.61654 8:0.58000398 9:3.9235699 10:1.96496 11:67.374199 12:21.1968 13:0.66666698 14:0.85479802 15:0.87743902 16:18.502501 17:-3 18:-13 19:-3 20:-13 #
5.8348401737577291169267734716186e-05 1:0 2:-44 3:2.7258501 4:0.25784999 5:0.3432 6:0.99559098 7:0.68708199 8:0.56510198 9:1.50194 10:1.46053 11:60.271702 12:43.752102 13:1 14:0.73452997 15:0.87958002 16:16.7477 17:-4 18:-69.349998 19:-4 20:-69.349998 #
-5.5127793837046745739627340299194e-05 1:-6 2:-34.166698 3:3.28878 4:0.51730299 5:0.62956899 6:0.87712401 7:1.2200201 8:1.09191 9:1.6673 10:2.075 11:64.619698 12:55.729401 13:0.66666698 14:0.85246497 15:0.87304503 16:17.83 17:-6 18:-34.166698 19:-5 20:259.83301 #
5.8348401737577291169267734716186e-05 1:1 2:50 3:1.99822 4:1.33305 5:1.3208801 6:1.40584 7:0.878649 8:0.80555701 9:1.9546 10:1.9546 11:75.775803 12:80.747597 13:0.66666698 14:0.817496 15:0.828906 16:20.486099 17:1 18:50 19:0 20:-232 #
-5.8348401737577291169267734716186e-05 1:0 2:0 3:2.0313301 4:0.277536 5:0.57676798 6:0.31148201 7:0.34854999 8:0.90168798 9:0.68268299 10:0.68268299 11:45.493801 12:48.1152 13:1 14:0.81542999 15:0.84587902 16:12.8984 17:0 18:0 19:-1 20:-290.5 #
5.8348401737577291169267734716186e-05 1:0 2:0 3:1.16424 4:1.0564899 5:3.8146 6:0.917023 7:1.03552 8:0.64364201 9:0.38273799 10:0.38273799 11:26.065001 12:70.427597 13:0.66666698 14:0.82284099 15:0.74838799 16:7.52246 17:0 18:0 19:2 20:293 #
5.8348401737577291169267734716186e-05 1:0 2:0 3:1.68156 4:1.11901 5:0.69004399 6:0.827645 7:1.30985 8:4.7869701 9:3.06003 10:4.9029002 11:77.272697 12:35.5951 13:0.444444 14:0.86444002 15:0.82493103 16:20.828199 17:0 18:0 19:-1 20:-300 #
-2.8506384414863494966216328485586e-05 1:0 2:0 3:3.54671 4:1.60493 5:2.1805501 6:1.18211 7:0.457394 8:0.48691899 9:0.553002 10:5.2740598 11:80.958801 12:66.484703 13:0.33333299 14:0.64815301 15:0.90910399 16:21.6555 17:0 18:0 19:-1 20:-268 #
-5.8229337859545151462846435119758e-05 1:0 2:0 3:2.22596 4:1.06071 5:1.1410201 6:0.78000998 7:1.45639 8:1.26246 9:1.84814 10:3.81861 11:77.834 12:31.200701 13:0.166667 14:0.75937903 15:0.85566598 16:20.955601 17:0 18:0 19:3 20:280.66699 #
-3.5758550963233145213171493281834e-05 1:0 2:0 3:1.5775501 4:0.542395 5:0.75031799 6:0.550017 7:0.157217 8:0.76608998 9:0.19072799 10:0.19072799 11:16.9391 12:73.261002 13:0.66666698 14:0.89380997 15:0.86395299 16:4.9131498 17:-1 18:-98 19:-2 20:-185 #
5.8348401737577291169267734716186e-05 1:-3 2:-33.333302 3:1.65609 4:2.07619 5:0.48151201 6:0.65187699 7:1.59126 8:4.7048702 9:3.5297301 10:1.21471 11:56.8381 12:26.122299 13:0.166667 14:0.84557801 15:0.77117699 16:15.8759 17:-3 18:-33.333302 19:-2 20:260.66699 #
-4.2933363977501754068458877933168e-05 1:0 2:0 3:1.55957 4:1.90025 5:1.25806 6:2.7762799 7:1.05155 8:0.14940099 9:0.85605597 10:6.0977302 11:83.7687 12:53.9921 13:0.166667 14:0.90269101 15:0.739878 16:22.271099 17:-2 18:-77 19:-4 20:-139.5 #
5.8348401737577291169267734716186e-05 1:0 2:0 3:1.73527 4:2.5581801 5:10.7667 6:0.59828597 7:0.54454702 8:0.74159902 9:0.36320701 10:0.36320701 11:25.2108 12:73.954903 13:0.66666698 14:0.82256103 15:0.75133002 16:7.2800002 17:2 18:90 19:3 20:107 #
-2.2018352111522988205204870437726e-06 1:2 2:12.125 3:2.2760799 4:0.126029 5:0.20556501 6:0.332454 7:0.426999 8:3.22013 9:0.33855399 10:1.01294 11:59.9156 12:76.889198 13:1 14:0.78819603 15:0.83425701 16:16.658001 17:1 18:-87.625 19:-1 20:-101.708 #
-5.8348401737577291169267734716186e-05 1:1 2:11.25 3:3.19276 4:0.31929299 5:0.65511602 6:0.47241199 7:0.78241903 8:1.39176 9:2.14007 10:2.2772801 11:74.667503 12:60.981701 13:1 14:0.93671602 15:0.860452 16:20.230499 17:1 18:11.25 19:0 20:-275.25 #
-5.8348401737577291169267734716186e-05 1:0 2:0 3:3.9618199 4:0.91418898 5:0.67380798 6:0.88803399 7:0.123805 8:1.02121 9:2.6792901 10:2.1486599 11:68.440598 12:22.806801 13:0.33333299 14:0.77336502 15:0.89066201 16:18.76 17:1 18:89 19:5 20:201 #
5.8348401737577291169267734716186e-05 1:0 2:0 3:1.99533 4:2.3287799 5:0.52945101 6:0.33182901 7:0.753097 8:0.68051302 9:0.17197999 10:0.17197999 11:12.6511 12:78.625099 13:1 14:0.92161101 15:0.85754502 16:3.67537 17:0 18:0 19:-1 20:-165.5 #
-1.3742743287670092580676772797688e-06 1:0 2:0 3:2.29214 4:0.35224599 5:0.80539101 6:0.10879 7:0.225477 8:1.4301 9:1.52828 10:1.64928 11:67.431099 12:45.4431 13:1 14:0.89394897 15:0.83853501 16:18.5163 17:0 18:0 19:2 20:192.875 #
-5.3842229043695133362465443660483e-05 1:0 2:0 3:1.68768 4:0.59423 5:0.224241 6:0.121082 7:0.51548302 8:0.70548201 9:0.280561 10:0.16940901 11:27.7003 12:66.722198 13:0.33333299 14:0.96517497 15:0.97034699 16:7.9854698 17:0 18:0 19:1 20:298 #
5.8348401737577291169267734716186e-05 1:1 2:6 3:1.93409 4:9.8761902 5:0.35322401 6:0.279024 7:0.87973899 8:2.3993199 9:2.8330801 10:0.79295599 11:51.3862 12:33.0191 13:0.33333299 14:0.822299 15:0.86664099 16:14.4626 17:1 18:6 19:0 20:-185 #
5.8348401737577291169267734716186e-05 1:-1 2:-19 3:2.18784 4:0.89716297 5:2.44028 6:2.3299799 7:2.42416 8:0.59239697 9:5.5658798 10:4.41855 11:86.121902 12:17.832701 13:0.66666698 14:0.88849401 15:0.842049 16:22.7764 17:1 18:51 19:8 20:204.222 #
-5.8348401737577291169267734716186e-05 1:-2 2:1.0666699 3:1.2695 4:5.9265499 5:1.2500499 6:0.50958002 7:1.44801 8:0.34652001 9:0.75115401 10:2.1648099 11:81.6362 12:49.3288 13:1 14:0.55966699 15:0.70996499 16:21.805099 17:-2 18:1.0666699 19:-2 20:1.0666699 #
5.8348401737577291169267734716186e-05 1:-1 2:-52 3:4.0289202 4:0.97209197 5:0.75876701 6:0.802652 7:1.11299 8:1.19449 9:2.1643801 10:0.68023002 11:47.773701 12:86.492699 13:1 14:0.916457 15:0.93225598 16:13.5079 17:-1 18:-52 19:1 20:64 #
-5.8348401737577291169267734716186e-05 1:0 2:0 3:2.1285 4:0.661066 5:0.14042801 6:0.171294 7:0.407902 8:1.10399 9:0.161698 10:0.133481 11:24.732201 12:64.064499 13:0.66666698 14:0.96673 15:0.97468603 16:7.14398 17:0 18:0 19:-1 20:-298.25 #
-5.8348401737577291169267734716186e-05 1:-5 2:-28.200001 3:2.6096599 4:1.95445 5:1.67822 6:1.44064 7:0.42139199 8:1.67082 9:1.00788 10:1.00788 11:53.230999 12:40.499298 13:0.66666698 14:0.86704803 15:0.87543303 16:14.9446 17:-5 18:-28.200001 19:-5 20:-28.200001 #
-5.8348401737577291169267734716186e-05 1:0 2:0 3:1.41897 4:0.25567201 5:0.35190299 6:0.23517901 7:0.55097997 8:0.73657 9:0.416686 10:0.46954 11:41.695202 12:51.849499 13:1 14:0.95450699 15:0.94772798 16:11.8717 17:0 18:0 19:1 20:294 #
5.8348401737577291169267734716186e-05 1:0 2:0 3:2.3842001 4:2.01545 5:0.26352099 6:1.2139699 7:1.2365299 8:1.02578 9:1.76024 10:1.12765 11:59.542801 12:32.317101 13:1 14:0.662673 15:0.83178401 16:16.563801 17:-1 18:-68 19:-1 20:95 #
5.8348401737577291169267734716186e-05 1:0 2:0 3:1.4401 4:4.4997501 5:3.0562201 6:0.562455 7:1.88401 8:1.00359 9:5.0734901 10:0.42519501 11:34.412601 12:14.3682 13:1 14:0.848822 15:0.83084399 16:9.8678799 17:0 18:0 19:-2 20:-157 #
5.8348401737577291169267734716186e-05 1:0 2:44 3:1.88493 4:9.08358 5:1.4223 6:1.2283601 7:2.20437 8:0.601551 9:4.6245098 10:6.8004498 11:74.533897 12:29.343 13:0.444444 14:0.94400197 15:0.842749 16:20.1996 17:0 18:44 19:10 20:174.83299 #
5.8348401737577291169267734716186e-05 1:0 2:0 3:1.81304 4:1.0454201 5:1.4656399 6:0.71049702 7:2.9015601 8:2.0775001 9:7.6151299 10:6.7572799 11:81.665802 12:3.44765 13:0.444444 14:0.87014002 15:0.81740701 16:21.8116 17:0 18:0 19:2 20:182.625 #
-1.0533887378039175075628008926287e-05 1:-1 2:-45 3:2.05055 4:0.73639399 5:1.39519 6:1.2805099 7:4.4910798 8:2.31633 9:12.3011 10:7.7831001 11:81.185303 12:8.2820196 13:0.444444 14:0.93721998 15:0.84706903 16:21.705601 17:0 18:41 19:1 20:145.5 #
5.8348401737577291169267734716186e-05 1:-3 2:-37.333302 3:1.46473 4:0.912076 5:1.84656 6:0.396649 7:0.71541601 8:0.71824598 9:0.378878 10:0.378878 11:39.110901 12:78.863197 13:1 14:0.97103202 15:0.93297398 16:11.1657 17:-7 18:-66.571404 19:-7 20:-66.571404 #
-4.7727429472066388725821906025004e-07 1:1 2:23 3:1.76972 4:0.58028299 5:0.60905999 6:0.79636699 7:0.68817198 8:0.64506 9:0.47666001 10:0.62928599 11:46.125702 12:67.326797 13:1 14:0.88269901 15:0.73671103 16:13.0679 17:1 18:23 19:3 20:197 #
5.8348401737577291169267734716186e-05 1:0 2:0 3:2.2044499 4:0.76562798 5:0.56409401 6:3.35272 7:0.40573299 8:1.40897 9:1.09684 10:1.56487 11:76.647697 12:66.2658 13:1 14:0.83956701 15:0.70149702 16:20.685801 17:4 18:76 19:0 20:-175.75 #
-5.8348401737577291169267734716186e-05 1:0 2:0 3:2.4207101 4:0.212447 5:0.52823001 6:0.370727 7:0.35999599 8:0.80255002 9:0.365668 10:0.246099 11:31.1187 12:65.819298 13:0.66666698 14:0.94792098 15:0.93641698 16:8.9479504 17:0 18:0 19:-1 20:-294 #
5.8348401737577291169267734716186e-05 1:-1 2:-54 3:1.9478199 4:0.79949701 5:2.27456 6:0.99237198 7:1.25384 8:1.25597 9:3.1028099 10:3.1028099 11:81.427498 12:42.276001 13:0.33333299 14:0.78127903 15:0.82675803 16:21.7591 17:-1 18:-54 19:1 20:136 #
-3.877962945011798702238045577495e-05 1:0 2:0 3:2.40271 4:0.347462 5:1.72707 6:0.67897701 7:0.593427 8:1.29905 9:1.1227 10:4.10501 11:86.976097 12:57.282799 13:0.33333299 14:0.768543 15:0.852503 16:22.957399 17:0 18:0 19:1 20:266 #
5.8348401737577291169267734716186e-05 1:-1 2:-10 3:1.67873 4:0.067429401 5:0.37065101 6:0.45103201 7:1.49309 8:1.5364799 9:2.4088199 10:0.42061901 11:36.396702 12:20.7293 13:0.66666698 14:0.71557498 15:0.87575501 16:10.4181 17:-2 18:-48 19:-3 20:-130.33299 #
5.8348401737577291169267734716186e-05 1:0 2:0 3:2.75933 4:1.00223 5:4.65587 6:1.01755 7:1.76552 8:2.01808 9:2.75069 10:4.5777998 11:85.392502 12:47.694801 13:0.33333299 14:0.794312 15:0.847947 16:22.6208 17:1 18:95 19:4 20:156.375 #
5.8348401737577291169267734716186e-05 1:1 2:52 3:2.0276699 4:0.68989402 5:1.83734 6:0.25611299 7:1.42207 8:0.47471201 9:1.02555 10:0.081898801 11:10.4893 12:58.891102 13:1 14:0.88729602 15:0.93565398 16:3.0492599 17:1 18:52 19:2 20:83 #
5.8348401737577291169267734716186e-05 1:-1 2:-4.5 3:3.68785 4:2.52615 5:0.74617898 6:1.31038 7:1.80371 8:0.45274901 9:1.09952 10:2.1879799 11:66.918999 12:75.6875 13:1 14:0.89047801 15:0.942146 16:18.392099 17:1 18:82.75 19:-4 20:-121.833 #
-5.1025512531987032524040392988951e-05 1:0 2:0 3:1.81201 4:0.60574102 5:2.0823801 6:0.50237101 7:0.48391801 8:1.23873 9:0.57972699 10:0.358888 11:27.945101 12:59.5201 13:0.66666698 14:0.782552 15:0.799263 16:8.0546398 17:0 18:0 19:1 20:295 #
5.8348401737577291169267734716186e-05 1:1 2:7 3:2.24086 4:1.35603 5:2.7441101 6:0.62525499 7:1.5185 8:0.97256398 9:0.78073901 10:3.5415399 11:83.876999 12:75.684097 13:1 14:0.70582098 15:0.85254198 16:22.2946 17:-2 18:-71 19:-2 20:-71 #
-5.8348401737577291169267734716186e-05 1:0 2:0 3:3.3559301 4:0.89619398 5:0.66296601 6:0.177743 7:0.33690599 8:0.383075 9:0.29829699 10:0.29829699 11:32.990501 12:70.140099 13:0.66666698 14:0.94073802 15:0.91580403 16:9.4716797 17:0 18:0 19:-1 20:-295 #
-5.8348401737577291169267734716186e-05 1:1 2:7.75 3:2.72352 4:0.385557 5:0.37928501 6:2.62586 7:0.93710399 8:1.59025 9:1.63621 10:6.4714699 11:83.4963 12:12.8611 13:0.66666698 14:0.41570199 15:0.85129398 16:22.212 17:2 18:49.375 19:3 20:66.75 #
5.8348401737577291169267734716186e-05 1:-3 2:-26.6667 3:1.30284 4:2.2251201 5:4.7916298 6:0.820669 7:0.49662301 8:0.397522 9:0.60500699 10:0.35837799 11:16.183701 12:56.718201 13:1 14:0.65641099 15:0.68257898 16:4.69557 17:-6 18:-55.666698 19:-6 20:-55.666698 #
-5.8323652170365146820210644484916e-05 1:-1 2:-60 3:1.73455 4:0.378856 5:1.6614701 6:0.150629 7:0.15678 8:0.251441 9:0.216249 10:0.151563 11:26.344601 12:82.901604 13:0.66666698 14:0.83922702 15:0.971286 16:7.6017299 17:-2 18:-67 19:-3 20:-80 #
5.8348401737577291169267734716186e-05 1:3 2:48 3:3.3523901 4:0.45251 5:2.27583 6:3.52739 7:1.81389 8:1.81146 9:0.58487701 10:3.35478 11:85.996399 12:86.431999 13:0.66666698 14:0.84289002 15:0.71416497 16:22.749701 17:4 18:52.5 19:4 20:52.5 #
5.8348401737577291169267734716186e-05 1:0 2:-44 3:3.4967201 4:0.94827801 5:0.418396 6:0.38504401 7:3.32495 8:1.98944 9:4.2226 10:4.2226 11:75.243103 12:41.002499 13:0.444444 14:0.95417798 15:0.931086 16:20.363501 17:-3 18:-64.5 19:-8 20:-89.888901 #
-4.917694878729882655959276815949e-05 1:4 2:31.25 3:2.5148499 4:0.53477502 5:0.794752 6:0.92946303 7:0.20714299 8:0.48070699 9:0.514422 10:1.81117 11:80.857597 12:70.2658 13:0.33333299 14:0.81767702 15:0.84157002 16:21.633101 17:7 18:53.857101 19:6 20:-221.14301 #
5.8348401737577291169267734716186e-05 1:-1 2:-56 3:1.4895999 4:0.399692 5:0.800551 6:0.81506598 7:1.1094 8:0.64926499 9:1.1634099 10:1.1634099 11:54.139599 12:36.552299 13:0.33333299 14:0.76686198 15:0.75604898 16:15.1806 17:-1 18:-56 19:-2 20:120.667 #
-4.310313491010693333777828092912e-08 1:0 2:54 3:1.37728 4:0.50318998 5:0.44172999 6:1.50962 7:0.104545 8:0.63475603 9:0.566383 10:0.23858701 11:15.9255 12:85.614601 13:0.66666698 14:0.63439 15:0.81021601 16:4.62113 17:-1 18:22 19:1 20:128 #
5.8348401737577291169267734716186e-05 1:-1 2:-22 3:2.1069901 4:0.80816698 5:0.77745801 6:0.86466998 7:0.596407 8:0.79473501 9:0.78824902 10:0.44408101 11:28.2932 12:59.5769 13:1 14:0.85059899 15:0.70606899 16:8.1529503 17:0 18:74 19:-2 20:-92 #
-5.8348401737577291169267734716186e-05 1:-1 2:-0.40000001 3:1.83983 4:1.16969 5:1.08034 6:1.08728 7:2.1078999 8:3.6011701 9:3.49208 10:1.5557801 11:66.865303 12:29.8559 13:1 14:0.88993198 15:0.74168599 16:18.379101 17:-1 18:-0.40000001 19:-2 20:-29.8286 #
5.8348401737577291169267734716186e-05 1:-1 2:-18 3:1.74965 4:0.288178 5:2.76706 6:0.334719 7:0.86583698 8:0.74218899 9:0.62339801 10:0.62339801 11:43.950802 12:82.098 13:0.66666698 14:0.71302199 15:0.76928002 16:12.483 17:-1 18:-18 19:-3 20:-84 #
-5.8348401737577291169267734716186e-05 1:-5 2:-29.200001 3:1.57265 4:5.8478799 5:1.32394 6:2.3727701 7:1.80023 8:1.51121 9:5.6134701 10:5.6134701 11:87.973801 12:8.6536703 13:1 14:0.83229101 15:0.757581 16:23.167299 17:-5 18:-29.200001 19:-14 20:-177.714 #
-5.8348401737577291169267734716186e-05 1:1 2:56 3:4.1075201 4:3.38308 5:4.6145201 6:0.38646099 7:2.8410499 8:2.3669701 9:2.87515 10:2.87515 11:75.2369 12:52.482101 13:0.444444 14:0.90872103 15:0.88758099 16:20.362 17:1 18:56 19:1 20:-209 #
-5.8348401737577291169267734716186e-05 1:-1 2:-19 3:1.40306 4:0.171735 5:0.188042 6:0.24473999 7:1.05811 8:1.12104 9:0.96444601 10:2.18029 11:63.716301 12:46.771801 13:1 14:0.69690901 15:0.61628199 16:17.607201 17:-1 18:-19 19:0 20:250.5 #
5.8348401737577291169267734716186e-05 1:3 2:29.5 3:2.2328 4:0.172198 5:1.96332 6:0.86175102 7:0.842767 8:0.70829499 9:0.42390299 10:0.42390299 11:29.590401 12:86.039398 13:0.66666698 14:0.80026603 15:0.700504 16:8.51859 17:3 18:29.5 19:2 20:-41.5 #
5.8348401737577291169267734716186e-05 1:-1 2:-10 3:3.04425 4:0.234464 5:2.0983801 6:1.4620301 7:4.0720601 8:1.0597 9:3.51211 10:3.77021 11:78.361 12:38.844501 13:0.66666698 14:0.90651101 15:0.89033502 16:21.0748 17:-1 18:-10 19:0 20:156 #
-1.8466562346886039591709050000645e-05 1:0 2:0 3:1.4920501 4:0.30829099 5:0.52408898 6:0.18099301 7:0.158315 8:0.692559 9:0.152698 10:0.152698 11:21.6586 12:73.557404 13:0.66666698 14:0.91374302 15:0.93037301 16:6.2675099 17:0 18:0 19:1 20:296 #
5.8348401737577291169267734716186e-05 1:0 2:0 3:1.75413 4:2.8761599 5:3.23597 6:0.76875401 7:0.62738502 8:0.74178702 9:0.77766901 10:0.55424303 11:41.317402 12:54.5089 13:0.33333299 14:0.78385597 15:0.81891203 16:11.7689 17:0 18:0 19:-1 20:-106 #
-5.8348401737577291169267734716186e-05 1:-1 2:-18 3:1.89622 4:4.28652 5:7.2690401 6:1.96544 7:1.6238 8:0.64089298 9:6.2042599 10:0.60229599 11:40.056099 12:16.4839 13:1 14:0.94585198 15:0.78708899 16:11.4246 17:-1 18:-18 19:2 20:244 #
5.8348401737577291169267734716186e-05 1:0 2:0 3:4.42977 4:1.0982 5:1.40868 6:1.2622401 7:1.95544 8:4.2269201 9:5.3712602 10:5.2542701 11:82.477402 12:8.4235001 13:0.33333299 14:0.83357602 15:0.85490501 16:21.989799 17:0 18:0 19:1 20:151.25 #
5.8348401737577291169267734716186e-05 1:2 2:2.6666701 3:2.3452301 4:2.28842 5:1.1813999 6:6.08427 7:0.42253199 8:0.55169803 9:1.84552 10:2.45679 11:77.471199 12:28.3172 13:1 14:0.59257799 15:0.80702603 16:20.873301 17:2 18:2.6666701 19:1 20:-120.333 #
5.8348401737577291169267734716186e-05 1:-1 2:-10 3:1.96507 4:1.14916 5:3.15593 6:1.01604 7:0.93382299 8:2.78565 9:1.41287 10:2.9719 11:70.584602 12:39.185799 13:0.33333299 14:0.83112001 15:0.81854999 16:19.2728 17:-1 18:-10 19:-1 20:146 #
-3.4764545279658727594540579275417e-05 1:-4 2:-27.5 3:2.7790401 4:0.50613099 5:1.27495 6:0.86064601 7:7.5834498 8:1.1966 9:5.6184702 10:5.6184702 11:84.271202 12:15.5997 13:0.444444 14:0.85258502 15:0.84572601 16:22.379801 17:-4 18:-27.5 19:-4 20:111.6 #
5.8348401737577291169267734716186e-05 1:1 2:17.5 3:3.4745901 4:0.44089299 5:0.171195 6:0.216179 7:0.54931402 8:1.43337 9:0.33951601 10:0.19675 11:14.6137 12:86.285103 13:1 14:0.957569 15:0.84006703 16:4.24263 17:1 18:17.5 19:1 20:17.5 #
-5.8348401737577291169267734716186e-05 1:-5 2:-5.5 3:3.08233 4:1.52112 5:3.9040799 6:1.6179301 7:2.83184 8:1.93968 9:2.8488801 10:2.0766799 11:67.479401 12:42.741299 13:0.66666698 14:0.82533598 15:0.92443502 16:18.528 17:-5 18:-5.5 19:-5 20:-5.5 #
5.8348401737577291169267734716186e-05 1:1 2:10 3:3.04825 4:0.24213199 5:0.50511903 6:0.360392 7:3.83061 8:1.60557 9:6.1346402 10:4.10746 11:72.308098 12:17.5853 13:0.444444 14:0.92514402 15:0.83790499 16:19.680099 17:0 18:-76 19:0 20:-76 #
5.8348401737577291169267734716186e-05 1:1 2:36 3:2.1512401 4:1.07802 5:4.8657999 6:0.392445 7:0.56518 8:0.455028 9:0.34367299 10:0.34367299 11:28.6334 12:61.458302 13:1 14:0.91897202 15:0.83985901 16:8.24895 17:4 18:66.5 19:4 20:66.5 #
-4.1326502831637754414688401549682e-05 1:3 2:10.6 3:2.46576 4:2.0692101 5:4.9881101 6:1.9753 7:2.98663 8:0.49274001 9:5.1013398 10:5.1013398 11:87.166702 12:3.14691 13:0.66666698 14:0.80790597 15:0.820301 16:22.9977 17:3 18:10.6 19:3 20:10.6 #
5.8348401737577291169267734716186e-05 1:-4 2:-17.1667 3:1.67418 4:0.320932 5:0.70680398 6:1.3889101 7:0.36368299 8:0.474123 9:0.34240201 10:0.34240201 11:19.697201 12:81.662804 13:1 14:0.74826598 15:0.72015899 16:5.7058101 17:-4 18:-17.1667 19:-4 20:-17.1667 #
-4.9284500984118811473845556125895e-06 1:4 2:47 3:1.1332901 4:0.71397901 5:0.64152497 6:1.13599 7:0.68860602 8:2.0536699 9:0.21273901 10:1.6899 11:67.281502 12:85.329201 13:1 14:0.75286901 15:0.85745299 16:18.480101 17:6 18:55 19:7 20:66.857101 #
5.8348401737577291169267734716186e-05 1:2 2:7 3:1.7437 4:3.1871901 5:0.89020401 6:1.87863 7:0.657902 8:1.08956 9:1.28447 10:1.75296 11:73.040604 12:60.213699 13:1 14:0.74765903 15:0.81804401 16:19.8519 17:1 18:-83 19:1 20:-83 #
-5.8348401737577291169267734716186e-05 1:-1 2:-42 3:2.18209 4:1.03538 5:1.20055 6:0.391574 7:2.9126 8:1.68918 9:2.1852801 10:0.48126501 11:35.631001 12:40.383202 13:1 14:0.73416501 15:0.78320998 16:10.2061 17:-2 18:-49.333302 19:-3 20:-101.5 #
-5.8348401737577291169267734716186e-05 1:-1 2:-35 3:1.93062 4:0.78919798 5:1.59136 6:1.4639601 7:0.64298099 8:2.1833899 9:1.64343 10:2.35517 11:89.082901 12:40.461601 13:1 14:0.65832001 15:0.69786602 16:23.3985 17:-1 18:-35 19:-3 20:-96 #
5.8348401737577291169267734716186e-05 1:-1 2:37.333302 3:1.2266099 4:0.92524898 5:1.6321 6:0.81758898 7:1.05628 8:1.03032 9:0.95868498 10:0.81350398 11:47.423901 12:44.758801 13:1 14:0.80559099 15:0.704202 16:13.4147 17:0 18:29.5 19:6 20:122.7 #
-2.2020881898731327954441341909764e-05 1:0 2:0 3:1.43625 4:1.3524801 5:1.12726 6:0.670569 7:0.090080403 8:0.55380601 9:0.155285 10:0.155285 11:18.028799 12:81.246696 13:0.444444 14:0.88257903 15:0.90013301 16:5.2266898 17:1 18:95 19:-1 20:-80.833298 #
-5.8348401737577291169267734716186e-05 1:3 2:38.5 3:2.27877 4:1.9818 5:1.55547 6:0.64121598 7:1.13291 8:1.67075 9:2.0404201 10:0.46549001 11:37.282398 12:27.2712 13:0.33333299 14:0.79188299 15:0.85745102 16:10.6627 17:3 18:38.5 19:1 20:-58.833302 #
5.8348401737577291169267734716186e-05 1:-1 2:-60 3:2.43642 4:2.57639 5:1.28152 6:0.75863701 7:2.7295899 8:1.8821 9:4.7085299 10:4.7085299 11:86.157898 12:31.907801 13:0.33333299 14:0.885539 15:0.83405799 16:22.784 17:-1 18:-60 19:-1 20:40 #
-5.8348401737577291169267734716186e-05 1:-1 2:-9 3:1.91345 4:0.245913 5:0.94335097 6:3.3108599 7:1.54941 8:2.4001501 9:3.0713999 10:2.3727801 11:68.561798 12:22.5877 13:0.33333299 14:0.72203499 15:0.77692801 16:18.7892 17:-1 18:-9 19:-1 20:-9 #
-5.8348401737577291169267734716186e-05 1:0 2:-46 3:3.2430799 4:0.24922 5:2.3512299 6:1.0427001 7:1.62609 8:0.386765 9:1.32577 10:1.07315 11:56.5994 12:82.295898 13:1 14:0.80742598 15:0.84135199 16:15.8147 17:-4 18:-62.200001 19:-4 20:-62.200001 #
-5.1902127175053615316079047570241e-05 1:-1 2:-3.325 3:3.2413499 4:2.7191401 5:5.23842 6:5.4815602 7:2.1405301 8:5.7097702 9:4.4004202 10:4.4004202 11:75.020302 12:32.226398 13:0.33333299 14:0.93569702 15:0.92480898 16:20.312 17:-1 18:-3.325 19:-1 20:-3.325 #
5.8348401737577291169267734716186e-05 1:1 2:11.25 3:1.98571 4:0.23831099 5:0.79375398 6:0.87798703 7:1.5992 8:0.47058401 9:1.93312 10:1.03844 11:51.274101 12:44.113098 13:1 14:0.90811199 15:0.82647097 16:14.4332 17:-2 18:-71.958298 19:-2 20:-71.958298 #
-5.8348401737577291169267734716186e-05 1:1 2:8 3:2.72615 4:0.41056299 5:0.76949298 6:0.73377401 7:1.48493 8:1.38042 9:0.948165 10:1.2775 11:56.3983 12:53.5298 13:1 14:0.77155203 15:0.78427798 16:15.7631 17:-1 18:-87 19:-1 20:-87 #
5.8348401737577291169267734716186e-05 1:-1 2:-34 3:2.3287201 4:0.32076001 5:0.96877801 6:0.781546 7:2.38239 8:1.27823 9:1.66294 10:0.93654501 11:57.368301 12:66.594704 13:1 14:0.78923398 15:0.778862 16:16.0114 17:0 18:56 19:4 20:90 #
-5.8348401737577291169267734716186e-05 1:0 2:0 3:2.6790099 4:0.39833099 5:0.41958699 6:0.32901701 7:0.304519 8:0.65427798 9:0.28914201 10:0.18205699 11:25.794001 12:58.989399 13:1 14:0.89966702 15:0.93575799 16:7.44559 17:1 18:96 19:4 20:122.5 #
-5.8348401737577291169267734716186e-05 1:-5 2:-26.799999 3:1.63045 4:2.10569 5:0.21439099 6:0.391453 7:0.215995 8:0.57347602 9:0.135988 10:0.24199399 11:31.3764 12:69.834297 13:0.444444 14:0.91440201 15:0.95690203 16:9.0202103 17:-9 18:-46.666698 19:-14 20:-113.714 #
5.8348401737577291169267734716186e-05 1:-2 2:27.6667 3:1.4900399 4:1.23996 5:0.71852499 6:1.04556 7:2.5969701 8:2.6315899 9:1.20995 10:2.51053 11:64.515198 12:51.892899 13:1 14:0.65883201 15:0.79658002 16:17.8043 17:-2 18:23.75 19:-1 20:89.050003 #
-5.8348401737577291169267734716186e-05 1:2 2:19 3:2.9720299 4:1.23896 5:1.06063 6:0.67647099 7:3.9980199 8:3.4712601 9:3.8883901 10:3.8883901 11:88.885002 12:65.713203 13:0.33333299 14:0.81894398 15:0.87269598 16:23.357401 17:2 18:19 19:3 20:104.667 #
5.8348401737577291169267734716186e-05 1:5 2:37.599998 3:2.4924901 4:1.28599 5:2.9312799 6:2.2207999 7:4.6487598 8:1.97651 9:7.3530502 10:3.7367301 11:87.878799 12:8.3006401 13:0.444444 14:0.87718397 15:0.81016803 16:23.1474 17:5 18:37.599998 19:4 20:-98.400002 #
-5.8348401737577291169267734716186e-05 1:0 2:-21.25 3:2.29827 4:0.76752597 5:0.47938499 6:4.51231 7:1.70605 8:0.66742402 9:2.32969 10:2.8537099 11:89.859596 12:31.600401 13:1 14:0.71594799 15:0.74349397 16:23.559099 17:-1 18:-35 19:-3 20:-95.5 #
5.8348401737577291169267734716186e-05 1:-1 2:-20 3:1.92194 4:0.82936901 5:1.35859 6:1.1267 7:1.23753 8:2.39695 9:2.75718 10:8.0155897 11:80.447502 12:17.9333 13:0.33333299 14:0.716703 15:0.867679 16:21.542101 17:-1 18:-20 19:0 20:120.75 #
-5.8348401737577291169267734716186e-05 1:2 2:44.541698 3:1.75936 4:0.669622 5:0.80783898 6:0.38931599 7:3.0947199 8:1.50747 9:3.3984699 10:3.3984699 11:73.607498 12:23.9883 13:0.33333299 14:0.86730498 15:0.74909198 16:19.984301 17:2 18:44.541698 19:3 20:93.093803 #
5.8348401737577291169267734716186e-05 1:-2 2:-12 3:2.3336301 4:5.8362098 5:1.21306 6:1.17204 7:2.6456101 8:0.82959199 9:1.44821 10:2.3782301 11:70.381699 12:59.181301 13:1 14:0.52223599 15:0.910155 16:19.2246 17:1 18:72.333298 19:2 20:76.5 #
-5.8348401737577291169267734716186e-05 1:2 2:0 3:3.0328 4:1.81524 5:1.08752 6:0.83695298 7:4.0750899 8:2.7474501 9:6.4095001 10:4.5530701 11:87.916496 12:9.6632204 13:1 14:0.85650599 15:0.81977898 16:23.1553 17:2 18:0 19:1 20:-51.6875 #
5.8348401737577291169267734716186e-05 1:-2 2:-6.53333 3:2.3443 4:1.1067899 5:0.46570301 6:2.59495 7:0.84249598 8:0.55368698 9:1.09671 10:0.609667 11:42.711498 12:89.080803 13:1 14:0.657619 15:0.62612897 16:12.1478 17:-2 18:-6.53333 19:-2 20:-6.53333 #
-5.8348401737577291169267734716186e-05 1:-5 2:-25.4 3:2.4139099 4:3.3683701 5:1.74107 6:0.82438499 7:0.80545598 8:0.904356 9:1.64473 10:1.64473 11:66.494102 12:70.2994 13:1 14:0.84106803 15:0.86722398 16:18.288799 17:-6 18:-31.25 19:-6 20:-31.25 #
5.8348401737577291169267734716186e-05 1:1 2:31 3:3.94821 4:0.890589 5:1.04155 6:1.0107501 7:2.9985001 8:1.0195 9:8.1591702 10:9.05334 11:85.302902 12:6.1530399 13:0.66666698 14:0.88896799 15:0.93532097 16:22.601601 17:2 18:37.333302 19:1 20:-60.666698 #
5.8348401737577291169267734716186e-05 1:0 2:-53 3:1.95886 4:0.52947098 5:0.30537599 6:5.2469201 7:0.48563099 8:2.69051 9:1.04152 10:2.1568 11:84.608299 12:81.7752 13:0.33333299 14:0.60840303 15:0.82249099 16:22.452499 17:0 18:-53 19:1 20:53 #
-5.8348401737577291169267734716186e-05 1:-1 2:-9.28125 3:1.5597399 4:0.259229 5:4.8319898 6:0.95776701 7:1.46699 8:0.634157 9:5.7211699 10:5.7211699 11:87.121101 12:22.247299 13:0.66666698 14:0.90442699 15:0.75723499 16:22.988001 17:-1 18:-9.28125 19:-3 20:-90.375 #
5.8348401737577291169267734716186e-05 1:0 2:19 3:1.5688601 4:0.32684001 5:3.0870199 6:0.31097499 7:0.71952897 8:0.95120198 9:2.1841099 10:0.451653 11:36.639 12:24.603901 13:1 14:0.829117 15:0.85768098 16:10.4851 17:2 18:39.583302 19:3 20:-61.900002 #
-5.8348401737577291169267734716186e-05 1:1 2:34 3:3.6826501 4:0.301783 5:0.54398102 6:3.09656 7:1.2717201 8:1.15215 9:3.12766 10:3.12766 11:85.379097 12:81.314796 13:0.33333299 14:0.86492401 15:0.87624103 16:22.617901 17:0 18:-52 19:0 20:-52 #
5.8348401737577291169267734716186e-05 1:-3 2:-1 3:2.1914001 4:1.1849101 5:1.09551 6:5.3778 7:2.0479701 8:0.534392 9:3.0795701 10:0.28479099 11:31.992399 12:17.788401 13:1 14:0.738536 15:0.92520398 16:9.1927204 17:-3 18:-1 19:-3 20:-1 #
-5.8348401737577291169267734716186e-05 1:0 2:-4 3:4.0697398 4:2.7918799 5:0.62478203 6:2.3889899 7:3.63638 8:1.81292 9:5.1237998 10:5.1237998 11:77.5355 12:20.590599 13:1 14:0.90361297 15:0.888174 16:20.887899 17:3 18:44.5 19:4 20:93 #
5.8348401737577291169267734716186e-05 1:-1 2:-12 3:3.7878699 4:1.57367 5:2.4857299 6:1.09872 7:2.15993 8:0.77699602 9:2.3039701 10:2.3039701 11:74.268501 12:73.2145 13:1 14:0.96049303 15:0.90806699 16:20.138 17:-3 18:-56.666698 19:-3 20:-56.666698 #
5.8348401737577291169267734716186e-05 1:2 2:24 3:2.92377 4:0.69178599 5:1.57391 6:2.5797701 7:3.8621299 8:0.403377 9:2.73997 10:2.73997 11:76.114403 12:53.549999 13:0.444444 14:0.805709 15:0.85794902 16:20.563801 17:2 18:24 19:4 20:94.5 #
-5.7908281703066596512313735090061e-05 1:-4 2:-30.6 3:2.7445099 4:0.52960598 5:2.10918 6:1.79325 7:4.5369101 8:1.26171 9:4.9595699 10:4.9595699 11:81.097298 12:8.9027395 13:0.33333299 14:0.83578598 15:0.81660998 16:21.6861 17:-4 18:-30.6 19:-5 20:-48.333302 #
5.8348401737577291169267734716186e-05 1:1 2:8.3000002 3:2.77386 4:0.77403003 5:0.48776799 6:0.34621999 7:0.51737303 8:1.04283 9:0.61260003 10:0.50459099 11:23.930799 12:84.999702 13:1 14:0.69965798 15:0.61436403 16:6.9159002 17:1 18:8.3000002 19:1 20:8.3000002 #
-5.8348401737577291169267734716186e-05 1:3 2:46 3:3.4339001 4:0.39681801 5:0.47099099 6:0.99505103 7:0.37801 8:0.527107 9:0.775846 10:0.92287397 11:62.758301 12:60.562901 13:0.166667 14:0.61751199 15:0.74550498 16:17.369699 17:4 18:55 19:6 20:108.333 #
5.8348401737577291169267734716186e-05 1:1 2:8 3:1.1152 4:0.66731203 5:1.15861 6:0.80144399 7:2.3808701 8:1.43049 9:2.8994801 10:1.75362 11:86.912102 12:16.1019 13:0.444444 14:0.710756 15:0.72051799 16:22.943899 17:0 18:-82 19:0 20:-82 #
-2.5248669691143356554703311434018e-05 1:-1 2:-10 3:1.54045 4:2.0139301 5:0.78939599 6:1.05872 7:1.2670701 8:0.73198098 9:1.06428 10:1.51754 11:64.902496 12:50.029999 13:1 14:0.74460697 15:0.792714 16:17.899599 17:-2 18:-55 19:-5 20:-124.8 #
5.8348401737577291169267734716186e-05 1:-3 2:-23.75 3:1.89862 4:1.14829 5:0.350113 6:0.60668701 7:2.07002 8:1.47043 9:2.7492099 10:2.7492099 11:78.0504 12:36.453602 13:0.66666698 14:0.834719 15:0.76563901 16:21.004601 17:-3 18:-23.75 19:-2 20:87.5 #
-5.8194828033583437232843793562864e-05 1:1 2:-33.25 3:2.6306 4:1.40206 5:1.23748 6:0.39550599 7:5.1210299 8:1.749 9:5.36169 10:5.36169 11:81.181 12:27.2533 13:0.444444 14:0.88935399 15:0.88637 16:21.7047 17:1 18:-33.25 19:1 20:-6 #
5.8348401737577291169267734716186e-05 1:0 2:2 3:2.1721201 4:1.30033 5:2.1963501 6:0.57060498 7:0.88098502 8:0.378454 9:2.01138 10:2.01138 11:87.257797 12:76.426498 13:1 14:0.85157597 15:0.81082302 16:23.0168 17:1 18:37.5 19:-1 20:-55.166698 #
-8.170577627214842719900744771877e-06 1:0 2:0 3:2.29228 4:0.68533802 5:0.20748501 6:0.097628102 7:0.243861 8:1.3615 9:0.083066903 10:0.068784602 11:18.9321 12:71.437897 13:0.66666698 14:0.98171997 15:0.99098402 16:5.4862499 17:0 18:0 19:-1 20:-298 #
5.8348401737577291169267734716186e-05 1:-2 2:-56 3:1.4284 4:0.541421 5:1.21301 6:1.12848 7:1.36137 8:1.52847 9:8.7361002 10:0.78203499 11:45.533401 12:13.5786 13:1 14:0.950293 15:0.7396 16:12.9091 17:-2 18:24.3333 19:-2 20:24.3333 #
5.8348401737577291169267734716186e-05 1:0 2:1.5 3:2.2592599 4:0.34571299 5:1.11123 6:4.06181 7:0.769041 8:1.49589 9:3.0940399 10:3.9019899 11:76.045197 12:22.014601 13:0.66666698 14:0.85987097 15:0.792548 16:20.547899 17:-1 18:-25.25 19:-2 20:-104.083 #
5.8348401737577291169267734716186e-05 1:-2 2:32.266701 3:1.95356 4:0.87257701 5:1.01529 6:0.976771 7:0.360917 8:0.59825802 9:0.393574 10:0.393574 11:35.9827 12:71.293404 13:0.66666698 14:0.87430602 15:0.866346 16:10.3036 17:-2 18:32.266701 19:-3 20:-11.3333 #
5.8348401737577291169267734716186e-05 1:0 2:-37 3:2.5041201 4:2.3691199 5:3.79299 6:0.79867101 7:0.37149099 8:0.981731 9:0.77321202 10:2.7606001 11:71.483101 12:82.651299 13:1 14:0.73990798 15:0.84268099 16:19.485701 17:-4 18:-55.333302 19:-4 20:-55.333302 #
-5.8348401737577291169267734716186e-05 1:-1 2:-6 3:2.2049401 4:0.38595599 5:1.344 6:2.18752 7:1.8952399 8:0.86101002 9:2.9219401 10:3.94468 11:79.462196 12:20.754801 13:0.66666698 14:0.72452801 15:0.83528697 16:21.3223 17:-3 18:-50 19:-3 20:164 #
5.8348401737577291169267734716186e-05 1:-2 2:-2 3:2.12203 4:7.3229499 5:1.6180201 6:0.82413501 7:0.811324 8:0.58260697 9:1.85414 10:0.87958997 11:53.9599 12:25.5459 13:1 14:0.66923702 15:0.89484298 16:15.1341 17:2 18:54 19:0 20:-19.200001 #
-5.8348395226170968186352183693089e-05 1:0 2:0 3:3.5548899 4:0.26415101 5:0.55618203 6:0.27891299 7:0.14073201 8:1.00889 9:0.31319401 10:3.61429 11:78.444801 12:89.549896 13:0.444444 14:0.97266501 15:0.87594998 16:21.093599 17:0 18:0 19:-2 20:-264 #
-5.8348401737577291169267734716186e-05 1:0 2:0 3:1.5657001 4:0.44714999 5:1.08689 6:0.754803 7:1.80687 8:1.6399601 9:2.11498 10:0.945337 11:63.706001 12:39.050999 13:1 14:0.79277402 15:0.66223598 16:17.6047 17:0 18:0 19:1 20:132 #
5.8348401737577291169267734716186e-05 1:-1 2:-35 3:2.4651501 4:5.2277699 5:0.83186102 6:0.49691099 7:0.53753603 8:1.68759 9:0.66311097 10:0.55541998 11:37.685299 12:83.214302 13:0.66666698 14:0.63890302 15:0.77932101 16:10.7738 17:0 18:-6 19:0 20:-6 #
-3.8545868740718242659651360249029e-05 1:-1 2:-52 3:1.63334 4:0.49910599 5:0.96541798 6:0.356583 7:0.177468 8:0.97588801 9:0.1573 10:0.153598 11:15.5061 12:74.902496 13:0.444444 14:0.95051402 15:0.88830298 16:4.5001702 17:-1 18:-52 19:-3 20:-194 #
5.8348401737577291169267734716186e-05 1:4 2:50 3:2.54299 4:0.111498 5:2.5920701 6:0.785402 7:1.04316 8:2.07037 9:1.96357 10:2.8563399 11:79.307404 12:24.130699 13:0.33333299 14:0.55317599 15:0.846084 16:21.2876 17:4 18:50 19:4 20:50 #
-5.8348401737577291169267734716186e-05 1:0 2:0 3:1.47747 4:0.47384399 5:0.545515 6:0.172851 7:0.29584101 8:0.59076899 9:0.285101 10:0.220532 11:20.2878 12:67.718903 13:1 14:0.91380101 15:0.85498202 16:5.8751202 17:0 18:0 19:2 20:294.5 #
-5.8348401737577291169267734716186e-05 1:0 2:0 3:3.0733199 4:2.5519099 5:1.96103 6:1.18573 7:0.439531 8:1.2688 9:4.5475502 10:4.5475502 11:77.599098 12:25.330299 13:1 14:0.92522699 15:0.77208501 16:20.902399 17:0 18:0 19:1 20:227 #
-5.8348401737577291169267734716186e-05 1:0 2:0 3:1.91465 4:4.0402999 5:0.68197298 6:4.4906101 7:1.28117 8:0.99228698 9:3.0877199 10:3.0877199 11:74.533203 12:20.000401 13:0.33333299 14:0.79396099 15:0.675354 16:20.1994 17:0 18:0 19:-1 20:-212.875 #
5.8348401737577291169267734716186e-05 1:0 2:3.875 3:2.5097599 4:0.390717 5:0.45311099 6:0.27629599 7:0.59779102 8:0.58419198 9:0.62498599 10:0.34221199 11:29.0826 12:71.798401 13:0.66666698 14:0.84294599 15:0.79074502 16:8.3755798 17:-1 18:-5.5749998 19:-1 20:-5.5749998 #
5.8348401737577291169267734716186e-05 1:-2 2:-36.875 3:1.81163 4:1.45384 5:0.55954301 6:4.13938 7:0.75299901 8:0.39824599 9:2.9149001 10:2.9149001 11:80.6978 12:39.833801 13:1 14:0.91216803 15:0.77346599 16:21.5977 17:-3 18:-41.25 19:-6 20:-94.0625 #
-5.8348401737577291169267734716186e-05 1:-4 2:-29.5 3:1.89893 4:0.54143399 5:0.86447299 6:0.721286 7:1.75832 8:2.38568 9:3.81353 10:2.38677 11:85.922798 12:18.1654 13:0.33333299 14:0.84084898 15:0.74922401 16:22.733999 17:-5 18:-36 19:-5 20:127.571 #
5.8348401737577291169267734716186e-05 1:3 2:46.833302 3:1.77188 4:4.57234 5:0.59932399 6:0.91461802 7:2.5306399 8:0.64235502 9:1.34188 10:1.13674 11:59.401798 12:58.114601 13:0.66666698 14:0.51459497 15:0.80169398 16:16.5282 17:4 18:50.625 19:4 20:50.625 #
-4.6485627109304887040475140480567e-05 1:0 2:0 3:2.11971 4:0.90138298 5:0.52772802 6:0.46032301 7:0.292602 8:0.18911099 9:0.370617 10:0.246213 11:28.154699 12:68.994904 13:0.33333299 14:0.80679703 15:0.89813602 16:8.1138401 17:0 18:0 19:1 20:292 #
-5.8348401737577291169267734716186e-05 1:-3 2:-20.5 3:1.6142401 4:0.43009001 5:0.98224801 6:0.70190901 7:3.4393301 8:1.73783 9:2.2305801 10:2.2987199 11:68.896698 12:16.2068 13:0.66666698 14:0.61839598 15:0.616409 16:18.869699 17:-4 18:-30.299999 19:-9 20:-149.7 #
5.8348401737577291169267734716186e-05 1:2 2:-3.1333301 3:1.56839 4:0.68538702 5:0.83852202 6:0.55834597 7:1.83561 8:2.84916 9:0.60661799 10:1.3916301 11:48.241501 12:87.706398 13:0.444444 14:0.610295 15:0.60544002 16:13.6323 17:2 18:-3.1333301 19:2 20:-3.1333301 #
-5.1612096411142449614573024518904e-05 1:0 2:0 3:3.2512901 4:1.11466 5:0.13521799 6:0.109513 7:0.34735301 8:1.21264 9:0.111492 10:0.111492 11:20.9084 12:80.135597 13:1 14:0.96080703 15:0.96279502 16:6.0528798 17:0 18:0 19:1 20:294 #
5.8348401737577291169267734716186e-05 1:0 2:-24.5 3:2.59232 4:1.4908 5:0.74927998 6:1.74921 7:1.9410599 8:0.84204102 9:5.7167602 10:3.4671099 11:77.587601 12:20.8827 13:0.66666698 14:0.89988899 15:0.842619 16:20.899799 17:0 18:-24.5 19:-2 20:-89 #
-5.8348401737577291169267734716186e-05 1:0 2:0 3:2.9743099 4:0.26070899 5:2.80266 6:0.48797199 7:0.92176503 8:1.5017 9:0.71660203 10:0.945297 11:56.2873 12:75.152298 13:1 14:0.86455399 15:0.83796299 16:15.7347 17:0 18:0 19:-4 20:-250.875 #
-5.4909466718639117488454104432094e-05 1:1 2:5 3:2.6120999 4:3.29669 5:17.596201 6:5.3613 7:7.8652701 8:7.8858099 9:3.0941401 10:1.28433 11:60.1562 12:21.2843 13:1 14:0.87565899 15:0.812289 16:16.718599 17:1 18:5 19:1 20:5 #
5.8348401737577291169267734716186e-05 1:0 2:0 3:1.40061 4:1.31598 5:1.35174 6:1.55942 7:1.4823101 8:2.14552 9:2.82762 10:0.481134 11:31.974199 12:27.5098 13:0.33333299 14:0.82090098 15:0.75284803 16:9.1876297 17:0 18:0 19:0 20:0 #
-5.8348401737577291169267734716186e-05 1:1 2:16 3:2.30265 4:0.924959 5:0.60834801 6:1.36071 7:2.03228 8:0.69492698 9:1.71297 10:1.1107301 11:56.740002 12:30.6084 13:0.66666698 14:0.77311897 15:0.80225801 16:15.8507 17:1 18:16 19:-3 20:-243 #
5.8348401737577291169267734716186e-05 1:-2 2:-11 3:1.93286 4:0.221738 5:0.53277397 6:0.82378697 7:2.0336299 8:1.88332 9:1.76335 10:2.2543399 11:69.991096 12:56.375401 13:0.66666698 14:0.92910701 15:0.92709798 16:19.1315 17:-4 18:-51.5 19:-6 20:-72 #
5.8348401737577291169267734716186e-05 1:-2 2:-35 3:2.0220799 4:7.1676898 5:1.3556499 6:1.07356 7:0.64673901 8:0.63619101 9:0.92699897 10:0.40853599 11:35.824001 12:54.326401 13:0.444444 14:0.62123901 15:0.83921802 16:10.2596 17:-2 18:-35 19:-2 20:-35 #
5.8348401737577291169267734716186e-05 1:3 2:16.6667 3:2.2912199 4:1.08755 5:0.72185099 6:1.34429 7:1.40027 8:2.0717499 9:1.51783 10:2.6210599 11:76.617104 12:28.105499 13:1 14:0.537229 15:0.826379 16:20.678801 17:3 18:16.6667 19:4 20:64.5 #
5.8348401737577291169267734716186e-05 1:-2 2:-20 3:2.2095399 4:0.46770599 5:1.18765 6:2.28776 7:1.04085 8:0.775065 9:0.61346298 10:3.7783699 11:84.555603 12:83.031097 13:0.66666698 14:0.66132098 15:0.72389501 16:22.441099 17:-4 18:-34.400002 19:-5 20:-65.333298 #
5.8348401737577291169267734716186e-05 1:0 2:0 3:2.0320001 4:0.39696601 5:0.31295699 6:0.333675 7:0.924101 8:1.48823 9:0.91163099 10:0.91163099 11:54.378899 12:77.158897 13:1 14:0.84730399 15:0.87381297 16:15.2426 17:0 18:0 19:0 20:0 #
-5.8317682351758440815765044407115e-05 1:-1 2:-10 3:3.32341 4:0.104304 5:1.19073 6:0.653642 7:0.85421503 8:0.67750102 9:0.47700199 10:1.99411 11:89.510597 12:86.451797 13:0.66666698 14:0.625229 15:0.79459798 16:23.487101 17:-2 18:-45 19:-2 20:212.66701 #
5.8348401737577291169267734716186e-05 1:2 2:13.1333 3:2.88796 4:2.4810801 5:1.46935 6:0.736265 7:1.71505 8:0.48193601 9:8.0019102 10:1.23527 11:58.5504 12:15.5072 13:0.66666698 14:0.96161902 15:0.86407 16:16.3125 17:2 18:13.1333 19:0 20:-80.199997 #
-5.8348401737577291169267734716186e-05 1:4 2:27.5 3:2.9651799 4:1.58745 5:2.8113101 6:2.7005 7:1.04928 8:0.618545 9:1.37721 10:1.23838 11:72.672798 12:60.204498 13:1 14:0.71752298 15:0.76012897 16:19.765699 17:4 18:27.5 19:2 20:-223.5 #
5.8348401737577291169267734716186e-05 1:0 2:-31.5 3:2.3315201 4:0.40036899 5:1.43871 6:23.081699 7:0.64399499 8:0.418861 9:1.4735301 10:0.292768 11:29.317801 12:45.566898 13:1 14:0.74315298 15:0.86591399 16:8.4418201 17:-2 18:-44.25 19:-2 20:-44.25 #
-5.8348401737577291169267734716186e-05 1:0 2:0 3:2.4268301 4:0.68184602 5:0.62174398 6:0.93407398 7:0.56323802 8:0.64258999 9:1.49696 10:1.49696 11:69.094597 12:56.495701 13:0.444444 14:0.71215397 15:0.72548801 16:18.9172 17:0 18:0 19:-1 20:-234 #
5.8348401737577291169267734716186e-05 1:2 2:10 3:1.63288 4:5.9565301 5:0.83464402 6:1.32565 7:0.56934202 8:0.70266801 9:0.96052098 10:1.66423 11:72.959602 12:49.284801 13:1 14:0.44202301 15:0.717363 16:19.832899 17:3 18:17.799999 19:4 20:54.666698 #
-5.3715589342140874281206902596253e-08 1:0 2:0 3:1.98162 4:0.79574603 5:0.44376099 6:0.20121101 7:0.381538 8:0.94165301 9:0.197901 10:0.52133697 11:44.063702 12:69.1903 13:0.66666698 14:0.89651197 15:0.95450097 16:12.5135 17:0 18:0 19:4 20:48.875 #
5.8348401737577291169267734716186e-05 1:-1 2:19.25 3:2.1967599 4:0.75945503 5:0.63533998 6:0.43236399 7:0.78293598 8:0.49952701 9:0.288569 10:1.18927 11:66.137299 12:73.144997 13:0.66666698 14:0.95327997 15:0.82162398 16:18.2019 17:1 18:37.5 19:1 20:37.5 #
5.8348401737577291169267734716186e-05 1:-2 2:-13.25 3:2.9665401 4:2.5573299 5:1.5772001 6:0.85435897 7:1.40701 8:0.83024001 9:3.5847499 10:0.47323 11:38.319599 12:51.762798 13:1 14:0.95083702 15:0.88164002 16:10.9484 17:-4 18:-23.5 19:-5 20:-46.4286 #
-5.8348401737577291169267734716186e-05 1:3 2:32 3:1.34121 4:0.38262901 5:2.9673901 6:1.8180701 7:2.7448599 8:2.4014399 9:6.99858 10:5.4105601 11:88.147102 12:12.8103 13:0.33333299 14:0.91675198 15:0.82969499 16:23.203501 17:3 18:32 19:2 20:-25 #
-1.1591944542343785191917948651508e-07 1:1 2:34 3:1.68568 4:0.189849 5:0.564358 6:0.53290701 7:0.28548199 8:0.952371 9:0.188712 10:0.92677402 11:54.049801 12:82.116096 13:0.444444 14:0.91259003 15:0.925403 16:15.1573 17:1 18:34 19:2 20:13.3333 #
-5.8348401737577291169267734716186e-05 1:0 2:0 3:1.80007 4:1.89175 5:0.159576 6:0.66769201 7:1.6762201 8:1.3585401 9:3.0509 10:2.32657 11:89.427597 12:22.3283 13:0.444444 14:0.79830402 15:0.76086903 16:23.4699 17:0 18:0 19:1 20:130 #
-5.832299364682768213130267809241e-05 1:0 2:0 3:2.79251 4:1.10018 5:3.14765 6:0.31190401 7:0.44801301 8:0.33942601 9:0.47542 10:0.165396 11:24.2651 12:64.112602 13:0.66666698 14:0.97285497 15:0.93851298 16:7.0110998 17:0 18:0 19:-1 20:-238.625 #
5.8348401737577291169267734716186e-05 1:4 2:45.5 3:1.48754 4:0.58925599 5:1.91951 6:0.972772 7:1.45634 8:2.39873 9:2.6707799 10:6.1724501 11:81.408897 12:23.542 13:0.166667 14:0.81274003 15:0.76620299 16:21.754999 17:5 18:49.200001 19:5 20:49.200001 #
-5.8348401737577291169267734716186e-05 1:0 2:0 3:2.3203299 4:2.31898 5:1.96146 6:2.9126899 7:2.2771201 8:2.3829999 9:2.9995501 10:2.9995501 11:88.374802 12:24.4634 13:0.444444 14:0.70508599 15:0.74393499 16:23.251101 17:0 18:0 19:0 20:0 #
5.8348401737577291169267734716186e-05 1:4 2:3.5999999 3:2.6263001 4:2.2498901 5:1.07543 6:0.86552101 7:0.62585002 8:0.30863401 9:1.17695 10:0.462946 11:39.105099 12:52.557301 13:0.66666698 14:0.89990002 15:0.82256502 16:11.1641 17:4 18:3.5999999 19:4 20:3.5999999 #
-3.1350306476239124726414220223347e-05 1:-5 2:-31.700001 3:1.36533 4:2.67169 5:6.2839499 6:2.9822199 7:0.73649198 8:1.19016 9:1.71975 10:0.17351601 11:17.247999 12:40.59 13:0.66666698 14:0.866817 15:0.87933201 16:5.00208 17:-6 18:-38.25 19:-10 20:-133.7 #
5.8348401737577291169267734716186e-05 1:-6 2:-26.8571 3:3.0299001 4:1.9135 5:0.267398 6:0.55033302 7:1.60785 8:0.837982 9:3.22124 10:6.9875698 11:86.775101 12:11.185 13:0.66666698 14:0.73088503 15:0.88552701 16:22.9149 17:-6 18:-26.8571 19:-8 20:-59.111099 #
-5.8348401737577291169267734716186e-05 1:-5 2:-33.450001 3:1.4126101 4:4.84129 5:0.92434502 6:1.3092 7:2.12465 8:1.16373 9:1.71833 10:2.4542601 11:66.739304 12:34.002701 13:0.444444 14:0.68739402 15:0.694583 16:18.348499 17:-5 18:-33.450001 19:-5 20:-33.450001 #
5.8348401737577291169267734716186e-05 1:1 2:30.875 3:1.95983 4:0.20164999 5:1.51616 6:0.189798 7:1.67188 8:0.51823902 9:0.57901102 10:6.0834899 11:77.944397 12:75.938797 13:0.66666698 14:0.77102298 15:0.78854102 16:20.9806 17:1 18:30.875 19:1 20:30.875 #
-5.8348401737577291169267734716186e-05 1:-1 2:-54 3:2.2488999 4:2.00423 5:0.90997499 6:0.87550199 7:0.634525 8:0.222395 9:0.72053802 10:1.66207 11:75.0979 12:50.581699 13:0.33333299 14:0.82738298 15:0.75265902 16:20.33 17:-1 18:-54 19:1 20:136 #
-5.6721349998406248526204576076992e-05 1:2 2:56 3:1.40596 4:0.29202199 5:2.14677 6:2.5699201 7:0.27111799 8:0.12827399 9:0.94541103 10:3.6694701 11:74.640099 12:79.456802 13:0.33333299 14:0.69198197 15:0.902004 16:20.224199 17:6 18:69.833298 19:8 20:85.625 #
-5.8348401737577291169267734716186e-05 1:0 2:0 3:3.4117999 4:0.90202999 5:0.97678 6:0.714454 7:2.68714 8:0.87397701 9:2.80829 10:3.22212 11:73.516899 12:17.824301 13:0.66666698 14:0.76138198 15:0.91513902 16:19.9631 17:0 18:0 19:2 20:133.75 #
5.8348401737577291169267734716186e-05 1:-2 2:-22.6667 3:2.6842799 4:3.6573601 5:0.80937803 6:0.584849 7:1.5135601 8:0.64034098 9:1.68244 10:3.77965 11:75.474403 12:81.840698 13:0.444444 14:0.83419698 15:0.90608102 16:20.4168 17:-3 18:-30 19:-4 20:-60 #
-5.8348401737577291169267734716186e-05 1:0 2:0 3:1.69156 4:0.66846699 5:1.16768 6:0.22434001 7:0.36406499 8:0.45482501 9:0.39688501 10:0.39688501 11:35.8685 12:70.178703 13:0.66666698 14:0.85332501 15:0.86426198 16:10.2719 17:0 18:0 19:-1 20:-230 #
-5.8348401737577291169267734716186e-05 1:-1 2:-60 3:1.50456 4:0.86054999 5:1.27961 6:1.75289 7:0.125828 8:0.175633 9:0.56165302 10:1.46378 11:85.453499 12:82.688499 13:0.33333299 14:0.49924701 15:0.781335 16:22.633801 17:-1 18:-60 19:-1 20:40 #
5.8348401737577291169267734716186e-05 1:0 2:50 3:2.3351901 4:3.4979701 5:0.93395799 6:1.15267 7:1.3177 8:1.8097 9:4.7817202 10:2.4342899 11:69.613602 12:12.9851 13:0.66666698 14:0.85853702 15:0.86190099 16:19.041401 17:1 18:15.8333 19:0 20:-40.333302 #
5.8348401737577291169267734716186e-05 1:0 2:-26.75 3:1.71885 4:0.35589799 5:0.61660302 6:0.99586397 7:2.7123799 8:1.08591 9:2.78073 10:1.86727 11:77.247299 12:34.312599 13:0.33333299 14:0.88353801 15:0.69102299 16:20.8225 17:0 18:-26.75 19:1 20:38.75 #
-5.8348401737577291169267734716186e-05 1:5 2:47 3:2.15171 4:0.69907802 5:1.93256 6:0.54591 7:0.75055701 8:3.9140899 9:3.69508 10:3.11185 11:83.912102 12:18.222401 13:0.33333299 14:0.80577803 15:0.75252599 16:22.3022 17:5 18:47 19:5 20:47 #
-5.8348401737577291169267734716186e-05 1:1 2:6 3:2.9377799 4:0.37757 5:0.53898799 6:0.677562 7:1.47183 8:0.481821 9:3.5209601 10:1.03433 11:69.931297 12:22.787701 13:0.444444 14:0.85087401 15:0.71312201 16:19.1173 17:-1 18:-81 19:-2 20:-130 #
5.8348401737577291169267734716186e-05 1:-1 2:-22 3:1.91403 4:0.0760125 5:1.09988 6:1.06049 7:2.2934 8:1.24403 9:2.31867 10:1.2886699 11:61.8353 12:37.014599 13:1 14:0.73902202 15:0.88076401 16:17.139799 17:1 18:49 19:1 20:49 #
-5.8348401737577291169267734716186e-05 1:0 2:0 3:1.9450999 4:0.61298698 5:0.12593099 6:0.796965 7:0.236377 8:0.155982 9:0.257808 10:0.257808 11:26.909201 12:75.1604 13:0.33333299 14:0.86095899 15:0.875714 16:7.7616901 17:0 18:0 19:-1 20:-282 #
5.8348401737577291169267734716186e-05 1:1 2:10 3:2.14834 4:1.1372499 5:2.4535501 6:1.08653 7:2.6633999 8:1.79928 9:8.66084 10:7.84973 11:83.6259 12:3.52198 13:0.444444 14:0.88694 15:0.77670002 16:22.240101 17:-1 18:-71 19:-1 20:-71 #
5.8348401737577291169267734716186e-05 1:-1 2:20.5 3:5.74295 4:0.3603 5:1.05375 6:1.77555 7:4.0725799 8:1.05162 9:5.45892 10:5.45892 11:80.102699 12:79.321404 13:0.444444 14:0.906847 15:0.941818 16:21.4653 17:-1 18:20.5 19:-1 20:20.5 #
-5.8348401737577291169267734716186e-05 1:-2 2:-15.875 3:2.7939799 4:4.8464999 5:1.9262 6:1.66923 7:1.32243 8:0.57356697 9:1.41214 10:1.44845 11:72.338501 12:34.754398 13:0.66666698 14:0.674891 15:0.74466199 16:19.6873 17:-2 18:-15.875 19:-2 20:-15.875 #
5.8348401737577291169267734716186e-05 1:-1 2:-5 3:1.77087 4:2.7579401 5:0.46289799 6:1.11823 7:2.0181301 8:0.72858298 9:2.26296 10:1.81709 11:64.550903 12:46.477299 13:1 14:0.59038198 15:0.89140803 16:17.813101 17:-2 18:-50.25 19:-3 20:-68.833298 #
-5.6210103879408817174456042264907e-05 1:0 2:0 3:4.4296999 4:0.94983798 5:0.70087099 6:0.16284899 7:0.236904 8:0.26673999 9:0.25429299 10:0.18987399 11:29.3587 12:73.3041 13:0.33333299 14:0.91589898 15:0.96992898 16:8.4533596 17:0 18:0 19:-1 20:-224 #
5.8348401737577291169267734716186e-05 1:-1 2:-10 3:2.4555299 4:4.6872501 5:3.6292801 6:1.79208 7:0.89518899 8:0.62641901 9:0.56436902 10:0.56436902 11:45.369099 12:58.080002 13:0.66666698 14:0.93500298 15:0.94724 16:12.865 17:-2 18:27.5 19:-1 20:23.5 #
-1.1863852822379533646923732703726e-05 1:4 2:47 3:3.5341899 4:2.7093301 5:2.64484 6:0.78857601 7:0.551925 8:0.135736 9:0.60631502 10:4.3069701 11:85.707298 12:82.689697 13:0.166667 14:0.80245101 15:0.836721 16:22.688101 17:4 18:47 19:2 20:-173 #
-4.5468281191635438786072254124804e-05 1:1 2:17.75 3:3.1132801 4:46.214199 5:1.89782 6:1.41088 7:5.2823601 8:1.3365099 9:4.29425 10:4.13587 11:78.471901 12:28.5553 13:0.444444 14:0.90106201 15:0.898866 16:21.0998 17:1 18:17.75 19:0 20:-38.125 #
5.8348401737577291169267734716186e-05 1:1 2:4 3:2.24684 4:0.87251002 5:0.71771801 6:1.00741 7:0.93952298 8:1.23147 9:0.98459399 10:1.94698 11:70.791496 12:87.314301 13:0.33333299 14:0.610268 15:0.822025 16:19.321899 17:0 18:-40 19:1 20:5.1666698 #
-2.1448064265828470186100659922168e-05 1:0 2:0 3:2.1744399 4:1.08813 5:0.395354 6:0.67501903 7:0.26607499 8:0.58964199 9:0.59186399 10:0.28291801 11:32.161701 12:81.766701 13:0.444444 14:0.862275 15:0.92281199 16:9.2400799 17:-1 18:-90 19:0 20:80 #
5.8348401737577291169267734716186e-05 1:1 2:10 3:3.29492 4:6.7313099 5:1.33039 6:0.70160002 7:1.14239 8:1.37826 9:2.15431 10:2.2873299 11:74.933197 12:15.3512 13:0.444444 14:0.55169702 15:0.81586897 16:20.291901 17:1 18:10 19:1 20:-85 #
-5.8348401737577291169267734716186e-05 1:1 2:22 3:1.4278899 4:2.8581901 5:1.01136 6:0.61511302 7:1.66812 8:1.45772 9:1.77265 10:1.77265 11:72.306099 12:18.9223 13:0.444444 14:0.55422002 15:0.64336503 16:19.6796 17:3 18:58 19:3 20:58 #
5.8348401737577291169267734716186e-05 1:0 2:0 3:2.47101 4:1.23333 5:1.59233 6:0.378409 7:2.6605301 8:1.04562 9:2.3004 10:2.3004 11:64.213898 12:28.2342 13:0.66666698 14:0.961119 15:0.90436798 16:17.730101 17:-1 18:-66 19:-1 20:-66 #
-1.4244642484112848834776343664998e-06 1:1 2:2.125 3:1.75337 4:22.3885 5:1.2959501 6:0.40004599 7:4.4612098 8:8.4568596 9:3.9117801 10:3.9117801 11:71.530502 12:18.473801 13:1 14:0.90802097 15:0.81976902 16:19.496901 17:1 18:2.125 19:1 20:2.125 #
-5.8348401737577291169267734716186e-05 1:-1 2:-24 3:2.3528399 4:1.59342 5:0.55834597 6:1.26424 7:2.6934099 8:0.505548 9:1.5944 10:6.0142598 11:86.100304 12:8.2671003 13:0.444444 14:0.38145301 15:0.82260299 16:22.771799 17:-1 18:-24 19:-2 20:-106.667 #
5.8348401737577291169267734716186e-05 1:2 2:13.5 3:1.4824899 4:1.79961 5:2.31936 6:1.9271899 7:2.36587 8:1.74105 9:1.82169 10:0.59440798 11:44.148201 12:38.919899 13:0.66666698 14:0.81299299 15:0.88570201 16:12.5363 17:2 18:13.5 19:2 20:13.5 #
5.8348401737577291169267734716186e-05 1:1 2:-28.3333 3:2.7968099 4:1.23595 5:0.53659397 6:3.08181 7:0.60739398 8:1.41511 9:4.65271 10:4.65271 11:80.952499 12:20.6285 13:1 14:0.840092 15:0.87616599 16:21.6541 17:0 18:-35.333302 19:-3 20:-80 #
5.8348401737577291169267734716186e-05 1:1 2:-22 3:1.4403501 4:4.9650602 5:0.90386599 6:0.732732 7:1.93095 8:2.09004 9:1.45111 10:0.60643601 11:39.552502 12:47.473701 13:0.33333299 14:0.53440702 15:0.72445601 16:11.2868 17:1 18:-22 19:0 20:-43 #
5.8348401737577291169267734716186e-05 1:-1 2:26.6667 3:3.09288 4:0.42890799 5:0.47476599 6:2.6269701 7:0.625301 8:0.95169801 9:1.63947 10:1.76217 11:78.164398 12:38.2006 13:1 14:0.76228899 15:0.76389402 16:21.030399 17:0 18:32 19:0 20:32 #
-5.470374786509192479438956624449e-05 1:-1 2:-25.5 3:1.45807 4:0.91612601 5:0.55275398 6:0.34615201 7:0.200754 8:0.644256 9:0.395812 10:0.28376201 11:22.210899 12:86.414299 13:1 14:0.671305 15:0.80499101 16:6.4253502 17:-7 18:-60.75 19:-7 20:-60.75 #
-5.8348401737577291169267734716186e-05 1:-1 2:-59 3:1.76433 4:1.11762 5:0.220825 6:0.158237 7:0.31044599 8:0.35905099 9:0.130456 10:0.102026 11:21.0767 12:72.6241 13:0.66666698 14:0.96333897 15:0.97460699 16:6.1010699 17:-1 18:-59 19:-2 20:-170.5 #
-5.8348401737577291169267734716186e-05 1:-3 2:-42 3:2.47596 4:0.69690597 5:0.79853398 6:0.93721002 7:1.53385 8:4.3996801 9:2.70627 10:3.76332 11:76.3526 12:33.141499 13:0.33333299 14:0.80981702 15:0.80698597 16:20.618299 17:-3 18:-42 19:-6 20:-120 #
5.8348401737577291169267734716186e-05 1:0 2:21 3:3.7453301 4:0.92805099 5:0.43902799 6:2.52878 7:1.7482899 8:0.945023 9:0.89170003 10:2.5629201 11:78.737602 12:77.2136 13:0.33333299 14:0.59421802 15:0.87580401 16:21.159599 17:0 18:21 19:0 20:21 #
-5.8348401737577291169267734716186e-05 1:0 2:0 3:2.31546 4:0.56050497 5:3.5908201 6:1.08784 7:3.5597401 8:2.15485 9:2.54719 10:2.2163701 11:87.309303 12:31.1248 13:0.66666698 14:0.68247497 15:0.74950898 16:23.0277 17:0 18:0 19:0 20:0 #
-5.7659227220396935093774809510947e-05 1:0 2:0 3:2.6789601 4:0.59813303 5:0.26800099 6:1.35272 7:0.555471 8:1.01044 9:0.65869498 10:6.35217 11:89.661201 12:71.992104 13:0.66666698 14:0.813658 15:0.89281797 16:23.5182 17:2 18:75 19:2 20:75 #
5.8348401737577291169267734716186e-05 1:-1 2:-24 3:3.42506 4:0.81470901 5:0.58263201 6:1.09141 7:1.4568599 8:3.1352899 9:2.4860699 10:2.4860699 11:67.631302 12:23.0487 13:0.33333299 14:0.89466399 15:0.91744101 16:18.564699 17:-2 18:-38.5 19:-3 20:-69.199997 #
-5.8348401737577291169267734716186e-05 1:1 2:10 3:2.3633499 4:1.2253 5:2.6745701 6:1.25568 7:7.60642 8:1.39867 9:15.625 10:5.9847398 11:81.566704 12:10.7905 13:0.444444 14:0.95747399 15:0.82964301 16:21.789801 17:-1 18:-73 19:-2 20:-111.333 #
5.8348401737577291169267734716186e-05 1:0 2:-4.6666698 3:3.7234299 4:0.39438099 5:1.36222 6:0.682558 7:3.6963601 8:0.49286899 9:2.23768 10:2.23768 11:79.138397 12:71.917603 13:1 14:0.92989999 15:0.86861598 16:21.249701 17:1 18:12.3333 19:0 20:-38 #
-5.8348401737577291169267734716186e-05 1:0 2:0 3:2.17118 4:3.16257 5:0.781901 6:0.97262502 7:0.43573701 8:0.37112999 9:0.474262 10:0.414682 11:38.3815 12:51.959499 13:1 14:0.94414997 15:0.90725499 16:10.9654 17:0 18:0 19:-3 20:-210 #
5.8348401737577291169267734716186e-05 1:-3 2:1.16667 3:3.6001 4:3.6170599 5:1.59131 6:2.0341301 7:1.6503 8:1.96889 9:7.7077799 10:4.0048199 11:76.606201 12:18.7418 13:0.444444 14:0.93142301 15:0.86465698 16:20.6763 17:-2 18:18.4286 19:-2 20:18.4286 #
5.8348401737577291169267734716186e-05 1:0 2:-20 3:5.0205498 4:0.90605497 5:0.65232301 6:4.50207 7:0.98282301 8:0.54522097 9:2.95456 10:2.95456 11:80.970001 12:66.537498 13:1 14:0.943317 15:0.894301 16:21.658001 17:-1 18:-29.2917 19:-2 20:-69.966698 #
-5.8348401737577291169267734716186e-05 1:-1 2:-8 3:2.2892201 4:0.79336202 5:1.1610301 6:1.6589299 7:0.44088101 8:0.51258701 9:0.675138 10:7.1810498 11:87.011299 12:48.635201 13:0.66666698 14:0.88062602 15:0.91221499 16:22.964899 17:-6 18:-67.666702 19:-7 20:-99.428596 #
5.8348401737577291169267734716186e-05 1:-2 2:-22.6667 3:1.62137 4:1.38643 5:0.381421 6:1.16787 7:1.34273 8:1.08125 9:1.49289 10:0.61763901 11:40.294498 12:51.769402 13:0.66666698 14:0.63183701 15:0.60766101 16:11.4898 17:-2 18:-22.6667 19:-2 20:-22.6667 #
-5.8348401737577291169267734716186e-05 1:0 2:0 3:1.16724 4:0.99870002 5:1.1014 6:0.46891701 7:0.139311 8:1.15633 9:0.29026401 10:1.16144 11:55.335499 12:84.2052 13:0.66666698 14:0.90185499 15:0.902179 16:15.4898 17:-1 18:-81 19:-1 20:-81 #
5.8348401737577291169267734716186e-05 1:-1 2:34.333302 3:1.98634 4:4.9373999 5:1.16798 6:0.26273301 7:1.67082 8:2.30497 9:3.9619801 10:2.9496901 11:80.313202 12:10.4092 13:0.444444 14:0.782269 15:0.79622 16:21.512199 17:-1 18:34.333302 19:-2 20:-18 #
-5.8348401737577291169267734716186e-05 1:1 2:18 3:2.0924699 4:13.1206 5:4.1426301 6:3.5799301 7:0.57801002 8:1.02905 9:7.5658498 10:5.69241 11:81.236702 12:28.7244 13:1 14:0.98081797 15:0.88058501 16:21.716999 17:-2 18:-68 19:-2 20:-68 #
5.8348401737577291169267734716186e-05 1:0 2:-2 3:1.89253 4:4.0285501 5:0.532502 6:2.05053 7:1.99421 8:0.84655702 9:2.0676899 10:2.0676899 11:68.0634 12:35.2173 13:1 14:0.81176001 15:0.81638801 16:18.6691 17:-3 18:-51 19:-4 20:-59.799999 #
-5.8348401737577291169267734716186e-05 1:0 2:-40 3:2.1206999 4:1.03003 5:1.81986 6:2.1542799 7:0.51137102 8:0.87432998 9:1.309 10:4.0712399 11:81.962799 12:57.7076 13:0.444444 14:0.441385 15:0.71277702 16:21.877001 17:-1 18:-47 19:-2 20:-111.333 #
5.8348401737577291169267734716186e-05 1:4 2:35.5 3:1.79076 4:1.94295 5:1.0011801 6:0.79533702 7:0.95380199 8:0.425789 9:1.82977 10:2.7585001 11:82.634804 12:52.221298 13:0.66666698 14:0.65780801 15:0.73066598 16:22.0243 17:5 18:-34 19:5 20:-34 #
-5.8348401737577291169267734716186e-05 1:0 2:-2.25 3:2.09181 4:1.04592 5:2.2076399 6:1.33585 7:0.91996503 8:0.69973099 9:1.63752 10:1.63752 11:59.383598 12:31.4366 13:1 14:0.98240101 15:0.92629498 16:16.5236 17:-3 18:-65.093803 19:-4 20:-74.050003 #
5.8348401737577291169267734716186e-05 1:-3 2:-27.5 3:2.8542399 4:2.40446 5:1.17419 6:0.30206999 7:2.0153601 8:0.56179398 9:2.2521501 10:2.3894401 11:74.1577 12:30.640699 13:0.66666698 14:0.90359801 15:0.859837 16:20.112301 17:-5 18:-35.5 19:-6 20:-61 #
-5.8348401737577291169267734716186e-05 1:2 2:15 3:3.93503 4:0.959508 5:0.84289902 6:1.13192 7:3.6264501 8:1.87714 9:2.5846901 10:1.77648 11:74.695702 12:42.206501 13:1 14:0.80432898 15:0.84468597 16:20.237 17:-2 18:-74 19:-2 20:-74 #
5.8348401737577291169267734716186e-05 1:-2 2:-16 3:2.53285 4:1.32284 5:0.62122899 6:3.0292599 7:2.6170599 8:2.7962 9:3.89482 10:8.4641104 11:85.4758 12:35.173 13:1 14:0.94044501 15:0.85239899 16:22.638599 17:-5 18:-50.799999 19:-5 20:-50.799999 #
5.8348401737577291169267734716186e-05 1:1 2:7.5 3:6.3471799 4:1.39007 5:1.36717 6:1.7356 7:0.68308401 8:0.581361 9:2.0088401 10:1.70674 11:65.580299 12:57.516899 13:1 14:0.93759102 15:0.92601502 16:18.065701 17:-3 18:-44.900002 19:-3 20:-44.900002 #
-5.8348401737577291169267734716186e-05 1:1 2:18.5 3:1.35479 4:0.56093901 5:0.808267 6:0.36383599 7:0.60559499 8:0.40135199 9:0.432421 10:0.98828101 11:58.570702 12:75.760399 13:1 14:0.51974797 15:0.69216001 16:16.3176 17:0 18:-78.5 19:0 20:-78.5 #
5.8348401737577291169267734716186e-05 1:0 2:-8.5 3:1.68407 4:6.69592 5:2.8027101 6:0.51479697 7:1.7972701 8:0.86351401 9:1.39784 10:1.18821 11:67.684402 12:43.211498 13:1 14:0.94064099 15:0.786888 16:18.5776 17:-4 18:-38.5 19:-5 20:-51.142899 #
-5.8348401737577291169267734716186e-05 1:1 2:9 3:3.0805299 4:0.26485401 5:2.9142599 6:0.81028903 7:1.72479 8:0.60920399 9:2.55881 10:2.55881 11:69.329903 12:23.7129 13:0.444444 14:0.854976 15:0.89398497 16:18.973499 17:-1 18:-56 19:-2 20:-114.333 #
-5.8348401737577291169267734716186e-05 1:0 2:0 3:2.69996 4:0.107069 5:1.02948 6:0.27702001 7:0.64631897 8:1.42897 9:0.276023 10:0.31259 11:32.963001 12:64.0839 13:0.66666698 14:0.93299598 15:0.91814703 16:9.4639902 17:1 18:76 19:6 20:208.66701 #
5.8348401737577291169267734716186e-05 1:1 2:31 3:1.86289 4:2.3975599 5:1.85103 6:0.63125902 7:1.25981 8:1.04193 9:3.74315 10:3.74315 11:87.616997 12:15.5097 13:0.66666698 14:0.76193899 15:0.71387798 16:23.0924 17:0 18:-36 19:0 20:-36 #
5.8348401737577291169267734716186e-05 1:4 2:21.200001 3:1.9400899 4:1.69859 5:1.53368 6:3.50524 7:0.77867299 8:0.51114702 9:0.84615803 10:1.42975 11:63.3232 12:47.734501 13:1 14:0.58401698 15:0.82016599 16:17.509899 17:4 18:21.200001 19:4 20:21.200001 #
-5.8348401737577291169267734716186e-05 1:0 2:0 3:1.11217 4:5.2927499 5:0.51383299 6:0.539406 7:0.47765401 8:1.03606 9:0.776784 10:1.3607399 11:58.467899 12:59.6133 13:0.66666698 14:0.81701499 15:0.82248598 16:16.2915 17:0 18:0 19:1 20:263 #
5.8348401737577291169267734716186e-05 1:-3 2:-36.5 3:3.3934 4:3.6647201 5:2.61462 6:0.80001098 7:0.455437 8:1.57016 9:1.1689 10:4.0264401 11:82.659203 12:84.483299 13:0.66666698 14:0.86230099 15:0.88101298 16:22.0296 17:-5 18:-46.666698 19:-5 20:-46.666698 #
5.8348401737577291169267734716186e-05 1:-1 2:-5.6999998 3:1.6052099 4:3.2990999 5:1.93645 6:0.63402802 7:0.639943 8:0.70113897 9:0.60189199 10:0.60189199 11:45.223301 12:55.782398 13:0.66666698 14:0.86197102 15:0.901788 16:12.8258 17:-1 18:-5.6999998 19:0 20:11.2 #
-5.8348401737577291169267734716186e-05 1:0 2:0 3:3.0284901 4:0.76466399 5:0.98994303 6:0.74625403 7:0.87073499 8:0.70015198 9:4.61483 10:4.61483 11:87.973999 12:27.837601 13:1 14:0.84789002 15:0.82213002 16:23.167299 17:0 18:0 19:-1 20:-123.5 #
5.8348401737577291169267734716186e-05 1:-1 2:4.1666698 3:2.7670701 4:0.98782599 5:1.52293 6:1.65674 7:0.40673199 8:0.99187899 9:4.6069999 10:4.6069999 11:79.2071 12:29.4172 13:1 14:0.88155001 15:0.88523901 16:21.2651 17:-1 18:4.1666698 19:-4 20:-68.666702 #
-5.8348401737577291169267734716186e-05 1:0 2:0 3:2.7309599 4:0.51929802 5:0.72866499 6:0.80980003 7:1.50141 8:1.29774 9:1.55371 10:0.66227901 11:46.2616 12:39.233101 13:0.33333299 14:0.77928698 15:0.86959398 16:13.1043 17:0 18:0 19:-1 20:-184 #
-5.8348401737577291169267734716186e-05 1:-1 2:-35.5 3:2.0634699 4:1.19344 5:1.79439 6:0.76276302 7:1.2297 8:1.90453 9:4.4849801 10:4.4849801 11:83.584198 12:18.890699 13:0.33333299 14:0.81268102 15:0.84322399 16:22.2311 17:-4 18:-51.200001 19:-5 20:-72.5 #
5.8348401737577291169267734716186e-05 1:-1 2:5.3333302 3:4.8903699 4:0.75914502 5:0.93224603 6:1.1150301 7:0.94350302 8:2.1355901 9:1.19724 10:1.19724 11:61.5942 12:73.644798 13:0.66666698 14:0.90790999 15:0.87207001 16:17.0795 17:-1 18:5.3333302 19:-1 20:5.3333302 #
5.8348401737577291169267734716186e-05 1:-1 2:-8.125 3:1.81059 4:0.81418997 5:1.51455 6:1.36796 7:1.15105 8:1.10513 9:2.3631201 10:1.27118 11:55.362598 12:24.593399 13:0.66666698 14:0.76264799 15:0.79041702 16:15.4968 17:-4 18:-41.275002 19:-4 20:-41.275002 #
-5.8348401737577291169267734716186e-05 1:0 2:0 3:3.12819 4:1.66705 5:0.80313498 6:1.33674 7:0.122216 8:0.30505899 9:0.253995 10:1.07639 11:56.850101 12:77.770897 13:0.444444 14:0.97092098 15:0.90345103 16:15.8789 17:1 18:93 19:3 20:155.66701 #
-4.7887791927147384609970287572267e-05 1:0 2:0 3:3.3337801 4:1.52439 5:0.639117 6:0.074004799 7:0.119107 8:0.37018001 9:0.12772401 10:0.11165 11:22.368299 12:70.234497 13:0.444444 14:0.975748 15:0.97528499 16:6.4703202 17:0 18:0 19:-3 20:-220 #
-5.8348401737577291169267734716186e-05 1:-2 2:-23 3:2.81901 4:1.73426 5:1.25582 6:1.8303699 7:1.61136 8:1.4608999 9:3.6282201 10:1.929 11:69.2985 12:25.295 13:0.33333299 14:0.89743501 15:0.76433498 16:18.966 17:-2 18:-23 19:-1 20:194 #
5.8348401737577291169267734716186e-05 1:1 2:-7.2083302 3:1.18592 4:0.189374 5:1.7957799 6:0.27651501 7:0.69917101 8:0.33384299 9:0.231803 10:0.92442501 11:58.823898 12:82.386398 13:0.66666698 14:0.69706702 15:0.785258 16:16.381901 17:1 18:-7.2083302 19:1 20:-7.2083302 #
-5.8348401737577291169267734716186e-05 1:-1 2:-6 3:3.27601 4:0.40326899 5:2.55637 6:0.41192099 7:0.305484 8:0.332331 9:0.30845201 10:2.6452899 11:86.310303 12:75.878899 13:0.444444 14:0.97898901 15:0.876046 16:22.816401 17:-3 18:-60.666698 19:-3 20:-60.666698 #
-5.8348401737577291169267734716186e-05 1:1 2:24 3:1.60947 4:0.158319 5:1.02091 6:0.77817398 7:2.75299 8:3.5192599 9:3.46644 10:3.35162 11:78.632896 12:17.976 13:0.444444 14:0.81141299 15:0.74945599 16:21.136 17:1 18:24 19:2 20:133 #
5.8348401737577291169267734716186e-05 1:-4 2:-12.4 3:4.0692 4:2.1215301 5:1.02016 6:0.789213 7:0.51180202 8:0.58939803 9:1.01218 10:0.49030399 11:42.1227 12:42.343899 13:0.66666698 14:0.81471097 15:0.88956702 16:11.988 17:-4 18:-12.4 19:-4 20:-12.4 #
5.8348401737577291169267734716186e-05 1:1 2:18.9167 3:1.7648799 4:0.379365 5:3.37218 6:3.15328 7:1.7255501 8:2.06797 9:4.4558601 10:2.0260899 11:66.569504 12:21.3181 13:0.66666698 14:0.839903 15:0.76762098 16:18.307199 17:1 18:18.9167 19:1 20:18.9167 #
-5.8348401737577291169267734716186e-05 1:0 2:0 3:3.9718001 4:0.43268201 5:0.68936902 6:0.30976999 7:0.418441 8:1.69214 9:0.34375101 10:0.31402299 11:29.1882 12:71.081902 13:1 14:0.95707101 15:0.82676399 16:8.4053297 17:0 18:0 19:-1 20:-214 #
5.8348401737577291169267734716186e-05 1:1 2:-5.75 3:2.12975 4:4.6490598 5:2.3949299 6:1.60712 7:0.67681402 8:0.89885199 9:0.78523499 10:1.7338099 11:73.278801 12:84.346199 13:0.166667 14:0.51678002 15:0.71576601 16:19.9076 17:1 18:-5.75 19:1 20:-5.75 #
-5.8348401737577291169267734716186e-05 1:0 2:0 3:1.44803 4:1.16039 5:1.70056 6:0.239645 7:0.312361 8:0.54976201 9:0.311887 10:0.311887 11:28.374701 12:62.693001 13:0.66666698 14:0.77495301 15:0.846717 16:8.17593 17:0 18:0 19:-1 20:-200.688 #
-5.8348401737577291169267734716186e-05 1:0 2:0 3:1.7947201 4:2.6038401 5:0.94615901 6:0.87298203 7:0.134988 8:0.586142 9:0.35061601 10:0.55487001 11:45.158699 12:76.587898 13:0.444444 14:0.84107 15:0.88188499 16:12.8084 17:0 18:0 19:1 20:276.375 #
5.8348401737577291169267734716186e-05 1:-4 2:-16.3333 3:1.36096 4:1.3008699 5:0.519611 6:0.34696099 7:1.7041399 8:3.30812 9:0.78811198 10:0.84473902 11:48.965401 12:47.031502 13:1 14:0.835365 15:0.79135102 16:13.8244 17:-5 18:-22 19:-6 20:-42.25 #
5.8348401737577291169267734716186e-05 1:1 2:10 3:1.43282 4:0.74664003 5:1.19067 6:0.46353 7:0.62639302 8:0.97207701 9:1.36439 10:0.952694 11:53.264198 12:32.894001 13:0.66666698 14:0.305738 15:0.623276 16:14.9533 17:1 18:10 19:1 20:10 #
-5.8336229463676167363971741819384e-05 1:0 2:0 3:2.30636 4:1.13096 5:1.38774 6:0.38649899 7:0.173141 8:0.65612298 9:0.295816 10:0.42069599 11:38.324699 12:77.9608 13:0.444444 14:0.83960903 15:0.906308 16:10.9498 17:0 18:0 19:-1 20:-208.5 #
5.8348401737577291169267734716186e-05 1:-5 2:-17.3333 3:2.6046901 4:0.75747299 5:2.10741 6:0.31427801 7:1.54518 8:1.0386 9:1.70248 10:1.02817 11:63.2314 12:81.758102 13:0.66666698 14:0.64198703 15:0.77003503 16:17.4872 17:-5 18:-17.3333 19:-5 20:-17.3333 #
-5.8238501470476533410092212506015e-05 1:-5 2:-27.6 3:5.46736 4:7.7681398 5:1.62828 6:1.16482 7:6.6121802 8:0.60942698 9:13.4375 10:4.9795399 11:77.962799 12:33.220501 13:0.444444 14:0.96531302 15:0.953991 16:20.9848 17:-5 18:-27.6 19:-3 20:203.39999 #
5.8348401737577291169267734716186e-05 1:-2 2:-16.6667 3:1.86684 4:0.81412899 5:0.51463902 6:0.63420701 7:0.704418 8:1.1598099 9:1.91986 10:1.91986 11:64.725899 12:29.110001 13:0.444444 14:0.76573497 15:0.67912298 16:17.856199 17:-4 18:-34.799999 19:-5 20:15.8571 #
-5.8348401737577291169267734716186e-05 1:0 2:0 3:1.89057 4:0.49115399 5:0.191679 6:0.080310702 7:0.392993 8:0.63142198 9:0.12015 10:0.12015 11:23.5084 12:66.500198 13:0.66666698 14:0.98791701 15:0.97790003 16:6.7955699 17:0 18:0 19:0 20:28 #
5.8348401737577291169267734716186e-05 1:-1 2:-20 3:2.04334 4:8.0368099 5:1.32188 6:0.49354199 7:5.7286401 8:1.21788 9:3.4518299 10:3.4518299 11:84.101799 12:15.9189 13:0.33333299 14:0.73205602 15:0.81957102 16:22.343201 17:-1 18:-20 19:-2 20:-59.5 #
-5.6314301324467564563436283719966e-05 1:-6 2:-19.25 3:1.66892 4:0.59057897 5:1.71943 6:4.5623398 7:1.76204 8:2.99159 9:3.82163 10:7.9553299 11:88.103996 12:13.1459 13:0.444444 14:0.79633802 15:0.79236603 16:23.1945 17:-6 18:-19.25 19:-6 20:-19.25 #
5.8348401737577291169267734716186e-05 1:0 2:17.3333 3:1.6056401 4:0.95787603 5:1.95907 6:0.51525903 7:1.14245 8:0.76545101 9:0.91663498 10:0.91663498 11:51.176399 12:38.823898 13:0.33333299 14:0.68713301 15:0.77442503 16:14.4075 17:0 18:17.3333 19:-1 20:-15.3333 #
-5.8348401737577291169267734716186e-05 1:-2 2:-3 3:1.43292 4:2.87168 5:1.41161 6:0.72543299 7:0.83583498 8:1.24844 9:1.64587 10:4.3058701 11:88.742897 12:21.336901 13:0.33333299 14:0.51863903 15:0.58780599 16:23.327801 17:-2 18:-3 19:-4 20:-64 #
-5.8348401737577291169267734716186e-05 1:-4 2:-22.9 3:2.6792099 4:3.84078 5:0.80506003 6:1.69144 7:3.3276501 8:1.36104 9:2.79532 10:2.2499199 11:84.678001 12:23.454599 13:0.444444 14:0.76740003 15:0.772659 16:22.467501 17:-4 18:-22.9 19:-5 20:-52.583302 #
5.8348401737577291169267734716186e-05 1:0 2:3.6666701 3:4.5574298 4:2.37691 5:1.02985 6:2.27144 7:1.92854 8:0.77106601 9:3.6596 10:0.73964399 11:44.991299 12:18.776699 13:1 14:0.83327699 15:0.79373699 16:12.7634 17:0 18:3.6666701 19:0 20:3.6666701 #
-5.8348401737577291169267734716186e-05 1:2 2:38 3:3.2448001 4:0.56446099 5:1.91994 6:0.347617 7:1.10179 8:1.16777 9:1.5723799 10:3.1236501 11:74.960999 12:50.966099 13:0.444444 14:0.84674501 15:0.90205997 16:20.298401 17:4 18:51.5 19:2 20:-160.5 #
5.8348401737577291169267734716186e-05 1:-3 2:-34.666698 3:1.95529 4:0.60946798 5:0.65959299 6:0.49663699 7:1.97355 8:1.83929 9:1.41311 10:2.03159 11:70.081001 12:75.305801 13:0.444444 14:0.645733 15:0.77149302 16:19.152901 17:-3 18:-34.666698 19:-3 20:-34.666698 #
5.8348401737577291169267734716186e-05 1:-4 2:-34.5 3:2.5726199 4:2.4033301 5:0.94140297 6:4.5591202 7:2.97282 8:0.809035 9:4.7930298 10:13.4201 11:88.066597 12:23.240101 13:0.66666698 14:0.82830203 15:0.86201698 16:23.186701 17:-4 18:-34.5 19:-4 20:-34.5 #
-5.8348401737577291169267734716186e-05 1:-1 2:-52 3:2.9686 4:1.01044 5:0.391417 6:1.20543 7:0.91101497 8:3.94065 9:3.28389 10:4.5901399 11:77.295197 12:73.408699 13:0.33333299 14:0.80436701 15:0.87475598 16:20.8333 17:-1 18:-52 19:-2 20:-104.5 #
5.8348401737577291169267734716186e-05 1:-2 2:21.75 3:3.3593299 4:1.65356 5:2.0764799 6:0.79229802 7:1.06178 8:1.03794 9:2.0275099 10:0.78342199 11:55.175598 12:28.5525 13:0.33333299 14:0.59794599 15:0.82454997 16:15.4486 17:-2 18:21.75 19:-3 20:-11.6 #
-5.8348401737577291169267734716186e-05 1:0 2:0 3:2.6344199 4:0.60295397 5:0.74512798 6:1.5226901 7:1.04004 8:3.6426799 9:3.5158899 10:5.2750702 11:78.9132 12:40.649601 13:0.33333299 14:0.852157 15:0.90822202 16:21.1991 17:0 18:0 19:1 20:198 #
5.8348401737577291169267734716186e-05 1:-3 2:-19.1 3:1.92027 4:0.36768201 5:0.58943599 6:0.33718899 7:1.71917 8:1.1702 9:0.80873001 10:1.76361 11:64.884102 12:75.097397 13:0.66666698 14:0.88815302 15:0.84468299 16:17.8951 17:-3 18:-19.1 19:-4 20:-33.916698 #
-5.8348401737577291169267734716186e-05 1:-2 2:-13.5 3:1.9723001 4:2.59285 5:0.76300502 6:0.96660203 7:1.17349 8:1.45372 9:2.4246399 10:3.18224 11:77.6595 12:11.8553 13:0.33333299 14:0.60464603 15:0.804313 16:20.9161 17:-2 18:-13.5 19:-2 20:-13.5 #
5.8348401737577291169267734716186e-05 1:2 2:6.5 3:1.78195 4:15.9943 5:0.77041399 6:0.382346 7:1.66438 8:0.39774999 9:2.53316 10:0.78961802 11:54.732399 12:38.491901 13:1 14:0.87730902 15:0.79795903 16:15.3341 17:2 18:6.5 19:2 20:6.5 #
-5.8348401737577291169267734716186e-05 1:0 2:0 3:1.59024 4:3.7876101 5:0.95033002 6:0.83616298 7:0.92630202 8:0.87854499 9:0.792862 10:1.9477299 11:71.920898 12:73.712898 13:0.444444 14:0.75740802 15:0.74857801 16:19.589001 17:0 18:0 19:2 20:221 #
5.8348401737577291169267734716186e-05 1:3 2:17 3:2.5616 4:0.41142401 5:1.41559 6:1.2031699 7:0.89632797 8:0.65841901 9:1.77159 10:7.0135498 11:84.825996 12:57.706699 13:1 14:0.85295701 15:0.87260503 16:22.4993 17:3 18:17 19:3 20:17 #
5.8348401737577291169267734716186e-05 1:2 2:14.8333 3:2.56376 4:0.334741 5:2.6807499 6:0.75883597 7:1.83069 8:2.0736301 9:1.52864 10:1.52864 11:68.276398 12:53.5401 13:0.66666698 14:0.84797698 15:0.761123 16:18.720501 17:2 18:14.8333 19:2 20:14.8333 #
5.8348401737577291169267734716186e-05 1:2 2:-5.4375 3:2.8592801 4:3.9347401 5:0.39905599 6:2.0873001 7:0.95059103 8:2.5327699 9:1.17084 10:1.85847 11:69.089104 12:63.4533 13:0.444444 14:0.56476498 15:0.83656102 16:18.9158 17:2 18:-15.05 19:2 20:-15.05 #
5.8348401737577291169267734716186e-05 1:1 2:1.58333 3:1.43995 4:1.37693 5:1.15557 6:1.31875 7:1.4399199 8:0.43888801 9:1.79026 10:1.79026 11:64.788101 12:25.3468 13:1 14:0.74537402 15:0.77839202 16:17.871401 17:1 18:1.58333 19:0 20:-63.083302 #
5.8348401737577291169267734716186e-05 1:-2 2:-23.875 3:1.98515 4:1.1683199 5:0.62761301 6:0.71123898 7:1.40633 8:0.795856 9:1.19682 10:1.32127 11:58.637798 12:48.783901 13:1 14:0.90086699 15:0.90409601 16:16.3347 17:-4 18:-33.5 19:-4 20:-33.5 #
5.8348401737577291169267734716186e-05 1:1 2:10 3:3.8815999 4:4.1015501 5:2.4416599 6:0.722884 7:0.75666302 8:0.91139501 9:0.46151701 10:3.9875 11:80.031998 12:72.611504 13:1 14:0.89155799 15:0.90950602 16:21.4496 17:1 18:10 19:1 20:10 #
5.8348401737577291169267734716186e-05 1:-2 2:-40.333302 3:2.4075 4:0.13809 5:1.2 6:1.2986799 7:1.18653 8:1.6007299 9:2.3908999 10:1.52958 11:62.580799 12:33.751801 13:0.444444 14:0.80631799 15:0.821742 16:17.3256 17:-2 18:-40.333302 19:-2 20:-40.333302 #
5.8348401737577291169267734716186e-05 1:-2 2:-22 3:3.0153301 4:2.1706901 5:0.83454502 6:2.2074101 7:0.54985398 8:0.74560601 9:2.30967 10:6.2291002 11:88.7547 12:62.5951 13:1 14:0.89786398 15:0.85380203 16:23.330299 17:-5 18:-39.857101 19:-5 20:-39.857101 #
-5.7454977640665399270421265232045e-05 1:0 2:0 3:1.94063 4:0.81678599 5:0.27319199 6:0.144522 7:0.33312699 8:0.676871 9:0.38692001 10:0.35489699 11:32.068802 12:87.801697 13:0.33333299 14:0.82285601 15:0.83279002 16:9.2140999 17:0 18:0 19:4 20:287.5 #
5.8348401737577291169267734716186e-05 1:-4 2:-24.5 3:3.2207799 4:3.2618699 5:1.02803 6:1.44997 7:0.753304 8:1.6423301 9:1.4834501 10:0.78501397 11:51.769299 12:38.2724 13:0.444444 14:0.821531 15:0.88029301 16:14.563 17:-4 18:-24.5 19:-5 20:-40.208302 #
-4.9620127692690347502146169800241e-05 1:1 2:-8.0208302 3:2.35708 4:3.78792 5:3.5379801 6:3.9421301 7:1.6432199 8:0.94077897 9:7.4408898 10:7.4408898 11:86.767799 12:5.7031999 13:0.444444 14:0.87224698 15:0.866768 16:22.913401 17:1 18:-8.0208302 19:-1 20:-83.137497 #
-5.8348401737577291169267734716186e-05 1:0 2:-2 3:1.51381 4:0.61208999 5:1.50185 6:4.75913 7:0.364894 8:1.29439 9:1.76731 10:2.2406299 11:65.575104 12:29.0396 13:0.66666698 14:0.56660497 15:0.86763501 16:18.064501 17:-2 18:-45.333302 19:-2 20:-45.333302 #
-5.8348401737577291169267734716186e-05 1:-2 2:-25.3333 3:1.68046 4:1.7801501 5:0.79773301 6:1.89303 7:0.893884 8:0.57362801 9:1.52772 10:4.0542498 11:83.907097 12:34.355 13:1 14:0.63928998 15:0.67005301 16:22.3011 17:-5 18:-43.666698 19:-6 20:-70.285698 #
5.8348401737577291169267734716186e-05 1:5 2:2 3:2.0788701 4:1.16029 5:1.2039599 6:0.72594702 7:1.85312 8:4.7224202 9:5.5050201 10:1.1720099 11:57.382198 12:1.39002 13:0.166667 14:0.81863397 15:0.91887099 16:16.014999 17:5 18:2 19:5 20:2 #
-5.8348401737577291169267734716186e-05 1:-1 2:-9.5 3:1.17808 4:2.4786301 5:1.2634701 6:7.1237998 7:0.58280498 8:0.589423 9:0.94893199 10:1.4362 11:69.368599 12:44.345901 13:0.66666698 14:0.78792202 15:0.800053 16:18.9828 17:1 18:57 19:1 20:57 #
5.8348401737577291169267734716186e-05 1:-5 2:-18.8571 3:5.2330399 4:0.553361 5:0.90740699 6:0.825885 7:0.82230902 8:1.7959 9:3.83722 10:5.8619499 11:86.711601 12:88.506699 13:0.66666698 14:0.88657498 15:0.902807 16:22.901501 17:-7 18:-26.2222 19:-7 20:-26.2222 #
5.8348401737577291169267734716186e-05 1:2 2:14.3333 3:3.0596499 4:0.24545 5:2.2100101 6:1.15686 7:1.62948 8:0.94148302 9:3.0399599 10:3.66255 11:79.332901 12:29.800699 13:0.66666698 14:0.869591 15:0.84659702 16:21.293301 17:2 18:14.3333 19:2 20:14.3333 #
-5.8348401737577291169267734716186e-05 1:2 2:-28.5 3:2.5857799 4:2.0655301 5:0.479072 6:0.75160402 7:5.9093699 8:1.7603101 9:4.6247301 10:4.6247301 11:81.322098 12:16.2894 13:0.444444 14:0.82905501 15:0.87434798 16:21.7358 17:2 18:-28.5 19:1 20:-74.25 #
-5.8348401737577291169267734716186e-05 1:0 2:0 3:2.48487 4:0.42333999 5:0.93909299 6:1.65272 7:0.41912699 8:1.00253 9:0.77353799 10:2.76033 11:81.858002 12:78.672302 13:0.33333299 14:0.34381399 15:0.84088397 16:21.853901 17:0 18:0 19:1 20:192 #
5.8348401737577291169267734716186e-05 1:-1 2:-14 3:2.24839 4:2.0929999 5:0.56288803 6:0.56251901 7:1.32003 8:1.34893 9:2.61796 10:1.43014 11:59.4925 12:27.2201 13:0.33333299 14:0.75835502 15:0.87733799 16:16.5511 17:-1 18:-14 19:-2 20:8.6666698 #
-5.8339697864362148626606041634801e-05 1:-1 2:-6 3:2.7383299 4:1.37336 5:0.97447097 6:1.1277699 7:4.8327398 8:2.3663099 9:6.4389 10:6.5356998 11:85.927902 12:18.804399 13:0.33333299 14:0.91587299 15:0.883959 16:22.7351 17:-1 18:-6 19:-2 20:-77 #
-5.8348401737577291169267734716186e-05 1:3 2:44.833302 3:2.2779601 4:0.32748201 5:2.2748899 6:9.42871 7:5.0332298 8:8.8731203 9:1.65178 10:0.60547101 11:46.265701 12:45.6852 13:1 14:0.85500199 15:0.681871 16:13.1054 17:4 18:49.375 19:3 20:-111.125 #
-5.8348401737577291169267734716186e-05 1:-2 2:-28.3333 3:1.72926 4:2.15569 5:1.32556 6:2.4001501 7:1.99716 8:0.463016 9:2.3820701 10:2.3820701 11:71.444504 12:34.949699 13:0.66666698 14:0.84239 15:0.76884902 16:19.476601 17:-3 18:-38.25 19:-4 20:-77.199997 #
5.8348401737577291169267734716186e-05 1:0 2:0 3:1.74326 4:0.45269701 5:0.80067903 6:1.10475 7:2.1089001 8:1.93492 9:2.09448 10:1.05858 11:60.486401 12:38.069 13:0.444444 14:0.77246898 15:0.83017898 16:16.801701 17:0 18:0 19:0 20:0 #
-2.5990157217834739021913859069457e-06 1:0 2:0 3:1.55696 4:0.50975603 5:0.69678903 6:0.28558999 7:0.40064201 8:0.106323 9:0.411291 10:0.353706 11:36.9977 12:61.8806 13:0.444444 14:0.87569398 15:0.933779 16:10.5842 17:1 18:100 19:7 20:150.85699 #
-5.8348401737577291169267734716186e-05 1:-5 2:-12.8333 3:2.14924 4:0.333325 5:0.60634297 6:0.64203399 7:3.7003801 8:4.0720201 9:3.8615601 10:6.3642201 11:86.166397 12:29.785101 13:0.33333299 14:0.82285303 15:0.83640301 16:22.7859 17:-6 18:-17.1429 19:-9 20:-61.799999 #
-5.8348401737577291169267734716186e-05 1:0 2:6 3:3.5668001 4:3.94118 5:0.60360998 6:0.93975103 7:0.56266701 8:0.37617099 9:2.07022 10:2.07022 11:87.977798 12:75.873802 13:1 14:0.84873402 15:0.81316698 16:23.1681 17:1 18:42.5 19:1 20:42.5 #
5.8348401737577291169267734716186e-05 1:2 2:6.53333 3:2.32493 4:1.3206199 5:1.21859 6:2.4681499 7:0.818618 8:0.79695302 9:1.53403 10:1.53403 11:64.634399 12:50.051899 13:0.444444 14:0.71544302 15:0.80773097 16:17.8337 17:2 18:-1.5 19:0 20:-43 #
-5.8348401737577291169267734716186e-05 1:0 2:-16 3:2.29303 4:0.36449501 5:0.30781901 6:2.1075301 7:1.1781501 8:0.93651801 9:3.09531 10:2.47245 11:67.692398 12:20.4076 13:1 14:0.795376 15:0.85396898 16:18.5795 17:-1 18:-40 19:-2 20:-85.333298 #
5.8348401737577291169267734716186e-05 1:3 2:-4.625 3:2.71331 4:0.72865099 5:1.77765 6:0.91293001 7:1.2764699 8:2.6745601 9:1.4962 10:4.7354798 11:77.765999 12:58.255501 13:1 14:0.82612699 15:0.88898098 16:20.940201 17:3 18:-4.625 19:3 20:-4.625 #
-5.8348401737577291169267734716186e-05 1:2 2:-32 3:1.9112 4:0.41425699 5:0.72141999 6:0.69130701 7:3.11601 8:1.26403 9:4.57863 10:2.2571299 11:73.783096 12:20.4842 13:0.33333299 14:0.94523799 15:0.84494799 16:20.0252 17:1 18:-55 19:1 20:-55 #
5.8348401737577291169267734716186e-05 1:-3 2:22.6 3:2.93171 4:1.0147099 5:0.40146101 6:2.34095 7:1.17599 8:1.0923001 9:2.52163 10:8.1372004 11:86.203903 12:33.1348 13:0.444444 14:0.833112 15:0.903795 16:22.7938 17:-2 18:28.266701 19:-3 20:-17.6667 #
-3.8828793725166011667308818555711e-05 1:-1 2:43.25 3:2.6403501 4:0.961909 5:4.5782199 6:1.96586 7:0.95061302 8:1.03787 9:1.64141 10:4.6468902 11:80.721397 12:41.438801 13:0.66666698 14:0.60128802 15:0.87102997 16:21.6029 17:1 18:51.333302 19:1 20:51.333302 #
5.8348401737577291169267734716186e-05 1:-5 2:-27.6 3:3.16991 4:2.62854 5:1.3927701 6:1.2626801 7:3.7867999 8:0.52165598 9:1.58648 10:3.16519 11:72.178001 12:45.921799 13:0.444444 14:0.42303401 15:0.91407502 16:19.6495 17:-6 18:-38.333302 19:-6 20:-38.333302 #
-5.8348401737577291169267734716186e-05 1:0 2:-33.666698 3:2.31793 4:1.04476 5:0.66651303 6:1.3618701 7:1.8318599 8:0.82609999 9:1.3218499 10:3.2038801 11:74.104103 12:39.315399 13:1 14:0.58212298 15:0.800439 16:20.099899 17:-2 18:-42.533298 19:-3 20:-69.166702 #
5.8348401737577291169267734716186e-05 1:1 2:7.25 3:2.3140399 4:0.48230499 5:0.77886897 6:0.86287099 7:2.65997 8:1.80926 9:3.8435299 10:2.34166 11:73.055702 12:22.503 13:0.66666698 14:0.84522402 15:0.81270498 16:19.8554 17:1 18:7.25 19:1 20:7.25 #
-5.8348401737577291169267734716186e-05 1:-4 2:-9.0476198 3:2.5331399 4:6.0086999 5:1.95509 6:2.7127299 7:1.60498 8:8.8467903 9:3.3018 10:3.3018 11:85.253403 12:33.895599 13:0.166667 14:0.75273699 15:0.80853099 16:22.591 17:-5 18:-13.0833 19:-5 20:-13.0833 #
5.8348401737577291169267734716186e-05 1:-4 2:-17 3:1.93845 4:0.76725203 5:0.908499 6:2.1175301 7:1.2985899 8:8.4663296 9:1.4938 10:1.225 11:61.020802 12:44.280701 13:0.33333299 14:0.81557202 15:0.83192003 16:16.9359 17:-4 18:-17 19:-4 20:-17 #
-5.8348401737577291169267734716186e-05 1:-1 2:-21 3:4.3294501 4:1.0132999 5:0.51036602 6:2.1210899 7:0.472357 8:1.1928 9:0.771927 10:3.1895599 11:73.4132 12:52.260502 13:0.66666698 14:0.74126601 15:0.93555999 16:19.938999 17:1 18:57.5 19:1 20:57.5 #
5.8348401737577291169267734716186e-05 1:2 2:6.2916698 3:3.0797 4:1.87518 5:2.2007301 6:2.79724 7:5.5847902 8:20.0697 9:10.1337 10:6.3843298 11:84.665298 12:8.27355 13:0.166667 14:0.933824 15:0.91037798 16:22.4648 17:1 18:-5.6645799 19:1 20:-5.6645799 #
-5.8348401737577291169267734716186e-05 1:0 2:0 3:2.4353199 4:0 5:0 6:0 7:0 8:0 9:3.3870299 10:3.9039299 11:86.883202 12:18.969601 13:0.33333299 14:0.79159403 15:0.71569198 16:22.937799 17:0 18:0 19:0 20:0 #
5.8348401737577291169267734716186e-05 1:-2 2:-27 3:1.51963 4:0.139755 5:0.60633099 6:0.99848002 7:1.73963 8:0.35073501 9:0.633165 10:3.10021 11:88.862602 12:87.908401 13:0.33333299 14:0.72842503 15:0.74997699 16:23.352699 17:-2 18:-27 19:-2 20:-27 #
-5.8348401737577291169267734716186e-05 1:-3 2:-31.6667 3:4.4373899 4:0.477934 5:0.30812499 6:0.70635903 7:1.60488 8:0.81044197 9:1.49403 10:1.49403 11:74.808296 12:87.116203 13:0.66666698 14:0.91493601 15:0.82829797 16:20.2631 17:-3 18:-31.6667 19:-4 20:-78.25 #
-5.8348401737577291169267734716186e-05 1:1 2:-29.9167 3:3.11607 4:1.21579 5:0.68510199 6:2.74248 7:3.2237101 8:1.50629 9:2.11375 10:2.11375 11:88.901199 12:77.371597 13:1 14:0.88362998 15:0.83073503 16:23.3608 17:0 18:-35 19:0 20:-35 #
5.8348401737577291169267734716186e-05 1:0 2:0 3:1.93067 4:0.226032 5:1.5292701 6:0.88849002 7:1.3104 8:0.44204199 9:3.34342 10:3.34342 11:72.417801 12:23.069099 13:0.66666698 14:0.87380397 15:0.818937 16:19.7059 17:0 18:0 19:0 20:0 #
5.8348401737577291169267734716186e-05 1:-1 2:-33.166698 3:2.17699 4:1.8529 5:1.0268199 6:1.21363 7:0.88860399 8:0.682693 9:0.923702 10:2.8162301 11:88.499496 12:68.659698 13:0.66666698 14:0.69245499 15:0.71423697 16:23.2771 17:-2 18:-40 19:-2 20:-40 #
-5.8348401737577291169267734716186e-05 1:-1 2:11.8 3:2.9686601 4:1.0296201 5:2.5599599 6:4.29567 7:1.48728 8:1.78185 9:2.8213 10:0.75317198 11:49.8866 12:8.0677404 13:1 14:0.66820103 15:0.84796298 16:14.068 17:-1 18:11.8 19:-2 20:-29.6667 #
5.8348401737577291169267734716186e-05 1:-4 2:-3.2 3:4.1577501 4:1.52281 5:0.946491 6:2.3315301 7:2.5320101 8:0.74963599 9:3.61902 10:3.61902 11:70.590698 12:22.812401 13:1 14:0.95866799 15:0.95821202 16:19.2743 17:-4 18:-3.2 19:-4 20:-3.2 #
-4.6395626249674803975864278982044e-05 1:1 2:-31 3:1.60308 4:0.46797299 5:1.50091 6:1.92275 7:1.81585 8:1.9765199 9:3.7934501 10:6.5344 11:79.347603 12:21.8022 13:0.66666698 14:0.85580897 15:0.82006299 16:21.2966 17:0 18:-54 19:0 20:-54 #
-5.8348401737577291169267734716186e-05 1:-1 2:-12.9062 3:1.91301 4:13.8353 5:0.39885899 6:3.2748899 7:1.32586 8:0.52032399 9:2.3582301 10:3.0966101 11:78.413498 12:20.074499 13:1 14:0.73319602 15:0.76086199 16:21.086599 17:-4 18:-28.8929 19:-4 20:-28.8929 #
5.8348401737577291169267734716186e-05 1:0 2:-22 3:2.0269301 4:0.56182599 5:0.54546303 6:0.78845799 7:1.9894201 8:1.09165 9:3.21981 10:1.63291 11:65.300797 12:24.2127 13:1 14:0.86801201 15:0.778485 16:17.997299 17:0 18:-22 19:0 20:-22 #
-5.8348401737577291169267734716186e-05 1:-4 2:-30 3:2.2404001 4:0.14830101 5:5.9281602 6:1.4078701 7:4.0790901 8:1.65845 9:5.4619999 10:2.7306001 11:85.882202 12:32.567101 13:0.66666698 14:0.96111 15:0.85234898 16:22.725401 17:-4 18:-30 19:-4 20:-30 #
5.8348401737577291169267734716186e-05 1:0 2:1 3:2.1273999 4:2.1131699 5:3.01212 6:1.48403 7:0.34484601 8:0.53207898 9:2.5713401 10:2.5713401 11:70.868698 12:29.809 13:0.66666698 14:0.84225899 15:0.75713402 16:19.3402 17:0 18:1 19:-1 20:-59 #
-5.8348401737577291169267734716186e-05 1:0 2:52 3:3.57727 4:1.19059 5:0.52323997 6:0.64982802 7:1.21921 8:0.387319 9:0.679667 10:0.93334001 11:54.286598 12:86.686096 13:0.33333299 14:0.80196297 15:0.88009101 16:15.2187 17:1 18:55 19:-1 20:-99.666702 #
5.8348401737577291169267734716186e-05 1:0 2:-34.833302 3:1.62344 4:1.3146 5:0.67229801 6:1.64062 7:0.81396699 8:1.20365 9:1.15582 10:2.6965599 11:73.849403 12:43.490898 13:1 14:0.89188302 15:0.73328 16:20.0406 17:-1 18:-40.041698 19:-1 20:-9.4250002 #
-5.8348401737577291169267734716186e-05 1:-1 2:-14 3:2.5632901 4:0.81031102 5:2.4314899 6:1.17572 7:2.2370901 8:1.3446 9:2.9348099 10:1.95945 11:68.172203 12:16.366301 13:1 14:0.75418198 15:0.824772 16:18.6954 17:-2 18:-55 19:-1 20:101 #
5.8348401737577291169267734716186e-05 1:-1 2:-17.5 3:1.97422 4:4.1379399 5:0.880826 6:1.45119 7:1.19564 8:0.79598898 9:1.4892 10:5.2842999 11:82.900002 12:46.6371 13:0.33333299 14:0.708166 15:0.78303897 16:22.082199 17:-1 18:-17.5 19:-2 20:-57.75 #
5.8348401737577291169267734716186e-05 1:-1 2:-7 3:2.88098 4:2.2251599 5:1.01245 6:2.8043599 7:2.19222 8:0.89648801 9:6.08991 10:4.9869699 11:82.267197 12:19.6266 13:0.444444 14:0.921592 15:0.87595302 16:21.9438 17:-1 18:-7 19:-1 20:-7 #
-5.8348401737577291169267734716186e-05 1:-1 2:-28.1667 3:1.84497 4:0.654827 5:1.4145499 6:3.57288 7:2.45628 8:1.0158401 9:4.2419901 10:1.45627 11:68.008003 12:8.7495604 13:0.444444 14:0.78122503 15:0.82101399 16:18.6558 17:-1 18:-28.1667 19:-2 20:-57.466702 #
5.8348401737577291169267734716186e-05 1:-2 2:-23 3:1.92182 4:0.86031199 5:1.16527 6:0.952384 7:1.63894 8:0.78649902 9:1.07291 10:3.34165 11:78.529999 12:58.419701 13:0.33333299 14:0.67943001 15:0.78797698 16:21.1129 17:-2 18:-23 19:-2 20:-23 #
-5.8348401737577291169267734716186e-05 1:1 2:-40 3:2.45751 4:0.66007203 5:1.27045 6:5.4879298 7:0.69799399 8:1.0430501 9:1.00484 10:7.27389 11:81.777 12:40.479801 13:0.444444 14:0.86636502 15:0.87450403 16:21.8361 17:-2 18:-52.5 19:-2 20:-41.733299 #
5.8348401737577291169267734716186e-05 1:2 2:6.3428602 3:2.2758701 4:0.253218 5:0.59038597 6:1.63149 7:0.809273 8:6.6423998 9:3.0773301 10:2.8371699 11:78.155602 12:17.546801 13:0.166667 14:0.81541401 15:0.85940802 16:21.0284 17:2 18:6.3428602 19:1 20:-22.5238 #
-5.8348401737577291169267734716186e-05 1:1 2:45 3:2.5525301 4:1.02314 5:1.21357 6:0.87026 7:2.1233001 8:3.67468 9:3.1077099 10:3.1077099 11:75.413498 12:19.536301 13:0.33333299 14:0.79173303 15:0.81651902 16:20.4027 17:1 18:45 19:1 20:45 #
-1.4410774685286262958294756231226e-05 1:-2 2:-15.3333 3:1.87073 4:4.22856 5:0.79337102 6:5.94664 7:11.7677 8:1.3494999 9:1.9633501 10:0.29343799 11:13.7312 12:44.702301 13:1 14:0.57412702 15:0.73435098 16:3.98771 17:-2 18:-15.3333 19:-3 20:-40.285702 #
5.8348401737577291169267734716186e-05 1:-4 2:-25.799999 3:1.77672 4:1.77953 5:0.84878302 6:2.3454299 7:3.55651 8:1.24428 9:2.5402501 10:1.60495 11:62.171398 12:33.152401 13:1 14:0.88747501 15:0.85241097 16:17.2236 17:-4 18:-25.799999 19:-4 20:-25.799999 #
-5.8348401737577291169267734716186e-05 1:-3 2:-36.333302 3:1.13289 4:1.69578 5:4.3070798 6:0.788297 7:1.3394001 8:1.01914 9:2.2477801 10:2.69046 11:67.615097 12:12.2025 13:0.166667 14:0.59338099 15:0.663454 16:18.560801 17:-3 18:-36.333302 19:-3 20:-36.333302 #
-5.8348401737577291169267734716186e-05 1:-6 2:-34.666698 3:2.3180101 4:10.6358 5:0.55119097 6:1.10237 7:1.00086 8:1.3583699 9:8.0230303 10:8.0230303 11:81.899696 12:20.5548 13:1 14:0.94077301 15:0.87634897 16:21.8631 17:-8 18:-43 19:-8 20:-43 #
5.8348401737577291169267734716186e-05 1:-1 2:1 3:2.04286 4:1.77642 5:0.978118 6:0.339205 7:1.43687 8:5.2692199 9:4.7147398 10:1.79714 11:67.140099 12:16.3347 13:1 14:0.82379103 15:0.912103 16:18.445801 17:-4 18:-14.6667 19:-5 20:-27.2857 #
-5.8348401737577291169267734716186e-05 1:0 2:0 3:1.34403 4:0.45127699 5:0.348057 6:0.52759802 7:0.47036099 8:0.32961401 9:0.82868099 10:1.17663 11:67.903 12:44.5107 13:0.33333299 14:0.60809499 15:0.80795801 16:18.6304 17:0 18:0 19:1 20:142 #
5.8348401737577291169267734716186e-05 1:-1 2:-2 3:3.5808499 4:3.8271501 5:1.4274499 6:4.28754 7:2.4628 8:1.80202 9:4.4286499 10:8.2165604 11:84.940804 12:22.1332 13:0.66666698 14:0.888147 15:0.91882497 16:22.524 17:-3 18:-30 19:-3 20:-30 #
-5.8348401737577291169267734716186e-05 1:2 2:56.6875 3:1.7779599 4:1.85562 5:1.59763 6:1.1614701 7:1.77999 8:0.50566602 9:1.96668 10:1.96668 11:66.576401 12:25.977501 13:0.33333299 14:0.77527201 15:0.815005 16:18.3088 17:2 18:56.6875 19:2 20:56.6875 #
-5.8348401737577291169267734716186e-05 1:-2 2:-32 3:1.99396 4:0.834315 5:0.44528899 6:0.777192 7:1.54166 8:0.47229901 9:0.92912197 10:5.7954602 11:89.149597 12:88.133797 13:1 14:0.574516 15:0.703565 16:23.4123 17:-3 18:-52 19:-3 20:-52 #
-1.8294636590689734793988181771329e-06 1:0 2:0 3:1.7568099 4:1.3392299 5:0.50386798 6:0.204575 7:0.51023 8:0.75151598 9:0.35518301 10:1.35536 11:70.385597 12:71.068398 13:0.66666698 14:0.76980901 15:0.78726 16:19.2255 17:0 18:0 19:1 20:190 #
5.8348401737577291169267734716186e-05 1:-3 2:-20 3:2.5792201 4:1.85927 5:0.51669002 6:0.73917401 7:1.83504 8:1.0302 9:1.75775 10:3.0536301 11:67.949997 12:43.002602 13:0.444444 14:0.95263898 15:0.863253 16:18.6418 17:-3 18:-20 19:-4 20:-35.809502 #
-5.8348401737577291169267734716186e-05 1:-1 2:-20 3:1.64722 4:0.243642 5:1.12247 6:0.34248799 7:0.262054 8:0.23419701 9:0.354298 10:0.27175501 11:32.070202 12:57.82 13:0.33333299 14:0.93674898 15:0.93711197 16:9.2144804 17:0 18:42 19:-1 20:-87 #
5.8348401737577291169267734716186e-05 1:-1 2:-3.7249999 3:2.64153 4:1.39938 5:0.52700698 6:3.7651999 7:1.84515 8:0.74106699 9:5.1228099 10:4.2276201 11:86.439697 12:9.1510897 13:1 14:0.83719701 15:0.86844599 16:22.843901 17:-1 18:-3.7249999 19:-1 20:-3.7249999 #
5.8348401737577291169267734716186e-05 1:-3 2:-16.25 3:1.27297 4:1.97306 5:1.24512 6:0.27322999 7:0.96455801 8:0.63860899 9:1.56856 10:2.7291601 11:71.223999 12:39.6012 13:0.66666698 14:0.661726 15:0.75889897 16:19.4244 17:-3 18:-16.25 19:-3 20:-16.25 #
-3.0504959813032998675388918208284e-05 1:-1 2:-19 3:1.78283 4:2.6415501 5:0.40644801 6:0.58592999 7:0.396198 8:0.64294302 9:0.55452901 10:0.69470501 11:45.474701 12:64.889 13:0.66666698 14:0.82567602 15:0.81505299 16:12.8933 17:1 18:51 19:8 20:204.222 #
-5.8348401737577291169267734716186e-05 1:-2 2:-8.8125 3:1.03282 4:0.33550999 5:0.74407601 6:4.8601499 7:2.69011 8:3.9133401 9:4.8609099 10:2.0640099 11:77.503502 12:16.198799 13:0.66666698 14:0.89666098 15:0.85706198 16:20.880699 17:-3 18:-19.475 19:-3 20:-19.475 #
5.8348401737577291169267734716186e-05 1:-5 2:-8.7142897 3:2.0027699 4:0.28213799 5:1.54831 6:0.96166003 7:1.73238 8:3.6158199 9:1.34575 10:2.961 11:73.523003 12:51.107899 13:1 14:0.83700198 15:0.84460503 16:19.9646 17:-5 18:-8.7142897 19:-6 20:-36.125 #
-5.8348401737577291169267734716186e-05 1:-4 2:-20.6 3:3.7435501 4:3.8824699 5:4.0350499 6:1.23878 7:2.52614 8:1.34902 9:2.7191601 10:4.0013099 11:85.532799 12:87.488297 13:1 14:0.85994798 15:0.88038599 16:22.650801 17:-4 18:-20.6 19:-6 20:-70.857101 #
5.8348401737577291169267734716186e-05 1:-2 2:-16 3:1.5306 4:4.8032799 5:5.1061902 6:2.43537 7:2.31266 8:4.05233 9:5.00666 10:2.8162401 11:68.462502 12:5.32693 13:0.444444 14:0.80672598 15:0.80867499 16:18.765301 17:-2 18:-16 19:-2 20:-16 #
5.8348401737577291169267734716186e-05 1:-2 2:-10.6667 3:4.0289402 4:0.813007 5:0.63094598 6:2.94788 7:1.41723 8:0.46512899 9:2.85164 10:3.0431001 11:72.223503 12:40.256699 13:0.66666698 14:0.89278901 15:0.89625001 16:19.6602 17:-4 18:-20.75 19:-5 20:-36 #
5.8348401737577291169267734716186e-05 1:-2 2:-25.3333 3:1.89143 4:0.821271 5:3.07798 6:1.17197 7:1.4118 8:1.00292 9:1.27318 10:2.1726 11:73.508003 12:37.487301 13:0.66666698 14:0.61514598 15:0.69666201 16:19.9611 17:-2 18:-25.3333 19:-2 20:-25.3333 #
5.8348401737577291169267734716186e-05 1:-1 2:-30 3:2.8766999 4:0.40395001 5:0.84232199 6:1.34577 7:1.57717 8:0.88694298 9:2.5361099 10:1.55932 11:64.861198 12:26.507299 13:0.33333299 14:0.81712902 15:0.838916 16:17.8894 17:-1 18:-30 19:-1 20:-30 #
5.8348401737577291169267734716186e-05 1:-2 2:-10.6667 3:1.58329 4:0.141524 5:4.0945001 6:8.6457396 7:1.52013 8:3.22928 9:2.57078 10:3.24423 11:70.747597 12:28.8839 13:0.444444 14:0.78212899 15:0.85657001 16:19.311501 17:-2 18:-10.6667 19:-2 20:-10.6667 #
5.8348401737577291169267734716186e-05 1:-3 2:-1.5 3:2.44648 4:0.96562201 5:1.57394 6:2.7251899 7:2.3178 8:3.1570101 9:4.3860798 10:4.3860798 11:78.327499 12:14.1325 13:0.33333299 14:0.84551197 15:0.86639398 16:21.0672 17:-3 18:-1.5 19:-5 20:-28.611099 #
-5.6986000533470911033877975837569e-05 1:-3 2:-15.9 3:2.8647699 4:5.70612 5:3.4956601 6:0.46264699 7:1.45708 8:1.05524 9:3.86182 10:3.86182 11:75.439796 12:20.899 13:0.66666698 14:0.86490101 15:0.77988702 16:20.4088 17:-3 18:-15.9 19:-3 20:-15.9 #
5.8348401737577291169267734716186e-05 1:0 2:-11.3333 3:1.79283 4:2.98772 5:2.8566201 6:1.72815 7:2.53473 8:1.4916 9:1.77354 10:2.9770701 11:85.778603 12:25.141899 13:1 14:0.58546603 15:0.70051497 16:22.7033 17:0 18:-11.3333 19:0 20:-11.3333 #
-5.6066264059028069692124790490695e-05 1:1 2:5 3:2.8328099 4:0.83438098 5:2.26422 6:2.3571899 7:1.33571 8:0.49630901 9:2.2172699 10:3.2872901 11:68.982903 12:32.3433 13:1 14:0.923729 15:0.94227201 16:18.8904 17:-1 18:-69.75 19:0 20:76 #
5.8348401737577291169267734716186e-05 1:-1 2:-3 3:2.5035501 4:1.9817801 5:0.781892 6:0.96753299 7:0.96743798 8:3.0428901 9:5.6866002 10:1.9080499 11:83.841103 12:17.3223 13:1 14:0.92665702 15:0.719998 16:22.2868 17:-1 18:-3 19:-2 20:-47.5 #
-5.2965912109527668811051470676432e-05 1:-1 2:-16 3:4.1165099 4:0.68577898 5:0.68901598 6:0.84328997 7:3.2183001 8:20.0273 9:10.0224 10:10.0224 11:86.775497 12:23.871201 13:0.444444 14:0.91121501 15:0.94486803 16:22.915001 17:-1 18:-16 19:-3 20:-136.5 #
-4.4266273875520623093393624003511e-05 1:-4 2:-22.4 3:3.7330101 4:3.7078099 5:0.780577 6:3.81124 7:1.04371 8:1.62245 9:2.9751699 10:4.3657699 11:86.708397 12:35.1703 13:0.66666698 14:0.85582 15:0.89796901 16:22.900801 17:-4 18:-22.4 19:-4 20:-22.4 #
5.8348401737577291169267734716186e-05 1:-3 2:-23.5 3:2.6494 4:1.09602 5:1.4481 6:0.89024699 7:2.3397801 8:0.78493899 9:1.44634 10:3.0186501 11:74.994904 12:31.414801 13:0.444444 14:0.74935102 15:0.82784498 16:20.3062 17:-3 18:-23.5 19:-3 20:-23.5 #
-5.8348401737577291169267734716186e-05 1:-2 2:-31.3333 3:2.3841801 4:0.28153399 5:0.53476799 6:2.17836 7:3.1048999 8:0.74315798 9:4.8194699 10:6.68541 11:79.9739 12:14.229 13:0.66666698 14:0.84840202 15:0.87241799 16:21.4366 17:-2 18:-31.3333 19:-2 20:-31.3333 #
5.8348401737577291169267734716186e-05 1:-3 2:-16.5 3:2.4075799 4:0.43756801 5:0.69493502 6:2.26579 7:1.80834 8:2.3359301 9:4.11198 10:4.11198 11:80.327301 12:31.1747 13:0.66666698 14:0.86042398 15:0.852947 16:21.515301 17:-5 18:-26.6667 19:-5 20:-26.6667 #
-5.8348401737577291169267734716186e-05 1:-5 2:-21.1667 3:2.5118799 4:0.64958102 5:1.37465 6:1.45485 7:4.8817201 8:0.68345898 9:5.9309902 10:2.5569301 11:67.156799 12:10.6947 13:0.66666698 14:0.83962899 15:0.83672798 16:18.4498 17:-5 18:-21.1667 19:-5 20:-21.1667 #
5.8348401737577291169267734716186e-05 1:-1 2:-19.8333 3:2.2425699 4:0.65632498 5:0.52151799 6:1.17065 7:2.7180901 8:1.67664 9:4.0041299 10:3.8744199 11:75.895401 12:23.018 13:0.33333299 14:0.87199599 15:0.86525899 16:20.5135 17:-1 18:-19.8333 19:-1 20:-19.8333 #
-5.8348401737577291169267734716186e-05 1:-1 2:-32 3:2.8873601 4:0.77313697 5:1.63805 6:1.2674299 7:2.9699099 8:3.43975 9:6.3761001 10:6.3761001 11:80.393402 12:16.313 13:0.444444 14:0.90494299 15:0.84866798 16:21.530001 17:-1 18:-32 19:-1 20:-32 #
5.8348401737577291169267734716186e-05 1:0 2:-14.5 3:2.5337999 4:2.4419401 5:0.74869198 6:2.0931699 7:1.54654 8:0.54652202 9:2.30811 10:2.4254501 11:79.188797 12:25.259001 13:1 14:0.808595 15:0.81186801 16:21.261 17:0 18:-14.5 19:0 20:-14.5 #
5.8348401737577291169267734716186e-05 1:2 2:-29.5 3:2.0406699 4:3.1163099 5:0.69723302 6:0.86841398 7:0.95447397 8:5.1114101 9:3.96156 10:3.8020201 11:77.151001 12:20.549 13:0.33333299 14:0.88149297 15:0.85507101 16:20.800501 17:2 18:-29.5 19:2 20:-29.5 #
-5.8348401737577291169267734716186e-05 1:0 2:-24 3:2.51176 4:0.291179 5:0.74811399 6:3.1570699 7:1.71523 8:2.48084 9:6.0356998 10:6.1643701 11:78.588501 12:16.2852 13:0.33333299 14:0.912256 15:0.87079102 16:21.125999 17:0 18:-24 19:0 20:-24 #
-1.6784757791057945198239659267969e-05 1:-1 2:-10.0667 3:1.76886 4:0.778916 5:1.62286 6:0.62780398 7:1.16368 8:1.9985501 9:7.0118799 10:7.2916298 11:85.959198 12:8.1892796 13:0.33333299 14:0.87659198 15:0.75485098 16:22.7418 17:-1 18:-10.0667 19:-2 20:-26.685699 #
5.8348401737577291169267734716186e-05 1:-4 2:-17.3333 3:2.5278499 4:1.1138999 5:0.82795399 6:3.61834 7:3.6034601 8:0.485836 9:4.3815398 10:6.0752201 11:78.641098 12:22.204399 13:1 14:0.92648101 15:0.89955997 16:21.137899 17:-4 18:-17.3333 19:-4 20:-17.3333 #
-5.8348401737577291169267734716186e-05 1:0 2:-25 3:1.68828 4:2.4426 5:0.82374299 6:0.603275 7:3.4718399 8:0.873882 9:4.52845 10:5.8778801 11:87.239197 12:23.0193 13:0.33333299 14:0.85515398 15:0.80869001 16:23.012899 17:0 18:-25 19:-1 20:-47.666698 #
-2.4452295777290106984416112601011e-05 1:-1 2:-32 3:3.8529 4:9.9538603 5:3.5596299 6:8.8397703 7:0.80941498 8:0.64604998 9:5.7564201 10:4.6623602 11:75.354698 12:47.561199 13:1 14:0.94349599 15:0.91417003 16:20.3892 17:-1 18:-32 19:-2 20:-111 #
5.8348401737577291169267734716186e-05 1:-4 2:-19.5 3:2.2302301 4:1.9198999 5:2.17327 6:0.598988 7:1.34585 8:1.65187 9:2.5959699 10:3.5697899 11:85.9403 12:27.8414 13:0.444444 14:0.81420797 15:0.84953099 16:22.7377 17:-4 18:-19.5 19:-5 20:-40 #
-5.8348401737577291169267734716186e-05 1:-3 2:-20 3:2.28196 4:0.171663 5:1.0145 6:2.8594601 7:1.14132 8:1.12357 9:5.63625 10:1.22306 11:57.796299 12:12.4947 13:1 14:0.85799301 15:0.79618502 16:16.1206 17:-4 18:-28.4 19:-5 20:-50.333302 #
5.8348401737577291169267734716186e-05 1:-5 2:-22 3:1.65958 4:0.39394701 5:1.54374 6:0.47465599 7:0.95862001 8:2.2961199 9:4.1823702 10:4.1823702 11:72.191902 12:18.514299 13:0.444444 14:0.89997602 15:0.74363399 16:19.6528 17:-5 18:-22 19:-5 20:-22 #
-5.8348401737577291169267734716186e-05 1:1 2:12 3:2.8694501 4:0.41792601 5:1.05801 6:3.03618 7:0.63455099 8:1.07846 9:3.7144001 10:3.56425 11:77.906097 12:28.190599 13:0.444444 14:0.92301798 15:0.88122803 16:20.971901 17:0 18:-17 19:1 20:53 #
5.8348401737577291169267734716186e-05 1:-2 2:-31.375 3:2.2776799 4:1.5953701 5:2.6811099 6:1.17296 7:2.89867 8:1.64388 9:3.14572 10:3.69576 11:81.643997 12:27.366899 13:0.33333299 14:0.72177702 15:0.82985502 16:21.806801 17:-2 18:-31.375 19:-2 20:-31.375 #
5.8348401737577291169267734716186e-05 1:-4 2:-22.4 3:1.47768 4:0.47477999 5:2.06775 6:1.02855 7:3.24437 8:2.69628 9:4.8281002 10:4.8281002 11:87.108498 12:8.5200701 13:0.66666698 14:0.80589497 15:0.68714499 16:22.985399 17:-4 18:-22.4 19:-4 20:-22.4 #
-1.0729040808503398363171754681389e-05 1:0 2:-8.6666698 3:2.42208 4:1.1564699 5:1.51157 6:1.65923 7:7.5864301 8:1.7196 9:2.5838399 10:3.0257299 11:80.125801 12:50.796501 13:0.33333299 14:0.87273598 15:0.84978598 16:21.470501 17:-1 18:-16 19:-1 20:-16 #
5.8348401737577291169267734716186e-05 1:-5 2:-32.400002 3:3.0560801 4:1.15913 5:0.311194 6:0.75363898 7:0.92646402 8:3.52001 9:2.2248099 10:2.2248099 11:87.365501 12:31.8055 13:0.66666698 14:0.58181602 15:0.69253898 16:23.039499 17:-5 18:-32.400002 19:-6 20:-44 #
-5.8348401737577291169267734716186e-05 1:-6 2:-28.25 3:2.6235399 4:0.25536999 5:0.45134699 6:0.55806601 7:2.57322 8:1.0710599 9:3.67487 10:4.8892398 11:74.263901 12:25.954 13:0.444444 14:0.89362299 15:0.93267202 16:20.1369 17:-6 18:-28.25 19:-6 20:-28.25 #
5.8348401737577291169267734716186e-05 1:-3 2:-26 3:2.6924901 4:6.0363402 5:0.79623401 6:1.94857 7:1.8473099 8:1.34997 9:4.17377 10:6.8585 11:83.1073 12:5.1185999 13:0.444444 14:0.771644 15:0.88049901 16:22.127399 17:-6 18:-40 19:-6 20:-40 #
-5.8348401737577291169267734716186e-05 1:-2 2:-7.7666702 3:2.4863999 4:1.60997 5:0.625045 6:1.69558 7:3.7720399 8:2.6656001 9:7.5624499 10:4.7743502 11:77.587799 12:8.6227503 13:1 14:0.88514102 15:0.83143002 16:20.899799 17:-2 18:-7.7666702 19:-3 20:-22 #
-2.4010708476565847837962131006151e-06 1:1 2:12 3:1.8228 4:0.57169598 5:0.615385 6:0.176163 7:0.74712402 8:1.2266999 9:0.256859 10:3.27157 11:87.895302 12:79.261497 13:1 14:0.79295999 15:0.81323498 16:23.150801 17:1 18:12 19:7 20:165.25 #
-5.8348401737577291169267734716186e-05 1:0 2:0 3:1.6543601 4:5.83112 5:3.0393701 6:1.41984 7:1.5408601 8:0.689605 9:1.4942501 10:0.92355102 11:48.217602 12:30.4988 13:1 14:0.65323901 15:0.818133 16:13.626 17:1 18:69.5 19:-2 20:-142.33299 #
-5.8348401737577291169267734716186e-05 1:-5 2:-31.6 3:2.70081 4:16.276699 5:0.55504 6:2.47983 7:1.93292 8:0.50269401 9:1.4846801 10:1.28178 11:54.110401 12:62.345798 13:1 14:0.82002598 15:0.78016198 16:15.1731 17:-5 18:-31.6 19:-6 20:-72.333298 #
-5.8348401737577291169267734716186e-05 1:-1 2:21 3:2.58829 4:1.12104 5:1.7100101 6:0.70242703 7:0.305152 8:0.79082102 9:1.70178 10:0.44248199 11:37.388802 12:14.9108 13:0.166667 14:0.47565401 15:0.826092 16:10.6921 17:-1 18:21 19:1 20:133 #
-5.8348401737577291169267734716186e-05 1:-3 2:0.66666698 3:2.1649599 4:0.107199 5:0.961079 6:1.66608 7:1.17425 8:1.4621201 9:2.16521 10:3.94697 11:89.123199 12:59.995499 13:0.66666698 14:0.849473 15:0.831653 16:23.406799 17:-4 18:4.5 19:-5 20:-11 #
-5.8348401737577291169267734716186e-05 1:-4 2:-6 3:2.60323 4:3.76355 5:1.8433 6:0.276739 7:1.01858 8:3.25951 9:1.04907 10:4.5168099 11:87.988197 12:43.326099 13:0.66666698 14:0.72516799 15:0.87077999 16:23.1703 17:-4 18:-6 19:-4 20:-6 #
-5.8348401737577291169267734716186e-05 1:-3 2:45 3:2.77687 4:0.34117299 5:0.80672801 6:1.5804501 7:1.25483 8:1.05732 9:2.7480099 10:1.6022201 11:67.638496 12:30.081301 13:0.444444 14:0.85519701 15:0.746387 16:18.5665 17:0 18:56 19:0 20:56 #
-5.8348401737577291169267734716186e-05 1:-1 2:-10 3:2.13201 4:0.89024198 5:0.49586701 6:1.6272 7:0.79557902 8:0.798159 9:1.86114 10:1.08921 11:62.43 12:47.882099 13:1 14:0.86115801 15:0.80193102 16:17.288099 17:1 18:77 19:0 20:-13 #
-3.712086602513514632661895120691e-05 1:-4 2:-26.5 3:1.23963 4:0.290144 5:1.9093699 6:0.93721098 7:0.20580199 8:0.31210199 9:0.42173401 10:1.74151 11:62.369099 12:74.302101 13:0.33333299 14:0.89169699 15:0.92387998 16:17.2729 17:-3 18:57.5 19:-3 20:57.5 #
-5.8348401737577291169267734716186e-05 1:-1 2:-33 3:1.3281699 4:0.502186 5:0.60638499 6:0.283694 7:0.36154699 8:1.2375799 9:0.90085602 10:1.55604 11:65.356697 12:60.716702 13:0.66666698 14:0.74164802 15:0.66832298 16:18.011 17:-1 18:-33 19:6 20:180.286 #
