SVM-light Version V6.02
0 # kernel type
3 # kernel parameter -d 
1 # kernel parameter -g 
1 # kernel parameter -s 
1 # kernel parameter -r 
empty# kernel parameter -u 
20 # highest feature index 
2203 # number of training documents 
37 # number of support vectors plus 1 
0.99959421 # threshold b, each following line is a SV (starting with alpha*y)
-2.2448439249099924949889736658371e-05 1:1 2:15.6667 3:2.9405401 4:0.78836799 5:1.51281 6:2.27668 7:2.0945699 8:0.98179501 9:2.96068 10:7.5480199 11:88.988403 12:80.476799 13:1 14:0.80555803 15:0.88418102 16:23.378901 17:6 18:33.75 19:1 20:-135.536 #
5.5437413067508106853057553431441e-05 1:-3 2:-20.799999 3:3.5169499 4:2.56305 5:0.16683 6:0.49525699 7:1.61166 8:1.7974499 9:1.91908 10:2.18085 11:67.208603 12:86.793602 13:0.66666698 14:0.83942503 15:0.858886 16:18.4624 17:-3 18:-20.799999 19:-3 20:-20.799999 #
-2.4443789667501489629424654692613e-05 1:0 2:0 3:1.5631 4:1.5906301 5:0.89262301 6:1.56337 7:0.48469999 8:0.39989001 9:0.846178 10:0.846178 11:52.560799 12:63.023399 13:0.444444 14:0.95218599 15:0.92761999 16:14.77 17:0 18:0 19:1 20:298 #
5.5437413067508106853057553431441e-05 1:-5 2:-7.3333302 3:2.60221 4:0.212899 5:1.59877 6:2.03493 7:1.35509 8:1.38622 9:1.51738 10:2.01912 11:70.295303 12:54.932098 13:0.33333299 14:0.745399 15:0.70200503 16:19.204 17:-6 18:-11.4 19:-8 20:-24 #
-5.9355035243560408129222423501137e-06 1:0 2:0 3:4.1724901 4:0.42165101 5:3.09442 6:3.6269901 7:1.61621 8:0.78667402 9:3.73382 10:6.34548 11:77.546898 12:21.062 13:1 14:0.98114097 15:0.97040498 16:20.890499 17:0 18:31 19:-10 20:-130.22701 #
5.5437413067508106853057553431441e-05 1:-1 2:-5 3:2.69243 4:0.475128 5:0.58584499 6:1.83925 7:0.48448101 8:0.52879798 9:0.43973801 10:0.43973801 11:33.016102 12:87.349998 13:0.166667 14:0.88516301 15:0.69360501 16:9.4788198 17:-1 18:-5 19:0 20:273 #
-7.5381641989062532873463323701557e-07 1:0 2:0 3:3.34865 4:4.24404 5:6.1535201 6:1.17451 7:0.99364901 8:1.46996 9:4.4482298 10:5.7878299 11:75.253197 12:26.7192 13:1 14:0.99532098 15:0.88310897 16:20.365801 17:-3 18:-74.166702 19:-2 20:159.75 #
-5.5367290056743855486062755311139e-05 1:0 2:0 3:1.8979501 4:2.77561 5:0.31345099 6:0.48820499 7:0.50591701 8:0.358565 9:0.57079101 10:1.3275 11:60.412601 12:66.266197 13:1 14:0.85349703 15:0.87071103 16:16.783199 17:0 18:0 19:1 20:292 #
5.5437413067508106853057553431441e-05 1:-3 2:-9.6666698 3:1.60638 4:1.35934 5:0.79406899 6:0.51017499 7:0.962677 8:0.72065902 9:1.58254 10:3.0820701 11:74.078201 12:33.862099 13:0.66666698 14:0.54920602 15:0.83876401 16:20.0938 17:-3 18:-9.6666698 19:-3 20:-9.6666698 #
-5.5425410123480754742697484971359e-05 1:0 2:0 3:4.2886 4:0.41316 5:0.165592 6:1.1727901 7:0.58116102 8:0.30737001 9:0.70403397 10:0.943479 11:54.754501 12:68.515602 13:0.66666698 14:0.846861 15:0.931701 16:15.3398 17:0 18:0 19:-1 20:-284 #
-1.8190975330079666902848012366434e-07 1:1 2:59.4375 3:1.33437 4:2.3313799 5:1.26115 6:0.234825 7:0.25299001 8:0.34250101 9:0.217039 10:3.4154999 11:88.662399 12:72.548103 13:0.66666698 14:0.94546998 15:0.85582101 16:23.3111 17:5 18:75 19:5 20:-68.135399 #
5.5437413067508106853057553431441e-05 1:1 2:12.7 3:2.0963299 4:0.48633 5:0.286933 6:1.6622601 7:1.35339 8:2.30106 9:4.3593898 10:6.9189301 11:88.293098 12:6.2484298 13:1 14:0.779374 15:0.80718303 16:23.2341 17:1 18:12.7 19:1 20:12.7 #
-4.9093808983813747980756714284212e-06 1:-5 2:-36.666698 3:1.6775399 4:0.89231002 5:0.75035298 6:1.17544 7:1.4653 8:0.42182699 9:1.07717 10:1.03336 11:55.239399 12:34.546398 13:1 14:0.98712301 15:0.99127102 16:15.465 17:-7 18:-45.5 19:-7 20:-45.5 #
-3.6085176398446133783082245827245e-07 1:-5 2:-22 3:5.4597902 4:16.176901 5:1.7302901 6:7.91541 7:0.93309098 8:0.31105599 9:51.299702 10:51.299702 11:85.166603 12:10.7241 13:1 14:0.996705 15:0.97397798 16:22.572399 17:-5 18:-22 19:-5 20:-22 #
-5.5427919685454457056350552335289e-05 1:-2 2:-13 3:2.1597099 4:0.62954301 5:0.55035698 6:1.7127 7:0.246071 8:0.216717 9:0.623245 10:2.3372099 11:67.826202 12:46.544399 13:0.66666698 14:0.95244902 15:0.94062299 16:18.6119 17:-2 18:-13 19:-1 20:261 #
5.5437413067508106853057553431441e-05 1:1 2:6.75 3:2.96415 4:0.45396999 5:0.44038501 6:0.22196101 7:0.583327 8:1.47779 9:0.631791 10:2.13095 11:80.692299 12:86.8647 13:0.66666698 14:0.853405 15:0.75435799 16:21.596399 17:1 18:6.75 19:1 20:6.75 #
-7.4115413834750787369642921476043e-06 1:-6 2:-16.6429 3:5.2859201 4:0.71100599 5:0.61064702 6:0.37417799 7:0.404248 8:0.231131 9:0.28350201 10:0.35436001 11:39.585999 12:79.213203 13:0.66666698 14:0.99444401 15:0.98512298 16:11.2959 17:-7 18:-21.5 19:-6 20:80.400002 #
5.5437413067508106853057553431441e-05 1:0 2:0 3:5.9865198 4:0.39550301 5:0.80821198 6:1.31441 7:0.67835897 8:0.498546 9:0.589086 10:1.29084 11:71.069901 12:81.875603 13:0.444444 14:0.96974498 15:0.80803299 16:19.387899 17:0 18:0 19:2 20:134 #
-2.3986948093426829764496233110549e-06 1:0 2:0 3:1.0202301 4:0.20652901 5:0.53522301 6:1.80504 7:0.409134 8:0.933613 9:0.74475402 10:1.72048 11:70.469704 12:83.821899 13:0.66666698 14:0.894189 15:0.84769601 16:19.245501 17:0 18:0 19:2 20:276 #
5.5437413067508106853057553431441e-05 1:0 2:-11.25 3:2.80584 4:0.81486499 5:0.211861 6:0.56938601 7:0.571307 8:1.16417 9:1.34126 10:3.44064 11:78.3498 12:74.326401 13:0.66666698 14:0.79263502 15:0.85589701 16:21.072201 17:0 18:-11.25 19:0 20:-11.25 #
-1.6491755197610926975690728846224e-05 1:4 2:11.2 3:3.8201499 4:0.95992899 5:1.32319 6:0.68584901 7:0.66724998 8:0.70473301 9:1.13252 10:3.2757299 11:84.110703 12:86.730202 13:1 14:0.89533597 15:0.86830503 16:22.3451 17:3 18:-20.799999 19:-2 20:-182.8 #
-5.5437413067508106853057553431441e-05 1:-1 2:-25.5 3:1.12892 4:0.875678 5:0.22330099 6:0.46511501 7:0.19962101 8:0.43497801 9:0.90626001 10:1.9356 11:88.5112 12:68.731796 13:0.444444 14:0.73620403 15:0.74746901 16:23.2796 17:-1 18:-25.5 19:-1 20:-25.5 #
-3.4110151875854920503969291978308e-05 1:-3 2:-9.6666698 3:4.3673601 4:1.41372 5:1.94807 6:2.94526 7:1.73935 8:1.80366 9:3.47754 10:3.47754 11:83.540802 12:70.411598 13:0.66666698 14:0.91553098 15:0.89980298 16:22.221701 17:-3 18:-9.6666698 19:-3 20:-9.6666698 #
-3.3112069434058414804135372921934e-06 1:-1 2:0 3:3.8961201 4:0.46100399 5:2.0769701 6:1.59426 7:2.44647 8:0.37165201 9:1.95427 10:3.0480599 11:79.963699 12:26.2129 13:1 14:0.60751599 15:0.89682001 16:21.434299 17:-2 18:-20.6667 19:-6 20:-69.428596 #
-8.0568171469553445662725721376773e-07 1:2 2:56 3:4.2716599 4:0.21844099 5:0.99854499 6:1.57991 7:0.87841898 8:1.57145 9:1.25872 10:7.6059699 11:86.2528 12:79.791801 13:0.33333299 14:0.807356 15:0.93633598 16:22.804199 17:3 18:58.916698 19:3 20:58.916698 #
-2.21315772549156297710482022012e-05 1:-4 2:35.200001 3:3.4679101 4:0.48630899 5:0.88858402 6:0.74760199 7:0.62264198 8:0.37363699 9:0.88448399 10:0.88448399 11:52.531898 12:38.533001 13:0.66666698 14:0.94171298 15:0.96057999 16:14.7624 17:-4 18:35.200001 19:-6 20:-42.857101 #
-2.8840678728955615559449016105376e-06 1:-3 2:-32.5 3:11.6925 4:1.10866 5:3.9611199 6:8.5245504 7:2.79965 8:0.76412499 9:26.889 10:55.719898 11:86.876801 12:39.4454 13:1 14:0.98748899 15:0.98512203 16:22.936399 17:-3 18:-32.5 19:-2 20:207.625 #
-2.2566394115720162221599975893582e-05 1:-3 2:-6.8000002 3:4.20471 4:0.81348002 5:0.700409 6:1.87695 7:2.39098 8:2.70645 9:2.15201 10:3.22435 11:80.924896 12:72.880997 13:0.444444 14:0.82412601 15:0.89018202 16:21.648001 17:-3 18:-6.8000002 19:-3 20:-6.8000002 #
-9.244467059366112422075234533736e-07 1:-6 2:-17.3333 3:2.36675 4:0.75999302 5:0.15205599 6:0.43625599 7:0.46362799 8:0.23604999 9:0.497774 10:0.497774 11:40.922199 12:49.878601 13:0.444444 14:0.98436701 15:0.92469001 16:11.6612 17:-9 18:-38.888901 19:-13 20:-77.076897 #
-2.7293566286917814167622964305338e-07 1:3 2:-5.5 3:6.8860502 4:0.29527599 5:0.34103701 6:0.79730898 7:3.95999 8:1.9918 9:5.39711 10:5.39711 11:75.921799 12:36.858799 13:0.66666698 14:0.97047502 15:0.95317203 16:20.5196 17:3 18:-5.5 19:3 20:-5.5 #
-3.9436203750836847092831050076711e-05 1:-3 2:-5.25 3:4.80794 4:1.3753 5:1.10623 6:1.18484 7:1.38597 8:0.794348 9:1.1103899 10:1.50921 11:77.214302 12:73.1632 13:1 14:0.83485299 15:0.76595497 16:20.814899 17:-3 18:-5.25 19:2 20:158.52901 #
-9.4007449511976370892796239786549e-06 1:-5 2:-7.3333302 3:4.19136 4:0.38222101 5:1.70419 6:6.0520301 7:2.10586 8:3.5683801 9:2.8163199 10:2.12005 11:68.369499 12:54.432598 13:0.33333299 14:0.91595799 15:0.917566 16:18.742901 17:-6 18:-11.4 19:-8 20:-24 #
-6.068074692372536597939625124809e-08 1:0 2:0 3:4.8221202 4:0.218262 5:0.233051 6:0.360811 7:0.300116 8:0.271669 9:0.315761 10:0.315761 11:38.301899 12:57.911598 13:0.444444 14:0.998191 15:0.996984 16:10.9435 17:0 18:0 19:-1 20:-298 #
-4.2459207417328004297019106161315e-07 1:3 2:34.333302 3:2.00425 4:0.38015899 5:0.357429 6:1.3555 7:1.06923 8:2.8764901 9:2.12254 10:1.75736 11:70.914803 12:24.6301 13:0.66666698 14:0.79525602 15:0.769243 16:19.3512 17:1 18:-36.666698 19:3 20:63.799999 #
-5.7999937413307079294539584518597e-08 1:1 2:52.25 3:2.09797 4:0.68270802 5:0.55308402 6:0.0504659 7:0.040339202 8:0.195761 9:0.0253218 10:0.0253218 11:5.98209 12:88.7201 13:0.444444 14:0.98334098 15:0.98021299 16:1.74064 17:1 18:52.25 19:2 20:39.9688 #
-1.1890533309607599112001086183454e-07 1:1 2:45.75 3:1.29493 4:0.97919101 5:0.110154 6:0.111026 7:0.236671 8:0.222376 9:0.206946 10:0.117197 11:2.7748101 12:69.4319 13:1 14:0.88811398 15:0.88405597 16:0.80769002 17:1 18:45.75 19:-1 20:-177.625 #
