SVM-light Version V6.02
0 # kernel type
3 # kernel parameter -d 
1 # kernel parameter -g 
1 # kernel parameter -s 
1 # kernel parameter -r 
empty# kernel parameter -u 
20 # highest feature index 
2118 # number of training documents 
29 # number of support vectors plus 1 
1.0016705 # threshold b, each following line is a SV (starting with alpha*y)
-2.6142697880648935182534842169844e-05 1:1 2:59.25 3:2.5808101 4:1.27695 5:0.26341099 6:0.19734199 7:0.213361 8:0.425152 9:0.19401599 10:0.107388 11:18.9517 12:63.667099 13:0.66666698 14:0.90795398 15:0.95380598 16:5.4918699 17:4 18:73.625 19:3 20:-194.062 #
5.8715625508846788673921607282224e-05 1:1 2:32.5625 3:2.17015 4:0.886536 5:0.66416401 6:0.117915 7:0.35403201 8:0.31300199 9:0.254785 10:0.238857 11:31.8703 12:74.205101 13:0.444444 14:0.88328397 15:0.94859499 16:9.1585398 17:0 18:-62.75 19:4 20:-60.4375 #
-4.6934686021682381351638468913734e-05 1:5 2:27.4 3:1.30011 4:0.48528799 5:0.889691 6:0.233575 7:0.216261 8:1.31207 9:0.25477201 10:0.25477201 11:6.3053999 12:87.7994 13:0.66666698 14:0.82340002 15:0.75119102 16:1.83463 17:4 18:-33.599998 19:3 20:-123.6 #
5.8715625508846788673921607282224e-05 1:0 2:0 3:1.89735 4:0.59318602 5:0.103313 6:0.199138 7:1.14794 8:0.749259 9:0.32367501 10:0.24196 11:22.322599 12:79.329903 13:1 14:0.77907002 15:0.84799099 16:6.4572601 17:0 18:0 19:-1 20:-209 #
-2.1862230014777930635610364573651e-05 1:0 2:0 3:1.5775501 4:0.542395 5:0.75031799 6:0.550017 7:0.157217 8:0.76608998 9:0.19072799 10:0.19072799 11:16.9391 12:73.261002 13:0.66666698 14:0.89380997 15:0.86395299 16:4.9131498 17:-1 18:-98 19:-2 20:-185 #
5.8715625508846788673921607282224e-05 1:0 2:0 3:1.7690001 4:0.46095899 5:0.263897 6:0.084755003 7:0.23744 8:0.70166999 9:0.065265 10:0.065265 11:2.5052299 12:87.5186 13:0.66666698 14:0.96792603 15:0.935794 16:0.72923303 17:0 18:0 19:1 20:180 #
-5.8715625508846788673921607282224e-05 1:0 2:0 3:1.6184 4:0.116664 5:0.86178201 6:0.16948999 7:0.138446 8:1.1311001 9:0.085281201 10:0.085281201 11:9.88766 12:85.366096 13:0.66666698 14:0.91208702 15:0.93057197 16:2.8748 17:0 18:0 19:1 20:300 #
-3.6860789765821950158229680649669e-05 1:-5 2:-18.3333 3:2.19611 4:0.22134501 5:0.35618201 6:0.364526 7:0.148399 8:0.49440801 9:0.168016 10:0.168016 11:6.9036999 12:86.568199 13:0.33333299 14:0.88953102 15:0.83964401 16:2.0085101 17:-5 18:-18.3333 19:-3 20:141.66701 #
-7.5369644842310234977844629611354e-06 1:-1 2:16.3333 3:5.74371 4:0.62096 5:0.33307701 6:2.53724 7:1.39814 8:1.63038 9:6.0267701 10:11.3511 11:87.555099 12:87.418701 13:0.66666698 14:0.91822201 15:0.95902199 16:23.079399 17:-6 18:-13.5 19:-6 20:-13.5 #
5.8715625508846788673921607282224e-05 1:1 2:20 3:2.3498299 4:2.02437 5:0.58816999 6:0.24631201 7:0.92886102 8:1.85605 9:0.231562 10:0.231562 11:3.0701399 12:86.9347 13:1 14:0.88031501 15:0.77036202 16:0.89363402 17:1 18:20 19:-1 20:-110.667 #
5.8715625508846788673921607282224e-05 1:-2 2:-18 3:3.4692299 4:0.199242 5:0.96255302 6:0.190835 7:0.91637897 8:0.57054502 9:0.31685099 10:0.31685099 11:26.1266 12:64.690804 13:1 14:0.92248201 15:0.83148402 16:7.5399499 17:-2 18:-18 19:-4 20:148.60001 #
5.8715625508846788673921607282224e-05 1:0 2:-2.5 3:1.83134 4:0.242677 5:0.320108 6:0.0358808 7:0.66597003 8:1.9391299 9:0.19621401 10:0.15059499 11:6.9826398 12:83.969704 13:1 14:0.81265002 15:0.85808098 16:2.03144 17:0 18:-2.5 19:-1 20:-118.5 #
-8.7189271856914379785739605682737e-07 1:0 2:0 3:2.2115901 4:7.4573598 5:1.7645299 6:0.293268 7:0.37259701 8:0.63686502 9:0.26109999 10:0.241027 11:19.3818 12:86.293503 13:0.66666698 14:0.84499103 15:0.82665098 16:5.6153202 17:0 18:0 19:1 20:300 #
-5.3194852681195778267963375496308e-05 1:0 2:0 3:2.29228 4:0.68533802 5:0.20748501 6:0.097628102 7:0.243861 8:1.3615 9:0.083066903 10:0.068784602 11:18.9321 12:71.437897 13:0.66666698 14:0.98171997 15:0.99098402 16:5.4862499 17:0 18:0 19:-1 20:-298 #
5.8715625508846788673921607282224e-05 1:0 2:0 3:1.4630001 4:0.178672 5:0.27275899 6:0.079895802 7:0.588682 8:0.725559 9:0.098258398 10:0.098258398 11:3.28175 12:88.719101 13:1 14:0.88193202 15:0.90347201 16:0.95521402 17:0 18:0 19:0 20:-4 #
-5.8673820530152909213938983157277e-05 1:0 2:0 3:2.57249 4:1.20077 5:0.91267997 6:0.074489303 7:0.163351 8:0.70068097 9:0.0562567 10:0.0562567 11:4.06457 12:89.311096 13:0.66666698 14:0.960163 15:0.94630301 16:1.1829799 17:0 18:0 19:1 20:130 #
-5.8127846470661251939305441682748e-05 1:0 2:0 3:1.40724 4:1.17486 5:0.87892401 6:0.21496899 7:0.13830601 8:1.22912 9:0.42237201 10:0.180887 11:10.4701 12:78.661102 13:0.66666698 14:0.65334898 15:0.83836597 16:3.04368 17:0 18:0 19:-1 20:-284.75 #
-7.3110441382029378587503742892295e-06 1:0 2:0 3:1.95881 4:0.23204701 5:0.46803901 6:0.187075 7:0.094880097 8:0.63801998 9:0.099896602 10:0.099896602 11:18.3291 12:79.758301 13:0.66666698 14:0.940566 15:0.95659697 16:5.3130298 17:-1 18:-95 19:-4 20:-183.75 #
-7.34977279037707376119215041399e-09 1:-1 2:-46 3:2.0527501 4:0.40856901 5:1.8073 6:0.369037 7:0.27037299 8:0.61503702 9:0.14076699 10:0.14076699 11:4.6870499 12:86.337502 13:0.66666698 14:0.94121802 15:0.86302102 16:1.36406 17:-1 18:-46 19:-3 20:-162.66701 #
-5.3905524683011012118997139219712e-06 1:-5 2:-18.8571 3:5.2330399 4:0.553361 5:0.90740699 6:0.825885 7:0.82230902 8:1.7959 9:3.83722 10:5.8619499 11:86.711601 12:88.506699 13:0.66666698 14:0.88657498 15:0.902807 16:22.901501 17:-7 18:-26.2222 19:-7 20:-26.2222 #
-3.0881535933701136260876030092959e-07 1:-3 2:-20.5 3:1.6142401 4:0.43009001 5:0.98224801 6:0.70190901 7:3.4393301 8:1.73783 9:2.2305801 10:2.2987199 11:68.896698 12:16.2068 13:0.66666698 14:0.61839598 15:0.616409 16:18.869699 17:-4 18:-30.299999 19:-9 20:-149.7 #
-2.9942141504679890270457578993479e-07 1:-6 2:-20.3333 3:2.5207 4:0.80639303 5:1.42436 6:1.16008 7:9.3436804 8:1.3202 9:17.671301 10:8.59797 11:83.819298 12:6.7533698 13:0.444444 14:0.956783 15:0.83277601 16:22.282101 17:-6 18:-20.3333 19:-5 20:125.667 #
-2.8436618034866079085531964665279e-05 1:-2 2:-10 3:2.51829 4:0.46857101 5:0.24118599 6:0.115077 7:0.27761999 8:0.65474099 9:0.074768201 10:0.0554539 11:15.7178 12:76.071701 13:0.444444 14:0.93180799 15:0.98506498 16:4.5612402 17:-2 18:-10 19:-1 20:280 #
-1.3669346613133384962801564199708e-07 1:-3 2:-10.5 3:3.9732599 4:0.69684398 5:1.0337501 6:0.76020998 7:10.6797 8:1.94902 9:10.423 10:10.423 11:78.569199 12:13.45 13:0.444444 14:0.98090899 15:0.947963 16:21.1217 17:-3 18:-10.5 19:-4 20:135.375 #
-1.2443578182818573925338956343012e-07 1:-2 2:-15.3333 3:1.87073 4:4.22856 5:0.79337102 6:5.94664 7:11.7677 8:1.3494999 9:1.9633501 10:0.29343799 11:13.7312 12:44.702301 13:1 14:0.57412702 15:0.73435098 16:3.98771 17:-2 18:-15.3333 19:-3 20:-40.285702 #
-3.2527518239325119674132391622834e-08 1:-1 2:-10 3:3.32341 4:0.104304 5:1.19073 6:0.653642 7:0.85421503 8:0.67750102 9:0.47700199 10:1.99411 11:89.510597 12:86.451797 13:0.66666698 14:0.625229 15:0.79459798 16:23.487101 17:-2 18:-45 19:-2 20:212.66701 #
-2.5231601378059503308935512463917e-08 1:-1 2:-4.5 3:3.68785 4:2.52615 5:0.74617898 6:1.31038 7:1.80371 8:0.45274901 9:1.09952 10:2.1879799 11:66.918999 12:75.6875 13:1 14:0.89047801 15:0.942146 16:18.392099 17:1 18:82.75 19:-4 20:-121.833 #
-1.5282929218226920693723958066812e-08 1:0 2:0 3:1.32244 4:0.211412 5:1.35465 6:0.45862699 7:0.56072199 8:1.15598 9:0.43279499 10:2.2716999 11:74.785698 12:87.684196 13:0.66666698 14:0.69732702 15:0.84389502 16:20.257799 17:0 18:0 19:-2 20:-281 #
