SVM-light Version V6.02
0 # kernel type
3 # kernel parameter -d 
1 # kernel parameter -g 
1 # kernel parameter -s 
1 # kernel parameter -r 
empty# kernel parameter -u 
20 # highest feature index 
2004 # number of training documents 
1128 # number of support vectors plus 1 
-0.89638251 # threshold b, each following line is a SV (starting with alpha*y)
-5.7754267372695187998925953065665e-05 1:2 2:13 3:2.11344 4:1.26572 5:1.91353 6:3.7293 7:2.41664 8:3.4175501 9:5.5115099 10:2.9252999 11:68.563797 12:12.4524 13:0.66666698 14:0.87547803 15:0.80675 16:18.7897 17:2 18:13 19:6 20:94.75 #
5.7754267372695187998925953065665e-05 1:-2 2:-29.625 3:1.13157 4:0.182937 5:4.3100901 6:1.85733 7:0.39414701 8:0.25649899 9:0.62494099 10:0.080136597 11:14.8557 12:58.398499 13:0.444444 14:0.64113998 15:0.95656699 16:4.3125 17:-2 18:-29.625 19:-1 20:82.5 #
-5.7754267372695187998925953065665e-05 1:-5 2:-20.799999 3:2.2437699 4:1.74587 5:1.43547 6:3.2723999 7:0.31152999 8:0.117958 9:0.13304099 10:0.13304099 11:8.8784304 12:88.118896 13:0.33333299 14:0.93356299 15:0.87910497 16:2.582 17:-5 18:-20.799999 19:-4 20:264.20001 #
5.7754267372695187998925953065665e-05 1:1 2:54 3:2.1082499 4:2.2583101 5:1.92045 6:1.7922 7:1.31888 8:1.2384 9:2.6849101 10:0.67213202 11:51.348598 12:15.6172 13:0.66666698 14:0.71520102 15:0.65025002 16:14.4527 17:5 18:72 19:0 20:-200.39999 #
-5.7754267372695187998925953065665e-05 1:0 2:0 3:2.6823399 4:1.92105 5:0.49999201 6:0.610726 7:0.454265 8:0.28830799 9:0.64055502 10:0.0701949 11:6.7285199 12:87.8218 13:0.66666698 14:0.96280402 15:0.93673801 16:1.9576 17:0 18:0 19:-2 20:-288 #
5.7754267372695187998925953065665e-05 1:0 2:0 3:4.40587 4:1.00407 5:1.0563 6:4.0826302 7:0.20195 8:0.45911601 9:6.3035998 10:6.3035998 11:88.741402 12:76.114601 13:0.166667 14:0.93223298 15:0.93925202 16:23.327499 17:0 18:0 19:2 20:288 #
5.7754267372695187998925953065665e-05 1:4 2:14.5 3:1.8652101 4:4.61097 5:1.55759 6:2.92717 7:0.52504998 8:1.2736 9:1.03759 10:1.91429 11:72.903 12:87.641197 13:0.66666698 14:0.65165299 15:0.729801 16:19.8197 17:4 18:14.5 19:2 20:-263 #
5.7754267372695187998925953065665e-05 1:0 2:0 3:4.5607901 4:4.2583098 5:0.59428799 6:0.35328701 7:0.229269 8:0.87248403 9:0.392131 10:0.24831399 11:21.465599 12:65.772499 13:0.166667 14:0.70236701 15:0.817406 16:6.2123199 17:0 18:0 19:0 20:0 #
-5.7754267372695187998925953065665e-05 1:3 2:16.6667 3:3.3405001 4:0.87231302 5:4.4804001 6:0.92994398 7:2.13397 8:2.56392 9:2.3320799 10:2.2456701 11:73.552902 12:27.740999 13:0.444444 14:0.80155897 15:0.85135698 16:19.9715 17:3 18:16.6667 19:6 20:-46 #
-5.7754267372695187998925953065665e-05 1:1 2:6 3:1.27293 4:2.3781199 5:1.5750099 6:0.35195199 7:0.65106302 8:0.87290102 9:0.54872203 10:1.3315001 11:58.386398 12:59.056999 13:0.166667 14:0.70240498 15:0.77764302 16:16.2708 17:2 18:45 19:5 20:125.6 #
-5.7754267372695187998925953065665e-05 1:3 2:-1.5 3:3.0350101 4:1.39015 5:4.9525199 6:1.91708 7:0.173337 8:0.054524601 9:0.40506601 10:2.0838599 11:77.483398 12:88.285004 13:0.166667 14:0.74700999 15:0.80668902 16:20.876101 17:2 18:-33.125 19:2 20:-33.125 #
-5.7754267372695187998925953065665e-05 1:1 2:22 3:3.2062099 4:0.821064 5:0.56120902 6:0.55644703 7:0.30435801 8:0.31301099 9:0.32480901 10:0.0250013 11:2.1278999 12:84.6698 13:0.444444 14:0.898516 15:0.97571898 16:0.619412 17:1 18:22 19:4 20:70.400002 #
5.7754267372695187998925953065665e-05 1:0 2:0 3:4.5807099 4:2.18612 5:1.06025 6:1.13572 7:0.84854299 8:0.42144701 9:0.60400802 10:0.15208501 11:18.007999 12:87.668999 13:0.166667 14:0.95232499 15:0.89958799 16:5.2207098 17:0 18:0 19:1 20:300 #
5.7754267372695187998925953065665e-05 1:0 2:0 3:2.0755799 4:0.44879299 5:8.3334703 6:0.82334697 7:0.95695603 8:0.68730301 9:3.0192599 10:3.0192599 11:87.8265 12:5.8460698 13:0.222222 14:0.67347902 15:0.66654998 16:23.1364 17:0 18:0 19:4 20:275.5 #
-5.7754267372695187998925953065665e-05 1:0 2:0 3:1.70101 4:0.640962 5:7.2084198 6:0.84227002 7:0.51050901 8:0.41653401 9:0.53105801 10:1.23774 11:55.473202 12:62.869499 13:0.66666698 14:0.80133998 15:0.82331401 16:15.5253 17:0 18:0 19:-2 20:-161 #
-5.7754267372695187998925953065665e-05 1:0 2:0 3:1.37028 4:1.54548 5:0.198036 6:0.71129501 7:0.56448698 8:0.324525 9:0.53373998 10:0.53373998 11:43.089298 12:80.7276 13:0.66666698 14:0.88597399 15:0.79130203 16:12.2501 17:0 18:0 19:-1 20:-290 #
5.7754267372695187998925953065665e-05 1:0 2:0 3:1.60306 4:5.6214299 5:1.47658 6:1.17655 7:0.57861501 8:0.29971799 9:0.781582 10:0.31275201 11:18.2367 12:78.867699 13:0.66666698 14:0.526905 15:0.74846399 16:5.2864799 17:0 18:0 19:3 20:290.66699 #
-5.7754267372695187998925953065665e-05 1:0 2:0 3:1.64666 4:0.79248399 5:1.20942 6:1.1339099 7:0.16356599 8:0.44646701 9:0.43740901 10:0.602548 11:45.284199 12:69.510902 13:0.33333299 14:0.79538298 15:0.84272099 16:12.8421 17:0 18:0 19:-1 20:-276 #
-5.7754267372695187998925953065665e-05 1:0 2:0 3:2.0594399 4:1.55548 5:5.2122202 6:2.6217699 7:1.01196 8:3.4488399 9:0.93502098 10:0.93502098 11:52.2551 12:50.5186 13:0.444444 14:0.86430401 15:0.83614999 16:14.6901 17:0 18:0 19:-6 20:-192.75 #
-5.7754267372695187998925953065665e-05 1:-1 2:-4 3:1.13903 4:1.33112 5:4.3084998 6:0.94777298 7:0.112939 8:0.65867698 9:0.702003 10:0.038066801 11:4.06284 12:65.696999 13:0.33333299 14:0.43971899 15:0.96454602 16:1.18248 17:1 18:81 19:4 20:135 #
5.7754267372695187998925953065665e-05 1:-2 2:-53 3:2.9846399 4:1.63656 5:1.44946 6:2.0325401 7:0.54866302 8:0.44310901 9:0.407772 10:2.99791 11:89.034599 12:69.972099 13:0.444444 14:0.64078999 15:0.865991 16:23.3885 17:-2 18:-53 19:-3 20:72 #
5.7754267372695187998925953065665e-05 1:1 2:8 3:3.2037699 4:0.330901 5:0.51239401 6:1.7497801 7:1.2558399 8:0.79398298 9:3.3494101 10:1.24501 11:62.588902 12:30.167 13:0.166667 14:0.829992 15:0.798621 16:17.3276 17:4 18:59 19:4 20:59 #
-5.7754267372695187998925953065665e-05 1:2 2:53.5 3:1.42878 4:1.15189 5:2.00788 6:0.77069002 7:0.14387301 8:0.48632401 9:0.44255999 10:0.079288296 11:9.64536 12:74.762398 13:0.33333299 14:0.53276801 15:0.93614 16:2.8045299 17:2 18:53.5 19:2 20:-178.33299 #
5.7754267372695187998925953065665e-05 1:-2 2:-31 3:2.55898 4:1.27256 5:3.16225 6:0.46787301 7:0.264568 8:0.566181 9:1.06811 10:3.77457 11:87.249603 12:59.476101 13:0.33333299 14:0.75873297 15:0.85163301 16:23.0151 17:-1 18:67 19:2 20:79.5 #
-5.7754267372695187998925953065665e-05 1:6 2:31.5417 3:1.92234 4:1.7573 5:1.7048 6:1.2871799 7:0.64419502 8:0.39942899 9:1.03596 10:0.0228968 11:3.9628401 12:85.811897 13:0.33333299 14:0.77510202 15:0.97958398 16:1.15338 17:6 18:31.5417 19:6 20:31.5417 #
5.7754267372695187998925953065665e-05 1:-6 2:-22.3333 3:2.31686 4:9.0796003 5:2.7802701 6:0.53593999 7:3.23557 8:0.91492099 9:0.94699103 10:2.29895 11:79.318398 12:73.7351 13:1 14:0.84746403 15:0.82208198 16:21.2901 17:-5 18:54.4286 19:-6 20:5.8000002 #
5.7754267372695187998925953065665e-05 1:3 2:20.3333 3:1.35105 4:5.6345401 5:4.11375 6:1.42428 7:0.24351899 8:0.60474199 9:1.52991 10:0.18601499 11:12.3778 12:42.843899 13:0.444444 14:0.78104299 15:0.84110802 16:3.5962601 17:5 18:51.200001 19:5 20:51.200001 #
5.7754267372695187998925953065665e-05 1:-1 2:-6 3:1.2352999 4:3.1928101 5:1.1676 6:2.57113 7:0.57940799 8:0.78036302 9:1.80752 10:0.509229 11:33.3046 12:19.8592 13:0.33333299 14:0.56107098 15:0.69210202 16:9.5593004 17:-1 18:-6 19:3 20:273.5 #
-5.7754267372695187998925953065665e-05 1:-2 2:-12.5 3:1.7631 4:15.8503 5:3.0715301 6:0.48243201 7:0.27684999 8:0.33546099 9:0.32056901 10:0.023105999 11:2.9870801 12:76.334396 13:0.444444 14:0.61835098 15:0.97827101 16:0.86946398 17:-1 18:85.5 19:2 20:96.75 #
1.0518785837448116175785184367442e-05 1:0 2:0 3:3.2394099 4:4.9612498 5:3.10113 6:2.90661 7:0.0822668 8:0.317343 9:0.65453601 10:0.039322801 11:2.28019 12:86.555 13:0.444444 14:0.80136299 15:0.96151 16:0.663737 17:0 18:0 19:1 20:180 #
5.7754267372695187998925953065665e-05 1:-2 2:-7 3:2.4194701 4:0.50085199 5:5.4594598 6:3.7859099 7:0.27534899 8:0.58188599 9:0.86548299 10:2.4848399 11:89.102203 12:88.327904 13:0.33333299 14:0.36606199 15:0.77825099 16:23.4025 17:-1 18:63 19:-2 20:14.6667 #
-5.7754267372695187998925953065665e-05 1:0 2:0 3:1.53511 4:0.159527 5:2.4895999 6:0.59207797 7:0.34888899 8:0.40771499 9:0.52640998 10:0.078202099 11:7.26682 12:85.940804 13:0.222222 14:0.67518401 15:0.93013799 16:2.1140101 17:2 18:89 19:2 20:89 #
5.7754267372695187998925953065665e-05 1:-3 2:-26 3:1.28045 4:5.6255298 5:2.9063699 6:0.403083 7:0.41732499 8:0.313191 9:0.57320201 10:0.57320201 11:42.377998 12:88.833504 13:0.444444 14:0.77508402 15:0.70646399 16:12.0573 17:-2 18:60 19:2 20:58.971401 #
5.7754267372695187998925953065665e-05 1:0 2:0 3:1.81555 4:0.77495402 5:2.9461 6:0.81360698 7:1.38123 8:0.63457298 9:0.932796 10:0.100954 11:7.5834098 12:56.223999 13:0.444444 14:0.63486499 15:0.90795898 16:2.2059801 17:0 18:0 19:4 20:141.5 #
-5.7754267372695187998925953065665e-05 1:-1 2:-13 3:1.7501 4:0.45054001 5:0.95868701 6:0.37670299 7:0.181115 8:0.124538 9:0.25967699 10:0.124054 11:12.4905 12:89.857399 13:0.444444 14:0.94686598 15:0.90348899 16:3.62889 17:0 18:74 19:0 20:74 #
-5.7754267372695187998925953065665e-05 1:1 2:47.875 3:1.81247 4:0.87732399 5:3.40868 6:1.4686 7:0.63384902 8:1.17785 9:0.75268 10:1.44618 11:66.435501 12:65.893799 13:0.66666698 14:0.875193 15:0.84023702 16:18.2745 17:1 18:47.875 19:1 20:47.875 #
5.7754267372695187998925953065665e-05 1:0 2:0 3:1.4299001 4:1.64464 5:2.17785 6:0.430482 7:0.36618799 8:0.449287 9:0.295607 10:0.0251869 11:6.1017199 12:78.776703 13:0.444444 14:0.852229 15:0.98061699 16:1.77542 17:0 18:0 19:5 20:150 #
-5.7754267372695187998925953065665e-05 1:2 2:16 3:1.92895 4:2.34319 5:3.9216001 6:0.82758898 7:0.47917899 8:0.57467502 9:0.735578 10:0.322245 11:15.4878 12:66.995201 13:0.222222 14:0.78769201 15:0.71932203 16:4.4949098 17:3 18:42.666698 19:5 20:72 #
-5.7754267372695187998925953065665e-05 1:6 2:36.666698 3:2.2492599 4:1.35693 5:1.5363899 6:0.54355597 7:0.347801 8:0.404071 9:1.0942 10:0.1407 11:19.6583 12:59.355301 13:0.444444 14:0.66302401 15:0.92404699 16:5.6946702 17:11 18:56.545502 19:13 20:64.307701 #
-5.7754267372695187998925953065665e-05 1:-1 2:-12 3:1.7661901 4:4.21 5:2.5147901 6:0.98979598 7:0.31656301 8:0.55525601 9:0.393103 10:0.0456939 11:6.3639002 12:83.7248 13:0.444444 14:0.756244 15:0.96064001 16:1.85163 17:2 18:74 19:2 20:74 #
5.7754267372695187998925953065665e-05 1:0 2:-9 3:3.4217601 4:0.60330802 5:1.8638901 6:1.65152 7:0.17578 8:0.345909 9:1.18016 10:0.168633 11:3.5163 12:81.7239 13:0.66666698 14:0.927939 15:0.83340102 16:1.02346 17:-1 18:-22 19:0 20:8 #
-5.7754267372695187998925953065665e-05 1:0 2:-3 3:1.25685 4:0.42426401 5:1.47032 6:0.355966 7:0.35873801 8:0.80760002 9:0.68841201 10:0.108398 11:11.3668 12:80.015503 13:0.444444 14:0.90139401 15:0.91313899 16:3.30354 17:0 18:-3 19:2 20:105.917 #
5.7754267372695187998925953065665e-05 1:6 2:10.5714 3:2.21822 4:1.60901 5:1.54972 6:1.55536 7:0.29587001 8:0.443885 9:0.713907 10:0.35091001 11:29.8925 12:72.9617 13:0.33333299 14:0.833233 15:0.79294699 16:8.60359 17:7 18:19 19:12 20:-27.8571 #
-5.7754267372695187998925953065665e-05 1:0 2:0 3:1.7665499 4:1.02033 5:1.4558001 6:4.64782 7:0.16775 8:0.35267699 9:0.28583801 10:1.90335 11:69.677002 12:84.335602 13:0.444444 14:0.84956199 15:0.81489903 16:19.056499 17:0 18:0 19:2 20:270 #
5.7754267372695187998925953065665e-05 1:0 2:0 3:1.59813 4:0.88688898 5:2.69996 6:1.03346 7:0.39042199 8:0.35698101 9:0.44388199 10:0.080565497 11:9.4970903 12:65.503304 13:0.444444 14:0.87070203 15:0.933792 16:2.7615099 17:0 18:0 19:-1 20:-278 #
-5.7754267372695187998925953065665e-05 1:0 2:0 3:1.56085 4:0.65189397 5:0.80550098 6:0.61409098 7:2.24562 8:0.35988301 9:0.41590199 10:0.497785 11:42.9725 12:63.730099 13:1 14:0.94036299 15:0.92073101 16:12.2185 17:0 18:0 19:-2 20:-294 #
-5.7754267372695187998925953065665e-05 1:0 2:0 3:2.0401299 4:1.82333 5:0.81135201 6:0.67112601 7:0.81265098 8:0.53296399 9:0.101657 10:0.101657 11:5.7125101 12:85.612099 13:1 14:0.93002498 15:0.90379101 16:1.6622699 17:0 18:0 19:1 20:288 #
5.7754267372695187998925953065665e-05 1:0 2:0 3:2.0574901 4:0.178464 5:1.26278 6:1.32862 7:0.27507499 8:0.40091199 9:0.505463 10:0.14791501 11:19.2789 12:83.840797 13:0.33333299 14:0.72191101 15:0.91430497 16:5.5858002 17:0 18:0 19:-1 20:-280 #
5.7754267372695187998925953065665e-05 1:0 2:0 3:1.93687 4:1.10746 5:2.4268601 6:1.41344 7:0.25917199 8:0.444662 9:0.79252303 10:0.46835601 11:30.6835 12:83.721001 13:0.166667 14:0.67765802 15:0.62363398 16:8.82586 17:0 18:0 19:3 20:275 #
-5.7754267372695187998925953065665e-05 1:1 2:-3 3:1.33525 4:0.811616 5:2.171 6:1.67118 7:1.42003 8:1.1569999 9:1.54423 10:1.07446 11:56.718201 12:38.202801 13:0.33333299 14:0.59580702 15:0.79676598 16:15.8452 17:1 18:-3 19:-1 20:-56.333302 #
5.7754267372695187998925953065665e-05 1:2 2:34 3:2.3152001 4:1.49429 5:1.3042901 6:1.54774 7:0.39897799 8:1.46196 9:2.3561001 10:0.0633604 11:4.3752899 12:13.9972 13:0.222222 14:0.642766 15:0.93970299 16:1.27337 17:2 18:34 19:2 20:-209.33299 #
-5.7754267372695187998925953065665e-05 1:0 2:0 3:2.96978 4:0.83702701 5:5.8965998 6:0.80327803 7:0.54399198 8:0.528099 9:0.50451601 10:0.82396799 11:52.2038 12:72.409897 13:0.66666698 14:0.87760901 15:0.74909198 16:14.6767 17:0 18:0 19:-1 20:-280 #
5.7754267372695187998925953065665e-05 1:-3 2:-22.6667 3:2.3842199 4:0.42478001 5:10.4358 6:2.8520701 7:0.48224801 8:0.71029198 9:1.58406 10:0.81586403 11:46.250702 12:30.4653 13:0.33333299 14:0.66543001 15:0.71827197 16:13.1013 17:-3 18:-22.6667 19:-1 20:269.33301 #
5.7754267372695187998925953065665e-05 1:0 2:0 3:1.20323 4:1.6616 5:2.15961 6:1.41517 7:0.95150697 8:0.788315 9:1.02149 10:2.3647799 11:69.745499 12:82.296303 13:0.166667 14:0.955562 15:0.84822702 16:19.072901 17:0 18:0 19:-1 20:-276 #
-5.7754267372695187998925953065665e-05 1:1 2:4 3:1.9611599 4:0.99015301 5:1.5852 6:2.29656 7:0.96228802 8:0.58125699 9:1.32488 10:3.3088801 11:71.250397 12:74.474701 13:0.33333299 14:0.89949501 15:0.89376098 16:19.4307 17:3 18:65.333298 19:4 20:75.5 #
5.7754267372695187998925953065665e-05 1:0 2:0 3:1.60636 4:4.7368102 5:1.6658 6:2.4822199 7:0.63297898 8:0.717305 9:3.06059 10:0.613976 11:40.681599 12:13.8703 13:0.222222 14:0.72859401 15:0.72295702 16:11.5955 17:-1 18:-83 19:0 20:187.5 #
-5.7754267372695187998925953065665e-05 1:3 2:23.200001 3:1.25946 4:2.0135901 5:1.89995 6:0.79163301 7:0.74917901 8:0.96695203 9:0.97380298 10:0.97380298 11:53.267799 12:48.583698 13:0.444444 14:0.88302499 15:0.87137598 16:14.9542 17:5 18:33.142899 19:9 20:107.455 #
5.7754267372695187998925953065665e-05 1:0 2:8 3:1.64211 4:3.02437 5:5.1789098 6:3.4208701 7:0.42695099 8:0.83802199 9:1.52677 10:1.1313 11:61.366402 12:49.213501 13:0.33333299 14:0.83471602 15:0.70343399 16:17.022499 17:0 18:8 19:5 20:85.083298 #
-5.7754267372695187998925953065665e-05 1:0 2:0 3:1.4013 4:1.17862 5:2.48931 6:0.38767201 7:0.59264803 8:1.02689 9:1.3661799 10:0.046058599 11:3.3075399 12:35.579399 13:0.33333299 14:0.53810102 15:0.95562601 16:0.96271801 17:0 18:0 19:2 20:250.75 #
-5.7754267372695187998925953065665e-05 1:0 2:0 3:1.13836 4:1.58925 5:2.8145001 6:0.63741398 7:0.247959 8:0.27164099 9:0.54564899 10:0.113807 11:17.1313 12:87.666397 13:0.444444 14:0.95867002 15:0.93665397 16:4.9685102 17:0 18:0 19:1 20:246 #
5.7754267372695187998925953065665e-05 1:1 2:60 3:2.77 4:5.2445898 5:2.8780701 6:3.0052299 7:0.86168098 8:0.83227903 9:2.7823601 10:4.89957 11:84.254402 12:18.809401 13:0.33333299 14:0.68968898 15:0.88141102 16:22.3762 17:1 18:60 19:9 20:206.222 #
5.7754267372695187998925953065665e-05 1:-4 2:-17 3:2.04087 4:2.21315 5:0.95932198 6:3.03862 7:0.92088902 8:1.23329 9:0.98529398 10:5.0861602 11:87.393204 12:56.5947 13:0.222222 14:0.77174699 15:0.81588101 16:23.045401 17:-4 18:-17 19:-7 20:227.25 #
-5.7754267372695187998925953065665e-05 1:-1 2:-38 3:1.31241 4:0.486954 5:2.3031199 6:0.32918 7:0.117958 8:1.52326 9:0.52648097 10:0.279497 11:9.00313 12:60.2318 13:0.66666698 14:0.88018101 15:0.73399901 16:2.6181901 17:-1 18:-38 19:5 20:106.875 #
5.7754267372695187998925953065665e-05 1:1 2:15.5 3:2.0137501 4:1.2031 5:3.2592599 6:2.59905 7:0.322209 8:1.67759 9:1.15539 10:0.36425301 11:14.6342 12:61.396999 13:0.444444 14:0.376362 15:0.66742998 16:4.24856 17:2 18:20.1667 19:2 20:20.1667 #
-5.7754267372695187998925953065665e-05 1:-2 2:-12 3:1.78754 4:6.66502 5:3.5616 6:8.7132797 7:1.6646 8:2.4066601 9:2.99436 10:2.023 11:63.760799 12:15.7753 13:0.444444 14:0.71019101 15:0.65612102 16:17.6182 17:-2 18:-12 19:-2 20:-12 #
5.7754267372695187998925953065665e-05 1:-1 2:-56 3:1.24069 4:1.48373 5:0.96742201 6:0.92964298 7:0.38684499 8:0.56711799 9:0.64504701 10:0.30228499 11:29.5415 12:79.315804 13:0.166667 14:0.91473502 15:0.860147 16:8.5048304 17:-1 18:-56 19:-4 20:-182.5 #
-5.7754267372695187998925953065665e-05 1:1 2:6 3:2.6683199 4:0.435684 5:1.61204 6:1.2455 7:0.897888 8:0.414648 9:1.73097 10:1.78851 11:76.411903 12:45.3242 13:0.33333299 14:0.667063 15:0.718741 16:20.631901 17:1 18:6 19:0 20:-274 #
-5.7754267372695187998925953065665e-05 1:-1 2:-25 3:1.25176 4:2.2897799 5:1.23867 6:1.72376 7:0.499147 8:2.3540399 9:1.36334 10:1.36334 11:57.424599 12:36.0112 13:0.33333299 14:0.90440601 15:0.86813498 16:16.025801 17:-1 18:-25 19:-1 20:-25 #
5.7754267372695187998925953065665e-05 1:1 2:30.1 3:2.1249399 4:0.41169199 5:1.03392 6:0.88414699 7:0.63995999 8:1.50425 9:5.11485 10:0.130647 11:9.94734 12:0.95797497 13:0.444444 14:0.80474597 15:0.887366 16:2.8921101 17:2 18:34.166698 19:3 20:68.214302 #
5.7754267372695187998925953065665e-05 1:0 2:0 3:2.24037 4:5.42555 5:1.40272 6:0.88932198 7:0.354505 8:0.282612 9:0.328354 10:6.7961502 11:78.384102 12:76.540703 13:0.166667 14:0.79491597 15:0.85747099 16:21.08 17:0 18:0 19:-3 20:-258.66699 #
5.7754267372695187998925953065665e-05 1:-1 2:-60 3:2.70121 4:0.46507099 5:2.00103 6:1.63376 7:0.90188301 8:1.21371 9:1.04738 10:0.97389698 11:57.181999 12:39.9534 13:0.33333299 14:0.74892199 15:0.76187402 16:15.9638 17:-3 18:-70.666702 19:3 20:103.667 #
-5.7754267372695187998925953065665e-05 1:0 2:0 3:3.13254 4:7.3733802 5:1.04883 6:1.38404 7:1.27458 8:0.30027801 9:2.0418701 10:2.4456301 11:65.721199 12:31.823601 13:0.166667 14:0.63053602 15:0.85968798 16:18.100201 17:0 18:0 19:1 20:258 #
5.7754267372695187998925953065665e-05 1:-1 2:-6.25 3:1.70095 4:1.36789 5:1.67637 6:0.46461499 7:0.166968 8:0.722565 9:0.37100399 10:2.72088 11:65.085701 12:68.850197 13:0.444444 14:0.63059598 15:0.87691897 16:17.944599 17:-1 18:-6.25 19:1 20:249.125 #
-5.7754267372695187998925953065665e-05 1:1 2:12 3:1.46689 4:1.85666 5:1.07671 6:1.23274 7:0.38237399 8:0.84930301 9:0.43243399 10:0.0358923 11:3.6141701 12:71.743599 13:0.444444 14:0.73083597 15:0.96618497 16:1.05194 17:3 18:66.666702 19:4 20:76.5 #
5.7754267372695187998925953065665e-05 1:0 2:0 3:3.3405499 4:1.3714499 5:1.2230099 6:0.73417199 7:0.53700501 8:0.94939399 9:1.10739 10:3.5157599 11:88.006599 12:86.666496 13:0.33333299 14:0.736516 15:0.86641699 16:23.174101 17:0 18:0 19:-1 20:-238 #
-5.7754267372695187998925953065665e-05 1:-2 2:-32 3:1.40183 4:1.85132 5:3.6042099 6:1.54374 7:0.59542298 8:0.46539 9:0.71046197 10:0.243916 11:7.4874201 12:87.985199 13:0.444444 14:0.65381902 15:0.76560903 16:2.1781001 17:-3 18:-46.666698 19:-1 20:187.33299 #
5.7754267372695187998925953065665e-05 1:2 2:38 3:2.62976 4:0.396117 5:2.35271 6:3.8048699 7:1.71209 8:1.3885 9:2.05653 10:1.95399 11:72.396103 12:30.4471 13:0.33333299 14:0.70233601 15:0.831209 16:19.7008 17:3 18:47.333302 19:-3 20:-208.66701 #
5.7754267372695187998925953065665e-05 1:0 2:0 3:1.78864 4:3.1052499 5:3.75998 6:1.00573 7:0.61551797 8:0.76159102 9:1.5420001 10:0.073008701 11:2.7702899 12:57.281898 13:0.222222 14:0.54690802 15:0.92819297 16:0.80637503 17:0 18:0 19:5 20:246.8 #
5.7754267372695187998925953065665e-05 1:4 2:19 3:2.0769801 4:1.21478 5:2.50928 6:0.95691401 7:0.64634299 8:1.15044 9:0.81011599 10:0.81011599 11:49.138302 12:56.457901 13:1 14:0.74498701 15:0.77059799 16:13.8702 17:4 18:19 19:0 20:-265 #
-5.7754267372695187998925953065665e-05 1:3 2:29.3333 3:1.29843 4:0.93943799 5:7.0324702 6:0.75957298 7:0.222776 8:1.03535 9:0.43142301 10:0.29455101 11:17.5021 12:88.730499 13:0.33333299 14:0.70766002 15:0.75582701 16:5.0752001 17:3 18:29.3333 19:10 20:193 #
-5.7754267372695187998925953065665e-05 1:2 2:8 3:3.6773901 4:54.251301 5:7.6000199 6:6.3893099 7:3.9286399 8:1.8903 9:7.02317 10:5.6957402 11:76.044701 12:38.564098 13:0.444444 14:0.94291699 15:0.93432802 16:20.5478 17:2 18:8 19:1 20:-92 #
-5.7754267372695187998925953065665e-05 1:0 2:0 3:2.29528 4:1.65061 5:0.81841898 6:1.3019 7:0.40414801 8:1.22304 9:0.49185801 10:0.34592301 11:34.9277 12:53.682301 13:0.33333299 14:0.68769801 15:0.88890201 16:10.011 17:0 18:0 19:4 20:252.5 #
-5.7754267372695187998925953065665e-05 1:0 2:0 3:1.26984 4:1.1978101 5:1.34552 6:0.43281001 7:0.46852699 8:0.42773801 9:0.92147303 10:0.023633299 11:5.5700698 12:59.6119 13:0.33333299 14:0.57008398 15:0.98122299 16:1.62085 17:1 18:96 19:0 20:-95.333298 #
5.7754267372695187998925953065665e-05 1:-1 2:-8 3:2.1558199 4:1.13805 5:1.1116199 6:2.04602 7:0.63274801 8:0.56195098 9:0.88163698 10:0.110006 11:11.6111 12:88.8582 13:0.444444 14:0.41902199 15:0.91148502 16:3.3743 17:-2 18:-43 19:1 20:235 #
-5.7754267372695187998925953065665e-05 1:0 2:0 3:2.5805199 4:0.839118 5:2.3995099 6:0.420562 7:0.283995 8:1.0588599 9:0.30560201 10:1.47419 11:66.338203 12:78.000099 13:1 14:0.912588 15:0.88917202 16:18.250799 17:0 18:0 19:5 20:255.2 #
-5.7754267372695187998925953065665e-05 1:0 2:0 3:2.72982 4:0.771819 5:2.34798 6:0.52484602 7:0.53423297 8:0.79509503 9:0.37172499 10:0.099793598 11:7.6704798 12:81.533302 13:0.444444 14:0.89053899 15:0.90922701 16:2.2312701 17:2 18:88 19:2 20:36 #
5.7754267372695187998925953065665e-05 1:1 2:10 3:1.28457 4:2.6965599 5:1.99788 6:1.2626899 7:0.79105598 8:1.98057 9:1.64483 10:1.2730401 11:52.612202 12:36.349201 13:1 14:0.81146598 15:0.682064 16:14.7834 17:0 18:-86 19:-5 20:-105.333 #
-5.7754267372695187998925953065665e-05 1:1 2:-20.3333 3:4.14505 4:0.75474 5:1.48572 6:1.22782 7:2.4814501 8:6.73806 9:2.77613 10:2.77613 11:67.971199 12:31.2225 13:0.444444 14:0.95267099 15:0.90581 16:18.6469 17:0 18:-30.6667 19:0 20:-30.6667 #
-5.7754267372695187998925953065665e-05 1:-1 2:-29 3:1.23597 4:1.6326801 5:3.9404299 6:1.6034499 7:0.66578299 8:1.66763 9:1.31139 10:0.48321801 11:34.085499 12:34.757801 13:0.66666698 14:0.55808598 15:0.77831101 16:9.7768803 17:-1 18:-29 19:0 20:251 #
-5.7754267372695187998925953065665e-05 1:2 2:3.3333299 3:1.92545 4:0.30290899 5:1.62063 6:4.6090698 7:1.58061 8:0.82777601 9:1.74018 10:1.99031 11:66.904404 12:31.788799 13:0.166667 14:0.849002 15:0.80679101 16:18.388599 17:2 18:3.3333299 19:4 20:67.666702 #
-5.7754267372695187998925953065665e-05 1:1 2:60 3:1.84402 4:1.20497 5:4.1691499 6:0.591335 7:0.60290802 8:0.45205399 9:0.986871 10:0.080256402 11:6.3439002 12:60.678001 13:0.444444 14:0.82377398 15:0.92607498 16:1.84582 17:2 18:63 19:2 20:-78.5 #
-5.7754267372695187998925953065665e-05 1:0 2:0 3:2.4214101 4:2.80966 5:3.9528699 6:0.42789 7:0.68998402 8:0.51300299 9:2.0018401 10:0.084454402 11:7.1904502 12:60.107101 13:0.444444 14:0.73369098 15:0.92404997 16:2.09182 17:-2 18:-68 19:-1 20:179 #
5.7754267372695187998925953065665e-05 1:0 2:0 3:4.26823 4:4.3689899 5:3.12292 6:1.19131 7:0.45454001 8:1.23586 9:1.14835 10:3.5688901 11:72.9077 12:82.946701 13:0.33333299 14:0.89362198 15:0.88395298 16:19.820801 17:1 18:68 19:-1 20:-211 #
-5.7754267372695187998925953065665e-05 1:-3 2:-0.66666698 3:1.80801 4:2.66113 5:3.8447299 6:0.77614701 7:1.36579 8:1.17401 9:1.82744 10:0.96382099 11:52.429298 12:41.408199 13:0.33333299 14:0.77678603 15:0.87229103 16:14.7356 17:-5 18:-18.0833 19:-5 20:-18.0833 #
5.7754267372695187998925953065665e-05 1:0 2:0 3:2.6963 4:2.9874301 5:2.52514 6:1.97451 7:0.208619 8:0.40672499 9:1.56498 10:1.56498 11:84.774597 12:76.751503 13:0.444444 14:0.87563801 15:0.778543 16:22.4883 17:0 18:0 19:6 20:225 #
5.7754267372695187998925953065665e-05 1:0 2:0 3:1.29743 4:0.63474399 5:2.8989 6:0.64698499 7:0.32028201 8:0.92592102 9:0.79541498 10:0.064247198 11:5.9121799 12:52.2873 13:0.66666698 14:0.77251297 15:0.94151199 16:1.72032 17:0 18:0 19:-1 20:-240 #
5.7754267372695187998925953065665e-05 1:0 2:0 3:1.61669 4:0.31637299 5:4.6490698 6:3.1145999 7:0.81370699 8:0.36728001 9:1.39124 10:2.62289 11:67.656998 12:30.8461 13:0.222222 14:0.651357 15:0.81588101 16:18.570999 17:0 18:0 19:1 20:212 #
5.7754267372695187998925953065665e-05 1:2 2:55 3:1.32855 4:3.0213101 5:1.86105 6:0.57881999 7:0.98661202 8:0.659877 9:1.04939 10:0.28008601 11:19.2062 12:56.578602 13:0.33333299 14:0.41900101 15:0.78880602 16:5.56493 17:7 18:74.428596 19:11 20:131.364 #
5.7754267372695187998925953065665e-05 1:-1 2:-6 3:2.3961 4:3.0373499 5:3.56391 6:3.6330099 7:2.10672 8:1.4421999 9:2.71331 10:6.29072 11:86.144699 12:18.973801 13:0.66666698 14:0.70907903 15:0.85828102 16:22.7812 17:-1 18:-6 19:7 20:176.25 #
5.7754267372695187998925953065665e-05 1:0 2:4 3:1.88051 4:1.08003 5:2.27529 6:0.99092603 7:0.092928901 8:0.96782702 9:0.174676 10:0.134941 11:16.184299 12:84.772003 13:0.444444 14:0.93629003 15:0.90798199 16:4.6957302 17:0 18:4 19:7 20:236.25 #
-5.7754267372695187998925953065665e-05 1:1 2:60 3:2.1278901 4:0.46842 5:2.8994401 6:2.34864 7:0.29716501 8:0.29861999 9:0.39112499 10:0.16899 11:8.7904396 12:81.645203 13:0.33333299 14:0.60626799 15:0.844486 16:2.5564599 17:1 18:60 19:1 20:-60 #
-5.7754267372695187998925953065665e-05 1:-1 2:-8 3:2.0056801 4:1.28535 5:3.9503 6:1.64215 7:0.851147 8:0.51096702 9:3.4060099 10:0.988383 11:55.910702 12:9.9521599 13:0.66666698 14:0.730757 15:0.829889 16:15.6379 17:-1 18:-8 19:-1 20:-8 #
5.7754267372695187998925953065665e-05 1:-4 2:-46 3:1.57664 4:0.37712401 5:1.43819 6:1.32575 7:0.57917202 8:0.50935 9:0.72199202 10:0.226206 11:15.322 12:66.457001 13:0.444444 14:0.82404 15:0.81478202 16:4.4470901 17:-4 18:-46 19:1 20:212.8 #
5.7754267372695187998925953065665e-05 1:3 2:38.666698 3:1.11646 4:0.576478 5:3.3443799 6:2.5554399 7:0.18960001 8:0.40124699 9:0.45847699 10:0.143905 11:12.6423 12:89.5158 13:0.222222 14:0.75262398 15:0.88415498 16:3.6728201 17:3 18:38.666698 19:3 20:38.666698 #
5.7754267372695187998925953065665e-05 1:1 2:11 3:2.31304 4:2.0929999 5:1.93047 6:0.98131102 7:0.191191 8:1.0034 9:1.16482 10:0.149948 11:3.1471601 12:58.125801 13:0.444444 14:0.63718498 15:0.851601 16:0.91604698 17:1 18:11 19:-3 20:-69.400002 #
5.7754267372695187998925953065665e-05 1:0 2:-22 3:2.7493 4:1.56787 5:2.1364601 6:0.59272999 7:0.649041 8:0.61699098 9:1.18484 10:0.034013901 11:4.5427299 12:52.251301 13:0.33333299 14:0.74231702 15:0.96916401 16:1.32208 17:1 18:16 19:1 20:16 #
-5.7754267372695187998925953065665e-05 1:0 2:50 3:2.24949 4:1.9857301 5:1.4639 6:1.34087 7:0.32661 8:0.52158701 9:0.73103899 10:0.148302 11:5.9651299 12:59.992001 13:0.66666698 14:0.48685801 15:0.85758001 16:1.73571 17:0 18:50 19:-1 20:-58 #
5.7754267372695187998925953065665e-05 1:-1 2:-3 3:1.65474 4:4.2750702 5:2.5817299 6:0.99367303 7:0.35324499 8:0.91088301 9:0.99705201 10:1.61278 11:77.2649 12:89.229202 13:0.222222 14:0.69910699 15:0.646492 16:20.8265 17:-1 18:-3 19:3 20:221.39999 #
5.7754267372695187998925953065665e-05 1:0 2:0 3:1.47264 4:0.77534199 5:0.783665 6:0.76783901 7:1.1399601 8:1.84105 9:2.2374899 10:0.059060499 11:1.71452 12:39.645599 13:0.33333299 14:0.72657001 15:0.94141001 16:0.49909201 17:0 18:0 19:3 20:214.66701 #
5.7754267372695187998925953065665e-05 1:0 2:0 3:2.90134 4:1.1386499 5:2.9242101 6:2.1700301 7:0.59928399 8:0.73494601 9:1.17607 10:0.24101301 11:22.9895 12:84.392899 13:0.222222 14:0.42688701 15:0.843925 16:6.6476302 17:0 18:0 19:7 20:232.571 #
5.7754267372695187998925953065665e-05 1:1 2:3 3:2.1528001 4:5.47333 5:3.44279 6:7.5885301 7:5.3488202 8:1.54036 9:3.3303199 10:2.6199901 11:73.625702 12:12.7503 13:0.166667 14:0.70578301 15:0.818923 16:19.988501 17:1 18:3 19:-1 20:-147 #
5.7754267372695187998925953065665e-05 1:-1 2:-46 3:1.5511301 4:0.64977098 5:1.99918 6:0.72138 7:1.7702399 8:0.25982499 9:1.8692 10:1.8692 11:70.867996 12:30.1042 13:0.444444 14:0.64964598 15:0.707847 16:19.340099 17:-1 18:-46 19:5 20:173.33299 #
5.7754267372695187998925953065665e-05 1:3 2:34 3:2.4315801 4:0.605308 5:1.57445 6:1.1368901 7:0.78274 8:0.76823401 9:2.20366 10:4.6939998 11:75.915001 12:27.700899 13:0.33333299 14:0.72176403 15:0.759942 16:20.518 17:2 18:-51.5 19:-3 20:-82.214302 #
5.7754267372695187998925953065665e-05 1:0 2:0 3:1.5252 4:3.27284 5:0.76073098 6:0.91085601 7:0.50421798 8:0.75234401 9:0.55222702 10:0.049106799 11:6.5184898 12:74.634697 13:0.444444 14:0.64726102 15:0.9576 16:1.89656 17:0 18:0 19:3 20:232.66701 #
5.7754267372695187998925953065665e-05 1:5 2:10 3:1.5176899 4:1.33109 5:1.94528 6:1.56776 7:0.142113 8:1.79749 9:0.23508801 10:0.082742997 11:14.0412 12:89.5681 13:0.444444 14:0.82722902 15:0.950248 16:4.0773001 17:3 18:-43.333302 19:5 20:13.4 #
5.7754267372695187998925953065665e-05 1:2 2:36 3:2.24964 4:1.92637 5:0.82680398 6:1.20593 7:0.146448 8:0.22865701 9:0.322099 10:3.1763699 11:76.232399 12:79.368599 13:0.444444 14:0.877276 15:0.86738902 16:20.590799 17:2 18:36 19:1 20:-218 #
5.7754267372695187998925953065665e-05 1:0 2:-1 3:2.2453201 4:4.7312999 5:1.42579 6:9.1963301 7:0.51320702 8:0.68147099 9:4.0708199 10:4.0708199 11:86.0616 12:19.8337 13:0.33333299 14:0.78441 15:0.80810797 16:22.763599 17:2 18:33 19:1 20:-38.333302 #
-5.7754267372695187998925953065665e-05 1:-3 2:-14.5 3:2.4054101 4:1.7056299 5:10.5819 6:1.11146 7:1.48285 8:1.3587199 9:2.0904701 10:0.61581498 11:40.9259 12:54.307301 13:0.33333299 14:0.82103401 15:0.81100202 16:11.6622 17:-3 18:-14.5 19:0 20:113.429 #
-5.7754267372695187998925953065665e-05 1:0 2:-1 3:3.0513401 4:6.4637198 5:5.0729399 6:3.71227 7:0.96188599 8:0.64253002 9:1.35962 10:2.8789599 11:71.7612 12:70.906197 13:0.444444 14:0.85271299 15:0.89971799 16:19.5513 17:0 18:-1 19:0 20:-1 #
5.7754267372695187998925953065665e-05 1:1 2:-21 3:3.9993701 4:1.73295 5:1.50793 6:2.34361 7:0.39579701 8:0.76998401 9:0.94759101 10:0.074632898 11:10.7775 12:47.1982 13:0.33333299 14:0.73834097 15:0.94389099 16:3.1328101 17:1 18:-21 19:-3 20:-212.60001 #
-5.7754267372695187998925953065665e-05 1:0 2:-4 3:2.31724 4:1.49852 5:3.18522 6:4.3656301 7:0.87742001 8:1.11358 9:1.17978 10:1.17978 11:54.385201 12:35.6306 13:0.444444 14:0.92155898 15:0.87819701 16:15.2443 17:0 18:-4 19:-1 20:58.333302 #
5.7754267372695187998925953065665e-05 1:0 2:0 3:2.7230201 4:0.73185098 5:1.43731 6:3.1071801 7:0.755418 8:0.242052 9:1.02657 10:0.88193899 11:58.862202 12:51.873299 13:0.222222 14:0.74307603 15:0.81945002 16:16.3916 17:0 18:0 19:6 20:211 #
5.7754267372695187998925953065665e-05 1:0 2:0 3:2.1632099 4:4.59693 5:1.68092 6:1.94514 7:0.270915 8:0.26382601 9:0.66773301 10:0.084579401 11:7.0994501 12:73.272301 13:0.222222 14:0.43789399 15:0.92327201 16:2.0653901 17:0 18:0 19:0 20:0 #
-5.7754267372695187998925953065665e-05 1:1 2:7 3:1.80609 4:4.3029299 5:1.05513 6:0.74317503 7:1.31396 8:0.17149299 9:0.63941997 10:0.99806201 11:73.679604 12:74.035698 13:0.166667 14:0.84764498 15:0.64654303 16:20.001101 17:1 18:7 19:1 20:-79.5 #
5.7754267372695187998925953065665e-05 1:0 2:0 3:1.97122 4:0.43107301 5:0.91457403 6:1.0096 7:0.80199403 8:1.13946 9:1.69175 10:0.15679801 11:13.5999 12:50.336201 13:0.33333299 14:0.56629097 15:0.87256998 16:3.9497499 17:-2 18:-77 19:-6 20:-165.66701 #
5.7754267372695187998925953065665e-05 1:2 2:35.333302 3:2.16696 4:1.04553 5:1.62183 6:1.76516 7:4.5492301 8:1.1663001 9:1.54177 10:3.8569801 11:87.206299 12:26.181499 13:0.222222 14:0.50957602 15:0.775271 16:23.006001 17:5 18:53.666698 19:7 20:84 #
5.7754267372695187998925953065665e-05 1:0 2:0 3:1.77509 4:3.1665599 5:2.8757901 6:1.4355 7:0.46538001 8:0.466627 9:1.03956 10:1.20631 11:71.998398 12:43.026199 13:0.222222 14:0.66978598 15:0.626095 16:19.607201 17:0 18:0 19:-3 20:-175.33299 #
-5.7754267372695187998925953065665e-05 1:-1 2:-7 3:1.52915 4:1.9453 5:4.1010299 6:0.80163199 7:0.85547602 8:2.4529901 9:1.32757 10:1.44973 11:63.0639 12:35.0098 13:0.166667 14:0.41721001 15:0.80663198 16:17.445601 17:-1 18:-7 19:-1 20:-7 #
5.7754267372695187998925953065665e-05 1:0 2:-14.5 3:2.61991 4:1.18778 5:3.5859399 6:0.791803 7:0.76316297 8:0.637438 9:0.80487502 10:3.1774399 11:86.535202 12:89.514198 13:0.33333299 14:0.85041201 15:0.82408702 16:22.8641 17:0 18:-14.5 19:4 20:164.39999 #
5.7754267372695187998925953065665e-05 1:3 2:12.5 3:1.9148 4:2.1205699 5:0.80318201 6:1.73681 7:1.03482 8:0.087477401 9:1.37757 10:4.6903701 11:80.512497 12:51.553398 13:0.222222 14:0.65232599 15:0.822523 16:21.556499 17:3 18:12.5 19:-4 20:-178.25 #
-5.7754267372695187998925953065665e-05 1:-1 2:-31 3:1.83226 4:1.14887 5:11.2317 6:2.75811 7:1.90097 8:1.90131 9:3.6073999 10:0.99890202 11:55.361198 12:24.488501 13:0.66666698 14:0.83030099 15:0.87317997 16:15.4964 17:-1 18:-31 19:-3 20:-133.5 #
5.7754267372695187998925953065665e-05 1:0 2:0 3:1.28089 4:0.72204202 5:2.11092 6:0.814219 7:0.32320899 8:0.65189201 9:0.86019701 10:0.86019701 11:53.127899 12:73.103401 13:0.33333299 14:0.75375098 15:0.78279102 16:14.9178 17:0 18:0 19:7 20:211.14301 #
-5.7754267372695187998925953065665e-05 1:1 2:17.75 3:2.98298 4:1.28035 5:2.95153 6:0.82135701 7:0.192312 8:0.89978403 9:0.162681 10:0.162681 11:3.3239 12:87.560898 13:0.444444 14:0.92984498 15:0.83920902 16:0.96747702 17:2 18:57.5 19:2 20:-217 #
5.7754267372695187998925953065665e-05 1:-2 2:-14.5 3:1.65674 4:1.34714 5:3.1103101 6:1.54606 7:0.541816 8:1.69453 9:1.7321 10:2.71559 11:80.497704 12:33.071701 13:0.444444 14:0.53529203 15:0.59984601 16:21.5532 17:-2 18:-14.5 19:-1 20:108.5 #
-5.7754267372695187998925953065665e-05 1:-1 2:-5.75 3:1.21975 4:1.17672 5:3.1814699 6:0.42467299 7:0.44942901 8:0.70564598 9:1.31835 10:0.25634599 11:20.9839 12:47.307301 13:1 14:0.93008101 15:0.83200198 16:6.0744901 17:-1 18:-5.75 19:5 20:245.875 #
5.7754267372695187998925953065665e-05 1:0 2:0 3:3.75366 4:1.48961 5:3.12938 6:1.7902 7:0.20481201 8:0.321969 9:0.57393003 10:0.82571 11:52.676399 12:73.534401 13:0.33333299 14:0.69727999 15:0.89763498 16:14.8001 17:0 18:0 19:-1 20:-210 #
-5.7754267372695187998925953065665e-05 1:1 2:7 3:1.6343 4:0.415804 5:1.2377501 6:0.29099301 7:0.30859199 8:0.54235297 9:0.114664 10:0.114161 11:11.7008 12:81.417603 13:0.33333299 14:0.89752197 15:0.909917 16:3.40027 17:1 18:7 19:0 20:-260 #
-5.7754267372695187998925953065665e-05 1:0 2:0 3:8.9728804 4:0.47354999 5:2.8576801 6:0.854734 7:0.50283498 8:0.71255302 9:1.64947 10:0.110258 11:14.0043 12:63.5965 13:0.444444 14:0.93971801 15:0.92008299 16:4.0666299 17:0 18:0 19:4 20:235.125 #
5.7754267372695187998925953065665e-05 1:0 2:0 3:2.41222 4:4.6181502 5:7.5907402 6:0.97673202 7:0.22318301 8:0.48412701 9:1.05531 10:0.099168502 11:1.99321 12:41.7952 13:0.33333299 14:0.573659 15:0.90144801 16:0.58021098 17:0 18:0 19:5 20:209.2 #
-5.7754267372695187998925953065665e-05 1:0 2:0 3:1.98747 4:1.87358 5:2.00229 6:4.45153 7:1.91715 8:0.194068 9:0.95770299 10:0.86931998 11:47.423901 12:88.177597 13:0.66666698 14:0.67860901 15:0.764534 16:13.4147 17:1 18:92.5 19:2 20:193.75 #
5.7754267372695187998925953065665e-05 1:5 2:26.799999 3:1.8395 4:0.21383899 5:1.34018 6:0.53282303 7:1.09393 8:0.97329903 9:3.6421299 10:7.3645501 11:86.829399 12:12.746 13:0.444444 14:0.77687401 15:0.84499198 16:22.926399 17:5 18:26.799999 19:3 20:-113.857 #
5.7754267372695187998925953065665e-05 1:-2 2:-24 3:4.5539398 4:0.55487502 5:0.95665699 6:0.624493 7:0.97112697 8:0.73549098 9:1.05135 10:0.0217348 11:9.3552399 12:70.8535 13:0.222222 14:0.675448 15:0.99185801 16:2.72036 17:-2 18:-24 19:1 20:217.33299 #
-5.7754267372695187998925953065665e-05 1:0 2:-56 3:2.1007199 4:1.83785 5:1.70566 6:0.62038499 7:0.77049297 8:0.64067101 9:0.90114999 10:0.47030601 11:38.911499 12:89.558601 13:1 14:0.86909997 15:0.80958599 16:11.111 17:0 18:-56 19:-5 20:-231.33299 #
5.7754267372695187998925953065665e-05 1:0 2:0 3:1.7453001 4:1.21601 5:2.02879 6:0.97231197 7:0.27182999 8:0.25717801 9:0.92815602 10:0.035822101 11:8.4716396 12:84.987297 13:0.33333299 14:0.903925 15:0.97548002 16:2.4639201 17:0 18:0 19:-1 20:-228 #
-5.7754267372695187998925953065665e-05 1:4 2:26 3:2.24544 4:17.6269 5:3.4472599 6:1.76407 7:0.516177 8:0.39281699 9:1.16122 10:1.06284 11:63.0494 12:57.095402 13:0.33333299 14:0.67746598 15:0.77161902 16:17.441999 17:4 18:26 19:3 20:-262 #
5.7754267372695187998925953065665e-05 1:4 2:26.5 3:1.54281 4:3.95157 5:2.6531 6:0.206697 7:0.56279099 8:0.15782499 9:0.54980499 10:0.35504299 11:17.8398 12:73.003502 13:0.166667 14:0.86729401 15:0.70816398 16:5.1723599 17:4 18:26.5 19:3 20:-223.2 #
5.7754267372695187998925953065665e-05 1:0 2:0 3:6.94561 4:35.710602 5:2.92454 6:0.266673 7:0.72110498 8:0.70628899 9:0.36192101 10:0.615381 11:47.479 12:88.863297 13:0.33333299 14:0.95838797 15:0.89440298 16:13.4294 17:0 18:0 19:4 20:187.25 #
-5.7754267372695187998925953065665e-05 1:0 2:0 3:5.3289499 4:0.50090301 5:2.01792 6:0.79113501 7:0.26405901 8:0.26122999 9:0.299328 10:0.0519449 11:12.8135 12:89.959099 13:0.444444 14:0.97349399 15:0.97396702 16:3.7223401 17:-1 18:-96 19:-3 20:-130.66701 #
5.7754267372695187998925953065665e-05 1:-1 2:-16 3:2.61674 4:1.90043 5:5.1911998 6:1.7805901 7:0.59999901 8:0.36359 9:1.30086 10:1.30086 11:77.512398 12:70.242599 13:0.33333299 14:0.79950202 15:0.70025998 16:20.8827 17:0 18:82 19:0 20:82 #
-5.7754267372695187998925953065665e-05 1:0 2:0 3:2.2609301 4:0.391269 5:6.7063799 6:1.45455 7:0.32427701 8:0.64908397 9:0.92002499 10:0.93066502 11:53.743698 12:53.8116 13:0.444444 14:0.59684801 15:0.82743102 16:15.0779 17:0 18:0 19:0 20:0 #
-5.7754267372695187998925953065665e-05 1:0 2:0 3:1.14718 4:14.0697 5:1.93389 6:0.56875098 7:0.092110798 8:0.45976299 9:0.115782 10:0.115782 11:6.8228002 12:83.398903 13:0.444444 14:0.84490001 15:0.89212602 16:1.985 17:0 18:0 19:-1 20:-233 #
5.7754267372695187998925953065665e-05 1:-1 2:-6 3:3.11762 4:1.47492 5:0.93362999 6:1.57886 7:0.166169 8:0.262999 9:0.91820198 10:0.38199401 11:29.554199 12:66.727997 13:0.444444 14:0.78443301 15:0.72723299 16:8.5084 17:-1 18:-6 19:8 20:203.11099 #
-5.7754267372695187998925953065665e-05 1:4 2:31 3:2.2907901 4:3.15382 5:3.3148201 6:1.61364 7:0.63089901 8:0.420847 9:1.10843 10:0.086388603 11:3.63152 12:83.513 13:0.33333299 14:0.62005299 15:0.91564202 16:1.05699 17:6 18:44.666698 19:6 20:44.666698 #
-5.7754267372695187998925953065665e-05 1:2 2:20.25 3:2.0569799 4:1.57934 5:0.667234 6:0.36545399 7:0.336052 8:0.36619401 9:0.23440801 10:0.029234501 11:1.66283 12:87.833099 13:1 14:0.94477803 15:0.97120398 16:0.484047 17:2 18:20.25 19:2 20:20.25 #
-5.7754267372695187998925953065665e-05 1:-3 2:-22.6667 3:1.8378299 4:8.1298599 5:13.2295 6:1.43375 7:2.4486001 8:2.0727 9:3.3223 10:1.64353 11:61.4524 12:20.8592 13:0.166667 14:0.80367601 15:0.69995499 16:17.0441 17:-3 18:-22.6667 19:-4 20:-71.5 #
5.7754267372695187998925953065665e-05 1:0 2:0 3:1.38508 4:5.45049 5:2.6292601 6:1.76882 7:0.59690398 8:0.57220697 9:0.70533401 10:0.15527 11:15.5346 12:69.3069 13:0.33333299 14:0.77265298 15:0.88400197 16:4.5084 17:0 18:0 19:-1 20:-222 #
5.7754267372695187998925953065665e-05 1:0 2:0 3:2.0931699 4:0.511002 5:2.01917 6:0.82429898 7:0.110356 8:0.402309 9:1.02565 10:0.046346098 11:6.1975498 12:84.911301 13:1 14:0.82866901 15:0.95958698 16:1.80328 17:0 18:0 19:5 20:199.60001 #
-5.7754267372695187998925953065665e-05 1:4 2:33.5 3:1.84452 4:1.68481 5:1.77997 6:0.51486099 7:0.428911 8:1.3114001 9:2.7351501 10:0.048845101 11:4.2385898 12:10.0207 13:0.33333299 14:0.64610499 15:0.95406699 16:1.23361 17:4 18:33.5 19:4 20:33.5 #
5.7754267372695187998925953065665e-05 1:6 2:24 3:2.6354401 4:0.26200601 5:1.74798 6:1.48571 7:1.04644 8:0.59065598 9:0.75102699 10:1.6103801 11:84.711899 12:81.758003 13:0.33333299 14:0.86539698 15:0.68012798 16:22.4748 17:6 18:24 19:3 20:-190.05 #
5.7754267372695187998925953065665e-05 1:0 2:0 3:1.40265 4:1.05463 5:2.9767001 6:1.34877 7:0.192105 8:1.07537 9:1.3019201 10:0.090060897 11:3.9258599 12:67.124001 13:0.166667 14:0.53272599 15:0.91243303 16:1.14262 17:0 18:0 19:3 20:201.5 #
5.7754267372695187998925953065665e-05 1:4 2:37 3:1.65062 4:0.446706 5:1.42145 6:0.37106401 7:0.29470399 8:0.48240501 9:0.805062 10:0.106528 11:5.8880901 12:50.391399 13:0.222222 14:0.757348 15:0.89892 16:1.71332 17:3 18:-27 19:0 20:-35.333302 #
5.7754267372695187998925953065665e-05 1:0 2:0 3:1.12169 4:4.02356 5:2.90205 6:1.97207 7:0.16390701 8:1.05349 9:2.0581701 10:0.26522401 11:13.0473 12:13.5497 13:0.222222 14:0.54725999 15:0.76580399 16:3.7899799 17:0 18:0 19:1 20:174 #
-5.7754267372695187998925953065665e-05 1:0 2:0 3:4.1050901 4:3.8612399 5:1.53114 6:1.70406 7:0.66002703 8:0.50721103 9:2.06707 10:0.493642 11:42.6063 12:87.027298 13:0.33333299 14:0.865502 15:0.92012697 16:12.1192 17:-2 18:-95 19:-1 20:41 #
5.7754267372695187998925953065665e-05 1:-2 2:-42 3:1.12745 4:3.8951499 5:7.31076 6:1.6950999 7:0.45202199 8:0.48399901 9:0.44610599 10:0.17698701 11:8.1835003 12:71.5205 13:0.166667 14:0.74987298 15:0.834719 16:2.38026 17:-2 18:-42 19:2 20:169 #
-5.7754267372695187998925953065665e-05 1:2 2:27 3:1.86879 4:1.2082601 5:14.6918 6:2.70735 7:2.3483 8:0.985515 9:1.70385 10:1.3263299 11:60.062 12:41.915298 13:0.166667 14:0.78716803 15:0.74616402 16:16.694901 17:2 18:27 19:-2 20:-238.5 #
-5.7754267372695187998925953065665e-05 1:1 2:6 3:1.43402 4:1.48769 5:4.0310798 6:0.75719899 7:0.388477 8:0.72769397 9:0.179195 10:0.179195 11:17.7164 12:73.108299 13:0.222222 14:0.84281301 15:0.877644 16:5.1368599 17:2 18:44 19:2 20:44 #
5.7754267372695187998925953065665e-05 1:0 2:0 3:2.21141 4:0.40936601 5:3.24405 6:2.9535 7:0.51612997 8:0.906111 9:0.67771 10:0.10672 11:9.8641596 12:71.736504 13:0.166667 14:0.81064397 15:0.90899497 16:2.86799 17:0 18:0 19:3 20:201.5 #
-5.7754267372695187998925953065665e-05 1:0 2:-8 3:2.48629 4:3.02564 5:2.76545 6:4.5702 7:0.51785702 8:0.98425603 9:1.6742899 10:1.6742899 11:67.918602 12:51.971199 13:0.222222 14:0.67467397 15:0.78198099 16:18.634199 17:0 18:-8 19:-4 20:-137.33299 #
5.7754267372695187998925953065665e-05 1:2 2:34 3:1.91574 4:2.78107 5:1.24341 6:0.54262298 7:0.62113303 8:0.26438099 9:1.05697 10:0.0494349 11:8.76717 12:52.9142 13:0.444444 14:0.70928103 15:0.96267402 16:2.5497 17:2 18:34 19:0 20:-215 #
5.7754267372695187998925953065665e-05 1:-3 2:-28 3:2.61853 4:1.09356 5:3.60535 6:1.22447 7:0.186111 8:0.38350499 9:0.370884 10:0.19806901 11:8.3153601 12:73.855598 13:0.33333299 14:0.79187697 15:0.812922 16:2.41854 17:-3 18:-28 19:1 20:187 #
-5.7754267372695187998925953065665e-05 1:1 2:41.375 3:1.8286999 4:0.261861 5:0.47301799 6:0.171005 7:0.052140899 8:0.325176 9:0.21725699 10:0.065917999 11:1.76879 12:80.354698 13:0.222222 14:0.81278801 15:0.93457901 16:0.514889 17:1 18:41.375 19:1 20:41.375 #
5.7754267372695187998925953065665e-05 1:0 2:-4 3:3.13305 4:6.7825198 5:2.91517 6:1.056 7:0.56102198 8:1.45927 9:1.77846 10:8.0416002 11:87.011002 12:82.820297 13:0.33333299 14:0.89681399 15:0.90268499 16:22.9648 17:0 18:-4 19:1 20:128 #
-5.7754267372695187998925953065665e-05 1:-2 2:-19 3:1.10021 4:1.0123399 5:3.1533699 6:0.88117898 7:0.45127901 8:0.498092 9:0.64424199 10:0.136474 11:15.5038 12:55.668201 13:0.444444 14:0.73006999 15:0.90741801 16:4.4995098 17:-2 18:-19 19:-3 20:47 #
5.7754267372695187998925953065665e-05 1:2 2:-10.6667 3:3.7341199 4:0.70827502 5:2.4263999 6:1.0342 7:0.098319203 8:0.90016103 9:0.40472901 10:0.0235033 11:8.3232203 12:72.721199 13:0.33333299 14:0.64288902 15:0.98723799 16:2.42082 17:2 18:-10.6667 19:-2 20:-217.067 #
-5.7754267372695187998925953065665e-05 1:1 2:6 3:1.63317 4:4.31358 5:1.6171401 6:1.88433 7:0.41164401 8:0.462558 9:1.29649 10:1.29649 11:65.333801 12:73.617203 13:0.66666698 14:0.89698601 15:0.842852 16:18.0054 17:1 18:6 19:2 20:53.166698 #
5.7754267372695187998925953065665e-05 1:4 2:19.5 3:2.0813 4:2.39446 5:1.67799 6:2.20293 7:0.875705 8:0.43016499 9:1.93098 10:1.24938 11:55.417999 12:44.8666 13:0.222222 14:0.75000501 15:0.77542001 16:15.5111 17:4 18:19.5 19:-3 20:-191.55 #
-5.7754267372695187998925953065665e-05 1:0 2:0 3:1.72088 4:1.7812001 5:0.36699399 6:2.50086 7:0.80035102 8:1.15416 9:1.2492 10:0.72581899 11:47.5924 12:67.139603 13:0.33333299 14:0.454779 15:0.62957501 16:13.4596 17:0 18:0 19:-1 20:-235.75 #
-5.7754267372695187998925953065665e-05 1:0 2:-40 3:2.6000099 4:2.15624 5:1.7322299 6:1.83637 7:0.67865503 8:0.30983701 9:0.73021799 10:0.266532 11:26.7897 12:82.125999 13:0.444444 14:0.96003199 15:0.88538003 16:7.7278399 17:0 18:-40 19:3 20:39.5 #
-5.7754267372695187998925953065665e-05 1:5 2:37.799999 3:1.62602 4:0.75407797 5:1.6354899 6:0.52880001 7:0.163203 8:1.14078 9:0.26574299 10:0.074153997 11:4.4250102 12:85.852699 13:0.444444 14:0.76032799 15:0.92896003 16:1.28783 17:5 18:37.799999 19:5 20:37.799999 #
-5.7754267372695187998925953065665e-05 1:0 2:1.25 3:1.89996 4:1.98838 5:2.0884399 6:0.55898899 7:0.94759399 8:0.28269601 9:0.31940901 10:0.202573 11:14.1496 12:89.371597 13:0.66666698 14:0.786403 15:0.83212101 16:4.1086102 17:1 18:42.25 19:1 20:42.25 #
5.7754267372695187998925953065665e-05 1:4 2:16.4 3:2.82461 4:2.5664201 5:2.8071401 6:0.97305 7:1.4861799 8:0.62378103 9:0.99465001 10:1.66846 11:82.234497 12:55.269901 13:0.33333299 14:0.74207598 15:0.73718798 16:21.9366 17:4 18:16.4 19:1 20:-159.10001 #
-5.7754267372695187998925953065665e-05 1:1 2:10 3:2.8698001 4:3.2434299 5:5.1035099 6:4.3654399 7:2.9549601 8:0.75847799 9:2.1170001 10:2.1170001 11:72.084801 12:56.032398 13:0.33333299 14:0.85191298 15:0.84872299 16:19.6276 17:0 18:-86 19:-2 20:-96 #
5.7754267372695187998925953065665e-05 1:0 2:0 3:1.46991 4:8.3117104 5:1.08412 6:1.76799 7:0.27137399 8:0.28292799 9:0.32901701 10:0.26503199 11:21.636299 12:71.287003 13:0.222222 14:0.88105398 15:0.81377101 16:6.2611299 17:1 18:61 19:-2 20:-206 #
5.7754267372695187998925953065665e-05 1:1 2:6 3:3.2269199 4:1.64792 5:0.961577 6:1.13536 7:0.48439601 8:0.28417099 9:1.95579 10:0.034404501 11:8.4087296 12:72.430801 13:0.66666698 14:0.89427602 15:0.976605 16:2.4456501 17:0 18:-64 19:-2 20:-185.66701 #
5.7754267372695187998925953065665e-05 1:0 2:0 3:2.0074999 4:0.89491397 5:0.836173 6:1.2426701 7:0.64827901 8:0.66153902 9:0.65188098 10:3.3359201 11:81.723 12:80.738197 13:1 14:0.81262702 15:0.814915 16:21.8242 17:1 18:80 19:1 20:-155 #
5.7754267372695187998925953065665e-05 1:-2 2:-23 3:1.3492 4:0.79331797 5:4.7164001 6:1.31765 7:0.115984 8:0.38328701 9:0.55022502 10:0.325284 11:24.946899 12:86.123901 13:0.166667 14:0.77990198 15:0.77981001 16:7.2050099 17:-2 18:-23 19:-7 20:-202.571 #
5.7754267372695187998925953065665e-05 1:3 2:27.3333 3:2.0855701 4:1.19573 5:3.4993801 6:1.49213 7:0.27755901 8:0.61532998 9:0.89994001 10:0.47619101 11:39.0312 12:89.357002 13:0.166667 14:0.59983301 15:0.82101798 16:11.1439 17:3 18:27.3333 19:1 20:-203.66701 #
-5.7754267372695187998925953065665e-05 1:0 2:-2 3:1.4615099 4:0.61132699 5:3.02637 6:0.671628 7:0.100939 8:0.218641 9:0.217591 10:0.17104 11:18.6996 12:87.5131 13:0.222222 14:0.70959502 15:0.88627398 16:5.4194598 17:3 18:33 19:3 20:33 #
-5.7754267372695187998925953065665e-05 1:-2 2:-12 3:1.90907 4:1.37563 5:0.99484998 6:0.39469799 7:0.363197 8:0.45848599 9:0.142478 10:0.064851701 11:9.3470802 12:89.386299 13:0.33333299 14:0.90955901 15:0.94930601 16:2.7179899 17:-2 18:-12 19:-2 20:-12 #
5.7754267372695187998925953065665e-05 1:5 2:19.3333 3:2.744 4:0.44286501 5:2.16224 6:3.7607701 7:0.288809 8:0.28272399 9:0.22390699 10:0.13020501 11:15.5623 12:88.534798 13:0.66666698 14:0.85789597 15:0.90830898 16:4.5163898 17:5 18:19.3333 19:4 20:-29.6667 #
-5.7754267372695187998925953065665e-05 1:0 2:36.75 3:3.3118999 4:1.15446 5:2.5035801 6:0.44734401 7:0.26429999 8:0.41885099 9:0.29387799 10:0.15445299 11:9.9627104 12:86.371101 13:0.444444 14:0.81817001 15:0.86069697 16:2.89657 17:1 18:40.375 19:0 20:-0.5 #
5.7754267372695187998925953065665e-05 1:-1 2:-38 3:1.40951 4:7.02981 5:1.50187 6:2.1006801 7:0.485268 8:0.60025901 9:0.39388499 10:1.35923 11:66.688499 12:77.472099 13:0.166667 14:0.54691499 15:0.84823501 16:18.3361 17:-2 18:-61 19:-1 20:77 #
-5.7754267372695187998925953065665e-05 1:-2 2:-16.5 3:1.95037 4:0.29887399 5:2.1870401 6:0.651344 7:0.47055101 8:0.64143401 9:0.89682698 10:0.89682698 11:53.074299 12:63.344101 13:0.66666698 14:0.79960901 15:0.84083301 16:14.9038 17:-2 18:-16.5 19:0 20:165.5 #
5.7754267372695187998925953065665e-05 1:1 2:38 3:2.5573001 4:2.5390799 5:1.03879 6:0.74735302 7:0.73738098 8:0.425365 9:0.51329899 10:0.0308202 11:8.5349703 12:89.907303 13:0.222222 14:0.45031899 15:0.98052597 16:2.4823 17:1 18:38 19:2 20:159 #
-5.7754267372695187998925953065665e-05 1:2 2:54 3:1.60326 4:0.34857699 5:1.42949 6:0.74089098 7:0.25168401 8:0.78603703 9:0.72410399 10:0.071245797 11:8.0020905 12:88.5784 13:0.444444 14:0.59029299 15:0.93889302 16:2.32758 17:0 18:-28 19:2 20:31.5 #
5.7754267372695187998925953065665e-05 1:0 2:0 3:1.21951 4:2.85478 5:4.0448599 6:0.88490897 7:0.070321701 8:0.28009999 9:0.33690199 10:0.35501 11:24.9951 12:87.286301 13:0.166667 14:0.85336798 15:0.77180701 16:7.2186999 17:0 18:0 19:5 20:193.60001 #
-5.7754267372695187998925953065665e-05 1:1 2:29.75 3:1.66844 4:1.27204 5:0.93309098 6:0.67319697 7:0.29802799 8:0.85601097 9:1.76439 10:0.054086398 11:6.0650802 12:37.530602 13:0.33333299 14:0.69588298 15:0.95200998 16:1.76477 17:2 18:36.666698 19:2 20:36.666698 #
-5.7754267372695187998925953065665e-05 1:2 2:-22.6667 3:1.5224 4:1.06349 5:1.11496 6:1.17533 7:0.46353301 8:0.308314 9:0.47142801 10:0.0688629 11:10.9839 12:79.300903 13:0.444444 14:0.72246498 15:0.95085502 16:3.19261 17:2 18:-22.6667 19:3 20:25.25 #
5.7754267372695187998925953065665e-05 1:4 2:31.5 3:5.3634801 4:4.50034 5:2.8575699 6:2.00618 7:0.261181 8:1.85985 9:1.56058 10:1.3492301 11:84.2957 12:38.297699 13:0.166667 14:0.55146301 15:0.79346299 16:22.385099 17:4 18:31.5 19:3 20:-150.5 #
-5.7754267372695187998925953065665e-05 1:7 2:32.4286 3:3.62186 4:2.28703 5:1.09842 6:0.66993397 7:0.41022801 8:0.53461701 9:1.2625 10:0.183957 11:1.9694099 12:67.356102 13:0.166667 14:0.58602798 15:0.816773 16:0.573282 17:7 18:32.4286 19:7 20:32.4286 #
5.7754267372695187998925953065665e-05 1:-1 2:-5 3:2.46857 4:6.2275801 5:1.98149 6:1.48184 7:0.55871099 8:0.37133199 9:0.61549401 10:0.041216299 11:7.8044701 12:65.495598 13:0.444444 14:0.72346503 15:0.968337 16:2.27018 17:-1 18:-5 19:-1 20:-5 #
5.7754267372695187998925953065665e-05 1:1 2:38 3:1.45222 4:5.88902 5:1.97914 6:1.8635499 7:0.185818 8:0.83146 9:0.940014 10:0.117009 11:8.0432997 12:68.620201 13:0.66666698 14:0.75525397 15:0.89394301 16:2.33955 17:1 18:38 19:-2 20:-109.333 #
5.7754267372695187998925953065665e-05 1:3 2:14 3:4.7412 4:1.92272 5:1.94323 6:0.78405899 7:0.281409 8:0.99206698 9:0.86467397 10:3.9051299 11:88.700996 12:87.321602 13:1 14:0.71771699 15:0.780734 16:23.319099 17:3 18:14 19:-4 20:-108.756 #
-5.7754267372695187998925953065665e-05 1:0 2:-2 3:3.2374899 4:1.26412 5:1.64575 6:3.48294 7:1.75309 8:0.90442801 9:0.59416199 10:2.80477 11:77.406998 12:76.182198 13:0.66666698 14:0.843463 15:0.88444698 16:20.858801 17:1 18:31 19:-1 20:-113.667 #
5.7754267372695187998925953065665e-05 1:0 2:6 3:1.6923 4:2.2662799 5:1.57007 6:1.8045 7:1.41259 8:0.43232 9:1.08324 10:0.56213701 11:38.270699 12:55.317501 13:0.222222 14:0.55972803 15:0.77871197 16:10.9349 17:0 18:6 19:7 20:183.5 #
-5.7754267372695187998925953065665e-05 1:-3 2:-22 3:1.91425 4:10.8942 5:3.1354301 6:4.9293399 7:1.03597 8:1.32178 9:5.0011802 10:1.21521 11:65.096397 12:17.443001 13:0.66666698 14:0.90137601 15:0.73730803 16:17.947201 17:-1 18:44 19:-3 20:-55.200001 #
5.7754267372695187998925953065665e-05 1:2 2:36 3:3.71614 4:2.0919299 5:8.6768198 6:1.9260499 7:0.51006502 8:0.57098198 9:0.41681099 10:2.6289699 11:66.804398 12:89.856499 13:0.166667 14:0.76585799 15:0.89234799 16:18.3643 17:2 18:36 19:2 20:36 #
-5.7754267372695187998925953065665e-05 1:1 2:17.75 3:3.60903 4:0.591919 5:0.41957399 6:0.30471599 7:0.086674899 8:0.331236 9:0.154911 10:0.154911 11:20.828699 12:86.480499 13:0.444444 14:0.90726697 15:0.91886598 16:6.0300498 17:2 18:57.5 19:2 20:-217 #
-5.7754267372695187998925953065665e-05 1:3 2:14 3:2.44909 4:0.90960598 5:2.65922 6:2.5096099 7:0.84382403 8:0.908903 9:1.8943 10:0.89710301 11:51.151699 12:27.494499 13:0.33333299 14:0.544254 15:0.84879303 16:14.4011 17:2 18:-79 19:0 20:-88.333298 #
5.7754267372695187998925953065665e-05 1:-2 2:-21 3:1.87084 4:1.98964 5:1.9802999 6:0.26811701 7:1.1866 8:1.02307 9:5.91926 10:0.0809917 11:7.9091401 12:15.0926 13:0.444444 14:0.85494399 15:0.92880797 16:2.30059 17:-2 18:-21 19:3 20:184.2 #
-5.7754267372695187998925953065665e-05 1:-1 2:-5.5 3:1.69388 4:4.96453 5:0.391718 6:0.440386 7:0.198827 8:1.13741 9:1.61558 10:0.0971466 11:8.2788897 12:33.316502 13:0.33333299 14:0.693838 15:0.91377097 16:2.4079499 17:-1 18:-5.5 19:1 20:230.75 #
5.7754267372695187998925953065665e-05 1:0 2:0 3:3.20453 4:0.589122 5:1.55704 6:1.34531 7:0.45101801 8:1.0409499 9:1.53636 10:0.079005502 11:12.8827 12:81.827904 13:0.166667 14:0.92552 15:0.94865 16:3.7423699 17:0 18:0 19:-1 20:-206 #
-5.7754267372695187998925953065665e-05 1:0 2:0 3:1.20407 4:2.4507699 5:0.454234 6:0.23867001 7:0.292041 8:0.30385599 9:0.103113 10:0.0923324 11:13.9084 12:78.855598 13:1 14:0.89251298 15:0.93965501 16:4.0388999 17:0 18:0 19:-1 20:-231.5 #
-5.7754267372695187998925953065665e-05 1:-1 2:-8 3:2.2757599 4:1.5303299 5:0.94827598 6:0.35101399 7:0.38608599 8:0.18999299 9:0.98717999 10:0.34045801 11:27.4949 12:54.698898 13:0.33333299 14:0.67455 15:0.80684203 16:7.9274001 17:-1 18:-8 19:3 20:241.5 #
5.7754267372695187998925953065665e-05 1:6 2:27 3:1.4105901 4:1.13787 5:2.3064799 6:1.4327101 7:0.322157 8:1.76563 9:1.5862499 10:0.16952799 11:13.8102 12:31.645599 13:0.444444 14:0.63778698 15:0.86715001 16:4.01053 17:6 18:27 19:1 20:-207 #
5.7754267372695187998925953065665e-05 1:3 2:9 3:3.6280899 4:0.29195601 5:0.82750899 6:0.73023599 7:0.59208298 8:0.88697201 9:7.5245399 10:7.5245399 11:89.974899 12:26.4699 13:1 14:0.87820101 15:0.91894501 16:23.5828 17:6 18:32.857101 19:10 20:103.818 #
-5.7754267372695187998925953065665e-05 1:0 2:0 3:1.17028 4:2.7913699 5:1.87357 6:1.87054 7:0.159796 8:0.44526699 9:0.73190498 10:0.14764801 11:11.1919 12:82.283798 13:0.444444 14:0.79328799 15:0.87434697 16:3.2528801 17:0 18:0 19:-1 20:-227 #
-5.7754267372695187998925953065665e-05 1:0 2:0 3:1.82903 4:4.4425402 5:1.2167799 6:0.56665301 7:0.88557899 8:1.03473 9:1.1353101 10:0.089444101 11:7.8351598 12:39.154099 13:0.444444 14:0.549245 15:0.92121899 16:2.2790999 17:0 18:0 19:1 20:232 #
5.7754267372695187998925953065665e-05 1:4 2:35.125 3:1.35505 4:0.37939399 5:0.33343601 6:1.11156 7:0.191944 8:0.43090799 9:0.48226199 10:0.14417601 11:9.5742102 12:69.691704 13:0.166667 14:0.72430998 15:0.87195301 16:2.78389 17:4 18:35.125 19:4 20:35.125 #
-5.7754267372695187998925953065665e-05 1:0 2:0 3:1.30431 4:1.18393 5:9.4065304 6:2.4703 7:0.51573098 8:0.57465899 9:1.17504 10:0.26832801 11:10.4436 12:86.1138 13:0.33333299 14:0.49760699 15:0.75290298 16:3.03602 17:0 18:0 19:-3 20:-224.33299 #
-5.7754267372695187998925953065665e-05 1:3 2:42.666698 3:1.26122 4:2.7834699 5:0.25032699 6:0.772668 7:0.444271 8:0.30847299 9:0.35167199 10:0.35167199 11:26.6849 12:78.158096 13:1 14:0.75796598 15:0.774459 16:7.6981602 17:3 18:42.666698 19:0 20:-199 #
-5.7754267372695187998925953065665e-05 1:-4 2:-16.5 3:1.5095299 4:1.0598 5:1.7072099 6:0.67186099 7:0.30629599 8:0.41249001 9:1.60716 10:0.058574099 11:4.3207798 12:37.803799 13:0.444444 14:0.50560099 15:0.94442898 16:1.25752 17:-4 18:-16.5 19:-1 20:227.5 #
5.7754267372695187998925953065665e-05 1:0 2:0 3:2.04175 4:1.04969 5:1.37315 6:0.33126399 7:0.63682199 8:0.82339901 9:0.43730399 10:0.17851999 11:22.0063 12:88.351097 13:0.33333299 14:0.79935002 15:0.90824902 16:6.36689 17:0 18:0 19:4 20:188.75 #
-5.7754267372695187998925953065665e-05 1:0 2:0 3:5.1663299 4:0.55090803 5:1.8787301 6:0.62586302 7:1.2832299 8:1.02221 9:0.88608599 10:0.737719 11:50.377602 12:52.833302 13:1 14:0.94755101 15:0.88638997 16:14.1974 17:0 18:0 19:2 20:243.312 #
-5.7754267372695187998925953065665e-05 1:0 2:0 3:2.3030801 4:4.2312298 5:1.17849 6:1.22227 7:0.57323098 8:0.38190901 9:1.179 10:0.056074999 11:15.1863 12:83.856003 13:0.66666698 14:0.97215199 15:0.98114502 16:4.4079199 17:0 18:0 19:-1 20:-218 #
-5.7754267372695187998925953065665e-05 1:-1 2:0 3:1.63451 4:2.5179 5:2.6684301 6:0.994937 7:1.06147 8:1.3981301 9:1.60698 10:1.0419 11:52.908699 12:25.899401 13:0.33333299 14:0.551018 15:0.70365 16:14.8607 17:-1 18:0 19:2 20:46.133301 #
-5.7754267372695187998925953065665e-05 1:1 2:10.5 3:2.4651401 4:0.75613803 5:1.043 6:0.56477499 7:0.119034 8:1.4138499 9:0.36052701 10:0.024420399 11:3.9972799 12:80.226898 13:0.444444 14:0.65808702 15:0.97804302 16:1.1634001 17:1 18:10.5 19:0 20:-199 #
-5.7754267372695187998925953065665e-05 1:0 2:0 3:1.8375 4:3.0767801 5:1.99927 6:2.6100199 7:1.46075 8:0.53008199 9:1.3615 10:1.69833 11:68.038002 12:41.147499 13:0.33333299 14:0.85102701 15:0.821778 16:18.663 17:0 18:0 19:3 20:244.66701 #
-5.7754267372695187998925953065665e-05 1:0 2:2.5 3:1.57152 4:1.21316 5:0.41620901 6:2.5458901 7:0.467067 8:0.28651199 9:0.68202901 10:1.33795 11:67.454399 12:73.684097 13:0.222222 14:0.75741601 15:0.70786703 16:18.5219 17:0 18:-0.75 19:-2 20:-75.5 #
5.7754267372695187998925953065665e-05 1:0 2:0 3:1.3427 4:1.49727 5:2.2892001 6:1.47418 7:0.20103 8:0.28566399 9:0.73778999 10:1.00246 11:68.752098 12:86.450302 13:0.33333299 14:0.79214102 15:0.68923801 16:18.8349 17:0 18:0 19:3 20:139.5 #
-5.7754267372695187998925953065665e-05 1:0 2:0 3:4.2301002 4:5.8797498 5:1.83003 6:1.7472301 7:0.46552801 8:0.49952799 9:1.8741 10:1.05518 11:56.9366 12:88.693497 13:0.33333299 14:0.821356 15:0.89097399 16:15.9011 17:0 18:0 19:-1 20:-230 #
5.7754267372695187998925953065665e-05 1:-5 2:-28 3:2.2405601 4:5.73418 5:1.98645 6:0.83509201 7:0.12580501 8:0.367396 9:0.330538 10:0.0398301 11:1.5694799 12:80.353104 13:0.33333299 14:0.71025997 15:0.96056902 16:0.45687199 17:-5 18:-28 19:1 20:180.66701 #
5.7754267372695187998925953065665e-05 1:2 2:12.6667 3:1.7956001 4:1.6126601 5:2.1538701 6:0.96807599 7:0.836236 8:0.634148 9:2.21013 10:0.83862501 11:49.783401 12:37.417198 13:0.166667 14:0.73843002 15:0.693748 16:14.0407 17:2 18:12.6667 19:0 20:-180 #
-5.7754267372695187998925953065665e-05 1:0 2:0 3:2.41027 4:1.27438 5:2.3559899 6:2.01109 7:0.942738 8:0.281335 9:0.45978099 10:0.45978099 11:29.149401 12:61.260601 13:0.222222 14:0.69561303 15:0.72016001 16:8.3943996 17:1 18:92 19:1 20:-162.5 #
5.7754267372695187998925953065665e-05 1:-1 2:-4 3:3.20526 4:2.85671 5:6.7930298 6:5.1242499 7:3.94028 8:1.6894701 9:2.1219599 10:2.86764 11:89.569901 12:59.2953 13:0.222222 14:0.87012899 15:0.84731001 16:23.4993 17:-3 18:-20 19:-2 20:51.333302 #
5.7754267372695187998925953065665e-05 1:0 2:0 3:3.25666 4:2.05709 5:4.51791 6:0.85461497 7:0.45851699 8:1.69058 9:2.04108 10:0.090675503 11:8.3150101 12:58.4398 13:0.33333299 14:0.89120799 15:0.92008603 16:2.4184401 17:1 18:86 19:3 20:-48 #
5.7754267372695187998925953065665e-05 1:0 2:0 3:2.14941 4:0.41307899 5:1.7000901 6:1.1115201 7:1.2400399 8:0.221846 9:0.63219899 10:0.208932 11:23.332001 12:58.912601 13:0.222222 14:0.69544399 15:0.88216102 16:6.7452898 17:2 18:95 19:9 20:140.88901 #
5.7754267372695187998925953065665e-05 1:6 2:26 3:1.61015 4:2.7780499 5:1.8512599 6:0.46857399 7:0.20039099 8:0.49844 9:0.387189 10:0.226533 11:11.6931 12:61.3946 13:0.444444 14:0.76213402 15:0.79501897 16:3.3980401 17:6 18:26 19:2 20:-37.950001 #
5.7754267372695187998925953065665e-05 1:1 2:-10 3:2.5517199 4:0.95873702 5:3.01513 6:1.84878 7:0.24137799 8:0.438153 9:0.51150501 10:0.131859 11:8.1608696 12:62.367802 13:0.444444 14:0.66112602 15:0.87855399 16:2.3736899 17:1 18:-10 19:-7 20:-191.778 #
5.7754267372695187998925953065665e-05 1:0 2:-2 3:4.1863399 4:1.51627 5:1.05364 6:1.3382 7:0.63472003 8:1.12948 9:2.0680201 10:0.60695201 11:43.486099 12:66.064598 13:0.66666698 14:0.63741201 15:0.79950303 16:12.3575 17:0 18:-2 19:6 20:176.571 #
-5.7754267372695187998925953065665e-05 1:4 2:29.5 3:1.8930399 4:1.2048301 5:1.09969 6:0.69507098 7:0.15048601 8:0.87087202 9:0.322142 10:0.061915498 11:9.7210598 12:87.965698 13:0.66666698 14:0.92657697 15:0.95314598 16:2.8264799 17:4 18:29.5 19:3 20:-174.5 #
5.7754267372695187998925953065665e-05 1:4 2:34.75 3:1.79136 4:3.3526101 5:0.518987 6:1.12562 7:0.17003 8:0.58521903 9:0.29785901 10:0.29785901 11:12.8375 12:86.439903 13:0.33333299 14:0.72716802 15:0.72793102 16:3.72928 17:4 18:34.75 19:3 20:-67.25 #
5.7754267372695187998925953065665e-05 1:0 2:0 3:2.2453499 4:3.1555901 5:1.94873 6:1.32763 7:0.57627702 8:0.39791101 9:0.63859701 10:0.65050101 11:37.164001 12:73.226601 13:0.33333299 14:0.49391401 15:0.66903299 16:10.6301 17:0 18:0 19:-1 20:-185.75 #
-5.7754267372695187998925953065665e-05 1:0 2:0 3:1.73506 4:1.29301 5:2.4968801 6:2.12415 7:0.65828103 8:0.70508999 9:1.04889 10:1.04889 11:61.313801 12:61.299599 13:0.444444 14:0.932118 15:0.75120401 16:17.009399 17:0 18:0 19:1 20:234 #
-5.7754267372695187998925953065665e-05 1:-1 2:-50 3:3.2014201 4:1.19911 5:1.86106 6:0.45692101 7:0.48484001 8:0.62473398 9:0.737903 10:0.262761 11:25.7418 12:88.083 13:0.66666698 14:0.82591701 15:0.84572703 16:7.4307799 17:-1 18:-50 19:-4 20:-218.5 #
-5.7754267372695187998925953065665e-05 1:0 2:0 3:1.48668 4:0.29125801 5:0.576581 6:0.48551199 7:0.34568 8:0.72429299 9:1.881 10:0.080496602 11:6.9300199 12:28.983999 13:1 14:0.87661397 15:0.92719001 16:2.01615 17:0 18:0 19:1 20:212.5 #
-5.7754267372695187998925953065665e-05 1:0 2:0 3:3.69192 4:0.86697298 5:2.91448 6:0.639512 7:1.0949 8:0.52151 9:0.57824802 10:0.074047297 11:4.35109 12:84.472198 13:0.222222 14:0.85855401 15:0.92881399 16:1.26633 17:0 18:0 19:3 20:189.33299 #
5.7754267372695187998925953065665e-05 1:-1 2:-8 3:3.6356399 4:1.2809401 5:2.3538401 6:0.72676599 7:0.19011401 8:0.60593998 9:0.614694 10:17.365299 11:84.621201 12:56.571999 13:0.33333299 14:0.69933999 15:0.94719499 16:22.455299 17:-1 18:-8 19:-2 20:-97 #
-5.7754267372695187998925953065665e-05 1:4 2:31 3:2.2158599 4:1.22109 5:6.3820601 6:4.6538901 7:4.0831099 8:1.7639199 9:3.67607 10:2.49634 11:72.693703 12:34.9105 13:0.33333299 14:0.856601 15:0.85131598 16:19.7707 17:4 18:31 19:7 20:-98 #
-5.7754267372695187998925953065665e-05 1:-1 2:-56 3:1.99885 4:2.1203201 5:7.7103801 6:1.28237 7:0.37851501 8:0.41158101 9:0.53473502 10:0.056403801 11:1.81273 12:86.623299 13:0.444444 14:0.72720599 15:0.94411302 16:0.527677 17:-1 18:-56 19:-2 20:-136.5 #
-5.7754267372695187998925953065665e-05 1:-3 2:-7.75 3:1.92614 4:4.2698798 5:2.2565501 6:1.05848 7:0.95572501 8:1.14359 9:1.09192 10:1.09152 11:50.481098 12:51.249401 13:0.444444 14:0.65340501 15:0.75513297 16:14.2247 17:-3 18:-7.75 19:-5 20:-62 #
5.7754267372695187998925953065665e-05 1:3 2:1.6 3:3.57938 4:1.11696 5:2.08301 6:1.584 7:1.15057 8:0.83438098 9:2.7149701 10:1.31308 11:79.372002 12:16.687099 13:0.166667 14:0.66755998 15:0.69780701 16:21.302099 17:3 18:1.6 19:-1 20:-135.733 #
5.7754267372695187998925953065665e-05 1:1 2:4 3:4.8405099 4:0.65362501 5:3.41292 6:0.54715598 7:0.16232 8:0.379264 9:0.297876 10:0.089133002 11:7.3574901 12:89.028801 13:0.33333299 14:0.834194 15:0.91935003 16:2.1403501 17:1 18:4 19:5 20:182.39999 #
5.7754267372695187998925953065665e-05 1:2 2:-1.33333 3:1.8943599 4:1.0633 5:0.950239 6:0.52818501 7:0.731462 8:1.1040601 9:1.3216799 10:0.110873 11:11.0975 12:58.836498 13:0.222222 14:0.67912197 15:0.90853798 16:3.2255199 17:2 18:-1.33333 19:2 20:-1.33333 #
5.7754267372695187998925953065665e-05 1:7 2:11.75 3:3.9005899 4:1.2393 5:3.1012101 6:2.9054799 7:0.30605999 8:0.49913499 9:0.502078 10:2.17693 11:85.8172 12:89.036301 13:0.222222 14:0.60709 15:0.81372601 16:22.7115 17:9 18:19.200001 19:6 20:-129.3 #
-5.7754267372695187998925953065665e-05 1:0 2:0 3:2.3718901 4:4.8559299 5:3.6468401 6:0.88369298 7:0.23421 8:0.404421 9:0.58832502 10:0.58832502 11:45.748798 12:72.611801 13:0.444444 14:0.92710799 15:0.83393401 16:12.9669 17:0 18:0 19:-1 20:-224.25 #
5.7754267372695187998925953065665e-05 1:-2 2:-22 3:3.3861599 4:1.28291 5:0.49078599 6:0.51886398 7:0.49258599 8:0.85837197 9:2.19311 10:0.036419801 11:3.0930099 12:13.657 13:0.33333299 14:0.61169499 15:0.965132 16:0.900289 17:-2 18:-22 19:-3 20:143 #
-5.7754267372695187998925953065665e-05 1:-1 2:-12.5 3:2.2312901 4:4.9727702 5:3.85869 6:0.82453901 7:0.22191501 8:0.74629402 9:0.30871999 10:0.130795 11:10.5319 12:81.687798 13:0.33333299 14:0.85978401 15:0.88646501 16:3.0616 17:-1 18:-12.5 19:0 20:204.5 #
-5.7754267372695187998925953065665e-05 1:1 2:8 3:2.63276 4:3.3693299 5:3.8610301 6:0.68352401 7:0.790003 8:0.37723699 9:1.80336 10:0.17980599 11:16.0987 12:34.3694 13:0.66666698 14:0.85492003 15:0.86070597 16:4.6710701 17:4 18:62 19:0 20:-193.5 #
5.7754267372695187998925953065665e-05 1:-3 2:-20.6667 3:1.3016599 4:2.59993 5:1.62286 6:0.61796802 7:0.475339 8:0.47705001 9:0.83485198 10:0.32856601 11:24.0298 12:56.0425 13:0.444444 14:0.80375201 15:0.78320497 16:6.9441199 17:-3 18:-20.6667 19:2 20:160.933 #
5.7754267372695187998925953065665e-05 1:0 2:0 3:1.81546 4:1.41559 5:2.1961701 6:0.98237598 7:0.42172399 8:1.64063 9:2.3429501 10:2.3429501 11:81.006897 12:41.791 13:0.444444 14:0.85184902 15:0.719495 16:21.6661 17:0 18:0 19:-1 20:-140 #
5.7754267372695187998925953065665e-05 1:0 2:0 3:2.3462999 4:2.32636 5:3.4959199 6:0.980739 7:0.65687501 8:0.53455597 9:1.21815 10:0.85819799 11:55.715599 12:57.844601 13:0.444444 14:0.76494002 15:0.74518502 16:15.5877 17:0 18:0 19:-6 20:-163 #
-5.7754267372695187998925953065665e-05 1:0 2:0 3:1.2296799 4:0.43944699 5:1.78719 6:1.45787 7:0.224677 8:0.83534998 9:0.90408403 10:0.084088802 11:9.9075003 12:62.794701 13:0.444444 14:0.60886902 15:0.93181998 16:2.8805599 17:0 18:0 19:-1 20:-201 #
5.7754267372695187998925953065665e-05 1:0 2:0 3:1.65303 4:8.6251202 5:7.0995998 6:1.53757 7:0.216875 8:1.6672601 9:0.26375699 10:0.074319199 11:4.4318199 12:82.997704 13:0.33333299 14:0.75410903 15:0.92884803 16:1.28982 17:0 18:0 19:0 20:0 #
-5.7754267372695187998925953065665e-05 1:0 2:0 3:1.3749599 4:0.57882702 5:3.57918 6:0.90422797 7:0.33117101 8:0.360533 9:0.86382502 10:0.068309702 11:10.4186 12:52.293201 13:0.222222 14:0.46757299 15:0.949516 16:3.02877 17:0 18:0 19:5 20:201.60001 #
5.7754267372695187998925953065665e-05 1:1 2:13 3:1.19812 4:6.6924 5:4.05827 6:1.68564 7:0.3572 8:0.54080099 9:0.25058499 10:0.213107 11:21.7988 12:71.062401 13:0.444444 14:0.71806699 15:0.87228501 16:6.3076 17:1 18:13 19:6 20:169.14301 #
5.7754267372695187998925953065665e-05 1:-4 2:-34 3:1.8795201 4:0.92680103 5:1.23287 6:1.56104 7:0.25521499 8:0.46390399 9:0.397773 10:0.67636102 11:47.787102 12:89.698601 13:1 14:0.867365 15:0.81811601 16:13.5115 17:-4 18:-34 19:-3 20:120 #
-5.7754267372695187998925953065665e-05 1:2 2:0.5 3:1.35603 4:3.86535 5:1.29178 6:1.64507 7:0.92905802 8:3.1839199 9:1.9503 10:1.9503 11:63.917301 12:27.7691 13:0.33333299 14:0.78598398 15:0.70706499 16:17.6569 17:1 18:-10.6667 19:5 20:107.396 #
-5.7754267372695187998925953065665e-05 1:0 2:0 3:2.8555 4:1.5005 5:2.9012499 6:0.95305598 7:0.380025 8:0.292649 9:0.56682098 10:0.96381497 11:54.878399 12:70.044197 13:0.222222 14:0.85842502 15:0.76196498 16:15.3718 17:0 18:0 19:5 20:213.2 #
5.7754267372695187998925953065665e-05 1:3 2:28.6667 3:1.27908 4:0.93681002 5:1.30287 6:0.51782501 7:0.491779 8:0.666879 9:2.66399 10:0.046350099 11:3.8398199 12:17.8526 13:0.222222 14:0.74136502 15:0.955957 16:1.11759 17:3 18:28.6667 19:3 20:28.6667 #
-5.7754267372695187998925953065665e-05 1:3 2:28 3:2.8097501 4:0.281481 5:6.1100502 6:1.58725 7:0.74262297 8:0.44834799 9:0.84254003 10:0.111441 11:13.0412 12:71.346497 13:0.33333299 14:0.72292298 15:0.91672897 16:3.7882199 17:3 18:28 19:2 20:-192 #
5.7754267372695187998925953065665e-05 1:4 2:28.5 3:1.76735 4:3.5271599 5:1.3779401 6:0.58343202 7:0.39107099 8:1.3442 9:1.6330301 10:1.11044 11:59.437302 12:62.494999 13:1 14:0.49895599 15:0.78535002 16:16.537201 17:4 18:28.5 19:2 20:-174.229 #
-5.7754267372695187998925953065665e-05 1:2 2:23 3:2.8338799 4:1.75459 5:0.93637198 6:1.3579201 7:0.836586 8:0.87820798 9:2.2314999 10:1.45533 11:71.465698 12:39.812199 13:0.444444 14:0.858491 15:0.80591297 16:19.4816 17:2 18:23 19:1 20:-217 #
5.7754267372695187998925953065665e-05 1:4 2:2 3:1.70711 4:0.500718 5:1.97572 6:0.559677 7:0.143648 8:0.23115601 9:0.41439801 10:0.081656903 11:12.9814 12:74.669197 13:0.222222 14:0.78893399 15:0.94538301 16:3.77091 17:3 18:-29 19:7 20:18.7778 #
-5.7754267372695187998925953065665e-05 1:3 2:21.5 3:3.3247399 4:1.83421 5:0.91790998 6:0.750135 7:0.52515602 8:0.40866899 9:0.45843601 10:0.065053798 11:7.67693 12:68.326202 13:0.222222 14:0.68331802 15:0.94419998 16:2.23314 17:3 18:21.5 19:2 20:-165 #
5.7754267372695187998925953065665e-05 1:0 2:0 3:1.16122 4:8.3763103 5:1.2563601 6:1.22719 7:0.795636 8:0.367073 9:1.46529 10:0.254219 11:12.6866 12:52.0462 13:0.222222 14:0.59529001 15:0.77707601 16:3.6856201 17:0 18:0 19:4 20:-51.599998 #
-5.7754267372695187998925953065665e-05 1:-1 2:-11.5 3:1.30372 4:1.18542 5:0.67029899 6:0.87588 7:0.69255799 8:0.48814401 9:2.0052299 10:0.073233597 11:15.9699 12:38.5877 13:0.66666698 14:0.91722399 15:0.96912801 16:4.6339402 17:-1 18:-11.5 19:1 20:186 #
5.7754267372695187998925953065665e-05 1:0 2:0 3:1.44959 4:0.94876498 5:4.7228398 6:0.80185401 7:0.200655 8:1.05882 9:0.257826 10:0.100684 11:8.9978704 12:85.815598 13:0.444444 14:0.81275302 15:0.912503 16:2.6166601 17:0 18:0 19:6 20:158.66701 #
-5.7754267372695187998925953065665e-05 1:-3 2:-12.3333 3:1.5264699 4:6.72475 5:31.849899 6:1.29687 7:0.53826898 8:0.326882 9:0.45322299 10:0.180029 11:13.9155 12:81.625099 13:0.66666698 14:0.856947 15:0.85411799 16:4.0409498 17:-3 18:-12.3333 19:-2 20:218.66701 #
-5.7754267372695187998925953065665e-05 1:0 2:0 3:3.63328 4:0.56915998 5:1.63493 6:0.708929 7:0.43480399 8:0.66768301 9:1.26947 10:0.072104603 11:14.4122 12:88.259903 13:1 14:0.94949198 15:0.96142799 16:4.1844602 17:0 18:0 19:3 20:193.33299 #
5.7754267372695187998925953065665e-05 1:2 2:12 3:2.4851699 4:0.45474201 5:2.43418 6:1.58384 7:0.34058899 8:0.60917199 9:1.54107 10:1.54107 11:81.615501 12:65.663101 13:0.444444 14:0.87936503 15:0.75353497 16:21.800501 17:2 18:12 19:5 20:115.3 #
-5.7754267372695187998925953065665e-05 1:4 2:36 3:2.7911799 4:0.56946301 5:1.01139 6:1.12726 7:0.283272 8:0.58143902 9:0.79820502 10:0.47187701 11:43.663601 12:73.030998 13:1 14:0.98465198 15:0.96956998 16:12.4055 17:4 18:36 19:3 20:-192 #
5.7754267372695187998925953065665e-05 1:-1 2:-48 3:1.05366 4:2.2130899 5:3.9108 6:1.93356 7:0.35270301 8:0.85919601 9:0.74978697 10:0.17941 11:4.3996601 12:64.820099 13:0.166667 14:0.756823 15:0.82398403 16:1.28046 17:-1 18:-48 19:6 20:146.429 #
5.7754267372695187998925953065665e-05 1:0 2:0 3:1.68256 4:19.740999 5:2.5148499 6:1.3789099 7:0.59430599 8:1.95032 9:1.76199 10:1.76199 11:74.353104 12:45.4268 13:0.444444 14:0.67803198 15:0.683599 16:20.1577 17:0 18:0 19:1 20:122.5 #
-5.7754267372695187998925953065665e-05 1:0 2:10.6667 3:2.6462901 4:1.28511 5:1.56516 6:0.76116103 7:2.96926 8:2.7704699 9:3.9161899 10:1.62123 11:65.982803 12:13.6583 13:0.444444 14:0.81443799 15:0.82591599 16:18.164101 17:0 18:10.6667 19:-1 20:-52.299999 #
-5.7754267372695187998925953065665e-05 1:1 2:16 3:4.6250401 4:0.33059201 5:0.67155898 6:0.639135 7:0.62066501 8:0.59396797 9:1.80935 10:0.132632 11:20.909401 12:73.9002 13:0.66666698 14:0.93101102 15:0.93907499 16:6.0531602 17:1 18:16 19:3 20:194.33299 #
5.7754267372695187998925953065665e-05 1:2 2:2 3:1.51454 4:3.80178 5:3.4546599 6:0.765809 7:0.14054801 8:1.02508 9:0.67827499 10:0.53236401 11:33.631302 12:79.276703 13:0.33333299 14:0.75113302 15:0.629152 16:9.6504002 17:2 18:2 19:0 20:-183.33299 #
5.7754267372695187998925953065665e-05 1:1 2:6 3:2.0411601 4:0.233614 5:3.25442 6:1.3172899 7:1.21468 8:0.75006199 9:1.9630001 10:2.7807 11:81.5299 12:29.4545 13:0.166667 14:0.65164602 15:0.747657 16:21.7817 17:5 18:64.400002 19:4 20:-122 #
-5.7754267372695187998925953065665e-05 1:-1 2:-40 3:1.6312701 4:0.49854201 5:0.92775202 6:0.32865 7:0.90063697 8:0.226018 9:0.70691103 10:0.35069901 11:26.3228 12:81.511902 13:0.66666698 14:0.83770698 15:0.77294999 16:7.5955701 17:-2 18:-62 19:-5 20:-196.8 #
5.7754267372695187998925953065665e-05 1:0 2:-2 3:2.7191899 4:0.85337001 5:0.88513702 6:2.6740201 7:0.446336 8:0.490374 9:3.7784801 10:3.7784801 11:86.294098 12:37.988998 13:0.166667 14:0.84905899 15:0.82663101 16:22.813 17:0 18:-2 19:2 20:76.666702 #
5.7754267372695187998925953065665e-05 1:0 2:0 3:1.12798 4:1.57612 5:1.48666 6:1.33307 7:0.97273397 8:0.40608501 9:1.10833 10:0.136951 11:6.7794299 12:54.597301 13:0.166667 14:0.75077498 15:0.87075001 16:1.9723901 17:0 18:0 19:-1 20:-184 #
-5.7754267372695187998925953065665e-05 1:2 2:7 3:2.2632101 4:40.774101 5:0.93149197 6:1.02633 7:0.54660797 8:0.828058 9:2.3294899 10:1.5581501 11:63.579498 12:35.303001 13:0.33333299 14:0.74578297 15:0.84865302 16:17.5734 17:2 18:7 19:2 20:7 #
5.7754267372695187998925953065665e-05 1:0 2:29.3333 3:1.97658 4:1.0462 5:15.5596 6:1.3171 7:0.172555 8:0.88441002 9:2.0450699 10:0.206082 11:22.1273 12:39.576698 13:0.33333299 14:0.71519202 15:0.87492198 16:6.4014802 17:1 18:20.7143 19:1 20:20.7143 #
5.7754267372695187998925953065665e-05 1:-1 2:-6 3:2.9669001 4:2.52441 5:3.7726901 6:1.45224 7:1.37391 8:0.95465797 9:1.62253 10:4.0643902 11:85.1651 12:40.0103 13:0.166667 14:0.84227699 15:0.80771899 16:22.5721 17:-1 18:-6 19:-2 20:-112 #
-5.7754267372695187998925953065665e-05 1:0 2:0 3:4.8843999 4:9.1742296 5:3.3829801 6:1.54673 7:0.75727803 8:0.56194699 9:0.896245 10:2.68063 11:72.358498 12:56.450298 13:0.33333299 14:0.87864101 15:0.93302798 16:19.691999 17:0 18:0 19:-4 20:-217.75 #
-5.7754267372695187998925953065665e-05 1:1 2:6 3:3.22506 4:0.81020999 5:0.83483303 6:0.66200298 7:0.34539199 8:0.73082501 9:1.57851 10:0.063939497 11:5.2639899 12:62.131901 13:1 14:0.95522499 15:0.94049102 16:1.53185 17:1 18:6 19:0 20:-189 #
5.7754267372695187998925953065665e-05 1:-1 2:-10 3:1.6421 4:3.3544099 5:4.0117002 6:1.68549 7:0.41064301 8:0.65113902 9:0.90125197 10:1.67088 11:78.876404 12:72.102699 13:0.33333299 14:0.66911501 15:0.70856899 16:21.1908 17:0 18:60 19:1 20:107 #
5.7754267372695187998925953065665e-05 1:2 2:-11.3333 3:1.09296 4:0.60736901 5:0.90826899 6:0.67045999 7:0.44981101 8:0.198533 9:0.62553602 10:0.079732902 11:12.3645 12:84.656898 13:0.222222 14:0.426267 15:0.945656 16:3.5924101 17:2 18:-11.3333 19:0 20:-188 #
5.7754267372695187998925953065665e-05 1:0 2:0 3:2.8448999 4:0.803168 5:2.2597401 6:1.31084 7:0.407381 8:0.429589 9:0.48366901 10:0.063128904 11:10.4069 12:85.706497 13:0.33333299 14:0.79418999 15:0.95387101 16:3.0253699 17:-1 18:-91.5 19:-1 20:-91.5 #
-5.7754267372695187998925953065665e-05 1:0 2:0 3:1.8042099 4:0.182318 5:0.71578002 6:0.80833697 7:0.79043603 8:0.33942401 9:0.77982998 10:0.054724898 11:11.2979 12:71.674301 13:0.166667 14:0.76715302 15:0.96543998 16:3.2835701 17:-1 18:-82 19:3 20:144.875 #
-5.7754267372695187998925953065665e-05 1:1 2:-5.3333302 3:2.8443799 4:2.23931 5:2.10428 6:2.5925601 7:1.97568 8:0.83320701 9:2.3584199 10:2.6247001 11:66.9151 12:27.103201 13:0.66666698 14:0.93326098 15:0.92193401 16:18.391199 17:1 18:-5.3333302 19:3 20:27 #
-5.7754267372695187998925953065665e-05 1:0 2:0 3:1.82188 4:0.37475899 5:3.15505 6:2.5359399 7:0.99102199 8:2.1361499 9:2.26441 10:1.56119 11:59.280998 12:25.951599 13:0.444444 14:0.69960803 15:0.68564999 16:16.497601 17:0 18:0 19:1 20:-51 #
5.7754267372695187998925953065665e-05 1:-1 2:-9 3:3.4147601 4:1.35709 5:1.26574 6:0.88436198 7:0.69016403 8:0.611875 9:0.76265699 10:0.78425401 11:52.606899 12:73.177696 13:0.444444 14:0.74886698 15:0.782893 16:14.782 17:0 18:80.5 19:1 20:134 #
-5.7754267372695187998925953065665e-05 1:0 2:0 3:2.61783 4:0.88776797 5:1.99667 6:0.81251299 7:0.52334899 8:0.882056 9:0.505997 10:0.22567201 11:27.067499 12:87.265404 13:0.33333299 14:0.75314701 15:0.90334499 16:7.8065 17:1 18:62 19:2 20:146.5 #
5.7754267372695187998925953065665e-05 1:2 2:39 3:1.65148 4:0.40674001 5:0.77891999 6:1.25845 7:0.42012399 8:0.32473999 9:0.447716 10:0.432329 11:32.743599 12:75.893799 13:0.166667 14:0.755799 15:0.76123703 16:9.4027395 17:6 18:66 19:16 20:145.375 #
-5.7754267372695187998925953065665e-05 1:0 2:0 3:1.89627 4:1.38255 5:1.56381 6:0.52975202 7:0.66929603 8:0.49913999 9:1.5069799 10:0.27594599 11:23.3538 12:76.790901 13:0.33333299 14:0.79537803 15:0.82176 16:6.7515202 17:1 18:86.5 19:1 20:86.5 #
5.7754267372695187998925953065665e-05 1:-3 2:-24.6667 3:3.2881899 4:3.9040899 5:3.4097099 6:1.50502 7:0.70923603 8:0.26315501 9:1.24046 10:3.6996701 11:84.166801 12:66.637802 13:0.66666698 14:0.725968 15:0.871782 16:22.3573 17:-3 18:-24.6667 19:-4 20:-77.5 #
5.7754267372695187998925953065665e-05 1:1 2:10 3:1.22332 4:1.20815 5:1.89738 6:0.32932499 7:0.53423798 8:0.90032399 9:1.1525199 10:0.054966699 11:9.23069 12:64.066902 13:0.166667 14:0.88834298 15:0.95865297 16:2.6842201 17:1 18:10 19:-1 20:29.1 #
-5.7754267372695187998925953065665e-05 1:-1 2:-5 3:1.52596 4:1.7368 5:1.9615099 6:1.6329499 7:0.29394701 8:0.29292899 9:1.50641 10:1.28122 11:63.961399 12:49.848598 13:0.222222 14:0.68512899 15:0.79654002 16:17.667801 17:0 18:90 19:1 20:96 #
-5.7754267372695187998925953065665e-05 1:1 2:28 3:2.26193 4:0.749731 5:2.1614299 6:1.86886 7:0.36533299 8:0.67293698 9:2.0503299 10:2.0503299 11:64.762398 12:25.344299 13:0.33333299 14:0.82536602 15:0.80170202 16:17.865101 17:1 18:28 19:6 20:196.83299 #
5.7754267372695187998925953065665e-05 1:3 2:19 3:1.73746 4:1.19069 5:6.96699 6:2.7948201 7:0.41727799 8:0.44097099 9:1.24341 10:1.24341 11:64.283203 12:57.503899 13:0.33333299 14:0.466957 15:0.604599 16:17.7472 17:2 18:-17 19:6 20:111 #
-5.7754267372695187998925953065665e-05 1:0 2:0 3:1.8297499 4:1.49532 5:2.9105501 6:2.5917799 7:0.31832099 8:0.41786599 9:0.601807 10:0.52613401 11:29.7831 12:63.1376 13:0.33333299 14:0.77078599 15:0.66666198 16:8.5727997 17:0 18:0 19:2 20:197 #
5.7754267372695187998925953065665e-05 1:-2 2:-7.75 3:1.72741 4:0.63275802 5:1.51253 6:2.2105401 7:0.33044499 8:0.170075 9:1.33639 10:0.38762599 11:32.983299 12:63.9823 13:0.444444 14:0.44860899 15:0.780092 16:9.4696598 17:-2 18:-7.75 19:0 20:138 #
5.7754267372695187998925953065665e-05 1:5 2:24.799999 3:1.8643399 4:0.98691797 5:1.7283601 6:1.2448 7:0.59517503 8:2.1598799 9:0.70172399 10:0.31427699 11:27.432501 12:71.3041 13:0.444444 14:0.68843699 15:0.82690001 16:7.90976 17:5 18:24.799999 19:4 20:-185.2 #
-5.7754267372695187998925953065665e-05 1:0 2:0 3:2.5948 4:0.238967 5:0.38029701 6:0.35026899 7:0.194865 8:0.376542 9:0.95087802 10:0.159104 11:3.6267099 12:80.0466 13:0.444444 14:0.79089302 15:0.84291297 16:1.05559 17:0 18:0 19:2 20:157.5 #
5.7754267372695187998925953065665e-05 1:1 2:48.5 3:1.91957 4:2.06955 5:4.2796102 6:3.0101199 7:0.37333301 8:0.456577 9:1.84444 10:1.84444 11:68.875 12:37.2813 13:0.33333299 14:0.70797998 15:0.77821797 16:18.8645 17:1 18:48.5 19:0 20:-120 #
-5.7754267372695187998925953065665e-05 1:0 2:-16 3:3.3861699 4:1.80204 5:3.55197 6:3.36921 7:3.91926 8:1.13739 9:5.9843602 10:2.91592 11:68.338303 12:29.566 13:0.444444 14:0.944435 15:0.93001503 16:18.735399 17:0 18:-16 19:0 20:-16 #
-5.7754267372695187998925953065665e-05 1:3 2:17.5 3:2.68645 4:1.31529 5:3.3614099 6:2.7372501 7:1.40727 8:2.0915899 9:2.5552599 10:0.865888 11:50.895199 12:38.1012 13:0.66666698 14:0.81740999 15:0.85497099 16:14.3337 17:3 18:17.5 19:5 20:45.666698 #
-5.7754267372695187998925953065665e-05 1:0 2:0 3:4.0215802 4:1.4466 5:1.13292 6:1.78273 7:0.38470399 8:1.3035901 9:0.48241001 10:0.12896501 11:12.012 12:84.062897 13:0.33333299 14:0.97112799 15:0.89501101 16:3.49038 17:0 18:0 19:-2 20:-181.5 #
5.7754267372695187998925953065665e-05 1:1 2:4 3:1.89161 4:5.4791498 5:1.56441 6:0.88772798 7:0.40858001 8:0.93044603 9:1.99417 10:1.99417 11:67.452797 12:31.827101 13:0.66666698 14:0.78163499 15:0.78997397 16:18.521601 17:1 18:4 19:-5 20:-135.429 #
-5.7754267372695187998925953065665e-05 1:2 2:21 3:2.6405001 4:3.8801 5:0.43640801 6:0.63507003 7:1.11027 8:0.749614 9:0.72783798 10:0.482521 11:40.775299 12:79.7939 13:1 14:0.472 15:0.89073998 16:11.6211 17:2 18:21 19:1 20:-197 #
5.7754267372695187998925953065665e-05 1:-1 2:-10 3:3.1027601 4:3.0206201 5:2.42114 6:0.547701 7:0.15052 8:0.58889401 9:0.52950901 10:0.124224 11:15.9011 12:83.2603 13:0.444444 14:0.76607603 15:0.91578197 16:4.61408 17:-1 18:-10 19:0 20:135.2 #
-5.7754267372695187998925953065665e-05 1:3 2:30.6667 3:1.70172 4:2.42628 5:7.33744 6:5.2871099 7:0.54402602 8:0.976946 9:0.72622299 10:0.72622299 11:49.6558 12:73.060097 13:0.444444 14:0.74051499 15:0.56294602 16:14.007 17:3 18:30.6667 19:1 20:-197.33299 #
-5.7754267372695187998925953065665e-05 1:-4 2:-25 3:1.70734 4:1.53099 5:0.76726103 6:0.56384099 7:0.65547597 8:0.59876102 9:0.42557001 10:0.16023999 11:15.5474 12:65.081703 13:0.444444 14:0.824386 15:0.87971699 16:4.5121002 17:-4 18:-25 19:-6 20:82.857101 #
-5.7754267372695187998925953065665e-05 1:0 2:0 3:3.71278 4:2.72439 5:0.88698798 6:0.76978499 7:0.36852199 8:0.68545598 9:0.849262 10:0.161685 11:14.8255 12:45.339001 13:0.66666698 14:0.923621 15:0.87497097 16:4.3037901 17:0 18:0 19:-2 20:-183.5 #
5.7754267372695187998925953065665e-05 1:2 2:14.6667 3:1.66513 4:3.23524 5:8.1568499 6:0.49848199 7:0.28373399 8:0.64973801 9:0.58364302 10:0.20502 11:13.1047 12:85.059502 13:0.166667 14:0.64093697 15:0.823906 16:3.80656 17:3 18:30.5 19:9 20:127.4 #
-5.7754267372695187998925953065665e-05 1:0 2:0 3:1.83482 4:3.12957 5:6.8180699 6:0.79311901 7:0.0916306 8:0.42773601 9:0.197713 10:0.088923998 11:9.6145201 12:83.726196 13:0.33333299 14:0.79679102 15:0.92605901 16:2.7955799 17:0 18:0 19:-1 20:-182 #
5.7754267372695187998925953065665e-05 1:-2 2:-24 3:1.49832 4:1.72417 5:1.59174 6:1.32929 7:0.954319 8:0.54342198 9:1.20206 10:0.52123201 11:34.161999 12:34.891399 13:0.222222 14:0.55210602 15:0.69331002 16:9.7981596 17:-2 18:-24 19:-6 20:-114.857 #
5.7754267372695187998925953065665e-05 1:-1 2:-55.5 3:4.8794498 4:1.11816 5:3.37393 6:0.55602998 7:0.130946 8:0.49393901 9:0.435599 10:0.0929332 11:3.4138 12:63.126598 13:0.66666698 14:0.90507299 15:0.90905398 16:0.99363798 17:1 18:12 19:4 20:123.6 #
-5.7754267372695187998925953065665e-05 1:2 2:29 3:1.25124 4:8.1375103 5:0.288596 6:0.898633 7:0.76431501 8:0.75303102 9:1.11711 10:0.310188 11:15.642 12:51.4473 13:0.444444 14:0.77757102 15:0.73453599 16:4.5393801 17:6 18:69.333298 19:6 20:69.333298 #
5.7754267372695187998925953065665e-05 1:-2 2:6 3:1.8451999 4:1.39482 5:5.7845502 6:1.10471 7:0.60606498 8:0.79424697 9:0.67565 10:1.21025 11:59.929901 12:68.149399 13:0.222222 14:0.82468802 15:0.73991603 16:16.6616 17:-1 18:25.4 19:-10 20:-28.7899 #
-5.7754267372695187998925953065665e-05 1:1 2:60 3:1.55889 4:1.23154 5:0.51830697 6:0.879058 7:0.146276 8:0.44887799 9:0.31703499 10:4.2302799 11:80.634201 12:83.724403 13:0.33333299 14:0.84770298 15:0.88306397 16:21.5835 17:3 18:69.333298 19:4 20:108.5 #
5.7754267372695187998925953065665e-05 1:-2 2:-21 3:2.6060901 4:2.28561 5:0.51584703 6:0.53848302 7:0.152605 8:0.379924 9:2.8147399 10:0.014431 11:6.2336302 12:13.7149 13:0.444444 14:0.67945099 15:0.99156702 16:1.81376 17:-3 18:-45.666698 19:-3 20:-45.666698 #
5.7754267372695187998925953065665e-05 1:4 2:35 3:1.23949 4:1.8133301 5:1.00269 6:0.714544 7:0.28432399 8:1.67662 9:0.95088202 10:2.02264 11:75.684402 12:84.037903 13:1 14:0.48229399 15:0.63654 16:20.465099 17:9 18:56.666698 19:12 20:92 #
-5.7754267372695187998925953065665e-05 1:-1 2:-42 3:1.4003201 4:1.21681 5:1.65701 6:0.75413901 7:0.57738298 8:0.44826099 9:1.7972 10:0.231071 11:15.3104 12:35.851501 13:0.66666698 14:0.89734 15:0.818892 16:4.4437299 17:-2 18:-63 19:-1 20:131 #
5.7754267372695187998925953065665e-05 1:1 2:7 3:1.97057 4:0.134572 5:1.1579601 6:0.98661298 7:0.62129098 8:0.47249901 9:1.8637 10:0.36706999 11:25.799801 12:42.626701 13:0.66666698 14:0.535276 15:0.75311899 16:7.4472299 17:4 18:72.625 19:7 20:116.429 #
5.7754267372695187998925953065665e-05 1:7 2:33.3214 3:2.1954701 4:0.74075401 5:1.94196 6:0.83597898 7:0.99393702 8:0.98999101 9:1.7243299 10:1.7243299 11:75.280701 12:39.924301 13:0.33333299 14:0.57429397 15:0.64207399 16:20.372101 17:7 18:33.3214 19:11 20:113.068 #
-5.7754267372695187998925953065665e-05 1:1 2:6 3:3.35954 4:1.38307 5:3.8938 6:1.96673 7:0.75473601 8:0.54172999 9:2.3550601 10:0.53432602 11:43.172401 12:59.615398 13:0.66666698 14:0.87735599 15:0.871355 16:12.2726 17:1 18:6 19:7 20:190.14301 #
5.7754267372695187998925953065665e-05 1:-3 2:-17.3333 3:2.66852 4:1.16733 5:2.11516 6:3.7500801 7:0.385259 8:3.0514801 9:1.4447 10:0.240162 11:14.6076 12:56.159 13:0.33333299 14:0.61321503 15:0.79316097 16:4.24087 17:-3 18:-17.3333 19:-6 20:-152.66701 #
-5.7754267372695187998925953065665e-05 1:-4 2:-30.5 3:1.8117599 4:1.42529 5:0.97149199 6:0.75320703 7:0.33239901 8:1.72877 9:0.75237 10:0.29034099 11:22.802799 12:65.400299 13:1 14:0.94678098 15:0.79188502 16:6.5943699 17:-7 18:-50.357101 19:-6 20:185.14301 #
5.7754267372695187998925953065665e-05 1:2 2:22 3:3.07991 4:1.7017601 5:3.5053799 6:2.0111499 7:0.43237099 8:0.573057 9:1.17243 10:1.0395401 11:60.162701 12:89.395203 13:0.33333299 14:0.79128402 15:0.865915 16:16.7202 17:2 18:22 19:1 20:-146 #
5.7754267372695187998925953065665e-05 1:1 2:30 3:1.46027 4:0.69154698 5:2.4232399 6:0.73481399 7:0.352741 8:0.879107 9:0.97915602 10:0.045410901 11:7.1496801 12:81.5205 13:0.444444 14:0.64537698 15:0.962551 16:2.0799799 17:-2 18:-46.666698 19:-3 20:-53 #
5.7754267372695187998925953065665e-05 1:-1 2:-9 3:2.5368299 4:0.67783201 5:1.82303 6:0.94577098 7:0.48437399 8:1.20297 9:0.589656 10:0.589656 11:44.173599 12:79.698097 13:0.66666698 14:0.82680702 15:0.71747202 16:12.5432 17:-1 18:-9 19:0 20:102 #
-5.7754267372695187998925953065665e-05 1:0 2:0 3:2.07215 4:2.2111299 5:11.8499 6:1.84868 7:0.42386201 8:0.99358898 9:0.458318 10:0.27443701 11:15.9105 12:72.611099 13:0.444444 14:0.60656899 15:0.77095401 16:4.6167898 17:0 18:0 19:5 20:188 #
-5.7754267372695187998925953065665e-05 1:-1 2:31 3:1.9452699 4:0.60317302 5:2.6364901 6:0.90573001 7:0.56291002 8:0.48393199 9:0.42159599 10:0.060070802 11:6.4348001 12:72.275398 13:0.444444 14:0.748757 15:0.94650298 16:1.8722399 17:4 18:55.166698 19:6 20:64.5 #
5.7754267372695187998925953065665e-05 1:1 2:6.5 3:1.57617 4:2.89428 5:0.822505 6:0.83192402 7:0.41391 8:0.45158601 9:0.96367198 10:0.96367198 11:64.264999 12:74.099701 13:0.33333299 14:0.67188001 15:0.59170198 16:17.742701 17:1 18:6.5 19:2 20:96.75 #
5.7754267372695187998925953065665e-05 1:1 2:-4.25 3:2.5171599 4:4.0862098 5:0.50079298 6:0.27951401 7:0.242992 8:1.70399 9:1.25796 10:0.0570811 11:7.0173602 12:51.5019 13:0.444444 14:0.67339802 15:0.95085901 16:2.0415299 17:1 18:-4.25 19:0 20:-4.1666698 #
-5.7754267372695187998925953065665e-05 1:3 2:42.666698 3:1.7962199 4:1.33687 5:2.86798 6:2.8401101 7:1.0240099 8:1.36436 9:1.24517 10:1.24517 11:69.263496 12:64.599403 13:0.444444 14:0.78478199 15:0.70364302 16:18.9576 17:8 18:71.75 19:11 20:85.636398 #
5.7754267372695187998925953065665e-05 1:1 2:22 3:2.09988 4:10.5321 5:8.4893303 6:3.03215 7:0.64762998 8:0.36976099 9:1.44304 10:0.29049101 11:15.8885 12:62.8936 13:0.222222 14:0.69514197 15:0.74914098 16:4.6104698 17:0 18:-72 19:4 20:38.25 #
-5.7754267372695187998925953065665e-05 1:0 2:-6 3:2.3538599 4:1.44999 5:1.2319 6:0.53485298 7:0.554093 8:0.56743598 9:0.95385897 10:0.0526952 11:5.3028998 12:87.076401 13:0.444444 14:0.94041598 15:0.951675 16:1.54316 17:0 18:-6 19:3 20:98.5 #
5.7754267372695187998925953065665e-05 1:-1 2:-12 3:2.0296299 4:0.68840897 5:0.76311499 6:3.4844999 7:0.63153601 8:0.63962901 9:1.68539 10:1.2846299 11:63.585499 12:36.474701 13:0.33333299 14:0.55672997 15:0.82354897 16:17.5749 17:3 18:78 19:7 20:92.5 #
-5.7754267372695187998925953065665e-05 1:4 2:29.5 3:5.8494301 4:0.67770201 5:1.22208 6:3.5065601 7:2.6738 8:1.0261 9:1.6374 10:6.9661698 11:83.589699 12:37.0425 13:0.33333299 14:0.68531501 15:0.94556201 16:22.2323 17:6 18:44 19:9 20:-111.333 #
-5.7754267372695187998925953065665e-05 1:0 2:0 3:1.96039 4:0.392975 5:1.3029799 6:0.424541 7:0.316677 8:0.51273799 9:0.63849598 10:2.1912999 11:72.939903 12:74.396896 13:0.444444 14:0.91282099 15:0.83029902 16:19.8283 17:0 18:0 19:0 20:0 #
5.7754267372695187998925953065665e-05 1:2 2:15.3333 3:1.83708 4:0.65309697 5:7.0873299 6:0.87457001 7:0.523184 8:0.65490299 9:1.29215 10:1.65056 11:68.589699 12:77.844902 13:0.444444 14:0.572034 15:0.75096202 16:18.7959 17:4 18:32.400002 19:7 20:100.5 #
5.7754267372695187998925953065665e-05 1:-1 2:-10 3:2.2405901 4:2.77107 5:2.0620401 6:2.5572801 7:0.203095 8:0.36390299 9:0.84378898 10:3.1941299 11:88.637901 12:86.8293 13:0.444444 14:0.465817 15:0.76542199 16:23.306 17:-1 18:-10 19:-2 20:-88 #
5.7754267372695187998925953065665e-05 1:2 2:13.9375 3:3.1161699 4:1.3221999 5:1.19864 6:0.942343 7:0.55560702 8:0.463184 9:0.70135701 10:3.26015 11:89.808502 12:67.263802 13:0.444444 14:0.77728599 15:0.694305 16:23.548599 17:2 18:13.9375 19:5 20:70.5 #
-5.7754267372695187998925953065665e-05 1:-1 2:-4 3:2.0736201 4:1.01135 5:1.23102 6:0.211116 7:0.44911 8:0.61094099 9:0.0899271 10:0.0899271 11:16.006599 12:89.6008 13:0.66666698 14:0.946307 15:0.95190102 16:4.6445098 17:1 18:68 19:2 20:2 #
-5.7754267372695187998925953065665e-05 1:4 2:33.625 3:2.0120599 4:0.29793099 5:1.05936 6:0.40626201 7:0.107778 8:0.158186 9:0.346953 10:0.26251999 11:10.5993 12:83.2342 13:1 14:0.80955797 15:0.75160199 16:3.0811501 17:5 18:40.200001 19:4 20:-66.300003 #
-5.7754267372695187998925953065665e-05 1:0 2:0 3:3.2885399 4:1.0652699 5:4.7209101 6:0.30122399 7:0.112443 8:0.30148199 9:0.294842 10:0.294842 11:28.2307 12:66.091003 13:0.444444 14:0.82448798 15:0.86130601 16:8.1353102 17:2 18:88.375 19:3 20:93.166702 #
-5.7754267372695187998925953065665e-05 1:0 2:0 3:2.38658 4:0.65175903 5:0.84734398 6:1.41828 7:1.15913 8:0.673271 9:3.1849899 10:1.6917 11:64.3657 12:47.742199 13:0.66666698 14:0.84441203 15:0.82701999 16:17.7675 17:0 18:0 19:-6 20:-215.5 #
-5.7754267372695187998925953065665e-05 1:0 2:0 3:2.0184901 4:0.497293 5:6.4214902 6:0.48912099 7:0.382788 8:0.28075001 9:0.28288701 10:0.28288701 11:28.478201 12:84.076401 13:0.33333299 14:0.88090497 15:0.85883898 16:8.2051601 17:0 18:0 19:3 20:186 #
5.7754267372695187998925953065665e-05 1:3 2:28.6667 3:1.3334 4:1.46964 5:1.87019 6:1.58674 7:0.37654501 8:0.63584101 9:0.35366401 10:0.089724198 11:12.2191 12:78.657097 13:0.166667 14:0.727934 15:0.93394601 16:3.5503299 17:3 18:28.6667 19:3 20:-182.5 #
-5.7754267372695187998925953065665e-05 1:0 2:0 3:1.28693 4:1.51353 5:1.13164 6:1.63577 7:0.101359 8:0.45948401 9:0.291125 10:0.29488599 11:28.189899 12:89.225304 13:0.444444 14:0.80165201 15:0.84932202 16:8.1237803 17:0 18:0 19:-2 20:-182.5 #
-5.7754267372695187998925953065665e-05 1:1 2:6 3:1.10142 4:0.62347603 5:3.95699 6:1.48883 7:0.34297901 8:0.25836301 9:0.819489 10:0.312978 11:11.9944 12:77.960197 13:0.66666698 14:0.69132799 15:0.71306902 16:3.4853001 17:1 18:6 19:2 20:-167 #
5.7754267372695187998925953065665e-05 1:-1 2:-12 3:1.36467 4:0.69475698 5:0.77387798 6:1.74116 7:0.542229 8:1.4047 9:2.3982201 10:1.8516901 11:63.5126 12:17.298401 13:0.33333299 14:0.62153602 15:0.91436303 16:17.556801 17:1 18:58 19:1 20:58 #
5.7754267372695187998925953065665e-05 1:1 2:-3 3:2.26454 4:1.18641 5:2.5985701 6:0.76318502 7:0.14038099 8:0.73912698 9:0.49835801 10:0.177744 11:12.0079 12:82.2509 13:0.33333299 14:0.72330898 15:0.84630603 16:3.4892099 17:1 18:-3 19:2 20:34.666698 #
5.7754267372695187998925953065665e-05 1:0 2:-2.5 3:2.3560801 4:3.1956501 5:1.6262701 6:1.2813801 7:0.099499799 8:0.73275399 9:0.50112301 10:0.0150474 11:3.04633 12:68.588799 13:0.444444 14:0.75395602 15:0.98638701 16:0.88670498 17:-1 18:-39.75 19:-2 20:-57.333302 #
-5.7754267372695187998925953065665e-05 1:1 2:4 3:2.6563699 4:0.99545902 5:2.6665299 6:1.94468 7:3.1838701 8:1.2086999 9:1.79239 10:1.79239 11:73.223198 12:79.856201 13:0.66666698 14:0.82515001 15:0.830082 16:19.8946 17:1 18:4 19:-4 20:-86.333298 #
5.7754267372695187998925953065665e-05 1:4 2:36 3:1.33055 4:4.01406 5:5.6098099 6:1.56339 7:0.468335 8:0.345406 9:4.0141201 10:0.241767 11:11.3816 12:21.851601 13:0.444444 14:0.838072 15:0.78286099 16:3.3078301 17:4 18:36 19:7 20:111.714 #
-5.7754267372695187998925953065665e-05 1:-1 2:-17.3333 3:2.38781 4:1.26311 5:7.3737998 6:4.8330598 7:1.45207 8:1.34592 9:0.88361001 10:0.88361001 11:51.472801 12:51.140099 13:0.444444 14:0.85357898 15:0.852844 16:14.4853 17:-1 18:-17.3333 19:-6 20:-139.75 #
5.7754267372695187998925953065665e-05 1:5 2:14.6667 3:2.48054 4:6.6588898 5:2.7135899 6:1.28083 7:1.2823 8:0.611395 9:1.2265199 10:1.51469 11:77.149101 12:78.759697 13:0.166667 14:0.791251 15:0.78979999 16:20.8001 17:5 18:14.6667 19:9 20:83.400002 #
-5.7754267372695187998925953065665e-05 1:2 2:29.5 3:2.3137801 4:0.30476201 5:5.01581 6:0.384096 7:0.44038299 8:0.92643702 9:1.01355 10:0.067303799 11:7.2508502 12:62.0131 13:0.66666698 14:0.74134201 15:0.94111502 16:2.10937 17:3 18:40 19:1 20:-144.5 #
5.7754267372695187998925953065665e-05 1:2 2:9.3333302 3:5.0600901 4:2.13518 5:3.0622699 6:2.76999 7:0.56381702 8:0.70085102 9:3.8912799 10:3.8912799 11:84.640297 12:83.000397 13:0.444444 14:0.90978497 15:0.91070098 16:22.4594 17:3 18:30.5 19:5 20:58.333302 #
5.7754267372695187998925953065665e-05 1:1 2:-4 3:1.41623 4:0.74047399 5:2.6171501 6:0.71745801 7:0.28804201 8:1.62949 9:2.3566 10:0.065700203 11:12.276 12:23.797001 13:0.33333299 14:0.63261002 15:0.95903301 16:3.5668001 17:1 18:-4 19:-1 20:-166.66701 #
-5.7754267372695187998925953065665e-05 1:4 2:37.5 3:1.5864201 4:0.27122799 5:3.27756 6:7.45474 7:3.84168 8:1.3946199 9:4.33881 10:1.28453 11:61.249599 12:19.444099 13:0.444444 14:0.86994201 15:0.758008 16:16.993299 17:4 18:37.5 19:3 20:-185.8 #
5.7754267372695187998925953065665e-05 1:1 2:-7 3:2.23859 4:0.75642002 5:7.4829702 6:2.1224599 7:0.236164 8:0.21089301 9:0.56945002 10:0.0935231 11:5.71244 12:89.458 13:0.166667 14:0.77356797 15:0.91174197 16:1.66225 17:1 18:-7 19:2 20:84.333298 #
-5.7754267372695187998925953065665e-05 1:-4 2:-22.5 3:4.0174198 4:1.37932 5:3.5083499 6:0.87472302 7:0.82559103 8:2.62075 9:0.72949702 10:0.72949702 11:48.478199 12:41.771099 13:1 14:0.89525503 15:0.91965699 16:13.6952 17:-4 18:-22.5 19:0 20:203 #
-5.7754267372695187998925953065665e-05 1:1 2:9 3:2.1068001 4:5.0685902 5:1.43739 6:0.70566201 7:0.36108699 8:0.69725901 9:0.78763598 10:0.25974199 11:23.211599 12:85.839996 13:0.33333299 14:0.73369902 15:0.83254498 16:6.7109699 17:1 18:9 19:3 20:163.83299 #
5.7754267372695187998925953065665e-05 1:3 2:7 3:1.74274 4:1.4034801 5:1.30638 6:0.252242 7:0.86912203 8:0.39552599 9:1.44226 10:1.3327301 11:65.885902 12:61.951801 13:0.33333299 14:0.69716698 15:0.79693002 16:18.140499 17:3 18:7 19:7 20:81.75 #
-5.7754267372695187998925953065665e-05 1:4 2:21.6 3:1.93108 4:6.3973598 5:3.5761499 6:0.213761 7:0.212589 8:0.76787198 9:0.53302097 10:0.036116399 11:4.0864801 12:71.540901 13:0.444444 14:0.77078599 15:0.96644402 16:1.18935 17:5 18:27.3333 19:3 20:-64.333298 #
5.7754267372695187998925953065665e-05 1:0 2:4 3:2.42818 4:1.7844599 5:2.2458999 6:6.96106 7:1.2821 8:0.84625697 9:2.3343501 10:2.3343501 11:86.2033 12:74.137497 13:0.222222 14:0.66403502 15:0.76418799 16:22.793699 17:1 18:40 19:1 20:40 #
-5.7754267372695187998925953065665e-05 1:0 2:0 3:2.2883799 4:1.42035 5:0.75091302 6:0.64395899 7:0.28571299 8:1.85008 9:1.1735899 10:1.20357 11:57.3708 12:42.129398 13:0.444444 14:0.75998902 15:0.74721801 16:16.0121 17:0 18:0 19:0 20:0 #
5.7754267372695187998925953065665e-05 1:1 2:34 3:1.47018 4:1.95437 5:5.3631301 6:0.930641 7:0.187656 8:0.65209299 9:0.465166 10:0.050391998 11:4.7544799 12:75.398399 13:0.444444 14:0.70401299 15:0.953161 16:1.38367 17:0 18:-32 19:0 20:-32 #
-5.7754267372695187998925953065665e-05 1:-1 2:-11.5 3:2.4038999 4:0.572905 5:1.16002 6:0.58434701 7:0.152349 8:0.41911501 9:0.70122701 10:0.34891099 11:30.005199 12:78.630203 13:0.66666698 14:0.87736499 15:0.80851197 16:8.6352797 17:0 18:86.75 19:0 20:86.75 #
5.7754267372695187998925953065665e-05 1:1 2:27 3:1.58832 4:3.5311301 5:3.3015499 6:0.61840498 7:0.246823 8:0.82552803 9:0.56445098 10:0.52122498 11:32.920502 12:71.610802 13:0.444444 14:0.66512197 15:0.65645498 16:9.4521198 17:3 18:57 19:5 20:104.3 #
-5.7754267372695187998925953065665e-05 1:3 2:10.6667 3:1.31689 4:2.1782401 5:1.1357599 6:0.49539101 7:0.56829298 8:0.797683 9:0.221999 10:0.049717199 11:5.0584202 12:85.290398 13:0.33333299 14:0.79357702 15:0.95445102 16:1.47207 17:1 18:-75.583298 19:1 20:-75.583298 #
5.7754267372695187998925953065665e-05 1:0 2:-4 3:1.0472701 4:3.6508 5:2.0376101 6:1.88721 7:0.64220297 8:0.37921399 9:0.25602099 10:0.051140498 11:8.9207897 12:81.390297 13:0.166667 14:0.81139398 15:0.961465 16:2.59429 17:0 18:-4 19:-1 20:-80 #
-5.7754267372695187998925953065665e-05 1:0 2:0 3:1.72706 4:2.6171 5:0.60010898 6:0.62191701 7:0.78697002 8:0.64736998 9:0.93736798 10:0.93736798 11:63.777699 12:69.658501 13:1 14:0.88131797 15:0.69762301 16:17.6224 17:0 18:0 19:0 20:0 #
5.7754267372695187998925953065665e-05 1:1 2:-23 3:1.95691 4:4.6606202 5:1.40662 6:1.59475 7:0.57117099 8:1.06876 9:0.72734398 10:0.066441096 11:10.8837 12:87.6073 13:0.444444 14:0.75235802 15:0.952196 16:3.1635699 17:1 18:-23 19:-2 20:-157.5 #
-5.7754267372695187998925953065665e-05 1:-1 2:-10 3:1.42428 4:3.74348 5:2.05581 6:0.92617202 7:0.83926702 8:0.647744 9:0.55947 10:0.023190999 11:5.3751302 12:80.061096 13:0.444444 14:0.93095702 15:0.98131001 16:1.56417 17:-1 18:-10 19:-1 20:172.5 #
-5.7754267372695187998925953065665e-05 1:3 2:7 3:2.6412201 4:2.1436601 5:1.2299401 6:0.74655098 7:0.083666198 8:0.47250399 9:0.40103 10:0.0326984 11:2.42398 12:88.6287 13:0.33333299 14:0.72270399 15:0.968247 16:0.70558703 17:3 18:7 19:2 20:-74.75 #
5.7754267372695187998925953065665e-05 1:0 2:0 3:1.60605 4:1.46551 5:0.64533699 6:0.43964601 7:0.22398201 8:1.02969 9:0.96758997 10:0.35867801 11:9.6249599 12:76.332703 13:1 14:0.52593899 15:0.658728 16:2.79861 17:4 18:77 19:9 20:108 #
5.7754267372695187998925953065665e-05 1:5 2:34 3:1.9117301 4:1.3279001 5:0.83408397 6:0.57469702 7:0.063839398 8:0.173053 9:0.32517001 10:0.21240599 11:16.943899 12:89.051598 13:0.444444 14:0.60053599 15:0.83471102 16:4.9145498 17:5 18:34 19:7 20:70.571404 #
-5.7754267372695187998925953065665e-05 1:-1 2:-12 3:1.82345 4:2.3199401 5:1.2712801 6:0.88533199 7:0.49931401 8:0.43379101 9:1.87374 10:0.34976599 11:34.664398 12:61.198601 13:0.222222 14:0.92167002 15:0.90780401 16:9.9378796 17:0 18:82 19:3 20:-28.200001 #
5.7754267372695187998925953065665e-05 1:1 2:-1 3:1.92518 4:0.64509797 5:1.02431 6:0.31576601 7:0.79197598 8:1.74426 9:3.0624599 10:0.159421 11:17.781401 12:31.292801 13:0.166667 14:0.80931097 15:0.89317399 16:5.15554 17:1 18:-1 19:4 20:74.599998 #
-5.7754267372695187998925953065665e-05 1:3 2:19 3:2.0594201 4:1.84263 5:2.72773 6:1.59022 7:0.28819999 8:0.41571999 9:0.65227801 10:0.204252 11:7.7243299 12:66.355202 13:0.33333299 14:0.57615399 15:0.80550802 16:2.2469101 17:3 18:19 19:3 20:19 #
-5.7754267372695187998925953065665e-05 1:6 2:23.1667 3:1.71788 4:0.98571903 5:0.81422299 6:0.20108999 7:0.328215 8:0.52083802 9:0.34415299 10:0.22846501 11:20.194599 12:67.156197 13:1 14:0.838076 15:0.84410203 16:5.8484101 17:6 18:23.1667 19:8 20:-43.099998 #
-5.7754267372695187998925953065665e-05 1:2 2:15.8333 3:1.58562 4:2.8241899 5:3.7466099 6:0.79660702 7:0.175946 8:0.41708899 9:0.200222 10:0.24152 11:22.9662 12:85.647003 13:0.66666698 14:0.83746898 15:0.85309601 16:6.6409702 17:4 18:27.200001 19:3 20:-69.800003 #
5.7754267372695187998925953065665e-05 1:0 2:4 3:1.5453 4:1.28427 5:0.82225502 6:0.51372498 7:0.394393 8:0.75649899 9:0.90034902 10:0.35056901 11:15.8068 12:56.039398 13:0.444444 14:0.63412398 15:0.702887 16:4.5869002 17:2 18:50 19:-1 20:-115 #
5.7754267372695187998925953065665e-05 1:1 2:26 3:1.37591 4:1.4699 5:2.21963 6:0.91549599 7:0.180577 8:0.62226403 9:0.97589201 10:0.103088 11:10.6468 12:74.355499 13:0.444444 14:0.56957501 15:0.916399 16:3.0948999 17:1 18:26 19:7 20:116.571 #
5.7754267372695187998925953065665e-05 1:-1 2:-6 3:3.66032 4:2.2574501 5:2.1946599 6:1.68097 7:0.32052901 8:0.39737901 9:1.2978801 10:0.079706199 11:8.4873505 12:84.788002 13:0.33333299 14:0.76455897 15:0.93146503 16:2.4684701 17:-1 18:-6 19:1 20:83 #
-5.7754267372695187998925953065665e-05 1:2 2:33.625 3:3.7948799 4:2.15639 5:1.0055799 6:0.69607502 7:0.23193599 8:0.68089098 9:0.64057302 10:0.034549799 11:7.1834602 12:60.140999 13:0.444444 14:0.74749202 15:0.97341502 16:2.0897901 17:5 18:54.700001 19:5 20:54.700001 #
