SVM-light Version V6.02
0 # kernel type
3 # kernel parameter -d 
1 # kernel parameter -g 
1 # kernel parameter -s 
1 # kernel parameter -r 
empty# kernel parameter -u 
20 # highest feature index 
2150 # number of training documents 
63 # number of support vectors plus 1 
1.0530744 # threshold b, each following line is a SV (starting with alpha*y)
-5.6078426361911617710562932836993e-05 1:1 2:15 3:8.7419205 4:3.6870301 5:1.98084 6:2.85939 7:2.4377201 8:0.734635 9:2.0543699 10:4.7563 11:78.937302 12:80.8918 13:1 14:0.97561997 15:0.87847102 16:21.2045 17:1 18:15 19:-7 20:-191.625 #
5.6078426361911617710562932836993e-05 1:5 2:21.6786 3:3.1675501 4:0.28713301 5:3.7543199 6:2.4595799 7:0.97522801 8:3.6961901 9:4.0662298 10:4.0662298 11:84.427399 12:75.259201 13:0.66666698 14:0.84011102 15:0.89116699 16:22.4135 17:5 18:21.6786 19:3 20:-61.8214 #
-5.6078426361911617710562932836993e-05 1:-4 2:-39.5 3:1.46428 4:0.141469 5:0.42175701 6:1.16008 7:0.51765001 8:0.41325799 9:0.69161302 10:0.69161302 11:50.1544 12:87.964897 13:0.66666698 14:0.93828201 15:0.91179001 16:14.1386 17:-4 18:-39.5 19:-5 20:-58 #
5.6078426361911617710562932836993e-05 1:2 2:17 3:2.6665299 4:0.80736899 5:1.53873 6:2.6715801 7:0.484384 8:0.67051399 9:0.74481499 10:0.74481499 11:44.738899 12:47.101101 13:0.66666698 14:0.75624597 15:0.76800698 16:12.6955 17:2 18:17 19:0 20:-260 #
-3.4570445536549754272925838449737e-05 1:0 2:0 3:3.9853699 4:0.233237 5:0.50146502 6:0.84655601 7:0.55712098 8:0.40346199 9:0.472666 10:3.3034799 11:80.860703 12:53.521099 13:0.66666698 14:0.81590003 15:0.89472198 16:21.633801 17:0 18:0 19:0 20:0 #
5.6078426361911617710562932836993e-05 1:-3 2:-13.3333 3:5.0415602 4:0.199242 5:0.398848 6:1.34602 7:2.7059901 8:0.65847898 9:1.9446 10:1.9446 11:66.326401 12:80.5616 13:1 14:0.94039702 15:0.94353199 16:18.2479 17:-3 18:-13.3333 19:-2 20:100.667 #
-5.6078426361911617710562932836993e-05 1:0 2:0 3:2.3364 4:0.273415 5:0.536048 6:0.27554899 7:0.50586802 8:0.22068 9:0.46155101 10:1.39579 11:73.097099 12:78.355003 13:0.33333299 14:0.765957 15:0.79835302 16:19.865101 17:0 18:0 19:-1 20:-175.25 #
-5.6078426361911617710562932836993e-05 1:0 2:0 3:2.2446401 4:0.183763 5:0.49340999 6:1.38896 7:0.34876299 8:0.337567 9:0.99170798 10:2.38657 11:69.3517 12:85.427002 13:0.66666698 14:0.90488499 15:0.90038902 16:18.9788 17:0 18:0 19:0 20:0 #
-9.1495542603252108060461061933566e-06 1:3 2:19 3:3.60818 4:0.18584 5:1.7412699 6:4.5947099 7:0.69068301 8:1.18204 9:0.916655 10:1.67945 11:63.172798 12:75.1409 13:0.444444 14:0.95054197 15:0.88995898 16:17.4727 17:7 18:39.25 19:7 20:39.25 #
-5.6078426361911617710562932836993e-05 1:3 2:19 3:3.33724 4:0.182449 5:0.485589 6:1.09421 7:0.92539102 8:1.19962 9:1.50744 10:2.76437 11:76.306099 12:44.027302 13:0.444444 14:0.94717598 15:0.90412301 16:20.6077 17:3 18:19 19:2 20:-243 #
5.6078426361911617710562932836993e-05 1:5 2:20.8571 3:1.84006 4:3.1100099 5:11.5916 6:0.39532501 7:1.01292 8:1.25693 9:1.28398 10:1.99449 11:69.540703 12:38.5284 13:0.66666698 14:0.67415899 15:0.86805302 16:19.024 17:5 18:20.8571 19:5 20:20.8571 #
-1.5570411364964547933868038720462e-05 1:0 2:0 3:1.9437701 4:1.1445 5:1.02582 6:0.483031 7:0.60934401 8:0.48194301 9:0.81294 10:0.76163101 11:51.274502 12:83.9077 13:0.66666698 14:0.94598901 15:0.96586502 16:14.4333 17:0 18:0 19:-1 20:-234 #
5.6078426361911617710562932836993e-05 1:4 2:11.2 3:3.8201499 4:0.95992899 5:1.32319 6:0.68584901 7:0.66724998 8:0.70473301 9:1.13252 10:3.2757299 11:84.110703 12:86.730202 13:1 14:0.89533597 15:0.86830503 16:22.3451 17:3 18:-20.799999 19:-2 20:-182.8 #
-5.6078426361911617710562932836993e-05 1:-3 2:-20.799999 3:3.5169499 4:2.56305 5:0.16683 6:0.49525699 7:1.61166 8:1.7974499 9:1.91908 10:2.18085 11:67.208603 12:86.793602 13:0.66666698 14:0.83942503 15:0.858886 16:18.4624 17:-3 18:-20.799999 19:-3 20:-20.799999 #
5.6078426361911617710562932836993e-05 1:0 2:-1.65 3:2.65906 4:0.24834999 5:1.6436501 6:10.4572 7:2.1076901 8:1.23577 9:2.8545899 10:2.8545899 11:79.949799 12:85.645798 13:1 14:0.82630801 15:0.867818 16:21.4312 17:1 18:9.96667 19:1 20:9.96667 #
-5.6078426361911617710562932836993e-05 1:1 2:-12 3:4.3564501 4:0.305646 5:0.82972997 6:0.31762099 7:0.37617201 8:0.26254299 9:0.48543501 10:4.18853 11:81.626701 12:80.411499 13:0.444444 14:0.92843997 15:0.88953698 16:21.802999 17:1 18:-12 19:4 20:94.800003 #
-5.6078426361911617710562932836993e-05 1:0 2:0 3:2.6286299 4:0.71653199 5:0.96981102 6:0.463644 7:0.266801 8:0.15039 9:0.582681 10:1.52552 11:64.588402 12:89.514702 13:0.444444 14:0.859559 15:0.90296298 16:17.8223 17:0 18:0 19:-1 20:-262.5 #
5.6078426361911617710562932836993e-05 1:3 2:-5.5 3:6.8860502 4:0.29527599 5:0.34103701 6:0.79730898 7:3.95999 8:1.9918 9:5.39711 10:5.39711 11:75.921799 12:36.858799 13:0.66666698 14:0.97047502 15:0.95317203 16:20.5196 17:3 18:-5.5 19:3 20:-5.5 #
5.6078426361911617710562932836993e-05 1:6 2:6.9375 3:2.49069 4:0.56771398 5:1.74593 6:1.14262 7:1.50354 8:0.524593 9:0.94834203 10:0.75783098 11:50.334702 12:68.266701 13:1 14:0.81867701 15:0.95385301 16:14.1862 17:5 18:-11.9792 19:3 20:-110.713 #
-5.6078426361911617710562932836993e-05 1:0 2:0 3:2.2035999 4:0.176208 5:0.54024202 6:1.9651099 7:0.510665 8:0.242384 9:1.46808 10:2.20064 11:70.427101 12:48.4403 13:0.33333299 14:0.57808203 15:0.89327198 16:19.235399 17:0 18:0 19:-1 20:-168.375 #
-5.6078426361911617710562932836993e-05 1:1 2:59.4375 3:1.33437 4:2.3313799 5:1.26115 6:0.234825 7:0.25299001 8:0.34250101 9:0.217039 10:3.4154999 11:88.662399 12:72.548103 13:0.66666698 14:0.94546998 15:0.85582101 16:23.3111 17:5 18:75 19:5 20:-68.135399 #
5.6078426361911617710562932836993e-05 1:1 2:60 3:1.55986 4:1.07039 5:0.97109902 6:3.02141 7:0.54168999 8:0.87928301 9:0.89358902 10:1.41658 11:67.115196 12:56.418301 13:0.66666698 14:0.88370001 15:0.842987 16:18.439699 17:4 18:79.5 19:5 20:-88.636398 #
5.6078426361911617710562932836993e-05 1:1 2:15.6667 3:2.9405401 4:0.78836799 5:1.51281 6:2.27668 7:2.0945699 8:0.98179501 9:2.96068 10:7.5480199 11:88.988403 12:80.476799 13:1 14:0.80555803 15:0.88418102 16:23.378901 17:6 18:33.75 19:1 20:-135.536 #
5.6078426361911617710562932836993e-05 1:-1 2:-1.83333 3:4.7539201 4:0.82637298 5:4.36762 6:4.22227 7:1.60186 8:0.43542999 9:6.08845 10:6.08845 11:74.620598 12:22.5473 13:1 14:0.98643202 15:0.973216 16:20.219601 17:-3 18:-18.6667 19:-4 20:-29.0476 #
-5.6078426361911617710562932836993e-05 1:0 2:0 3:5.0135398 4:1.15467 5:34.212799 6:3.30949 7:0.41894799 8:0.39849299 9:6.0637002 10:4.59516 11:81.565498 12:29.576 13:1 14:0.92108101 15:0.93693602 16:21.789499 17:-1 18:-72 19:-1 20:-72 #
5.6078426361911617710562932836993e-05 1:2 2:-28 3:1.48374 4:0.76740301 5:2.55951 6:0.72164798 7:0.85118097 8:0.250184 9:0.40994501 10:2.6960499 11:85.107597 12:80.100601 13:0.66666698 14:0.761244 15:0.87704098 16:22.559799 17:2 18:-28 19:2 20:-28 #
5.6078426361911617710562932836993e-05 1:-5 2:-7.3333302 3:4.19136 4:0.38222101 5:1.70419 6:6.0520301 7:2.10586 8:3.5683801 9:2.8163199 10:2.12005 11:68.369499 12:54.432598 13:0.33333299 14:0.91595799 15:0.917566 16:18.742901 17:-6 18:-11.4 19:-8 20:-24 #
-5.6078426361911617710562932836993e-05 1:-1 2:-14 3:4.5201802 4:0.91319299 5:0.48796499 6:1.45701 7:1.13817 8:0.64734799 9:1.82117 10:5.6915302 11:88.572899 12:85.9646 13:0.66666698 14:0.86029702 15:0.94263899 16:23.2924 17:-1 18:-14 19:5 20:137.286 #
5.6078426361911617710562932836993e-05 1:0 2:5.875 3:3.2622199 4:1.22235 5:0.53328103 6:1.57385 7:0.92297202 8:0.88439298 9:0.521267 10:1.57654 11:59.804199 12:84.097 13:1 14:0.899037 15:0.87373 16:16.6299 17:3 18:20.75 19:3 20:-86.4375 #
5.6078426361911617710562932836993e-05 1:2 2:2.5 3:4.1469302 4:1.33217 5:1.1964 6:1.31374 7:1.49738 8:0.87338197 9:3.41401 10:4.4960899 11:87.1595 12:21.021299 13:0.66666698 14:0.81663299 15:0.90459102 16:22.996099 17:2 18:2.5 19:2 20:2.5 #
5.6078426361911617710562932836993e-05 1:-2 2:8.3333302 3:4.3108802 4:5.62255 5:16.707899 6:11.7143 7:3.32394 8:4.7827101 9:6.4858999 10:4.9664502 11:82.547897 12:72.798401 13:0.66666698 14:0.890504 15:0.92933899 16:22.005301 17:-2 18:8.3333302 19:-2 20:8.3333302 #
-5.6078426361911617710562932836993e-05 1:3 2:27.3333 3:4.2274699 4:4.7543101 5:2.5935299 6:6.1508298 7:1.54014 8:0.45500201 9:4.3653598 10:4.3653598 11:74.114197 12:33.9454 13:1 14:0.98093998 15:0.91478902 16:20.1022 17:3 18:27.3333 19:2 20:-138.66701 #
5.6078426361911617710562932836993e-05 1:-1 2:0 3:3.8961201 4:0.46100399 5:2.0769701 6:1.59426 7:2.44647 8:0.37165201 9:1.95427 10:3.0480599 11:79.963699 12:26.2129 13:1 14:0.60751599 15:0.89682001 16:21.434299 17:-2 18:-20.6667 19:-6 20:-69.428596 #
-5.6078426361911617710562932836993e-05 1:0 2:0 3:1.76343 4:6.7446599 5:0.309448 6:0.23179001 7:0.105129 8:0.19488101 9:0.258598 10:6.2864299 11:86.8414 12:74.632599 13:0.444444 14:0.74944901 15:0.92909598 16:22.929001 17:0 18:0 19:0 20:36 #
5.6078426361911617710562932836993e-05 1:-2 2:-12.5 3:3.3936801 4:3.9869499 5:5.5110998 6:0.490053 7:0.57730198 8:1.06626 9:0.43276599 10:3.6633401 11:71.360298 12:65.028801 13:0.66666698 14:0.81602198 15:0.92320698 16:19.456699 17:-2 18:-12.5 19:-2 20:-12.5 #
-5.6078426361911617710562932836993e-05 1:6 2:29 3:3.9647701 4:1.8073601 5:0.69488001 6:1.4702899 7:2.21998 8:0.492497 9:2.5072 10:3.1375101 11:88.046898 12:52.5009 13:1 14:0.95004499 15:0.87337101 16:23.1826 17:8 18:41.5 19:3 20:-166.89999 #
-1.1796343562214817168865010899026e-05 1:-3 2:-8.5 3:3.1714101 4:0.61485702 5:1.26893 6:0.72362298 7:0.67756999 8:0.45348001 9:0.80945599 10:0.80945599 11:52.021599 12:84.993896 13:0.66666698 14:0.98717898 15:0.98459601 16:14.629 17:-5 18:-31.3333 19:-11 20:-70 #
-5.6078426361911617710562932836993e-05 1:0 2:0 3:4.1724901 4:0.42165101 5:3.09442 6:3.6269901 7:1.61621 8:0.78667402 9:3.73382 10:6.34548 11:77.546898 12:21.062 13:1 14:0.98114097 15:0.97040498 16:20.890499 17:0 18:31 19:-10 20:-130.22701 #
-5.6078426361911617710562932836993e-05 1:-2 2:-12 3:2.8052101 4:0.42480001 5:1.29848 6:1.11063 7:0.558864 8:0.35662001 9:1.29468 10:1.29468 11:59.220299 12:89.004799 13:0.66666698 14:0.97455901 15:0.97112203 16:16.4823 17:-2 18:-12 19:-2 20:-12 #
5.6078426361911617710562932836993e-05 1:-4 2:-21.1667 3:3.05299 4:2.21508 5:0.725272 6:2.1451299 7:0.39958999 8:3.84374 9:1.59986 10:2.3396001 11:72.153603 12:77.282402 13:0.444444 14:0.89230299 15:0.87592602 16:19.643801 17:-4 18:-21.1667 19:-4 20:-21.1667 #
-1.8027917113250626398451847975934e-05 1:-1 2:-58 3:1.4858299 4:0.30496901 5:0.45852399 6:0.40629601 7:0.82894498 8:0.31955701 9:0.57090598 10:0.57090598 11:46.685799 12:85.021599 13:0.66666698 14:0.97923797 15:0.98406303 16:13.2177 17:-1 18:-58 19:-1 20:-58 #
5.6078426361911617710562932836993e-05 1:0 2:0 3:2.73856 4:0.56717199 5:1.18454 6:4.14852 7:0.85571402 8:0.97097999 9:1.58003 10:3.0627201 11:79.583 12:75.022499 13:0.66666698 14:0.67731398 15:0.85404199 16:21.3493 17:0 18:0 19:0 20:0 #
-5.6078426361911617710562932836993e-05 1:0 2:-12 3:2.5937099 4:0.30883199 5:0.93878502 6:1.16556 7:0.23293699 8:0.59491903 9:0.72656202 10:4.0395899 11:79.4487 12:46.902302 13:0.66666698 14:0.87630701 15:0.86558402 16:21.3193 17:1 18:17 19:1 20:17 #
-3.8477900201090174995242898514647e-05 1:2 2:24 3:4.2845802 4:2.09621 5:0.52384198 6:2.3562 7:0.56546098 8:0.27048901 9:0.92644101 10:2.6837001 11:71.237602 12:78.047302 13:1 14:0.86981899 15:0.902426 16:19.4277 17:1 18:-72 19:1 20:-72 #
5.6078426361911617710562932836993e-05 1:-3 2:-6.8000002 3:4.20471 4:0.81348002 5:0.700409 6:1.87695 7:2.39098 8:2.70645 9:2.15201 10:3.22435 11:80.924896 12:72.880997 13:0.444444 14:0.82412601 15:0.89018202 16:21.648001 17:-3 18:-6.8000002 19:-3 20:-6.8000002 #
-5.578380911157174637179934073572e-05 1:-1 2:-6 3:1.29571 4:0.59815502 5:0.45223299 6:0.41368201 7:0.189813 8:0.228861 9:0.60444999 10:2.35447 11:66.704399 12:89.8339 13:1 14:0.98385799 15:0.96606702 16:18.34 17:1 18:86 19:2 20:89.333298 #
5.6078426361911617710562932836993e-05 1:0 2:-5.1999998 3:1.35373 4:2.54636 5:4.7083302 6:1.94472 7:1.01196 8:1.38671 9:0.84395301 10:5.0170598 11:75.312599 12:76.0886 13:1 14:0.78443998 15:0.85539001 16:20.379499 17:-1 18:-11 19:-5 20:-98 #
-5.6078426361911617710562932836993e-05 1:0 2:0 3:13.9649 4:0.26463699 5:8.7728996 6:10.8744 7:3.3271501 8:0.38233501 9:10.266 10:10.4943 11:79.167 12:29.7897 13:1 14:0.99346602 15:0.99148202 16:21.2561 17:-1 18:-92 19:1 20:50.333302 #
-5.6078426361911617710562932836993e-05 1:0 2:0 3:4.4916401 4:2.0135901 5:0.69967198 6:1.30752 7:0.33789101 8:0.238566 9:0.73205 10:2.9122 11:82.235802 12:87.094002 13:0.33333299 14:0.91304803 15:0.89197701 16:21.936899 17:0 18:0 19:0 20:0 #
5.6078426361911617710562932836993e-05 1:-2 2:-9.6666698 3:5.9193902 4:1.6749901 5:1.3117501 6:12.8707 7:2.6846001 8:2.21417 9:2.6772599 10:2.53091 11:70.774696 12:77.352097 13:0.33333299 14:0.938986 15:0.92400301 16:19.318001 17:-3 18:-14.8571 19:-5 20:-56.444401 #
-2.7650995918407178747553537556669e-05 1:-1 2:-12.5 3:7.05585 4:0.72211403 5:0.93378103 6:7.5060101 7:3.7122099 8:0.31326899 9:18.384501 10:18.384501 11:81.600998 12:8.4094496 13:1 14:0.98825401 15:0.98619199 16:21.7974 17:-1 18:-12.5 19:0 20:204.5 #
5.6078426361911617710562932836993e-05 1:-3 2:-9.6666698 3:4.3673601 4:1.41372 5:1.94807 6:2.94526 7:1.73935 8:1.80366 9:3.47754 10:3.47754 11:83.540802 12:70.411598 13:0.66666698 14:0.91553098 15:0.89980298 16:22.221701 17:-3 18:-9.6666698 19:-3 20:-9.6666698 #
-5.6078426361911617710562932836993e-05 1:0 2:0 3:5.8158002 4:7.07021 5:7.2302999 6:6.6823401 7:1.22755 8:0.953556 9:10.3695 10:5.0423398 11:84.786903 12:6.5391502 13:1 14:0.912099 15:0.92735201 16:22.4909 17:0 18:0 19:0 20:0 #
5.6078426361911617710562932836993e-05 1:-1 2:-9.8333302 3:4.2852302 4:0.99181402 5:1.10923 6:1.80769 7:0.87437302 8:0.24926101 9:1.69119 10:1.96426 11:77.0019 12:75.620399 13:1 14:0.97691703 15:0.85236597 16:20.7666 17:-2 18:-16.9333 19:-3 20:-60.666698 #
5.6078426361911617710562932836993e-05 1:0 2:-14.5 3:2.9644301 4:0.31079501 5:1.5068099 6:3.4572899 7:0.96038097 8:1.64546 9:1.8250099 10:3.14518 11:82.460098 12:68.158798 13:0.66666698 14:0.88072801 15:0.86185598 16:21.986099 17:-1 18:-20.5 19:-1 20:-20.5 #
-5.6078426361911617710562932836993e-05 1:0 2:-11.25 3:2.80584 4:0.81486499 5:0.211861 6:0.56938601 7:0.571307 8:1.16417 9:1.34126 10:3.44064 11:78.3498 12:74.326401 13:0.66666698 14:0.79263502 15:0.85589701 16:21.072201 17:0 18:-11.25 19:0 20:-11.25 #
5.6078426361911617710562932836993e-05 1:1 2:-0.083333299 3:3.23645 4:3.09763 5:2.28423 6:3.3953199 7:0.81850898 8:0.314814 9:8.2676697 10:8.2676697 11:87.112701 12:48.6534 13:1 14:0.93284601 15:0.94145799 16:22.9863 17:1 18:-0.083333299 19:-1 20:-97.949997 #
5.6078426361911617710562932836993e-05 1:0 2:-11.25 3:2.8092101 4:0.186425 5:1.43571 6:10.4814 7:4.25419 8:1.6151 9:3.5366399 10:3.5366399 11:83.739098 12:89.348297 13:0.66666698 14:0.79098302 15:0.86670703 16:22.2647 17:0 18:-11.25 19:0 20:-11.25 #
-5.6078426361911617710562932836993e-05 1:1 2:6.75 3:2.96415 4:0.45396999 5:0.44038501 6:0.22196101 7:0.583327 8:1.47779 9:0.631791 10:2.13095 11:80.692299 12:86.8647 13:0.66666698 14:0.853405 15:0.75435799 16:21.596399 17:1 18:6.75 19:1 20:6.75 #
-5.6078426361911617710562932836993e-05 1:-5 2:-7.3333302 3:2.60221 4:0.212899 5:1.59877 6:2.03493 7:1.35509 8:1.38622 9:1.51738 10:2.01912 11:70.295303 12:54.932098 13:0.33333299 14:0.745399 15:0.70200503 16:19.204 17:-6 18:-11.4 19:-8 20:-24 #
-1.3243611979152705715456761481619e-05 1:0 2:0 3:3.49177 4:0.91402203 5:1.1286 6:1.1514699 7:0.28660899 8:0.170367 9:0.49971801 10:2.69203 11:71.668297 12:88.605301 13:0.66666698 14:0.90459901 15:0.890275 16:19.5294 17:0 18:0 19:0 20:78 #
-4.2716400119766030282764113223948e-08 1:0 2:0 3:4.2886 4:0.41316 5:0.165592 6:1.1727901 7:0.58116102 8:0.30737001 9:0.70403397 10:0.943479 11:54.754501 12:68.515602 13:0.66666698 14:0.846861 15:0.931701 16:15.3398 17:0 18:0 19:-1 20:-284 #
