SVM-light Version V6.02
0 # kernel type
3 # kernel parameter -d 
1 # kernel parameter -g 
1 # kernel parameter -s 
1 # kernel parameter -r 
empty# kernel parameter -u 
20 # highest feature index 
2161 # number of training documents 
3 # number of support vectors plus 1 
1.0000003 # threshold b, each following line is a SV (starting with alpha*y)
-5.9428202042352726071244459832917e-12 1:0 2:46.5 3:1.9628299 4:0.52641499 5:0.35531601 6:4.395 7:1.0960701 8:3.6903601 9:3.7998199 10:1.74113 11:63.849602 12:6.6573501 13:0.33333299 14:0.75240099 15:0.88851202 16:17.6402 17:1 18:51.3125 19:0 20:-83 #
5.9428202042352726071244459832917e-12 1:1 2:-16.625 3:5.7010102 4:0.383793 5:0.48427901 6:1.62849 7:1.6462801 8:0.72905898 9:2.08758 10:2.23404 11:67.5009 12:80.8004 13:0.166667 14:0.89358199 15:0.95329303 16:18.533199 17:1 18:-16.625 19:2 20:63.25 #
