SVM-light Version V6.02
0 # kernel type
3 # kernel parameter -d 
1 # kernel parameter -g 
1 # kernel parameter -s 
1 # kernel parameter -r 
empty# kernel parameter -u 
20 # highest feature index 
2176 # number of training documents 
74 # number of support vectors plus 1 
1.1307302 # threshold b, each following line is a SV (starting with alpha*y)
-5.6023984347203982666306421034363e-05 1:1 2:6 3:1.26556 4:0.75532103 5:0.766177 6:0.55795699 7:0.301781 8:0.394761 9:1.7259001 10:1.7259001 11:61.581699 12:31.9244 13:0.444444 14:0.89220202 15:0.86902797 16:17.076401 17:1 18:6 19:1 20:6 #
5.6023984347203982666306421034363e-05 1:5 2:32.708302 3:1.98567 4:0.81088901 5:1.8092099 6:1.48378 7:0.72198898 8:0.845092 9:3.72616 10:2.10675 11:81.4356 12:22.805201 13:1 14:0.91018403 15:0.76394999 16:21.7609 17:5 18:32.708302 19:1 20:-116.482 #
-5.6023984347203982666306421034363e-05 1:1 2:22 3:3.0135601 4:1.17339 5:0.72569299 6:0.81254798 7:0.95147997 8:0.35291901 9:1.69222 10:1.69222 11:62.164001 12:29.249399 13:0.66666698 14:0.87815899 15:0.90148199 16:17.2218 17:1 18:22 19:0 20:-78 #
5.6023984347203982666306421034363e-05 1:0 2:0 3:4.3555899 4:3.71416 5:2.6542101 6:2.72579 7:0.52460599 8:0.338377 9:4.8337102 10:1.96842 11:65.064301 12:22.706499 13:1 14:0.96950001 15:0.96109003 16:17.939301 17:-1 18:-98 19:-2 20:126 #
-5.6023984347203982666306421034363e-05 1:0 2:0 3:5.94841 4:0.88526601 5:0.67418402 6:0.80752701 7:0.37658 8:0.74710202 9:0.66810203 10:0.66810203 11:48.108501 12:42.253101 13:0.66666698 14:0.96575898 15:0.96737599 16:13.597 17:0 18:0 19:2 20:260 #
5.6023984347203982666306421034363e-05 1:2 2:25.25 3:4.5873899 4:4.8386798 5:1.23931 6:0.934641 7:1.05687 8:1.11498 9:1.10579 10:0.91285199 11:51.508999 12:45.557899 13:1 14:0.85021001 15:0.900868 16:14.4948 17:2 18:25.25 19:1 20:-249.25 #
-3.1412954650081130730104872483821e-05 1:6 2:35.333302 3:2.95439 4:0.47353199 5:1.12228 6:0.63803297 7:1.36673 8:2.6073599 9:1.89407 10:1.8976001 11:62.784698 12:29.2614 13:0.444444 14:0.98775601 15:0.98891699 16:17.376301 17:8 18:45 19:8 20:45 #
5.6023984347203982666306421034363e-05 1:-1 2:-5 3:2.69243 4:0.475128 5:0.58584499 6:1.83925 7:0.48448101 8:0.52879798 9:0.43973801 10:0.43973801 11:33.016102 12:87.349998 13:0.166667 14:0.88516301 15:0.69360501 16:9.4788198 17:-1 18:-5 19:0 20:273 #
-5.6023984347203982666306421034363e-05 1:4 2:20.5 3:3.6263299 4:1.22098 5:0.48252499 6:0.352312 7:0.34165001 8:0.38396201 9:2.76209 10:2.76209 11:67.633698 12:22.366501 13:1 14:0.93756098 15:0.93164301 16:18.5653 17:4 18:20.5 19:3 20:-147.5 #
-5.6023984347203982666306421034363e-05 1:0 2:0 3:2.8069201 4:0.425439 5:0.19427399 6:0.78607601 7:0.36377299 8:0.33708999 9:1.54667 10:1.72138 11:65.310699 12:36.882702 13:0.33333299 14:0.73051602 15:0.863864 16:17.999701 17:0 18:0 19:0 20:0 #
5.6023984347203982666306421034363e-05 1:0 2:0 3:3.76929 4:5.2709098 5:0.94970602 6:1.09159 7:0.98178601 8:0.39602801 9:2.7923601 10:2.7923601 11:68.340897 12:21.710699 13:1 14:0.92835701 15:0.94158798 16:18.736 17:0 18:0 19:-3 20:-268 #
5.6023984347203982666306421034363e-05 1:-1 2:15.5 3:2.1618299 4:1.29664 5:15.386 6:1.30024 7:1.38034 8:0.74131501 9:1.50111 10:0.88478601 11:51.52 12:81.434502 13:1 14:0.83479702 15:0.843476 16:14.4977 17:-3 18:-13.125 19:1 20:159.286 #
-5.6023984347203982666306421034363e-05 1:0 2:0 3:6.7976599 4:0.76941502 5:0.56846499 6:0.79183298 7:0.82458502 8:0.47330001 9:0.66052699 10:0.76438701 11:51.019001 12:43.9431 13:0.444444 14:0.98561698 15:0.99725902 16:14.3662 17:0 18:0 19:3 20:288 #
5.6023984347203982666306421034363e-05 1:-1 2:-8 3:3.49807 4:9.7818499 5:3.02279 6:2.1043899 7:0.63790399 8:0.40377399 9:2.69155 10:2.70715 11:66.844299 12:27.2852 13:1 14:0.967058 15:0.93358397 16:18.374001 17:-1 18:-8 19:0 20:230 #
-5.6023984347203982666306421034363e-05 1:-1 2:0 3:3.8961201 4:0.46100399 5:2.0769701 6:1.59426 7:2.44647 8:0.37165201 9:1.95427 10:3.0480599 11:79.963699 12:26.2129 13:1 14:0.60751599 15:0.89682001 16:21.434299 17:-2 18:-20.6667 19:-6 20:-69.428596 #
5.6023984347203982666306421034363e-05 1:0 2:0 3:5.0135398 4:1.15467 5:34.212799 6:3.30949 7:0.41894799 8:0.39849299 9:6.0637002 10:4.59516 11:81.565498 12:29.576 13:1 14:0.92108101 15:0.93693602 16:21.789499 17:-1 18:-72 19:-1 20:-72 #
5.6023984347203982666306421034363e-05 1:1 2:15 3:8.7419205 4:3.6870301 5:1.98084 6:2.85939 7:2.4377201 8:0.734635 9:2.0543699 10:4.7563 11:78.937302 12:80.8918 13:1 14:0.97561997 15:0.87847102 16:21.2045 17:1 18:15 19:-7 20:-191.625 #
-1.6564982572394164767612748101477e-05 1:0 2:0 3:2.3354399 4:0.16687199 5:1.73491 6:0.51284999 7:0.61953998 8:0.85281497 9:1.0056601 10:0.45151299 11:42.604301 12:38.302601 13:0.66666698 14:0.976538 15:0.96670002 16:12.1187 17:-1 18:-83.25 19:-2 20:-94 #
5.6023984347203982666306421034363e-05 1:1 2:58 3:3.2451799 4:4.5468102 5:4.8538599 6:4.3659501 7:2.5846601 8:0.336566 9:4.06387 10:10.8895 11:80.022301 12:31.9046 13:1 14:0.97498298 15:0.93259901 16:21.447399 17:1 18:58 19:-1 20:-38.666698 #
-5.6023984347203982666306421034363e-05 1:5 2:21.6786 3:4.1594901 4:1.90725 5:0.658095 6:0.60794997 7:2.75245 8:2.24438 9:2.3947301 10:1.14528 11:56.5938 12:24.998501 13:0.33333299 14:0.98360199 15:0.99440801 16:15.8133 17:5 18:21.6786 19:3 20:-61.8214 #
5.6023984347203982666306421034363e-05 1:-5 2:-18.799999 3:4.0137801 4:0.95921302 5:0.55382001 6:1.9498 7:0.88706899 8:0.58441401 9:0.99430501 10:0.99430501 11:54.200802 12:44.6968 13:1 14:0.88082498 15:0.91556102 16:15.1965 17:-5 18:-18.799999 19:3 20:210.45 #
-5.6023984347203982666306421034363e-05 1:-5 2:-7.3333302 3:4.19136 4:0.38222101 5:1.70419 6:6.0520301 7:2.10586 8:3.5683801 9:2.8163199 10:2.12005 11:68.369499 12:54.432598 13:0.33333299 14:0.91595799 15:0.917566 16:18.742901 17:-6 18:-11.4 19:-8 20:-24 #
-5.6023984347203982666306421034363e-05 1:0 2:0 3:3.6231699 4:0.36752999 5:0.78916901 6:0.60982001 7:0.354792 8:0.22308201 9:0.39693901 10:3.9658999 11:75.357597 12:57.5457 13:0.66666698 14:0.950643 15:0.91118902 16:20.3899 17:0 18:0 19:1 20:55 #
5.6023984347203982666306421034363e-05 1:0 2:-4 3:1.96236 4:2.4133401 5:1.29633 6:3.97791 7:1.1401 8:0.533921 9:1.85831 10:1.85831 11:61.7649 12:28.2691 13:1 14:0.95273399 15:0.92331702 16:17.1222 17:0 18:-4 19:-1 20:-136 #
-5.6023984347203982666306421034363e-05 1:0 2:0 3:1.76343 4:6.7446599 5:0.309448 6:0.23179001 7:0.105129 8:0.19488101 9:0.258598 10:6.2864299 11:86.8414 12:74.632599 13:0.444444 14:0.74944901 15:0.92909598 16:22.929001 17:0 18:0 19:0 20:36 #
5.6023984347203982666306421034363e-05 1:-3 2:-32.5 3:11.6925 4:1.10866 5:3.9611199 6:8.5245504 7:2.79965 8:0.76412499 9:26.889 10:55.719898 11:86.876801 12:39.4454 13:1 14:0.98748899 15:0.98512203 16:22.936399 17:-3 18:-32.5 19:-2 20:207.625 #
5.6023984347203982666306421034363e-05 1:6 2:29 3:3.9647701 4:1.8073601 5:0.69488001 6:1.4702899 7:2.21998 8:0.492497 9:2.5072 10:3.1375101 11:88.046898 12:52.5009 13:1 14:0.95004499 15:0.87337101 16:23.1826 17:8 18:41.5 19:3 20:-166.89999 #
-5.6023984347203982666306421034363e-05 1:3 2:20.5 3:5.5377598 4:0.29841501 5:1.7903399 6:1.94877 7:1.46831 8:1.2397701 9:1.48096 10:1.67811 11:61.979198 12:31.8785 13:0.444444 14:0.92617601 15:0.98195302 16:17.175699 17:4 18:27.3333 19:4 20:27.3333 #
5.6023984347203982666306421034363e-05 1:-1 2:-4.25 3:2.5004499 4:2.5739601 5:1.3065799 6:0.969338 7:0.54569501 8:0.56357801 9:0.72075099 10:0.72075099 11:48.273201 12:48.1842 13:1 14:0.830724 15:0.89062601 16:13.6407 17:-1 18:-4.25 19:0 20:139.875 #
-5.6023984347203982666306421034363e-05 1:-1 2:-1.83333 3:4.7539201 4:0.82637298 5:4.36762 6:4.22227 7:1.60186 8:0.43542999 9:6.08845 10:6.08845 11:74.620598 12:22.5473 13:1 14:0.98643202 15:0.973216 16:20.219601 17:-3 18:-18.6667 19:-4 20:-29.0476 #
5.6023984347203982666306421034363e-05 1:-3 2:-5.25 3:4.80794 4:1.3753 5:1.10623 6:1.18484 7:1.38597 8:0.794348 9:1.1103899 10:1.50921 11:77.214302 12:73.1632 13:1 14:0.83485299 15:0.76595497 16:20.814899 17:-3 18:-5.25 19:2 20:158.52901 #
-5.6023984347203982666306421034363e-05 1:0 2:-12 3:2.5937099 4:0.30883199 5:0.93878502 6:1.16556 7:0.23293699 8:0.59491903 9:0.72656202 10:4.0395899 11:79.4487 12:46.902302 13:0.66666698 14:0.87630701 15:0.86558402 16:21.3193 17:1 18:17 19:1 20:17 #
-5.6023984347203982666306421034363e-05 1:0 2:0 3:4.6345901 4:0.62313801 5:0.85831499 6:0.93316901 7:0.70201898 8:0.67700702 9:0.90834099 10:0.90834099 11:53.318401 12:50.691399 13:1 14:0.999354 15:0.99172801 16:14.9674 17:-1 18:-82 19:-1 20:5.8333302 #
5.6023984347203982666306421034363e-05 1:-1 2:-12.5 3:7.05585 4:0.72211403 5:0.93378103 6:7.5060101 7:3.7122099 8:0.31326899 9:18.384501 10:18.384501 11:81.600998 12:8.4094496 13:1 14:0.98825401 15:0.98619199 16:21.7974 17:-1 18:-12.5 19:0 20:204.5 #
-5.6023984347203982666306421034363e-05 1:-1 2:-8 3:2.16254 4:3.1332099 5:0.301164 6:0.79333198 7:3.7081399 8:0.51492602 9:1.17791 10:1.53427 11:69.9468 12:54.177101 13:1 14:0.74704099 15:0.776609 16:19.121 17:-1 18:-8 19:6 20:126.75 #
-5.6023984347203982666306421034363e-05 1:2 2:2.5 3:4.1469302 4:1.33217 5:1.1964 6:1.31374 7:1.49738 8:0.87338197 9:3.41401 10:4.4960899 11:87.1595 12:21.021299 13:0.66666698 14:0.81663299 15:0.90459102 16:22.996099 17:2 18:2.5 19:2 20:2.5 #
5.6023984347203982666306421034363e-05 1:0 2:0 3:5.9865198 4:0.39550301 5:0.80821198 6:1.31441 7:0.67835897 8:0.498546 9:0.589086 10:1.29084 11:71.069901 12:81.875603 13:0.444444 14:0.96974498 15:0.80803299 16:19.387899 17:0 18:0 19:2 20:134 #
5.6023984347203982666306421034363e-05 1:3 2:27.3333 3:4.2274699 4:4.7543101 5:2.5935299 6:6.1508298 7:1.54014 8:0.45500201 9:4.3653598 10:4.3653598 11:74.114197 12:33.9454 13:1 14:0.98093998 15:0.91478902 16:20.1022 17:3 18:27.3333 19:2 20:-138.66701 #
-5.6023984347203982666306421034363e-05 1:-1 2:-25.5 3:1.12892 4:0.875678 5:0.22330099 6:0.46511501 7:0.19962101 8:0.43497801 9:0.90626001 10:1.9356 11:88.5112 12:68.731796 13:0.444444 14:0.73620403 15:0.74746901 16:23.2796 17:-1 18:-25.5 19:-1 20:-25.5 #
-5.6023984347203982666306421034363e-05 1:-2 2:8.3333302 3:4.3108802 4:5.62255 5:16.707899 6:11.7143 7:3.32394 8:4.7827101 9:6.4858999 10:4.9664502 11:82.547897 12:72.798401 13:0.66666698 14:0.890504 15:0.92933899 16:22.005301 17:-2 18:8.3333302 19:-2 20:8.3333302 #
5.6023984347203982666306421034363e-05 1:0 2:0 3:3.34865 4:4.24404 5:6.1535201 6:1.17451 7:0.99364901 8:1.46996 9:4.4482298 10:5.7878299 11:75.253197 12:26.7192 13:1 14:0.99532098 15:0.88310897 16:20.365801 17:-3 18:-74.166702 19:-2 20:159.75 #
5.6023984347203982666306421034363e-05 1:-1 2:-14 3:4.5201802 4:0.91319299 5:0.48796499 6:1.45701 7:1.13817 8:0.64734799 9:1.82117 10:5.6915302 11:88.572899 12:85.9646 13:0.66666698 14:0.86029702 15:0.94263899 16:23.2924 17:-1 18:-14 19:5 20:137.286 #
5.6023984347203982666306421034363e-05 1:3 2:-5.5 3:2.3468399 4:1.02862 5:1.01289 6:0.538854 7:0.443645 8:1.09699 9:0.563007 10:0.43752599 11:37.955299 12:49.345299 13:0.66666698 14:0.68018597 15:0.85086203 16:10.8482 17:3 18:-5.5 19:3 20:-5.5 #
-5.6023984347203982666306421034363e-05 1:3 2:34.333302 3:2.00425 4:0.38015899 5:0.357429 6:1.3555 7:1.06923 8:2.8764901 9:2.12254 10:1.75736 11:70.914803 12:24.6301 13:0.66666698 14:0.79525602 15:0.769243 16:19.3512 17:1 18:-36.666698 19:3 20:63.799999 #
5.6023984347203982666306421034363e-05 1:-3 2:-20.799999 3:3.5169499 4:2.56305 5:0.16683 6:0.49525699 7:1.61166 8:1.7974499 9:1.91908 10:2.18085 11:67.208603 12:86.793602 13:0.66666698 14:0.83942503 15:0.858886 16:18.4624 17:-3 18:-20.799999 19:-3 20:-20.799999 #
-5.6023984347203982666306421034363e-05 1:-5 2:-36.666698 3:1.6775399 4:0.89231002 5:0.75035298 6:1.17544 7:1.4653 8:0.42182699 9:1.07717 10:1.03336 11:55.239399 12:34.546398 13:1 14:0.98712301 15:0.99127102 16:15.465 17:-7 18:-45.5 19:-7 20:-45.5 #
-5.6023984347203982666306421034363e-05 1:-3 2:-9.6666698 3:4.3673601 4:1.41372 5:1.94807 6:2.94526 7:1.73935 8:1.80366 9:3.47754 10:3.47754 11:83.540802 12:70.411598 13:0.66666698 14:0.91553098 15:0.89980298 16:22.221701 17:-3 18:-9.6666698 19:-3 20:-9.6666698 #
5.6023984347203982666306421034363e-05 1:-1 2:-5 3:3.56951 4:0.96445 5:5.4764099 6:1.618 7:2.8938999 8:0.28980601 9:3.5650899 10:3.5650899 11:69.149498 12:24.1469 13:1 14:0.94931501 15:0.81467801 16:18.9303 17:-4 18:-62.75 19:-3 20:112.9 #
5.6023984347203982666306421034363e-05 1:0 2:0 3:4.1724901 4:0.42165101 5:3.09442 6:3.6269901 7:1.61621 8:0.78667402 9:3.73382 10:6.34548 11:77.546898 12:21.062 13:1 14:0.98114097 15:0.97040498 16:20.890499 17:0 18:31 19:-10 20:-130.22701 #
-5.6023984347203982666306421034363e-05 1:0 2:-14.5 3:2.9644301 4:0.31079501 5:1.5068099 6:3.4572899 7:0.96038097 8:1.64546 9:1.8250099 10:3.14518 11:82.460098 12:68.158798 13:0.66666698 14:0.88072801 15:0.86185598 16:21.986099 17:-1 18:-20.5 19:-1 20:-20.5 #
-5.6023984347203982666306421034363e-05 1:3 2:-5.5 3:6.8860502 4:0.29527599 5:0.34103701 6:0.79730898 7:3.95999 8:1.9918 9:5.39711 10:5.39711 11:75.921799 12:36.858799 13:0.66666698 14:0.97047502 15:0.95317203 16:20.5196 17:3 18:-5.5 19:3 20:-5.5 #
5.6023984347203982666306421034363e-05 1:-3 2:-15 3:2.54703 4:4.9784598 5:5.02632 6:1.74801 7:0.50604302 8:0.32889801 9:2.69121 10:1.56501 11:59.476898 12:31.9189 13:1 14:0.94796699 15:0.88792998 16:16.547199 17:-3 18:-15 19:-3 20:-15 #
-5.6023984347203982666306421034363e-05 1:1 2:-0.083333299 3:3.23645 4:3.09763 5:2.28423 6:3.3953199 7:0.81850898 8:0.314814 9:8.2676697 10:8.2676697 11:87.112701 12:48.6534 13:1 14:0.93284601 15:0.94145799 16:22.9863 17:1 18:-0.083333299 19:-1 20:-97.949997 #
5.6023984347203982666306421034363e-05 1:2 2:13 3:4.5876598 4:1.51486 5:4.29775 6:2.90765 7:1.73392 8:0.49906799 9:3.9374199 10:4.4737902 11:73.300201 12:21.872499 13:1 14:0.94595802 15:0.96596599 16:19.9126 17:2 18:13 19:2 20:13 #
-5.3922147658130368370020535362386e-05 1:0 2:0 3:2.5831001 4:0.42471099 5:0.77867103 6:0.61181998 7:0.40998399 8:0.065492399 9:0.55972999 10:1.32816 11:66.667099 12:70.978401 13:0.444444 14:0.88016599 15:0.82497603 16:18.3309 17:-1 18:-76 19:0 20:60 #
5.6023984347203982666306421034363e-05 1:2 2:24 3:4.2845802 4:2.09621 5:0.52384198 6:2.3562 7:0.56546098 8:0.27048901 9:0.92644101 10:2.6837001 11:71.237602 12:78.047302 13:1 14:0.86981899 15:0.902426 16:19.4277 17:1 18:-72 19:1 20:-72 #
-5.6023984347203982666306421034363e-05 1:0 2:0 3:1.64301 4:0.158777 5:0.289004 6:1.31442 7:0.81553102 8:0.55848497 9:0.94166303 10:0.90232998 11:52.522598 12:39.417099 13:0.444444 14:0.86857998 15:0.94826102 16:14.76 17:-1 18:-82 19:-3 20:-206.66701 #
-5.6023984347203982666306421034363e-05 1:-2 2:-13 3:2.1597099 4:0.62954301 5:0.55035698 6:1.7127 7:0.246071 8:0.216717 9:0.623245 10:2.3372099 11:67.826202 12:46.544399 13:0.66666698 14:0.95244902 15:0.94062299 16:18.6119 17:-2 18:-13 19:-1 20:261 #
5.6023984347203982666306421034363e-05 1:-5 2:-7.3333302 3:2.60221 4:0.212899 5:1.59877 6:2.03493 7:1.35509 8:1.38622 9:1.51738 10:2.01912 11:70.295303 12:54.932098 13:0.33333299 14:0.745399 15:0.70200503 16:19.204 17:-6 18:-11.4 19:-8 20:-24 #
5.6023984347203982666306421034363e-05 1:-3 2:-9.6666698 3:1.60638 4:1.35934 5:0.79406899 6:0.51017499 7:0.962677 8:0.72065902 9:1.58254 10:3.0820701 11:74.078201 12:33.862099 13:0.66666698 14:0.54920602 15:0.83876401 16:20.0938 17:-3 18:-9.6666698 19:-3 20:-9.6666698 #
-5.6023984347203982666306421034363e-05 1:5 2:20.8571 3:1.84006 4:3.1100099 5:11.5916 6:0.39532501 7:1.01292 8:1.25693 9:1.28398 10:1.99449 11:69.540703 12:38.5284 13:0.66666698 14:0.67415899 15:0.86805302 16:19.024 17:5 18:20.8571 19:5 20:20.8571 #
-5.6023984347203982666306421034363e-05 1:0 2:0 3:3.9853699 4:0.233237 5:0.50146502 6:0.84655601 7:0.55712098 8:0.40346199 9:0.472666 10:3.3034799 11:80.860703 12:53.521099 13:0.66666698 14:0.81590003 15:0.89472198 16:21.633801 17:0 18:0 19:0 20:0 #
5.6023984347203982666306421034363e-05 1:0 2:0 3:2.40886 4:1.57031 5:3.33213 6:2.7263401 7:1.045 8:0.36168399 9:3.50998 10:3.50998 11:72.777496 12:26.522301 13:1 14:0.90098602 15:0.88412303 16:19.7903 17:0 18:0 19:-1 20:11.1667 #
-5.6023984347203982666306421034363e-05 1:0 2:0 3:4.2143502 4:0.540564 5:6.5197401 6:0.80991697 7:2.2478399 8:1.54661 9:1.23251 10:1.23251 11:57.519501 12:34.601101 13:0.33333299 14:0.98150402 15:0.98857802 16:16.049999 17:0 18:0 19:1 20:244 #
5.6023984347203982666306421034363e-05 1:0 2:0 3:13.9649 4:0.26463699 5:8.7728996 6:10.8744 7:3.3271501 8:0.38233501 9:10.266 10:10.4943 11:79.167 12:29.7897 13:1 14:0.99346602 15:0.99148202 16:21.2561 17:-1 18:-92 19:1 20:50.333302 #
-9.8997496743727722567918192453362e-06 1:-2 2:-23.6667 3:1.8581899 4:4.9538698 5:0.26809999 6:0.751863 7:0.66653001 8:1.09982 9:0.84505802 10:0.84505802 11:51.299702 12:38.861198 13:0.66666698 14:0.97766101 15:0.96430099 16:14.4399 17:-3 18:-35.875 19:-3 20:-35.875 #
-5.6023984347203982666306421034363e-05 1:2 2:12 3:3.2402501 4:0.404843 5:0.33093199 6:0.777785 7:0.32473499 8:0.57749897 9:0.808595 10:0.808595 11:50.446301 12:45.625198 13:1 14:0.93593001 15:0.93327397 16:14.2156 17:1 18:-86 19:2 20:4 #
5.6023984347203982666306421034363e-05 1:1 2:12.7 3:2.0963299 4:0.48633 5:0.286933 6:1.6622601 7:1.35339 8:2.30106 9:4.3593898 10:6.9189301 11:88.293098 12:6.2484298 13:1 14:0.779374 15:0.80718303 16:23.2341 17:1 18:12.7 19:1 20:12.7 #
-5.6023984347203982666306421034363e-05 1:0 2:0 3:1.90715 4:0.259536 5:1.14633 6:0.57730001 7:0.29494601 8:0.58782101 9:1.07512 10:1.6292 11:67.826401 12:38.701599 13:0.444444 14:0.716259 15:0.82966298 16:18.6119 17:0 18:0 19:0 20:0 #
5.6023984347203982666306421034363e-05 1:0 2:0 3:5.8158002 4:7.07021 5:7.2302999 6:6.6823401 7:1.22755 8:0.953556 9:10.3695 10:5.0423398 11:84.786903 12:6.5391502 13:1 14:0.912099 15:0.92735201 16:22.4909 17:0 18:0 19:0 20:0 #
5.6023984347203982666306421034363e-05 1:-5 2:-22 3:5.4597902 4:16.176901 5:1.7302901 6:7.91541 7:0.93309098 8:0.31105599 9:51.299702 10:51.299702 11:85.166603 12:10.7241 13:1 14:0.996705 15:0.97397798 16:22.572399 17:-5 18:-22 19:-5 20:-22 #
-5.6023984347203982666306421034363e-05 1:1 2:3.8333299 3:1.78809 4:0.59065998 5:0.412341 6:0.850793 7:0.88130599 8:1.8856 9:1.43189 10:1.43189 11:59.448502 12:33.931801 13:0.33333299 14:0.97125399 15:0.97820801 16:16.540001 17:1 18:3.8333299 19:1 20:3.8333299 #
-2.4813413942952327885223609560406e-07 1:-2 2:-25 3:2.6680601 4:0.43386 5:0.46948901 6:0.67420399 7:1.34053 8:0.43077001 9:0.59958202 10:1.14577 11:56.343102 12:48.584301 13:0.66666698 14:0.87160802 15:0.95688701 16:15.749 17:-2 18:-25 19:-1 20:139 #
