SVM-light Version V6.02
0 # kernel type
3 # kernel parameter -d 
1 # kernel parameter -g 
1 # kernel parameter -s 
1 # kernel parameter -r 
empty# kernel parameter -u 
20 # highest feature index 
2026 # number of training documents 
223 # number of support vectors plus 1 
1.00072 # threshold b, each following line is a SV (starting with alpha*y)
-4.2228641505142466838762516090355e-05 1:2 2:13.125 3:3.26174 4:0.37890199 5:0.38707101 6:0.229498 7:0.38316199 8:0.82833302 9:0.160008 10:0.14532299 11:18.7055 12:80.568398 13:0.66666698 14:0.91424 15:0.91205901 16:5.4211702 17:2 18:13.125 19:2 20:13.125 #
6.9345487051429251842277201589582e-05 1:-5 2:-25.65 3:2.50647 4:0.71043098 5:1.05755 6:1.18492 7:1.57757 8:1.60061 9:1.54732 10:4.1740699 11:87.2425 12:34.374401 13:0.66666698 14:0.79811901 15:0.81838399 16:23.013599 17:-5 18:-25.65 19:-5 20:-25.65 #
-6.5600004971327896541311019973364e-06 1:0 2:0 3:1.81656 4:0.179741 5:0.093761399 6:0.091936998 7:0.075180598 8:0.31299299 9:0.087267503 10:0.087267503 11:9.1322603 12:81.094398 13:0.444444 14:0.96886098 15:0.92718601 16:2.6556599 17:-3 18:-87.833298 19:-6 20:-131.66701 #
6.9345487051429251842277201589582e-05 1:0 2:0 3:3.00383 4:0.29906699 5:1.47768 6:2.7544401 7:2.5585301 8:1.6018 9:2.0371799 10:2.0371799 11:65.7854 12:58.862701 13:0.444444 14:0.98297799 15:0.95703501 16:18.1159 17:0 18:0 19:3 20:266.33301 #
-2.3551017235001747707201502635144e-05 1:-2 2:-33.5 3:2.50912 4:1.2412 5:12.578 6:2.32037 7:0.86515999 8:2.1162 9:1.52194 10:6.1359801 11:86.128998 12:56.8615 13:1 14:0.73218697 15:0.887326 16:22.777901 17:-3 18:-46.666698 19:-3 20:-46.666698 #
6.9345487051429251842277201589582e-05 1:4 2:27 3:1.4327 4:1.77993 5:2.61762 6:2.7818 7:2.6235299 8:1.05018 9:5.6744299 10:5.6744299 11:76.097198 12:14.3714 13:1 14:0.90892601 15:0.76025403 16:20.559799 17:5 18:36.200001 19:-2 20:-224.086 #
-7.2039465049704345250836112768411e-06 1:-2 2:-9.5 3:2.0113699 4:0.590747 5:2.6568699 6:24.1141 7:7.1325698 8:2.44012 9:5.8147202 10:11.3538 11:87.899902 12:24.030899 13:1 14:0.92537099 15:0.853302 16:23.1518 17:-5 18:-53 19:-5 20:-53 #
-1.7187908363609835090757629871838e-05 1:0 2:0 3:1.90342 4:1.01868 5:0.37667501 6:0.45951301 7:1.20373 8:4.33921 9:2.37763 10:3.53475 11:89.167999 12:33.5453 13:0.166667 14:0.80180699 15:0.769373 16:23.4161 17:0 18:0 19:1 20:229 #
6.9345487051429251842277201589582e-05 1:2 2:12.5 3:3.3311 4:0.50747299 5:2.3148601 6:1.19847 7:0.26439399 8:0.365161 9:0.58893299 10:0.26923999 11:4.9222298 12:76.920998 13:0.66666698 14:0.691746 15:0.73575699 16:1.43246 17:4 18:24.6667 19:4 20:24.6667 #
-6.6643681834580026368541894044029e-05 1:-6 2:-26.3333 3:2.27214 4:1.10186 5:0.20387 6:0.53638601 7:0.209673 8:0.239282 9:0.29689699 10:0.29266199 11:30.821301 12:77.097504 13:0.66666698 14:0.93818402 15:0.87212002 16:8.8645201 17:-11 18:-50.545502 19:-12 20:-54.833302 #
6.9345487051429251842277201589582e-05 1:0 2:0 3:2.6440001 4:0.74154299 5:2.31815 6:0.84366399 7:0.86096698 8:0.73278201 9:2.8357899 10:2.0189199 11:67.389397 12:13.5816 13:1 14:0.69918901 15:0.87717003 16:18.506201 17:-1 18:-100 19:-3 20:-180.66701 #
-3.4418565235640405657220608492963e-05 1:0 2:0 3:1.56905 4:1.18705 5:0.74304801 6:0.103268 7:0.24344701 8:1.13534 9:0.097874403 10:0.092872597 11:15.9076 12:87.6847 13:0.66666698 14:0.91141403 15:0.94929397 16:4.6159601 17:0 18:0 19:-1 20:-300 #
6.9345487051429251842277201589582e-05 1:-3 2:-16 3:1.13378 4:0.63855898 5:1.5702699 6:0.50079399 7:0.95193303 8:0.38266101 9:0.58315003 10:0.42179599 11:35.178101 12:51.677601 13:1 14:0.87611002 15:0.870785 16:10.0805 17:-3 18:-16 19:0 20:221.33299 #
-6.9345487051429251842277201589582e-05 1:0 2:0 3:2.1468799 4:0.59041899 5:1.11877 6:1.01525 7:1.68618 8:2.3108499 9:2.3626001 10:3.5582099 11:79.8992 12:54.148499 13:0.66666698 14:0.66005898 15:0.867073 16:21.42 17:-1 18:-74 19:-2 20:-187 #
6.9345487051429251842277201589582e-05 1:-2 2:16.6667 3:1.18414 4:0.82579899 5:0.67618197 6:1.93609 7:0.33869401 8:1.053 9:0.29739299 10:0.29739299 11:15.069 12:82.602997 13:0.66666698 14:0.67682397 15:0.74124801 16:4.3740702 17:0 18:39.333302 19:0 20:39.333302 #
-6.9345487051429251842277201589582e-05 1:1 2:4 3:2.54371 4:0.30254599 5:0.75017202 6:1.18284 7:5.5921102 8:2.4545701 9:5.6777101 10:4.46983 11:84.0979 12:15.8966 13:0.444444 14:0.85815603 15:0.85433102 16:22.3424 17:0 18:-74 19:0 20:-74 #
6.9345487051429251842277201589582e-05 1:-1 2:-44 3:2.5729301 4:0.190474 5:0.86886799 6:1.16723 7:1.87537 8:0.55201 9:3.68487 10:3.68487 11:79.739502 12:39.835602 13:1 14:0.82987303 15:0.870857 16:21.3843 17:-4 18:-76.5 19:-8 20:-95.75 #
-1.2618618716368383420576605724595e-05 1:-1 2:-6 3:2.5173399 4:0.538387 5:0.45624301 6:0.249641 7:0.25415799 8:0.875278 9:0.159422 10:0.159422 11:10.1435 12:83.113503 13:0.66666698 14:0.93693501 15:0.85797298 16:2.9489999 17:0 18:94 19:1 20:120 #
-6.9345487051429251842277201589582e-05 1:0 2:-16 3:1.98176 4:1.31741 5:1.2094899 6:0.43600199 7:0.45436901 8:0.26041299 9:0.35001001 10:0.35001001 11:33.504002 12:60.777302 13:0.444444 14:0.890086 15:0.88688803 16:9.6148996 17:3 18:17.6 19:3 20:17.6 #
6.9345487051429251842277201589582e-05 1:3 2:5.5 3:1.3568799 4:0.52996999 5:1.09346 6:1.66526 7:0.135515 8:0.78661001 9:0.29212201 10:0.29212201 11:22.030399 12:69.4207 13:0.444444 14:0.85547698 15:0.80618203 16:6.3737798 17:3 18:5.5 19:2 20:-43.5 #
6.9345487051429251842277201589582e-05 1:0 2:0 3:2.2990501 4:0.88540697 5:0.66165501 6:1.1339999 7:4.75 8:2.2009399 9:5.9365001 10:4.3199902 11:82.242302 12:27.047501 13:0.33333299 14:0.90853602 15:0.85376197 16:21.938299 17:0 18:0 19:1 20:202 #
6.9345487051429251842277201589582e-05 1:0 2:0 3:4.6957898 4:0.18295801 5:0.35394001 6:1.25972 7:0.23577 8:1.1522 9:1.75419 10:1.75419 11:80.3424 12:76.577904 13:1 14:0.95249099 15:0.84195298 16:21.5187 17:-1 18:-62 19:-6 20:-115.917 #
6.9345487051429251842277201589582e-05 1:2 2:28.25 3:2.29445 4:0.265847 5:0.495139 6:0.92836303 7:3.1744101 8:1.65646 9:2.5238099 10:2.90415 11:73.700996 12:33.861401 13:1 14:0.90617198 15:0.80614102 16:20.0061 17:5 18:56 19:9 20:156.66701 #
-4.8098261074930323349073402194875e-05 1:-3 2:-21.3333 3:8.2161903 4:0.083267599 5:0.30808601 6:0.394447 7:0.21174 8:0.090040602 9:0.26609299 10:0.088492602 11:22.370501 12:73.044098 13:0.66666698 14:0.97367901 15:0.996279 16:6.4709501 17:-3 18:-21.3333 19:-3 20:244 #
-6.9088208515317249395516763232905e-05 1:-1 2:45.5 3:2.5097799 4:0.27673301 5:0.80316597 6:0.98888803 7:3.0460501 8:3.6033199 9:6.2350998 10:6.5774798 11:86.979103 12:12.225 13:0.66666698 14:0.84518403 15:0.891164 16:22.958099 17:0 18:49 19:0 20:53.333302 #
6.9345487051429251842277201589582e-05 1:-1 2:-21.8333 3:2.38376 4:0.187419 5:0.45428899 6:0.59456903 7:0.136143 8:0.17322101 9:0.19620401 10:0.19620401 11:20.3571 12:79.5728 13:0.66666698 14:0.89161301 15:0.87519097 16:5.89498 17:0 18:7 19:0 20:7 #
-3.7925838630807878065764882080657e-06 1:-7 2:-33.4286 3:1.66991 4:1.2409101 5:0.59833503 6:0.85847199 7:0.45917699 8:0.34479901 9:2.1874101 10:0.335756 11:27.4035 12:26.5856 13:0.66666698 14:0.65930998 15:0.79790801 16:7.9015598 17:-7 18:-33.4286 19:-7 20:-33.4286 #
6.9345487051429251842277201589582e-05 1:-1 2:-12 3:2.89486 4:0.56986201 5:0.827236 6:1.34558 7:3.0080299 8:1.94542 9:9.1669903 10:9.1669903 11:83.340302 12:30.2157 13:0.66666698 14:0.98538101 15:0.90980399 16:22.178101 17:-2 18:-56 19:-5 20:-92.599998 #
-6.9345487051429251842277201589582e-05 1:2 2:8.3333302 3:2.30829 4:0.45811501 5:0.80703801 6:1.53276 7:1.67237 8:1.42409 9:2.37199 10:2.4781499 11:77.984001 12:44.282398 13:0.444444 14:0.92841101 15:0.83934999 16:20.989599 17:2 18:8.3333302 19:2 20:8.3333302 #
6.9345487051429251842277201589582e-05 1:-1 2:-8 3:6.40414 4:1.14669 5:0.617679 6:2.89452 7:2.09499 8:0.83186603 9:3.9356301 10:8.44944 11:81.288803 12:24.944901 13:0.66666698 14:0.92406398 15:0.96742898 16:21.7285 17:-2 18:-51 19:-5 20:-89.400002 #
-6.9345487051429251842277201589582e-05 1:1 2:60 3:1.99642 4:0.055305101 5:1.31762 6:2.9170799 7:2.36151 8:1.23595 9:2.0113399 10:2.2673399 11:87.928398 12:47.750301 13:1 14:0.81742501 15:0.77530301 16:23.157801 17:2 18:64 19:2 20:64 #
6.9345487051429251842277201589582e-05 1:-3 2:-39.333302 3:3.8468001 4:0.57411402 5:0.533768 6:1.0458699 7:5.6719298 8:0.71991301 9:3.9144599 10:6.10817 11:80.362701 12:8.7949104 13:0.66666698 14:0.76615202 15:0.93082398 16:21.523199 17:-4 18:-49.5 19:-4 20:-49.5 #
6.9345487051429251842277201589582e-05 1:1 2:19 3:2.9229901 4:0.085142396 5:0.47585201 6:0.60224402 7:1.7895401 8:0.72361702 9:1.69844 10:13.4377 11:83.263 12:56.490101 13:0.444444 14:0.79166597 15:0.90832901 16:22.161301 17:1 18:19 19:4 20:154.5 #
-5.5462635254660552774907955608796e-05 1:-1 2:-52 3:1.80185 4:1.12912 5:0.680076 6:0.31445801 7:0.171543 8:0.242608 9:0.138303 10:0.138303 11:11.0348 12:84.109299 13:0.66666698 14:0.91001803 15:0.88166797 16:3.20736 17:-1 18:-52 19:-1 20:4.6500001 #
-6.9345487051429251842277201589582e-05 1:4 2:17 3:2.3299 4:1.04052 5:2.2864799 6:2.427 7:3.46984 8:0.55332702 9:6.6069698 10:7.1455798 11:87.869499 12:9.5611696 13:0.66666698 14:0.885144 15:0.88776898 16:23.145399 17:4 18:17 19:4 20:17 #
6.9345487051429251842277201589582e-05 1:-2 2:13.5 3:1.10701 4:0.407206 5:0.75691801 6:0.60318202 7:1.34034 8:1.16813 9:0.89118701 10:0.381717 11:22.5798 12:72.485001 13:0.66666698 14:0.47400701 15:0.717628 16:6.5307002 17:-1 18:24.1667 19:-1 20:24.1667 #
-6.9345487051429251842277201589582e-05 1:-5 2:-36 3:3.44888 4:1.35435 5:0.37511101 6:0.67317897 7:1.29337 8:1.73464 9:0.85384899 10:3.4614301 11:80.034203 12:84.820999 13:1 14:0.88303101 15:0.88334 16:21.4501 17:-3 18:44.714298 19:-5 20:-10.5556 #
6.9345487051429251842277201589582e-05 1:-1 2:-10 3:3.1855299 4:0.106863 5:0.62025499 6:7.2772899 7:2.4892001 8:1.42308 9:16.7178 10:16.7178 11:88.8694 12:12.9208 13:0.66666698 14:0.94612199 15:0.94307601 16:23.3542 17:-1 18:-10 19:6 20:132 #
6.9345487051429251842277201589582e-05 1:-4 2:-24.799999 3:2.8022399 4:0.76944399 5:0.185583 6:0.40320599 7:2.4259 8:1.38421 9:2.2534101 10:2.9407699 11:77.149399 12:64.3657 13:1 14:0.84711701 15:0.85565001 16:20.8002 17:-4 18:-24.799999 19:-7 20:-96.5 #
-6.9345487051429251842277201589582e-05 1:2 2:11.5 3:2.5115199 4:0.55542201 5:0.202621 6:2.2937701 7:0.953026 8:1.33965 9:5.72998 10:7.5949202 11:84.646301 12:29.038601 13:0.444444 14:0.85568398 15:0.901914 16:22.460699 17:2 18:11.5 19:2 20:11.5 #
6.9345487051429251842277201589582e-05 1:0 2:0 3:2.8531301 4:4.7470398 5:0.74822402 6:4.0053301 7:3.75668 8:2.60795 9:2.11883 10:3.11326 11:75.512497 12:80.044403 13:0.33333299 14:0.74138403 15:0.84191501 16:20.425501 17:0 18:0 19:1 20:129.5 #
-4.953795706974517543130787089467e-11 1:1 2:46 3:3.4844699 4:0.509525 5:1.17435 6:1.13046 7:0.70610499 8:0.53408599 9:2.3934801 10:2.3934801 11:78.131897 12:72.152702 13:1 14:0.83059102 15:0.84891701 16:21.023001 17:1 18:46 19:1 20:46 #
6.9345487051429251842277201589582e-05 1:-4 2:-24.5 3:3.07444 4:0.47979 5:1.4365 6:1.5482301 7:3.41362 8:4.2386599 9:2.7389801 10:1.02979 11:54.855202 12:30.7253 13:1 14:0.86337298 15:0.89010602 16:15.3658 17:-4 18:-24.5 19:-7 20:-83.428596 #
-6.9345487051429251842277201589582e-05 1:0 2:0 3:1.12797 4:1.0017101 5:0.94347501 6:3.5855999 7:0.65879202 8:0.98326802 9:1.7541 10:1.7541 11:77.442902 12:65.785301 13:1 14:0.75389302 15:0.75555903 16:20.866899 17:0 18:0 19:0 20:0 #
6.9345487051429251842277201589582e-05 1:0 2:0 3:4.4212298 4:1.26272 5:0.291796 6:1.45629 7:1.02731 8:0.81645501 9:0.898471 10:4.0886102 11:73.299103 12:59.871899 13:0.66666698 14:0.92251903 15:0.94474 16:19.9123 17:0 18:0 19:1 20:140 #
-6.9345487051429251842277201589582e-05 1:-1 2:-9 3:3.08095 4:0.47828501 5:0.484898 6:2.62204 7:1.42556 8:1.1008 9:4.3313498 10:5.3785901 11:78.364899 12:13.6596 13:0.444444 14:0.803204 15:0.906627 16:21.0756 17:-4 18:-61.75 19:-3 20:102.25 #
6.9345487051429251842277201589582e-05 1:-2 2:32 3:2.8418601 4:0.139276 5:1.06388 6:0.77214199 7:0.53834599 8:0.59439701 9:0.53817201 10:1.78635 11:71.167297 12:64.742401 13:0.66666698 14:0.79142702 15:0.80678999 16:19.410999 17:0 18:49.333302 19:0 20:49.333302 #
6.9345487051429251842277201589582e-05 1:-3 2:-26.200001 3:1.77582 4:0.29901701 5:0.80382401 6:1.85268 7:1.22518 8:2.8495901 9:4.5915599 10:2.29579 11:73.225304 12:20.4223 13:0.33333299 14:0.88932598 15:0.67167902 16:19.8951 17:-3 18:-26.200001 19:0 20:140 #
-5.4834792371956375678365702697192e-05 1:-1 2:49 3:3.3231599 4:0.49278301 5:1.44943 6:1.20046 7:1.46086 8:2.58269 9:2.03543 10:7.4065499 11:84.759598 12:60.118 13:1 14:0.85817701 15:0.89808601 16:22.485001 17:0 18:53 19:0 20:53 #
6.9345487051429251842277201589582e-05 1:3 2:1.45 3:3.9744999 4:1.32909 5:1.7466201 6:1.05049 7:0.88727999 8:0.41979501 9:1.81578 10:1.81578 11:65.245903 12:77.176598 13:0.66666698 14:0.87661898 15:0.91999698 16:17.983801 17:2 18:-24.799999 19:-1 20:-69.716698 #
6.9345487051429251842277201589582e-05 1:2 2:10.5 3:2.80147 4:0.203651 5:0.86821097 6:2.0492699 7:0.69240999 8:1.62075 9:1.7557 10:6.5535898 11:88.555496 12:40.9496 13:0.66666698 14:0.89505798 15:0.88421798 16:23.288799 17:-1 18:-62.5 19:-1 20:-62.5 #
-6.9345487051429251842277201589582e-05 1:-3 2:-42 3:1.97588 4:0.78058302 5:0.46727601 6:1.21073 7:1.15194 8:0.81054801 9:2.5411699 10:2.5411699 11:83.491402 12:16.6437 13:1 14:0.63731098 15:0.69677001 16:22.210899 17:-1 18:27 19:-1 20:27 #
6.9345487051429251842277201589582e-05 1:1 2:14 3:1.61936 4:0.85130399 5:0.138486 6:1.8276 7:3.6412799 8:1.61122 9:3.60567 10:3.60567 11:80.003601 12:12.6537 13:0.66666698 14:0.77288902 15:0.79168302 16:21.443199 17:2 18:52 19:6 20:104.167 #
-6.9345487051429251842277201589582e-05 1:-2 2:-9 3:4.3742299 4:0.69165802 5:0.241363 6:0.90818501 7:6.1853199 8:2.69015 9:5.9714098 10:12.1263 11:87.578003 12:2.03124 13:0.66666698 14:0.83294201 15:0.924613 16:23.0842 17:0 18:56 19:0 20:56 #
6.9345487051429251842277201589582e-05 1:1 2:-13.625 3:1.27075 4:0.67800599 5:0.61611301 6:1.10751 7:1.18602 8:0.60508102 9:0.373907 10:0.71164799 11:46.059502 12:89.985802 13:1 14:0.73560297 15:0.69621599 16:13.0501 17:1 18:-13.625 19:1 20:-13.625 #
-6.915922037064877825416481238463e-05 1:0 2:0 3:1.4587899 4:0.67055202 5:1.31451 6:0.240327 7:0.595339 8:0.221689 9:0.13746101 10:0.13746101 11:11.2391 12:78.770203 13:0.66666698 14:0.93713301 15:0.88584203 16:3.2665401 17:-1 18:-96 19:6 20:76.428596 #
6.9345487051429251842277201589582e-05 1:-2 2:-12.75 3:4.9442201 4:0.66878301 5:0.62014902 6:3.35302 7:6.0255399 8:1.9103 9:15.7271 10:15.7271 11:86.9897 12:20.0779 13:1 14:0.95225102 15:0.95023501 16:22.9603 17:-2 18:-12.75 19:0 20:105.75 #
-6.9345487051429251842277201589582e-05 1:-1 2:18.3333 3:4.15204 4:1.18073 5:0.581981 6:4.1090498 7:3.04827 8:0.78871799 9:8.6248999 10:8.6248999 11:86.942703 12:30.000799 13:0.444444 14:0.894943 15:0.93825197 16:22.950399 17:-1 18:18.3333 19:-1 20:18.3333 #
6.9345487051429251842277201589582e-05 1:2 2:-5.3333302 3:2.60481 4:0.79137403 5:1.2391599 6:1.47228 7:1.59698 8:1.3273799 9:2.9197099 10:1.05452 11:58.353699 12:17.122601 13:1 14:0.66906202 15:0.77313399 16:16.262501 17:2 18:-5.3333302 19:3 20:65 #
-2.6641726570402791962610677956036e-05 1:-2 2:-50.5 3:2.8870699 4:1.2068 5:0.52060002 6:2.5311999 7:10.5491 8:1.9068201 9:3.0255001 10:3.0255001 11:88.860397 12:51.515999 13:0.444444 14:0.86356598 15:0.82922101 16:23.352301 17:-4 18:-58.375 19:3 20:95.767899 #
6.9345487051429251842277201589582e-05 1:-1 2:12.5 3:4.1695399 4:1.01993 5:1.5981899 6:1.4600199 7:2.13656 8:1.06978 9:3.9479301 10:0.694933 11:47.8195 12:61.650501 13:0.444444 14:0.88939899 15:0.91767502 16:13.5201 17:-2 18:-15.6667 19:-6 20:-59.285702 #
-6.9345487051429251842277201589582e-05 1:0 2:0 3:1.41528 4:0.49461499 5:0.36292201 6:1.02847 7:0.90229398 8:0.73672801 9:0.79637903 10:1.14057 11:51.298599 12:56.364101 13:0.33333299 14:0.46665001 15:0.74976897 16:14.4396 17:0 18:0 19:0 20:0 #
6.9345487051429251842277201589582e-05 1:1 2:20 3:3.4549301 4:1.92918 5:0.69152302 6:1.47113 7:2.1723199 8:1.20829 9:4.1357398 10:4.1357398 11:84.571198 12:56.9118 13:1 14:0.80263197 15:0.87776202 16:22.4445 17:5 18:64 19:5 20:64 #
-6.9345487051429251842277201589582e-05 1:0 2:50 3:4.05089 4:0.149285 5:0.52598101 6:1.07833 7:3.05758 8:1.51414 9:4.95925 10:4.95925 11:85.5877 12:54.549801 13:0.66666698 14:0.96740001 15:0.91904598 16:22.6625 17:1 18:53 19:1 20:53 #
6.9345487051429251842277201589582e-05 1:-2 2:3.25 3:2.2711301 4:0.26022899 5:0.69588 6:0.61135697 7:1.60533 8:1.02895 9:1.70024 10:3.93944 11:82.712898 12:48.2201 13:1 14:0.75378299 15:0.80148703 16:22.0413 17:-2 18:3.25 19:-1 20:28.5833 #
-6.9345487051429251842277201589582e-05 1:0 2:0 3:2.6115301 4:0.20330299 5:0.53172398 6:0.99207503 7:1.86124 8:0.78220201 9:1.22376 10:1.35502 11:84.511101 12:77.056198 13:1 14:0.718063 15:0.71454901 16:22.431499 17:0 18:0 19:0 20:0 #
-6.9345487051429251842277201589582e-05 1:0 2:13 3:2.01004 4:0.21688201 5:0.424218 6:2.13678 7:1.53631 8:1.45215 9:7.8470702 10:6.8687201 11:74.871002 12:16.372499 13:1 14:0.97130197 15:0.88062102 16:20.277599 17:0 18:13 19:0 20:13 #
6.9345487051429251842277201589582e-05 1:-1 2:31 3:2.8563299 4:0.625494 5:1.66152 6:1.1162699 7:3.8227401 8:4.3538599 9:4.8652601 10:4.8652601 11:82.737701 12:43.309799 13:0.33333299 14:0.92698002 15:0.89756101 16:22.046801 17:2 18:51 19:2 20:51 #
6.9345487051429251842277201589582e-05 1:-1 2:-42 3:3.6054599 4:0.14454199 5:0.83877701 6:1.67173 7:1.5471801 8:0.347184 9:2.2904699 10:3.11936 11:74.626198 12:33.202702 13:1 14:0.70949203 15:0.89284497 16:20.2209 17:-3 18:-72 19:-6 20:-92 #
6.9345487051429251842277201589582e-05 1:1 2:18.5 3:2.5806799 4:1.35607 5:0.64669901 6:1.08205 7:1.29733 8:1.48263 9:3.2083399 10:3.2083399 11:77.337799 12:16.821199 13:1 14:0.77039999 15:0.76963198 16:20.843 17:3 18:38.5 19:3 20:38.5 #
-6.9345487051429251842277201589582e-05 1:0 2:41.5 3:2.71472 4:0.657502 5:1.09409 6:2.6493101 7:4.1779699 8:1.51117 9:12.2235 10:12.2235 11:85.6605 12:8.3768902 13:0.66666698 14:0.93117899 15:0.90736502 16:22.678101 17:0 18:41.5 19:0 20:41.5 #
6.9345487051429251842277201589582e-05 1:-1 2:-13.25 3:2.06496 4:0.33909199 5:0.64895999 6:0.50323999 7:0.61418903 8:2.3626201 9:0.78267002 10:0.78267002 11:53.5312 12:78.724503 13:1 14:0.77037501 15:0.70223403 16:15.0227 17:-1 18:-13.25 19:-1 20:-13.25 #
-6.9345487051429251842277201589582e-05 1:0 2:0 3:2.1039801 4:0.436966 5:2.9493699 6:0.46338701 7:1.01803 8:1.32175 9:0.994537 10:1.98987 11:65.851601 12:86.891502 13:0.66666698 14:0.70972598 15:0.82006299 16:18.132099 17:0 18:0 19:0 20:0 #
6.9345487051429251842277201589582e-05 1:-1 2:18.6667 3:5.8663702 4:0.93914902 5:1.73219 6:2.64835 7:8.5558596 8:4.4320998 9:13.2926 10:9.7829905 11:89.131699 12:5.5692601 13:0.66666698 14:0.92733502 15:0.95279998 16:23.4086 17:-1 18:18.6667 19:-1 20:18.6667 #
-6.9345487051429251842277201589582e-05 1:0 2:3.75 3:2.2373199 4:0.252224 5:5.2576499 6:0.83773297 7:1.84209 8:1.53821 9:2.25562 10:1.29293 11:60.165699 12:30.8766 13:0.66666698 14:0.92608202 15:0.83272803 16:16.721001 17:0 18:3.75 19:0 20:3.75 #
6.9345487051429251842277201589582e-05 1:1 2:15 3:1.95591 4:0.14913499 5:0.43163699 6:1.23535 7:0.86816299 8:0.42230001 9:1.62378 10:1.62378 11:62.906101 12:55.895699 13:0.66666698 14:0.94752198 15:0.93255001 16:17.4065 17:1 18:15 19:1 20:15 #
-6.9345487051429251842277201589582e-05 1:1 2:5.5 3:3.1391399 4:0.526151 5:0.65897399 6:3.5671899 7:0.52160299 8:2.37412 9:1.07464 10:1.5691299 11:77.540497 12:46.250401 13:0.444444 14:0.771442 15:0.79199302 16:20.889099 17:1 18:5.5 19:1 20:5.5 #
6.9345487051429251842277201589582e-05 1:-2 2:14 3:2.8001201 4:0.85207301 5:0.38452601 6:3.0023601 7:2.03493 8:1.2194099 9:3.1210899 10:2.19417 11:67.674301 12:58.6441 13:0.66666698 14:0.77620798 15:0.84070998 16:18.575199 17:-2 18:14 19:-2 20:14 #
-6.4733834805708926848390183383941e-05 1:-5 2:-24 3:2.3376501 4:1.20305 5:0.60205799 6:0.63680798 7:3.34114 8:1.79303 9:5.4517002 10:0.62715501 11:47.178699 12:3.0531299 13:1 14:0.81855398 15:0.86359602 16:13.3494 17:-1 18:53.5 19:-1 20:53.5 #
-6.9345487051429251842277201589582e-05 1:0 2:0 3:1.9615 4:0.65930402 5:0.094024301 6:0.24830601 7:0.32101399 8:0.54620099 9:0.54946703 10:2.1064 11:71.900703 12:75.022301 13:1 14:0.59975398 15:0.71692401 16:19.5842 17:0 18:0 19:0 20:0 #
6.9345487051429251842277201589582e-05 1:-4 2:25 3:1.25563 4:0.229188 5:0.48867401 6:1.38412 7:1.01525 8:2.41887 9:3.3896101 10:1.95112 11:65.595802 12:23.246799 13:1 14:0.87790102 15:0.75840199 16:18.0695 17:-4 18:25 19:-4 20:25 #
-7.0447327787501397603712322004199e-08 1:0 2:0 3:2.15695 4:0.52336001 5:1.14255 6:6.6026402 7:1.05925 8:1.05672 9:7.2684898 10:16.7696 11:88.029099 12:17.0515 13:0.66666698 14:0.907749 15:0.88525403 16:23.1789 17:0 18:0 19:1 20:175 #
6.9345487051429251842277201589582e-05 1:-3 2:-39.0625 3:3.2711201 4:0.292539 5:0.66633201 6:0.91034001 7:2.19993 8:1.0251 9:0.89583099 10:1.75878 11:69.452797 12:73.305199 13:1 14:0.51245999 15:0.86223698 16:19.002899 17:-7 18:-51.8438 19:-7 20:-51.8438 #
-6.9345487051429251842277201589582e-05 1:0 2:0 3:2.6285901 4:0.120191 5:0.786367 6:0.54130799 7:0.35368001 8:0.56964302 9:0.66404402 10:1.16083 11:59.1609 12:55.452702 13:0.444444 14:0.56620598 15:0.82042497 16:16.4673 17:0 18:0 19:0 20:4 #
6.9345487051429251842277201589582e-05 1:-4 2:4.6666698 3:2.49314 4:0.35146901 5:0.383825 6:0.25587901 7:1.11772 8:3.3211801 9:3.27631 10:3.27631 11:82.776001 12:27.556101 13:1 14:0.74695498 15:0.80815202 16:22.055099 17:-2 18:35.666698 19:-3 20:19.4643 #
-6.9345487051429251842277201589582e-05 1:-2 2:6.1333299 3:1.92493 4:0.76618499 5:0.79891199 6:2.0672801 7:1.79511 8:2.48276 9:2.77529 10:2.77529 11:72.443001 12:42.591301 13:1 14:0.907462 15:0.87859899 16:19.7118 17:-2 18:6.1333299 19:-2 20:6.1333299 #
6.9345487051429251842277201589582e-05 1:2 2:10.6667 3:2.21141 4:0.78911299 5:1.5736099 6:3.5659699 7:1.92077 8:1.10399 9:2.6539199 10:1.73836 11:62.870499 12:35.839699 13:1 14:0.96553397 15:0.86422098 16:17.3976 17:2 18:10.6667 19:2 20:10.6667 #
-6.9345487051429251842277201589582e-05 1:1 2:6 3:2.80446 4:0.94893903 5:1.2623 6:0.93913198 7:3.5019 8:1.4836299 9:3.4148099 10:2.38135 11:67.0783 12:34.744099 13:0.66666698 14:0.87673497 15:0.89722598 16:18.430799 17:1 18:6 19:1 20:6 #
6.9345487051429251842277201589582e-05 1:0 2:2.5 3:2.1178 4:1.41549 5:4.44243 6:1.10149 7:0.57137799 8:1.8780299 9:0.82469302 10:2.2941101 11:70.418098 12:72.3507 13:1 14:0.58641601 15:0.86745298 16:19.2332 17:0 18:2.5 19:0 20:2.5 #
-6.9345487051429251842277201589582e-05 1:1 2:4 3:1.2422301 4:1.11059 5:1.5664001 6:0.604105 7:1.07284 8:0.45723501 9:0.51820397 10:1.6066099 11:70.708603 12:73.848503 13:0.66666698 14:0.686997 15:0.71644598 16:19.302299 17:1 18:4 19:1 20:4 #
6.9345487051429251842277201589582e-05 1:2 2:12.5 3:4.3449602 4:0.271698 5:1.69516 6:1.52046 7:1.34894 8:1.5681 9:6.7294998 10:6.7294998 11:83.602402 12:11.5449 13:0.66666698 14:0.877846 15:0.873173 16:22.235001 17:2 18:12.5 19:2 20:12.5 #
-6.9345487051429251842277201589582e-05 1:1 2:11 3:2.00561 4:1.31761 5:2.0926001 6:2.73751 7:1.87907 8:1.27122 9:1.58081 10:3.90012 11:82.312103 12:38.571098 13:0.66666698 14:0.91480798 15:0.81316698 16:21.9536 17:1 18:11 19:1 20:11 #
6.9345487051429251842277201589582e-05 1:0 2:1.75 3:3.30108 4:0.93893301 5:2.7001801 6:2.8425701 7:0.28609401 8:1.41338 9:1.44188 10:1.06077 11:56.4921 12:57.059502 13:1 14:0.83763301 15:0.90863401 16:15.7872 17:0 18:1.75 19:0 20:1.75 #
-6.9345487051429251842277201589582e-05 1:0 2:-31 3:2.0581999 4:0.85813701 5:0.85940802 6:1.17614 7:2.93437 8:1.87428 9:3.46329 10:2.3938799 11:65.728699 12:36.294201 13:0.66666698 14:0.88733703 15:0.89719701 16:18.1021 17:-1 18:-41 19:0 20:34.833302 #
6.9345487051429251842277201589582e-05 1:1 2:19 3:2.4704499 4:0.109144 5:0.93452901 6:0.900226 7:1.86143 8:2.21419 9:1.14815 10:3.4993501 11:86.323997 12:43.192299 13:0.444444 14:0.88290101 15:0.83269799 16:22.8193 17:1 18:19 19:1 20:1.5 #
-6.9345487051429251842277201589582e-05 1:2 2:11 3:3.02354 4:0.22157501 5:0.316163 6:2.74945 7:1.07391 8:1.0886 9:2.5494699 10:2.5494699 11:67.820297 12:28.816601 13:0.66666698 14:0.90043902 15:0.87266397 16:18.610399 17:2 18:11 19:2 20:11 #
6.9345487051429251842277201589582e-05 1:-3 2:1.16667 3:5.7644501 4:0.25270399 5:1.39247 6:4.2200699 7:1.08236 8:1.49102 9:1.58425 10:4.4295301 11:88.959297 12:75.639702 13:1 14:0.93096697 15:0.84718001 16:23.372801 17:-3 18:1.16667 19:-3 20:1.16667 #
-6.9345487051429251842277201589582e-05 1:0 2:12 3:5.49225 4:0.30554301 5:0.64785397 6:4.2288499 7:2.7404399 8:1.16432 9:2.6095099 10:2.6095099 11:73.537102 12:89.383202 13:0.33333299 14:0.91766 15:0.91913098 16:19.967899 17:0 18:12 19:0 20:12 #
6.9345487051429251842277201589582e-05 1:-1 2:3.2 3:1.8901 4:1.2244 5:0.43071601 6:1.98361 7:1.13174 8:1.66781 9:9.47085 10:1.3157901 11:64.2985 12:10.3311 13:0.66666698 14:0.90782702 15:0.85688901 16:17.7509 17:-1 18:3.2 19:-1 20:3.2 #
-6.9345487051429251842277201589582e-05 1:-1 2:2.375 3:4.7598801 4:0.29878199 5:1.1696 6:0.58398998 7:0.27019301 8:0.18918 9:0.412723 10:0.95032001 11:55.054501 12:54.3997 13:0.66666698 14:0.917 15:0.94951701 16:15.4173 17:-1 18:2.375 19:3 20:67.589302 #
6.9345487051429251842277201589582e-05 1:-1 2:-0.33333299 3:2.35393 4:0.35066 5:1.14846 6:1.95965 7:1.11902 8:0.443804 9:1.7596 10:2.9948201 11:82.801598 12:58.754002 13:0.444444 14:0.714122 15:0.73772401 16:22.060699 17:-1 18:-0.33333299 19:-1 20:-0.33333299 #
-6.9345487051429251842277201589582e-05 1:1 2:4 3:4.4682598 4:0.214021 5:0.450459 6:0.60986102 7:0.71804398 8:0.474585 9:0.85471398 10:0.85471398 11:57.741402 12:80.670097 13:0.66666698 14:0.90528202 15:0.80303299 16:16.1066 17:1 18:4 19:1 20:4 #
6.9345487051429251842277201589582e-05 1:0 2:6 3:1.61035 4:0.339026 5:0.42126799 6:1.72789 7:1.6496201 8:2.3449299 9:7.8190498 10:4.46101 11:72.303497 12:16.050301 13:1 14:0.95275199 15:0.77702498 16:19.679001 17:0 18:6 19:0 20:6 #
-6.3594178196753144605320173798901e-05 1:-4 2:-26 3:2.96611 4:2.06201 5:4.47261 6:2.0264699 7:2.0169001 8:2.89217 9:6.6234899 10:5.8080602 11:76.926804 12:29.254601 13:0.66666698 14:0.90889001 15:0.920497 16:20.7495 17:-6 18:-36.285702 19:-5 20:92.214302 #
6.9345487051429251842277201589582e-05 1:0 2:0 3:3.3914499 4:0.345792 5:0.45699501 6:1.77878 7:2.5853901 8:0.72615999 9:4.0704002 10:4.0704002 11:81.559502 12:53.831902 13:1 14:0.86079502 15:0.894315 16:21.7882 17:0 18:0 19:0 20:0 #
-6.9345487051429251842277201589582e-05 1:1 2:3.5 3:1.4771399 4:0.60598201 5:0.40777099 6:0.68868399 7:0.65474898 8:0.55051702 9:1.34136 10:0.78040498 11:52.7262 12:64.172302 13:0.66666698 14:0.63259399 15:0.73674899 16:14.8131 17:1 18:3.5 19:1 20:3.5 #
6.9345487051429251842277201589582e-05 1:0 2:1 3:2.75805 4:1.0226099 5:0.27056199 6:0.48874199 7:2.93185 8:0.90075701 9:2.2927201 10:5.44244 11:84.810997 12:20.535 13:1 14:0.64830899 15:0.890939 16:22.496099 17:0 18:1 19:0 20:1 #
-6.9345487051429251842277201589582e-05 1:-2 2:-2.3333299 3:2.6707001 4:1.4072599 5:1.73876 6:1.83682 7:0.37268999 8:0.22856 9:0.68911701 10:2.5153601 11:89.0765 12:59.4286 13:1 14:0.71442699 15:0.818124 16:23.3972 17:-2 18:-2.3333299 19:-3 20:-59 #
6.9345487051429251842277201589582e-05 1:2 2:-2.875 3:3.4129901 4:8.0949097 5:0.49697801 6:0.849989 7:0.56874698 8:0.48074701 9:0.40319201 10:0.66183001 11:45.3843 12:65.066101 13:1 14:0.86849499 15:0.84375 16:12.869 17:-2 18:-20.0417 19:-3 20:-25.9107 #
6.9345487051429251842277201589582e-05 1:0 2:-1.33333 3:2.0633299 4:0.102138 5:2.02036 6:0.62404901 7:1.3319499 8:0.81291199 9:6.20614 10:2.43782 11:69.500298 12:12.2129 13:1 14:0.886464 15:0.86844498 16:19.014299 17:0 18:-1.33333 19:0 20:-1.33333 #
-6.9345487051429251842277201589582e-05 1:2 2:14.5 3:2.5527599 4:0.75820398 5:0.79869401 6:2.5452399 7:1.8874 8:2.06078 9:2.25459 10:4.1188998 11:71.347198 12:25.5387 13:1 14:0.76934201 15:0.90908098 16:19.4536 17:2 18:14.5 19:2 20:14.5 #
6.9345487051429251842277201589582e-05 1:-2 2:-15.1667 3:1.85742 4:1.1055501 5:2.15451 6:3.53829 7:0.33685201 8:1.31441 9:0.51365602 10:1.39824 11:64.121597 12:65.274399 13:1 14:0.77768302 15:0.79469699 16:17.7073 17:-2 18:-15.1667 19:-2 20:-15.1667 #
-6.9345487051429251842277201589582e-05 1:-2 2:-22.5 3:1.41063 4:0.28128701 5:2.6139801 6:2.47329 7:1.08104 8:0.70370501 9:1.56565 10:3.3173699 11:74.534798 12:16.297701 13:1 14:0.438732 15:0.75229502 16:20.1998 17:-2 18:-22.5 19:1 20:165.16701 #
-6.9345487051429251842277201589582e-05 1:-2 2:11.25 3:2.7485399 4:0.42626101 5:1.3751301 6:0.39982101 7:1.03908 8:2.3106899 9:1.0693099 10:3.4948101 11:79.329498 12:55.555099 13:1 14:0.87229598 15:0.85888398 16:21.2925 17:-2 18:11.25 19:-2 20:11.25 #
6.9345487051429251842277201589582e-05 1:1 2:-7.4166698 3:1.70065 4:1.05435 5:7.8238502 6:0.541372 7:1.40811 8:0.43276501 9:3.3261099 10:3.3261099 11:79.304497 12:28.6192 13:1 14:0.84846002 15:0.73438001 16:21.2869 17:1 18:-7.4166698 19:1 20:-7.4166698 #
-6.9345487051429251842277201589582e-05 1:-2 2:3.5999999 3:2.105 4:1.19288 5:0.226298 6:2.33902 7:2.2130101 8:1.75404 9:2.1247301 10:2.1247301 11:63.575901 12:28.0431 13:1 14:0.89876503 15:0.83230901 16:17.5725 17:1 18:17.6 19:1 20:17.6 #
6.9345487051429251842277201589582e-05 1:3 2:8.5 3:1.56235 4:1.08262 5:2.03039 6:1.60419 7:1.70682 8:1.1081899 9:1.2721 10:1.99259 11:86.795403 12:43.3414 13:0.444444 14:0.533189 15:0.62810999 16:22.919201 17:2 18:-27.5 19:2 20:-27.5 #
-6.9345487051429251842277201589582e-05 1:0 2:0 3:4.2069302 4:2.08901 5:0.111895 6:0.027535999 7:0.105704 8:0.0961833 9:0.079247303 10:0.066846497 11:18.8253 12:84.2929 13:0.66666698 14:0.98814601 15:0.99171197 16:5.4555702 17:0 18:0 19:-1 20:-298 #
-2.9931520540482647874114263686351e-05 1:-1 2:-60 3:1.46637 4:0.31185201 5:0.18462899 6:0.084855802 7:0.127634 8:0.43789801 9:0.114296 10:0.114296 11:16.6472 12:73.361 13:1 14:0.902031 15:0.933451 16:4.8291202 17:-2 18:-75.5 19:-2 20:-75.5 #
-6.9345487051429251842277201589582e-05 1:1 2:12 3:2.78194 4:0.70835799 5:1.0611 6:3.2817299 7:1.79107 8:1.88806 9:4.8224802 10:6.75351 11:87.007301 12:19.4018 13:0.33333299 14:0.84168798 15:0.855223 16:22.964001 17:4 18:62 19:4 20:62 #
6.9345487051429251842277201589582e-05 1:-3 2:-22 3:2.20736 4:0.88921201 5:0.54630101 6:0.63953 7:0.910514 8:0.72445101 9:1.81357 10:0.41023099 11:34.213299 12:40.9132 13:0.66666698 14:0.88104701 15:0.781425 16:9.8124599 17:-4 18:-29.200001 19:-4 20:-29.200001 #
6.9345487051429251842277201589582e-05 1:-3 2:-9 3:4.1698098 4:0.108696 5:1.0426 6:1.31284 7:1.59884 8:0.91900003 9:3.27354 10:3.27354 11:70.911598 12:26.430799 13:1 14:0.920919 15:0.94831902 16:19.350401 17:-3 18:-9 19:-3 20:-9 #
-5.9172563657246008556045424597869e-05 1:-3 2:-10 3:2.4184 4:1.9251601 5:2.4242001 6:4.8643799 7:0.94008899 8:2.1940401 9:5.2929301 10:0.89485401 11:50.0354 12:27.6665 13:0.66666698 14:0.92572999 15:0.89780402 16:14.1073 17:-3 18:-10 19:-3 20:-10 #
-6.9345487051429251842277201589582e-05 1:-2 2:-12 3:3.78567 4:0.56256598 5:1.24156 6:1.39413 7:4.4025798 8:2.31427 9:7.7009501 10:6.4214201 11:89.648399 12:7.6635699 13:0.66666698 14:0.89623398 15:0.90929699 16:23.515499 17:-5 18:-53.599998 19:-6 20:-61.666698 #
6.9345487051429251842277201589582e-05 1:-1 2:-13.6667 3:2.6003001 4:0.498997 5:0.53624302 6:4.62889 7:2.60109 8:1.16089 9:3.0662999 10:0.48645601 11:38.1581 12:13.7699 13:0.66666698 14:0.72214597 15:0.79745501 16:10.904 17:-1 18:-13.6667 19:-1 20:-13.6667 #
6.9345487051429251842277201589582e-05 1:0 2:0 3:1.6446199 4:0.31380299 5:0.47936699 6:0.616795 7:1.78976 8:0.77017897 9:1.96114 10:2.7100101 11:87.006699 12:38.498901 13:0.66666698 14:0.66360599 15:0.78700501 16:22.9639 17:0 18:0 19:-1 20:-55 #
-4.4787434907025502981575693084437e-07 1:0 2:0 3:2.1380701 4:1.15013 5:0.60680401 6:0.222036 7:0.67268801 8:1.27608 9:0.78637999 10:3.66417 11:78.514297 12:67.5914 13:0.66666698 14:0.85043299 15:0.82852203 16:21.109301 17:0 18:0 19:2 20:239.125 #
6.9345487051429251842277201589582e-05 1:-5 2:-26.200001 3:3.6828699 4:0.170314 5:2.30867 6:0.67518097 7:1.33368 8:1.46708 9:1.71753 10:2.12519 11:75.4207 12:86.178398 13:0.66666698 14:0.76310199 15:0.79833299 16:20.4044 17:-5 18:-26.200001 19:-5 20:-26.200001 #
6.9345487051429251842277201589582e-05 1:-4 2:-38.25 3:3.46877 4:0.41916299 5:0.423251 6:3.94572 7:5.9898701 8:1.29155 9:3.1708901 10:9.1913004 11:81.061302 12:52.596298 13:0.66666698 14:0.89402199 15:0.91027099 16:21.6782 17:-8 18:-55.875 19:-11 20:-108.818 #
-5.0594196017391727623370434319128e-05 1:-4 2:-25.5 3:6.2203798 4:0.67227501 5:1.59208 6:1.40385 7:1.19941 8:1.67732 9:0.50379097 10:3.16623 11:83.020203 12:84.454201 13:0.66666698 14:0.83373201 15:0.90855402 16:22.1084 17:-6 18:-42 19:-11 20:-136.72701 #
6.9345487051429251842277201589582e-05 1:1 2:-10.3333 3:2.2539101 4:0.85289299 5:0.41364399 6:0.54407603 7:1.2519799 8:0.91760498 9:1.61746 10:1.90411 11:66.061699 12:33.2463 13:0.444444 14:0.82031798 15:0.85212898 16:18.183399 17:1 18:-10.3333 19:1 20:-10.3333 #
-9.8791882514465134690340164524969e-06 1:-1 2:-10 3:1.99101 4:6.9735298 5:4.1304598 6:2.7205701 7:0.95241499 8:0.405725 9:9.7319803 10:0.84733701 11:48.356201 12:15.6515 13:1 14:0.969212 15:0.80260801 16:13.6628 17:-2 18:-38 19:-2 20:-38 #
-1.5434036382391824737680963153252e-05 1:-1 2:-19 3:4.4766998 4:0.32308 5:1.0068901 6:0.85167998 7:12.1862 8:1.7070301 9:13.3987 10:13.3987 11:84.676903 12:38.152802 13:0.444444 14:0.97428501 15:0.96434999 16:22.4673 17:-2 18:-39.75 19:0 20:66.25 #
6.9345487051429251842277201589582e-05 1:-6 2:-30.0833 3:3.8454199 4:1.4707 5:1.17864 6:0.52690703 7:1.03723 8:0.51102 9:0.97971499 10:0.97971499 11:56.138802 12:66.505798 13:0.444444 14:0.94879901 15:0.89989197 16:15.6965 17:-6 18:-30.0833 19:-6 20:-30.0833 #
-6.9345487051429251842277201589582e-05 1:-1 2:-6 3:2.5018599 4:0.30593601 5:0.92132401 6:0.45529199 7:2.1930101 8:1.04785 9:5.5027299 10:5.5027299 11:87.265503 12:22.612 13:0.66666698 14:0.86613202 15:0.82788998 16:23.018499 17:-1 18:-6 19:-2 20:-129 #
6.9345487051429251842277201589582e-05 1:0 2:-21 3:1.39386 4:1.13691 5:0.76598001 6:1.3391401 7:1.24149 8:1.39713 9:1.82541 10:1.3234 11:55.333599 12:35.9771 13:0.66666698 14:0.89851803 15:0.79911101 16:15.4893 17:0 18:-21 19:0 20:-21 #
-6.9345487051429251842277201589582e-05 1:1 2:-50 3:2.1548901 4:0.27342001 5:0.64477801 6:5.5609002 7:4.6701899 8:1.99608 9:4.0441899 10:4.0441899 11:87.369301 12:29.440901 13:1 14:0.822851 15:0.80865401 16:23.0403 17:-1 18:-56.666698 19:-2 20:-113 #
6.9345487051429251842277201589582e-05 1:3 2:-13.3 3:1.66596 4:1.26568 5:7.1317902 6:1.27141 7:0.58863598 8:0.87598997 9:1.34904 10:1.31312 11:73.317902 12:49.913399 13:1 14:0.47388899 15:0.77812397 16:19.9167 17:2 18:-23.133301 19:2 20:-23.133301 #
-6.9345487051429251842277201589582e-05 1:-3 2:-16.5 3:2.46083 4:1.81336 5:2.8301499 6:1.8619 7:1.80177 8:0.975142 9:2.5102999 10:6.19977 11:79.734497 12:36.341499 13:0.66666698 14:0.82093102 15:0.75633001 16:21.3832 17:-3 18:-16.5 19:-9 20:-122.3 #
-6.9345487051429251842277201589582e-05 1:2 2:15.5 3:5.81319 4:0.49527299 5:2.1770599 6:1.82573 7:3.39325 8:2.13955 9:3.8282499 10:3.41803 11:83.212196 12:37.827999 13:0.66666698 14:0.84902698 15:0.911753 16:22.1502 17:2 18:15.5 19:5 20:102 #
-6.9345487051429251842277201589582e-05 1:1 2:8 3:4.0261402 4:0.497585 5:0.84957999 6:2.72616 7:1.9790699 8:1.91874 9:3.14414 10:5.5378098 11:86.804001 12:31.657499 13:0.33333299 14:0.97553301 15:0.90240401 16:22.921 17:-1 18:-63 19:-3 20:-120 #
6.9345487051429251842277201589582e-05 1:-2 2:-16.3333 3:6.8309102 4:0.255418 5:2.0996699 6:1.37001 7:2.1872101 8:0.64339399 9:3.2863901 10:2.7090199 11:70.573196 12:29.187099 13:0.66666698 14:0.92491698 15:0.88547701 16:19.2701 17:-2 18:-16.3333 19:-2 20:-16.3333 #
-6.9345487051429251842277201589582e-05 1:-1 2:-7 3:3.0927801 4:1.33655 5:0.39807299 6:0.58903098 7:3.3970301 8:1.6964999 9:6.8322401 10:3.3912899 11:72.650703 12:22.387699 13:0.66666698 14:0.871517 15:0.91438901 16:19.760599 17:-2 18:-44.25 19:-6 20:-133 #
6.9345487051429251842277201589582e-05 1:-3 2:-18.75 3:1.50082 4:0.38893199 5:3.8344901 6:0.84863901 7:1.04804 8:1.5590301 9:1.18922 10:1.5318 11:66.201302 12:43.824299 13:1 14:0.89912897 15:0.85629803 16:18.217501 17:-3 18:-18.75 19:-3 20:-18.75 #
-6.9345487051429251842277201589582e-05 1:0 2:0 3:1.79091 4:0.58655602 5:0.69118202 6:0.27302501 7:0.80534297 8:0.415438 9:0.60092998 10:0.63046598 11:43.921101 12:59.2579 13:1 14:0.71178597 15:0.81848001 16:12.475 17:-1 18:-94.5 19:0 20:114.5 #
-6.9345487051429251842277201589582e-05 1:-1 2:-12 3:1.7456599 4:4.8833499 5:2.9492099 6:3.00755 7:1.46588 8:1.31636 9:6.1343699 10:8.7959299 11:79.971497 12:20.287701 13:1 14:0.94978601 15:0.79767799 16:21.4361 17:-1 18:-12 19:0 20:90 #
-6.9345487051429251842277201589582e-05 1:-4 2:-28.25 3:2.8205099 4:0.19339199 5:0.59811902 6:1.05382 7:5.6066098 8:1.88436 9:2.70049 10:4.2693801 11:79.621696 12:44.6035 13:0.444444 14:0.889714 15:0.89434397 16:21.358 17:-4 18:-28.25 19:-8 20:-124.375 #
6.9345487051429251842277201589582e-05 1:-3 2:-18.200001 3:2.9140301 4:0.74300301 5:1.53705 6:2.3415101 7:2.50495 8:0.71184498 9:3.96576 10:3.96576 11:74.0933 12:35.176201 13:1 14:0.95375198 15:0.91060698 16:20.0973 17:-3 18:-18.200001 19:-3 20:-18.200001 #
-6.9345487051429251842277201589582e-05 1:0 2:-54 3:2.2799799 4:0.67359298 5:0.48652801 6:1.9897799 7:1.44251 8:1.1829799 9:2.0901401 10:5.1209102 11:87.804703 12:42.353298 13:0.66666698 14:0.746548 15:0.82155001 16:23.1318 17:-2 18:-62 19:-2 20:-62 #
6.9345487051429251842277201589582e-05 1:-3 2:-13 3:3.4164901 4:1.62879 5:2.45 6:2.3903899 7:1.9862601 8:2.0945499 9:3.2369699 10:2.7569499 11:74.314003 12:43.226501 13:1 14:0.93553901 15:0.90531403 16:20.1486 17:-4 18:-21.700001 19:-4 20:-21.700001 #
-6.8195965210303237380440322112918e-05 1:-1 2:-12 3:2.9481001 4:0.49045101 5:1.02896 6:1.36247 7:2.6166101 8:5.3353701 9:3.2388899 10:4.8765602 11:84.6922 12:29.376301 13:1 14:0.91723597 15:0.87699199 16:22.470501 17:2 18:64.666702 19:2 20:64.666702 #
-6.9345487051429251842277201589582e-05 1:-4 2:36.799999 3:3.03162 4:2.8717101 5:5.4767499 6:0.94340599 7:1.3048199 8:1.55794 9:0.74409401 10:2.1079099 11:71.299896 12:42.4268 13:1 14:0.82378602 15:0.89342499 16:19.4424 17:-4 18:36.799999 19:-4 20:36.799999 #
6.9345487051429251842277201589582e-05 1:-3 2:-21.5 3:1.57581 4:1.14195 5:0.887514 6:3.6349499 7:0.58797002 8:1.00694 9:2.0018101 10:2.0018101 11:63.934898 12:27.763399 13:1 14:0.81893599 15:0.75102103 16:17.6612 17:-3 18:-21.5 19:-3 20:-21.5 #
-6.9345487051429251842277201589582e-05 1:-6 2:-35 3:3.3496101 4:0.19209 5:5.39327 6:6.4212198 7:2.3847001 8:0.79127097 9:3.2030799 10:1.49134 11:61.921902 12:8.3827896 13:1 14:0.71729797 15:0.86828202 16:17.1614 17:-7 18:-39.5714 19:-8 20:-54.125 #
-6.9345487051429251842277201589582e-05 1:-5 2:-27.200001 3:2.9653499 4:0.39182699 5:0.193427 6:1.47455 7:1.10049 8:1.06963 9:1.9838901 10:3.84361 11:77.282402 12:22.621401 13:1 14:0.63349098 15:0.861821 16:20.8304 17:-9 18:-49.888901 19:-9 20:-49.888901 #
6.9345487051429251842277201589582e-05 1:-3 2:-33.666698 3:1.67085 4:1.57656 5:0.87500399 6:1.25368 7:0.69239402 8:0.98677897 9:1.37876 10:0.94450098 11:55.2425 12:38.798801 13:1 14:0.72478002 15:0.72213101 16:15.4658 17:-3 18:-33.666698 19:-3 20:-33.666698 #
6.9345487051429251842277201589582e-05 1:0 2:2 3:5.3088698 4:0.47904801 5:0.70424998 6:1.82499 7:7.1181598 8:3.5183201 9:4.6234102 10:6.04811 11:82.664101 12:13.1924 13:0.66666698 14:0.821464 15:0.946715 16:22.030701 17:-2 18:-44 19:-2 20:-44 #
6.9345487051429251842277201589582e-05 1:-1 2:-28 3:1.76387 4:2.17489 5:2.0047901 6:1.02666 7:1.59167 8:3.3908899 9:4.1221399 10:13.4904 11:81.390701 12:15.5361 13:0.66666698 14:0.81227899 15:0.82480901 16:21.750999 17:-1 18:-28 19:-1 20:-28 #
-6.9345487051429251842277201589582e-05 1:-2 2:-17.5 3:1.75091 4:0.88363898 5:2.7795401 6:1.63427 7:1.103 8:1.94953 9:1.48713 10:2.2458401 11:67.476799 12:31.220699 13:0.66666698 14:0.748079 15:0.75077701 16:18.527399 17:-4 18:-53.625 19:-9 20:-97.833298 #
6.9345487051429251842277201589582e-05 1:-4 2:-28 3:1.67469 4:0.984882 5:1.4304301 6:0.51359099 7:2.16291 8:1.8708 9:2.1470301 10:1.78373 11:64.404198 12:33.597698 13:0.66666698 14:0.853414 15:0.81542999 16:17.777 17:-4 18:-28 19:-4 20:-28 #
6.9345487051429251842277201589582e-05 1:-1 2:-10 3:2.50702 4:0.500902 5:0.57674998 6:5.3202701 7:3.6220801 8:2.31423 9:3.28914 10:3.2716701 11:82.017197 12:39.638901 13:0.444444 14:0.93712503 15:0.83686602 16:21.888901 17:-3 18:-63 19:-3 20:-63 #
-6.9345487051429251842277201589582e-05 1:-2 2:-28.6667 3:1.87967 4:0.48022801 5:0.702483 6:1.87137 7:1.35671 8:3.60515 9:2.4444499 10:3.5855899 11:78.099098 12:35.844299 13:0.66666698 14:0.85259199 15:0.77317297 16:21.0156 17:-2 18:-28.6667 19:-4 20:-87.199997 #
6.9345487051429251842277201589582e-05 1:-6 2:-28.0833 3:2.5678799 4:0.42334199 5:0.254271 6:1.94656 7:1.16831 8:0.80644703 9:1.15657 10:1.85181 11:76.230698 12:78.597298 13:0.66666698 14:0.60492998 15:0.77463597 16:20.590401 17:-7 18:-32.785702 19:-7 20:-32.785702 #
-1.9125219534017745548482025697012e-05 1:-1 2:-56.5 3:2.9577899 4:0.36785901 5:0.88462102 6:2.87427 7:1.36274 8:1.7460001 9:1.3845 10:2.07974 11:84.564301 12:63.873299 13:0.66666698 14:0.919833 15:0.812002 16:22.443001 17:-3 18:-64 19:-3 20:-64 #
-6.9345487051429251842277201589582e-05 1:2 2:36.333302 3:1.71541 4:0.71839702 5:1.36151 6:1.22989 7:3.16903 8:1.21831 9:7.0604701 10:4.4647899 11:89.607399 12:12.7454 13:1 14:0.88685697 15:0.75868702 16:23.507099 17:2 18:36.333302 19:2 20:36.333302 #
6.9345487051429251842277201589582e-05 1:-1 2:-40.5 3:3.6380899 4:0.56186199 5:0.652888 6:2.5708499 7:1.85154 8:0.42451999 9:2.88814 10:2.79877 11:71.208199 12:39.4254 13:1 14:0.82834297 15:0.91375101 16:19.4207 17:-4 18:-55.599998 19:-4 20:-55.599998 #
6.9345487051429251842277201589582e-05 1:-1 2:-12 3:2.6478701 4:0.59682697 5:0.40615699 6:0.97172999 7:0.79940403 8:3.7872601 9:6.5264301 10:3.7555001 11:78.947197 12:11.2533 13:0.444444 14:0.87331599 15:0.90190703 16:21.2068 17:-2 18:-24.6667 19:-2 20:-24.6667 #
-6.7764728550327431397942712365534e-05 1:1 2:4.5 3:1.90525 4:0.39445299 5:1.6895 6:0.77973902 7:2.67542 8:3.33957 9:3.76056 10:4.1306701 11:76.146896 12:28.5856 13:0.66666698 14:0.89290601 15:0.81361002 16:20.571199 17:-1 18:-66.25 19:0 20:79 #
-6.9345487051429251842277201589582e-05 1:0 2:-54 3:1.98728 4:0.227143 5:0.169083 6:0.88321298 7:1.9532 8:1.11156 9:2.17945 10:3.1414199 11:86.889999 12:42.0042 13:0.444444 14:0.89161199 15:0.85680401 16:22.939199 17:-1 18:-62 19:-1 20:-62 #
-6.6901865223442387019953114801751e-05 1:-6 2:-39.166698 3:2.4036801 4:0.49913901 5:1.16752 6:1.55038 7:5.7272801 8:4.5040302 9:10.3852 10:10.3852 11:79.2686 12:10.8459 13:0.444444 14:0.96576202 15:0.91439599 16:21.2789 17:-7 18:-43.285702 19:-11 20:-70.181801 #
6.9345487051429251842277201589582e-05 1:-6 2:-32 3:3.0223999 4:0.072784103 5:1.32438 6:1.36832 7:3.46996 8:0.86998397 9:2.7670701 10:3.6842699 11:77.684303 12:59.483898 13:0.66666698 14:0.882855 15:0.91036999 16:20.9217 17:-6 18:-32 19:-6 20:-32 #
-6.9345487051429251842277201589582e-05 1:-4 2:-26.4 3:2.99226 4:0.91098398 5:1.03346 6:0.24169201 7:0.439735 8:0.40495101 9:0.33500201 10:0.334656 11:36.076199 12:79.313904 13:0.66666698 14:0.94313598 15:0.91535699 16:10.3294 17:-4 18:-26.4 19:-8 20:-120.222 #
6.9345487051429251842277201589582e-05 1:0 2:-30 3:2.72241 4:1.3588901 5:0.60270798 6:2.9135799 7:3.4198999 8:1.36255 9:9.6160698 10:9.6160698 11:85.981598 12:12.1623 13:1 14:0.91575098 15:0.86183602 16:22.7465 17:0 18:-30 19:0 20:-30 #
6.9345487051429251842277201589582e-05 1:-1 2:-9.75 3:2.4786 4:0.40246201 5:1.29822 6:2.03251 7:0.91030002 8:1.13388 9:1.77307 10:1.77307 11:63.695 12:33.6306 13:1 14:0.85556698 15:0.88859701 16:17.601999 17:-5 18:-51.916698 19:-5 20:-51.916698 #
-4.4929830812684250218591586190087e-05 1:0 2:-52 3:2.90714 4:0.143401 5:0.89433599 6:2.5632801 7:4.6038699 8:2.68944 9:8.3303003 10:8.3303003 11:89.667099 12:31.071699 13:0.33333299 14:0.91830498 15:0.91613603 16:23.5194 17:-2 18:-60.666698 19:-2 20:-60.666698 #
-6.7114788308526157623035146571056e-05 1:0 2:-1 3:2.57495 4:0.27715299 5:0.509848 6:2.1451299 7:3.7586601 8:3.22174 9:4.89569 10:4.0289202 11:89.122101 12:8.08706 13:0.444444 14:0.80339599 15:0.842749 16:23.406601 17:-2 18:-49.333302 19:-2 20:-49.333302 #
6.9345487051429251842277201589582e-05 1:-5 2:-34 3:5.2477698 4:1.09595 5:3.7623401 6:0.785164 7:0.66900098 8:0.903763 9:5.7209101 10:5.7209101 11:80.718803 12:47.0452 13:1 14:0.92139697 15:0.93442398 16:21.602301 17:-5 18:-34 19:-5 20:-34 #
-6.9345487051429251842277201589582e-05 1:-1 2:-43 3:2.24037 4:0.61378002 5:1.68312 6:1.43979 7:3.3726201 8:2.0383501 9:3.29247 10:4.7035699 11:87.720802 12:32.662701 13:0.33333299 14:0.88040698 15:0.80747998 16:23.114201 17:-3 18:-50.5 19:-3 20:-50.5 #
-6.9345487051429251842277201589582e-05 1:-3 2:-27.3333 3:2.9595699 4:0.16353001 5:0.88668698 6:2.72525 7:2.13393 8:1.4484299 9:6.4657602 10:6.4657602 11:87.179703 12:24.419201 13:0.66666698 14:0.87436402 15:0.88835001 16:23.000401 17:-6 18:-49.333302 19:-6 20:-49.333302 #
6.9345487051429251842277201589582e-05 1:-4 2:-23.5 3:3.0194099 4:0.174062 5:1.11256 6:2.9510701 7:1.54065 8:0.92914402 9:3.05829 10:3.04182 11:77.466301 12:42.362202 13:0.33333299 14:0.92036903 15:0.86838198 16:20.8722 17:-6 18:-38.333302 19:-6 20:-38.333302 #
-2.5804688622296486147367211572146e-05 1:1 2:10 3:2.7042201 4:0.69869298 5:0.36540499 6:0.63819301 7:2.6526201 8:1.32534 9:1.18241 10:1.57979 11:76.945198 12:78.040199 13:1 14:0.77147698 15:0.74888802 16:20.7537 17:-1 18:-61.5 19:1 20:89.5 #
6.9345487051429251842277201589582e-05 1:-6 2:-30.5 3:2.2272401 4:0.341019 5:1.85281 6:8.36098 7:2.0460999 8:1.0146 9:3.69502 10:3.69502 11:84.182602 12:39.3386 13:0.66666698 14:0.90214199 15:0.82397997 16:22.360701 17:-7 18:-35.857101 19:-10 20:-92.699997 #
-2.3918864856475874347552235121839e-05 1:0 2:-7.5 3:1.35302 4:3.2253399 5:0.67633498 6:0.81206298 7:0.42533699 8:0.634229 9:0.56788999 10:0.56788999 11:45.501301 12:49.447201 13:0.66666698 14:0.95850098 15:0.96019202 16:12.9005 17:0 18:-7.5 19:-2 20:-118 #
6.9345487051429251842277201589582e-05 1:-3 2:-24 3:3.07002 4:1.40771 5:0.30832499 6:1.9564199 7:2.0606999 8:1.04836 9:3.3931201 10:2.3524699 11:85.343803 12:14.29 13:0.66666698 14:0.75611299 15:0.823044 16:22.610399 17:-3 18:-24 19:-3 20:-24 #
-6.9345487051429251842277201589582e-05 1:-4 2:-27.200001 3:3.1540799 4:0.43627101 5:0.33943701 6:2.99546 7:1.25161 8:1.31911 9:4.3917198 10:5.9418602 11:86.266098 12:28.4079 13:1 14:0.89217901 15:0.91443598 16:22.806999 17:-4 18:-27.200001 19:-4 20:-27.200001 #
6.9345487051429251842277201589582e-05 1:-5 2:-29.200001 3:2.03406 4:0.82829797 5:0.54389203 6:1.95058 7:0.719064 8:0.69054002 9:4.1284099 10:4.1284099 11:86.100304 12:6.39396 13:0.66666698 14:0.766473 15:0.781699 16:22.771799 17:-5 18:-29.200001 19:-6 20:-72.666702 #
-6.9345487051429251842277201589582e-05 1:-5 2:-29.6 3:2.03439 4:2.52391 5:1.6163501 6:0.88787699 7:0.83879298 8:1.762 9:3.51947 10:3.51947 11:84.740799 12:8.8218899 13:1 14:0.73027003 15:0.82430601 16:22.481001 17:-6 18:-36.333302 19:-6 20:174.571 #
-6.9345487051429251842277201589582e-05 1:-7 2:-28.8571 3:2.8071101 4:0.286971 5:0.64405 6:1.0419101 7:1.6525199 8:0.660797 9:1.31599 10:1.31599 11:63.8596 12:58.459801 13:1 14:0.84307498 15:0.78992599 16:17.642599 17:-7 18:-28.8571 19:-8 20:-60 #
-6.9345487051429251842277201589582e-05 1:-2 2:-38 3:5.2009702 4:3.8401799 5:2.1413701 6:6.77596 7:1.58416 8:0.452025 9:6.7523699 10:5.9809299 11:83.954102 12:22.904301 13:1 14:0.97371203 15:0.93765998 16:22.3113 17:-2 18:-38 19:-1 20:148 #
-5.4605935002338679140621024998836e-05 1:-5 2:-7.5 3:1.52482 4:0.23140401 5:0.42108601 6:1.05958 7:1.77992 8:0.78741199 9:2.7882299 10:2.7882299 11:72.465599 12:20.0446 13:1 14:0.80166399 15:0.834598 16:19.7171 17:-6 18:-12.7143 19:-6 20:-12.7143 #
-3.8269973172563105830168428411753e-05 1:0 2:0 3:2.2772701 4:0.37616 5:4.43571 6:9.3251495 7:0.72256398 8:0.35542199 9:2.6987801 10:2.6987801 11:76.141403 12:45.161098 13:1 14:0.91799998 15:0.83360302 16:20.57 17:0 18:0 19:1 20:162 #
-3.4905529970367075998094463784582e-05 1:-7 2:-27.2857 3:3.5990701 4:0.38397899 5:0.52067602 6:0.54305798 7:0.14740001 8:0.140781 9:0.249043 10:0.19606 11:28.1602 12:72.338699 13:0.444444 14:0.957941 15:0.949844 16:8.1154003 17:-8 18:-32.3125 19:-8 20:-32.3125 #
-3.2109479803837936984223233594093e-05 1:-3 2:-36 3:2.01878 4:0.693084 5:1.55979 6:1.23238 7:2.51967 8:1.78213 9:33.2393 10:2.19908 11:68.084602 12:5.1456299 13:0.444444 14:0.98192102 15:0.85740298 16:18.674299 17:-4 18:-43.5 19:-5 20:-82.400002 #
-1.6186845597995769274746180599323e-06 1:1 2:-3 3:14.2122 4:0.0358386 5:0.113117 6:0.066374399 7:0.19568799 8:0.25477701 9:0.102667 10:0.0556789 11:18.347099 12:78.1231 13:0.66666698 14:0.99338698 15:0.999336 16:5.3182001 17:1 18:-3 19:1 20:-3 #
-6.9345487051429251842277201589582e-05 1:-6 2:-29.8333 3:1.60693 4:0.542063 5:1.76642 6:1.10859 7:0.90043199 8:1.18476 9:2.0041599 10:1.24237 11:59.0746 12:29.946899 13:0.33333299 14:0.655967 15:0.75958103 16:16.4454 17:-6 18:-29.8333 19:-6 20:-29.8333 #
-5.3844378732487152561247967241798e-06 1:-5 2:-29.799999 3:2.05568 4:0.88073301 5:0.66364902 6:2.7476699 7:0.97310603 8:1.43654 9:3.22033 10:3.0780399 11:69.812897 12:20.3948 13:0.66666698 14:0.86885899 15:0.835778 16:19.089001 17:-5 18:-29.799999 19:-5 20:-29.799999 #
-3.4051912160409925078852211299818e-06 1:0 2:0 3:1.85088 4:2.09074 5:3.02426 6:6.0528498 7:2.5199101 8:0.29598001 9:8.8027897 10:4.3892002 11:73.275101 12:17.913099 13:1 14:0.99162602 15:0.92255801 16:19.9067 17:0 18:0 19:0 20:0 #
-3.9053654754539479654340539127588e-10 1:-6 2:-10.375 3:2.05481 4:0.242917 5:0.37707299 6:0.57270098 7:1.69046 8:0.69491303 9:2.9882801 10:2.9882801 11:68.067497 12:22.3414 13:0.444444 14:0.86933202 15:0.719616 16:18.670099 17:-6 18:-10.375 19:-8 20:-29.200001 #
-6.203894904612070743121776672524e-05 1:1 2:2 3:4.5676098 4:2.0965199 5:1.0191801 6:5.23803 7:0.77802598 8:0.233441 9:2.0980799 10:2.68907 11:81.550003 12:42.635502 13:1 14:0.80298603 15:0.85611099 16:21.7861 17:1 18:2 19:1 20:2 #
-5.4304996033663344157105257181684e-05 1:-1 2:-16 3:11.6363 4:0.047892999 5:0.095669001 6:0.174022 7:0.37675601 8:0.104426 9:0.282859 10:0.058575101 11:18.436501 12:75.0084 13:0.66666698 14:0.86606902 15:0.99717402 16:5.3438902 17:-1 18:-16 19:-1 20:-16 #
-4.3517513518886996592982541187666e-05 1:0 2:0 3:1.8149101 4:0.20230401 5:0.217545 6:1.35323 7:0.201418 8:0.16774 9:0.17172 10:0.17172 11:19.1763 12:77.098198 13:0.66666698 14:0.92673099 15:0.89261901 16:5.5563502 17:-1 18:-82 19:-2 20:-182 #
-3.3064948081402468788719817283095e-08 1:3 2:46.833302 3:2.2349801 4:0.211895 5:5.7793899 6:6.4728398 7:4.29597 8:1.5808901 9:7.82161 10:6.2796698 11:79.610397 12:23.8601 13:0.66666698 14:0.93397099 15:0.880054 16:21.3554 17:3 18:-45.375 19:1 20:-113.708 #
-1.2803756796546904295208690882646e-05 1:-1 2:-9 3:2.88221 4:0.65747702 5:8.5011396 6:4.2291398 7:1.04899 8:0.74114197 9:4.9156599 10:17.8176 11:88.600998 12:22.891399 13:1 14:0.94275999 15:0.91065902 16:23.2983 17:-1 18:-9 19:-1 20:-9 #
-2.231908393029643976833951979355e-05 1:-1 2:-54 3:1.67348 4:0.32661301 5:0.36512899 6:0.067832902 7:0.175303 8:0.41434801 9:0.16413499 10:0.16413499 11:18.4263 12:76.262802 13:1 14:0.89377397 15:0.895666 16:5.34095 17:-1 18:-54 19:0 20:230 #
-4.2376581415009672432203657876926e-07 1:0 2:0 3:2.5773599 4:0.41670299 5:0.68097597 6:0.28671199 7:0.118997 8:0.193968 9:0.12601 10:0.143537 11:21.7428 12:80.148399 13:0.66666698 14:0.96725303 15:0.93780899 16:6.2916002 17:-1 18:-90 19:-2 20:-184 #
-8.051353429171401404704916382471e-06 1:1 2:6 3:4.4672699 4:0.97086197 5:1.04286 6:2.09549 7:12.4252 8:2.9061401 9:27.1898 10:27.1898 11:84.555496 12:18.6276 13:0.66666698 14:0.993312 15:0.95897001 16:22.441099 17:-1 18:-62 19:-1 20:-62 #
-1.2318584168228424724489400432503e-06 1:0 2:0 3:1.99703 4:12.5138 5:0.376358 6:0.209997 7:0.73350102 8:1.14847 9:0.592049 10:2.2920401 11:89.489098 12:74.059502 13:0.66666698 14:0.50434297 15:0.75519502 16:23.482599 17:0 18:0 19:0 20:0 #
-3.1680360831616398431531678170359e-07 1:0 2:0 3:1.88083 4:0.54569799 5:0.13560399 6:2.5913501 7:1.4975801 8:0.54652297 9:2.04037 10:2.4756899 11:73.287498 12:35.895199 13:1 14:0.856502 15:0.80277401 16:19.909599 17:-1 18:-66 19:-2 20:171.33299 #
-1.786772847833795196947903605178e-05 1:0 2:0 3:3.0290101 4:0.43895 5:0.54704201 6:1.01459 7:0.28747401 8:0.398139 9:0.249 10:0.21278501 11:30.2971 12:69.133904 13:0.444444 14:0.98865598 15:0.95982403 16:8.7173204 17:0 18:0 19:10 20:160.60001 #
-1.4582267966930942751369038035136e-05 1:0 2:0 3:3.4210999 4:0.707546 5:2.6563599 6:1.78677 7:0.55817503 8:0.53491998 9:0.65114099 10:0.95904797 11:53.588799 12:74.5457 13:0.66666698 14:0.883699 15:0.85018098 16:15.0377 17:0 18:0 19:6 20:227 #
-3.4678193731712757146744751865497e-07 1:0 2:0 3:2.2288101 4:3.9806199 5:1.1977299 6:1.33046 7:0.45716199 8:0.27330101 9:0.715653 10:0.356861 11:22.8519 12:75.073601 13:0.66666698 14:0.74394798 15:0.72454798 16:6.6083698 17:-1 18:-96 19:6 20:76.428596 #
-6.9345476022615593070241857276415e-05 1:-3 2:-26.6667 3:2.4324 4:0.44226301 5:0.473616 6:3.2123301 7:0.85939401 8:0.50826299 9:2.5917699 10:2.5917699 11:77.438103 12:40.2514 13:1 14:0.83357102 15:0.78177798 16:20.865801 17:-3 18:-26.6667 19:-3 20:-26.6667 #
-2.0166696497360995989512472137406e-06 1:-2 2:12.3333 3:2.9653101 4:0.0646194 5:0.28292 6:0.090192497 7:0.111572 8:0.21753301 9:0.139457 10:0.081413403 11:19.597799 12:76.165901 13:0.66666698 14:0.90389597 15:0.98356903 16:5.67731 17:-2 18:12.3333 19:7 20:165.433 #
-1.0641386619762173947056904665942e-07 1:0 2:0 3:1.60127 4:4.6925502 5:1.37102 6:0.53969097 7:0.498703 8:0.63496703 9:0.48593301 10:0.48593301 11:39.753899 12:52.4268 13:0.66666698 14:0.85082698 15:0.88008797 16:11.3419 17:0 18:0 19:1 20:280 #
-1.8345239830707012456539883871187e-08 1:0 2:40 3:3.59286 4:0.307466 5:2.0176599 6:2.16716 7:4.52841 8:4.40696 9:35.264599 10:3.0908699 11:68.740997 12:4.6519399 13:0.33333299 14:0.98062199 15:0.94931102 16:18.8323 17:0 18:40 19:-1 20:-51.666698 #
-3.1445936566482091123475584026892e-10 1:-3 2:-22 3:8.4397697 4:0.33231601 5:0.69426298 6:0.33560601 7:0.119801 8:0.048877701 9:0.18350001 10:0.27666301 11:33.773201 12:85.5355 13:0.66666698 14:0.99549103 15:0.93255198 16:9.68993 17:-3 18:-22 19:-7 20:-108.857 #
-1.2767358594824307349568925928907e-06 1:-3 2:8.25 3:4.6550398 4:1.74237 5:0.54284197 6:0.59298003 7:4.7419 8:2.5394599 9:31.468901 10:7.94168 11:81.883598 12:16.103399 13:1 14:0.98472601 15:0.94933599 16:21.8596 17:-3 18:8.25 19:-3 20:8.25 #
-3.1427878619163910917794213517595e-07 1:2 2:14 3:5.3993402 4:0.97496903 5:0.488711 6:0.407051 7:0.57883698 8:0.13377699 9:0.28936601 10:0.25189301 11:33.8321 12:61.959702 13:0.444444 14:0.93054599 15:0.97359502 16:9.7063198 17:5 18:47.666698 19:-2 20:-164.33299 #
-2.5794599688520186697715530499408e-05 1:-4 2:-13.2 3:1.36777 4:0.430783 5:1.10778 6:0.308983 7:1.4537801 8:0.68844199 9:0.74822301 10:0.74822301 11:52.292198 12:76.939598 13:1 14:0.83568197 15:0.75376701 16:14.6998 17:-1 18:40.299999 19:-1 20:40.299999 #
-9.4192700393069817010882616159506e-06 1:2 2:-8 3:12.5141 4:0.48398399 5:1.27426 6:0.376948 7:0.392883 8:0.201075 9:0.461355 10:0.377009 11:40.123501 12:82.895203 13:0.66666698 14:0.628039 15:0.95652598 16:11.4431 17:2 18:-8 19:2 20:-8 #
-9.7530325775168611532469579300519e-07 1:0 2:0 3:1.55949 4:19.974899 5:1.5751899 6:0.60600197 7:0.414029 8:0.491734 9:0.43478999 10:0.46440199 11:38.550701 12:85.281898 13:0.66666698 14:0.87738198 15:0.83923399 16:11.0119 17:0 18:0 19:0 20:0 #
-1.1285752595953138325695101415458e-06 1:0 2:-26.5 3:1.93874 4:1.69443 5:1.74016 6:0.69705498 7:0.66724002 8:0.56825 9:0.668706 10:0.668706 11:48.010399 12:77.790001 13:1 14:0.83898503 15:0.83737499 16:13.5709 17:0 18:-26.5 19:-6 20:-135.125 #
